519 200
aar -5.949680328 -9.712142944 5.178807735 7.938175201 7.433888435 -0.131326914 -0.433406591 -0.691544473 5.581675529 -5.996608734 -12.350937843 9.706578255 1.978980303 -8.590541840 4.891515255 13.375649452 1.862458348 0.700823665 15.552004814 10.854186058 9.655558586 -3.001582623 -6.288918018 7.016017914 -12.651435852 -0.516780913 1.766569853 5.690332890 -1.520440817 13.351722717 -5.037741661 -11.769655228 -8.018919945 9.555367470 10.032073975 -1.036797762 -2.425745487 13.410579681 -14.214366913 5.484686852 -7.774217606 5.551696301 1.853582859 -7.346749783 1.856061220 -6.032118320 3.268197060 -0.150138497 1.874709845 -3.180102825 4.424089909 -4.651343346 5.155779362 -12.587522507 7.725325108 -3.206232071 -8.274569511 15.456475258 -3.689307213 -17.661279678 10.271800995 13.618421555 0.053097963 -11.171031952 0.296792746 5.097377777 5.326255798 6.138167381 -15.249639511 -1.193450451 -3.735776424 -3.591843128 -9.661005020 -9.340459824 19.151147842 -5.469890594 0.352531523 3.841698647 -6.554835796 0.413120538 5.877637863 8.023256302 4.902180195 4.216993332 0.349100709 5.262707710 -6.781835079 2.082862377 -4.956693649 2.087431431 -1.155442119 6.096694469 -3.830368996 3.788897991 -1.097212791 -5.403557777 4.146397114 -6.102493763 7.773189545 14.319675446 -5.949680328 -9.712142944 5.178807735 7.938175201 7.433888435 -0.131326914 -0.433406591 -0.691544473 5.581675529 -5.996608734 -12.350937843 9.706578255 1.978980303 -8.590541840 4.891515255 13.375649452 1.862458348 0.700823665 15.552004814 10.854186058 9.655558586 -3.001582623 -6.288918018 7.016017914 -12.651435852 -0.516780913 1.766569853 5.690332890 -1.520440817 13.351722717 -5.037741661 -11.769655228 -8.018919945 9.555367470 10.032073975 -1.036797762 -2.425745487 13.410579681 -14.214366913 5.484686852 -7.774217606 5.551696301 1.853582859 -7.346749783 1.856061220 -6.032118320 3.268197060 -0.150138497 1.874709845 -3.180102825 4.424089909 -4.651343346 5.155779362 -12.587522507 7.725325108 -3.206232071 -8.274569511 15.456475258 -3.689307213 -17.661279678 10.271800995 13.618421555 0.053097963 -11.171031952 0.296792746 5.097377777 5.326255798 6.138167381 -15.249639511 -1.193450451 -3.735776424 -3.591843128 -9.661005020 -9.340459824 19.151147842 -5.469890594 0.352531523 3.841698647 -6.554835796 0.413120538 5.877637863 8.023256302 4.902180195 4.216993332 0.349100709 5.262707710 -6.781835079 2.082862377 -4.956693649 2.087431431 -1.155442119 6.096694469 -3.830368996 3.788897991 -1.097212791 -5.403557777 4.146397114 -6.102493763 7.773189545 14.319675446
abe -6.949680328 -9.712142944 5.877996922 7.968236923 7.433888435 -1.087459207 -1.433406591 -0.888367891 5.936434269 -6.406348705 -11.736059189 10.385548592 2.000620365 -8.699424744 4.938762188 14.375649452 1.179631710 0.690950990 15.040012360 10.424483299 9.606825829 -2.577820778 -6.751553535 6.016017914 -13.651435852 -1.009691596 1.339511871 5.387814522 -1.922636509 14.340900421 -5.985843658 -11.449576378 -7.065285206 10.509543419 9.465102196 -1.637603283 -2.179345846 12.457989693 -13.214366913 5.126448631 -7.887105942 5.989452839 2.036412716 -7.737934589 2.856061220 -5.982503891 4.268197060 -0.971202016 0.874709845 -2.180102825 5.380220890 -4.211656570 4.155779362 -13.115551949 8.725324631 -2.769831896 -7.743413925 14.840193748 -4.689307213 -18.661279678 10.653407097 13.723540306 -0.655876875 -11.727618217 -0.703207254 4.097377777 5.213884830 5.287406445 -14.249639511 -1.543332338 -4.296054840 -4.591843128 -10.500381470 -10.340459824 19.473566055 -6.014521599 -0.447723120 3.841698647 -5.554835796 -0.459165901 5.927252293 7.932827950 4.557120323 4.486822605 -0.640424192 5.900162697 -6.030043125 3.055151463 -4.299313545 1.922894835 -2.151407242 7.047981739 -3.826546431 3.542279959 -2.097212791 -5.591490746 4.191705227 -6.941947937 7.449785709 13.998044968 -6.949680328 -9.712142944 5.877996922 7.968236923 7.433888435 -1.087459207 -1.433406591 -0.888367891 5.936434269 -6.406348705 -11.736059189 10.385548592 2.000620365 -8.699424744 4.938762188 14.375649452 1.179631710 0.690950990 15.040012360 10.424483299 9.606825829 -2.577820778 -6.751553535 6.016017914 -13.651435852 -1.009691596 1.339511871 5.387814522 -1.922636509 14.340900421 -5.985843658 -11.449576378 -7.065285206 10.509543419 9.465102196 -1.637603283 -2.179345846 12.457989693 -13.214366913 5.126448631 -7.887105942 5.989452839 2.036412716 -7.737934589 2.856061220 -5.982503891 4.268197060 -0.971202016 0.874709845 -2.180102825 5.380220890 -4.211656570 4.155779362 -13.115551949 8.725324631 -2.769831896 -7.743413925 14.840193748 -4.689307213 -18.661279678 10.653407097 13.723540306 -0.655876875 -11.727618217 -0.703207254 4.097377777 5.213884830 5.287406445 -14.249639511 -1.543332338 -4.296054840 -4.591843128 -10.500381470 -10.340459824 19.473566055 -6.014521599 -0.447723120 3.841698647 -5.554835796 -0.459165901 5.927252293 7.932827950 4.557120323 4.486822605 -0.640424192 5.900162697 -6.030043125 3.055151463 -4.299313545 1.922894835 -2.151407242 7.047981739 -3.826546431 3.542279959 -2.097212791 -5.591490746 4.191705227 -6.941947937 7.449785709 13.998044968
abk -7.767393112 -9.443369865 5.381600857 1.271553516 7.887519836 -0.280248582 1.999702096 4.936427116 2.336405516 -11.121757507 -15.921069145 16.874738693 -0.656804204 -11.245615959 3.022197485 11.252040863 3.218623877 1.450915456 15.198446274 9.703285217 5.012105465 1.262843132 -8.726121902 10.393441200 -14.326944351 0.813115120 1.985896111 4.950372696 1.926581502 9.425437927 -1.027971029 -11.415193558 -6.015987873 11.081208229 7.073220253 -5.188299179 0.857217431 17.251432419 -15.593601227 7.183656693 -12.706327438 4.871221542 0.671652079 -6.613559246 -2.734454632 -4.478802204 3.260155201 1.869995356 1.333360791 -5.726756096 1.714208722 0.368353039 4.938961506 -12.185749054 10.164637566 -6.513159275 -8.083375931 16.257108688 -3.949084044 -14.112447739 8.765044212 13.536803246 0.873905659 -10.778751373 0.945221901 5.714873791 3.315332651 7.393637657 -11.240511894 -3.826837778 -1.767915845 -1.554286838 -11.884037018 -8.438802719 22.758970261 -5.767408371 1.764083147 -0.926388443 -5.822863579 3.131493807 2.938958645 3.445110083 7.210733891 3.074594736 5.869445324 4.978849411 -5.343945026 -1.558888435 -2.732073307 0.843123257 -5.361541271 5.051640511 -3.439524174 1.693204403 4.625757217 -2.928166389 1.543515086 -7.678304672 4.566903591 18.329545975 -7.767393112 -9.443369865 5.381600857 1.271553516 7.887519836 -0.280248582 1.999702096 4.936427116 2.336405516 -11.121757507 -15.921069145 16.874738693 -0.656804204 -11.245615959 3.022197485 11.252040863 3.218623877 1.450915456 15.198446274 9.703285217 5.012105465 1.262843132 -8.726121902 10.393441200 -14.326944351 0.813115120 1.985896111 4.950372696 1.926581502 9.425437927 -1.027971029 -11.415193558 -6.015987873 11.081208229 7.073220253 -5.188299179 0.857217431 17.251432419 -15.593601227 7.183656693 -12.706327438 4.871221542 0.671652079 -6.613559246 -2.734454632 -4.478802204 3.260155201 1.869995356 1.333360791 -5.726756096 1.714208722 0.368353039 4.938961506 -12.185749054 10.164637566 -6.513159275 -8.083375931 16.257108688 -3.949084044 -14.112447739 8.765044212 13.536803246 0.873905659 -10.778751373 0.945221901 5.714873791 3.315332651 7.393637657 -11.240511894 -3.826837778 -1.767915845 -1.554286838 -11.884037018 -8.438802719 22.758970261 -5.767408371 1.764083147 -0.926388443 -5.822863579 3.131493807 2.938958645 3.445110083 7.210733891 3.074594736 5.869445324 4.978849411 -5.343945026 -1.558888435 -2.732073307 0.843123257 -5.361541271 5.051640511 -3.439524174 1.693204403 4.625757217 -2.928166389 1.543515086 -7.678304672 4.566903591 18.329545975
abq -6.255506516 -9.569915771 4.178807735 8.652189255 8.433888435 0.579753518 -0.028268665 -1.525153637 6.581675529 -6.600851536 -13.064598083 8.783168793 1.619972944 -9.538938522 4.910895348 14.080359459 2.185128212 1.547273874 14.552004814 11.514993668 9.503664017 -2.762243271 -6.610445499 6.416889191 -13.651435852 -0.752053201 2.360272884 4.993558407 -2.520440817 13.069858551 -4.477495193 -12.755965233 -8.715694427 9.605392456 10.115675926 -1.560551405 -3.306344986 13.471016884 -13.517592430 6.162023067 -7.737715244 5.996249676 2.705728769 -7.614221096 2.511761904 -7.032118320 2.945290804 -0.229810059 2.678997278 -2.591929674 4.174263000 -5.166558266 4.272681236 -12.862855911 8.725324631 -3.326539278 -8.257362366 16.444295883 -4.689307213 -18.661279678 9.675591469 12.618421555 -0.466805577 -11.538072586 1.166093349 5.134979248 4.648919582 5.992380619 -15.127573967 -2.193450451 -2.741425753 -3.585146189 -9.553137779 -9.932681084 19.196290970 -4.469890594 1.352531552 3.144924402 -7.202702045 -0.586879492 5.537568092 9.023256302 5.218577862 3.336393833 1.349100709 5.037546158 -5.889782429 1.405526042 -5.956693649 2.329622746 -2.155442238 6.428262711 -3.530380964 3.514749765 -0.415380180 -6.245281219 4.276785851 -6.799268246 7.605261803 14.757005692 -6.255506516 -9.569915771 4.178807735 8.652189255 8.433888435 0.579753518 -0.028268665 -1.525153637 6.581675529 -6.600851536 -13.064598083 8.783168793 1.619972944 -9.538938522 4.910895348 14.080359459 2.185128212 1.547273874 14.552004814 11.514993668 9.503664017 -2.762243271 -6.610445499 6.416889191 -13.651435852 -0.752053201 2.360272884 4.993558407 -2.520440817 13.069858551 -4.477495193 -12.755965233 -8.715694427 9.605392456 10.115675926 -1.560551405 -3.306344986 13.471016884 -13.517592430 6.162023067 -7.737715244 5.996249676 2.705728769 -7.614221096 2.511761904 -7.032118320 2.945290804 -0.229810059 2.678997278 -2.591929674 4.174263000 -5.166558266 4.272681236 -12.862855911 8.725324631 -3.326539278 -8.257362366 16.444295883 -4.689307213 -18.661279678 9.675591469 12.618421555 -0.466805577 -11.538072586 1.166093349 5.134979248 4.648919582 5.992380619 -15.127573967 -2.193450451 -2.741425753 -3.585146189 -9.553137779 -9.932681084 19.196290970 -4.469890594 1.352531552 3.144924402 -7.202702045 -0.586879492 5.537568092 9.023256302 5.218577862 3.336393833 1.349100709 5.037546158 -5.889782429 1.405526042 -5.956693649 2.329622746 -2.155442238 6.428262711 -3.530380964 3.514749765 -0.415380180 -6.245281219 4.276785851 -6.799268246 7.605261803 14.757005692
ace -6.069000721 -11.729681969 6.100377560 10.857048988 5.623685360 -3.650795221 1.008671045 -3.003311157 6.460697174 -3.063641787 -12.636179924 7.792610168 2.990637064 -6.602072716 6.085029602 13.593795776 -0.248542219 2.027219296 18.851427078 12.386669159 8.510148048 -2.266277313 -3.076161623 7.298773289 -14.574477196 4.686863899 1.410540104 4.093866348 -4.046210766 12.197442055 -3.774348974 -11.615301132 -9.600533485 10.314310074 8.199615479 1.754087448 -1.811455250 15.843817711 -12.374434471 7.163318634 -12.169519424 2.419292927 0.027933180 -6.362740040 2.165258408 -6.680812359 3.281311035 -1.516976357 1.179039240 -7.335885525 6.054613590 -3.794376850 2.143915653 -11.392531395 6.831130981 -3.949951172 -7.437530041 14.569321632 -4.035359383 -15.411991119 11.311137199 14.813253403 1.291468859 -8.557177544 -1.501650810 3.058149815 4.995672703 5.081127644 -14.413829803 -1.109796405 -3.623962879 -2.806028128 -7.867908478 -5.341330528 16.669406891 -5.286609650 -0.708087683 5.161444664 -9.405259132 -0.878936291 7.668174267 8.281871796 6.373966217 5.894203186 -2.945709705 4.708718777 -3.094199657 3.923142910 -6.626945972 0.646808207 2.550774574 8.064297676 -2.604346514 4.028926849 4.353802204 -6.120372295 4.733604908 -4.615768433 9.771982193 15.134449005 -6.069000721 -11.729681969 6.100377560 10.857048988 5.623685360 -3.650795221 1.008671045 -3.003311157 6.460697174 -3.063641787 -12.636179924 7.792610168 2.990637064 -6.602072716 6.085029602 13.593795776 -0.248542219 2.027219296 18.851427078 12.386669159 8.510148048 -2.266277313 -3.076161623 7.298773289 -14.574477196 4.686863899 1.410540104 4.093866348 -4.046210766 12.197442055 -3.774348974 -11.615301132 -9.600533485 10.314310074 8.199615479 1.754087448 -1.811455250 15.843817711 -12.374434471 7.163318634 -12.169519424 2.419292927 0.027933180 -6.362740040 2.165258408 -6.680812359 3.281311035 -1.516976357 1.179039240 -7.335885525 6.054613590 -3.794376850 2.143915653 -11.392531395 6.831130981 -3.949951172 -7.437530041 14.569321632 -4.035359383 -15.411991119 11.311137199 14.813253403 1.291468859 -8.557177544 -1.501650810 3.058149815 4.995672703 5.081127644 -14.413829803 -1.109796405 -3.623962879 -2.806028128 -7.867908478 -5.341330528 16.669406891 -5.286609650 -0.708087683 5.161444664 -9.405259132 -0.878936291 7.668174267 8.281871796 6.373966217 5.894203186 -2.945709705 4.708718777 -3.094199657 3.923142910 -6.626945972 0.646808207 2.550774574 8.064297676 -2.604346514 4.028926849 4.353802204 -6.120372295 4.733604908 -4.615768433 9.771982193 15.134449005
acw -6.950515270 -8.566122055 4.197326183 10.105747223 9.114881516 0.549769223 -0.142368734 0.219770193 4.138313293 -6.010092258 -12.413134575 8.726984978 3.000601530 -8.165119171 4.592626572 11.527730942 2.180506706 0.588935375 16.755590439 9.817041397 6.771242619 -3.738841534 -7.808602333 6.314381123 -11.651435852 1.110806584 0.674716353 4.815415382 0.077230036 12.317844391 -5.017042160 -10.919051170 -6.855262280 9.414029121 7.323266029 -0.555822611 -4.273663521 12.377403259 -15.269535065 7.043445587 -9.244995117 6.688248158 -0.218426406 -5.937649727 3.984905243 -5.809116364 4.429016590 0.392501771 1.996687412 -5.082335949 4.445650578 -5.867752075 4.098258495 -14.191090584 7.812733650 -3.522538185 -7.909722328 14.486795425 -3.865594387 -17.542314529 11.022891045 15.163496971 0.906185806 -9.998785973 -0.405079454 6.688772202 5.367042065 5.688506603 -13.741075516 -1.898426056 -4.570325851 -3.165768623 -9.784002304 -9.832041740 19.364358902 -5.139794827 1.759511471 2.975995302 -6.003875256 -0.116351664 6.562124252 7.452050209 2.679364204 3.692490578 1.213220000 5.198613167 -6.079754829 1.703308225 -5.525291920 3.482061148 0.594213009 3.593682289 -1.835900545 2.478060722 -2.026794910 -5.555639744 3.416358471 -5.993989468 7.102903366 14.610291481 -6.950515270 -8.566122055 4.197326183 10.105747223 9.114881516 0.549769223 -0.142368734 0.219770193 4.138313293 -6.010092258 -12.413134575 8.726984978 3.000601530 -8.165119171 4.592626572 11.527730942 2.180506706 0.588935375 16.755590439 9.817041397 6.771242619 -3.738841534 -7.808602333 6.314381123 -11.651435852 1.110806584 0.674716353 4.815415382 0.077230036 12.317844391 -5.017042160 -10.919051170 -6.855262280 9.414029121 7.323266029 -0.555822611 -4.273663521 12.377403259 -15.269535065 7.043445587 -9.244995117 6.688248158 -0.218426406 -5.937649727 3.984905243 -5.809116364 4.429016590 0.392501771 1.996687412 -5.082335949 4.445650578 -5.867752075 4.098258495 -14.191090584 7.812733650 -3.522538185 -7.909722328 14.486795425 -3.865594387 -17.542314529 11.022891045 15.163496971 0.906185806 -9.998785973 -0.405079454 6.688772202 5.367042065 5.688506603 -13.741075516 -1.898426056 -4.570325851 -3.165768623 -9.784002304 -9.832041740 19.364358902 -5.139794827 1.759511471 2.975995302 -6.003875256 -0.116351664 6.562124252 7.452050209 2.679364204 3.692490578 1.213220000 5.198613167 -6.079754829 1.703308225 -5.525291920 3.482061148 0.594213009 3.593682289 -1.835900545 2.478060722 -2.026794910 -5.555639744 3.416358471 -5.993989468 7.102903366 14.610291481
ady -5.255506516 -10.367716789 3.220402718 8.025784492 9.144671440 -0.273443997 0.583163023 -1.789074659 7.352314949 -5.827898979 -13.634909630 9.630553246 1.319606066 -10.498247147 5.215582371 13.080359459 3.185128212 1.513031960 14.081936836 10.514993668 9.517594337 -2.561170101 -7.556871414 6.086903572 -14.176497459 -1.416889429 3.156571865 4.669545174 -2.881459951 12.962896347 -4.873353004 -12.191102982 -7.759084225 8.613084793 10.810431480 -2.063673496 -3.439296722 13.145539284 -14.052124977 5.162023067 -7.165809631 5.354237080 2.092720985 -8.355587006 3.483640671 -7.653868675 3.488472939 -1.229809999 3.307919025 -1.591929674 4.257737637 -5.364715576 3.272681236 -13.768140793 8.549364090 -4.326539040 -8.793510437 15.855063438 -3.689307213 -17.661279678 10.191694260 12.824029922 -0.210239232 -12.284666061 0.166093349 4.952285767 4.543462276 5.297285080 -16.127574921 -1.353641033 -2.477144480 -4.008275509 -9.547400475 -10.702438354 19.995731354 -3.987044096 1.892198801 3.502170801 -7.573661327 -1.586879492 6.391051292 9.587983131 4.632648468 2.721950769 1.149773479 5.887063503 -6.129497528 1.235136509 -4.956693649 2.137279749 -1.470085263 6.408093452 -2.785376787 3.574088097 0.206448495 -6.728981495 4.822628498 -5.911310673 7.743427277 14.758833885 -5.255506516 -10.367716789 3.220402718 8.025784492 9.144671440 -0.273443997 0.583163023 -1.789074659 7.352314949 -5.827898979 -13.634909630 9.630553246 1.319606066 -10.498247147 5.215582371 13.080359459 3.185128212 1.513031960 14.081936836 10.514993668 9.517594337 -2.561170101 -7.556871414 6.086903572 -14.176497459 -1.416889429 3.156571865 4.669545174 -2.881459951 12.962896347 -4.873353004 -12.191102982 -7.759084225 8.613084793 10.810431480 -2.063673496 -3.439296722 13.145539284 -14.052124977 5.162023067 -7.165809631 5.354237080 2.092720985 -8.355587006 3.483640671 -7.653868675 3.488472939 -1.229809999 3.307919025 -1.591929674 4.257737637 -5.364715576 3.272681236 -13.768140793 8.549364090 -4.326539040 -8.793510437 15.855063438 -3.689307213 -17.661279678 10.191694260 12.824029922 -0.210239232 -12.284666061 0.166093349 4.952285767 4.543462276 5.297285080 -16.127574921 -1.353641033 -2.477144480 -4.008275509 -9.547400475 -10.702438354 19.995731354 -3.987044096 1.892198801 3.502170801 -7.573661327 -1.586879492 6.391051292 9.587983131 4.632648468 2.721950769 1.149773479 5.887063503 -6.129497528 1.235136509 -4.956693649 2.137279749 -1.470085263 6.408093452 -2.785376787 3.574088097 0.206448495 -6.728981495 4.822628498 -5.911310673 7.743427277 14.758833885
aeb -5.949680328 -9.712142944 5.178807735 7.938175201 7.433888435 -0.131326914 -0.433406591 -0.691544473 5.581675529 -5.996608734 -12.350937843 9.706578255 1.978980303 -8.590541840 4.891515255 13.375649452 1.862458348 0.700823665 15.552004814 10.854186058 9.655558586 -3.001582623 -6.288918018 7.016017914 -12.651435852 -0.516780913 1.766569853 5.690332890 -1.520440817 13.351722717 -5.037741661 -11.769655228 -8.018919945 9.555367470 10.032073975 -1.036797762 -2.425745487 13.410579681 -14.214366913 5.484686852 -7.774217606 5.551696301 1.853582859 -7.346749783 1.856061220 -6.032118320 3.268197060 -0.150138497 1.874709845 -3.180102825 4.424089909 -4.651343346 5.155779362 -12.587522507 7.725325108 -3.206232071 -8.274569511 15.456475258 -3.689307213 -17.661279678 10.271800995 13.618421555 0.053097963 -11.171031952 0.296792746 5.097377777 5.326255798 6.138167381 -15.249639511 -1.193450451 -3.735776424 -3.591843128 -9.661005020 -9.340459824 19.151147842 -5.469890594 0.352531523 3.841698647 -6.554835796 0.413120538 5.877637863 8.023256302 4.902180195 4.216993332 0.349100709 5.262707710 -6.781835079 2.082862377 -4.956693649 2.087431431 -1.155442119 6.096694469 -3.830368996 3.788897991 -1.097212791 -5.403557777 4.146397114 -6.102493763 7.773189545 14.319675446 -5.949680328 -9.712142944 5.178807735 7.938175201 7.433888435 -0.131326914 -0.433406591 -0.691544473 5.581675529 -5.996608734 -12.350937843 9.706578255 1.978980303 -8.590541840 4.891515255 13.375649452 1.862458348 0.700823665 15.552004814 10.854186058 9.655558586 -3.001582623 -6.288918018 7.016017914 -12.651435852 -0.516780913 1.766569853 5.690332890 -1.520440817 13.351722717 -5.037741661 -11.769655228 -8.018919945 9.555367470 10.032073975 -1.036797762 -2.425745487 13.410579681 -14.214366913 5.484686852 -7.774217606 5.551696301 1.853582859 -7.346749783 1.856061220 -6.032118320 3.268197060 -0.150138497 1.874709845 -3.180102825 4.424089909 -4.651343346 5.155779362 -12.587522507 7.725325108 -3.206232071 -8.274569511 15.456475258 -3.689307213 -17.661279678 10.271800995 13.618421555 0.053097963 -11.171031952 0.296792746 5.097377777 5.326255798 6.138167381 -15.249639511 -1.193450451 -3.735776424 -3.591843128 -9.661005020 -9.340459824 19.151147842 -5.469890594 0.352531523 3.841698647 -6.554835796 0.413120538 5.877637863 8.023256302 4.902180195 4.216993332 0.349100709 5.262707710 -6.781835079 2.082862377 -4.956693649 2.087431431 -1.155442119 6.096694469 -3.830368996 3.788897991 -1.097212791 -5.403557777 4.146397114 -6.102493763 7.773189545 14.319675446
afb -5.499810219 -10.712142944 5.278313160 7.356618881 6.433888435 -0.635454476 -1.291521549 -1.335595369 5.148507595 -6.696882725 -11.957613945 9.159604073 1.472054243 -9.241396904 4.103254795 13.026722908 2.438111067 -0.299176335 14.794205666 10.374970436 10.080183983 -2.121112347 -6.235765934 6.507230282 -12.564489365 -1.324092031 1.029872417 6.262924194 -2.359431267 13.304215431 -6.000963688 -12.026366234 -7.018919945 9.236180305 9.274510384 -1.767937660 -2.510116816 13.240927696 -14.500422478 5.486555099 -7.556626320 5.334601402 1.762529254 -8.162260056 2.574237823 -5.514093876 2.355309725 -0.808001935 2.253813744 -3.278008461 4.467049122 -4.843685150 4.448694706 -11.587522507 8.358641624 -3.192085981 -9.034650803 15.004249573 -4.273017406 -17.834535599 9.271800995 12.624158859 0.204394668 -10.191448212 -0.412806034 4.097377777 6.326255798 5.909200191 -15.069232941 -0.486365974 -2.794458151 -3.733294964 -10.116068840 -9.208832741 18.565338135 -6.469890594 0.915710807 4.150328159 -6.560503960 -0.586879492 5.940227985 7.523527145 5.025330067 5.216993332 0.363655895 5.221677303 -6.953585148 1.875118494 -3.964880228 1.565768242 -0.278099597 6.016765594 -2.830368996 3.685067892 -0.433198035 -6.120167255 3.659733057 -6.305674076 7.460008621 15.056997299 -5.499810219 -10.712142944 5.278313160 7.356618881 6.433888435 -0.635454476 -1.291521549 -1.335595369 5.148507595 -6.696882725 -11.957613945 9.159604073 1.472054243 -9.241396904 4.103254795 13.026722908 2.438111067 -0.299176335 14.794205666 10.374970436 10.080183983 -2.121112347 -6.235765934 6.507230282 -12.564489365 -1.324092031 1.029872417 6.262924194 -2.359431267 13.304215431 -6.000963688 -12.026366234 -7.018919945 9.236180305 9.274510384 -1.767937660 -2.510116816 13.240927696 -14.500422478 5.486555099 -7.556626320 5.334601402 1.762529254 -8.162260056 2.574237823 -5.514093876 2.355309725 -0.808001935 2.253813744 -3.278008461 4.467049122 -4.843685150 4.448694706 -11.587522507 8.358641624 -3.192085981 -9.034650803 15.004249573 -4.273017406 -17.834535599 9.271800995 12.624158859 0.204394668 -10.191448212 -0.412806034 4.097377777 6.326255798 5.909200191 -15.069232941 -0.486365974 -2.794458151 -3.733294964 -10.116068840 -9.208832741 18.565338135 -6.469890594 0.915710807 4.150328159 -6.560503960 -0.586879492 5.940227985 7.523527145 5.025330067 5.216993332 0.363655895 5.221677303 -6.953585148 1.875118494 -3.964880228 1.565768242 -0.278099597 6.016765594 -2.830368996 3.685067892 -0.433198035 -6.120167255 3.659733057 -6.305674076 7.460008621 15.056997299
afr 190.337158203 -36.335655212 -63.587154388 188.419815063 -341.471527100 -131.230361938 213.642272949 144.415771484 34.938415527 159.073135376 418.311218262 42.060417175 134.739685059 155.119613647 -164.700164795 15.052869797 -7.992146015 -202.936782837 178.806564331 -143.300765991 266.665618896 -155.097854614 148.226211548 240.985733032 118.967323303 -47.460567474 -11.434253693 -289.865203857 -205.544570923 -319.727416992 -136.871231079 -63.162345886 213.850128174 -89.787483215 -146.286621094 162.630661011 -164.234451294 80.101127625 -80.292755127 120.721832275 66.834663391 -137.193405151 312.854766846 -77.453933716 60.349269867 -151.810455322 -10.332617760 -235.107818604 311.034179688 292.917358398 -238.387863159 191.463195801 -412.027343750 -1.212998748 -5.285717010 -415.056549072 627.634033203 -42.159980774 292.944213867 258.951385498 128.819671631 216.161590576 -58.251724243 -81.442382812 8.759416580 -29.716894150 81.717552185 -78.961158752 296.409240723 -556.830749512 5.857749939 63.702095032 -156.804595947 -148.070190430 -218.749359131 126.202140808 222.216293335 -16.799253464 -71.910804749 -73.262893677 254.606613159 1.970939159 261.895874023 -41.134971619 110.909530640 -256.727722168 -47.940055847 -316.620910645 -69.995094299 535.630187988 491.530456543 290.028717041 -324.198150635 102.169487000 306.800598145 17.148595810 42.917552948 -268.234344482 74.738067627 -113.075424194 190.337158203 -36.335655212 -63.587154388 188.419815063 -341.471527100 -131.230361938 213.642272949 144.415771484 34.938415527 159.073135376 418.311218262 42.060417175 134.739685059 155.119613647 -164.700164795 15.052869797 -7.992146015 -202.936782837 178.806564331 -143.300765991 266.665618896 -155.097854614 148.226211548 240.985733032 118.967323303 -47.460567474 -11.434253693 -289.865203857 -205.544570923 -319.727416992 -136.871231079 -63.162345886 213.850128174 -89.787483215 -146.286621094 162.630661011 -164.234451294 80.101127625 -80.292755127 120.721832275 66.834663391 -137.193405151 312.854766846 -77.453933716 60.349269867 -151.810455322 -10.332617760 -235.107818604 311.034179688 292.917358398 -238.387863159 191.463195801 -412.027343750 -1.212998748 -5.285717010 -415.056549072 627.634033203 -42.159980774 292.944213867 258.951385498 128.819671631 216.161590576 -58.251724243 -81.442382812 8.759416580 -29.716894150 81.717552185 -78.961158752 296.409240723 -556.830749512 5.857749939 63.702095032 -156.804595947 -148.070190430 -218.749359131 126.202140808 222.216293335 -16.799253464 -71.910804749 -73.262893677 254.606613159 1.970939159 261.895874023 -41.134971619 110.909530640 -256.727722168 -47.940055847 -316.620910645 -69.995094299 535.630187988 491.530456543 290.028717041 -324.198150635 102.169487000 306.800598145 17.148595810 42.917552948 -268.234344482 74.738067627 -113.075424194
aho -5.949680328 -9.712142944 5.178807735 7.938175201 7.433888435 -0.131326914 -0.433406591 -0.691544473 5.581675529 -5.996608734 -12.350937843 9.706578255 1.978980303 -8.590541840 4.891515255 13.375649452 1.862458348 0.700823665 15.552004814 10.854186058 9.655558586 -3.001582623 -6.288918018 7.016017914 -12.651435852 -0.516780913 1.766569853 5.690332890 -1.520440817 13.351722717 -5.037741661 -11.769655228 -8.018919945 9.555367470 10.032073975 -1.036797762 -2.425745487 13.410579681 -14.214366913 5.484686852 -7.774217606 5.551696301 1.853582859 -7.346749783 1.856061220 -6.032118320 3.268197060 -0.150138497 1.874709845 -3.180102825 4.424089909 -4.651343346 5.155779362 -12.587522507 7.725325108 -3.206232071 -8.274569511 15.456475258 -3.689307213 -17.661279678 10.271800995 13.618421555 0.053097963 -11.171031952 0.296792746 5.097377777 5.326255798 6.138167381 -15.249639511 -1.193450451 -3.735776424 -3.591843128 -9.661005020 -9.340459824 19.151147842 -5.469890594 0.352531523 3.841698647 -6.554835796 0.413120538 5.877637863 8.023256302 4.902180195 4.216993332 0.349100709 5.262707710 -6.781835079 2.082862377 -4.956693649 2.087431431 -1.155442119 6.096694469 -3.830368996 3.788897991 -1.097212791 -5.403557777 4.146397114 -6.102493763 7.773189545 14.319675446 -5.949680328 -9.712142944 5.178807735 7.938175201 7.433888435 -0.131326914 -0.433406591 -0.691544473 5.581675529 -5.996608734 -12.350937843 9.706578255 1.978980303 -8.590541840 4.891515255 13.375649452 1.862458348 0.700823665 15.552004814 10.854186058 9.655558586 -3.001582623 -6.288918018 7.016017914 -12.651435852 -0.516780913 1.766569853 5.690332890 -1.520440817 13.351722717 -5.037741661 -11.769655228 -8.018919945 9.555367470 10.032073975 -1.036797762 -2.425745487 13.410579681 -14.214366913 5.484686852 -7.774217606 5.551696301 1.853582859 -7.346749783 1.856061220 -6.032118320 3.268197060 -0.150138497 1.874709845 -3.180102825 4.424089909 -4.651343346 5.155779362 -12.587522507 7.725325108 -3.206232071 -8.274569511 15.456475258 -3.689307213 -17.661279678 10.271800995 13.618421555 0.053097963 -11.171031952 0.296792746 5.097377777 5.326255798 6.138167381 -15.249639511 -1.193450451 -3.735776424 -3.591843128 -9.661005020 -9.340459824 19.151147842 -5.469890594 0.352531523 3.841698647 -6.554835796 0.413120538 5.877637863 8.023256302 4.902180195 4.216993332 0.349100709 5.262707710 -6.781835079 2.082862377 -4.956693649 2.087431431 -1.155442119 6.096694469 -3.830368996 3.788897991 -1.097212791 -5.403557777 4.146397114 -6.102493763 7.773189545 14.319675446
aii -5.907952309 -10.099591255 4.178807735 8.091420174 8.433888435 0.868673086 0.038091630 0.224140942 6.372723579 -5.127396107 -12.913168907 10.706578255 1.633055329 -7.590541840 5.891515255 13.041193962 0.862458348 1.666281462 15.561111450 10.690100670 8.655558586 -2.655210495 -5.288918018 6.016017914 -13.651435852 -0.209245652 1.961737752 6.185485840 -0.520440817 12.351722717 -4.353182316 -11.322993279 -8.535095215 8.555367470 10.235137939 -0.871916652 -1.425745487 12.590129852 -14.126855850 5.782186508 -8.774217606 5.596319675 1.658800960 -8.346750259 1.955275416 -7.032118320 3.596791506 -0.544380903 1.355572701 -4.180102825 5.299137115 -3.651343346 4.155779362 -12.446215630 6.725325108 -3.771142960 -9.274569511 15.317599297 -2.689307213 -18.661279678 10.271800995 14.315080643 1.053097963 -11.957860947 0.296792746 5.299356937 4.592593193 7.138167381 -15.413158417 -0.193450451 -2.735776424 -2.591843128 -10.098466873 -9.080547333 19.401109695 -5.630030155 0.571623921 3.772414684 -7.554835796 -0.586879492 6.212093353 8.262817383 4.717879772 3.451203585 1.052953959 5.135965347 -6.781835079 1.345744610 -3.956693649 3.064393997 -2.028326035 5.096694469 -4.145083904 4.359941483 -1.152486324 -5.422356129 3.146397114 -7.102493763 7.684501171 15.203792572 -5.907952309 -10.099591255 4.178807735 8.091420174 8.433888435 0.868673086 0.038091630 0.224140942 6.372723579 -5.127396107 -12.913168907 10.706578255 1.633055329 -7.590541840 5.891515255 13.041193962 0.862458348 1.666281462 15.561111450 10.690100670 8.655558586 -2.655210495 -5.288918018 6.016017914 -13.651435852 -0.209245652 1.961737752 6.185485840 -0.520440817 12.351722717 -4.353182316 -11.322993279 -8.535095215 8.555367470 10.235137939 -0.871916652 -1.425745487 12.590129852 -14.126855850 5.782186508 -8.774217606 5.596319675 1.658800960 -8.346750259 1.955275416 -7.032118320 3.596791506 -0.544380903 1.355572701 -4.180102825 5.299137115 -3.651343346 4.155779362 -12.446215630 6.725325108 -3.771142960 -9.274569511 15.317599297 -2.689307213 -18.661279678 10.271800995 14.315080643 1.053097963 -11.957860947 0.296792746 5.299356937 4.592593193 7.138167381 -15.413158417 -0.193450451 -2.735776424 -2.591843128 -10.098466873 -9.080547333 19.401109695 -5.630030155 0.571623921 3.772414684 -7.554835796 -0.586879492 6.212093353 8.262817383 4.717879772 3.451203585 1.052953959 5.135965347 -6.781835079 1.345744610 -3.956693649 3.064393997 -2.028326035 5.096694469 -4.145083904 4.359941483 -1.152486324 -5.422356129 3.146397114 -7.102493763 7.684501171 15.203792572
ain -3.538239479 -12.039109230 7.916278362 5.393324375 11.138201714 -2.078561068 -1.615934610 -1.705453396 6.779201508 -6.550886154 -16.172145844 6.870376587 1.627231121 -8.874962807 5.096971989 13.019499779 1.904834151 -1.363729477 18.783185959 9.164607048 8.162393570 -4.869377136 -7.823846817 7.072144985 -12.593632698 -3.779637098 1.372702956 6.658497810 0.593371511 13.687170982 -3.425112486 -14.943778992 -8.011409760 8.111827850 7.873649120 0.631422341 -4.828947544 10.778952599 -13.414484978 8.860303879 -9.736299515 6.287213802 5.120648384 -4.345158577 -0.915051639 -6.886921406 5.323660851 -1.455125809 3.646786213 1.829610944 5.290751934 -1.975562572 5.671609879 -11.410830498 10.046424866 -3.409266472 -7.691664696 13.358871460 -5.611431122 -16.710035324 11.696060181 11.904241562 0.161691308 -8.383004189 -0.143803835 5.134513378 7.765391350 4.137093544 -14.377806664 -3.626636505 -4.606019497 -1.528146625 -15.081268311 -12.465311050 21.990970612 -3.628726721 2.032832623 3.969443321 -8.282432556 -0.359744072 10.624610901 9.907385826 1.876746178 3.985123634 -1.008817673 7.799088001 -2.578124523 4.952744484 -5.404116631 5.210014343 -0.665156901 4.268411160 -5.452554226 2.103170633 -2.595553398 -5.274868965 2.500267982 -5.559761524 8.667675018 16.475532532 -3.538239479 -12.039109230 7.916278362 5.393324375 11.138201714 -2.078561068 -1.615934610 -1.705453396 6.779201508 -6.550886154 -16.172145844 6.870376587 1.627231121 -8.874962807 5.096971989 13.019499779 1.904834151 -1.363729477 18.783185959 9.164607048 8.162393570 -4.869377136 -7.823846817 7.072144985 -12.593632698 -3.779637098 1.372702956 6.658497810 0.593371511 13.687170982 -3.425112486 -14.943778992 -8.011409760 8.111827850 7.873649120 0.631422341 -4.828947544 10.778952599 -13.414484978 8.860303879 -9.736299515 6.287213802 5.120648384 -4.345158577 -0.915051639 -6.886921406 5.323660851 -1.455125809 3.646786213 1.829610944 5.290751934 -1.975562572 5.671609879 -11.410830498 10.046424866 -3.409266472 -7.691664696 13.358871460 -5.611431122 -16.710035324 11.696060181 11.904241562 0.161691308 -8.383004189 -0.143803835 5.134513378 7.765391350 4.137093544 -14.377806664 -3.626636505 -4.606019497 -1.528146625 -15.081268311 -12.465311050 21.990970612 -3.628726721 2.032832623 3.969443321 -8.282432556 -0.359744072 10.624610901 9.907385826 1.876746178 3.985123634 -1.008817673 7.799088001 -2.578124523 4.952744484 -5.404116631 5.210014343 -0.665156901 4.268411160 -5.452554226 2.103170633 -2.595553398 -5.274868965 2.500267982 -5.559761524 8.667675018 16.475532532
aka -4.811655998 -11.139144897 0.299195826 9.720267296 12.050494194 1.026898980 2.301531315 -0.268692553 2.656121969 -6.605869770 -15.270206451 11.178671837 -0.015186787 -11.914739609 6.486793518 19.027370453 -0.865731776 4.001563549 18.311603546 16.061552048 5.993160725 -8.525362015 -5.975215435 -1.155291319 -9.362658501 -2.252017021 0.248952329 10.603839874 3.969963789 15.761951447 1.912991285 -4.837758541 -8.626049995 6.024627209 11.472946167 -5.632338047 -5.792535305 7.804596901 -9.668527603 3.583973885 -5.330379009 2.618813992 3.252817154 -4.343672752 5.430953503 -3.339186192 5.934444427 2.676311255 -3.264734268 -2.921059608 3.572826862 -3.133151054 6.703839302 -10.830025673 4.468571663 -8.042765617 -7.687951088 14.268267632 -2.961783409 -18.430791855 9.010345459 19.019458771 5.184103966 -16.939470291 3.439129114 10.579806328 7.031332016 6.694578648 -19.487392426 -0.596714556 2.641324997 -9.666976929 -9.180319786 -1.569559813 20.914886475 -5.743705273 0.285938293 -0.223595247 -5.014157772 -2.659266710 3.151606798 10.716071129 5.297172070 3.508355618 -10.118743896 6.341153145 -6.203035355 5.425972939 -3.623164892 -0.607973874 -1.869794846 11.582674026 -7.827338696 -1.118978858 -2.114689112 -7.644123077 4.062942028 -8.786592484 15.041682243 16.262722015 -4.811655998 -11.139144897 0.299195826 9.720267296 12.050494194 1.026898980 2.301531315 -0.268692553 2.656121969 -6.605869770 -15.270206451 11.178671837 -0.015186787 -11.914739609 6.486793518 19.027370453 -0.865731776 4.001563549 18.311603546 16.061552048 5.993160725 -8.525362015 -5.975215435 -1.155291319 -9.362658501 -2.252017021 0.248952329 10.603839874 3.969963789 15.761951447 1.912991285 -4.837758541 -8.626049995 6.024627209 11.472946167 -5.632338047 -5.792535305 7.804596901 -9.668527603 3.583973885 -5.330379009 2.618813992 3.252817154 -4.343672752 5.430953503 -3.339186192 5.934444427 2.676311255 -3.264734268 -2.921059608 3.572826862 -3.133151054 6.703839302 -10.830025673 4.468571663 -8.042765617 -7.687951088 14.268267632 -2.961783409 -18.430791855 9.010345459 19.019458771 5.184103966 -16.939470291 3.439129114 10.579806328 7.031332016 6.694578648 -19.487392426 -0.596714556 2.641324997 -9.666976929 -9.180319786 -1.569559813 20.914886475 -5.743705273 0.285938293 -0.223595247 -5.014157772 -2.659266710 3.151606798 10.716071129 5.297172070 3.508355618 -10.118743896 6.341153145 -6.203035355 5.425972939 -3.623164892 -0.607973874 -1.869794846 11.582674026 -7.827338696 -1.118978858 -2.114689112 -7.644123077 4.062942028 -8.786592484 15.041682243 16.262722015
akk -4.938320160 -9.777199745 6.040362358 5.114859581 6.346712589 -0.354899257 -2.509210348 -1.790606618 7.628005505 -7.563771248 -11.910660744 10.518687248 4.048912048 -9.797703743 3.078378201 13.125855446 2.874998093 4.116828918 15.808685303 12.900234222 8.912929535 -6.043265343 -5.486323833 5.534175873 -13.463214874 -1.431494117 0.362248182 4.696878433 -2.169709682 13.438391685 -4.586995125 -12.513781548 -9.771283150 11.047220230 9.257504463 -0.226355314 -2.198117256 12.749450684 -16.139297485 4.848669529 -8.297603607 7.285667419 2.119490385 -8.949018478 1.313042045 -4.564077854 4.310883045 -0.513067365 -0.147669524 -4.110523701 5.478452206 -3.845444918 4.830473900 -11.305028915 7.399102688 -1.229562759 -8.592880249 15.313965797 -5.014467239 -17.132499695 9.157997131 13.198044777 1.817987323 -12.003251076 0.908676386 5.517255306 5.713766575 6.996752262 -14.968305588 0.855891168 -2.840578079 -4.007197380 -7.371158600 -10.912910461 20.583112717 -5.992221355 1.932636499 1.652693748 -5.599946976 1.074491262 4.415800095 9.121387482 3.851364613 5.125502110 -0.373373985 3.078753948 -7.039028645 2.553928614 -5.912410259 1.915809512 -0.184584320 4.077777863 -3.390962601 3.385323286 -2.250148296 -3.985572338 4.702621937 -8.411357880 5.160340309 13.391524315 -4.938320160 -9.777199745 6.040362358 5.114859581 6.346712589 -0.354899257 -2.509210348 -1.790606618 7.628005505 -7.563771248 -11.910660744 10.518687248 4.048912048 -9.797703743 3.078378201 13.125855446 2.874998093 4.116828918 15.808685303 12.900234222 8.912929535 -6.043265343 -5.486323833 5.534175873 -13.463214874 -1.431494117 0.362248182 4.696878433 -2.169709682 13.438391685 -4.586995125 -12.513781548 -9.771283150 11.047220230 9.257504463 -0.226355314 -2.198117256 12.749450684 -16.139297485 4.848669529 -8.297603607 7.285667419 2.119490385 -8.949018478 1.313042045 -4.564077854 4.310883045 -0.513067365 -0.147669524 -4.110523701 5.478452206 -3.845444918 4.830473900 -11.305028915 7.399102688 -1.229562759 -8.592880249 15.313965797 -5.014467239 -17.132499695 9.157997131 13.198044777 1.817987323 -12.003251076 0.908676386 5.517255306 5.713766575 6.996752262 -14.968305588 0.855891168 -2.840578079 -4.007197380 -7.371158600 -10.912910461 20.583112717 -5.992221355 1.932636499 1.652693748 -5.599946976 1.074491262 4.415800095 9.121387482 3.851364613 5.125502110 -0.373373985 3.078753948 -7.039028645 2.553928614 -5.912410259 1.915809512 -0.184584320 4.077777863 -3.390962601 3.385323286 -2.250148296 -3.985572338 4.702621937 -8.411357880 5.160340309 13.391524315
akz -5.949680328 -9.712142944 5.178807735 7.938175201 7.433888435 -0.131326914 -0.433406591 -0.691544473 5.581675529 -5.996608734 -12.350937843 9.706578255 1.978980303 -8.590541840 4.891515255 13.375649452 1.862458348 0.700823665 15.552004814 10.854186058 9.655558586 -3.001582623 -6.288918018 7.016017914 -12.651435852 -0.516780913 1.766569853 5.690332890 -1.520440817 13.351722717 -5.037741661 -11.769655228 -8.018919945 9.555367470 10.032073975 -1.036797762 -2.425745487 13.410579681 -14.214366913 5.484686852 -7.774217606 5.551696301 1.853582859 -7.346749783 1.856061220 -6.032118320 3.268197060 -0.150138497 1.874709845 -3.180102825 4.424089909 -4.651343346 5.155779362 -12.587522507 7.725325108 -3.206232071 -8.274569511 15.456475258 -3.689307213 -17.661279678 10.271800995 13.618421555 0.053097963 -11.171031952 0.296792746 5.097377777 5.326255798 6.138167381 -15.249639511 -1.193450451 -3.735776424 -3.591843128 -9.661005020 -9.340459824 19.151147842 -5.469890594 0.352531523 3.841698647 -6.554835796 0.413120538 5.877637863 8.023256302 4.902180195 4.216993332 0.349100709 5.262707710 -6.781835079 2.082862377 -4.956693649 2.087431431 -1.155442119 6.096694469 -3.830368996 3.788897991 -1.097212791 -5.403557777 4.146397114 -6.102493763 7.773189545 14.319675446 -5.949680328 -9.712142944 5.178807735 7.938175201 7.433888435 -0.131326914 -0.433406591 -0.691544473 5.581675529 -5.996608734 -12.350937843 9.706578255 1.978980303 -8.590541840 4.891515255 13.375649452 1.862458348 0.700823665 15.552004814 10.854186058 9.655558586 -3.001582623 -6.288918018 7.016017914 -12.651435852 -0.516780913 1.766569853 5.690332890 -1.520440817 13.351722717 -5.037741661 -11.769655228 -8.018919945 9.555367470 10.032073975 -1.036797762 -2.425745487 13.410579681 -14.214366913 5.484686852 -7.774217606 5.551696301 1.853582859 -7.346749783 1.856061220 -6.032118320 3.268197060 -0.150138497 1.874709845 -3.180102825 4.424089909 -4.651343346 5.155779362 -12.587522507 7.725325108 -3.206232071 -8.274569511 15.456475258 -3.689307213 -17.661279678 10.271800995 13.618421555 0.053097963 -11.171031952 0.296792746 5.097377777 5.326255798 6.138167381 -15.249639511 -1.193450451 -3.735776424 -3.591843128 -9.661005020 -9.340459824 19.151147842 -5.469890594 0.352531523 3.841698647 -6.554835796 0.413120538 5.877637863 8.023256302 4.902180195 4.216993332 0.349100709 5.262707710 -6.781835079 2.082862377 -4.956693649 2.087431431 -1.155442119 6.096694469 -3.830368996 3.788897991 -1.097212791 -5.403557777 4.146397114 -6.102493763 7.773189545 14.319675446
ale -5.949680328 -9.712142944 5.178807735 7.938175201 7.433888435 -0.131326914 -0.433406591 -0.691544473 5.581675529 -5.996608734 -12.350937843 9.706578255 1.978980303 -8.590541840 4.891515255 13.375649452 1.862458348 0.700823665 15.552004814 10.854186058 9.655558586 -3.001582623 -6.288918018 7.016017914 -12.651435852 -0.516780913 1.766569853 5.690332890 -1.520440817 13.351722717 -5.037741661 -11.769655228 -8.018919945 9.555367470 10.032073975 -1.036797762 -2.425745487 13.410579681 -14.214366913 5.484686852 -7.774217606 5.551696301 1.853582859 -7.346749783 1.856061220 -6.032118320 3.268197060 -0.150138497 1.874709845 -3.180102825 4.424089909 -4.651343346 5.155779362 -12.587522507 7.725325108 -3.206232071 -8.274569511 15.456475258 -3.689307213 -17.661279678 10.271800995 13.618421555 0.053097963 -11.171031952 0.296792746 5.097377777 5.326255798 6.138167381 -15.249639511 -1.193450451 -3.735776424 -3.591843128 -9.661005020 -9.340459824 19.151147842 -5.469890594 0.352531523 3.841698647 -6.554835796 0.413120538 5.877637863 8.023256302 4.902180195 4.216993332 0.349100709 5.262707710 -6.781835079 2.082862377 -4.956693649 2.087431431 -1.155442119 6.096694469 -3.830368996 3.788897991 -1.097212791 -5.403557777 4.146397114 -6.102493763 7.773189545 14.319675446 -5.949680328 -9.712142944 5.178807735 7.938175201 7.433888435 -0.131326914 -0.433406591 -0.691544473 5.581675529 -5.996608734 -12.350937843 9.706578255 1.978980303 -8.590541840 4.891515255 13.375649452 1.862458348 0.700823665 15.552004814 10.854186058 9.655558586 -3.001582623 -6.288918018 7.016017914 -12.651435852 -0.516780913 1.766569853 5.690332890 -1.520440817 13.351722717 -5.037741661 -11.769655228 -8.018919945 9.555367470 10.032073975 -1.036797762 -2.425745487 13.410579681 -14.214366913 5.484686852 -7.774217606 5.551696301 1.853582859 -7.346749783 1.856061220 -6.032118320 3.268197060 -0.150138497 1.874709845 -3.180102825 4.424089909 -4.651343346 5.155779362 -12.587522507 7.725325108 -3.206232071 -8.274569511 15.456475258 -3.689307213 -17.661279678 10.271800995 13.618421555 0.053097963 -11.171031952 0.296792746 5.097377777 5.326255798 6.138167381 -15.249639511 -1.193450451 -3.735776424 -3.591843128 -9.661005020 -9.340459824 19.151147842 -5.469890594 0.352531523 3.841698647 -6.554835796 0.413120538 5.877637863 8.023256302 4.902180195 4.216993332 0.349100709 5.262707710 -6.781835079 2.082862377 -4.956693649 2.087431431 -1.155442119 6.096694469 -3.830368996 3.788897991 -1.097212791 -5.403557777 4.146397114 -6.102493763 7.773189545 14.319675446
als -5.439692974 -10.484055519 8.288827896 12.380922318 2.655604839 -0.222618312 -2.944361210 3.253616810 7.160661697 -5.077303410 -10.534249306 14.389980316 -3.228675842 -13.662683487 11.521246910 13.353807449 2.211161375 -3.910353899 19.224842072 5.034419060 8.546184540 0.023863435 -11.189341545 9.696184158 -17.292533875 6.848526478 -4.935821533 10.310240746 -0.902448297 8.703221321 -2.341956854 -9.187790871 -5.316258907 7.652956486 10.316281319 -0.024538994 -8.119528770 20.597761154 -17.505107880 6.822772026 -7.108421326 -3.236077309 2.421900988 -7.857717037 -2.642169952 -6.011523247 -4.264209270 0.317155153 3.557620525 -4.944052696 6.857659340 -3.463665009 9.046665192 -12.827098846 4.976860046 -2.989935160 -9.464551926 23.362766266 -2.752032995 -16.740974426 5.154888630 18.668380737 1.277929544 -14.749654770 -4.794023991 4.792615891 7.700351238 -1.798323154 -16.796432495 2.234248877 -4.224790573 -2.291569471 -9.590665817 -8.330265999 22.705259323 -9.469830513 -1.744489431 3.147126198 -11.377727509 -1.928613424 8.605593681 6.552349091 5.786544800 10.119047165 0.152866006 5.214889526 -2.669804811 -1.750879049 -4.292177200 1.439863801 -0.371528327 11.829578400 -7.982798100 5.191076756 0.515800834 -4.764822483 -2.941764832 -5.693230629 7.833097935 11.309139252 -5.439692974 -10.484055519 8.288827896 12.380922318 2.655604839 -0.222618312 -2.944361210 3.253616810 7.160661697 -5.077303410 -10.534249306 14.389980316 -3.228675842 -13.662683487 11.521246910 13.353807449 2.211161375 -3.910353899 19.224842072 5.034419060 8.546184540 0.023863435 -11.189341545 9.696184158 -17.292533875 6.848526478 -4.935821533 10.310240746 -0.902448297 8.703221321 -2.341956854 -9.187790871 -5.316258907 7.652956486 10.316281319 -0.024538994 -8.119528770 20.597761154 -17.505107880 6.822772026 -7.108421326 -3.236077309 2.421900988 -7.857717037 -2.642169952 -6.011523247 -4.264209270 0.317155153 3.557620525 -4.944052696 6.857659340 -3.463665009 9.046665192 -12.827098846 4.976860046 -2.989935160 -9.464551926 23.362766266 -2.752032995 -16.740974426 5.154888630 18.668380737 1.277929544 -14.749654770 -4.794023991 4.792615891 7.700351238 -1.798323154 -16.796432495 2.234248877 -4.224790573 -2.291569471 -9.590665817 -8.330265999 22.705259323 -9.469830513 -1.744489431 3.147126198 -11.377727509 -1.928613424 8.605593681 6.552349091 5.786544800 10.119047165 0.152866006 5.214889526 -2.669804811 -1.750879049 -4.292177200 1.439863801 -0.371528327 11.829578400 -7.982798100 5.191076756 0.515800834 -4.764822483 -2.941764832 -5.693230629 7.833097935 11.309139252
alt -5.595102310 -8.912004471 4.178807735 8.689240456 6.812670231 -0.189833611 -0.779549658 -1.516094565 4.794365406 -5.563130856 -12.742379189 10.405983925 2.978980303 -7.590541840 4.945569038 13.809833527 1.267372131 0.039471567 16.552005768 9.854447365 10.001591682 -2.664374352 -6.548983097 7.489567757 -11.867708206 -1.226612926 0.914692283 6.546602726 -1.131595373 13.108583450 -4.388676643 -12.769655228 -9.018919945 9.215706825 9.210305214 -0.532269180 -3.425745487 12.519495010 -13.693509102 4.484686852 -7.750834942 5.164445877 2.853582859 -8.346750259 2.768531561 -5.954348087 3.157199144 -0.152680665 0.981056452 -3.113677263 5.172636032 -4.713803291 6.155779362 -12.906972885 7.288723469 -4.206232071 -7.652974129 16.167068481 -3.305592299 -18.083929062 9.271800995 12.914290428 0.739046395 -10.804899216 0.429970860 4.359571934 5.317337513 5.383821487 -16.249639511 -1.694720507 -4.136193275 -4.139112473 -10.103495598 -9.751217842 18.574102402 -5.923030853 0.655398846 3.938565254 -5.848030090 1.413120508 5.786805153 8.910103798 4.653333187 3.216993332 0.897575557 5.608463287 -6.657439232 1.812235594 -4.310415268 1.648315072 -0.335903585 5.636399269 -4.402379513 4.363753796 -0.191036224 -4.577316284 3.682801962 -5.995371342 7.656803608 14.772976875 -5.595102310 -8.912004471 4.178807735 8.689240456 6.812670231 -0.189833611 -0.779549658 -1.516094565 4.794365406 -5.563130856 -12.742379189 10.405983925 2.978980303 -7.590541840 4.945569038 13.809833527 1.267372131 0.039471567 16.552005768 9.854447365 10.001591682 -2.664374352 -6.548983097 7.489567757 -11.867708206 -1.226612926 0.914692283 6.546602726 -1.131595373 13.108583450 -4.388676643 -12.769655228 -9.018919945 9.215706825 9.210305214 -0.532269180 -3.425745487 12.519495010 -13.693509102 4.484686852 -7.750834942 5.164445877 2.853582859 -8.346750259 2.768531561 -5.954348087 3.157199144 -0.152680665 0.981056452 -3.113677263 5.172636032 -4.713803291 6.155779362 -12.906972885 7.288723469 -4.206232071 -7.652974129 16.167068481 -3.305592299 -18.083929062 9.271800995 12.914290428 0.739046395 -10.804899216 0.429970860 4.359571934 5.317337513 5.383821487 -16.249639511 -1.694720507 -4.136193275 -4.139112473 -10.103495598 -9.751217842 18.574102402 -5.923030853 0.655398846 3.938565254 -5.848030090 1.413120508 5.786805153 8.910103798 4.653333187 3.216993332 0.897575557 5.608463287 -6.657439232 1.812235594 -4.310415268 1.648315072 -0.335903585 5.636399269 -4.402379513 4.363753796 -0.191036224 -4.577316284 3.682801962 -5.995371342 7.656803608 14.772976875
amh -4.347664356 -17.843753815 12.277667999 8.339342117 2.538983822 -9.955768585 -3.897336960 12.912631989 25.348962784 -14.923467636 -12.040870667 12.503763199 -2.522168398 -11.782471657 2.530041695 31.571172714 -2.197216749 6.538041592 21.159149170 18.244312286 5.018434048 -6.892357826 -9.183238029 0.220420897 -7.698868275 6.582016945 0.886714697 -0.706088424 -6.249773026 7.057724953 -4.647619724 -26.358232498 -14.770207405 22.697500229 -0.283917218 -14.643611908 -1.764092922 12.661612511 -7.478266716 12.888851166 -11.275405884 24.917242050 5.070010662 -9.219266891 -0.339725912 -12.682822227 2.761809826 8.109056473 -2.181378365 -3.443362236 16.628059387 -13.989667892 7.088774681 -16.012041092 8.434500694 -6.883896828 -16.314756393 7.879660130 -5.326885223 -27.295755386 11.601290703 9.442287445 7.079393387 -24.649709702 5.611289978 3.984699488 16.915136337 0.321755886 -1.751109838 6.765935898 17.932231903 -13.317068100 -13.810245514 -18.165544510 26.266105652 -4.433840275 -4.152569294 -14.488714218 -12.635908127 -0.270889074 4.962692261 10.259894371 -3.669040203 -0.360459328 -3.598459244 9.918766975 -10.165523529 9.177048683 -8.296039581 5.164706707 -2.431274891 -0.259339988 0.604370475 9.140349388 -7.589048386 -9.454363823 1.956942320 -7.322117329 5.505169868 7.769605637 -4.347664356 -17.843753815 12.277667999 8.339342117 2.538983822 -9.955768585 -3.897336960 12.912631989 25.348962784 -14.923467636 -12.040870667 12.503763199 -2.522168398 -11.782471657 2.530041695 31.571172714 -2.197216749 6.538041592 21.159149170 18.244312286 5.018434048 -6.892357826 -9.183238029 0.220420897 -7.698868275 6.582016945 0.886714697 -0.706088424 -6.249773026 7.057724953 -4.647619724 -26.358232498 -14.770207405 22.697500229 -0.283917218 -14.643611908 -1.764092922 12.661612511 -7.478266716 12.888851166 -11.275405884 24.917242050 5.070010662 -9.219266891 -0.339725912 -12.682822227 2.761809826 8.109056473 -2.181378365 -3.443362236 16.628059387 -13.989667892 7.088774681 -16.012041092 8.434500694 -6.883896828 -16.314756393 7.879660130 -5.326885223 -27.295755386 11.601290703 9.442287445 7.079393387 -24.649709702 5.611289978 3.984699488 16.915136337 0.321755886 -1.751109838 6.765935898 17.932231903 -13.317068100 -13.810245514 -18.165544510 26.266105652 -4.433840275 -4.152569294 -14.488714218 -12.635908127 -0.270889074 4.962692261 10.259894371 -3.669040203 -0.360459328 -3.598459244 9.918766975 -10.165523529 9.177048683 -8.296039581 5.164706707 -2.431274891 -0.259339988 0.604370475 9.140349388 -7.589048386 -9.454363823 1.956942320 -7.322117329 5.505169868 7.769605637
ami -2.949680328 -12.307744980 3.564736366 6.881218910 8.295303345 -2.837722063 0.403746605 -0.775509834 7.395901203 -4.216492653 -13.776140213 10.445768356 2.378246546 -9.509159088 5.243500233 12.375200272 2.862458229 -0.309640169 14.753097534 9.854186058 10.683419228 -2.813975334 -7.181769848 7.356046677 -14.701559067 -2.103842497 2.359167814 4.042306423 -2.387774706 13.410744667 -4.829457283 -10.836650848 -7.105700016 8.570752144 10.690026283 -3.043041945 -1.691648960 12.573256493 -15.556378365 3.877714157 -5.630406380 4.293458939 -0.372432828 -8.503225327 3.526872158 -7.484641075 5.256834030 -2.179839611 3.755123138 -0.180102825 4.497798443 -4.047657967 3.352497101 -14.098034859 7.495332241 -4.206232071 -9.408381462 13.765883446 -1.886024952 -15.237821579 11.046617508 13.104693413 0.823619664 -12.963750839 -2.215333939 4.753555775 5.028882027 4.042510509 -16.249639511 1.094130874 -4.207213879 -5.438101292 -9.906919479 -11.541084290 19.750028610 -5.504198074 1.158919334 4.813580513 -7.046235085 -2.586879492 8.424492836 9.681372643 2.880027771 3.979712248 -0.322500437 7.961742401 -7.165961742 0.915751278 -2.626113892 1.839989901 0.140449762 5.070271969 -2.575577736 3.908406258 0.613045633 -7.370958328 6.238082409 -4.770455360 7.995640755 14.596278191 -2.949680328 -12.307744980 3.564736366 6.881218910 8.295303345 -2.837722063 0.403746605 -0.775509834 7.395901203 -4.216492653 -13.776140213 10.445768356 2.378246546 -9.509159088 5.243500233 12.375200272 2.862458229 -0.309640169 14.753097534 9.854186058 10.683419228 -2.813975334 -7.181769848 7.356046677 -14.701559067 -2.103842497 2.359167814 4.042306423 -2.387774706 13.410744667 -4.829457283 -10.836650848 -7.105700016 8.570752144 10.690026283 -3.043041945 -1.691648960 12.573256493 -15.556378365 3.877714157 -5.630406380 4.293458939 -0.372432828 -8.503225327 3.526872158 -7.484641075 5.256834030 -2.179839611 3.755123138 -0.180102825 4.497798443 -4.047657967 3.352497101 -14.098034859 7.495332241 -4.206232071 -9.408381462 13.765883446 -1.886024952 -15.237821579 11.046617508 13.104693413 0.823619664 -12.963750839 -2.215333939 4.753555775 5.028882027 4.042510509 -16.249639511 1.094130874 -4.207213879 -5.438101292 -9.906919479 -11.541084290 19.750028610 -5.504198074 1.158919334 4.813580513 -7.046235085 -2.586879492 8.424492836 9.681372643 2.880027771 3.979712248 -0.322500437 7.961742401 -7.165961742 0.915751278 -2.626113892 1.839989901 0.140449762 5.070271969 -2.575577736 3.908406258 0.613045633 -7.370958328 6.238082409 -4.770455360 7.995640755 14.596278191
ang -22.362491608 4.698087692 -7.731417179 5.508573055 17.042205811 -3.958649158 -0.923006177 0.427445531 20.564735413 -2.840054512 -3.589625359 16.084598541 17.635877609 0.452960193 -5.629135132 4.594249249 -7.072279453 5.020526409 25.568893433 -9.286127090 11.119640350 -17.202754974 -2.338942051 38.745300293 -19.657699585 -9.613219261 -0.888798118 28.455322266 -15.313643456 3.987895966 -10.148895264 -24.575769424 -14.870853424 6.836711407 0.827756226 33.605400085 1.870908737 11.114406586 -11.325272560 16.802158356 -17.938678741 33.064205170 -7.771883488 -1.979494691 10.789161682 -6.192227364 5.076001167 -14.565789223 5.011011124 -19.510639191 -9.833382607 -21.831171036 23.395877838 -11.278730392 2.000243425 -2.028501034 -3.241155624 21.311868668 18.592111588 -6.580211639 -3.286274433 3.762271881 17.100566864 -31.394393921 -18.170721054 -7.711920261 18.404693604 -2.721167088 -9.830816269 3.461970806 -21.974374771 13.308707237 -7.820504665 -5.057707787 24.934556961 -14.540702820 -12.326305389 4.637552261 6.266133308 -24.959573746 -2.980290174 33.449684143 0.665757358 -5.997735023 -28.452083588 5.450087070 -8.651141167 -6.037479877 15.553381920 5.733577728 0.086643308 9.521610260 25.322795868 0.093112826 -9.162194252 22.806510925 15.920225143 -31.189847946 1.762991428 39.631046295 -22.362491608 4.698087692 -7.731417179 5.508573055 17.042205811 -3.958649158 -0.923006177 0.427445531 20.564735413 -2.840054512 -3.589625359 16.084598541 17.635877609 0.452960193 -5.629135132 4.594249249 -7.072279453 5.020526409 25.568893433 -9.286127090 11.119640350 -17.202754974 -2.338942051 38.745300293 -19.657699585 -9.613219261 -0.888798118 28.455322266 -15.313643456 3.987895966 -10.148895264 -24.575769424 -14.870853424 6.836711407 0.827756226 33.605400085 1.870908737 11.114406586 -11.325272560 16.802158356 -17.938678741 33.064205170 -7.771883488 -1.979494691 10.789161682 -6.192227364 5.076001167 -14.565789223 5.011011124 -19.510639191 -9.833382607 -21.831171036 23.395877838 -11.278730392 2.000243425 -2.028501034 -3.241155624 21.311868668 18.592111588 -6.580211639 -3.286274433 3.762271881 17.100566864 -31.394393921 -18.170721054 -7.711920261 18.404693604 -2.721167088 -9.830816269 3.461970806 -21.974374771 13.308707237 -7.820504665 -5.057707787 24.934556961 -14.540702820 -12.326305389 4.637552261 6.266133308 -24.959573746 -2.980290174 33.449684143 0.665757358 -5.997735023 -28.452083588 5.450087070 -8.651141167 -6.037479877 15.553381920 5.733577728 0.086643308 9.521610260 25.322795868 0.093112826 -9.162194252 22.806510925 15.920225143 -31.189847946 1.762991428 39.631046295
ani -5.949680328 -9.712142944 5.178807735 7.938175201 7.433888435 -0.131326914 -0.433406591 -0.691544473 5.581675529 -5.996608734 -12.350937843 9.706578255 1.978980303 -8.590541840 4.891515255 13.375649452 1.862458348 0.700823665 15.552004814 10.854186058 9.655558586 -3.001582623 -6.288918018 7.016017914 -12.651435852 -0.516780913 1.766569853 5.690332890 -1.520440817 13.351722717 -5.037741661 -11.769655228 -8.018919945 9.555367470 10.032073975 -1.036797762 -2.425745487 13.410579681 -14.214366913 5.484686852 -7.774217606 5.551696301 1.853582859 -7.346749783 1.856061220 -6.032118320 3.268197060 -0.150138497 1.874709845 -3.180102825 4.424089909 -4.651343346 5.155779362 -12.587522507 7.725325108 -3.206232071 -8.274569511 15.456475258 -3.689307213 -17.661279678 10.271800995 13.618421555 0.053097963 -11.171031952 0.296792746 5.097377777 5.326255798 6.138167381 -15.249639511 -1.193450451 -3.735776424 -3.591843128 -9.661005020 -9.340459824 19.151147842 -5.469890594 0.352531523 3.841698647 -6.554835796 0.413120538 5.877637863 8.023256302 4.902180195 4.216993332 0.349100709 5.262707710 -6.781835079 2.082862377 -4.956693649 2.087431431 -1.155442119 6.096694469 -3.830368996 3.788897991 -1.097212791 -5.403557777 4.146397114 -6.102493763 7.773189545 14.319675446 -5.949680328 -9.712142944 5.178807735 7.938175201 7.433888435 -0.131326914 -0.433406591 -0.691544473 5.581675529 -5.996608734 -12.350937843 9.706578255 1.978980303 -8.590541840 4.891515255 13.375649452 1.862458348 0.700823665 15.552004814 10.854186058 9.655558586 -3.001582623 -6.288918018 7.016017914 -12.651435852 -0.516780913 1.766569853 5.690332890 -1.520440817 13.351722717 -5.037741661 -11.769655228 -8.018919945 9.555367470 10.032073975 -1.036797762 -2.425745487 13.410579681 -14.214366913 5.484686852 -7.774217606 5.551696301 1.853582859 -7.346749783 1.856061220 -6.032118320 3.268197060 -0.150138497 1.874709845 -3.180102825 4.424089909 -4.651343346 5.155779362 -12.587522507 7.725325108 -3.206232071 -8.274569511 15.456475258 -3.689307213 -17.661279678 10.271800995 13.618421555 0.053097963 -11.171031952 0.296792746 5.097377777 5.326255798 6.138167381 -15.249639511 -1.193450451 -3.735776424 -3.591843128 -9.661005020 -9.340459824 19.151147842 -5.469890594 0.352531523 3.841698647 -6.554835796 0.413120538 5.877637863 8.023256302 4.902180195 4.216993332 0.349100709 5.262707710 -6.781835079 2.082862377 -4.956693649 2.087431431 -1.155442119 6.096694469 -3.830368996 3.788897991 -1.097212791 -5.403557777 4.146397114 -6.102493763 7.773189545 14.319675446
aoz -5.949680328 -9.712142944 5.178807735 7.938175201 7.433888435 -0.131326914 -0.433406591 -0.691544473 5.581675529 -5.996608734 -12.350937843 9.706578255 1.978980303 -8.590541840 4.891515255 13.375649452 1.862458348 0.700823665 15.552004814 10.854186058 9.655558586 -3.001582623 -6.288918018 7.016017914 -12.651435852 -0.516780913 1.766569853 5.690332890 -1.520440817 13.351722717 -5.037741661 -11.769655228 -8.018919945 9.555367470 10.032073975 -1.036797762 -2.425745487 13.410579681 -14.214366913 5.484686852 -7.774217606 5.551696301 1.853582859 -7.346749783 1.856061220 -6.032118320 3.268197060 -0.150138497 1.874709845 -3.180102825 4.424089909 -4.651343346 5.155779362 -12.587522507 7.725325108 -3.206232071 -8.274569511 15.456475258 -3.689307213 -17.661279678 10.271800995 13.618421555 0.053097963 -11.171031952 0.296792746 5.097377777 5.326255798 6.138167381 -15.249639511 -1.193450451 -3.735776424 -3.591843128 -9.661005020 -9.340459824 19.151147842 -5.469890594 0.352531523 3.841698647 -6.554835796 0.413120538 5.877637863 8.023256302 4.902180195 4.216993332 0.349100709 5.262707710 -6.781835079 2.082862377 -4.956693649 2.087431431 -1.155442119 6.096694469 -3.830368996 3.788897991 -1.097212791 -5.403557777 4.146397114 -6.102493763 7.773189545 14.319675446 -5.949680328 -9.712142944 5.178807735 7.938175201 7.433888435 -0.131326914 -0.433406591 -0.691544473 5.581675529 -5.996608734 -12.350937843 9.706578255 1.978980303 -8.590541840 4.891515255 13.375649452 1.862458348 0.700823665 15.552004814 10.854186058 9.655558586 -3.001582623 -6.288918018 7.016017914 -12.651435852 -0.516780913 1.766569853 5.690332890 -1.520440817 13.351722717 -5.037741661 -11.769655228 -8.018919945 9.555367470 10.032073975 -1.036797762 -2.425745487 13.410579681 -14.214366913 5.484686852 -7.774217606 5.551696301 1.853582859 -7.346749783 1.856061220 -6.032118320 3.268197060 -0.150138497 1.874709845 -3.180102825 4.424089909 -4.651343346 5.155779362 -12.587522507 7.725325108 -3.206232071 -8.274569511 15.456475258 -3.689307213 -17.661279678 10.271800995 13.618421555 0.053097963 -11.171031952 0.296792746 5.097377777 5.326255798 6.138167381 -15.249639511 -1.193450451 -3.735776424 -3.591843128 -9.661005020 -9.340459824 19.151147842 -5.469890594 0.352531523 3.841698647 -6.554835796 0.413120538 5.877637863 8.023256302 4.902180195 4.216993332 0.349100709 5.262707710 -6.781835079 2.082862377 -4.956693649 2.087431431 -1.155442119 6.096694469 -3.830368996 3.788897991 -1.097212791 -5.403557777 4.146397114 -6.102493763 7.773189545 14.319675446
apc -5.949680328 -9.712142944 5.178807735 7.938175201 7.433888435 -0.131326914 -0.433406591 -0.691544473 5.581675529 -5.996608734 -12.350937843 9.706578255 1.978980303 -8.590541840 4.891515255 13.375649452 1.862458348 0.700823665 15.552004814 10.854186058 9.655558586 -3.001582623 -6.288918018 7.016017914 -12.651435852 -0.516780913 1.766569853 5.690332890 -1.520440817 13.351722717 -5.037741661 -11.769655228 -8.018919945 9.555367470 10.032073975 -1.036797762 -2.425745487 13.410579681 -14.214366913 5.484686852 -7.774217606 5.551696301 1.853582859 -7.346749783 1.856061220 -6.032118320 3.268197060 -0.150138497 1.874709845 -3.180102825 4.424089909 -4.651343346 5.155779362 -12.587522507 7.725325108 -3.206232071 -8.274569511 15.456475258 -3.689307213 -17.661279678 10.271800995 13.618421555 0.053097963 -11.171031952 0.296792746 5.097377777 5.326255798 6.138167381 -15.249639511 -1.193450451 -3.735776424 -3.591843128 -9.661005020 -9.340459824 19.151147842 -5.469890594 0.352531523 3.841698647 -6.554835796 0.413120538 5.877637863 8.023256302 4.902180195 4.216993332 0.349100709 5.262707710 -6.781835079 2.082862377 -4.956693649 2.087431431 -1.155442119 6.096694469 -3.830368996 3.788897991 -1.097212791 -5.403557777 4.146397114 -6.102493763 7.773189545 14.319675446 -5.949680328 -9.712142944 5.178807735 7.938175201 7.433888435 -0.131326914 -0.433406591 -0.691544473 5.581675529 -5.996608734 -12.350937843 9.706578255 1.978980303 -8.590541840 4.891515255 13.375649452 1.862458348 0.700823665 15.552004814 10.854186058 9.655558586 -3.001582623 -6.288918018 7.016017914 -12.651435852 -0.516780913 1.766569853 5.690332890 -1.520440817 13.351722717 -5.037741661 -11.769655228 -8.018919945 9.555367470 10.032073975 -1.036797762 -2.425745487 13.410579681 -14.214366913 5.484686852 -7.774217606 5.551696301 1.853582859 -7.346749783 1.856061220 -6.032118320 3.268197060 -0.150138497 1.874709845 -3.180102825 4.424089909 -4.651343346 5.155779362 -12.587522507 7.725325108 -3.206232071 -8.274569511 15.456475258 -3.689307213 -17.661279678 10.271800995 13.618421555 0.053097963 -11.171031952 0.296792746 5.097377777 5.326255798 6.138167381 -15.249639511 -1.193450451 -3.735776424 -3.591843128 -9.661005020 -9.340459824 19.151147842 -5.469890594 0.352531523 3.841698647 -6.554835796 0.413120538 5.877637863 8.023256302 4.902180195 4.216993332 0.349100709 5.262707710 -6.781835079 2.082862377 -4.956693649 2.087431431 -1.155442119 6.096694469 -3.830368996 3.788897991 -1.097212791 -5.403557777 4.146397114 -6.102493763 7.773189545 14.319675446
apw -3.997919559 -10.844419479 6.534316063 6.266248226 3.769617558 -1.197858214 -0.488783211 -0.025130838 4.901594639 -8.958520889 -7.273218632 8.414335251 1.097868443 -5.096784115 0.749930561 13.491702080 2.605215073 1.311371326 16.285421371 10.167106628 3.646387100 -6.467564583 -6.627961636 9.672881126 -12.631843567 -0.861368895 -0.820436716 6.868252754 0.562950611 16.020679474 -5.659169674 -13.195833206 -11.574123383 10.560622215 6.084025383 0.928284407 -3.987203836 9.091094017 -13.445133209 7.510616779 -10.029496193 2.765387058 2.253732204 -5.843436241 -1.070472121 -0.055838585 7.083032608 1.101418614 1.853618503 -6.066524506 2.316593409 -4.106350899 3.979199886 -10.775804520 10.543961525 -1.547407150 -7.741877556 18.417293549 -3.512085676 -17.322273254 7.326679230 13.841481209 2.181708813 -13.866707802 0.873460770 5.035859108 3.333057880 8.979453087 -15.247134209 0.853627324 -3.038510561 1.386780500 -5.801259995 -7.822320938 23.748197556 -3.754278898 0.026016176 3.732091188 -8.914180756 4.104709148 3.013076782 4.101102829 4.317545891 2.835924864 2.769835234 5.079645157 -8.735747337 3.064199448 -4.688435555 5.541198254 -0.055917561 4.365537643 -3.427831173 3.397858858 -0.358596265 -6.049744129 3.790239811 -7.331006050 5.297855854 13.417999268 -3.997919559 -10.844419479 6.534316063 6.266248226 3.769617558 -1.197858214 -0.488783211 -0.025130838 4.901594639 -8.958520889 -7.273218632 8.414335251 1.097868443 -5.096784115 0.749930561 13.491702080 2.605215073 1.311371326 16.285421371 10.167106628 3.646387100 -6.467564583 -6.627961636 9.672881126 -12.631843567 -0.861368895 -0.820436716 6.868252754 0.562950611 16.020679474 -5.659169674 -13.195833206 -11.574123383 10.560622215 6.084025383 0.928284407 -3.987203836 9.091094017 -13.445133209 7.510616779 -10.029496193 2.765387058 2.253732204 -5.843436241 -1.070472121 -0.055838585 7.083032608 1.101418614 1.853618503 -6.066524506 2.316593409 -4.106350899 3.979199886 -10.775804520 10.543961525 -1.547407150 -7.741877556 18.417293549 -3.512085676 -17.322273254 7.326679230 13.841481209 2.181708813 -13.866707802 0.873460770 5.035859108 3.333057880 8.979453087 -15.247134209 0.853627324 -3.038510561 1.386780500 -5.801259995 -7.822320938 23.748197556 -3.754278898 0.026016176 3.732091188 -8.914180756 4.104709148 3.013076782 4.101102829 4.317545891 2.835924864 2.769835234 5.079645157 -8.735747337 3.064199448 -4.688435555 5.541198254 -0.055917561 4.365537643 -3.427831173 3.397858858 -0.358596265 -6.049744129 3.790239811 -7.331006050 5.297855854 13.417999268
aqc -5.949680328 -9.712142944 5.178807735 7.938175201 7.433888435 -0.131326914 -0.433406591 -0.691544473 5.581675529 -5.996608734 -12.350937843 9.706578255 1.978980303 -8.590541840 4.891515255 13.375649452 1.862458348 0.700823665 15.552004814 10.854186058 9.655558586 -3.001582623 -6.288918018 7.016017914 -12.651435852 -0.516780913 1.766569853 5.690332890 -1.520440817 13.351722717 -5.037741661 -11.769655228 -8.018919945 9.555367470 10.032073975 -1.036797762 -2.425745487 13.410579681 -14.214366913 5.484686852 -7.774217606 5.551696301 1.853582859 -7.346749783 1.856061220 -6.032118320 3.268197060 -0.150138497 1.874709845 -3.180102825 4.424089909 -4.651343346 5.155779362 -12.587522507 7.725325108 -3.206232071 -8.274569511 15.456475258 -3.689307213 -17.661279678 10.271800995 13.618421555 0.053097963 -11.171031952 0.296792746 5.097377777 5.326255798 6.138167381 -15.249639511 -1.193450451 -3.735776424 -3.591843128 -9.661005020 -9.340459824 19.151147842 -5.469890594 0.352531523 3.841698647 -6.554835796 0.413120538 5.877637863 8.023256302 4.902180195 4.216993332 0.349100709 5.262707710 -6.781835079 2.082862377 -4.956693649 2.087431431 -1.155442119 6.096694469 -3.830368996 3.788897991 -1.097212791 -5.403557777 4.146397114 -6.102493763 7.773189545 14.319675446 -5.949680328 -9.712142944 5.178807735 7.938175201 7.433888435 -0.131326914 -0.433406591 -0.691544473 5.581675529 -5.996608734 -12.350937843 9.706578255 1.978980303 -8.590541840 4.891515255 13.375649452 1.862458348 0.700823665 15.552004814 10.854186058 9.655558586 -3.001582623 -6.288918018 7.016017914 -12.651435852 -0.516780913 1.766569853 5.690332890 -1.520440817 13.351722717 -5.037741661 -11.769655228 -8.018919945 9.555367470 10.032073975 -1.036797762 -2.425745487 13.410579681 -14.214366913 5.484686852 -7.774217606 5.551696301 1.853582859 -7.346749783 1.856061220 -6.032118320 3.268197060 -0.150138497 1.874709845 -3.180102825 4.424089909 -4.651343346 5.155779362 -12.587522507 7.725325108 -3.206232071 -8.274569511 15.456475258 -3.689307213 -17.661279678 10.271800995 13.618421555 0.053097963 -11.171031952 0.296792746 5.097377777 5.326255798 6.138167381 -15.249639511 -1.193450451 -3.735776424 -3.591843128 -9.661005020 -9.340459824 19.151147842 -5.469890594 0.352531523 3.841698647 -6.554835796 0.413120538 5.877637863 8.023256302 4.902180195 4.216993332 0.349100709 5.262707710 -6.781835079 2.082862377 -4.956693649 2.087431431 -1.155442119 6.096694469 -3.830368996 3.788897991 -1.097212791 -5.403557777 4.146397114 -6.102493763 7.773189545 14.319675446
ara -251.623275757 744.962768555 2258.151367188 2371.650634766 -1145.658691406 1319.637573242 1380.995361328 -3196.785644531 1637.207397461 -1302.368041992 2154.260009766 3494.767089844 -157.021911621 -572.969665527 1138.053710938 -2085.581542969 1970.792236328 1245.127563477 1019.945617676 -1097.839111328 1082.586791992 -2584.449951172 3804.440429688 -360.609130859 891.433776855 1655.209350586 3339.261718750 453.970092773 -1110.903930664 -2333.328613281 126.349220276 -230.814819336 2614.896484375 1051.316406250 -2750.528808594 875.764709473 3781.214111328 1372.611938477 -1696.281494141 -155.232925415 64.007743835 -471.258911133 169.765243530 -1077.402099609 -692.713989258 1055.105834961 790.221252441 942.334228516 -420.024444580 2820.984130859 -2120.979492188 718.850036621 -1446.252685547 -607.888793945 -1417.911499023 -159.794662476 -1217.677734375 2152.882568359 -1621.263916016 317.058776855 1239.603759766 -870.254394531 1049.816528320 90.580215454 1301.082275391 576.409240723 -83.768554688 1930.147094727 -1167.550903320 -283.056213379 947.687133789 -871.338195801 -727.596252441 81.360870361 1348.239379883 -38.889190674 -228.892807007 -1303.230957031 1235.886352539 1084.099487305 535.460021973 -269.786926270 1456.041748047 409.601623535 -1107.064941406 -3450.308349609 156.609634399 -2256.364257812 595.277770996 1258.015869141 1609.988403320 -57.020164490 -44.123291016 1807.128906250 -413.484008789 -2713.602539062 1003.747863770 -1711.972534180 -507.223999023 1035.213867188 -251.623275757 744.962768555 2258.151367188 2371.650634766 -1145.658691406 1319.637573242 1380.995361328 -3196.785644531 1637.207397461 -1302.368041992 2154.260009766 3494.767089844 -157.021911621 -572.969665527 1138.053710938 -2085.581542969 1970.792236328 1245.127563477 1019.945617676 -1097.839111328 1082.586791992 -2584.449951172 3804.440429688 -360.609130859 891.433776855 1655.209350586 3339.261718750 453.970092773 -1110.903930664 -2333.328613281 126.349220276 -230.814819336 2614.896484375 1051.316406250 -2750.528808594 875.764709473 3781.214111328 1372.611938477 -1696.281494141 -155.232925415 64.007743835 -471.258911133 169.765243530 -1077.402099609 -692.713989258 1055.105834961 790.221252441 942.334228516 -420.024444580 2820.984130859 -2120.979492188 718.850036621 -1446.252685547 -607.888793945 -1417.911499023 -159.794662476 -1217.677734375 2152.882568359 -1621.263916016 317.058776855 1239.603759766 -870.254394531 1049.816528320 90.580215454 1301.082275391 576.409240723 -83.768554688 1930.147094727 -1167.550903320 -283.056213379 947.687133789 -871.338195801 -727.596252441 81.360870361 1348.239379883 -38.889190674 -228.892807007 -1303.230957031 1235.886352539 1084.099487305 535.460021973 -269.786926270 1456.041748047 409.601623535 -1107.064941406 -3450.308349609 156.609634399 -2256.364257812 595.277770996 1258.015869141 1609.988403320 -57.020164490 -44.123291016 1807.128906250 -413.484008789 -2713.602539062 1003.747863770 -1711.972534180 -507.223999023 1035.213867188
arc -5.123996735 -10.664862633 9.098562241 11.312837601 0.835976958 -0.404665053 0.366110325 1.131013870 9.647190094 -1.446978211 -5.396607876 7.178954124 4.238096714 -11.940579414 2.908747196 18.563531876 -5.149154186 -2.418662071 21.782558441 7.524342537 3.159626007 1.820919752 -6.107022762 4.178222179 -14.691169739 2.078809023 8.169647217 8.217887878 -2.023825407 15.042786598 -3.520724058 -12.625119209 -7.404963493 10.966679573 8.716381073 1.096004009 0.165413439 13.590695381 -12.724230766 5.598255634 -10.646963120 1.706193209 8.108796120 -7.276389599 6.512513638 -7.356978416 7.926093102 -1.634772182 -0.388681442 1.478370070 7.867030621 -1.013267040 5.794426441 -10.495714188 5.298738480 0.538752496 -8.306703568 16.922861099 -7.797894955 -23.593923569 8.839888573 11.494715691 2.020932674 -19.007631302 1.540818930 8.290486336 6.826464176 10.021625519 -12.715505600 5.156187057 -0.870964885 -2.949084520 -5.234118462 -5.403676510 24.032306671 -10.675364494 1.737389088 15.307013512 -5.910099983 -2.263153076 3.624481916 12.510112762 -5.804034710 0.562578321 -2.002948046 0.708109736 -0.497573853 2.599950552 -1.246543884 -0.486000836 -7.813156128 6.059676170 -8.485570908 5.840858936 3.238917112 2.733609200 1.936440825 0.380116343 6.451631069 12.679376602 -5.123996735 -10.664862633 9.098562241 11.312837601 0.835976958 -0.404665053 0.366110325 1.131013870 9.647190094 -1.446978211 -5.396607876 7.178954124 4.238096714 -11.940579414 2.908747196 18.563531876 -5.149154186 -2.418662071 21.782558441 7.524342537 3.159626007 1.820919752 -6.107022762 4.178222179 -14.691169739 2.078809023 8.169647217 8.217887878 -2.023825407 15.042786598 -3.520724058 -12.625119209 -7.404963493 10.966679573 8.716381073 1.096004009 0.165413439 13.590695381 -12.724230766 5.598255634 -10.646963120 1.706193209 8.108796120 -7.276389599 6.512513638 -7.356978416 7.926093102 -1.634772182 -0.388681442 1.478370070 7.867030621 -1.013267040 5.794426441 -10.495714188 5.298738480 0.538752496 -8.306703568 16.922861099 -7.797894955 -23.593923569 8.839888573 11.494715691 2.020932674 -19.007631302 1.540818930 8.290486336 6.826464176 10.021625519 -12.715505600 5.156187057 -0.870964885 -2.949084520 -5.234118462 -5.403676510 24.032306671 -10.675364494 1.737389088 15.307013512 -5.910099983 -2.263153076 3.624481916 12.510112762 -5.804034710 0.562578321 -2.002948046 0.708109736 -0.497573853 2.599950552 -1.246543884 -0.486000836 -7.813156128 6.059676170 -8.485570908 5.840858936 3.238917112 2.733609200 1.936440825 0.380116343 6.451631069 12.679376602
arg -2.247944355 -5.676057816 13.505868912 19.356044769 -0.699221194 -12.127034187 3.166864157 9.751014709 17.464387894 -6.824306488 -10.222924232 16.624784470 0.818169534 -10.650632858 3.527940273 21.626079559 -7.534450054 -2.015428066 20.264802933 0.789206266 3.207281590 7.411652565 8.958490372 13.971256256 -25.030492783 9.345514297 -10.923916817 15.297884941 4.284573078 9.823601723 -11.914096832 -22.052812576 -1.545587301 16.774009705 7.551185608 -4.590807438 -13.908323288 9.690387726 -14.724451065 13.506524086 -15.952033043 19.399402618 -6.765172482 0.353171438 -4.922313213 -11.492915154 1.320594788 8.322935104 -3.479449749 -11.888556480 14.836522102 -12.061396599 12.801635742 -7.519054413 3.180279970 -15.781826973 -11.850393295 12.976716042 -10.339332581 -14.319878578 24.315683365 15.442133904 16.865560532 -11.521430016 -10.722907066 12.270165443 19.788499832 3.579524517 2.576802492 -6.923346996 5.150904179 -4.259440899 -18.162151337 -18.832563400 28.136831284 -16.123260498 -0.738156915 0.142079055 -21.173269272 8.133090973 -2.385880947 20.754297256 6.586312294 -1.267308116 -8.522808075 -6.348588467 -16.169782639 -2.392150402 -9.763191223 -6.895471096 -7.789418697 -1.178636551 -20.910097122 -14.143445015 -6.173061848 4.602906227 5.321098804 -10.335823059 -6.131674767 7.443274498 -2.247944355 -5.676057816 13.505868912 19.356044769 -0.699221194 -12.127034187 3.166864157 9.751014709 17.464387894 -6.824306488 -10.222924232 16.624784470 0.818169534 -10.650632858 3.527940273 21.626079559 -7.534450054 -2.015428066 20.264802933 0.789206266 3.207281590 7.411652565 8.958490372 13.971256256 -25.030492783 9.345514297 -10.923916817 15.297884941 4.284573078 9.823601723 -11.914096832 -22.052812576 -1.545587301 16.774009705 7.551185608 -4.590807438 -13.908323288 9.690387726 -14.724451065 13.506524086 -15.952033043 19.399402618 -6.765172482 0.353171438 -4.922313213 -11.492915154 1.320594788 8.322935104 -3.479449749 -11.888556480 14.836522102 -12.061396599 12.801635742 -7.519054413 3.180279970 -15.781826973 -11.850393295 12.976716042 -10.339332581 -14.319878578 24.315683365 15.442133904 16.865560532 -11.521430016 -10.722907066 12.270165443 19.788499832 3.579524517 2.576802492 -6.923346996 5.150904179 -4.259440899 -18.162151337 -18.832563400 28.136831284 -16.123260498 -0.738156915 0.142079055 -21.173269272 8.133090973 -2.385880947 20.754297256 6.586312294 -1.267308116 -8.522808075 -6.348588467 -16.169782639 -2.392150402 -9.763191223 -6.895471096 -7.789418697 -1.178636551 -20.910097122 -14.143445015 -6.173061848 4.602906227 5.321098804 -10.335823059 -6.131674767 7.443274498
arn -6.949680328 -8.712142944 4.178807735 6.938175201 8.433888435 0.485708952 -1.433406591 0.308455527 4.969328880 -6.962927341 -11.399382591 8.706578255 2.978980303 -7.590541840 5.891515255 14.375649452 2.862458229 -0.299176335 16.552005768 11.854186058 9.604690552 -2.001582623 -7.288918018 6.016017914 -11.651435852 0.483219087 1.817437768 6.246814251 -0.520440817 12.351722717 -4.743546963 -10.769655228 -9.018919945 9.504499435 11.032073975 -0.036797762 -1.425745487 12.410579681 -13.214366913 4.484686852 -6.774217606 4.551696301 2.853582859 -7.256001949 2.036740780 -5.314753056 3.447521687 0.849861503 0.874709845 -4.130096912 3.424089909 -4.878950596 4.686320305 -11.587522507 7.577404499 -2.206232071 -7.274569511 16.456474304 -4.689307213 -18.661279678 11.271800995 14.618421555 0.002230078 -12.171031952 1.296792746 4.345147133 5.275387764 7.138167381 -16.249639511 -2.193450451 -4.735776424 -4.591843128 -10.661005020 -10.340459824 20.151147842 -6.469890594 1.352531552 2.841698647 -5.554835796 -0.586879492 6.542458534 8.518642426 5.902180195 3.216993332 0.271799564 6.262707710 -7.781835079 3.082862377 -3.956693649 1.087431431 -2.155442238 5.096694469 -3.460628510 4.788897991 -0.145657361 -5.700918198 5.146397114 -5.102493763 7.722321510 13.319675446 -6.949680328 -8.712142944 4.178807735 6.938175201 8.433888435 0.485708952 -1.433406591 0.308455527 4.969328880 -6.962927341 -11.399382591 8.706578255 2.978980303 -7.590541840 5.891515255 14.375649452 2.862458229 -0.299176335 16.552005768 11.854186058 9.604690552 -2.001582623 -7.288918018 6.016017914 -11.651435852 0.483219087 1.817437768 6.246814251 -0.520440817 12.351722717 -4.743546963 -10.769655228 -9.018919945 9.504499435 11.032073975 -0.036797762 -1.425745487 12.410579681 -13.214366913 4.484686852 -6.774217606 4.551696301 2.853582859 -7.256001949 2.036740780 -5.314753056 3.447521687 0.849861503 0.874709845 -4.130096912 3.424089909 -4.878950596 4.686320305 -11.587522507 7.577404499 -2.206232071 -7.274569511 16.456474304 -4.689307213 -18.661279678 11.271800995 14.618421555 0.002230078 -12.171031952 1.296792746 4.345147133 5.275387764 7.138167381 -16.249639511 -2.193450451 -4.735776424 -4.591843128 -10.661005020 -10.340459824 20.151147842 -6.469890594 1.352531552 2.841698647 -5.554835796 -0.586879492 6.542458534 8.518642426 5.902180195 3.216993332 0.271799564 6.262707710 -7.781835079 3.082862377 -3.956693649 1.087431431 -2.155442238 5.096694469 -3.460628510 4.788897991 -0.145657361 -5.700918198 5.146397114 -5.102493763 7.722321510 13.319675446
ary -3.955663204 -9.248304367 5.363843441 8.701804161 6.014752388 -0.452534616 1.646786213 -1.500302792 5.145998955 -5.433612823 -9.232603073 8.598911285 3.103061914 -6.200106621 2.757255793 11.544344902 4.769289017 -0.992606401 13.652022362 12.629625320 9.708379745 -4.477998734 -3.949442625 8.389892578 -15.649109840 -2.287851810 0.627201200 3.937374592 -7.441579819 12.182973862 -2.657541037 -10.916602135 -9.471166611 11.129101753 8.502087593 0.192411900 -0.835703433 12.011371613 -12.256912231 5.264855862 -8.248664856 2.422845840 1.042424917 -8.130642891 3.269285679 -6.199008942 3.757203341 -3.390932798 -1.074897528 -3.827016592 5.023623943 -4.223499298 2.487479210 -11.450356483 8.804952621 -3.647195578 -5.219023228 17.999153137 -5.369590759 -16.181270599 8.778796196 12.460590363 -0.299287856 -10.797088623 4.696769238 4.283396721 6.437607288 5.740035057 -15.450626373 -1.407562733 -7.428570747 -3.634645939 -11.369024277 -10.032711983 20.459346771 -6.487397671 -1.166924357 0.665509582 -8.074649811 2.983385801 7.494007587 6.880565643 5.472831726 4.485835075 -0.102400243 7.787704945 -8.809825897 3.933480024 -4.387841225 0.164431527 -4.580015182 3.556717396 -6.397634506 3.900522709 -3.077293396 -2.883010387 4.872768402 -9.232979774 10.768710136 14.514186859 -3.955663204 -9.248304367 5.363843441 8.701804161 6.014752388 -0.452534616 1.646786213 -1.500302792 5.145998955 -5.433612823 -9.232603073 8.598911285 3.103061914 -6.200106621 2.757255793 11.544344902 4.769289017 -0.992606401 13.652022362 12.629625320 9.708379745 -4.477998734 -3.949442625 8.389892578 -15.649109840 -2.287851810 0.627201200 3.937374592 -7.441579819 12.182973862 -2.657541037 -10.916602135 -9.471166611 11.129101753 8.502087593 0.192411900 -0.835703433 12.011371613 -12.256912231 5.264855862 -8.248664856 2.422845840 1.042424917 -8.130642891 3.269285679 -6.199008942 3.757203341 -3.390932798 -1.074897528 -3.827016592 5.023623943 -4.223499298 2.487479210 -11.450356483 8.804952621 -3.647195578 -5.219023228 17.999153137 -5.369590759 -16.181270599 8.778796196 12.460590363 -0.299287856 -10.797088623 4.696769238 4.283396721 6.437607288 5.740035057 -15.450626373 -1.407562733 -7.428570747 -3.634645939 -11.369024277 -10.032711983 20.459346771 -6.487397671 -1.166924357 0.665509582 -8.074649811 2.983385801 7.494007587 6.880565643 5.472831726 4.485835075 -0.102400243 7.787704945 -8.809825897 3.933480024 -4.387841225 0.164431527 -4.580015182 3.556717396 -6.397634506 3.900522709 -3.077293396 -2.883010387 4.872768402 -9.232979774 10.768710136 14.514186859
arz -13.742950439 2.464472055 6.339688301 9.403634071 14.074691772 5.734901428 -4.189703465 3.193016052 17.611349106 -15.403171539 -4.038686275 19.416322708 9.704413414 -4.454282761 4.798846722 14.108950615 7.764447689 -4.071488857 13.443584442 16.736677170 2.270735979 2.758812666 -11.922214508 21.306596756 -5.421575546 -6.081236839 -10.606845856 9.148324013 -4.851202011 12.478661537 -6.296958447 -6.626818180 -6.499331474 10.577503204 18.293844223 -8.655467033 4.524189949 27.649753571 -7.273813725 2.959145546 -9.030560493 11.728368759 -0.288655162 0.677013993 -6.111934185 -8.621871948 -10.043339729 7.015571594 14.575232506 7.831146717 4.123861313 -9.096389771 6.589028358 -23.361351013 2.152385235 -9.009424210 -11.762553215 22.435745239 -6.953323841 -22.335826874 13.456250191 -0.802006841 -2.913530827 -10.038968086 6.533296108 3.776350498 -4.808826447 6.335292339 -7.565568924 -2.015237808 11.832632065 0.702645004 -10.277718544 -0.539451182 24.945861816 -4.066420078 -0.150563180 3.960986137 -3.662585258 -1.538879156 19.346714020 7.070071697 10.010078430 -12.476380348 0.374648452 3.187773943 -12.105770111 -3.203238964 8.290045738 11.215310097 -11.341083527 3.234290838 -3.274670601 8.195187569 -4.398461342 -2.281163216 9.208086967 -8.849316597 8.505162239 8.685217857 -13.742950439 2.464472055 6.339688301 9.403634071 14.074691772 5.734901428 -4.189703465 3.193016052 17.611349106 -15.403171539 -4.038686275 19.416322708 9.704413414 -4.454282761 4.798846722 14.108950615 7.764447689 -4.071488857 13.443584442 16.736677170 2.270735979 2.758812666 -11.922214508 21.306596756 -5.421575546 -6.081236839 -10.606845856 9.148324013 -4.851202011 12.478661537 -6.296958447 -6.626818180 -6.499331474 10.577503204 18.293844223 -8.655467033 4.524189949 27.649753571 -7.273813725 2.959145546 -9.030560493 11.728368759 -0.288655162 0.677013993 -6.111934185 -8.621871948 -10.043339729 7.015571594 14.575232506 7.831146717 4.123861313 -9.096389771 6.589028358 -23.361351013 2.152385235 -9.009424210 -11.762553215 22.435745239 -6.953323841 -22.335826874 13.456250191 -0.802006841 -2.913530827 -10.038968086 6.533296108 3.776350498 -4.808826447 6.335292339 -7.565568924 -2.015237808 11.832632065 0.702645004 -10.277718544 -0.539451182 24.945861816 -4.066420078 -0.150563180 3.960986137 -3.662585258 -1.538879156 19.346714020 7.070071697 10.010078430 -12.476380348 0.374648452 3.187773943 -12.105770111 -3.203238964 8.290045738 11.215310097 -11.341083527 3.234290838 -3.274670601 8.195187569 -4.398461342 -2.281163216 9.208086967 -8.849316597 8.505162239 8.685217857
asm -11.723464966 7.841073036 3.330494404 9.088555336 0.934018254 2.073556662 2.067639351 -5.515358448 7.215271473 -10.006621361 -17.376499176 14.670957565 -2.617225885 -0.437392712 -0.827612579 11.084366798 3.765552759 -10.293654442 24.327432632 16.091796875 9.194855690 -8.176602364 -11.526939392 2.805876970 -15.044990540 -4.817987442 -1.348256230 6.854008675 7.225581169 14.901657104 -2.893193722 -15.806875229 -9.665716171 5.319750309 14.143764496 -6.944539070 -0.528504014 13.998103142 -10.234870911 17.730693817 -6.719829559 4.153766632 3.785285234 -12.191020012 -8.102961540 -3.671346903 0.535973608 -3.080564499 7.639541626 3.634127378 0.737296879 -0.665759444 6.998880386 -29.147325516 6.079676151 -7.332664490 -9.485308647 7.614696980 -4.468341351 -20.908405304 17.717155457 17.101558685 0.768976569 -18.957439423 10.964274406 0.342291534 21.058597565 -0.211350381 -8.398161888 -3.650836945 2.198476791 -11.914297104 -6.804535866 -12.242730141 11.094717979 -21.064689636 -6.206184864 -10.382247925 -6.518373013 0.341470242 12.460661888 5.301461697 -7.671682358 3.946581125 -3.396354675 4.682573795 -6.635539055 -6.654432297 -1.078980088 -2.969622135 0.824913800 -0.049559284 -1.046402931 3.586939573 -16.650701523 3.244273901 -2.623182058 -9.043149948 -6.242314339 8.801066399 -11.723464966 7.841073036 3.330494404 9.088555336 0.934018254 2.073556662 2.067639351 -5.515358448 7.215271473 -10.006621361 -17.376499176 14.670957565 -2.617225885 -0.437392712 -0.827612579 11.084366798 3.765552759 -10.293654442 24.327432632 16.091796875 9.194855690 -8.176602364 -11.526939392 2.805876970 -15.044990540 -4.817987442 -1.348256230 6.854008675 7.225581169 14.901657104 -2.893193722 -15.806875229 -9.665716171 5.319750309 14.143764496 -6.944539070 -0.528504014 13.998103142 -10.234870911 17.730693817 -6.719829559 4.153766632 3.785285234 -12.191020012 -8.102961540 -3.671346903 0.535973608 -3.080564499 7.639541626 3.634127378 0.737296879 -0.665759444 6.998880386 -29.147325516 6.079676151 -7.332664490 -9.485308647 7.614696980 -4.468341351 -20.908405304 17.717155457 17.101558685 0.768976569 -18.957439423 10.964274406 0.342291534 21.058597565 -0.211350381 -8.398161888 -3.650836945 2.198476791 -11.914297104 -6.804535866 -12.242730141 11.094717979 -21.064689636 -6.206184864 -10.382247925 -6.518373013 0.341470242 12.460661888 5.301461697 -7.671682358 3.946581125 -3.396354675 4.682573795 -6.635539055 -6.654432297 -1.078980088 -2.969622135 0.824913800 -0.049559284 -1.046402931 3.586939573 -16.650701523 3.244273901 -2.623182058 -9.043149948 -6.242314339 8.801066399
ast -10.689114571 17.925865173 13.967469215 8.404956818 -15.478355408 -0.936014116 21.339267731 19.572582245 28.702062607 -3.843132734 49.151386261 11.042397499 21.209121704 8.265526772 -30.453517914 26.244625092 -0.393080115 -29.876369476 27.263326645 48.645740509 2.753606796 8.388329506 16.777128220 -3.310510874 -0.697742581 51.660823822 -8.960486412 31.943410873 26.693626404 4.269949436 8.360351562 -61.047916412 -4.366698742 23.036121368 -27.684850693 -11.616439819 -11.091894150 4.776072025 -27.027332306 32.048984528 -13.167244911 54.394760132 8.980411530 16.254142761 10.067165375 -3.555802822 5.268782139 10.483139992 -17.276412964 15.105046272 3.680504799 -0.350163817 -10.342977524 -9.835441589 23.355764389 -37.957355499 -3.938512802 7.829725742 -21.535848618 13.010315895 44.358749390 -5.415898800 33.462837219 -25.112007141 1.742091179 -34.202766418 34.201679230 7.117791176 0.711881042 -5.464805603 14.643168449 -26.365053177 9.636528969 -24.231882095 29.259687424 -27.164173126 5.746026993 3.684365034 -2.447048426 18.865983963 9.664426804 21.436004639 -11.157229424 22.080034256 -13.353819847 -29.861543655 -21.230272293 46.319561005 -18.592176437 -0.887361646 -12.416015625 -20.915956497 -21.662134171 -24.073738098 -21.679563522 27.175710678 32.733413696 10.541865349 27.008708954 -6.220702171 -10.689114571 17.925865173 13.967469215 8.404956818 -15.478355408 -0.936014116 21.339267731 19.572582245 28.702062607 -3.843132734 49.151386261 11.042397499 21.209121704 8.265526772 -30.453517914 26.244625092 -0.393080115 -29.876369476 27.263326645 48.645740509 2.753606796 8.388329506 16.777128220 -3.310510874 -0.697742581 51.660823822 -8.960486412 31.943410873 26.693626404 4.269949436 8.360351562 -61.047916412 -4.366698742 23.036121368 -27.684850693 -11.616439819 -11.091894150 4.776072025 -27.027332306 32.048984528 -13.167244911 54.394760132 8.980411530 16.254142761 10.067165375 -3.555802822 5.268782139 10.483139992 -17.276412964 15.105046272 3.680504799 -0.350163817 -10.342977524 -9.835441589 23.355764389 -37.957355499 -3.938512802 7.829725742 -21.535848618 13.010315895 44.358749390 -5.415898800 33.462837219 -25.112007141 1.742091179 -34.202766418 34.201679230 7.117791176 0.711881042 -5.464805603 14.643168449 -26.365053177 9.636528969 -24.231882095 29.259687424 -27.164173126 5.746026993 3.684365034 -2.447048426 18.865983963 9.664426804 21.436004639 -11.157229424 22.080034256 -13.353819847 -29.861543655 -21.230272293 46.319561005 -18.592176437 -0.887361646 -12.416015625 -20.915956497 -21.662134171 -24.073738098 -21.679563522 27.175710678 32.733413696 10.541865349 27.008708954 -6.220702171
atj -5.949680328 -9.712142944 5.178807735 7.938175201 7.433888435 -0.131326914 -0.433406591 -0.691544473 5.581675529 -5.996608734 -12.350937843 9.706578255 1.978980303 -8.590541840 4.891515255 13.375649452 1.862458348 0.700823665 15.552004814 10.854186058 9.655558586 -3.001582623 -6.288918018 7.016017914 -12.651435852 -0.516780913 1.766569853 5.690332890 -1.520440817 13.351722717 -5.037741661 -11.769655228 -8.018919945 9.555367470 10.032073975 -1.036797762 -2.425745487 13.410579681 -14.214366913 5.484686852 -7.774217606 5.551696301 1.853582859 -7.346749783 1.856061220 -6.032118320 3.268197060 -0.150138497 1.874709845 -3.180102825 4.424089909 -4.651343346 5.155779362 -12.587522507 7.725325108 -3.206232071 -8.274569511 15.456475258 -3.689307213 -17.661279678 10.271800995 13.618421555 0.053097963 -11.171031952 0.296792746 5.097377777 5.326255798 6.138167381 -15.249639511 -1.193450451 -3.735776424 -3.591843128 -9.661005020 -9.340459824 19.151147842 -5.469890594 0.352531523 3.841698647 -6.554835796 0.413120538 5.877637863 8.023256302 4.902180195 4.216993332 0.349100709 5.262707710 -6.781835079 2.082862377 -4.956693649 2.087431431 -1.155442119 6.096694469 -3.830368996 3.788897991 -1.097212791 -5.403557777 4.146397114 -6.102493763 7.773189545 14.319675446 -5.949680328 -9.712142944 5.178807735 7.938175201 7.433888435 -0.131326914 -0.433406591 -0.691544473 5.581675529 -5.996608734 -12.350937843 9.706578255 1.978980303 -8.590541840 4.891515255 13.375649452 1.862458348 0.700823665 15.552004814 10.854186058 9.655558586 -3.001582623 -6.288918018 7.016017914 -12.651435852 -0.516780913 1.766569853 5.690332890 -1.520440817 13.351722717 -5.037741661 -11.769655228 -8.018919945 9.555367470 10.032073975 -1.036797762 -2.425745487 13.410579681 -14.214366913 5.484686852 -7.774217606 5.551696301 1.853582859 -7.346749783 1.856061220 -6.032118320 3.268197060 -0.150138497 1.874709845 -3.180102825 4.424089909 -4.651343346 5.155779362 -12.587522507 7.725325108 -3.206232071 -8.274569511 15.456475258 -3.689307213 -17.661279678 10.271800995 13.618421555 0.053097963 -11.171031952 0.296792746 5.097377777 5.326255798 6.138167381 -15.249639511 -1.193450451 -3.735776424 -3.591843128 -9.661005020 -9.340459824 19.151147842 -5.469890594 0.352531523 3.841698647 -6.554835796 0.413120538 5.877637863 8.023256302 4.902180195 4.216993332 0.349100709 5.262707710 -6.781835079 2.082862377 -4.956693649 2.087431431 -1.155442119 6.096694469 -3.830368996 3.788897991 -1.097212791 -5.403557777 4.146397114 -6.102493763 7.773189545 14.319675446
ava -7.557944298 -7.564570427 4.401084423 6.851617336 11.240985870 -2.354253292 2.901168346 0.328207225 10.113088608 -6.644606113 -18.084959030 7.109039307 5.134742737 -11.919856071 3.527313709 15.360281944 0.647479773 -1.783008456 19.139720917 10.096445084 8.833961487 -0.944594383 -6.004658222 6.829147339 -14.026123047 -0.062237680 2.853197575 2.874759436 -4.077697277 9.596508980 -3.106489182 -15.017034531 -7.164920330 10.986240387 7.929586411 -1.028067112 -3.824783564 8.636407852 -14.977479935 11.987285614 -9.414287567 6.737989426 6.305782318 -5.949272156 5.066106796 -3.046529531 -0.770584285 -1.500572085 3.435824633 -6.018911362 4.809733868 -2.105225801 7.059741020 -16.761188507 8.748425484 -0.130547360 -8.206981659 18.213638306 -10.113383293 -27.396631241 6.524968624 13.220193863 0.802895069 -6.709475994 2.697345257 3.802454472 1.600806117 11.363795280 -12.070333481 -4.965967655 -3.503501177 -1.657823324 -12.755502701 -13.195742607 16.638072968 -5.004570961 -1.196603298 3.559943199 -9.615604401 1.483493090 7.823407173 10.959196091 4.999698162 3.536659956 -3.254591227 1.354895592 -1.980947018 0.782002568 -8.149774551 2.338009596 -2.565443754 6.057170868 -4.228754520 6.794622421 1.095703602 -3.649926186 0.540388465 -11.429470062 5.692456245 19.622440338 -7.557944298 -7.564570427 4.401084423 6.851617336 11.240985870 -2.354253292 2.901168346 0.328207225 10.113088608 -6.644606113 -18.084959030 7.109039307 5.134742737 -11.919856071 3.527313709 15.360281944 0.647479773 -1.783008456 19.139720917 10.096445084 8.833961487 -0.944594383 -6.004658222 6.829147339 -14.026123047 -0.062237680 2.853197575 2.874759436 -4.077697277 9.596508980 -3.106489182 -15.017034531 -7.164920330 10.986240387 7.929586411 -1.028067112 -3.824783564 8.636407852 -14.977479935 11.987285614 -9.414287567 6.737989426 6.305782318 -5.949272156 5.066106796 -3.046529531 -0.770584285 -1.500572085 3.435824633 -6.018911362 4.809733868 -2.105225801 7.059741020 -16.761188507 8.748425484 -0.130547360 -8.206981659 18.213638306 -10.113383293 -27.396631241 6.524968624 13.220193863 0.802895069 -6.709475994 2.697345257 3.802454472 1.600806117 11.363795280 -12.070333481 -4.965967655 -3.503501177 -1.657823324 -12.755502701 -13.195742607 16.638072968 -5.004570961 -1.196603298 3.559943199 -9.615604401 1.483493090 7.823407173 10.959196091 4.999698162 3.536659956 -3.254591227 1.354895592 -1.980947018 0.782002568 -8.149774551 2.338009596 -2.565443754 6.057170868 -4.228754520 6.794622421 1.095703602 -3.649926186 0.540388465 -11.429470062 5.692456245 19.622440338
ave -5.949680328 -9.712142944 5.178807735 7.938175201 7.433888435 -0.131326914 -0.433406591 -0.691544473 5.581675529 -5.996608734 -12.350937843 9.706578255 1.978980303 -8.590541840 4.891515255 13.375649452 1.862458348 0.700823665 15.552004814 10.854186058 9.655558586 -3.001582623 -6.288918018 7.016017914 -12.651435852 -0.516780913 1.766569853 5.690332890 -1.520440817 13.351722717 -5.037741661 -11.769655228 -8.018919945 9.555367470 10.032073975 -1.036797762 -2.425745487 13.410579681 -14.214366913 5.484686852 -7.774217606 5.551696301 1.853582859 -7.346749783 1.856061220 -6.032118320 3.268197060 -0.150138497 1.874709845 -3.180102825 4.424089909 -4.651343346 5.155779362 -12.587522507 7.725325108 -3.206232071 -8.274569511 15.456475258 -3.689307213 -17.661279678 10.271800995 13.618421555 0.053097963 -11.171031952 0.296792746 5.097377777 5.326255798 6.138167381 -15.249639511 -1.193450451 -3.735776424 -3.591843128 -9.661005020 -9.340459824 19.151147842 -5.469890594 0.352531523 3.841698647 -6.554835796 0.413120538 5.877637863 8.023256302 4.902180195 4.216993332 0.349100709 5.262707710 -6.781835079 2.082862377 -4.956693649 2.087431431 -1.155442119 6.096694469 -3.830368996 3.788897991 -1.097212791 -5.403557777 4.146397114 -6.102493763 7.773189545 14.319675446 -5.949680328 -9.712142944 5.178807735 7.938175201 7.433888435 -0.131326914 -0.433406591 -0.691544473 5.581675529 -5.996608734 -12.350937843 9.706578255 1.978980303 -8.590541840 4.891515255 13.375649452 1.862458348 0.700823665 15.552004814 10.854186058 9.655558586 -3.001582623 -6.288918018 7.016017914 -12.651435852 -0.516780913 1.766569853 5.690332890 -1.520440817 13.351722717 -5.037741661 -11.769655228 -8.018919945 9.555367470 10.032073975 -1.036797762 -2.425745487 13.410579681 -14.214366913 5.484686852 -7.774217606 5.551696301 1.853582859 -7.346749783 1.856061220 -6.032118320 3.268197060 -0.150138497 1.874709845 -3.180102825 4.424089909 -4.651343346 5.155779362 -12.587522507 7.725325108 -3.206232071 -8.274569511 15.456475258 -3.689307213 -17.661279678 10.271800995 13.618421555 0.053097963 -11.171031952 0.296792746 5.097377777 5.326255798 6.138167381 -15.249639511 -1.193450451 -3.735776424 -3.591843128 -9.661005020 -9.340459824 19.151147842 -5.469890594 0.352531523 3.841698647 -6.554835796 0.413120538 5.877637863 8.023256302 4.902180195 4.216993332 0.349100709 5.262707710 -6.781835079 2.082862377 -4.956693649 2.087431431 -1.155442119 6.096694469 -3.830368996 3.788897991 -1.097212791 -5.403557777 4.146397114 -6.102493763 7.773189545 14.319675446
