1609 200
aac 0.160008505 -0.028049666 0.058611691 0.086778417 0.143063635 0.058625467 0.074495509 0.088122047 -0.020433538 0.074151330 0.157590568 0.145741835 0.045506023 0.205317840 0.236707121 0.233905941 0.046894152 0.212204844 0.103694223 0.189947262 0.176312521 -0.033470131 0.038686089 0.422916174 0.069151819 0.017836532 0.090768866 -0.036675937 0.091943316 0.122923739 0.055322699 0.007796844 0.053867709 0.019416278 0.037338268 0.049552411 0.160165891 0.052604131 0.087966301 0.051414393 0.028503863 0.018253682 0.039258115 0.118663698 0.144688442 -0.010082778 0.005628265 0.074367732 0.003193883 0.073397793 0.002282398 0.092287436 0.081904501 0.140814900 0.115092106 0.016196717 0.118772186 0.076262906 0.050857998 0.148776099 0.080918409 0.028391734 0.206426948 -0.032121059 0.145656869 0.098951422 0.096497968 0.050693825 0.285209775 0.050185341 -0.007222712 0.061635096 0.072335072 0.049943987 -0.000103767 -0.008280566 0.037390061 0.076999404 -0.018490558 0.050626319 -0.033739693 0.005174328 0.123503782 0.010310884 0.021581957 0.070671298 -0.001673018 0.014977581 0.083095394 0.021020982 0.088096127 0.105964109 0.162739038 0.075627036 0.032538779 0.154556766 0.026759628 0.027315445 0.149310276 0.236831799 0.160008505 -0.028049666 0.058611691 0.086778417 0.143063635 0.058625467 0.074495509 0.088122047 -0.020433538 0.074151330 0.157590568 0.145741835 0.045506023 0.205317840 0.236707121 0.233905941 0.046894152 0.212204844 0.103694223 0.189947262 0.176312521 -0.033470131 0.038686089 0.422916174 0.069151819 0.017836532 0.090768866 -0.036675937 0.091943316 0.122923739 0.055322699 0.007796844 0.053867709 0.019416278 0.037338268 0.049552411 0.160165891 0.052604131 0.087966301 0.051414393 0.028503863 0.018253682 0.039258115 0.118663698 0.144688442 -0.010082778 0.005628265 0.074367732 0.003193883 0.073397793 0.002282398 0.092287436 0.081904501 0.140814900 0.115092106 0.016196717 0.118772186 0.076262906 0.050857998 0.148776099 0.080918409 0.028391734 0.206426948 -0.032121059 0.145656869 0.098951422 0.096497968 0.050693825 0.285209775 0.050185341 -0.007222712 0.061635096 0.072335072 0.049943987 -0.000103767 -0.008280566 0.037390061 0.076999404 -0.018490558 0.050626319 -0.033739693 0.005174328 0.123503782 0.010310884 0.021581957 0.070671298 -0.001673018 0.014977581 0.083095394 0.021020982 0.088096127 0.105964109 0.162739038 0.075627036 0.032538779 0.154556766 0.026759628 0.027315445 0.149310276 0.236831799
aah 0.182232708 0.008387014 0.040496454 0.095551267 0.022337105 -0.010711923 0.142088577 -0.013894055 0.056019869 0.045616511 0.052153643 -0.107070781 0.014924439 0.061467517 0.020185253 0.023807628 -0.033591677 -0.027953712 -0.035359029 -0.097907133 -0.032274764 0.097948536 0.059655726 -0.017034397 -0.029237470 -0.017164284 0.136750385 0.043281239 0.059525497 -0.032325115 -0.043588862 0.084485807 0.312930703 0.176330745 0.175814852 0.226257205 0.039938658 0.145995185 0.122077473 0.102972105 0.047386646 -0.003657527 0.151230589 0.141017735 0.102365047 0.024755871 0.163921714 0.196343288 0.089046039 0.041605107 -0.064043529 0.067155600 0.069555528 0.256274670 0.028751737 -0.194900483 -0.122579411 0.171166733 0.290090293 0.104594648 0.040772825 0.039092161 0.071900263 0.122606911 0.092903249 -0.038138159 0.053318903 0.003503958 0.092606917 0.118247584 -0.037623957 -0.013186836 0.017726926 0.041472901 0.124485768 0.071205720 0.028610533 0.062534310 0.029944764 -0.041806340 -0.045213416 0.120612435 -0.004268473 0.015996519 0.100225464 0.073137045 0.117921397 0.021073287 0.082635880 0.002906689 -0.032195315 0.042813960 0.016517935 0.045821097 -0.038104683 0.014064540 0.125124827 -0.000672572 0.058540791 -0.012243855 0.182232708 0.008387014 0.040496454 0.095551267 0.022337105 -0.010711923 0.142088577 -0.013894055 0.056019869 0.045616511 0.052153643 -0.107070781 0.014924439 0.061467517 0.020185253 0.023807628 -0.033591677 -0.027953712 -0.035359029 -0.097907133 -0.032274764 0.097948536 0.059655726 -0.017034397 -0.029237470 -0.017164284 0.136750385 0.043281239 0.059525497 -0.032325115 -0.043588862 0.084485807 0.312930703 0.176330745 0.175814852 0.226257205 0.039938658 0.145995185 0.122077473 0.102972105 0.047386646 -0.003657527 0.151230589 0.141017735 0.102365047 0.024755871 0.163921714 0.196343288 0.089046039 0.041605107 -0.064043529 0.067155600 0.069555528 0.256274670 0.028751737 -0.194900483 -0.122579411 0.171166733 0.290090293 0.104594648 0.040772825 0.039092161 0.071900263 0.122606911 0.092903249 -0.038138159 0.053318903 0.003503958 0.092606917 0.118247584 -0.037623957 -0.013186836 0.017726926 0.041472901 0.124485768 0.071205720 0.028610533 0.062534310 0.029944764 -0.041806340 -0.045213416 0.120612435 -0.004268473 0.015996519 0.100225464 0.073137045 0.117921397 0.021073287 0.082635880 0.002906689 -0.032195315 0.042813960 0.016517935 0.045821097 -0.038104683 0.014064540 0.125124827 -0.000672572 0.058540791 -0.012243855
aak 0.096193179 -0.082500055 0.159985170 0.520069182 0.094290622 -0.047807332 0.190155402 0.147097766 0.074502043 0.125405356 -0.037395429 0.334738702 -0.043057512 0.035799999 0.018160259 0.047239762 0.259983242 0.022222601 0.110662334 0.091850743 0.047889296 -0.000920006 0.247467190 0.022988889 -0.063340411 -0.023651643 0.121391863 -0.022640027 0.067131087 0.077283800 0.031011365 0.094934389 0.063985713 0.051929679 0.073912248 0.085955530 0.117041215 -0.020807194 0.017238759 0.047941592 0.007862840 0.046375450 0.005104579 -0.025992852 0.069727562 0.079169832 0.010801638 0.010487893 -0.071765862 0.159724414 0.007457078 0.030477311 0.050719231 0.019406261 -0.017895371 0.022147560 -0.010812412 -0.005420538 0.146421403 -0.036387704 0.025010711 0.039758690 0.002577475 0.022359349 0.056270383 0.118542038 0.039337035 0.038352992 0.018699234 0.004391410 0.067823566 0.007777618 0.022113081 0.036734890 0.012443946 0.005880192 0.021051873 0.017103396 0.038236249 0.018219901 0.016544532 0.027085325 0.012796535 -0.015319834 0.028984200 0.036418650 0.004345640 0.012320172 0.015797926 0.030112699 0.009784045 0.015513387 0.027483547 0.007604073 0.000398850 -0.004522640 0.020396428 0.041242331 0.014745726 0.053540152 0.096193179 -0.082500055 0.159985170 0.520069182 0.094290622 -0.047807332 0.190155402 0.147097766 0.074502043 0.125405356 -0.037395429 0.334738702 -0.043057512 0.035799999 0.018160259 0.047239762 0.259983242 0.022222601 0.110662334 0.091850743 0.047889296 -0.000920006 0.247467190 0.022988889 -0.063340411 -0.023651643 0.121391863 -0.022640027 0.067131087 0.077283800 0.031011365 0.094934389 0.063985713 0.051929679 0.073912248 0.085955530 0.117041215 -0.020807194 0.017238759 0.047941592 0.007862840 0.046375450 0.005104579 -0.025992852 0.069727562 0.079169832 0.010801638 0.010487893 -0.071765862 0.159724414 0.007457078 0.030477311 0.050719231 0.019406261 -0.017895371 0.022147560 -0.010812412 -0.005420538 0.146421403 -0.036387704 0.025010711 0.039758690 0.002577475 0.022359349 0.056270383 0.118542038 0.039337035 0.038352992 0.018699234 0.004391410 0.067823566 0.007777618 0.022113081 0.036734890 0.012443946 0.005880192 0.021051873 0.017103396 0.038236249 0.018219901 0.016544532 0.027085325 0.012796535 -0.015319834 0.028984200 0.036418650 0.004345640 0.012320172 0.015797926 0.030112699 0.009784045 0.015513387 0.027483547 0.007604073 0.000398850 -0.004522640 0.020396428 0.041242331 0.014745726 0.053540152
aau 0.008539322 0.014163157 0.034721542 0.011925832 0.045916151 0.003862265 -0.000922511 0.007325690 0.080700681 -0.006750726 0.886514962 0.176029086 0.055792078 -0.085500024 0.066060767 0.749542713 0.018755816 0.064747982 0.230437413 -0.020818137 0.036072642 0.044468284 -0.000475614 -0.022015534 0.025702603 0.003226092 -0.028204637 0.078407034 0.018399982 -0.094017893 0.257680148 0.272226751 0.034895487 -0.049528282 0.097708233 0.063793488 0.027990902 -0.013801137 0.056888804 0.054185715 0.007540626 0.018015889 0.005014387 0.053458951 0.025538282 0.046518371 0.025680548 0.052917935 0.082012959 0.020018147 0.069103748 0.041026838 0.066411644 0.018143630 0.020524256 0.055306159 0.044373155 0.013747480 0.020299152 0.037455630 0.071502186 -0.000614400 -0.017752539 0.044368133 0.004611721 0.042058095 0.012902789 0.057169177 0.027845558 -0.020595104 -0.005153223 -0.004319437 0.055609845 0.027743639 0.028795008 -0.024506701 0.041691985 0.008962290 0.033792704 0.051577959 0.003204537 -0.012729245 0.024093440 -0.018725673 0.094877079 0.023612125 0.022358393 0.012120325 0.023962682 -0.010988204 0.004401565 0.002052620 -0.048419528 -0.017260173 0.007991890 0.061261136 -0.000047306 0.039934967 0.047645222 0.000972543 0.008539322 0.014163157 0.034721542 0.011925832 0.045916151 0.003862265 -0.000922511 0.007325690 0.080700681 -0.006750726 0.886514962 0.176029086 0.055792078 -0.085500024 0.066060767 0.749542713 0.018755816 0.064747982 0.230437413 -0.020818137 0.036072642 0.044468284 -0.000475614 -0.022015534 0.025702603 0.003226092 -0.028204637 0.078407034 0.018399982 -0.094017893 0.257680148 0.272226751 0.034895487 -0.049528282 0.097708233 0.063793488 0.027990902 -0.013801137 0.056888804 0.054185715 0.007540626 0.018015889 0.005014387 0.053458951 0.025538282 0.046518371 0.025680548 0.052917935 0.082012959 0.020018147 0.069103748 0.041026838 0.066411644 0.018143630 0.020524256 0.055306159 0.044373155 0.013747480 0.020299152 0.037455630 0.071502186 -0.000614400 -0.017752539 0.044368133 0.004611721 0.042058095 0.012902789 0.057169177 0.027845558 -0.020595104 -0.005153223 -0.004319437 0.055609845 0.027743639 0.028795008 -0.024506701 0.041691985 0.008962290 0.033792704 0.051577959 0.003204537 -0.012729245 0.024093440 -0.018725673 0.094877079 0.023612125 0.022358393 0.012120325 0.023962682 -0.010988204 0.004401565 0.002052620 -0.048419528 -0.017260173 0.007991890 0.061261136 -0.000047306 0.039934967 0.047645222 0.000972543
aax 0.227893516 0.150454968 0.949631512 0.302251399 0.246683583 0.058625467 0.078238226 0.266958952 0.241729274 0.107378028 0.076965764 0.277546525 0.109037042 0.401052237 0.109523565 0.084274545 0.195719302 0.134460539 0.050018411 0.189947262 0.237206846 0.386493623 0.283361971 0.422916174 0.126678720 0.041232489 0.066420160 0.156229287 0.417039543 0.389310718 0.133314267 0.140921593 0.075695738 0.159878686 0.076236539 0.125953823 0.268202573 0.066224955 0.099469572 0.090936705 0.157369122 0.038620129 0.208658427 0.100924008 0.185385302 0.157047898 0.138823166 0.188084677 0.186773092 0.085410140 0.065659687 0.171973094 0.098049738 0.114649460 0.200053364 0.068381295 0.152248606 0.099208131 0.168766797 0.148776099 0.131834090 0.120073743 0.206426948 0.064179264 0.153785616 0.098951422 0.239096254 0.071199574 0.173074901 0.222489491 0.504670858 0.093500137 0.230995327 0.089432746 0.146903738 0.036109179 0.042084336 0.068189226 0.083965644 0.015044772 0.089378402 0.171979338 0.123503782 0.088436268 0.080225520 0.095475517 0.076981932 0.018406764 0.083095394 0.073556133 0.172410905 0.105964109 0.162739038 0.046936322 0.035261504 0.154556766 0.103573732 0.057436269 0.149310276 0.236831799 0.227893516 0.150454968 0.949631512 0.302251399 0.246683583 0.058625467 0.078238226 0.266958952 0.241729274 0.107378028 0.076965764 0.277546525 0.109037042 0.401052237 0.109523565 0.084274545 0.195719302 0.134460539 0.050018411 0.189947262 0.237206846 0.386493623 0.283361971 0.422916174 0.126678720 0.041232489 0.066420160 0.156229287 0.417039543 0.389310718 0.133314267 0.140921593 0.075695738 0.159878686 0.076236539 0.125953823 0.268202573 0.066224955 0.099469572 0.090936705 0.157369122 0.038620129 0.208658427 0.100924008 0.185385302 0.157047898 0.138823166 0.188084677 0.186773092 0.085410140 0.065659687 0.171973094 0.098049738 0.114649460 0.200053364 0.068381295 0.152248606 0.099208131 0.168766797 0.148776099 0.131834090 0.120073743 0.206426948 0.064179264 0.153785616 0.098951422 0.239096254 0.071199574 0.173074901 0.222489491 0.504670858 0.093500137 0.230995327 0.089432746 0.146903738 0.036109179 0.042084336 0.068189226 0.083965644 0.015044772 0.089378402 0.171979338 0.123503782 0.088436268 0.080225520 0.095475517 0.076981932 0.018406764 0.083095394 0.073556133 0.172410905 0.105964109 0.162739038 0.046936322 0.035261504 0.154556766 0.103573732 0.057436269 0.149310276 0.236831799
aaz 0.498333097 0.150454968 0.949631512 0.385920733 0.193094313 0.079844832 0.203853086 0.294387043 0.368345380 0.211806938 0.217523709 0.281653404 0.722963631 0.284994453 0.247158512 0.144589946 0.356691122 0.136844963 0.071797512 0.253464222 0.306614906 0.162921697 0.283831865 0.422916174 0.117859393 0.164685428 0.183004171 0.414428562 0.212685272 0.296653420 0.320672870 0.437854916 0.182218239 0.252005070 0.070868723 0.205827385 0.160165891 0.486437380 0.288455218 0.103202991 0.317624778 0.451484144 0.228477612 0.085242853 0.303785741 0.191421628 0.163921714 0.196343288 0.189353555 0.226895854 0.144382477 0.117546305 0.176052466 0.265416175 0.199390680 0.139159918 0.184049606 0.256492823 0.290090293 0.148776099 0.097549126 0.210266337 0.206426948 0.128043950 0.172849700 0.098951422 0.082929857 0.243658453 0.173074901 0.118247584 0.102692895 0.154404461 0.180436075 0.184226662 0.157207713 0.154325545 0.123026229 0.167116791 0.258504003 0.174204141 0.158509493 0.208857805 0.129938647 0.136278734 0.169373676 0.080889836 0.152820677 0.071302697 0.091244228 0.111038432 0.113249511 0.105964109 0.162739038 0.174313739 0.318855405 0.171746910 0.063473046 0.088783100 0.149310276 0.236831799 0.498333097 0.150454968 0.949631512 0.385920733 0.193094313 0.079844832 0.203853086 0.294387043 0.368345380 0.211806938 0.217523709 0.281653404 0.722963631 0.284994453 0.247158512 0.144589946 0.356691122 0.136844963 0.071797512 0.253464222 0.306614906 0.162921697 0.283831865 0.422916174 0.117859393 0.164685428 0.183004171 0.414428562 0.212685272 0.296653420 0.320672870 0.437854916 0.182218239 0.252005070 0.070868723 0.205827385 0.160165891 0.486437380 0.288455218 0.103202991 0.317624778 0.451484144 0.228477612 0.085242853 0.303785741 0.191421628 0.163921714 0.196343288 0.189353555 0.226895854 0.144382477 0.117546305 0.176052466 0.265416175 0.199390680 0.139159918 0.184049606 0.256492823 0.290090293 0.148776099 0.097549126 0.210266337 0.206426948 0.128043950 0.172849700 0.098951422 0.082929857 0.243658453 0.173074901 0.118247584 0.102692895 0.154404461 0.180436075 0.184226662 0.157207713 0.154325545 0.123026229 0.167116791 0.258504003 0.174204141 0.158509493 0.208857805 0.129938647 0.136278734 0.169373676 0.080889836 0.152820677 0.071302697 0.091244228 0.111038432 0.113249511 0.105964109 0.162739038 0.174313739 0.318855405 0.171746910 0.063473046 0.088783100 0.149310276 0.236831799
abk 0.666015446 0.150454968 0.949631512 0.577871501 0.262042552 0.156344548 0.265435934 0.207755983 0.368345380 0.222858503 0.886514962 0.485201299 0.826419175 0.734834671 0.236707121 0.670765221 0.231265679 0.178625479 0.318325162 0.429984897 0.451674998 0.386493623 0.305160880 0.601646721 0.184009135 0.121739432 0.408528566 0.414428562 0.417039543 0.283198446 0.283048391 0.262611747 0.312930703 0.312438250 0.205306023 0.277320206 0.414480388 0.199497893 0.262513697 0.314919293 0.346518397 0.451484144 0.431882888 0.301331639 0.185385302 0.270392954 0.207250640 0.247498706 0.349725842 0.145756915 0.154637203 0.242913127 0.202625662 0.489474982 0.210716039 0.176721364 0.279010564 0.309911579 0.265212655 0.273843437 0.166308329 0.265392900 0.207895055 0.326082230 0.358419806 0.291384667 0.210167333 0.234430775 0.231610954 0.227507070 0.357903540 0.214674205 0.378518909 0.290551662 0.265261143 0.125134885 0.206447765 0.227800906 0.469940782 0.279734582 0.280573815 0.386112958 0.231516719 0.159527525 0.334257782 0.205600038 0.254674762 0.193444893 0.212776631 0.228096053 0.343224585 0.254044503 0.211030275 0.169552609 0.237238079 0.111720607 0.204891115 0.179287314 0.256313175 0.196781635 0.666015446 0.150454968 0.949631512 0.577871501 0.262042552 0.156344548 0.265435934 0.207755983 0.368345380 0.222858503 0.886514962 0.485201299 0.826419175 0.734834671 0.236707121 0.670765221 0.231265679 0.178625479 0.318325162 0.429984897 0.451674998 0.386493623 0.305160880 0.601646721 0.184009135 0.121739432 0.408528566 0.414428562 0.417039543 0.283198446 0.283048391 0.262611747 0.312930703 0.312438250 0.205306023 0.277320206 0.414480388 0.199497893 0.262513697 0.314919293 0.346518397 0.451484144 0.431882888 0.301331639 0.185385302 0.270392954 0.207250640 0.247498706 0.349725842 0.145756915 0.154637203 0.242913127 0.202625662 0.489474982 0.210716039 0.176721364 0.279010564 0.309911579 0.265212655 0.273843437 0.166308329 0.265392900 0.207895055 0.326082230 0.358419806 0.291384667 0.210167333 0.234430775 0.231610954 0.227507070 0.357903540 0.214674205 0.378518909 0.290551662 0.265261143 0.125134885 0.206447765 0.227800906 0.469940782 0.279734582 0.280573815 0.386112958 0.231516719 0.159527525 0.334257782 0.205600038 0.254674762 0.193444893 0.212776631 0.228096053 0.343224585 0.254044503 0.211030275 0.169552609 0.237238079 0.111720607 0.204891115 0.179287314 0.256313175 0.196781635
abq 0.075105183 -0.010523287 0.016263826 0.078229539 0.031734519 0.059578411 0.030658225 0.071522795 0.027495751 0.129231006 0.029121185 0.304579467 0.056406006 0.111804791 0.080297180 0.014240622 -0.003692314 0.132798061 0.071797512 0.429984897 0.015463005 0.190100998 0.169791013 0.167230278 0.136177197 0.056981493 0.115869284 0.132935047 0.083917968 0.093891241 0.120528661 0.122999914 0.017981470 0.159433901 0.138958693 0.134984866 -0.010673006 0.026366629 0.120048247 0.032396484 0.160427704 0.097338088 -0.019602057 0.143658593 0.227525458 0.255636632 0.056388777 0.071301565 0.175382078 0.269337595 0.198486254 0.110971123 0.016820289 0.104064211 0.206463560 0.081782147 -0.015185743 0.256492823 0.039455313 0.198739186 0.368433326 0.118877552 0.047056738 0.001590962 0.226389036 0.472689986 0.231056541 0.220149666 0.142945126 0.197713882 0.115701549 0.248693615 0.092239611 0.111504547 0.086315505 0.116656467 0.108158953 0.195172176 0.146331340 0.018003756 0.080101117 0.121875271 0.231516719 0.096535280 0.169373676 0.210246623 0.224874288 0.143611580 0.077689357 0.057166286 0.115645602 -0.001115569 0.125599846 0.174313739 0.015977498 0.171746910 0.146350965 0.084895991 0.045651086 0.155391738 0.075105183 -0.010523287 0.016263826 0.078229539 0.031734519 0.059578411 0.030658225 0.071522795 0.027495751 0.129231006 0.029121185 0.304579467 0.056406006 0.111804791 0.080297180 0.014240622 -0.003692314 0.132798061 0.071797512 0.429984897 0.015463005 0.190100998 0.169791013 0.167230278 0.136177197 0.056981493 0.115869284 0.132935047 0.083917968 0.093891241 0.120528661 0.122999914 0.017981470 0.159433901 0.138958693 0.134984866 -0.010673006 0.026366629 0.120048247 0.032396484 0.160427704 0.097338088 -0.019602057 0.143658593 0.227525458 0.255636632 0.056388777 0.071301565 0.175382078 0.269337595 0.198486254 0.110971123 0.016820289 0.104064211 0.206463560 0.081782147 -0.015185743 0.256492823 0.039455313 0.198739186 0.368433326 0.118877552 0.047056738 0.001590962 0.226389036 0.472689986 0.231056541 0.220149666 0.142945126 0.197713882 0.115701549 0.248693615 0.092239611 0.111504547 0.086315505 0.116656467 0.108158953 0.195172176 0.146331340 0.018003756 0.080101117 0.121875271 0.231516719 0.096535280 0.169373676 0.210246623 0.224874288 0.143611580 0.077689357 0.057166286 0.115645602 -0.001115569 0.125599846 0.174313739 0.015977498 0.171746910 0.146350965 0.084895991 0.045651086 0.155391738
abt 0.008265806 -0.028049666 0.058611691 0.037417423 0.016757561 -0.038952932 -0.028810749 0.088122047 -0.087159969 0.001059050 0.157590568 0.145741835 -0.017903419 0.205317840 0.064605087 0.233905941 0.002539105 0.212204844 -0.377612144 -0.047195219 -0.000719737 -0.177652329 -0.038609549 -0.183597401 0.069151819 0.017836532 0.069173627 -0.036675937 0.091943316 0.122923739 0.055322699 -0.094023742 -0.047064152 0.003892198 -0.048633944 0.049552411 0.008685957 -0.035516016 0.087966301 -0.021815494 0.006866585 -0.144575581 0.037669156 0.118663698 0.144688442 -0.041896831 -0.016431335 -0.050218608 -0.177687615 -0.154808700 -0.245499745 -0.034644585 0.081904501 0.140814900 0.115092106 0.016196717 0.118772186 0.076262906 0.050857998 -0.020208593 0.080918409 -0.083290271 0.183938250 -0.087673783 0.072941259 -0.151614115 0.096497968 0.050693825 0.285209775 0.050185341 -0.042003807 -0.121106163 -0.098705627 0.000858751 -0.021442685 -0.014844779 0.037390061 -0.017987970 -0.023140378 -0.016442971 -0.051440757 -0.126368150 -0.053518645 0.010310884 0.021581957 -0.006409831 -0.065083317 0.007062847 -0.013130391 -0.001578270 -0.008431999 -0.064707026 -0.043878969 0.075627036 -0.069196209 -0.043586094 -0.107166216 0.027315445 0.028149216 0.021411352 0.008265806 -0.028049666 0.058611691 0.037417423 0.016757561 -0.038952932 -0.028810749 0.088122047 -0.087159969 0.001059050 0.157590568 0.145741835 -0.017903419 0.205317840 0.064605087 0.233905941 0.002539105 0.212204844 -0.377612144 -0.047195219 -0.000719737 -0.177652329 -0.038609549 -0.183597401 0.069151819 0.017836532 0.069173627 -0.036675937 0.091943316 0.122923739 0.055322699 -0.094023742 -0.047064152 0.003892198 -0.048633944 0.049552411 0.008685957 -0.035516016 0.087966301 -0.021815494 0.006866585 -0.144575581 0.037669156 0.118663698 0.144688442 -0.041896831 -0.016431335 -0.050218608 -0.177687615 -0.154808700 -0.245499745 -0.034644585 0.081904501 0.140814900 0.115092106 0.016196717 0.118772186 0.076262906 0.050857998 -0.020208593 0.080918409 -0.083290271 0.183938250 -0.087673783 0.072941259 -0.151614115 0.096497968 0.050693825 0.285209775 0.050185341 -0.042003807 -0.121106163 -0.098705627 0.000858751 -0.021442685 -0.014844779 0.037390061 -0.017987970 -0.023140378 -0.016442971 -0.051440757 -0.126368150 -0.053518645 0.010310884 0.021581957 -0.006409831 -0.065083317 0.007062847 -0.013130391 -0.001578270 -0.008431999 -0.064707026 -0.043878969 0.075627036 -0.069196209 -0.043586094 -0.107166216 0.027315445 0.028149216 0.021411352
abw 0.024136040 0.016617259 0.087036051 0.086557589 0.150171638 0.138056949 0.048695918 0.027203675 0.059864856 0.008996836 0.083799914 0.012244753 0.105066039 0.383316517 0.047224153 0.058071487 0.069693118 0.122955821 0.267325491 0.253194958 0.138805822 0.266909987 0.160070270 0.259623915 0.109975956 0.044684850 0.204004660 0.170283929 0.248524249 0.309886098 0.295078486 0.082425155 0.153149679 0.232139274 0.210594669 0.063119695 0.038151752 0.155492693 0.178200856 0.115979493 0.179290980 0.080393523 0.145892262 0.083728850 0.097750448 0.270392954 0.084553406 0.076548725 0.091701247 0.135831729 0.118426271 0.040431045 0.131810769 0.093055867 0.210716039 0.115572087 0.069132984 0.106192932 0.144314781 0.081632100 0.109615885 0.082853258 0.144863397 0.131329641 0.090403587 0.118710153 0.149242237 0.203899637 0.016859649 0.191957936 0.169434607 0.181183085 0.119791627 0.150382534 0.107047439 0.105576977 0.152509257 0.007253770 0.047934383 0.199835524 0.098746605 0.097852007 0.175111562 0.079876885 0.254150003 0.260855377 0.131065428 0.088878654 0.136042610 0.112381503 0.063636512 0.053043313 0.171811610 0.044071943 0.110208347 0.086522751 0.058485471 0.034577586 0.054674029 0.077321433 0.024136040 0.016617259 0.087036051 0.086557589 0.150171638 0.138056949 0.048695918 0.027203675 0.059864856 0.008996836 0.083799914 0.012244753 0.105066039 0.383316517 0.047224153 0.058071487 0.069693118 0.122955821 0.267325491 0.253194958 0.138805822 0.266909987 0.160070270 0.259623915 0.109975956 0.044684850 0.204004660 0.170283929 0.248524249 0.309886098 0.295078486 0.082425155 0.153149679 0.232139274 0.210594669 0.063119695 0.038151752 0.155492693 0.178200856 0.115979493 0.179290980 0.080393523 0.145892262 0.083728850 0.097750448 0.270392954 0.084553406 0.076548725 0.091701247 0.135831729 0.118426271 0.040431045 0.131810769 0.093055867 0.210716039 0.115572087 0.069132984 0.106192932 0.144314781 0.081632100 0.109615885 0.082853258 0.144863397 0.131329641 0.090403587 0.118710153 0.149242237 0.203899637 0.016859649 0.191957936 0.169434607 0.181183085 0.119791627 0.150382534 0.107047439 0.105576977 0.152509257 0.007253770 0.047934383 0.199835524 0.098746605 0.097852007 0.175111562 0.079876885 0.254150003 0.260855377 0.131065428 0.088878654 0.136042610 0.112381503 0.063636512 0.053043313 0.171811610 0.044071943 0.110208347 0.086522751 0.058485471 0.034577586 0.054674029 0.077321433
abz 0.190686122 0.110655256 0.689828217 0.143347323 0.246683583 0.135576814 0.088895261 0.294387043 0.143087640 0.093509376 0.214460954 0.272531420 0.251667827 0.473784894 0.228857860 0.813761294 0.259983242 0.210218102 0.252126306 0.265755892 0.469990879 0.256913692 0.283831865 0.422916174 0.156558424 0.164685428 0.204004660 0.254750043 0.274897248 0.358037353 0.295078486 0.437399447 0.244317800 0.274506807 0.305340260 0.324589849 0.313357979 0.462274224 0.277804136 0.131706774 0.360888302 0.404927641 0.401299626 0.253044844 0.305990815 0.170576304 0.268384814 0.254260659 0.372083992 0.175674781 0.200424433 0.191232145 0.141370222 0.527677476 0.209632725 0.336995453 0.239597738 0.149797320 0.238070101 0.192051649 0.261361659 0.203069702 0.206426948 0.318493456 0.358419806 0.217027679 0.217064247 0.234430775 0.207099944 0.222489491 0.287113786 0.257904291 0.265994698 0.217399389 0.227366164 0.214483157 0.309697777 0.123678245 0.343139619 0.236135960 0.280573815 0.231959656 0.270637572 0.139547169 0.311865658 0.183622420 0.114209019 0.231296659 0.366910040 0.308454156 0.228418946 0.167822391 0.306714386 0.217647150 0.123136006 0.154556766 0.285177827 0.140698597 0.149310276 0.236831799 0.190686122 0.110655256 0.689828217 0.143347323 0.246683583 0.135576814 0.088895261 0.294387043 0.143087640 0.093509376 0.214460954 0.272531420 0.251667827 0.473784894 0.228857860 0.813761294 0.259983242 0.210218102 0.252126306 0.265755892 0.469990879 0.256913692 0.283831865 0.422916174 0.156558424 0.164685428 0.204004660 0.254750043 0.274897248 0.358037353 0.295078486 0.437399447 0.244317800 0.274506807 0.305340260 0.324589849 0.313357979 0.462274224 0.277804136 0.131706774 0.360888302 0.404927641 0.401299626 0.253044844 0.305990815 0.170576304 0.268384814 0.254260659 0.372083992 0.175674781 0.200424433 0.191232145 0.141370222 0.527677476 0.209632725 0.336995453 0.239597738 0.149797320 0.238070101 0.192051649 0.261361659 0.203069702 0.206426948 0.318493456 0.358419806 0.217027679 0.217064247 0.234430775 0.207099944 0.222489491 0.287113786 0.257904291 0.265994698 0.217399389 0.227366164 0.214483157 0.309697777 0.123678245 0.343139619 0.236135960 0.280573815 0.231959656 0.270637572 0.139547169 0.311865658 0.183622420 0.114209019 0.231296659 0.366910040 0.308454156 0.228418946 0.167822391 0.306714386 0.217647150 0.123136006 0.154556766 0.285177827 0.140698597 0.149310276 0.236831799
aca 0.068391502 0.022623308 0.152566239 0.143347323 0.094290622 0.042734820 0.073394924 0.294387043 0.074502043 0.070631504 0.176200762 0.122089453 0.036432002 0.559120119 0.120502330 0.730069876 0.259983242 0.211183742 0.209967107 0.155566201 0.063285314 0.081087135 0.247467190 0.177047476 0.064522207 0.077296652 0.131440684 0.121631354 0.067131087 0.149208993 0.188791379 0.262952000 0.159534201 0.308883965 0.142639935 0.203036636 0.206818208 0.462274224 0.210068733 0.097028911 0.094499186 0.049026724 0.103317581 0.302932173 0.305990815 0.074879989 0.148293316 0.199989900 0.138378188 0.159724414 0.055444922 0.085027561 0.124636836 0.088270865 0.299061149 0.194814578 0.241333917 0.129806802 0.146421403 0.144874200 0.025010711 0.171876863 0.224024564 0.206206217 0.118161082 0.118542038 0.113706179 0.134552255 0.146737352 0.177854627 0.067823566 0.043818258 0.138999313 0.054533832 0.160628274 0.161524594 0.134094566 0.293951035 0.086143874 0.042076077 0.042915884 0.076574922 0.082066566 0.162073523 0.136735678 0.090656832 0.124960206 0.058677386 0.077062689 0.247743368 0.364017516 0.106403872 0.082342245 0.157016888 0.047504079 0.045862652 0.107749671 0.041242331 0.055878248 0.213397920 0.068391502 0.022623308 0.152566239 0.143347323 0.094290622 0.042734820 0.073394924 0.294387043 0.074502043 0.070631504 0.176200762 0.122089453 0.036432002 0.559120119 0.120502330 0.730069876 0.259983242 0.211183742 0.209967107 0.155566201 0.063285314 0.081087135 0.247467190 0.177047476 0.064522207 0.077296652 0.131440684 0.121631354 0.067131087 0.149208993 0.188791379 0.262952000 0.159534201 0.308883965 0.142639935 0.203036636 0.206818208 0.462274224 0.210068733 0.097028911 0.094499186 0.049026724 0.103317581 0.302932173 0.305990815 0.074879989 0.148293316 0.199989900 0.138378188 0.159724414 0.055444922 0.085027561 0.124636836 0.088270865 0.299061149 0.194814578 0.241333917 0.129806802 0.146421403 0.144874200 0.025010711 0.171876863 0.224024564 0.206206217 0.118161082 0.118542038 0.113706179 0.134552255 0.146737352 0.177854627 0.067823566 0.043818258 0.138999313 0.054533832 0.160628274 0.161524594 0.134094566 0.293951035 0.086143874 0.042076077 0.042915884 0.076574922 0.082066566 0.162073523 0.136735678 0.090656832 0.124960206 0.058677386 0.077062689 0.247743368 0.364017516 0.106403872 0.082342245 0.157016888 0.047504079 0.045862652 0.107749671 0.041242331 0.055878248 0.213397920
acn 0.575204134 0.029225718 0.189406246 0.252467692 0.325268328 0.209779024 0.207101583 0.495052338 0.157861605 0.036367513 0.625901997 0.281653404 0.753286898 0.446083516 0.308695614 0.541279197 0.134367511 0.319302440 0.254617840 0.350613803 0.255727023 0.189266592 0.279075861 0.601646721 0.340539217 0.053382386 0.398267090 0.304467022 0.247347653 0.389310718 0.241679400 0.437399447 0.348907351 0.241088033 0.195154116 0.243730679 0.162267268 0.152411193 0.255578876 0.164375260 0.231305227 0.362249225 0.297021151 0.181559831 0.212792888 0.201328799 0.142620191 0.188084677 0.186773092 0.163697168 0.153032988 0.191232145 0.176052466 0.265416175 0.307463557 0.176721364 0.180252969 0.286437720 0.232400015 0.267802566 0.145379871 0.255239189 0.386731565 0.184827775 0.171278432 0.286420345 0.217064247 0.116893373 0.071399808 0.057669420 0.142258078 0.137155116 0.138214797 0.140483588 0.180582464 0.174248978 0.093275204 0.179437712 0.206045434 0.082565628 0.089987695 0.213524252 0.194843113 0.409204423 0.186959848 0.184819356 0.134553298 0.071765855 0.074277364 0.110444136 0.133944899 0.160700396 0.114019498 0.121752568 0.195013478 0.099606551 0.179277405 0.109008744 0.130796880 0.117463320 0.575204134 0.029225718 0.189406246 0.252467692 0.325268328 0.209779024 0.207101583 0.495052338 0.157861605 0.036367513 0.625901997 0.281653404 0.753286898 0.446083516 0.308695614 0.541279197 0.134367511 0.319302440 0.254617840 0.350613803 0.255727023 0.189266592 0.279075861 0.601646721 0.340539217 0.053382386 0.398267090 0.304467022 0.247347653 0.389310718 0.241679400 0.437399447 0.348907351 0.241088033 0.195154116 0.243730679 0.162267268 0.152411193 0.255578876 0.164375260 0.231305227 0.362249225 0.297021151 0.181559831 0.212792888 0.201328799 0.142620191 0.188084677 0.186773092 0.163697168 0.153032988 0.191232145 0.176052466 0.265416175 0.307463557 0.176721364 0.180252969 0.286437720 0.232400015 0.267802566 0.145379871 0.255239189 0.386731565 0.184827775 0.171278432 0.286420345 0.217064247 0.116893373 0.071399808 0.057669420 0.142258078 0.137155116 0.138214797 0.140483588 0.180582464 0.174248978 0.093275204 0.179437712 0.206045434 0.082565628 0.089987695 0.213524252 0.194843113 0.409204423 0.186959848 0.184819356 0.134553298 0.071765855 0.074277364 0.110444136 0.133944899 0.160700396 0.114019498 0.121752568 0.195013478 0.099606551 0.179277405 0.109008744 0.130796880 0.117463320
adg 0.069745086 0.001034172 0.181924567 0.086171135 0.159623712 0.034266859 0.025692888 0.176065505 0.120201573 0.107378028 0.085576043 0.217323050 0.178247780 0.178746268 0.081372842 0.227927059 0.195719302 0.342217475 0.023289572 0.121933408 0.074868485 0.224237338 0.145905569 0.249926329 0.361136228 0.039951678 0.131280884 0.055168025 0.139117882 0.123067640 0.036607567 -0.020032471 0.224208161 0.137186185 0.070868723 0.013063539 0.158248037 0.392592937 0.146399364 0.040997736 0.153740630 0.025608143 0.079237193 0.148664355 0.213836014 0.074738614 0.055879228 0.198262498 0.098274052 0.061545588 0.019874673 0.015494583 0.096203849 0.035133526 0.283278733 0.160188869 0.235566840 0.102369070 0.149197176 0.009744742 0.015942164 0.157985389 0.069507100 0.044556476 0.014910483 0.045417845 0.059688874 0.078972846 0.071991108 0.077929713 0.017674964 0.073748842 0.029407291 0.002591547 0.150449544 0.166494265 0.119984843 0.085172527 0.023792466 0.124551691 0.098593377 0.076716475 0.030067205 0.053889904 0.071685776 -0.007424413 0.054669432 0.075492151 0.046271175 0.042009659 0.057134010 0.014298887 -0.000160682 0.021772137 0.021163678 -0.002282039 0.023854792 0.027817152 0.026752561 0.071245447 0.069745086 0.001034172 0.181924567 0.086171135 0.159623712 0.034266859 0.025692888 0.176065505 0.120201573 0.107378028 0.085576043 0.217323050 0.178247780 0.178746268 0.081372842 0.227927059 0.195719302 0.342217475 0.023289572 0.121933408 0.074868485 0.224237338 0.145905569 0.249926329 0.361136228 0.039951678 0.131280884 0.055168025 0.139117882 0.123067640 0.036607567 -0.020032471 0.224208161 0.137186185 0.070868723 0.013063539 0.158248037 0.392592937 0.146399364 0.040997736 0.153740630 0.025608143 0.079237193 0.148664355 0.213836014 0.074738614 0.055879228 0.198262498 0.098274052 0.061545588 0.019874673 0.015494583 0.096203849 0.035133526 0.283278733 0.160188869 0.235566840 0.102369070 0.149197176 0.009744742 0.015942164 0.157985389 0.069507100 0.044556476 0.014910483 0.045417845 0.059688874 0.078972846 0.071991108 0.077929713 0.017674964 0.073748842 0.029407291 0.002591547 0.150449544 0.166494265 0.119984843 0.085172527 0.023792466 0.124551691 0.098593377 0.076716475 0.030067205 0.053889904 0.071685776 -0.007424413 0.054669432 0.075492151 0.046271175 0.042009659 0.057134010 0.014298887 -0.000160682 0.021772137 0.021163678 -0.002282039 0.023854792 0.027817152 0.026752561 0.071245447
adn 0.345373780 0.073746070 0.405795038 0.143347323 0.159623712 0.058625467 0.080356136 0.294387043 0.143087640 0.100210585 0.273774028 0.277086318 0.321018368 0.730632722 0.227798268 0.813761294 0.225452289 0.224553198 0.319953859 0.253464222 0.306614906 0.224237338 0.283831865 0.601646721 0.155027792 0.164685428 0.401125312 0.393570244 0.310269058 0.358037353 0.267095178 0.437399447 0.346033663 0.343756437 0.302093834 0.275628775 0.292562217 0.462274224 0.277804136 0.131706774 0.360888302 0.404927641 0.401299626 0.235784173 0.305990815 0.201328799 0.171068802 0.241040558 0.157974362 0.226895854 0.208115458 0.137637347 0.128623083 0.278795958 0.265850931 0.173173875 0.309760273 0.173840135 0.315190464 0.262727082 0.259808838 0.210266337 0.206426948 0.111671984 0.312573195 0.167936459 0.211340547 0.179630816 0.207099944 0.177854627 0.190357953 0.145531178 0.228881419 0.197507650 0.208287656 0.166275397 0.123026229 0.123678245 0.343139619 0.137723476 0.144947276 0.106332913 0.155039206 0.141685188 0.186909363 0.095622838 0.124960206 0.108926862 0.366910040 0.140471593 0.138641298 0.105964109 0.229802743 0.182526290 0.107594885 0.154556766 0.074333131 0.074191615 0.149310276 0.236831799 0.345373780 0.073746070 0.405795038 0.143347323 0.159623712 0.058625467 0.080356136 0.294387043 0.143087640 0.100210585 0.273774028 0.277086318 0.321018368 0.730632722 0.227798268 0.813761294 0.225452289 0.224553198 0.319953859 0.253464222 0.306614906 0.224237338 0.283831865 0.601646721 0.155027792 0.164685428 0.401125312 0.393570244 0.310269058 0.358037353 0.267095178 0.437399447 0.346033663 0.343756437 0.302093834 0.275628775 0.292562217 0.462274224 0.277804136 0.131706774 0.360888302 0.404927641 0.401299626 0.235784173 0.305990815 0.201328799 0.171068802 0.241040558 0.157974362 0.226895854 0.208115458 0.137637347 0.128623083 0.278795958 0.265850931 0.173173875 0.309760273 0.173840135 0.315190464 0.262727082 0.259808838 0.210266337 0.206426948 0.111671984 0.312573195 0.167936459 0.211340547 0.179630816 0.207099944 0.177854627 0.190357953 0.145531178 0.228881419 0.197507650 0.208287656 0.166275397 0.123026229 0.123678245 0.343139619 0.137723476 0.144947276 0.106332913 0.155039206 0.141685188 0.186909363 0.095622838 0.124960206 0.108926862 0.366910040 0.140471593 0.138641298 0.105964109 0.229802743 0.182526290 0.107594885 0.154556766 0.074333131 0.074191615 0.149310276 0.236831799
adr 0.661788225 0.019215094 0.181924567 0.520069182 0.250396848 0.079844832 0.265435934 0.294387043 0.120201573 0.222858503 0.217523709 0.485201299 0.321018368 0.205685660 0.227659836 0.670765221 0.197262093 0.342217475 0.178394586 0.253194958 0.188294768 0.224237338 0.180368662 0.259623915 0.361136228 0.098881058 0.401125312 0.304467022 0.099821322 0.309886098 0.295078486 0.208813891 0.341676563 0.257766277 0.283719182 0.324589849 0.234845981 0.432900161 0.277804136 0.131706774 0.323818207 0.451484144 0.268342584 0.235784173 0.186787412 0.191421628 0.268384814 0.254260659 0.189353555 0.135694072 0.208115458 0.117546305 0.176052466 0.355858207 0.247612074 0.122277841 0.123908788 0.143932015 0.244170204 0.145835429 0.148813933 0.133042395 0.165676609 0.195142612 0.358419806 0.167936459 0.161133721 0.243658453 0.141017944 0.103988588 0.134971127 0.145531178 0.228881419 0.247581407 0.208287656 0.222205102 0.104417831 0.096532114 0.343139619 0.124551691 0.280573815 0.231959656 0.253593624 0.080490984 0.089869760 0.112843849 0.133678570 0.064731278 0.134966254 0.095484115 0.093988374 0.094973385 0.211030275 0.153209105 0.100465491 0.099519268 0.150529578 0.110449389 0.090867840 0.175254956 0.661788225 0.019215094 0.181924567 0.520069182 0.250396848 0.079844832 0.265435934 0.294387043 0.120201573 0.222858503 0.217523709 0.485201299 0.321018368 0.205685660 0.227659836 0.670765221 0.197262093 0.342217475 0.178394586 0.253194958 0.188294768 0.224237338 0.180368662 0.259623915 0.361136228 0.098881058 0.401125312 0.304467022 0.099821322 0.309886098 0.295078486 0.208813891 0.341676563 0.257766277 0.283719182 0.324589849 0.234845981 0.432900161 0.277804136 0.131706774 0.323818207 0.451484144 0.268342584 0.235784173 0.186787412 0.191421628 0.268384814 0.254260659 0.189353555 0.135694072 0.208115458 0.117546305 0.176052466 0.355858207 0.247612074 0.122277841 0.123908788 0.143932015 0.244170204 0.145835429 0.148813933 0.133042395 0.165676609 0.195142612 0.358419806 0.167936459 0.161133721 0.243658453 0.141017944 0.103988588 0.134971127 0.145531178 0.228881419 0.247581407 0.208287656 0.222205102 0.104417831 0.096532114 0.343139619 0.124551691 0.280573815 0.231959656 0.253593624 0.080490984 0.089869760 0.112843849 0.133678570 0.064731278 0.134966254 0.095484115 0.093988374 0.094973385 0.211030275 0.153209105 0.100465491 0.099519268 0.150529578 0.110449389 0.090867840 0.175254956
adt 0.176210165 -0.014845634 0.039692909 0.037578538 0.046198968 0.034266859 0.207101583 0.003702188 0.005979387 0.010781106 0.055813693 0.281653404 0.072186522 -0.004460992 0.063274525 0.541279197 0.069769509 0.136844963 0.171914354 0.121933408 0.188294768 0.040473983 0.065090232 0.249926329 -0.010349507 -0.007923878 0.024346247 0.236687362 0.200176150 0.123067640 0.051028550 0.008012411 0.138113633 -0.001348620 0.068605125 0.016410016 0.050921217 0.190213278 0.004022164 0.164375260 0.153740630 0.110024840 0.012714724 -0.005287487 0.033409212 -0.019625157 0.044846296 0.198262498 0.164339006 0.163697168 0.017367581 0.151830941 0.096203849 0.040909227 0.283278733 0.160188869 0.041105732 0.029532764 0.149197176 0.046902224 -0.017360039 -0.005436422 0.097453915 0.019536801 -0.003681993 0.005159917 0.021482863 0.011952842 0.021301199 0.063140132 -0.001979542 0.089479424 0.005128529 -0.015533972 0.150449544 0.033007056 0.119984843 0.085172527 0.054000162 0.049457204 0.024237799 0.076716475 0.030067205 0.006867308 -0.005739905 0.047782272 0.045053691 0.075492151 0.031367097 0.027181664 0.039185271 0.031690415 -0.014982163 0.051961269 0.044222303 0.016883487 0.018383494 0.027817152 -0.013269558 0.043954313 0.176210165 -0.014845634 0.039692909 0.037578538 0.046198968 0.034266859 0.207101583 0.003702188 0.005979387 0.010781106 0.055813693 0.281653404 0.072186522 -0.004460992 0.063274525 0.541279197 0.069769509 0.136844963 0.171914354 0.121933408 0.188294768 0.040473983 0.065090232 0.249926329 -0.010349507 -0.007923878 0.024346247 0.236687362 0.200176150 0.123067640 0.051028550 0.008012411 0.138113633 -0.001348620 0.068605125 0.016410016 0.050921217 0.190213278 0.004022164 0.164375260 0.153740630 0.110024840 0.012714724 -0.005287487 0.033409212 -0.019625157 0.044846296 0.198262498 0.164339006 0.163697168 0.017367581 0.151830941 0.096203849 0.040909227 0.283278733 0.160188869 0.041105732 0.029532764 0.149197176 0.046902224 -0.017360039 -0.005436422 0.097453915 0.019536801 -0.003681993 0.005159917 0.021482863 0.011952842 0.021301199 0.063140132 -0.001979542 0.089479424 0.005128529 -0.015533972 0.150449544 0.033007056 0.119984843 0.085172527 0.054000162 0.049457204 0.024237799 0.076716475 0.030067205 0.006867308 -0.005739905 0.047782272 0.045053691 0.075492151 0.031367097 0.027181664 0.039185271 0.031690415 -0.014982163 0.051961269 0.044222303 0.016883487 0.018383494 0.027817152 -0.013269558 0.043954313
adw 0.227893516 0.017608145 0.181924567 0.159159169 0.168856293 0.043502025 0.035134424 0.266958952 0.109814048 0.010370858 0.203620180 0.093924105 0.092369989 0.559120119 0.109523565 0.467843294 0.119497240 0.342217475 0.166961133 0.192478031 0.110312060 0.138406768 0.185786784 0.279685825 0.361136228 0.022976153 0.094338730 0.156229287 0.105415694 0.216729596 0.101255469 0.450359374 0.191047728 0.184040070 0.089821868 0.221907213 0.169198722 0.288312048 0.209434599 0.109273896 0.084367312 0.094866037 0.067895748 0.100924008 0.130237505 0.168746218 0.148293316 0.208657369 0.191864058 0.157319412 0.033388790 0.080958754 0.124636836 0.077596836 0.207331315 0.109861121 0.211003542 0.172789350 0.168766797 0.078024626 0.131834090 0.166917726 0.136020690 0.070483752 0.153785616 0.107651860 0.113706179 0.102828592 0.141032770 0.177854627 0.049750809 0.093500137 0.254826635 0.033082768 0.207786947 0.107519113 0.016932543 0.195655048 0.090281241 0.124551691 0.226842970 0.129575953 0.021106238 0.143695354 0.044765692 0.071430802 0.124960206 0.087400228 0.160040781 0.167517260 0.172410905 0.075210586 0.152483195 0.123860322 0.104188055 0.060754102 0.153723121 0.031056911 0.125612557 0.073657043 0.227893516 0.017608145 0.181924567 0.159159169 0.168856293 0.043502025 0.035134424 0.266958952 0.109814048 0.010370858 0.203620180 0.093924105 0.092369989 0.559120119 0.109523565 0.467843294 0.119497240 0.342217475 0.166961133 0.192478031 0.110312060 0.138406768 0.185786784 0.279685825 0.361136228 0.022976153 0.094338730 0.156229287 0.105415694 0.216729596 0.101255469 0.450359374 0.191047728 0.184040070 0.089821868 0.221907213 0.169198722 0.288312048 0.209434599 0.109273896 0.084367312 0.094866037 0.067895748 0.100924008 0.130237505 0.168746218 0.148293316 0.208657369 0.191864058 0.157319412 0.033388790 0.080958754 0.124636836 0.077596836 0.207331315 0.109861121 0.211003542 0.172789350 0.168766797 0.078024626 0.131834090 0.166917726 0.136020690 0.070483752 0.153785616 0.107651860 0.113706179 0.102828592 0.141032770 0.177854627 0.049750809 0.093500137 0.254826635 0.033082768 0.207786947 0.107519113 0.016932543 0.195655048 0.090281241 0.124551691 0.226842970 0.129575953 0.021106238 0.143695354 0.044765692 0.071430802 0.124960206 0.087400228 0.160040781 0.167517260 0.172410905 0.075210586 0.152483195 0.123860322 0.104188055 0.060754102 0.153723121 0.031056911 0.125612557 0.073657043
ady 0.492455810 0.150454968 0.949631512 0.534267128 0.320254833 0.208883703 0.190155402 0.508784950 0.339575410 0.125405356 0.891763747 0.334738702 0.722963631 0.596901178 0.260564417 0.757108629 0.224755004 0.212204844 0.234357417 0.242566034 0.456050158 0.386493623 0.229748324 0.233766809 0.167884901 0.127045676 0.416925281 0.293055534 0.417039543 0.318321258 0.320622146 0.262611747 0.312930703 0.355596125 0.243499875 0.249792174 0.289005190 0.424154341 0.361458421 0.141070500 0.277794749 0.339915663 0.431882888 0.301331639 0.233493537 0.271726847 0.202999175 0.275001526 0.179538593 0.274086684 0.281070411 0.355098873 0.155030310 0.329350859 0.222012445 0.402609378 0.305105567 0.286437720 0.318151772 0.296720326 0.289614916 0.168646500 0.221759424 0.249486089 0.278488308 0.286420345 0.254268378 0.234430775 0.285209775 0.260533094 0.489028424 0.217252016 0.442234606 0.237012073 0.242920607 0.173667923 0.213077441 0.208130822 0.343139619 0.279734582 0.279656380 0.386112958 0.173477992 0.147295982 0.289983094 0.192059204 0.238516748 0.270536423 0.212776631 0.243336260 0.343224585 0.254044503 0.152748555 0.276038975 0.237238079 0.166918188 0.207888350 0.206076920 0.239803582 0.159510508 0.492455810 0.150454968 0.949631512 0.534267128 0.320254833 0.208883703 0.190155402 0.508784950 0.339575410 0.125405356 0.891763747 0.334738702 0.722963631 0.596901178 0.260564417 0.757108629 0.224755004 0.212204844 0.234357417 0.242566034 0.456050158 0.386493623 0.229748324 0.233766809 0.167884901 0.127045676 0.416925281 0.293055534 0.417039543 0.318321258 0.320622146 0.262611747 0.312930703 0.355596125 0.243499875 0.249792174 0.289005190 0.424154341 0.361458421 0.141070500 0.277794749 0.339915663 0.431882888 0.301331639 0.233493537 0.271726847 0.202999175 0.275001526 0.179538593 0.274086684 0.281070411 0.355098873 0.155030310 0.329350859 0.222012445 0.402609378 0.305105567 0.286437720 0.318151772 0.296720326 0.289614916 0.168646500 0.221759424 0.249486089 0.278488308 0.286420345 0.254268378 0.234430775 0.285209775 0.260533094 0.489028424 0.217252016 0.442234606 0.237012073 0.242920607 0.173667923 0.213077441 0.208130822 0.343139619 0.279734582 0.279656380 0.386112958 0.173477992 0.147295982 0.289983094 0.192059204 0.238516748 0.270536423 0.212776631 0.243336260 0.343224585 0.254044503 0.152748555 0.276038975 0.237238079 0.166918188 0.207888350 0.206076920 0.239803582 0.159510508
aew 0.478161424 0.017321641 0.007247632 0.265369982 0.316986024 0.203057423 0.074495509 0.506756842 0.163180456 0.107378028 0.067595877 0.217323050 0.045506023 0.086224303 -0.027991440 0.084274545 0.195719302 0.050598025 0.035274904 0.189947262 0.176312521 0.046471737 0.040802076 0.422916174 0.009586617 0.027892608 0.032066572 0.125322819 0.114953361 0.048479766 0.036607567 0.014235215 0.048722502 0.172162220 0.070868723 0.137007162 0.160165891 0.052604131 0.064379469 0.035627134 0.060628459 0.027408196 0.079237193 0.086088218 0.153925672 0.025648454 -0.012099142 0.074367732 0.041995227 0.073397793 0.108365975 0.009392510 0.027799154 0.048238218 0.100385986 0.336995453 -0.009734483 0.042600963 0.138697162 0.148776099 0.251161575 0.003642400 0.206426948 0.318493456 0.145656869 0.098951422 0.082929857 0.098119393 0.173074901 -0.004532437 0.163382322 0.046643533 -0.005474637 0.049943987 0.050806955 -0.006359250 0.011612368 0.034440342 0.077663317 0.014648535 0.019203085 0.022337126 0.123503782 0.040972382 0.003692139 0.070671298 0.114209019 0.020871788 0.083095394 0.007927282 0.002980293 0.105964109 0.162739038 0.021772137 0.032538779 0.154556766 0.051594496 0.045471460 0.149310276 0.236831799 0.478161424 0.017321641 0.007247632 0.265369982 0.316986024 0.203057423 0.074495509 0.506756842 0.163180456 0.107378028 0.067595877 0.217323050 0.045506023 0.086224303 -0.027991440 0.084274545 0.195719302 0.050598025 0.035274904 0.189947262 0.176312521 0.046471737 0.040802076 0.422916174 0.009586617 0.027892608 0.032066572 0.125322819 0.114953361 0.048479766 0.036607567 0.014235215 0.048722502 0.172162220 0.070868723 0.137007162 0.160165891 0.052604131 0.064379469 0.035627134 0.060628459 0.027408196 0.079237193 0.086088218 0.153925672 0.025648454 -0.012099142 0.074367732 0.041995227 0.073397793 0.108365975 0.009392510 0.027799154 0.048238218 0.100385986 0.336995453 -0.009734483 0.042600963 0.138697162 0.148776099 0.251161575 0.003642400 0.206426948 0.318493456 0.145656869 0.098951422 0.082929857 0.098119393 0.173074901 -0.004532437 0.163382322 0.046643533 -0.005474637 0.049943987 0.050806955 -0.006359250 0.011612368 0.034440342 0.077663317 0.014648535 0.019203085 0.022337126 0.123503782 0.040972382 0.003692139 0.070671298 0.114209019 0.020871788 0.083095394 0.007927282 0.002980293 0.105964109 0.162739038 0.021772137 0.032538779 0.154556766 0.051594496 0.045471460 0.149310276 0.236831799
aey 0.164339468 0.017608145 0.152566239 0.138773024 0.121579908 0.070713066 0.016679684 0.174964219 0.058469269 0.001266974 0.157590568 0.145741835 0.130305052 0.559120119 0.086314686 0.730069876 0.031670514 0.212204844 0.209967107 0.122476071 0.000306925 0.332250357 0.091329448 0.111018270 0.069151819 0.017836532 0.069173627 0.338688076 0.274091363 0.149208993 0.188791379 0.228988945 0.002819855 0.140220016 0.035997126 0.049552411 0.162783489 0.104940765 0.134819165 0.082477763 0.145923421 0.205563113 0.103317581 0.118663698 0.144688442 0.189082295 0.148293316 0.087081149 0.051761273 0.016490571 0.065264225 0.102382064 0.182579607 0.270353913 0.115092106 0.176721364 0.118772186 0.161657214 0.070844889 0.108993955 0.080918409 0.033141106 0.183938250 0.051428039 0.155891776 0.286420345 0.166322261 0.087145433 0.285209775 0.177854627 0.142258078 0.004268759 0.105383039 0.098248184 0.180582464 0.051469337 0.037390061 0.166811228 0.042171136 0.112990327 0.042915884 0.076574922 0.000344854 0.056137066 0.084218338 0.029188208 0.124960206 0.046296705 0.074623115 0.109765954 0.059424486 0.146175817 0.082342245 0.121752568 0.195013478 0.028559843 0.071779884 0.089104310 0.103483416 0.047102813 0.164339468 0.017608145 0.152566239 0.138773024 0.121579908 0.070713066 0.016679684 0.174964219 0.058469269 0.001266974 0.157590568 0.145741835 0.130305052 0.559120119 0.086314686 0.730069876 0.031670514 0.212204844 0.209967107 0.122476071 0.000306925 0.332250357 0.091329448 0.111018270 0.069151819 0.017836532 0.069173627 0.338688076 0.274091363 0.149208993 0.188791379 0.228988945 0.002819855 0.140220016 0.035997126 0.049552411 0.162783489 0.104940765 0.134819165 0.082477763 0.145923421 0.205563113 0.103317581 0.118663698 0.144688442 0.189082295 0.148293316 0.087081149 0.051761273 0.016490571 0.065264225 0.102382064 0.182579607 0.270353913 0.115092106 0.176721364 0.118772186 0.161657214 0.070844889 0.108993955 0.080918409 0.033141106 0.183938250 0.051428039 0.155891776 0.286420345 0.166322261 0.087145433 0.285209775 0.177854627 0.142258078 0.004268759 0.105383039 0.098248184 0.180582464 0.051469337 0.037390061 0.166811228 0.042171136 0.112990327 0.042915884 0.076574922 0.000344854 0.056137066 0.084218338 0.029188208 0.124960206 0.046296705 0.074623115 0.109765954 0.059424486 0.146175817 0.082342245 0.121752568 0.195013478 0.028559843 0.071779884 0.089104310 0.103483416 0.047102813
aez 0.056219008 -0.024548318 0.040496454 0.143347323 0.208951265 -0.038022637 0.008026202 0.294387043 0.056019869 0.107378028 0.120606601 0.217323050 0.042087380 0.086224303 -0.008592529 0.084274545 0.195719302 0.016926140 0.017152669 -0.017647253 0.168879345 0.046471737 0.179471239 0.007185084 0.018189879 0.027892608 0.072931975 0.055168025 0.114953361 0.066536903 0.036607567 0.084485807 0.053167909 0.011370116 0.152668566 0.139064714 0.097179636 0.145995185 0.021155588 0.102972105 0.060628459 -0.003116844 0.094944149 0.035898410 0.102365047 0.112059228 0.163921714 0.196343288 0.089046039 0.041605107 0.007142788 0.049816664 0.069555528 0.099660344 0.062162008 0.027365552 -0.006031923 0.110397831 0.290090293 0.013762621 0.040772825 0.063931905 0.071900263 0.122606911 0.081704646 0.028060444 0.038360041 0.015317242 0.092606917 0.118247584 0.074610591 0.048288245 0.012017902 0.063440360 0.124485768 0.054164376 0.028610533 0.062534310 -0.004341056 0.009697904 0.019203085 0.120612435 0.050882459 0.094716676 0.100225464 0.073137045 0.117921397 0.178714722 0.082635880 0.038827997 0.070137173 0.042813960 0.016517935 0.045821097 -0.006458010 0.014064540 0.063473046 -0.000672572 0.058540791 0.142409503 0.056219008 -0.024548318 0.040496454 0.143347323 0.208951265 -0.038022637 0.008026202 0.294387043 0.056019869 0.107378028 0.120606601 0.217323050 0.042087380 0.086224303 -0.008592529 0.084274545 0.195719302 0.016926140 0.017152669 -0.017647253 0.168879345 0.046471737 0.179471239 0.007185084 0.018189879 0.027892608 0.072931975 0.055168025 0.114953361 0.066536903 0.036607567 0.084485807 0.053167909 0.011370116 0.152668566 0.139064714 0.097179636 0.145995185 0.021155588 0.102972105 0.060628459 -0.003116844 0.094944149 0.035898410 0.102365047 0.112059228 0.163921714 0.196343288 0.089046039 0.041605107 0.007142788 0.049816664 0.069555528 0.099660344 0.062162008 0.027365552 -0.006031923 0.110397831 0.290090293 0.013762621 0.040772825 0.063931905 0.071900263 0.122606911 0.081704646 0.028060444 0.038360041 0.015317242 0.092606917 0.118247584 0.074610591 0.048288245 0.012017902 0.063440360 0.124485768 0.054164376 0.028610533 0.062534310 -0.004341056 0.009697904 0.019203085 0.120612435 0.050882459 0.094716676 0.100225464 0.073137045 0.117921397 0.178714722 0.082635880 0.038827997 0.070137173 0.042813960 0.016517935 0.045821097 -0.006458010 0.014064540 0.063473046 -0.000672572 0.058540791 0.142409503
afp 0.001754729 0.001004165 0.018235981 0.054671701 -0.065390915 0.046720002 -0.072295569 -0.016300853 -0.001942039 -0.008621762 -0.025252784 -0.064060733 0.042411823 -0.066082843 0.096145093 0.027596435 -0.038851622 0.000628774 0.058935076 0.100884832 0.016406622 0.007019466 -0.033341806 0.044505339 -0.106945477 -0.009977260 -0.080619588 -0.005662376 0.050733976 -0.017141737 0.086867325 -0.059582576 0.035233922 0.219150499 0.037158970 -0.062590010 -0.119516276 -0.006836643 0.078138188 -0.106769025 -0.111590214 0.067854278 -0.004977269 0.029503757 -0.006027747 0.171215430 -0.056843936 0.047176879 -0.095499255 0.068933956 0.035954311 0.059083726 -0.056338385 0.191735700 0.019358020 -0.045897715 -0.124419525 0.170791805 0.268994927 -0.044135090 -0.111386299 -0.099411674 0.191162571 0.135273278 -0.046600156 0.101341434 0.143342048 -0.208696529 0.327423513 -0.114608593 -0.010124211 0.085323714 -0.146642745 0.006208741 -0.065093249 -0.159897178 0.066940628 0.131177157 -0.017000142 0.043962035 0.213982478 -0.079399921 -0.067176744 -0.194463283 -0.153095230 -0.087811649 -0.155586064 -0.063181832 -0.028077327 0.115907408 -0.090940751 0.078573920 0.082807228 -0.139570639 -0.058120213 -0.049615279 0.058882523 -0.131949201 -0.021997789 0.036139641 0.001754729 0.001004165 0.018235981 0.054671701 -0.065390915 0.046720002 -0.072295569 -0.016300853 -0.001942039 -0.008621762 -0.025252784 -0.064060733 0.042411823 -0.066082843 0.096145093 0.027596435 -0.038851622 0.000628774 0.058935076 0.100884832 0.016406622 0.007019466 -0.033341806 0.044505339 -0.106945477 -0.009977260 -0.080619588 -0.005662376 0.050733976 -0.017141737 0.086867325 -0.059582576 0.035233922 0.219150499 0.037158970 -0.062590010 -0.119516276 -0.006836643 0.078138188 -0.106769025 -0.111590214 0.067854278 -0.004977269 0.029503757 -0.006027747 0.171215430 -0.056843936 0.047176879 -0.095499255 0.068933956 0.035954311 0.059083726 -0.056338385 0.191735700 0.019358020 -0.045897715 -0.124419525 0.170791805 0.268994927 -0.044135090 -0.111386299 -0.099411674 0.191162571 0.135273278 -0.046600156 0.101341434 0.143342048 -0.208696529 0.327423513 -0.114608593 -0.010124211 0.085323714 -0.146642745 0.006208741 -0.065093249 -0.159897178 0.066940628 0.131177157 -0.017000142 0.043962035 0.213982478 -0.079399921 -0.067176744 -0.194463283 -0.153095230 -0.087811649 -0.155586064 -0.063181832 -0.028077327 0.115907408 -0.090940751 0.078573920 0.082807228 -0.139570639 -0.058120213 -0.049615279 0.058882523 -0.131949201 -0.021997789 0.036139641
afz 0.661788225 0.052413315 0.259098887 0.287937492 0.250396848 0.028461469 0.265435934 0.093991816 0.056628071 0.222858503 0.113691986 0.093924105 0.023268048 0.730632722 0.207259461 0.227927059 0.045061324 0.342217475 0.319953859 0.055155497 0.115055464 0.184834093 0.145905569 0.082218856 0.361136228 0.020667870 0.184530705 0.033501472 0.058956128 0.127725616 0.119291238 0.096316673 0.191047728 0.170290411 0.317991287 0.124770068 0.234845981 0.114571117 0.197618395 0.040997736 0.174609944 0.404927641 0.111663923 0.113735370 0.120688841 0.124072731 0.106694855 0.041740451 0.034472797 0.082677126 0.183672130 0.079841286 0.083980285 0.046386555 0.008593846 0.062805004 0.148653999 0.102369070 0.156169370 0.145835429 0.094622292 0.154607102 0.022779886 0.013203260 0.188202158 0.076771677 0.152802706 0.199296102 0.290980518 0.057011459 0.102393575 0.307182103 0.135190830 0.107480831 0.268993437 0.194617555 0.130836502 0.076429933 0.024489280 0.124551691 0.090494931 0.079553053 0.069011793 0.182323366 0.055833831 0.169841766 0.058066946 0.083264180 0.070693158 0.035453040 0.172190815 0.204248399 0.052771360 0.050848935 0.205099493 0.099519268 0.049775716 0.066643901 0.063499749 0.061356813 0.661788225 0.052413315 0.259098887 0.287937492 0.250396848 0.028461469 0.265435934 0.093991816 0.056628071 0.222858503 0.113691986 0.093924105 0.023268048 0.730632722 0.207259461 0.227927059 0.045061324 0.342217475 0.319953859 0.055155497 0.115055464 0.184834093 0.145905569 0.082218856 0.361136228 0.020667870 0.184530705 0.033501472 0.058956128 0.127725616 0.119291238 0.096316673 0.191047728 0.170290411 0.317991287 0.124770068 0.234845981 0.114571117 0.197618395 0.040997736 0.174609944 0.404927641 0.111663923 0.113735370 0.120688841 0.124072731 0.106694855 0.041740451 0.034472797 0.082677126 0.183672130 0.079841286 0.083980285 0.046386555 0.008593846 0.062805004 0.148653999 0.102369070 0.156169370 0.145835429 0.094622292 0.154607102 0.022779886 0.013203260 0.188202158 0.076771677 0.152802706 0.199296102 0.290980518 0.057011459 0.102393575 0.307182103 0.135190830 0.107480831 0.268993437 0.194617555 0.130836502 0.076429933 0.024489280 0.124551691 0.090494931 0.079553053 0.069011793 0.182323366 0.055833831 0.169841766 0.058066946 0.083264180 0.070693158 0.035453040 0.172190815 0.204248399 0.052771360 0.050848935 0.205099493 0.099519268 0.049775716 0.066643901 0.063499749 0.061356813
age 0.017140914 -0.176909193 0.095626302 -0.034422636 0.183682963 0.156344548 0.011106194 -0.028880725 -0.010730841 -0.010726948 0.038293436 -0.029302748 0.038605299 0.009026934 0.031947706 0.164686248 0.011505877 0.011938893 -0.010964623 0.013959562 0.035914212 0.066175379 0.031666104 0.016692866 -0.028822375 0.006831837 -0.012158074 0.024884092 0.037237387 -0.034238894 0.005746133 -0.032192860 0.007661258 -0.026791677 0.015994854 0.021506689 0.000136737 0.055673540 0.007067282 -0.012610676 0.026779911 0.010913573 0.023676181 0.011020120 0.144346491 0.022033162 0.051921777 0.132968336 0.023754751 0.045837749 0.060488742 0.062157061 0.014787879 0.064146288 0.077180862 0.063649438 0.147829548 0.102364548 0.071624078 -0.008952767 0.023714410 0.038595341 0.198918849 -0.005901636 0.198348746 0.007008094 0.027021701 0.020407977 0.026383411 0.059785258 0.017815987 0.188543588 -0.029508168 0.053515822 0.034507595 0.033965096 0.056753423 0.024945876 0.048126597 0.071258605 0.140606835 0.060836740 0.013321186 0.024717152 0.060844183 0.144496560 0.057009742 0.180584952 -0.002510100 0.045545239 0.042168561 -0.001031872 0.151320070 0.009163678 0.010174151 -0.000797154 -0.018306201 0.003502319 0.051023424 -0.005579029 0.017140914 -0.176909193 0.095626302 -0.034422636 0.183682963 0.156344548 0.011106194 -0.028880725 -0.010730841 -0.010726948 0.038293436 -0.029302748 0.038605299 0.009026934 0.031947706 0.164686248 0.011505877 0.011938893 -0.010964623 0.013959562 0.035914212 0.066175379 0.031666104 0.016692866 -0.028822375 0.006831837 -0.012158074 0.024884092 0.037237387 -0.034238894 0.005746133 -0.032192860 0.007661258 -0.026791677 0.015994854 0.021506689 0.000136737 0.055673540 0.007067282 -0.012610676 0.026779911 0.010913573 0.023676181 0.011020120 0.144346491 0.022033162 0.051921777 0.132968336 0.023754751 0.045837749 0.060488742 0.062157061 0.014787879 0.064146288 0.077180862 0.063649438 0.147829548 0.102364548 0.071624078 -0.008952767 0.023714410 0.038595341 0.198918849 -0.005901636 0.198348746 0.007008094 0.027021701 0.020407977 0.026383411 0.059785258 0.017815987 0.188543588 -0.029508168 0.053515822 0.034507595 0.033965096 0.056753423 0.024945876 0.048126597 0.071258605 0.140606835 0.060836740 0.013321186 0.024717152 0.060844183 0.144496560 0.057009742 0.180584952 -0.002510100 0.045545239 0.042168561 -0.001031872 0.151320070 0.009163678 0.010174151 -0.000797154 -0.018306201 0.003502319 0.051023424 -0.005579029
agf 0.666015446 0.016787726 0.044806536 0.287937492 0.262042552 0.045713365 0.265435934 0.237096459 0.074502043 0.222858503 0.273774028 0.277546525 0.075676940 0.001723935 0.053390052 0.036811396 0.259983242 0.134460539 0.099990144 0.109119564 0.179481849 0.167744786 0.247467190 0.388186872 0.145447686 0.047764182 0.373958588 0.122036964 0.239273712 0.134788349 0.190964177 0.213582203 0.346033663 0.166279182 0.067506932 0.260672629 0.052013777 0.442611068 0.288455218 0.103202991 0.029785329 0.154243603 0.228477612 0.127159581 0.182271272 0.121206753 0.171068802 0.195204392 0.045382939 0.159724414 0.144382477 0.056181919 0.113007829 0.086070530 0.120950222 0.043581203 0.011980198 0.173840135 0.146421403 0.111309446 0.052909426 0.052046724 0.088377118 0.087189279 0.103224352 0.118542038 0.064913332 0.071157441 0.115433924 0.021625260 0.067823566 0.077499680 0.127733767 0.143409699 0.157207713 0.037364487 0.029795278 0.081262134 0.258504003 0.083454311 0.021923816 0.055427764 0.100430317 0.035778951 0.028984200 0.048023999 0.030670742 0.055865627 0.104457363 0.072096780 0.015387027 0.064903811 0.044486403 0.151237085 0.054945141 0.115550771 0.074333131 0.041242331 0.051943425 0.060617272 0.666015446 0.016787726 0.044806536 0.287937492 0.262042552 0.045713365 0.265435934 0.237096459 0.074502043 0.222858503 0.273774028 0.277546525 0.075676940 0.001723935 0.053390052 0.036811396 0.259983242 0.134460539 0.099990144 0.109119564 0.179481849 0.167744786 0.247467190 0.388186872 0.145447686 0.047764182 0.373958588 0.122036964 0.239273712 0.134788349 0.190964177 0.213582203 0.346033663 0.166279182 0.067506932 0.260672629 0.052013777 0.442611068 0.288455218 0.103202991 0.029785329 0.154243603 0.228477612 0.127159581 0.182271272 0.121206753 0.171068802 0.195204392 0.045382939 0.159724414 0.144382477 0.056181919 0.113007829 0.086070530 0.120950222 0.043581203 0.011980198 0.173840135 0.146421403 0.111309446 0.052909426 0.052046724 0.088377118 0.087189279 0.103224352 0.118542038 0.064913332 0.071157441 0.115433924 0.021625260 0.067823566 0.077499680 0.127733767 0.143409699 0.157207713 0.037364487 0.029795278 0.081262134 0.258504003 0.083454311 0.021923816 0.055427764 0.100430317 0.035778951 0.028984200 0.048023999 0.030670742 0.055865627 0.104457363 0.072096780 0.015387027 0.064903811 0.044486403 0.151237085 0.054945141 0.115550771 0.074333131 0.041242331 0.051943425 0.060617272
agl 0.498333097 0.037268646 0.259098887 0.287023365 0.193094313 0.058625467 0.203853086 0.042538427 0.049571868 0.211806938 0.068625487 0.000624566 0.045506023 0.730632722 0.039324746 0.075414836 0.046894152 0.169857070 0.319953859 0.189947262 0.176312521 0.237188667 0.119109139 0.422916174 -0.004558509 0.018149916 0.024280099 0.035193350 0.281934083 0.088128425 0.016269471 0.074313827 0.091742568 0.091090664 0.042270929 0.134014115 0.437803715 0.094369911 0.064379469 0.056065843 0.068834178 0.036847278 0.039258115 0.143123910 0.076611824 0.098784089 0.076759569 0.074367732 0.038335148 0.073397793 0.007106541 0.205054253 0.061823614 0.008864577 0.033171561 0.044442583 0.134898782 0.040919516 0.025030723 0.148776099 0.142427385 0.050921205 0.206426948 0.172792420 0.145656869 0.152247474 0.082929857 -0.000860026 0.173074901 0.057011459 0.098243363 0.046643533 0.037040725 0.049943987 0.060941733 0.020787997 -0.012148000 0.150565311 0.127461657 0.083560310 0.065239094 0.021408398 0.123503782 0.136278734 0.053224977 0.070671298 0.129197821 0.060095452 0.083095394 -0.016129011 0.044389099 0.105964109 0.162739038 0.000062935 0.048766211 0.154556766 0.026759628 0.094913237 0.149310276 0.236831799 0.498333097 0.037268646 0.259098887 0.287023365 0.193094313 0.058625467 0.203853086 0.042538427 0.049571868 0.211806938 0.068625487 0.000624566 0.045506023 0.730632722 0.039324746 0.075414836 0.046894152 0.169857070 0.319953859 0.189947262 0.176312521 0.237188667 0.119109139 0.422916174 -0.004558509 0.018149916 0.024280099 0.035193350 0.281934083 0.088128425 0.016269471 0.074313827 0.091742568 0.091090664 0.042270929 0.134014115 0.437803715 0.094369911 0.064379469 0.056065843 0.068834178 0.036847278 0.039258115 0.143123910 0.076611824 0.098784089 0.076759569 0.074367732 0.038335148 0.073397793 0.007106541 0.205054253 0.061823614 0.008864577 0.033171561 0.044442583 0.134898782 0.040919516 0.025030723 0.148776099 0.142427385 0.050921205 0.206426948 0.172792420 0.145656869 0.152247474 0.082929857 -0.000860026 0.173074901 0.057011459 0.098243363 0.046643533 0.037040725 0.049943987 0.060941733 0.020787997 -0.012148000 0.150565311 0.127461657 0.083560310 0.065239094 0.021408398 0.123503782 0.136278734 0.053224977 0.070671298 0.129197821 0.060095452 0.083095394 -0.016129011 0.044389099 0.105964109 0.162739038 0.000062935 0.048766211 0.154556766 0.026759628 0.094913237 0.149310276 0.236831799
agm 0.114337109 -0.077721976 0.048925366 0.124342956 -0.006068018 -0.207325041 0.111688197 0.037974577 -0.015648773 0.055595040 0.027540175 0.023300003 0.088304505 0.064500041 -0.103147581 0.199013650 -0.038895946 0.053749848 0.010752036 0.065151639 0.108576350 -0.111278452 0.063385837 -0.024601687 -0.149156466 -0.015440394 -0.014297897 0.137747705 0.235982835 -0.006686197 -0.201222420 -0.133412927 0.102532700 0.092838421 0.040621556 -0.087526716 -0.078832768 0.255360544 -0.063081175 0.044740301 -0.017439850 0.044738900 -0.169641152 -0.020596862 0.106492579 -0.304400027 0.177772567 0.027949138 -0.143385738 0.131677344 -0.097195074 0.010223687 -0.129546508 -0.021292863 -0.038169019 -0.036732517 0.083460055 0.080253214 0.023520142 -0.124419875 -0.097955413 -0.014480512 0.033805408 -0.015692275 0.052754916 0.022186711 -0.052874994 0.066612668 -0.046557900 0.044681210 0.026954580 -0.070713177 -0.136009499 -0.012826742 -0.011774202 0.083983958 0.053412922 -0.100699849 0.054980535 -0.032060206 0.094621114 -0.020874059 -0.028005039 0.005114307 -0.083847977 -0.079889879 0.137717932 -0.092372008 0.130173504 0.171751007 0.068322904 0.076372899 0.037519060 0.100747749 0.062221855 0.059918743 0.130928516 0.206076920 -0.095008709 0.071655825 0.114337109 -0.077721976 0.048925366 0.124342956 -0.006068018 -0.207325041 0.111688197 0.037974577 -0.015648773 0.055595040 0.027540175 0.023300003 0.088304505 0.064500041 -0.103147581 0.199013650 -0.038895946 0.053749848 0.010752036 0.065151639 0.108576350 -0.111278452 0.063385837 -0.024601687 -0.149156466 -0.015440394 -0.014297897 0.137747705 0.235982835 -0.006686197 -0.201222420 -0.133412927 0.102532700 0.092838421 0.040621556 -0.087526716 -0.078832768 0.255360544 -0.063081175 0.044740301 -0.017439850 0.044738900 -0.169641152 -0.020596862 0.106492579 -0.304400027 0.177772567 0.027949138 -0.143385738 0.131677344 -0.097195074 0.010223687 -0.129546508 -0.021292863 -0.038169019 -0.036732517 0.083460055 0.080253214 0.023520142 -0.124419875 -0.097955413 -0.014480512 0.033805408 -0.015692275 0.052754916 0.022186711 -0.052874994 0.066612668 -0.046557900 0.044681210 0.026954580 -0.070713177 -0.136009499 -0.012826742 -0.011774202 0.083983958 0.053412922 -0.100699849 0.054980535 -0.032060206 0.094621114 -0.020874059 -0.028005039 0.005114307 -0.083847977 -0.079889879 0.137717932 -0.092372008 0.130173504 0.171751007 0.068322904 0.076372899 0.037519060 0.100747749 0.062221855 0.059918743 0.130928516 0.206076920 -0.095008709 0.071655825
ago 0.498333097 0.007750069 0.043078125 0.287023365 0.193094313 0.021892702 0.203853086 -0.212875664 -0.066036507 0.211806938 0.021615336 0.000624566 0.008399987 -0.022392260 -0.064414509 -0.058141969 -0.399249613 0.098500296 -0.001559554 0.039258089 0.028814020 0.014723132 -0.027424091 -0.121788189 -0.118488662 0.018149916 -0.036899783 0.035193350 0.107277356 0.088128425 -0.049583822 0.074313827 0.091742568 0.038751785 0.030716617 0.026282994 -0.059089318 -0.043806076 -0.008814886 0.056065843 0.032022160 0.021118606 0.021904716 0.030273300 -0.019599164 0.042708322 0.017692965 -0.119342044 0.038335148 -0.021842429 -0.046583630 -0.008583055 -0.009561972 -0.110415973 0.033171561 0.044442583 0.007597770 0.040919516 0.024935253 -0.027576152 -0.085557796 -0.066390134 -0.050714500 -0.008628170 0.051249888 -0.029676147 0.013983288 -0.000860026 -0.095960446 -0.074037910 0.098243363 -0.235714272 0.037040725 -0.007778802 -0.050768085 0.020787997 -0.070451580 0.150565311 0.127461657 0.083560310 0.000260150 0.021408398 -0.049559012 0.136278734 -0.048324943 -0.053144407 0.019086896 0.023739146 0.035951529 -0.016129011 0.030104658 0.037110999 0.019218229 -0.009705864 0.035157818 0.027928658 -0.036683690 0.007620236 0.032868840 0.036001574 0.498333097 0.007750069 0.043078125 0.287023365 0.193094313 0.021892702 0.203853086 -0.212875664 -0.066036507 0.211806938 0.021615336 0.000624566 0.008399987 -0.022392260 -0.064414509 -0.058141969 -0.399249613 0.098500296 -0.001559554 0.039258089 0.028814020 0.014723132 -0.027424091 -0.121788189 -0.118488662 0.018149916 -0.036899783 0.035193350 0.107277356 0.088128425 -0.049583822 0.074313827 0.091742568 0.038751785 0.030716617 0.026282994 -0.059089318 -0.043806076 -0.008814886 0.056065843 0.032022160 0.021118606 0.021904716 0.030273300 -0.019599164 0.042708322 0.017692965 -0.119342044 0.038335148 -0.021842429 -0.046583630 -0.008583055 -0.009561972 -0.110415973 0.033171561 0.044442583 0.007597770 0.040919516 0.024935253 -0.027576152 -0.085557796 -0.066390134 -0.050714500 -0.008628170 0.051249888 -0.029676147 0.013983288 -0.000860026 -0.095960446 -0.074037910 0.098243363 -0.235714272 0.037040725 -0.007778802 -0.050768085 0.020787997 -0.070451580 0.150565311 0.127461657 0.083560310 0.000260150 0.021408398 -0.049559012 0.136278734 -0.048324943 -0.053144407 0.019086896 0.023739146 0.035951529 -0.016129011 0.030104658 0.037110999 0.019218229 -0.009705864 0.035157818 0.027928658 -0.036683690 0.007620236 0.032868840 0.036001574
agr 0.586941838 0.151810363 0.949631512 0.577871501 0.322623104 0.209779024 0.203853086 0.506756842 0.368345380 0.460891962 0.159317002 0.485201299 0.753286898 0.734834671 0.351775438 0.398794025 0.443478972 0.329059660 0.352559507 0.510186613 0.285465449 0.275872469 0.250767857 0.607677400 0.385930955 0.152219400 0.407468110 0.267591029 0.333665460 0.309886098 0.348012179 0.162999094 0.358750939 0.276235551 0.305340260 0.283841163 0.437803715 0.424154341 0.361458421 0.282304972 0.360888302 0.422238141 0.383154511 0.296631396 0.234468058 0.253634751 0.202707946 0.262696981 0.372083992 0.202467233 0.214930519 0.342077047 0.191188738 0.527677476 0.247612074 0.318400383 0.309760273 0.188227817 0.316549599 0.295720696 0.365856260 0.260402203 0.176373661 0.300568581 0.312573195 0.462876618 0.260897070 0.256511718 0.133052737 0.243890017 0.264910728 0.250457227 0.410130590 0.237012073 0.241528183 0.197412640 0.280073136 0.231167659 0.372788191 0.481641799 0.291602612 0.231546298 0.357485354 0.260107994 0.161385611 0.322570235 0.294542313 0.213578373 0.257949382 0.243887499 0.175536856 0.153018519 0.167695686 0.126351357 0.173058540 0.117842324 0.153931573 0.162392020 0.102545194 0.155723765 0.586941838 0.151810363 0.949631512 0.577871501 0.322623104 0.209779024 0.203853086 0.506756842 0.368345380 0.460891962 0.159317002 0.485201299 0.753286898 0.734834671 0.351775438 0.398794025 0.443478972 0.329059660 0.352559507 0.510186613 0.285465449 0.275872469 0.250767857 0.607677400 0.385930955 0.152219400 0.407468110 0.267591029 0.333665460 0.309886098 0.348012179 0.162999094 0.358750939 0.276235551 0.305340260 0.283841163 0.437803715 0.424154341 0.361458421 0.282304972 0.360888302 0.422238141 0.383154511 0.296631396 0.234468058 0.253634751 0.202707946 0.262696981 0.372083992 0.202467233 0.214930519 0.342077047 0.191188738 0.527677476 0.247612074 0.318400383 0.309760273 0.188227817 0.316549599 0.295720696 0.365856260 0.260402203 0.176373661 0.300568581 0.312573195 0.462876618 0.260897070 0.256511718 0.133052737 0.243890017 0.264910728 0.250457227 0.410130590 0.237012073 0.241528183 0.197412640 0.280073136 0.231167659 0.372788191 0.481641799 0.291602612 0.231546298 0.357485354 0.260107994 0.161385611 0.322570235 0.294542313 0.213578373 0.257949382 0.243887499 0.175536856 0.153018519 0.167695686 0.126351357 0.173058540 0.117842324 0.153931573 0.162392020 0.102545194 0.155723765
agw 0.160008505 0.056076273 0.405795038 0.520069182 0.143063635 0.058625467 0.190155402 0.147097766 0.368345380 0.125405356 0.257272035 0.334738702 0.072186522 0.178746268 0.206596836 0.730069876 0.119986504 0.342217475 0.209967107 0.259105295 0.463378221 0.101200320 0.145905569 0.422916174 0.361136228 0.112629488 0.184530705 0.251287580 0.306560010 0.288620621 0.188791379 0.436746061 0.191047728 0.232751548 0.317991287 0.191338643 0.234845981 0.190213278 0.197618395 0.171731532 0.174609944 0.404927641 0.374072164 0.222470284 0.133942425 0.246889755 0.137160599 0.320971131 0.176955238 0.274086684 0.183672130 0.168140441 0.172277823 0.278795958 0.283278733 0.160188869 0.186073288 0.149797320 0.156169370 0.209840059 0.148813933 0.154607102 0.206426948 0.174243122 0.258069664 0.098951422 0.143464357 0.179630816 0.173074901 0.080426402 0.240467384 0.103082657 0.151050493 0.124393076 0.202281788 0.163038716 0.119984843 0.092820778 0.043492436 0.137723476 0.199484497 0.106401958 0.238556653 0.167830586 0.186909363 0.080404155 0.217562199 0.075492151 0.117614172 0.196752161 0.100325353 0.105964109 0.162739038 0.039169397 0.063354485 0.154556766 0.160583109 0.066643901 0.149310276 0.236831799 0.160008505 0.056076273 0.405795038 0.520069182 0.143063635 0.058625467 0.190155402 0.147097766 0.368345380 0.125405356 0.257272035 0.334738702 0.072186522 0.178746268 0.206596836 0.730069876 0.119986504 0.342217475 0.209967107 0.259105295 0.463378221 0.101200320 0.145905569 0.422916174 0.361136228 0.112629488 0.184530705 0.251287580 0.306560010 0.288620621 0.188791379 0.436746061 0.191047728 0.232751548 0.317991287 0.191338643 0.234845981 0.190213278 0.197618395 0.171731532 0.174609944 0.404927641 0.374072164 0.222470284 0.133942425 0.246889755 0.137160599 0.320971131 0.176955238 0.274086684 0.183672130 0.168140441 0.172277823 0.278795958 0.283278733 0.160188869 0.186073288 0.149797320 0.156169370 0.209840059 0.148813933 0.154607102 0.206426948 0.174243122 0.258069664 0.098951422 0.143464357 0.179630816 0.173074901 0.080426402 0.240467384 0.103082657 0.151050493 0.124393076 0.202281788 0.163038716 0.119984843 0.092820778 0.043492436 0.137723476 0.199484497 0.106401958 0.238556653 0.167830586 0.186909363 0.080404155 0.217562199 0.075492151 0.117614172 0.196752161 0.100325353 0.105964109 0.162739038 0.039169397 0.063354485 0.154556766 0.160583109 0.066643901 0.149310276 0.236831799
agx 0.666015446 0.151077628 0.949631512 0.577871501 0.329992682 0.209779024 0.234030515 0.495052338 0.366153568 0.460891962 0.891763747 0.459325165 0.722963631 0.626901448 0.384279042 0.813761294 0.443478972 0.325800151 0.334840864 0.510186613 0.260261506 0.390454799 0.292821974 0.607677400 0.316182345 0.115991004 0.407468110 0.393570244 0.427230448 0.358037353 0.377591610 0.457484156 0.348907351 0.343756437 0.261257321 0.270075053 0.313357979 0.221062198 0.296250850 0.314919293 0.278061301 0.362249225 0.356467098 0.296631396 0.252805769 0.253634751 0.336123854 0.268766910 0.358488768 0.326013803 0.198486254 0.222785726 0.132265687 0.514360368 0.203978270 0.340768963 0.252246201 0.286437720 0.232400015 0.222663730 0.365856260 0.273370892 0.320025086 0.303968310 0.251736075 0.462876618 0.256696671 0.242451161 0.285925657 0.239674211 0.324342579 0.250457227 0.270031273 0.258822352 0.265261143 0.154933155 0.372071952 0.271017283 0.469940782 0.481641799 0.251963079 0.283301711 0.270637572 0.223064005 0.290662736 0.322570235 0.294542313 0.231296659 0.273865581 0.243887499 0.235058397 0.154420912 0.143548951 0.245894521 0.266134292 0.233675912 0.146350965 0.163772017 0.232109874 0.159557000 0.666015446 0.151077628 0.949631512 0.577871501 0.329992682 0.209779024 0.234030515 0.495052338 0.366153568 0.460891962 0.891763747 0.459325165 0.722963631 0.626901448 0.384279042 0.813761294 0.443478972 0.325800151 0.334840864 0.510186613 0.260261506 0.390454799 0.292821974 0.607677400 0.316182345 0.115991004 0.407468110 0.393570244 0.427230448 0.358037353 0.377591610 0.457484156 0.348907351 0.343756437 0.261257321 0.270075053 0.313357979 0.221062198 0.296250850 0.314919293 0.278061301 0.362249225 0.356467098 0.296631396 0.252805769 0.253634751 0.336123854 0.268766910 0.358488768 0.326013803 0.198486254 0.222785726 0.132265687 0.514360368 0.203978270 0.340768963 0.252246201 0.286437720 0.232400015 0.222663730 0.365856260 0.273370892 0.320025086 0.303968310 0.251736075 0.462876618 0.256696671 0.242451161 0.285925657 0.239674211 0.324342579 0.250457227 0.270031273 0.258822352 0.265261143 0.154933155 0.372071952 0.271017283 0.469940782 0.481641799 0.251963079 0.283301711 0.270637572 0.223064005 0.290662736 0.322570235 0.294542313 0.231296659 0.273865581 0.243887499 0.235058397 0.154420912 0.143548951 0.245894521 0.266134292 0.233675912 0.146350965 0.163772017 0.232109874 0.159557000
ahh 0.594168186 0.015545213 0.060691807 0.301550418 0.246683583 0.040035866 0.224522859 0.171045765 0.161513314 0.233455196 0.064719625 0.485201299 0.092369989 0.175525144 0.098817192 0.467843294 0.259983242 0.200971186 0.050018411 0.161871538 0.237206846 0.237188667 0.283361971 0.216329023 0.207683191 0.028288266 0.121391863 0.081435695 0.281934083 0.172228366 0.133314267 0.115246192 0.116783544 0.159878686 0.076236539 0.134014115 0.437803715 0.288312048 0.209434599 0.109273896 0.194571495 0.077945076 0.079237193 0.143123910 0.180159971 0.168746218 0.085373111 0.164925858 0.163628086 0.159724414 0.018624632 0.205054253 0.091917984 0.046578735 0.085431390 0.061112806 0.134898782 0.110631742 0.146421403 0.140899286 0.142427385 0.050921205 0.094771370 0.172792420 0.141607225 0.152247474 0.208155707 0.129048884 0.093545608 0.174228251 0.504670858 0.109180599 0.201275826 0.059478078 0.111487426 0.107519113 0.118851461 0.260498703 0.078187779 0.136135578 0.074083783 0.171979338 0.013578746 0.055856213 0.056176230 0.095475517 0.129197821 0.062841520 0.063101344 0.096469365 0.160659999 0.104647987 0.091842316 0.192935362 0.032633714 0.060754102 0.262492985 0.111133099 0.116225712 0.064948507 0.594168186 0.015545213 0.060691807 0.301550418 0.246683583 0.040035866 0.224522859 0.171045765 0.161513314 0.233455196 0.064719625 0.485201299 0.092369989 0.175525144 0.098817192 0.467843294 0.259983242 0.200971186 0.050018411 0.161871538 0.237206846 0.237188667 0.283361971 0.216329023 0.207683191 0.028288266 0.121391863 0.081435695 0.281934083 0.172228366 0.133314267 0.115246192 0.116783544 0.159878686 0.076236539 0.134014115 0.437803715 0.288312048 0.209434599 0.109273896 0.194571495 0.077945076 0.079237193 0.143123910 0.180159971 0.168746218 0.085373111 0.164925858 0.163628086 0.159724414 0.018624632 0.205054253 0.091917984 0.046578735 0.085431390 0.061112806 0.134898782 0.110631742 0.146421403 0.140899286 0.142427385 0.050921205 0.094771370 0.172792420 0.141607225 0.152247474 0.208155707 0.129048884 0.093545608 0.174228251 0.504670858 0.109180599 0.201275826 0.059478078 0.111487426 0.107519113 0.118851461 0.260498703 0.078187779 0.136135578 0.074083783 0.171979338 0.013578746 0.055856213 0.056176230 0.095475517 0.129197821 0.062841520 0.063101344 0.096469365 0.160659999 0.104647987 0.091842316 0.192935362 0.032633714 0.060754102 0.262492985 0.111133099 0.116225712 0.064948507
aia 0.022310589 -0.004410820 0.181924567 0.096971944 0.043378092 0.028461469 -0.001584128 0.057327662 0.023298692 0.000983280 0.144061834 0.093924105 0.005558394 0.178746268 0.081280924 0.227927059 0.015007540 0.342217475 0.019727498 0.055155497 0.222234875 0.071575128 0.145905569 0.495428503 0.361136228 0.018661311 0.418727160 0.027599942 0.208627775 0.092091642 0.119291238 0.151863694 0.191047728 0.191413328 0.058667932 0.049134932 0.234845981 0.114571117 -0.033704963 0.171731532 0.174609944 0.404927641 0.168102965 0.222470284 0.133942425 0.246889755 0.122430377 0.320971131 0.030443152 0.100554481 0.183672130 0.168140441 0.133287027 0.205549479 0.005772298 0.002965721 0.186073288 0.102369070 0.156169370 0.209840059 -0.015096986 0.009464896 0.035526663 0.032747291 0.188202158 0.098023735 0.143464357 0.152496293 0.131121501 0.049362823 0.240467384 0.073748842 0.151050493 0.116713308 0.050071213 0.084790736 0.074688360 0.071747653 0.007518655 0.124551691 0.065541163 0.126497746 0.084938340 0.167830586 0.046481453 0.063418925 0.217562199 0.056733664 0.046271175 0.020953849 0.100325353 0.057012562 0.146107674 0.010107107 0.052196167 0.099519268 0.160583109 0.066643901 0.029221060 0.121227197 0.022310589 -0.004410820 0.181924567 0.096971944 0.043378092 0.028461469 -0.001584128 0.057327662 0.023298692 0.000983280 0.144061834 0.093924105 0.005558394 0.178746268 0.081280924 0.227927059 0.015007540 0.342217475 0.019727498 0.055155497 0.222234875 0.071575128 0.145905569 0.495428503 0.361136228 0.018661311 0.418727160 0.027599942 0.208627775 0.092091642 0.119291238 0.151863694 0.191047728 0.191413328 0.058667932 0.049134932 0.234845981 0.114571117 -0.033704963 0.171731532 0.174609944 0.404927641 0.168102965 0.222470284 0.133942425 0.246889755 0.122430377 0.320971131 0.030443152 0.100554481 0.183672130 0.168140441 0.133287027 0.205549479 0.005772298 0.002965721 0.186073288 0.102369070 0.156169370 0.209840059 -0.015096986 0.009464896 0.035526663 0.032747291 0.188202158 0.098023735 0.143464357 0.152496293 0.131121501 0.049362823 0.240467384 0.073748842 0.151050493 0.116713308 0.050071213 0.084790736 0.074688360 0.071747653 0.007518655 0.124551691 0.065541163 0.126497746 0.084938340 0.167830586 0.046481453 0.063418925 0.217562199 0.056733664 0.046271175 0.020953849 0.100325353 0.057012562 0.146107674 0.010107107 0.052196167 0.099519268 0.160583109 0.066643901 0.029221060 0.121227197
aif 0.018596573 -0.010028190 0.181924567 0.037417423 0.043378092 -0.001969055 -0.009309737 0.088122047 -0.010854901 0.001059050 0.157590568 0.145741835 0.005558394 0.205317840 0.081280924 0.233905941 0.002539105 0.342217475 -0.377612144 0.055155497 -0.000719737 -0.177652329 0.145905569 -0.062045522 0.361136228 0.017836532 0.069173627 -0.036675937 0.091943316 0.122923739 0.055322699 -0.020032471 0.191047728 0.003892198 0.058667932 0.049552411 0.158248037 -0.035516016 0.087966301 0.040997736 0.006866585 -0.064283326 0.037669156 0.118663698 0.144688442 0.074738614 0.027694222 0.037309386 -0.054741256 -0.134795681 -0.091126613 -0.025596447 0.081904501 0.140814900 0.115092106 0.016196717 0.118772186 0.102369070 0.050857998 -0.020208593 0.080918409 0.009464896 0.183938250 0.013203260 0.072941259 -0.042282149 0.096497968 0.050693825 0.285209775 0.050185341 -0.039695967 0.073748842 -0.073815420 0.000858751 -0.021442685 -0.014844779 0.037390061 0.071747653 0.007518655 0.124551691 0.065541163 0.042563032 0.021106238 0.053400274 0.044765692 -0.006409831 0.003352743 0.007062847 0.046271175 0.020953849 0.057134010 -0.064707026 -0.043878969 0.075627036 -0.045166302 -0.032139700 0.023854792 0.027315445 0.028149216 0.021411352 0.018596573 -0.010028190 0.181924567 0.037417423 0.043378092 -0.001969055 -0.009309737 0.088122047 -0.010854901 0.001059050 0.157590568 0.145741835 0.005558394 0.205317840 0.081280924 0.233905941 0.002539105 0.342217475 -0.377612144 0.055155497 -0.000719737 -0.177652329 0.145905569 -0.062045522 0.361136228 0.017836532 0.069173627 -0.036675937 0.091943316 0.122923739 0.055322699 -0.020032471 0.191047728 0.003892198 0.058667932 0.049552411 0.158248037 -0.035516016 0.087966301 0.040997736 0.006866585 -0.064283326 0.037669156 0.118663698 0.144688442 0.074738614 0.027694222 0.037309386 -0.054741256 -0.134795681 -0.091126613 -0.025596447 0.081904501 0.140814900 0.115092106 0.016196717 0.118772186 0.102369070 0.050857998 -0.020208593 0.080918409 0.009464896 0.183938250 0.013203260 0.072941259 -0.042282149 0.096497968 0.050693825 0.285209775 0.050185341 -0.039695967 0.073748842 -0.073815420 0.000858751 -0.021442685 -0.014844779 0.037390061 0.071747653 0.007518655 0.124551691 0.065541163 0.042563032 0.021106238 0.053400274 0.044765692 -0.006409831 0.003352743 0.007062847 0.046271175 0.020953849 0.057134010 -0.064707026 -0.043878969 0.075627036 -0.045166302 -0.032139700 0.023854792 0.027315445 0.028149216 0.021411352
ail 0.160008505 -0.007122633 0.001747722 0.073345676 0.143063635 0.058625467 0.074495509 -0.002287327 0.006946320 0.074151330 0.067595877 -0.005315417 0.045506023 0.034505259 0.027500261 0.082313552 0.046894152 0.069520019 0.102927476 0.207366079 0.176312521 -0.033470131 -0.031421609 0.422916174 -0.021551082 -0.072060421 -0.044444907 0.251287580 0.306560010 0.048479766 0.016269471 0.007796844 0.099313147 0.232751548 -0.018332999 0.048757631 0.190696731 0.052604131 0.064379469 -0.060974967 0.010321290 0.048856966 0.374072164 -0.036656115 0.115373224 -0.084162734 0.137160599 0.074367732 0.066652827 0.073397793 -0.010468494 -0.086751699 -0.036441743 -0.007216005 -0.025128342 -0.002772865 -0.043447182 0.036756728 0.000751885 0.148776099 -0.069031172 0.038479488 0.206426948 -0.032121059 0.145656869 0.098951422 0.082929857 0.111313835 0.173074901 0.080426402 0.084748887 0.046643533 0.048072483 0.049943987 -0.022579227 0.045118432 0.024342649 0.002030530 0.034178138 0.060965475 0.050106820 0.048253033 0.123503782 0.034065086 -0.016556554 0.070671298 0.012700007 -0.005296867 0.083095394 0.061159667 0.086898759 0.105964109 0.162739038 -0.051653188 0.032538779 0.154556766 0.026759628 0.034196790 0.149310276 0.236831799 0.160008505 -0.007122633 0.001747722 0.073345676 0.143063635 0.058625467 0.074495509 -0.002287327 0.006946320 0.074151330 0.067595877 -0.005315417 0.045506023 0.034505259 0.027500261 0.082313552 0.046894152 0.069520019 0.102927476 0.207366079 0.176312521 -0.033470131 -0.031421609 0.422916174 -0.021551082 -0.072060421 -0.044444907 0.251287580 0.306560010 0.048479766 0.016269471 0.007796844 0.099313147 0.232751548 -0.018332999 0.048757631 0.190696731 0.052604131 0.064379469 -0.060974967 0.010321290 0.048856966 0.374072164 -0.036656115 0.115373224 -0.084162734 0.137160599 0.074367732 0.066652827 0.073397793 -0.010468494 -0.086751699 -0.036441743 -0.007216005 -0.025128342 -0.002772865 -0.043447182 0.036756728 0.000751885 0.148776099 -0.069031172 0.038479488 0.206426948 -0.032121059 0.145656869 0.098951422 0.082929857 0.111313835 0.173074901 0.080426402 0.084748887 0.046643533 0.048072483 0.049943987 -0.022579227 0.045118432 0.024342649 0.002030530 0.034178138 0.060965475 0.050106820 0.048253033 0.123503782 0.034065086 -0.016556554 0.070671298 0.012700007 -0.005296867 0.083095394 0.061159667 0.086898759 0.105964109 0.162739038 -0.051653188 0.032538779 0.154556766 0.026759628 0.034196790 0.149310276 0.236831799
ain 0.096193179 0.151077628 0.937050521 0.520069182 0.185328186 0.150976777 0.190155402 0.294387043 0.143087640 0.140177846 0.625901997 0.335864961 0.753286898 0.730632722 0.260564417 0.329519242 0.123165406 0.211911395 0.352559507 0.191774026 0.255727023 0.282083392 0.283831865 0.601646721 0.223758578 0.071765684 0.398267090 0.138733760 0.247347653 0.208760425 0.349023283 0.239162341 0.248515949 0.238658622 0.243499875 0.195240468 0.268202573 0.388656348 0.228087634 0.131706774 0.332886487 0.209041521 0.229418769 0.167354047 0.192061633 0.271726847 0.171068802 0.180578113 0.233158365 0.244674578 0.199007764 0.171973094 0.202625662 0.253063083 0.222012445 0.176721364 0.309760273 0.174393803 0.315190464 0.262727082 0.259808838 0.131809458 0.229266837 0.214345559 0.358419806 0.291384667 0.174052089 0.230884373 0.231635273 0.222489491 0.357903540 0.234375134 0.442234606 0.197507650 0.208287656 0.267135203 0.189722940 0.208130822 0.343139619 0.264098287 0.280573815 0.259735346 0.233593389 0.140448704 0.401001185 0.191857129 0.238520995 0.171271071 0.175804555 0.262334406 0.254333377 0.160700396 0.202404469 0.151833951 0.195013478 0.166918188 0.153518975 0.149965376 0.239870802 0.117199495 0.096193179 0.151077628 0.937050521 0.520069182 0.185328186 0.150976777 0.190155402 0.294387043 0.143087640 0.140177846 0.625901997 0.335864961 0.753286898 0.730632722 0.260564417 0.329519242 0.123165406 0.211911395 0.352559507 0.191774026 0.255727023 0.282083392 0.283831865 0.601646721 0.223758578 0.071765684 0.398267090 0.138733760 0.247347653 0.208760425 0.349023283 0.239162341 0.248515949 0.238658622 0.243499875 0.195240468 0.268202573 0.388656348 0.228087634 0.131706774 0.332886487 0.209041521 0.229418769 0.167354047 0.192061633 0.271726847 0.171068802 0.180578113 0.233158365 0.244674578 0.199007764 0.171973094 0.202625662 0.253063083 0.222012445 0.176721364 0.309760273 0.174393803 0.315190464 0.262727082 0.259808838 0.131809458 0.229266837 0.214345559 0.358419806 0.291384667 0.174052089 0.230884373 0.231635273 0.222489491 0.357903540 0.234375134 0.442234606 0.197507650 0.208287656 0.267135203 0.189722940 0.208130822 0.343139619 0.264098287 0.280573815 0.259735346 0.233593389 0.140448704 0.401001185 0.191857129 0.238520995 0.171271071 0.175804555 0.262334406 0.254333377 0.160700396 0.202404469 0.151833951 0.195013478 0.166918188 0.153518975 0.149965376 0.239870802 0.117199495
aji -0.019539777 0.000301784 -0.000458557 -0.020488987 0.001330795 -0.018163217 0.002198879 0.003659430 0.010272789 0.014678264 -0.008719248 0.053756140 0.011362425 0.002253995 0.010452015 0.029575076 -0.009017475 0.041768946 -0.067904688 0.023001282 0.007711484 -0.010214036 0.069540821 0.046762515 0.042373393 -0.027438149 0.003003399 -0.002535713 -0.019692963 0.044184346 -0.045633797 0.066709109 -0.045304045 0.081191078 -0.229531422 0.155749008 -0.146340296 0.442611068 0.288455218 0.105211899 -0.230082557 -0.043878715 0.228477612 -0.106617294 0.028374402 0.121206753 0.100265779 -0.056219433 -0.044896904 -0.128578573 0.144382477 0.056181919 0.113007829 0.086070530 0.001750281 -0.059843495 0.015080361 0.009281058 0.091864638 0.011608921 -0.040622290 -0.066793263 -0.040760808 0.049340069 -0.135583907 -0.049048889 -0.028747182 0.074439302 -0.111701831 -0.066614591 -0.078326903 0.100302167 0.069943815 0.158811182 0.164069310 -0.286110342 -0.092413880 -0.181602910 0.280055106 0.022075700 -0.057922985 0.055427764 0.109959126 0.037893865 -0.052140724 0.034770481 0.002116091 -0.010521579 0.019384848 0.019180745 0.034777332 0.048362911 0.044486403 -0.015029719 -0.037851527 0.043960568 -0.001556681 0.034813657 -0.007397348 0.003346265 -0.019539777 0.000301784 -0.000458557 -0.020488987 0.001330795 -0.018163217 0.002198879 0.003659430 0.010272789 0.014678264 -0.008719248 0.053756140 0.011362425 0.002253995 0.010452015 0.029575076 -0.009017475 0.041768946 -0.067904688 0.023001282 0.007711484 -0.010214036 0.069540821 0.046762515 0.042373393 -0.027438149 0.003003399 -0.002535713 -0.019692963 0.044184346 -0.045633797 0.066709109 -0.045304045 0.081191078 -0.229531422 0.155749008 -0.146340296 0.442611068 0.288455218 0.105211899 -0.230082557 -0.043878715 0.228477612 -0.106617294 0.028374402 0.121206753 0.100265779 -0.056219433 -0.044896904 -0.128578573 0.144382477 0.056181919 0.113007829 0.086070530 0.001750281 -0.059843495 0.015080361 0.009281058 0.091864638 0.011608921 -0.040622290 -0.066793263 -0.040760808 0.049340069 -0.135583907 -0.049048889 -0.028747182 0.074439302 -0.111701831 -0.066614591 -0.078326903 0.100302167 0.069943815 0.158811182 0.164069310 -0.286110342 -0.092413880 -0.181602910 0.280055106 0.022075700 -0.057922985 0.055427764 0.109959126 0.037893865 -0.052140724 0.034770481 0.002116091 -0.010521579 0.019384848 0.019180745 0.034777332 0.048362911 0.044486403 -0.015029719 -0.037851527 0.043960568 -0.001556681 0.034813657 -0.007397348 0.003346265
akc 0.184132129 0.039927024 0.259098887 0.385920733 0.159623712 0.058625467 0.185420498 0.176065505 0.368345380 0.074151330 0.891763747 0.281653404 0.251667827 0.730632722 0.227798268 0.730069876 0.051943459 0.342217475 0.319953859 0.223558351 0.188294768 0.282103688 0.162476376 0.422916174 0.361136228 0.098881058 0.401125312 0.246395171 0.312569797 0.358037353 0.188791379 0.437399447 0.224208161 0.257766277 0.302093834 0.255524307 0.175081819 0.127874896 0.212801576 0.252278060 0.050702676 0.103612050 0.352894545 0.148664355 0.116231747 0.098784089 0.145801544 0.128502443 0.149061844 0.175674781 0.158350319 0.145605654 0.058714993 0.060130704 0.135265499 0.083219774 0.065237112 0.134124905 0.070844889 0.148776099 0.261361659 0.181333587 0.206426948 0.039124798 0.145656869 0.145030424 0.199553713 0.115834787 0.173074901 0.101492137 0.093017317 0.116262674 0.063588068 0.132301003 0.121097624 0.116450727 0.066472605 0.071747653 0.125139534 0.124551691 0.078852959 0.076574922 0.123503782 0.055755816 0.090022065 0.104632445 0.040542446 0.153764293 0.083095394 0.086894847 0.097279467 0.105964109 0.306714386 0.217647150 0.054012533 0.154556766 0.048118677 0.079342432 0.149310276 0.236831799 0.184132129 0.039927024 0.259098887 0.385920733 0.159623712 0.058625467 0.185420498 0.176065505 0.368345380 0.074151330 0.891763747 0.281653404 0.251667827 0.730632722 0.227798268 0.730069876 0.051943459 0.342217475 0.319953859 0.223558351 0.188294768 0.282103688 0.162476376 0.422916174 0.361136228 0.098881058 0.401125312 0.246395171 0.312569797 0.358037353 0.188791379 0.437399447 0.224208161 0.257766277 0.302093834 0.255524307 0.175081819 0.127874896 0.212801576 0.252278060 0.050702676 0.103612050 0.352894545 0.148664355 0.116231747 0.098784089 0.145801544 0.128502443 0.149061844 0.175674781 0.158350319 0.145605654 0.058714993 0.060130704 0.135265499 0.083219774 0.065237112 0.134124905 0.070844889 0.148776099 0.261361659 0.181333587 0.206426948 0.039124798 0.145656869 0.145030424 0.199553713 0.115834787 0.173074901 0.101492137 0.093017317 0.116262674 0.063588068 0.132301003 0.121097624 0.116450727 0.066472605 0.071747653 0.125139534 0.124551691 0.078852959 0.076574922 0.123503782 0.055755816 0.090022065 0.104632445 0.040542446 0.153764293 0.083095394 0.086894847 0.097279467 0.105964109 0.306714386 0.217647150 0.054012533 0.154556766 0.048118677 0.079342432 0.149310276 0.236831799
akl -0.003161264 -0.013623082 -0.004360259 0.078229539 -0.066408642 -0.057757333 -0.066383906 0.071522795 -0.209723130 -0.040388174 0.001297596 -0.057704590 0.013578813 0.046872921 -0.097630769 0.003046892 -0.024127929 0.032795772 0.071797512 0.174656823 -0.119775824 -0.012651178 0.033475831 -0.041183688 0.054892134 0.056981493 0.115869284 -0.019002981 -0.053287383 -0.068019368 -0.102304399 0.052959427 -0.003781341 -0.071991026 -0.032019511 0.107256643 -0.010673006 -0.023139829 0.055877611 -0.079741560 0.023361024 -0.061531425 -0.079642095 -0.084640428 -0.025010366 -0.022581359 0.012107691 -0.072386466 0.026500508 -0.099345118 -0.066313714 -0.086688623 0.016820289 -0.016249711 -0.002636111 -0.013037570 -0.074157432 0.256492823 0.028121527 0.007001712 0.003678750 0.083682515 0.037024219 -0.094953455 0.044447653 -0.212618485 -0.101580299 0.035470076 -0.176973835 -0.061322559 0.042678814 0.088126078 -0.125121474 0.001471810 -0.032428101 0.095861495 0.108158953 -0.099420384 0.034708273 -0.117152855 -0.036933526 -0.059640288 -0.081839211 -0.029571548 0.169373676 0.080889836 -0.205118865 -0.050676119 -0.103251956 -0.247103140 -0.016350370 -0.296033382 0.125599846 0.174313739 -0.305747360 0.171746910 -0.220999241 0.084895991 -0.059809402 0.092498668 -0.003161264 -0.013623082 -0.004360259 0.078229539 -0.066408642 -0.057757333 -0.066383906 0.071522795 -0.209723130 -0.040388174 0.001297596 -0.057704590 0.013578813 0.046872921 -0.097630769 0.003046892 -0.024127929 0.032795772 0.071797512 0.174656823 -0.119775824 -0.012651178 0.033475831 -0.041183688 0.054892134 0.056981493 0.115869284 -0.019002981 -0.053287383 -0.068019368 -0.102304399 0.052959427 -0.003781341 -0.071991026 -0.032019511 0.107256643 -0.010673006 -0.023139829 0.055877611 -0.079741560 0.023361024 -0.061531425 -0.079642095 -0.084640428 -0.025010366 -0.022581359 0.012107691 -0.072386466 0.026500508 -0.099345118 -0.066313714 -0.086688623 0.016820289 -0.016249711 -0.002636111 -0.013037570 -0.074157432 0.256492823 0.028121527 0.007001712 0.003678750 0.083682515 0.037024219 -0.094953455 0.044447653 -0.212618485 -0.101580299 0.035470076 -0.176973835 -0.061322559 0.042678814 0.088126078 -0.125121474 0.001471810 -0.032428101 0.095861495 0.108158953 -0.099420384 0.034708273 -0.117152855 -0.036933526 -0.059640288 -0.081839211 -0.029571548 0.169373676 0.080889836 -0.205118865 -0.050676119 -0.103251956 -0.247103140 -0.016350370 -0.296033382 0.125599846 0.174313739 -0.305747360 0.171746910 -0.220999241 0.084895991 -0.059809402 0.092498668
akv 0.575204134 0.151810363 0.949631512 0.577871501 0.329992682 0.209779024 0.205890596 0.506756842 0.366153568 0.460891962 0.891763747 0.350139529 0.826419175 0.626901448 0.351775438 0.813761294 0.361036181 0.229823619 0.352559507 0.510186613 0.451674998 0.390454799 0.283831865 0.607677400 0.201167077 0.115991004 0.407468110 0.393570244 0.427230448 0.358037353 0.377591610 0.453198820 0.348907351 0.363430381 0.302093834 0.351396412 0.414480388 0.424154341 0.361458421 0.314919293 0.317624778 0.451484144 0.374072164 0.296631396 0.275290579 0.264500439 0.338394612 0.262696981 0.356023937 0.326013803 0.240763694 0.458472669 0.191188738 0.500320733 0.283278733 0.403089553 0.243312955 0.286437720 0.290090293 0.222663730 0.368433326 0.276498735 0.386731565 0.303968310 0.324461401 0.472689986 0.260897070 0.256511718 0.290921479 0.243890017 0.484230191 0.307192266 0.313331217 0.255381852 0.268972635 0.230071306 0.372071952 0.271017283 0.372788191 0.481641799 0.291602612 0.259735346 0.341791809 0.243345320 0.341474444 0.322570235 0.294542313 0.199900180 0.257949382 0.243887499 0.241796568 0.204240352 0.306714386 0.217647150 0.253760368 0.362627327 0.266708255 0.196926147 0.257889718 0.292492092 0.575204134 0.151810363 0.949631512 0.577871501 0.329992682 0.209779024 0.205890596 0.506756842 0.366153568 0.460891962 0.891763747 0.350139529 0.826419175 0.626901448 0.351775438 0.813761294 0.361036181 0.229823619 0.352559507 0.510186613 0.451674998 0.390454799 0.283831865 0.607677400 0.201167077 0.115991004 0.407468110 0.393570244 0.427230448 0.358037353 0.377591610 0.453198820 0.348907351 0.363430381 0.302093834 0.351396412 0.414480388 0.424154341 0.361458421 0.314919293 0.317624778 0.451484144 0.374072164 0.296631396 0.275290579 0.264500439 0.338394612 0.262696981 0.356023937 0.326013803 0.240763694 0.458472669 0.191188738 0.500320733 0.283278733 0.403089553 0.243312955 0.286437720 0.290090293 0.222663730 0.368433326 0.276498735 0.386731565 0.303968310 0.324461401 0.472689986 0.260897070 0.256511718 0.290921479 0.243890017 0.484230191 0.307192266 0.313331217 0.255381852 0.268972635 0.230071306 0.372071952 0.271017283 0.372788191 0.481641799 0.291602612 0.259735346 0.341791809 0.243345320 0.341474444 0.322570235 0.294542313 0.199900180 0.257949382 0.243887499 0.241796568 0.204240352 0.306714386 0.217647150 0.253760368 0.362627327 0.266708255 0.196926147 0.257889718 0.292492092
