519 200
aar 0.615582287 0.767156661 0.747096777 0.707792819 0.660200298 0.700007081 0.582293510 0.615637839 0.603049755 0.883125126 0.608849585 0.575664699 0.642513633 0.684410214 0.609717488 0.629551828 0.830029070 0.649325371 0.622451246 0.660520554 0.595022500 0.632801473 0.647974372 0.633729875 0.652001262 0.695659876 0.672005415 0.804416418 0.660844505 0.567095995 0.602334917 0.628097117 0.753695726 0.647272468 0.604554951 0.666495323 0.539277911 0.641956568 0.532957137 0.641391993 0.621368706 0.600861073 0.665712416 0.642084002 0.656202972 0.676692486 0.682132602 0.644742250 0.643942833 0.691765487 0.783365667 0.717535079 0.653144777 0.694432378 0.647118866 0.708041131 0.601452351 0.708892584 0.812768519 0.814834177 0.973933876 0.610755563 0.673822880 0.645333886 0.616877556 0.680127323 0.629213989 0.612536609 0.689943910 0.838983893 0.655932367 0.815650105 0.637900710 0.647607923 0.701016009 0.640155911 0.822116911 0.588365853 0.774210513 0.693556726 0.613801718 0.720836520 0.688179910 0.641165137 0.680366397 0.611317933 0.801856220 0.660770357 0.638243556 0.615022659 0.723001778 0.634782195 0.668500245 0.642970204 0.592329085 0.621354818 0.658762217 0.706106365 0.634590089 0.548216403 0.615582287 0.767156661 0.747096777 0.707792819 0.660200298 0.700007081 0.582293510 0.615637839 0.603049755 0.883125126 0.608849585 0.575664699 0.642513633 0.684410214 0.609717488 0.629551828 0.830029070 0.649325371 0.622451246 0.660520554 0.595022500 0.632801473 0.647974372 0.633729875 0.652001262 0.695659876 0.672005415 0.804416418 0.660844505 0.567095995 0.602334917 0.628097117 0.753695726 0.647272468 0.604554951 0.666495323 0.539277911 0.641956568 0.532957137 0.641391993 0.621368706 0.600861073 0.665712416 0.642084002 0.656202972 0.676692486 0.682132602 0.644742250 0.643942833 0.691765487 0.783365667 0.717535079 0.653144777 0.694432378 0.647118866 0.708041131 0.601452351 0.708892584 0.812768519 0.814834177 0.973933876 0.610755563 0.673822880 0.645333886 0.616877556 0.680127323 0.629213989 0.612536609 0.689943910 0.838983893 0.655932367 0.815650105 0.637900710 0.647607923 0.701016009 0.640155911 0.822116911 0.588365853 0.774210513 0.693556726 0.613801718 0.720836520 0.688179910 0.641165137 0.680366397 0.611317933 0.801856220 0.660770357 0.638243556 0.615022659 0.723001778 0.634782195 0.668500245 0.642970204 0.592329085 0.621354818 0.658762217 0.706106365 0.634590089 0.548216403
abe 0.615582287 0.767156661 0.747096777 0.707792819 0.660200298 0.700007081 0.582293510 0.615637839 0.603049755 0.883125126 0.608849585 0.575664699 0.642513633 0.684410214 0.609717488 0.629551828 0.830029070 0.649325371 0.622451246 0.660520554 0.595022500 0.632801473 0.647974372 0.633729875 0.652001262 0.695659876 0.672005415 0.804416418 0.660844505 0.567095995 0.602334917 0.628097117 0.753695726 0.647272468 0.604554951 0.666495323 0.539277911 0.641956568 0.532957137 0.641391993 0.621368706 0.600861073 0.665712416 0.642084002 0.656202972 0.676692486 0.682132602 0.644742250 0.643942833 0.691765487 0.783365667 0.717535079 0.653144777 0.694432378 0.647118866 0.708041131 0.601452351 0.708892584 0.812768519 0.814834177 0.973933876 0.610755563 0.673822880 0.645333886 0.616877556 0.680127323 0.629213989 0.612536609 0.689943910 0.838983893 0.655932367 0.815650105 0.637900710 0.647607923 0.701016009 0.640155911 0.822116911 0.588365853 0.774210513 0.693556726 0.613801718 0.720836520 0.688179910 0.641165137 0.680366397 0.611317933 0.801856220 0.660770357 0.638243556 0.615022659 0.723001778 0.634782195 0.668500245 0.642970204 0.592329085 0.621354818 0.658762217 0.706106365 0.634590089 0.548216403 0.615582287 0.767156661 0.747096777 0.707792819 0.660200298 0.700007081 0.582293510 0.615637839 0.603049755 0.883125126 0.608849585 0.575664699 0.642513633 0.684410214 0.609717488 0.629551828 0.830029070 0.649325371 0.622451246 0.660520554 0.595022500 0.632801473 0.647974372 0.633729875 0.652001262 0.695659876 0.672005415 0.804416418 0.660844505 0.567095995 0.602334917 0.628097117 0.753695726 0.647272468 0.604554951 0.666495323 0.539277911 0.641956568 0.532957137 0.641391993 0.621368706 0.600861073 0.665712416 0.642084002 0.656202972 0.676692486 0.682132602 0.644742250 0.643942833 0.691765487 0.783365667 0.717535079 0.653144777 0.694432378 0.647118866 0.708041131 0.601452351 0.708892584 0.812768519 0.814834177 0.973933876 0.610755563 0.673822880 0.645333886 0.616877556 0.680127323 0.629213989 0.612536609 0.689943910 0.838983893 0.655932367 0.815650105 0.637900710 0.647607923 0.701016009 0.640155911 0.822116911 0.588365853 0.774210513 0.693556726 0.613801718 0.720836520 0.688179910 0.641165137 0.680366397 0.611317933 0.801856220 0.660770357 0.638243556 0.615022659 0.723001778 0.634782195 0.668500245 0.642970204 0.592329085 0.621354818 0.658762217 0.706106365 0.634590089 0.548216403
abk 0.615582287 0.767156661 0.747096777 0.707792819 0.686521769 0.700007081 0.582293510 0.707503617 0.603049755 0.883125126 0.667982399 0.575664699 0.662525058 0.684410214 0.609717488 0.629551828 0.830029070 0.649325371 0.622451246 0.660520554 0.857704520 0.632801473 0.647974372 0.633729875 0.652001262 0.695659876 0.672005415 0.804416418 0.660844505 0.597861767 0.682140708 0.628097117 0.753695726 0.647272468 0.604554951 0.701560140 0.662086010 0.869937539 0.602682471 0.641391993 0.621368706 0.600861073 0.665712416 0.642084002 0.656202972 0.676692486 0.682132602 0.644742250 0.643942833 0.691765487 0.783365667 0.717535079 0.653144777 0.694432378 0.647118866 0.708041131 0.601452351 0.708892584 0.812768519 0.814834177 0.973933876 0.610755563 0.728866220 0.645333886 0.616877556 0.680127323 0.629213989 0.730978251 0.689943910 0.838983893 1.184366107 0.815650105 0.637900710 0.647607923 0.701016009 0.640155911 0.822116911 0.588365853 0.774210513 1.166904807 0.621438980 0.720836520 0.952149391 0.641165137 0.680366397 0.631991506 0.801856220 0.660770357 0.638243556 0.615022659 0.723001778 0.767499685 0.917706907 0.642970204 0.609303832 0.621354818 0.658762217 0.706106365 0.634590089 0.548216403 0.615582287 0.767156661 0.747096777 0.707792819 0.686521769 0.700007081 0.582293510 0.707503617 0.603049755 0.883125126 0.667982399 0.575664699 0.662525058 0.684410214 0.609717488 0.629551828 0.830029070 0.649325371 0.622451246 0.660520554 0.857704520 0.632801473 0.647974372 0.633729875 0.652001262 0.695659876 0.672005415 0.804416418 0.660844505 0.597861767 0.682140708 0.628097117 0.753695726 0.647272468 0.604554951 0.701560140 0.662086010 0.869937539 0.602682471 0.641391993 0.621368706 0.600861073 0.665712416 0.642084002 0.656202972 0.676692486 0.682132602 0.644742250 0.643942833 0.691765487 0.783365667 0.717535079 0.653144777 0.694432378 0.647118866 0.708041131 0.601452351 0.708892584 0.812768519 0.814834177 0.973933876 0.610755563 0.728866220 0.645333886 0.616877556 0.680127323 0.629213989 0.730978251 0.689943910 0.838983893 1.184366107 0.815650105 0.637900710 0.647607923 0.701016009 0.640155911 0.822116911 0.588365853 0.774210513 1.166904807 0.621438980 0.720836520 0.952149391 0.641165137 0.680366397 0.631991506 0.801856220 0.660770357 0.638243556 0.615022659 0.723001778 0.767499685 0.917706907 0.642970204 0.609303832 0.621354818 0.658762217 0.706106365 0.634590089 0.548216403
abq 0.615582287 0.767156661 0.747096777 0.707792819 0.660200298 0.700007081 0.582293510 0.615637839 0.603049755 0.883125126 0.608849585 0.575664699 0.642513633 0.684410214 0.609717488 0.629551828 0.830029070 0.649325371 0.622451246 0.660520554 0.595022500 0.632801473 0.647974372 0.633729875 0.652001262 0.695659876 0.672005415 0.804416418 0.660844505 0.567095995 0.602334917 0.628097117 0.753695726 0.647272468 0.604554951 0.666495323 0.539277911 0.641956568 0.532957137 0.641391993 0.621368706 0.600861073 0.665712416 0.642084002 0.656202972 0.676692486 0.682132602 0.644742250 0.643942833 0.691765487 0.783365667 0.717535079 0.653144777 0.694432378 0.647118866 0.708041131 0.601452351 0.708892584 0.812768519 0.814834177 0.973933876 0.610755563 0.673822880 0.645333886 0.616877556 0.680127323 0.629213989 0.612536609 0.689943910 0.838983893 0.655932367 0.815650105 0.637900710 0.647607923 0.701016009 0.640155911 0.822116911 0.588365853 0.774210513 0.693556726 0.613801718 0.720836520 0.688179910 0.641165137 0.680366397 0.611317933 0.801856220 0.660770357 0.638243556 0.615022659 0.723001778 0.634782195 0.668500245 0.642970204 0.592329085 0.621354818 0.658762217 0.706106365 0.634590089 0.548216403 0.615582287 0.767156661 0.747096777 0.707792819 0.660200298 0.700007081 0.582293510 0.615637839 0.603049755 0.883125126 0.608849585 0.575664699 0.642513633 0.684410214 0.609717488 0.629551828 0.830029070 0.649325371 0.622451246 0.660520554 0.595022500 0.632801473 0.647974372 0.633729875 0.652001262 0.695659876 0.672005415 0.804416418 0.660844505 0.567095995 0.602334917 0.628097117 0.753695726 0.647272468 0.604554951 0.666495323 0.539277911 0.641956568 0.532957137 0.641391993 0.621368706 0.600861073 0.665712416 0.642084002 0.656202972 0.676692486 0.682132602 0.644742250 0.643942833 0.691765487 0.783365667 0.717535079 0.653144777 0.694432378 0.647118866 0.708041131 0.601452351 0.708892584 0.812768519 0.814834177 0.973933876 0.610755563 0.673822880 0.645333886 0.616877556 0.680127323 0.629213989 0.612536609 0.689943910 0.838983893 0.655932367 0.815650105 0.637900710 0.647607923 0.701016009 0.640155911 0.822116911 0.588365853 0.774210513 0.693556726 0.613801718 0.720836520 0.688179910 0.641165137 0.680366397 0.611317933 0.801856220 0.660770357 0.638243556 0.615022659 0.723001778 0.634782195 0.668500245 0.642970204 0.592329085 0.621354818 0.658762217 0.706106365 0.634590089 0.548216403
ace 0.615582287 0.767156661 0.747096777 0.707792819 0.660200298 0.700007081 0.582293510 0.615637839 0.603049755 0.883125126 0.608849585 0.575664699 0.642513633 0.684410214 0.609717488 0.629551828 0.830029070 0.649325371 0.622451246 0.660520554 0.595022500 0.632801473 0.647974372 0.633729875 0.652001262 0.704103112 0.672005415 0.804416418 0.660844505 0.567095995 0.602334917 0.628097117 0.753695726 0.647272468 0.605237603 0.666495323 0.651769757 0.641956568 0.590267777 0.641391993 0.621368706 0.600861073 0.665712416 0.642084002 0.656202972 0.676692486 0.682132602 0.644742250 0.643942833 0.691765487 0.783365667 0.717535079 0.653144777 0.694432378 0.647118866 0.708041131 0.601452351 0.708892584 0.812768519 0.814834177 0.973933876 0.610755563 0.673822880 0.645333886 0.616877556 0.680127323 0.629213989 0.612536609 0.689943910 0.838983893 0.655932367 0.815650105 0.637900710 0.647607923 0.701016009 0.640155911 0.822116911 0.790504396 0.774210513 0.693556726 0.613801718 0.720836520 0.688179910 0.641165137 0.680366397 0.667000592 0.801856220 0.660770357 0.638243556 0.615022659 0.813319147 0.634782195 0.668500245 0.642970204 0.689109623 0.621354818 0.658762217 0.706106365 0.634590089 0.647645772 0.615582287 0.767156661 0.747096777 0.707792819 0.660200298 0.700007081 0.582293510 0.615637839 0.603049755 0.883125126 0.608849585 0.575664699 0.642513633 0.684410214 0.609717488 0.629551828 0.830029070 0.649325371 0.622451246 0.660520554 0.595022500 0.632801473 0.647974372 0.633729875 0.652001262 0.704103112 0.672005415 0.804416418 0.660844505 0.567095995 0.602334917 0.628097117 0.753695726 0.647272468 0.605237603 0.666495323 0.651769757 0.641956568 0.590267777 0.641391993 0.621368706 0.600861073 0.665712416 0.642084002 0.656202972 0.676692486 0.682132602 0.644742250 0.643942833 0.691765487 0.783365667 0.717535079 0.653144777 0.694432378 0.647118866 0.708041131 0.601452351 0.708892584 0.812768519 0.814834177 0.973933876 0.610755563 0.673822880 0.645333886 0.616877556 0.680127323 0.629213989 0.612536609 0.689943910 0.838983893 0.655932367 0.815650105 0.637900710 0.647607923 0.701016009 0.640155911 0.822116911 0.790504396 0.774210513 0.693556726 0.613801718 0.720836520 0.688179910 0.641165137 0.680366397 0.667000592 0.801856220 0.660770357 0.638243556 0.615022659 0.813319147 0.634782195 0.668500245 0.642970204 0.689109623 0.621354818 0.658762217 0.706106365 0.634590089 0.647645772
acw 0.615582287 0.767156661 0.747096777 0.707792819 0.660200298 0.700007081 0.582293510 0.615637839 0.603049755 0.883125126 0.608849585 0.575664699 0.642513633 0.684410214 0.609717488 0.629551828 0.830029070 0.649325371 0.622451246 0.660520554 0.595022500 0.632801473 0.647974372 0.633729875 0.652001262 0.695659876 0.672005415 0.804416418 0.660844505 0.567095995 0.602334917 0.628097117 0.753695726 0.647272468 0.604554951 0.666495323 0.539277911 0.641956568 0.532957137 0.674383759 0.621368706 0.600861073 0.665712416 0.642084002 0.656202972 0.676692486 0.682132602 0.644742250 0.643942833 0.691765487 0.783365667 0.717535079 0.653144777 0.694432378 0.647118866 0.708041131 0.826557279 0.708892584 0.812768519 0.814834177 0.973933876 0.610755563 0.673822880 0.746437132 0.616877556 0.680127323 0.629213989 0.738912106 0.689943910 0.838983893 0.655932367 0.815650105 0.637900710 0.647607923 0.701016009 0.640155911 0.822116911 0.588365853 0.774210513 0.693556726 0.613801718 0.720836520 0.688179910 0.641165137 0.680366397 0.611317933 0.801856220 0.686446965 0.638243556 0.615022659 0.723001778 0.634782195 0.668500245 0.642970204 0.631890297 0.621354818 0.658762217 0.706106365 0.634590089 0.559129775 0.615582287 0.767156661 0.747096777 0.707792819 0.660200298 0.700007081 0.582293510 0.615637839 0.603049755 0.883125126 0.608849585 0.575664699 0.642513633 0.684410214 0.609717488 0.629551828 0.830029070 0.649325371 0.622451246 0.660520554 0.595022500 0.632801473 0.647974372 0.633729875 0.652001262 0.695659876 0.672005415 0.804416418 0.660844505 0.567095995 0.602334917 0.628097117 0.753695726 0.647272468 0.604554951 0.666495323 0.539277911 0.641956568 0.532957137 0.674383759 0.621368706 0.600861073 0.665712416 0.642084002 0.656202972 0.676692486 0.682132602 0.644742250 0.643942833 0.691765487 0.783365667 0.717535079 0.653144777 0.694432378 0.647118866 0.708041131 0.826557279 0.708892584 0.812768519 0.814834177 0.973933876 0.610755563 0.673822880 0.746437132 0.616877556 0.680127323 0.629213989 0.738912106 0.689943910 0.838983893 0.655932367 0.815650105 0.637900710 0.647607923 0.701016009 0.640155911 0.822116911 0.588365853 0.774210513 0.693556726 0.613801718 0.720836520 0.688179910 0.641165137 0.680366397 0.611317933 0.801856220 0.686446965 0.638243556 0.615022659 0.723001778 0.634782195 0.668500245 0.642970204 0.631890297 0.621354818 0.658762217 0.706106365 0.634590089 0.559129775
ady 0.615582287 0.767156661 0.747096777 0.707792819 0.660200298 0.700007081 0.582293510 0.615637839 0.603049755 0.883125126 0.608849585 0.575664699 0.642513633 0.684410214 0.609717488 0.629551828 0.830029070 0.649325371 0.622451246 0.660520554 0.595022500 0.632801473 0.647974372 0.633729875 0.652001262 0.695659876 0.672005415 0.804416418 0.660844505 0.567095995 0.602334917 0.628097117 0.753695726 0.676863492 0.604554951 0.666495323 0.539277911 0.641956568 0.532957137 0.641391993 0.621368706 0.600861073 0.665712416 0.642084002 0.656202972 0.676692486 0.682132602 0.644742250 0.643942833 0.691765487 0.783365667 0.717535079 0.653144777 0.694432378 0.647118866 0.708041131 0.601452351 0.708892584 0.812768519 0.814834177 0.973933876 0.610755563 0.673822880 0.645333886 0.616877556 0.680127323 0.629213989 0.612536609 0.689943910 0.838983893 0.682032943 0.815650105 0.637900710 0.647607923 0.701016009 0.640155911 0.822116911 0.588365853 0.774210513 0.693556726 0.613801718 0.720836520 0.688179910 0.641165137 0.680366397 0.611317933 0.801856220 0.660770357 0.638243556 0.615022659 0.723001778 0.634782195 0.668500245 0.642970204 0.592329085 0.621354818 0.658762217 0.706106365 0.634590089 0.548216403 0.615582287 0.767156661 0.747096777 0.707792819 0.660200298 0.700007081 0.582293510 0.615637839 0.603049755 0.883125126 0.608849585 0.575664699 0.642513633 0.684410214 0.609717488 0.629551828 0.830029070 0.649325371 0.622451246 0.660520554 0.595022500 0.632801473 0.647974372 0.633729875 0.652001262 0.695659876 0.672005415 0.804416418 0.660844505 0.567095995 0.602334917 0.628097117 0.753695726 0.676863492 0.604554951 0.666495323 0.539277911 0.641956568 0.532957137 0.641391993 0.621368706 0.600861073 0.665712416 0.642084002 0.656202972 0.676692486 0.682132602 0.644742250 0.643942833 0.691765487 0.783365667 0.717535079 0.653144777 0.694432378 0.647118866 0.708041131 0.601452351 0.708892584 0.812768519 0.814834177 0.973933876 0.610755563 0.673822880 0.645333886 0.616877556 0.680127323 0.629213989 0.612536609 0.689943910 0.838983893 0.682032943 0.815650105 0.637900710 0.647607923 0.701016009 0.640155911 0.822116911 0.588365853 0.774210513 0.693556726 0.613801718 0.720836520 0.688179910 0.641165137 0.680366397 0.611317933 0.801856220 0.660770357 0.638243556 0.615022659 0.723001778 0.634782195 0.668500245 0.642970204 0.592329085 0.621354818 0.658762217 0.706106365 0.634590089 0.548216403
aeb 0.615582287 0.767156661 0.747096777 0.707792819 0.660200298 0.700007081 0.582293510 0.615637839 0.603049755 0.883125126 0.608849585 0.575664699 0.642513633 0.684410214 0.609717488 0.629551828 0.830029070 0.649325371 0.622451246 0.660520554 0.595022500 0.632801473 0.647974372 0.633729875 0.652001262 0.695659876 0.672005415 0.804416418 0.660844505 0.567095995 0.602334917 0.628097117 0.753695726 0.647272468 0.604554951 0.666495323 0.539277911 0.641956568 0.532957137 0.641391993 0.621368706 0.600861073 0.665712416 0.642084002 0.656202972 0.676692486 0.682132602 0.644742250 0.643942833 0.691765487 0.783365667 0.717535079 0.653144777 0.694432378 0.647118866 0.708041131 0.601452351 0.708892584 0.812768519 0.814834177 0.973933876 0.610755563 0.673822880 0.645333886 0.616877556 0.680127323 0.629213989 0.612536609 0.689943910 0.838983893 0.655932367 0.815650105 0.637900710 0.647607923 0.701016009 0.640155911 0.822116911 0.588365853 0.774210513 0.693556726 0.613801718 0.720836520 0.688179910 0.641165137 0.680366397 0.611317933 0.801856220 0.660770357 0.638243556 0.615022659 0.723001778 0.634782195 0.668500245 0.642970204 0.592329085 0.621354818 0.658762217 0.706106365 0.634590089 0.548216403 0.615582287 0.767156661 0.747096777 0.707792819 0.660200298 0.700007081 0.582293510 0.615637839 0.603049755 0.883125126 0.608849585 0.575664699 0.642513633 0.684410214 0.609717488 0.629551828 0.830029070 0.649325371 0.622451246 0.660520554 0.595022500 0.632801473 0.647974372 0.633729875 0.652001262 0.695659876 0.672005415 0.804416418 0.660844505 0.567095995 0.602334917 0.628097117 0.753695726 0.647272468 0.604554951 0.666495323 0.539277911 0.641956568 0.532957137 0.641391993 0.621368706 0.600861073 0.665712416 0.642084002 0.656202972 0.676692486 0.682132602 0.644742250 0.643942833 0.691765487 0.783365667 0.717535079 0.653144777 0.694432378 0.647118866 0.708041131 0.601452351 0.708892584 0.812768519 0.814834177 0.973933876 0.610755563 0.673822880 0.645333886 0.616877556 0.680127323 0.629213989 0.612536609 0.689943910 0.838983893 0.655932367 0.815650105 0.637900710 0.647607923 0.701016009 0.640155911 0.822116911 0.588365853 0.774210513 0.693556726 0.613801718 0.720836520 0.688179910 0.641165137 0.680366397 0.611317933 0.801856220 0.660770357 0.638243556 0.615022659 0.723001778 0.634782195 0.668500245 0.642970204 0.592329085 0.621354818 0.658762217 0.706106365 0.634590089 0.548216403
afb 0.615582287 0.767156661 0.747096777 0.707792819 0.660200298 0.700007081 0.582293510 0.615637839 0.603049755 0.883125126 0.608849585 0.575664699 0.642513633 0.684410214 0.609717488 0.629551828 0.830029070 0.649325371 0.622451246 0.660520554 0.595022500 0.632801473 0.647974372 0.633729875 0.652001262 0.695659876 0.672005415 0.804416418 0.660844505 0.567095995 0.602334917 0.628097117 0.753695726 0.647272468 0.604554951 0.666495323 0.539277911 0.641956568 0.532957137 0.641391993 0.621368706 0.600861073 0.665712416 0.642084002 0.656202972 0.676692486 0.682132602 0.644742250 0.643942833 0.691765487 0.783365667 0.717535079 0.653144777 0.694432378 0.647118866 0.708041131 0.601452351 0.708892584 0.812768519 0.814834177 0.973933876 0.610755563 0.673822880 0.645333886 0.616877556 0.680127323 0.629213989 0.612536609 0.689943910 0.838983893 0.655932367 0.815650105 0.637900710 0.647607923 0.701016009 0.640155911 0.822116911 0.588365853 0.774210513 0.693556726 0.613801718 0.720836520 0.688179910 0.641165137 0.680366397 0.611317933 0.801856220 0.660770357 0.638243556 0.615022659 0.723001778 0.634782195 0.668500245 0.642970204 0.592329085 0.621354818 0.658762217 0.706106365 0.634590089 0.548216403 0.615582287 0.767156661 0.747096777 0.707792819 0.660200298 0.700007081 0.582293510 0.615637839 0.603049755 0.883125126 0.608849585 0.575664699 0.642513633 0.684410214 0.609717488 0.629551828 0.830029070 0.649325371 0.622451246 0.660520554 0.595022500 0.632801473 0.647974372 0.633729875 0.652001262 0.695659876 0.672005415 0.804416418 0.660844505 0.567095995 0.602334917 0.628097117 0.753695726 0.647272468 0.604554951 0.666495323 0.539277911 0.641956568 0.532957137 0.641391993 0.621368706 0.600861073 0.665712416 0.642084002 0.656202972 0.676692486 0.682132602 0.644742250 0.643942833 0.691765487 0.783365667 0.717535079 0.653144777 0.694432378 0.647118866 0.708041131 0.601452351 0.708892584 0.812768519 0.814834177 0.973933876 0.610755563 0.673822880 0.645333886 0.616877556 0.680127323 0.629213989 0.612536609 0.689943910 0.838983893 0.655932367 0.815650105 0.637900710 0.647607923 0.701016009 0.640155911 0.822116911 0.588365853 0.774210513 0.693556726 0.613801718 0.720836520 0.688179910 0.641165137 0.680366397 0.611317933 0.801856220 0.660770357 0.638243556 0.615022659 0.723001778 0.634782195 0.668500245 0.642970204 0.592329085 0.621354818 0.658762217 0.706106365 0.634590089 0.548216403
afr 0.982891083 1.115710378 1.015876889 0.981688499 1.099254608 0.981968820 0.998387575 0.953037083 1.091396332 1.077157140 1.035493851 1.113784432 1.023226142 1.012611866 1.240823746 0.992373526 0.955742180 1.101414561 0.987516701 1.081312299 1.016910076 1.003876090 1.195883036 1.010500550 0.923535764 1.701005936 1.136584044 0.964836657 1.223479152 1.118965864 1.045583725 0.989585698 1.398784518 1.099436522 1.071280837 1.133063674 1.339235544 1.032633543 1.037674665 0.976020157 0.995742261 0.928558409 1.041832209 1.258680820 0.947135925 1.210059047 0.987641513 1.166476488 0.979533434 1.031720400 1.083283782 1.017133117 0.990922928 0.943053603 0.991042256 0.989089668 1.045277834 1.007502913 0.935689628 1.131689191 1.021049976 0.938576996 0.896081090 0.977504551 0.953444541 0.908951700 1.024178505 0.984318912 1.242856979 0.968184054 1.184366107 1.199954867 1.044357538 1.107596159 0.967606008 1.167499781 1.151542902 1.120785117 0.900925815 1.417828321 1.222807527 1.173544288 1.169386983 1.097066760 1.042236090 1.041483283 0.975669801 0.966190994 0.982574105 0.986259758 1.094481230 1.024041533 0.990926027 1.226549268 0.967374802 0.944163084 1.028099537 1.114905000 0.983103216 0.873334825 0.982891083 1.115710378 1.015876889 0.981688499 1.099254608 0.981968820 0.998387575 0.953037083 1.091396332 1.077157140 1.035493851 1.113784432 1.023226142 1.012611866 1.240823746 0.992373526 0.955742180 1.101414561 0.987516701 1.081312299 1.016910076 1.003876090 1.195883036 1.010500550 0.923535764 1.701005936 1.136584044 0.964836657 1.223479152 1.118965864 1.045583725 0.989585698 1.398784518 1.099436522 1.071280837 1.133063674 1.339235544 1.032633543 1.037674665 0.976020157 0.995742261 0.928558409 1.041832209 1.258680820 0.947135925 1.210059047 0.987641513 1.166476488 0.979533434 1.031720400 1.083283782 1.017133117 0.990922928 0.943053603 0.991042256 0.989089668 1.045277834 1.007502913 0.935689628 1.131689191 1.021049976 0.938576996 0.896081090 0.977504551 0.953444541 0.908951700 1.024178505 0.984318912 1.242856979 0.968184054 1.184366107 1.199954867 1.044357538 1.107596159 0.967606008 1.167499781 1.151542902 1.120785117 0.900925815 1.417828321 1.222807527 1.173544288 1.169386983 1.097066760 1.042236090 1.041483283 0.975669801 0.966190994 0.982574105 0.986259758 1.094481230 1.024041533 0.990926027 1.226549268 0.967374802 0.944163084 1.028099537 1.114905000 0.983103216 0.873334825
aho 0.615582287 0.767156661 0.747096777 0.707792819 0.660200298 0.700007081 0.582293510 0.615637839 0.603049755 0.883125126 0.608849585 0.575664699 0.642513633 0.684410214 0.609717488 0.629551828 0.830029070 0.649325371 0.622451246 0.660520554 0.595022500 0.632801473 0.647974372 0.633729875 0.652001262 0.695659876 0.672005415 0.804416418 0.660844505 0.567095995 0.602334917 0.628097117 0.753695726 0.647272468 0.604554951 0.666495323 0.539277911 0.641956568 0.532957137 0.641391993 0.621368706 0.600861073 0.665712416 0.642084002 0.656202972 0.676692486 0.682132602 0.644742250 0.643942833 0.691765487 0.783365667 0.717535079 0.653144777 0.694432378 0.647118866 0.708041131 0.601452351 0.708892584 0.812768519 0.814834177 0.973933876 0.610755563 0.673822880 0.645333886 0.616877556 0.680127323 0.629213989 0.612536609 0.689943910 0.838983893 0.655932367 0.815650105 0.637900710 0.647607923 0.701016009 0.640155911 0.822116911 0.588365853 0.774210513 0.693556726 0.613801718 0.720836520 0.688179910 0.641165137 0.680366397 0.611317933 0.801856220 0.660770357 0.638243556 0.615022659 0.723001778 0.634782195 0.668500245 0.642970204 0.592329085 0.621354818 0.658762217 0.706106365 0.634590089 0.548216403 0.615582287 0.767156661 0.747096777 0.707792819 0.660200298 0.700007081 0.582293510 0.615637839 0.603049755 0.883125126 0.608849585 0.575664699 0.642513633 0.684410214 0.609717488 0.629551828 0.830029070 0.649325371 0.622451246 0.660520554 0.595022500 0.632801473 0.647974372 0.633729875 0.652001262 0.695659876 0.672005415 0.804416418 0.660844505 0.567095995 0.602334917 0.628097117 0.753695726 0.647272468 0.604554951 0.666495323 0.539277911 0.641956568 0.532957137 0.641391993 0.621368706 0.600861073 0.665712416 0.642084002 0.656202972 0.676692486 0.682132602 0.644742250 0.643942833 0.691765487 0.783365667 0.717535079 0.653144777 0.694432378 0.647118866 0.708041131 0.601452351 0.708892584 0.812768519 0.814834177 0.973933876 0.610755563 0.673822880 0.645333886 0.616877556 0.680127323 0.629213989 0.612536609 0.689943910 0.838983893 0.655932367 0.815650105 0.637900710 0.647607923 0.701016009 0.640155911 0.822116911 0.588365853 0.774210513 0.693556726 0.613801718 0.720836520 0.688179910 0.641165137 0.680366397 0.611317933 0.801856220 0.660770357 0.638243556 0.615022659 0.723001778 0.634782195 0.668500245 0.642970204 0.592329085 0.621354818 0.658762217 0.706106365 0.634590089 0.548216403
aii 0.615582287 0.767156661 0.747096777 0.707792819 0.660200298 0.700007081 0.582293510 0.615637839 0.603049755 0.883125126 0.608849585 0.575664699 0.642513633 0.684410214 0.609717488 0.629551828 0.830029070 0.649325371 0.622451246 0.660520554 0.595022500 0.632801473 0.647974372 0.633729875 0.652001262 0.695659876 0.672005415 0.804416418 0.660844505 0.567095995 0.602334917 0.628097117 0.753695726 0.647272468 0.604554951 0.666495323 0.539277911 0.641956568 0.532957137 0.641391993 0.621368706 0.600861073 0.665712416 0.642084002 0.656202972 0.676692486 0.682132602 0.644742250 0.643942833 0.691765487 0.783365667 0.717535079 0.653144777 0.694432378 0.647118866 0.708041131 0.601452351 0.708892584 0.812768519 0.814834177 0.973933876 0.610755563 0.673822880 0.645333886 0.616877556 0.680127323 0.629213989 0.612536609 0.689943910 0.838983893 0.655932367 0.815650105 0.637900710 0.647607923 0.701016009 0.640155911 0.822116911 0.588365853 0.774210513 0.693556726 0.613801718 0.720836520 0.688179910 0.641165137 0.680366397 0.611317933 0.801856220 0.660770357 0.638243556 0.615022659 0.723001778 0.634782195 0.668500245 0.642970204 0.592329085 0.621354818 0.658762217 0.706106365 0.634590089 0.548216403 0.615582287 0.767156661 0.747096777 0.707792819 0.660200298 0.700007081 0.582293510 0.615637839 0.603049755 0.883125126 0.608849585 0.575664699 0.642513633 0.684410214 0.609717488 0.629551828 0.830029070 0.649325371 0.622451246 0.660520554 0.595022500 0.632801473 0.647974372 0.633729875 0.652001262 0.695659876 0.672005415 0.804416418 0.660844505 0.567095995 0.602334917 0.628097117 0.753695726 0.647272468 0.604554951 0.666495323 0.539277911 0.641956568 0.532957137 0.641391993 0.621368706 0.600861073 0.665712416 0.642084002 0.656202972 0.676692486 0.682132602 0.644742250 0.643942833 0.691765487 0.783365667 0.717535079 0.653144777 0.694432378 0.647118866 0.708041131 0.601452351 0.708892584 0.812768519 0.814834177 0.973933876 0.610755563 0.673822880 0.645333886 0.616877556 0.680127323 0.629213989 0.612536609 0.689943910 0.838983893 0.655932367 0.815650105 0.637900710 0.647607923 0.701016009 0.640155911 0.822116911 0.588365853 0.774210513 0.693556726 0.613801718 0.720836520 0.688179910 0.641165137 0.680366397 0.611317933 0.801856220 0.660770357 0.638243556 0.615022659 0.723001778 0.634782195 0.668500245 0.642970204 0.592329085 0.621354818 0.658762217 0.706106365 0.634590089 0.548216403
ain 0.615582287 0.767156661 0.747096777 0.707792819 0.660200298 0.803285062 0.582293510 0.615637839 0.603049755 0.883125126 0.608849585 0.575664699 0.642513633 0.684410214 0.609717488 0.635503769 0.830029070 0.649325371 0.622451246 0.660520554 0.595022500 0.632801473 0.647974372 0.633729875 0.652001262 0.695659876 0.672005415 0.804416418 0.660844505 0.567095995 0.602334917 0.695871055 0.753695726 0.647272468 0.619074345 0.811926782 0.539277911 0.641956568 0.532957137 0.641391993 0.621368706 0.600861073 0.665712416 0.642084002 0.656202972 0.676692486 0.682132602 0.683947742 0.643942833 0.691765487 0.783365667 0.717535079 0.653144777 0.694432378 0.647118866 0.708041131 0.601452351 0.708892584 0.812768519 0.814834177 0.973933876 0.610755563 0.673822880 0.669316530 0.616877556 0.680127323 0.629213989 0.612536609 0.689943910 0.838983893 0.655932367 0.815650105 0.637900710 0.647607923 0.701016009 0.640155911 0.822116911 0.588365853 0.774210513 0.719379425 0.645727456 0.720836520 0.688179910 0.641165137 0.746731460 0.611317933 0.801856220 0.660770357 0.648869097 0.615022659 0.723001778 0.634782195 0.668500245 0.642970204 0.592329085 0.621354818 0.658762217 0.706106365 0.634590089 0.548216403 0.615582287 0.767156661 0.747096777 0.707792819 0.660200298 0.803285062 0.582293510 0.615637839 0.603049755 0.883125126 0.608849585 0.575664699 0.642513633 0.684410214 0.609717488 0.635503769 0.830029070 0.649325371 0.622451246 0.660520554 0.595022500 0.632801473 0.647974372 0.633729875 0.652001262 0.695659876 0.672005415 0.804416418 0.660844505 0.567095995 0.602334917 0.695871055 0.753695726 0.647272468 0.619074345 0.811926782 0.539277911 0.641956568 0.532957137 0.641391993 0.621368706 0.600861073 0.665712416 0.642084002 0.656202972 0.676692486 0.682132602 0.683947742 0.643942833 0.691765487 0.783365667 0.717535079 0.653144777 0.694432378 0.647118866 0.708041131 0.601452351 0.708892584 0.812768519 0.814834177 0.973933876 0.610755563 0.673822880 0.669316530 0.616877556 0.680127323 0.629213989 0.612536609 0.689943910 0.838983893 0.655932367 0.815650105 0.637900710 0.647607923 0.701016009 0.640155911 0.822116911 0.588365853 0.774210513 0.719379425 0.645727456 0.720836520 0.688179910 0.641165137 0.746731460 0.611317933 0.801856220 0.660770357 0.648869097 0.615022659 0.723001778 0.634782195 0.668500245 0.642970204 0.592329085 0.621354818 0.658762217 0.706106365 0.634590089 0.548216403
aka 0.640762627 0.767156661 0.747096777 0.707792819 0.660200298 0.700007081 0.582293510 0.615637839 0.603049755 0.883125126 0.608849585 0.575664699 0.642513633 0.684410214 0.626223207 0.629551828 0.830029070 0.649325371 0.622451246 0.660520554 0.707987547 0.632801473 0.647974372 0.633729875 0.652001262 0.695659876 0.672005415 0.804416418 0.660844505 0.636349142 0.613634408 0.628097117 0.753695726 0.647272468 0.605237603 0.666495323 0.707764983 0.641956568 0.590267777 0.641391993 0.711347938 0.600861073 0.665712416 0.642084002 0.760075331 0.676692486 0.682132602 0.644742250 0.643942833 0.691765487 0.783365667 0.717535079 0.653144777 0.694432378 0.706238687 0.708041131 0.601452351 0.708892584 0.812768519 0.814834177 0.973933876 0.610755563 0.673822880 0.645333886 0.616877556 0.680127323 0.738657594 0.612536609 0.689943910 0.838983893 0.682032943 0.815650105 0.637900710 0.647607923 0.701016009 0.651597738 0.822116911 0.588365853 0.774210513 0.693556726 0.613801718 0.720836520 0.688179910 0.641165137 0.680366397 0.611317933 0.801856220 0.660770357 0.638243556 0.615022659 0.723001778 0.634782195 0.668500245 0.642970204 0.592329085 0.621354818 0.658762217 0.706106365 0.634590089 0.647645772 0.640762627 0.767156661 0.747096777 0.707792819 0.660200298 0.700007081 0.582293510 0.615637839 0.603049755 0.883125126 0.608849585 0.575664699 0.642513633 0.684410214 0.626223207 0.629551828 0.830029070 0.649325371 0.622451246 0.660520554 0.707987547 0.632801473 0.647974372 0.633729875 0.652001262 0.695659876 0.672005415 0.804416418 0.660844505 0.636349142 0.613634408 0.628097117 0.753695726 0.647272468 0.605237603 0.666495323 0.707764983 0.641956568 0.590267777 0.641391993 0.711347938 0.600861073 0.665712416 0.642084002 0.760075331 0.676692486 0.682132602 0.644742250 0.643942833 0.691765487 0.783365667 0.717535079 0.653144777 0.694432378 0.706238687 0.708041131 0.601452351 0.708892584 0.812768519 0.814834177 0.973933876 0.610755563 0.673822880 0.645333886 0.616877556 0.680127323 0.738657594 0.612536609 0.689943910 0.838983893 0.682032943 0.815650105 0.637900710 0.647607923 0.701016009 0.651597738 0.822116911 0.588365853 0.774210513 0.693556726 0.613801718 0.720836520 0.688179910 0.641165137 0.680366397 0.611317933 0.801856220 0.660770357 0.638243556 0.615022659 0.723001778 0.634782195 0.668500245 0.642970204 0.592329085 0.621354818 0.658762217 0.706106365 0.634590089 0.647645772
akk 0.615582287 0.767156661 0.747096777 0.707792819 0.660200298 0.700007081 0.582293510 0.615637839 0.603049755 0.883125126 0.663892746 0.575664699 0.642513633 0.684410214 0.609717488 0.629551828 0.830029070 0.649325371 0.622451246 0.660520554 0.595022500 0.632801473 0.647974372 0.633729875 0.652001262 0.695659876 0.672005415 0.804416418 0.660844505 0.567095995 0.602334917 0.628097117 0.753695726 0.647272468 0.604554951 0.666495323 0.539277911 0.830620527 0.532957137 0.641391993 0.621368706 0.600861073 0.665712416 0.642084002 0.656202972 0.676692486 0.682132602 0.644742250 0.643942833 0.691765487 0.783365667 0.717535079 0.653144777 0.694432378 0.647118866 0.708041131 0.601452351 0.708892584 0.812768519 0.814834177 0.973933876 0.610755563 0.673822880 0.645333886 0.616877556 0.680127323 0.629213989 0.612536609 0.689943910 0.838983893 0.682032943 0.815650105 0.637900710 0.647607923 0.701016009 0.640155911 0.822116911 0.588365853 0.774210513 0.693556726 0.613801718 0.720836520 0.688179910 0.641165137 0.680366397 0.611317933 0.801856220 0.660770357 0.638243556 0.615022659 0.723001778 0.634782195 0.668500245 0.642970204 0.592329085 0.686118424 0.658762217 0.706106365 0.634590089 0.548216403 0.615582287 0.767156661 0.747096777 0.707792819 0.660200298 0.700007081 0.582293510 0.615637839 0.603049755 0.883125126 0.663892746 0.575664699 0.642513633 0.684410214 0.609717488 0.629551828 0.830029070 0.649325371 0.622451246 0.660520554 0.595022500 0.632801473 0.647974372 0.633729875 0.652001262 0.695659876 0.672005415 0.804416418 0.660844505 0.567095995 0.602334917 0.628097117 0.753695726 0.647272468 0.604554951 0.666495323 0.539277911 0.830620527 0.532957137 0.641391993 0.621368706 0.600861073 0.665712416 0.642084002 0.656202972 0.676692486 0.682132602 0.644742250 0.643942833 0.691765487 0.783365667 0.717535079 0.653144777 0.694432378 0.647118866 0.708041131 0.601452351 0.708892584 0.812768519 0.814834177 0.973933876 0.610755563 0.673822880 0.645333886 0.616877556 0.680127323 0.629213989 0.612536609 0.689943910 0.838983893 0.682032943 0.815650105 0.637900710 0.647607923 0.701016009 0.640155911 0.822116911 0.588365853 0.774210513 0.693556726 0.613801718 0.720836520 0.688179910 0.641165137 0.680366397 0.611317933 0.801856220 0.660770357 0.638243556 0.615022659 0.723001778 0.634782195 0.668500245 0.642970204 0.592329085 0.686118424 0.658762217 0.706106365 0.634590089 0.548216403
akz 0.615582287 0.767156661 0.747096777 0.707792819 0.660200298 0.700007081 0.582293510 0.615637839 0.603049755 0.883125126 0.608849585 0.575664699 0.642513633 0.684410214 0.609717488 0.629551828 0.830029070 0.649325371 0.622451246 0.660520554 0.595022500 0.632801473 0.647974372 0.633729875 0.652001262 0.695659876 0.672005415 0.804416418 0.660844505 0.567095995 0.602334917 0.628097117 0.753695726 0.647272468 0.604554951 0.666495323 0.539277911 0.641956568 0.532957137 0.641391993 0.621368706 0.600861073 0.665712416 0.642084002 0.656202972 0.676692486 0.682132602 0.644742250 0.643942833 0.691765487 0.783365667 0.717535079 0.653144777 0.694432378 0.647118866 0.708041131 0.601452351 0.708892584 0.812768519 0.814834177 0.973933876 0.610755563 0.673822880 0.645333886 0.616877556 0.680127323 0.629213989 0.612536609 0.689943910 0.838983893 0.655932367 0.815650105 0.637900710 0.647607923 0.701016009 0.640155911 0.822116911 0.588365853 0.774210513 0.693556726 0.613801718 0.720836520 0.688179910 0.641165137 0.680366397 0.611317933 0.801856220 0.660770357 0.638243556 0.615022659 0.723001778 0.634782195 0.668500245 0.642970204 0.592329085 0.621354818 0.658762217 0.706106365 0.634590089 0.548216403 0.615582287 0.767156661 0.747096777 0.707792819 0.660200298 0.700007081 0.582293510 0.615637839 0.603049755 0.883125126 0.608849585 0.575664699 0.642513633 0.684410214 0.609717488 0.629551828 0.830029070 0.649325371 0.622451246 0.660520554 0.595022500 0.632801473 0.647974372 0.633729875 0.652001262 0.695659876 0.672005415 0.804416418 0.660844505 0.567095995 0.602334917 0.628097117 0.753695726 0.647272468 0.604554951 0.666495323 0.539277911 0.641956568 0.532957137 0.641391993 0.621368706 0.600861073 0.665712416 0.642084002 0.656202972 0.676692486 0.682132602 0.644742250 0.643942833 0.691765487 0.783365667 0.717535079 0.653144777 0.694432378 0.647118866 0.708041131 0.601452351 0.708892584 0.812768519 0.814834177 0.973933876 0.610755563 0.673822880 0.645333886 0.616877556 0.680127323 0.629213989 0.612536609 0.689943910 0.838983893 0.655932367 0.815650105 0.637900710 0.647607923 0.701016009 0.640155911 0.822116911 0.588365853 0.774210513 0.693556726 0.613801718 0.720836520 0.688179910 0.641165137 0.680366397 0.611317933 0.801856220 0.660770357 0.638243556 0.615022659 0.723001778 0.634782195 0.668500245 0.642970204 0.592329085 0.621354818 0.658762217 0.706106365 0.634590089 0.548216403
ale 0.615582287 0.767156661 0.747096777 0.707792819 0.660200298 0.700007081 0.582293510 0.615637839 0.603049755 0.883125126 0.608849585 0.575664699 0.642513633 0.684410214 0.609717488 0.629551828 0.830029070 0.649325371 0.622451246 0.660520554 0.595022500 0.632801473 0.647974372 0.633729875 0.652001262 0.695659876 0.672005415 0.804416418 0.660844505 0.567095995 0.602334917 0.628097117 0.753695726 0.647272468 0.604554951 0.666495323 0.539277911 0.641956568 0.532957137 0.641391993 0.621368706 0.600861073 0.665712416 0.642084002 0.656202972 0.676692486 0.682132602 0.644742250 0.643942833 0.691765487 0.783365667 0.717535079 0.653144777 0.694432378 0.647118866 0.708041131 0.601452351 0.708892584 0.812768519 0.814834177 0.973933876 0.610755563 0.673822880 0.645333886 0.616877556 0.680127323 0.629213989 0.612536609 0.689943910 0.838983893 0.655932367 0.815650105 0.637900710 0.647607923 0.701016009 0.640155911 0.822116911 0.588365853 0.774210513 0.693556726 0.613801718 0.720836520 0.688179910 0.641165137 0.680366397 0.611317933 0.801856220 0.660770357 0.638243556 0.615022659 0.723001778 0.634782195 0.668500245 0.642970204 0.592329085 0.621354818 0.658762217 0.706106365 0.634590089 0.548216403 0.615582287 0.767156661 0.747096777 0.707792819 0.660200298 0.700007081 0.582293510 0.615637839 0.603049755 0.883125126 0.608849585 0.575664699 0.642513633 0.684410214 0.609717488 0.629551828 0.830029070 0.649325371 0.622451246 0.660520554 0.595022500 0.632801473 0.647974372 0.633729875 0.652001262 0.695659876 0.672005415 0.804416418 0.660844505 0.567095995 0.602334917 0.628097117 0.753695726 0.647272468 0.604554951 0.666495323 0.539277911 0.641956568 0.532957137 0.641391993 0.621368706 0.600861073 0.665712416 0.642084002 0.656202972 0.676692486 0.682132602 0.644742250 0.643942833 0.691765487 0.783365667 0.717535079 0.653144777 0.694432378 0.647118866 0.708041131 0.601452351 0.708892584 0.812768519 0.814834177 0.973933876 0.610755563 0.673822880 0.645333886 0.616877556 0.680127323 0.629213989 0.612536609 0.689943910 0.838983893 0.655932367 0.815650105 0.637900710 0.647607923 0.701016009 0.640155911 0.822116911 0.588365853 0.774210513 0.693556726 0.613801718 0.720836520 0.688179910 0.641165137 0.680366397 0.611317933 0.801856220 0.660770357 0.638243556 0.615022659 0.723001778 0.634782195 0.668500245 0.642970204 0.592329085 0.621354818 0.658762217 0.706106365 0.634590089 0.548216403
als 0.615582287 0.767156661 0.755111039 0.707792819 0.660200298 0.700007081 0.590808153 0.707503617 0.603049755 0.883125126 0.608849585 0.615885019 0.788523018 0.684410214 0.609717488 0.640864670 0.830029070 0.649325371 0.622451246 0.660520554 0.857704520 0.632801473 0.669417202 0.748834431 0.652001262 0.695659876 0.672005415 0.804416418 0.660844505 0.578687549 0.602334917 0.628097117 0.753695726 0.647272468 0.624802828 0.750139236 0.545120656 0.641956568 0.623861611 0.641391993 0.621368706 0.613451123 0.665712416 0.642084002 0.656202972 0.695396006 0.682132602 0.644742250 0.648935199 0.691765487 0.783365667 0.717535079 0.653144777 0.694432378 0.647118866 0.708041131 0.602082551 0.708892584 0.812768519 0.814834177 0.973933876 0.610755563 0.728866220 0.738768339 0.616877556 0.750002742 0.629213989 0.612536609 0.759242654 0.838983893 1.184366107 0.815650105 0.637900710 0.647607923 0.701016009 0.640155911 0.822116911 0.597001791 0.774210513 1.166904807 0.743353069 0.720836520 0.688179910 0.641165137 0.680366397 0.631991506 0.801856220 0.830003858 0.638243556 0.615700543 0.723001778 0.634782195 0.668500245 0.642970204 0.635346413 0.621354818 0.658762217 0.706106365 0.634590089 0.647645772 0.615582287 0.767156661 0.755111039 0.707792819 0.660200298 0.700007081 0.590808153 0.707503617 0.603049755 0.883125126 0.608849585 0.615885019 0.788523018 0.684410214 0.609717488 0.640864670 0.830029070 0.649325371 0.622451246 0.660520554 0.857704520 0.632801473 0.669417202 0.748834431 0.652001262 0.695659876 0.672005415 0.804416418 0.660844505 0.578687549 0.602334917 0.628097117 0.753695726 0.647272468 0.624802828 0.750139236 0.545120656 0.641956568 0.623861611 0.641391993 0.621368706 0.613451123 0.665712416 0.642084002 0.656202972 0.695396006 0.682132602 0.644742250 0.648935199 0.691765487 0.783365667 0.717535079 0.653144777 0.694432378 0.647118866 0.708041131 0.602082551 0.708892584 0.812768519 0.814834177 0.973933876 0.610755563 0.728866220 0.738768339 0.616877556 0.750002742 0.629213989 0.612536609 0.759242654 0.838983893 1.184366107 0.815650105 0.637900710 0.647607923 0.701016009 0.640155911 0.822116911 0.597001791 0.774210513 1.166904807 0.743353069 0.720836520 0.688179910 0.641165137 0.680366397 0.631991506 0.801856220 0.830003858 0.638243556 0.615700543 0.723001778 0.634782195 0.668500245 0.642970204 0.635346413 0.621354818 0.658762217 0.706106365 0.634590089 0.647645772
alt 0.615582287 0.767156661 0.747096777 0.707792819 0.660200298 0.700007081 0.582293510 0.615637839 0.603049755 0.883125126 0.608849585 0.575664699 0.642513633 0.684410214 0.609717488 0.629551828 0.830029070 0.649325371 0.622451246 0.660520554 0.595022500 0.632801473 0.647974372 0.633729875 0.652001262 0.695659876 0.672005415 0.804416418 0.660844505 0.567095995 0.602334917 0.628097117 0.753695726 0.647272468 0.604554951 0.666495323 0.539277911 0.641956568 0.532957137 0.641391993 0.621368706 0.600861073 0.665712416 0.642084002 0.656202972 0.676692486 0.682132602 0.644742250 0.643942833 0.691765487 0.783365667 0.717535079 0.653144777 0.694432378 0.647118866 0.708041131 0.601452351 0.708892584 0.812768519 0.814834177 0.973933876 0.610755563 0.673822880 0.645333886 0.616877556 0.680127323 0.629213989 0.612536609 0.689943910 0.838983893 0.682032943 0.815650105 0.637900710 0.647607923 0.701016009 0.640155911 0.822116911 0.588365853 0.774210513 0.693556726 0.613801718 0.720836520 0.688179910 0.641165137 0.680366397 0.611317933 0.801856220 0.660770357 0.638243556 0.615022659 0.723001778 0.634782195 0.668500245 0.642970204 0.592329085 0.621354818 0.658762217 0.706106365 0.634590089 0.548216403 0.615582287 0.767156661 0.747096777 0.707792819 0.660200298 0.700007081 0.582293510 0.615637839 0.603049755 0.883125126 0.608849585 0.575664699 0.642513633 0.684410214 0.609717488 0.629551828 0.830029070 0.649325371 0.622451246 0.660520554 0.595022500 0.632801473 0.647974372 0.633729875 0.652001262 0.695659876 0.672005415 0.804416418 0.660844505 0.567095995 0.602334917 0.628097117 0.753695726 0.647272468 0.604554951 0.666495323 0.539277911 0.641956568 0.532957137 0.641391993 0.621368706 0.600861073 0.665712416 0.642084002 0.656202972 0.676692486 0.682132602 0.644742250 0.643942833 0.691765487 0.783365667 0.717535079 0.653144777 0.694432378 0.647118866 0.708041131 0.601452351 0.708892584 0.812768519 0.814834177 0.973933876 0.610755563 0.673822880 0.645333886 0.616877556 0.680127323 0.629213989 0.612536609 0.689943910 0.838983893 0.682032943 0.815650105 0.637900710 0.647607923 0.701016009 0.640155911 0.822116911 0.588365853 0.774210513 0.693556726 0.613801718 0.720836520 0.688179910 0.641165137 0.680366397 0.611317933 0.801856220 0.660770357 0.638243556 0.615022659 0.723001778 0.634782195 0.668500245 0.642970204 0.592329085 0.621354818 0.658762217 0.706106365 0.634590089 0.548216403
amh 0.615582287 0.767156661 0.747096777 0.707792819 0.720740080 0.700007081 0.582293510 0.664923191 0.603049755 0.883125126 0.710331082 0.913310111 0.642513633 0.684410214 0.609717488 0.767691672 0.830029070 0.696852088 0.693233490 0.729173541 0.595022500 0.632801473 0.763290703 0.633729875 0.923535764 0.695659876 0.682042181 0.821865559 0.693141997 0.636946142 0.754661798 0.628097117 0.772172034 0.647272468 0.792219460 0.701560140 0.832232952 0.641956568 0.590267777 0.654842854 0.773793340 0.600861073 0.746834278 0.774774075 0.677692056 0.832916379 0.682132602 0.700143099 0.643942833 0.691765487 0.783365667 0.717535079 0.653144777 0.694432378 0.675359786 0.756932080 0.703706205 0.708892584 0.812768519 0.814834177 0.973933876 0.626981616 0.724256694 0.760083377 0.616877556 0.680127323 0.629213989 0.730978251 0.704047501 0.838983893 0.685826898 0.815650105 0.718420804 0.786927342 0.701016009 0.640155911 0.822116911 0.660555422 0.774210513 0.693556726 0.621438980 0.720836520 0.688179910 0.641165137 0.722477257 0.641961813 0.801856220 0.660770357 0.638243556 0.708601177 0.723001778 0.767499685 0.917706907 0.709232688 0.681761503 0.686118424 0.658762217 0.709356964 0.837936044 0.666431665 0.615582287 0.767156661 0.747096777 0.707792819 0.720740080 0.700007081 0.582293510 0.664923191 0.603049755 0.883125126 0.710331082 0.913310111 0.642513633 0.684410214 0.609717488 0.767691672 0.830029070 0.696852088 0.693233490 0.729173541 0.595022500 0.632801473 0.763290703 0.633729875 0.923535764 0.695659876 0.682042181 0.821865559 0.693141997 0.636946142 0.754661798 0.628097117 0.772172034 0.647272468 0.792219460 0.701560140 0.832232952 0.641956568 0.590267777 0.654842854 0.773793340 0.600861073 0.746834278 0.774774075 0.677692056 0.832916379 0.682132602 0.700143099 0.643942833 0.691765487 0.783365667 0.717535079 0.653144777 0.694432378 0.675359786 0.756932080 0.703706205 0.708892584 0.812768519 0.814834177 0.973933876 0.626981616 0.724256694 0.760083377 0.616877556 0.680127323 0.629213989 0.730978251 0.704047501 0.838983893 0.685826898 0.815650105 0.718420804 0.786927342 0.701016009 0.640155911 0.822116911 0.660555422 0.774210513 0.693556726 0.621438980 0.720836520 0.688179910 0.641165137 0.722477257 0.641961813 0.801856220 0.660770357 0.638243556 0.708601177 0.723001778 0.767499685 0.917706907 0.709232688 0.681761503 0.686118424 0.658762217 0.709356964 0.837936044 0.666431665
ami 0.615582287 0.767156661 0.747096777 0.707792819 0.660200298 0.700007081 0.582293510 0.615637839 0.603049755 0.883125126 0.675295174 0.575664699 0.642513633 0.684410214 0.609717488 0.629551828 0.830029070 0.649325371 0.622451246 0.660520554 0.595022500 0.632801473 0.647974372 0.633729875 0.652001262 0.695659876 0.672005415 0.804416418 0.660844505 0.567095995 0.602334917 0.628097117 0.753695726 0.676863492 0.604554951 0.666495323 0.539277911 0.641956568 0.532957137 0.641391993 0.621368706 0.600861073 0.665712416 0.642084002 0.656202972 0.676692486 0.682132602 0.644742250 0.643942833 0.691765487 0.783365667 0.717535079 0.653144777 0.694432378 0.647118866 0.708041131 0.601452351 0.708892584 0.812768519 0.814834177 0.973933876 0.610755563 0.673822880 0.645333886 0.616877556 0.680127323 0.629213989 0.612536609 0.689943910 0.838983893 0.655932367 0.815650105 0.637900710 0.647607923 0.701016009 0.640155911 0.822116911 0.588365853 0.774210513 0.693556726 0.613801718 0.720836520 0.688179910 0.641165137 0.680366397 0.611317933 0.801856220 0.660770357 0.638243556 0.615022659 0.723001778 0.634782195 0.668500245 0.642970204 0.592329085 0.621354818 0.658762217 0.706106365 0.634590089 0.548216403 0.615582287 0.767156661 0.747096777 0.707792819 0.660200298 0.700007081 0.582293510 0.615637839 0.603049755 0.883125126 0.675295174 0.575664699 0.642513633 0.684410214 0.609717488 0.629551828 0.830029070 0.649325371 0.622451246 0.660520554 0.595022500 0.632801473 0.647974372 0.633729875 0.652001262 0.695659876 0.672005415 0.804416418 0.660844505 0.567095995 0.602334917 0.628097117 0.753695726 0.676863492 0.604554951 0.666495323 0.539277911 0.641956568 0.532957137 0.641391993 0.621368706 0.600861073 0.665712416 0.642084002 0.656202972 0.676692486 0.682132602 0.644742250 0.643942833 0.691765487 0.783365667 0.717535079 0.653144777 0.694432378 0.647118866 0.708041131 0.601452351 0.708892584 0.812768519 0.814834177 0.973933876 0.610755563 0.673822880 0.645333886 0.616877556 0.680127323 0.629213989 0.612536609 0.689943910 0.838983893 0.655932367 0.815650105 0.637900710 0.647607923 0.701016009 0.640155911 0.822116911 0.588365853 0.774210513 0.693556726 0.613801718 0.720836520 0.688179910 0.641165137 0.680366397 0.611317933 0.801856220 0.660770357 0.638243556 0.615022659 0.723001778 0.634782195 0.668500245 0.642970204 0.592329085 0.621354818 0.658762217 0.706106365 0.634590089 0.548216403
ang 0.657388926 0.767156661 0.844047606 0.853775859 0.810699940 0.836362481 0.650296628 0.658103347 0.824448049 0.883125126 0.809041679 0.602124572 0.660323739 0.716135740 0.632559478 0.917836010 0.830029070 0.814536572 0.669610500 1.003112912 0.712190092 0.998211443 0.763290703 0.843779266 0.923535764 0.955502212 0.853153408 1.124836802 0.961907685 0.779242635 0.892992020 0.969297945 0.753695726 0.671470582 0.634564996 0.793173909 0.777882516 0.869937539 0.893773139 0.774605870 0.711347938 0.621029019 0.665712416 0.642084002 0.813548982 0.731198192 0.682132602 0.794076443 0.807889163 0.708555937 0.876285434 0.717535079 0.674794078 0.755728066 0.668963850 0.708041131 0.755239248 0.746392250 0.812768519 0.814834177 0.973933876 0.682457864 0.875388741 0.889241993 0.736168325 0.680127323 0.760363340 0.615663290 0.712645292 0.838983893 0.685761154 0.824394464 0.782429159 1.046664834 0.722683787 0.938015938 0.822116911 0.667023599 0.774210513 0.784297526 0.814038634 0.720836520 0.754675925 0.837017119 0.680366397 0.611317933 0.937888741 0.663680911 0.771888137 0.776454329 0.774596572 0.645279765 0.783989012 0.874253750 0.757575929 0.686118424 0.915817440 0.841504753 0.774114609 0.737806439 0.657388926 0.767156661 0.844047606 0.853775859 0.810699940 0.836362481 0.650296628 0.658103347 0.824448049 0.883125126 0.809041679 0.602124572 0.660323739 0.716135740 0.632559478 0.917836010 0.830029070 0.814536572 0.669610500 1.003112912 0.712190092 0.998211443 0.763290703 0.843779266 0.923535764 0.955502212 0.853153408 1.124836802 0.961907685 0.779242635 0.892992020 0.969297945 0.753695726 0.671470582 0.634564996 0.793173909 0.777882516 0.869937539 0.893773139 0.774605870 0.711347938 0.621029019 0.665712416 0.642084002 0.813548982 0.731198192 0.682132602 0.794076443 0.807889163 0.708555937 0.876285434 0.717535079 0.674794078 0.755728066 0.668963850 0.708041131 0.755239248 0.746392250 0.812768519 0.814834177 0.973933876 0.682457864 0.875388741 0.889241993 0.736168325 0.680127323 0.760363340 0.615663290 0.712645292 0.838983893 0.685761154 0.824394464 0.782429159 1.046664834 0.722683787 0.938015938 0.822116911 0.667023599 0.774210513 0.784297526 0.814038634 0.720836520 0.754675925 0.837017119 0.680366397 0.611317933 0.937888741 0.663680911 0.771888137 0.776454329 0.774596572 0.645279765 0.783989012 0.874253750 0.757575929 0.686118424 0.915817440 0.841504753 0.774114609 0.737806439
ani 0.615582287 0.767156661 0.747096777 0.707792819 0.660200298 0.700007081 0.582293510 0.615637839 0.603049755 0.883125126 0.608849585 0.575664699 0.642513633 0.684410214 0.609717488 0.629551828 0.830029070 0.649325371 0.622451246 0.660520554 0.595022500 0.632801473 0.647974372 0.633729875 0.652001262 0.695659876 0.672005415 0.804416418 0.660844505 0.567095995 0.602334917 0.628097117 0.753695726 0.647272468 0.604554951 0.666495323 0.539277911 0.641956568 0.532957137 0.641391993 0.621368706 0.600861073 0.665712416 0.642084002 0.656202972 0.676692486 0.682132602 0.644742250 0.643942833 0.691765487 0.783365667 0.717535079 0.653144777 0.694432378 0.647118866 0.708041131 0.601452351 0.708892584 0.812768519 0.814834177 0.973933876 0.610755563 0.673822880 0.645333886 0.616877556 0.680127323 0.629213989 0.612536609 0.689943910 0.838983893 0.655932367 0.815650105 0.637900710 0.647607923 0.701016009 0.640155911 0.822116911 0.588365853 0.774210513 0.693556726 0.613801718 0.720836520 0.688179910 0.641165137 0.680366397 0.611317933 0.801856220 0.660770357 0.638243556 0.615022659 0.723001778 0.634782195 0.668500245 0.642970204 0.592329085 0.621354818 0.658762217 0.706106365 0.634590089 0.548216403 0.615582287 0.767156661 0.747096777 0.707792819 0.660200298 0.700007081 0.582293510 0.615637839 0.603049755 0.883125126 0.608849585 0.575664699 0.642513633 0.684410214 0.609717488 0.629551828 0.830029070 0.649325371 0.622451246 0.660520554 0.595022500 0.632801473 0.647974372 0.633729875 0.652001262 0.695659876 0.672005415 0.804416418 0.660844505 0.567095995 0.602334917 0.628097117 0.753695726 0.647272468 0.604554951 0.666495323 0.539277911 0.641956568 0.532957137 0.641391993 0.621368706 0.600861073 0.665712416 0.642084002 0.656202972 0.676692486 0.682132602 0.644742250 0.643942833 0.691765487 0.783365667 0.717535079 0.653144777 0.694432378 0.647118866 0.708041131 0.601452351 0.708892584 0.812768519 0.814834177 0.973933876 0.610755563 0.673822880 0.645333886 0.616877556 0.680127323 0.629213989 0.612536609 0.689943910 0.838983893 0.655932367 0.815650105 0.637900710 0.647607923 0.701016009 0.640155911 0.822116911 0.588365853 0.774210513 0.693556726 0.613801718 0.720836520 0.688179910 0.641165137 0.680366397 0.611317933 0.801856220 0.660770357 0.638243556 0.615022659 0.723001778 0.634782195 0.668500245 0.642970204 0.592329085 0.621354818 0.658762217 0.706106365 0.634590089 0.548216403
aoz 0.615582287 0.767156661 0.747096777 0.707792819 0.660200298 0.700007081 0.582293510 0.615637839 0.603049755 0.883125126 0.608849585 0.575664699 0.642513633 0.684410214 0.609717488 0.629551828 0.830029070 0.649325371 0.622451246 0.660520554 0.595022500 0.632801473 0.647974372 0.633729875 0.652001262 0.695659876 0.672005415 0.804416418 0.660844505 0.567095995 0.602334917 0.628097117 0.753695726 0.647272468 0.604554951 0.666495323 0.539277911 0.641956568 0.532957137 0.641391993 0.621368706 0.600861073 0.665712416 0.642084002 0.656202972 0.676692486 0.682132602 0.644742250 0.643942833 0.691765487 0.783365667 0.717535079 0.653144777 0.694432378 0.647118866 0.708041131 0.601452351 0.708892584 0.812768519 0.814834177 0.973933876 0.610755563 0.673822880 0.645333886 0.616877556 0.680127323 0.629213989 0.612536609 0.689943910 0.838983893 0.655932367 0.815650105 0.637900710 0.647607923 0.701016009 0.640155911 0.822116911 0.588365853 0.774210513 0.693556726 0.613801718 0.720836520 0.688179910 0.641165137 0.680366397 0.611317933 0.801856220 0.660770357 0.638243556 0.615022659 0.723001778 0.634782195 0.668500245 0.642970204 0.592329085 0.621354818 0.658762217 0.706106365 0.634590089 0.548216403 0.615582287 0.767156661 0.747096777 0.707792819 0.660200298 0.700007081 0.582293510 0.615637839 0.603049755 0.883125126 0.608849585 0.575664699 0.642513633 0.684410214 0.609717488 0.629551828 0.830029070 0.649325371 0.622451246 0.660520554 0.595022500 0.632801473 0.647974372 0.633729875 0.652001262 0.695659876 0.672005415 0.804416418 0.660844505 0.567095995 0.602334917 0.628097117 0.753695726 0.647272468 0.604554951 0.666495323 0.539277911 0.641956568 0.532957137 0.641391993 0.621368706 0.600861073 0.665712416 0.642084002 0.656202972 0.676692486 0.682132602 0.644742250 0.643942833 0.691765487 0.783365667 0.717535079 0.653144777 0.694432378 0.647118866 0.708041131 0.601452351 0.708892584 0.812768519 0.814834177 0.973933876 0.610755563 0.673822880 0.645333886 0.616877556 0.680127323 0.629213989 0.612536609 0.689943910 0.838983893 0.655932367 0.815650105 0.637900710 0.647607923 0.701016009 0.640155911 0.822116911 0.588365853 0.774210513 0.693556726 0.613801718 0.720836520 0.688179910 0.641165137 0.680366397 0.611317933 0.801856220 0.660770357 0.638243556 0.615022659 0.723001778 0.634782195 0.668500245 0.642970204 0.592329085 0.621354818 0.658762217 0.706106365 0.634590089 0.548216403
apc 0.615582287 0.767156661 0.747096777 0.707792819 0.660200298 0.700007081 0.582293510 0.615637839 0.603049755 0.883125126 0.608849585 0.575664699 0.642513633 0.684410214 0.609717488 0.629551828 0.830029070 0.649325371 0.622451246 0.660520554 0.595022500 0.632801473 0.647974372 0.633729875 0.652001262 0.695659876 0.672005415 0.804416418 0.660844505 0.567095995 0.602334917 0.628097117 0.753695726 0.647272468 0.604554951 0.666495323 0.539277911 0.641956568 0.532957137 0.641391993 0.621368706 0.600861073 0.665712416 0.642084002 0.656202972 0.676692486 0.682132602 0.644742250 0.643942833 0.691765487 0.783365667 0.717535079 0.653144777 0.694432378 0.647118866 0.708041131 0.601452351 0.708892584 0.812768519 0.814834177 0.973933876 0.610755563 0.673822880 0.645333886 0.616877556 0.680127323 0.629213989 0.612536609 0.689943910 0.838983893 0.655932367 0.815650105 0.637900710 0.647607923 0.701016009 0.640155911 0.822116911 0.588365853 0.774210513 0.693556726 0.613801718 0.720836520 0.688179910 0.641165137 0.680366397 0.611317933 0.801856220 0.660770357 0.638243556 0.615022659 0.723001778 0.634782195 0.668500245 0.642970204 0.592329085 0.621354818 0.658762217 0.706106365 0.634590089 0.548216403 0.615582287 0.767156661 0.747096777 0.707792819 0.660200298 0.700007081 0.582293510 0.615637839 0.603049755 0.883125126 0.608849585 0.575664699 0.642513633 0.684410214 0.609717488 0.629551828 0.830029070 0.649325371 0.622451246 0.660520554 0.595022500 0.632801473 0.647974372 0.633729875 0.652001262 0.695659876 0.672005415 0.804416418 0.660844505 0.567095995 0.602334917 0.628097117 0.753695726 0.647272468 0.604554951 0.666495323 0.539277911 0.641956568 0.532957137 0.641391993 0.621368706 0.600861073 0.665712416 0.642084002 0.656202972 0.676692486 0.682132602 0.644742250 0.643942833 0.691765487 0.783365667 0.717535079 0.653144777 0.694432378 0.647118866 0.708041131 0.601452351 0.708892584 0.812768519 0.814834177 0.973933876 0.610755563 0.673822880 0.645333886 0.616877556 0.680127323 0.629213989 0.612536609 0.689943910 0.838983893 0.655932367 0.815650105 0.637900710 0.647607923 0.701016009 0.640155911 0.822116911 0.588365853 0.774210513 0.693556726 0.613801718 0.720836520 0.688179910 0.641165137 0.680366397 0.611317933 0.801856220 0.660770357 0.638243556 0.615022659 0.723001778 0.634782195 0.668500245 0.642970204 0.592329085 0.621354818 0.658762217 0.706106365 0.634590089 0.548216403
apw 0.615582287 0.767156661 0.747096777 0.707792819 0.660200298 0.700007081 0.582293510 0.615637839 0.603049755 0.883125126 0.608849585 0.575664699 0.642513633 0.684410214 0.609717488 0.629551828 0.830029070 0.649325371 0.622451246 0.660520554 0.595022500 0.632801473 0.647974372 0.633729875 0.652001262 0.695659876 0.672005415 0.804416418 0.660844505 0.567095995 0.602334917 0.628097117 0.753695726 0.647272468 0.799278140 0.666495323 0.539277911 0.641956568 0.532957137 0.641391993 0.621368706 0.600861073 0.665712416 0.642084002 0.656202972 0.676692486 0.682132602 0.644742250 0.643942833 0.691765487 0.783365667 0.717535079 0.653144777 0.694432378 0.647118866 0.708041131 0.601452351 0.708892584 0.812768519 0.814834177 0.973933876 0.610755563 0.673822880 0.669316530 0.616877556 0.680127323 0.629213989 0.612536609 0.689943910 0.838983893 0.655932367 0.815650105 0.637900710 0.739853680 0.701016009 0.640155911 0.822116911 0.588365853 0.774210513 0.693556726 0.613801718 0.720836520 0.688179910 0.641165137 0.680366397 0.611317933 0.801856220 0.660770357 0.638243556 0.665812969 0.723001778 0.634782195 0.668500245 0.642970204 0.592329085 0.621354818 0.658762217 0.706106365 0.634590089 0.548216403 0.615582287 0.767156661 0.747096777 0.707792819 0.660200298 0.700007081 0.582293510 0.615637839 0.603049755 0.883125126 0.608849585 0.575664699 0.642513633 0.684410214 0.609717488 0.629551828 0.830029070 0.649325371 0.622451246 0.660520554 0.595022500 0.632801473 0.647974372 0.633729875 0.652001262 0.695659876 0.672005415 0.804416418 0.660844505 0.567095995 0.602334917 0.628097117 0.753695726 0.647272468 0.799278140 0.666495323 0.539277911 0.641956568 0.532957137 0.641391993 0.621368706 0.600861073 0.665712416 0.642084002 0.656202972 0.676692486 0.682132602 0.644742250 0.643942833 0.691765487 0.783365667 0.717535079 0.653144777 0.694432378 0.647118866 0.708041131 0.601452351 0.708892584 0.812768519 0.814834177 0.973933876 0.610755563 0.673822880 0.669316530 0.616877556 0.680127323 0.629213989 0.612536609 0.689943910 0.838983893 0.655932367 0.815650105 0.637900710 0.739853680 0.701016009 0.640155911 0.822116911 0.588365853 0.774210513 0.693556726 0.613801718 0.720836520 0.688179910 0.641165137 0.680366397 0.611317933 0.801856220 0.660770357 0.638243556 0.665812969 0.723001778 0.634782195 0.668500245 0.642970204 0.592329085 0.621354818 0.658762217 0.706106365 0.634590089 0.548216403
aqc 0.615582287 0.767156661 0.747096777 0.707792819 0.660200298 0.700007081 0.582293510 0.615637839 0.603049755 0.883125126 0.608849585 0.575664699 0.642513633 0.684410214 0.609717488 0.629551828 0.830029070 0.649325371 0.622451246 0.660520554 0.595022500 0.632801473 0.647974372 0.633729875 0.652001262 0.695659876 0.672005415 0.804416418 0.660844505 0.567095995 0.602334917 0.628097117 0.753695726 0.647272468 0.604554951 0.666495323 0.539277911 0.641956568 0.532957137 0.641391993 0.621368706 0.600861073 0.665712416 0.642084002 0.656202972 0.676692486 0.682132602 0.644742250 0.643942833 0.691765487 0.783365667 0.717535079 0.653144777 0.694432378 0.647118866 0.708041131 0.601452351 0.708892584 0.812768519 0.814834177 0.973933876 0.610755563 0.673822880 0.645333886 0.616877556 0.680127323 0.629213989 0.612536609 0.689943910 0.838983893 0.655932367 0.815650105 0.637900710 0.647607923 0.701016009 0.640155911 0.822116911 0.588365853 0.774210513 0.693556726 0.613801718 0.720836520 0.688179910 0.641165137 0.680366397 0.611317933 0.801856220 0.660770357 0.638243556 0.615022659 0.723001778 0.634782195 0.668500245 0.642970204 0.592329085 0.621354818 0.658762217 0.706106365 0.634590089 0.548216403 0.615582287 0.767156661 0.747096777 0.707792819 0.660200298 0.700007081 0.582293510 0.615637839 0.603049755 0.883125126 0.608849585 0.575664699 0.642513633 0.684410214 0.609717488 0.629551828 0.830029070 0.649325371 0.622451246 0.660520554 0.595022500 0.632801473 0.647974372 0.633729875 0.652001262 0.695659876 0.672005415 0.804416418 0.660844505 0.567095995 0.602334917 0.628097117 0.753695726 0.647272468 0.604554951 0.666495323 0.539277911 0.641956568 0.532957137 0.641391993 0.621368706 0.600861073 0.665712416 0.642084002 0.656202972 0.676692486 0.682132602 0.644742250 0.643942833 0.691765487 0.783365667 0.717535079 0.653144777 0.694432378 0.647118866 0.708041131 0.601452351 0.708892584 0.812768519 0.814834177 0.973933876 0.610755563 0.673822880 0.645333886 0.616877556 0.680127323 0.629213989 0.612536609 0.689943910 0.838983893 0.655932367 0.815650105 0.637900710 0.647607923 0.701016009 0.640155911 0.822116911 0.588365853 0.774210513 0.693556726 0.613801718 0.720836520 0.688179910 0.641165137 0.680366397 0.611317933 0.801856220 0.660770357 0.638243556 0.615022659 0.723001778 0.634782195 0.668500245 0.642970204 0.592329085 0.621354818 0.658762217 0.706106365 0.634590089 0.548216403
ara 1.028500199 1.115710378 1.044919133 0.981688499 1.227767467 0.981968820 1.007543564 1.204106331 1.091396332 1.077157140 1.035493851 1.508376360 1.086884618 1.012611866 1.240823746 1.508030176 1.075908184 1.101414561 0.987516701 1.016633749 1.061275363 0.998211443 1.195883036 1.019720674 1.123026252 1.701005936 1.136584044 1.313553452 1.223479152 1.118965864 1.130633593 1.189687729 1.398784518 1.177858472 1.071280837 1.232565641 1.339235544 0.951407433 1.037674665 1.387017012 1.136365533 1.247887254 1.144687057 1.258680820 1.129719138 1.210059047 0.914489210 1.166476488 1.226406336 1.018347979 1.083283782 1.059507966 1.059913754 1.039282918 1.040380120 0.989089668 1.045277834 1.007502913 0.973903239 1.131689191 0.973933876 1.093656421 1.075428009 1.255805850 0.990865886 1.066584110 1.755621672 1.158831716 1.509566665 1.321399093 1.184366107 1.199954867 1.044357538 1.001052380 0.976844847 1.167499781 1.059398890 1.120785117 1.041637182 1.417828321 1.098777413 1.173544288 1.169386983 1.303921103 1.026466966 1.131356955 1.396970510 1.196111441 1.068995476 1.057550788 1.423479080 1.044893146 1.125920296 1.226549268 1.213109612 0.989847600 1.028099537 0.996467650 1.116151690 1.041673064 1.028500199 1.115710378 1.044919133 0.981688499 1.227767467 0.981968820 1.007543564 1.204106331 1.091396332 1.077157140 1.035493851 1.508376360 1.086884618 1.012611866 1.240823746 1.508030176 1.075908184 1.101414561 0.987516701 1.016633749 1.061275363 0.998211443 1.195883036 1.019720674 1.123026252 1.701005936 1.136584044 1.313553452 1.223479152 1.118965864 1.130633593 1.189687729 1.398784518 1.177858472 1.071280837 1.232565641 1.339235544 0.951407433 1.037674665 1.387017012 1.136365533 1.247887254 1.144687057 1.258680820 1.129719138 1.210059047 0.914489210 1.166476488 1.226406336 1.018347979 1.083283782 1.059507966 1.059913754 1.039282918 1.040380120 0.989089668 1.045277834 1.007502913 0.973903239 1.131689191 0.973933876 1.093656421 1.075428009 1.255805850 0.990865886 1.066584110 1.755621672 1.158831716 1.509566665 1.321399093 1.184366107 1.199954867 1.044357538 1.001052380 0.976844847 1.167499781 1.059398890 1.120785117 1.041637182 1.417828321 1.098777413 1.173544288 1.169386983 1.303921103 1.026466966 1.131356955 1.396970510 1.196111441 1.068995476 1.057550788 1.423479080 1.044893146 1.125920296 1.226549268 1.213109612 0.989847600 1.028099537 0.996467650 1.116151690 1.041673064
arc 0.615582287 0.767156661 0.839125693 0.707792819 0.660200298 0.700007081 0.924999118 0.676512957 0.640127957 0.883125126 0.608849585 0.655476749 0.642513633 0.684410214 0.609717488 0.780917645 0.830029070 0.649325371 0.622451246 0.660520554 0.618727148 0.632801473 0.647974372 0.633729875 0.652001262 0.695659876 0.672005415 0.821865559 0.842016160 0.567095995 0.602334917 0.628097117 0.753695726 0.647272468 0.604554951 0.666495323 0.539277911 0.641956568 0.532957137 0.641391993 0.621368706 0.600861073 0.665712416 0.651149392 0.656202972 0.676692486 0.682132602 0.900881410 0.657805741 0.691765487 0.783365667 0.717535079 0.653144777 0.694432378 0.779509008 0.708041131 0.601452351 0.708892584 0.812768519 0.814834177 0.973933876 0.717773795 0.673822880 0.645333886 0.616877556 0.680127323 0.629213989 0.612536609 0.689943910 0.838983893 0.655932367 0.815650105 0.637900710 0.647607923 0.701016009 0.640155911 0.822116911 0.588365853 0.774210513 0.693556726 0.632860422 0.720836520 0.688179910 0.641165137 0.680366397 0.631991506 0.801856220 0.660770357 0.638243556 0.615022659 0.723001778 0.634782195 0.733512759 0.642970204 0.866915584 0.621354818 0.982240558 0.706106365 0.634590089 0.710757375 0.615582287 0.767156661 0.839125693 0.707792819 0.660200298 0.700007081 0.924999118 0.676512957 0.640127957 0.883125126 0.608849585 0.655476749 0.642513633 0.684410214 0.609717488 0.780917645 0.830029070 0.649325371 0.622451246 0.660520554 0.618727148 0.632801473 0.647974372 0.633729875 0.652001262 0.695659876 0.672005415 0.821865559 0.842016160 0.567095995 0.602334917 0.628097117 0.753695726 0.647272468 0.604554951 0.666495323 0.539277911 0.641956568 0.532957137 0.641391993 0.621368706 0.600861073 0.665712416 0.651149392 0.656202972 0.676692486 0.682132602 0.900881410 0.657805741 0.691765487 0.783365667 0.717535079 0.653144777 0.694432378 0.779509008 0.708041131 0.601452351 0.708892584 0.812768519 0.814834177 0.973933876 0.717773795 0.673822880 0.645333886 0.616877556 0.680127323 0.629213989 0.612536609 0.689943910 0.838983893 0.655932367 0.815650105 0.637900710 0.647607923 0.701016009 0.640155911 0.822116911 0.588365853 0.774210513 0.693556726 0.632860422 0.720836520 0.688179910 0.641165137 0.680366397 0.631991506 0.801856220 0.660770357 0.638243556 0.615022659 0.723001778 0.634782195 0.733512759 0.642970204 0.866915584 0.621354818 0.982240558 0.706106365 0.634590089 0.710757375
arg 0.813911259 0.767156661 0.844047606 0.707792819 0.660200298 0.700007081 0.924999118 0.787221789 0.634058595 0.883125126 0.740313828 0.809314728 0.709704697 0.684410214 0.673145473 0.712113917 0.923224509 0.649325371 0.650085747 0.754128933 0.857704520 0.791073978 0.649825096 0.748254001 0.780692041 0.767536163 0.672005415 0.821865559 0.961907685 0.567095995 0.728881299 0.749010503 0.753695726 0.647272468 0.652284324 0.666495323 0.856099188 0.641956568 0.620877028 0.641391993 0.711347938 0.637191832 0.665712416 0.651149392 0.725290895 0.676692486 0.682132602 0.900881410 0.854840994 0.788315654 0.783365667 0.717535079 0.775019228 0.694432378 0.779509008 0.965504110 0.601452351 0.708892584 0.812768519 0.814834177 0.973933876 0.652887404 0.728866220 0.760083377 0.736512482 0.680127323 0.720635355 0.629634261 0.704047501 0.838983893 1.184366107 0.815650105 0.637900710 0.647607923 0.753770471 0.678622663 0.822116911 0.713258088 0.774210513 1.166904807 0.711608946 0.720836520 0.727178931 0.689158380 0.680366397 0.733021617 0.801856220 0.683032393 0.728699684 0.637960315 0.811006486 0.638567388 0.668500245 0.642970204 0.681761503 0.634415269 0.658762217 0.706106365 0.677753448 0.666431665 0.813911259 0.767156661 0.844047606 0.707792819 0.660200298 0.700007081 0.924999118 0.787221789 0.634058595 0.883125126 0.740313828 0.809314728 0.709704697 0.684410214 0.673145473 0.712113917 0.923224509 0.649325371 0.650085747 0.754128933 0.857704520 0.791073978 0.649825096 0.748254001 0.780692041 0.767536163 0.672005415 0.821865559 0.961907685 0.567095995 0.728881299 0.749010503 0.753695726 0.647272468 0.652284324 0.666495323 0.856099188 0.641956568 0.620877028 0.641391993 0.711347938 0.637191832 0.665712416 0.651149392 0.725290895 0.676692486 0.682132602 0.900881410 0.854840994 0.788315654 0.783365667 0.717535079 0.775019228 0.694432378 0.779509008 0.965504110 0.601452351 0.708892584 0.812768519 0.814834177 0.973933876 0.652887404 0.728866220 0.760083377 0.736512482 0.680127323 0.720635355 0.629634261 0.704047501 0.838983893 1.184366107 0.815650105 0.637900710 0.647607923 0.753770471 0.678622663 0.822116911 0.713258088 0.774210513 1.166904807 0.711608946 0.720836520 0.727178931 0.689158380 0.680366397 0.733021617 0.801856220 0.683032393 0.728699684 0.637960315 0.811006486 0.638567388 0.668500245 0.642970204 0.681761503 0.634415269 0.658762217 0.706106365 0.677753448 0.666431665
arn 0.615582287 0.767156661 0.747096777 0.707792819 0.660200298 0.700007081 0.582293510 0.615637839 0.603049755 0.883125126 0.608849585 0.575664699 0.642513633 0.684410214 0.609717488 0.629551828 0.830029070 0.649325371 0.622451246 0.660520554 0.595022500 0.632801473 0.647974372 0.633729875 0.652001262 0.695659876 0.672005415 0.804416418 0.660844505 0.567095995 0.602334917 0.628097117 0.753695726 0.647272468 0.604554951 0.666495323 0.539277911 0.641956568 0.532957137 0.641391993 0.621368706 0.600861073 0.665712416 0.642084002 0.656202972 0.676692486 0.682132602 0.644742250 0.643942833 0.691765487 0.783365667 0.717535079 0.653144777 0.694432378 0.647118866 0.708041131 0.601452351 0.708892584 0.812768519 0.814834177 0.973933876 0.610755563 0.673822880 0.645333886 0.616877556 0.680127323 0.629213989 0.612536609 0.689943910 0.838983893 0.655932367 0.815650105 0.637900710 0.647607923 0.701016009 0.640155911 0.822116911 0.588365853 0.774210513 0.693556726 0.613801718 0.720836520 0.688179910 0.641165137 0.680366397 0.611317933 0.801856220 0.660770357 0.638243556 0.615022659 0.723001778 0.634782195 0.668500245 0.642970204 0.592329085 0.621354818 0.658762217 0.706106365 0.634590089 0.548216403 0.615582287 0.767156661 0.747096777 0.707792819 0.660200298 0.700007081 0.582293510 0.615637839 0.603049755 0.883125126 0.608849585 0.575664699 0.642513633 0.684410214 0.609717488 0.629551828 0.830029070 0.649325371 0.622451246 0.660520554 0.595022500 0.632801473 0.647974372 0.633729875 0.652001262 0.695659876 0.672005415 0.804416418 0.660844505 0.567095995 0.602334917 0.628097117 0.753695726 0.647272468 0.604554951 0.666495323 0.539277911 0.641956568 0.532957137 0.641391993 0.621368706 0.600861073 0.665712416 0.642084002 0.656202972 0.676692486 0.682132602 0.644742250 0.643942833 0.691765487 0.783365667 0.717535079 0.653144777 0.694432378 0.647118866 0.708041131 0.601452351 0.708892584 0.812768519 0.814834177 0.973933876 0.610755563 0.673822880 0.645333886 0.616877556 0.680127323 0.629213989 0.612536609 0.689943910 0.838983893 0.655932367 0.815650105 0.637900710 0.647607923 0.701016009 0.640155911 0.822116911 0.588365853 0.774210513 0.693556726 0.613801718 0.720836520 0.688179910 0.641165137 0.680366397 0.611317933 0.801856220 0.660770357 0.638243556 0.615022659 0.723001778 0.634782195 0.668500245 0.642970204 0.592329085 0.621354818 0.658762217 0.706106365 0.634590089 0.548216403
ary 0.615582287 0.767156661 0.747096777 0.707792819 0.660200298 0.700007081 0.582293510 0.615637839 0.603049755 0.883125126 0.608849585 0.575664699 0.642513633 0.684410214 0.609717488 0.780917645 0.830029070 0.649325371 0.622451246 0.660520554 0.595022500 0.632801473 0.647974372 0.633729875 0.652001262 0.695659876 0.672005415 0.804416418 0.660844505 0.567095995 0.602334917 0.628097117 0.753695726 0.647272468 0.604554951 0.666495323 0.539277911 0.641956568 0.532957137 0.641391993 0.621368706 0.600861073 0.665712416 0.819537580 0.656202972 0.676692486 0.682132602 0.644742250 0.643942833 0.691765487 0.783365667 0.717535079 0.653144777 0.694432378 0.647118866 0.708041131 0.601452351 0.708892584 0.812768519 0.814834177 0.973933876 0.610755563 0.673822880 0.645333886 0.815519869 0.680127323 0.629213989 0.612536609 0.689943910 0.838983893 0.655932367 0.815650105 0.637900710 0.647607923 0.701016009 0.640155911 0.822116911 0.588365853 0.774210513 0.693556726 0.613801718 0.720836520 0.688179910 0.641165137 0.680366397 0.611317933 0.801856220 0.660770357 0.714353561 0.615022659 0.723001778 0.634782195 0.668500245 0.642970204 0.623801649 0.621354818 0.658762217 0.706106365 0.634590089 0.548216403 0.615582287 0.767156661 0.747096777 0.707792819 0.660200298 0.700007081 0.582293510 0.615637839 0.603049755 0.883125126 0.608849585 0.575664699 0.642513633 0.684410214 0.609717488 0.780917645 0.830029070 0.649325371 0.622451246 0.660520554 0.595022500 0.632801473 0.647974372 0.633729875 0.652001262 0.695659876 0.672005415 0.804416418 0.660844505 0.567095995 0.602334917 0.628097117 0.753695726 0.647272468 0.604554951 0.666495323 0.539277911 0.641956568 0.532957137 0.641391993 0.621368706 0.600861073 0.665712416 0.819537580 0.656202972 0.676692486 0.682132602 0.644742250 0.643942833 0.691765487 0.783365667 0.717535079 0.653144777 0.694432378 0.647118866 0.708041131 0.601452351 0.708892584 0.812768519 0.814834177 0.973933876 0.610755563 0.673822880 0.645333886 0.815519869 0.680127323 0.629213989 0.612536609 0.689943910 0.838983893 0.655932367 0.815650105 0.637900710 0.647607923 0.701016009 0.640155911 0.822116911 0.588365853 0.774210513 0.693556726 0.613801718 0.720836520 0.688179910 0.641165137 0.680366397 0.611317933 0.801856220 0.660770357 0.714353561 0.615022659 0.723001778 0.634782195 0.668500245 0.642970204 0.623801649 0.621354818 0.658762217 0.706106365 0.634590089 0.548216403
arz 0.751665711 0.767156661 0.747096777 0.707792819 0.686521769 0.700007081 0.722705066 0.707503617 1.087998152 0.883125126 0.608849585 0.696519911 0.662525058 0.737919331 0.609717488 0.636039734 0.830029070 0.649325371 0.660407603 0.943570912 0.857704520 0.632801473 0.647974372 0.633729875 0.682869256 0.695659876 0.672005415 0.804416418 0.852390766 0.739795744 0.742700577 0.826049030 0.753695726 0.651818335 0.792219460 0.754123807 0.736153305 0.775011063 0.893773139 0.680913389 0.711347938 0.619419873 0.763892531 0.642084002 0.656202972 0.832916379 0.682132602 0.644742250 0.643942833 0.691765487 0.783365667 0.725819767 0.653144777 0.727927208 0.647118866 0.806040406 0.773410022 0.708892584 0.812768519 0.814834177 0.973933876 0.682457864 0.728866220 0.645333886 0.616877556 0.680127323 0.632700861 0.787030637 0.734127760 0.838983893 1.184366107 0.815650105 0.703383684 0.647607923 0.703706622 0.735643327 0.822116911 0.592892587 0.774210513 1.166904807 0.754913568 0.720836520 0.754675925 0.641165137 0.692661941 0.611317933 0.801856220 0.710818470 0.644033611 0.631851196 0.723001778 0.767499685 0.917706907 0.642970204 0.619470000 0.621354818 0.658762217 0.706106365 0.684304178 0.632945061 0.751665711 0.767156661 0.747096777 0.707792819 0.686521769 0.700007081 0.722705066 0.707503617 1.087998152 0.883125126 0.608849585 0.696519911 0.662525058 0.737919331 0.609717488 0.636039734 0.830029070 0.649325371 0.660407603 0.943570912 0.857704520 0.632801473 0.647974372 0.633729875 0.682869256 0.695659876 0.672005415 0.804416418 0.852390766 0.739795744 0.742700577 0.826049030 0.753695726 0.651818335 0.792219460 0.754123807 0.736153305 0.775011063 0.893773139 0.680913389 0.711347938 0.619419873 0.763892531 0.642084002 0.656202972 0.832916379 0.682132602 0.644742250 0.643942833 0.691765487 0.783365667 0.725819767 0.653144777 0.727927208 0.647118866 0.806040406 0.773410022 0.708892584 0.812768519 0.814834177 0.973933876 0.682457864 0.728866220 0.645333886 0.616877556 0.680127323 0.632700861 0.787030637 0.734127760 0.838983893 1.184366107 0.815650105 0.703383684 0.647607923 0.703706622 0.735643327 0.822116911 0.592892587 0.774210513 1.166904807 0.754913568 0.720836520 0.754675925 0.641165137 0.692661941 0.611317933 0.801856220 0.710818470 0.644033611 0.631851196 0.723001778 0.767499685 0.917706907 0.642970204 0.619470000 0.621354818 0.658762217 0.706106365 0.684304178 0.632945061
asm 0.634697318 0.767156661 0.747096777 0.887729645 0.686521769 0.704467535 0.612674177 0.707503617 0.634058595 0.883125126 0.907735050 0.809314728 0.662525058 0.703981996 0.809003532 0.640864670 0.830029070 0.814536572 0.724296689 0.660520554 0.857704520 0.681093514 0.763290703 0.633729875 0.702284932 0.767536163 0.706543326 0.821865559 0.744588077 0.597861767 0.640743852 0.628097117 0.753695726 0.647272468 0.812681198 0.701560140 0.662086010 0.704970062 0.618642509 0.641391993 0.632283926 0.600861073 0.665712416 0.642084002 0.656202972 0.854593277 0.682132602 0.644742250 0.643942833 0.704685092 0.869978309 0.717535079 0.653144777 0.768393755 0.647118866 0.708041131 0.601452351 0.708892584 0.812768519 0.814834177 0.973933876 0.624115527 0.728866220 0.724599540 0.736512482 0.680127323 0.632700861 0.730978251 0.704047501 0.838983893 1.184366107 0.815650105 0.653383255 0.647914648 0.701016009 0.956181765 0.891235292 0.660555422 0.774210513 1.166904807 0.621438980 0.720836520 0.735599458 0.641165137 0.680366397 0.733021617 0.801856220 0.715668917 1.068995476 0.679063737 0.752581179 0.767499685 0.917706907 0.642970204 0.693822622 0.686118424 0.658762217 0.706106365 0.634590089 0.571735680 0.634697318 0.767156661 0.747096777 0.887729645 0.686521769 0.704467535 0.612674177 0.707503617 0.634058595 0.883125126 0.907735050 0.809314728 0.662525058 0.703981996 0.809003532 0.640864670 0.830029070 0.814536572 0.724296689 0.660520554 0.857704520 0.681093514 0.763290703 0.633729875 0.702284932 0.767536163 0.706543326 0.821865559 0.744588077 0.597861767 0.640743852 0.628097117 0.753695726 0.647272468 0.812681198 0.701560140 0.662086010 0.704970062 0.618642509 0.641391993 0.632283926 0.600861073 0.665712416 0.642084002 0.656202972 0.854593277 0.682132602 0.644742250 0.643942833 0.704685092 0.869978309 0.717535079 0.653144777 0.768393755 0.647118866 0.708041131 0.601452351 0.708892584 0.812768519 0.814834177 0.973933876 0.624115527 0.728866220 0.724599540 0.736512482 0.680127323 0.632700861 0.730978251 0.704047501 0.838983893 1.184366107 0.815650105 0.653383255 0.647914648 0.701016009 0.956181765 0.891235292 0.660555422 0.774210513 1.166904807 0.621438980 0.720836520 0.735599458 0.641165137 0.680366397 0.733021617 0.801856220 0.715668917 1.068995476 0.679063737 0.752581179 0.767499685 0.917706907 0.642970204 0.693822622 0.686118424 0.658762217 0.706106365 0.634590089 0.571735680
ast 0.813911259 0.767156661 0.844047606 0.850909889 0.875990927 0.981968820 0.937214434 0.890857637 0.677294552 0.883125126 0.728710473 0.809314728 0.846772194 0.737919331 0.906445622 0.992373526 0.830029070 0.815077424 0.951922834 0.943570912 0.836881936 0.822556794 0.669417202 0.843779266 0.780692041 0.955701768 0.765913844 0.821865559 0.961907685 0.779242635 0.892992020 0.753508866 0.753695726 0.908586204 0.739923179 0.894443691 0.700207651 0.769800186 1.026399732 0.793207049 0.815544963 0.877074659 0.748487473 0.819537580 0.934790134 0.831614435 0.834014416 0.829487801 0.797424078 0.767447770 0.783365667 0.988304436 0.795611680 0.864235103 0.768126190 0.782198906 0.915109038 0.821410835 0.812768519 0.929255784 0.973933876 0.913220167 0.875388741 0.831413031 0.815519869 0.771972895 0.755635679 0.744709611 0.734127760 0.838983893 0.902739108 1.170384049 0.859033883 1.001052380 0.701016009 0.758805871 0.891235292 0.713258088 0.774210513 0.751822889 0.751724124 0.906660140 0.952149391 0.799098670 0.776429474 0.737178087 0.801856220 0.663415968 0.728699684 0.677164018 0.809706807 0.866422653 0.917706907 0.874253750 0.716447234 0.844651222 0.982240558 0.807701826 1.116151690 0.719203055 0.813911259 0.767156661 0.844047606 0.850909889 0.875990927 0.981968820 0.937214434 0.890857637 0.677294552 0.883125126 0.728710473 0.809314728 0.846772194 0.737919331 0.906445622 0.992373526 0.830029070 0.815077424 0.951922834 0.943570912 0.836881936 0.822556794 0.669417202 0.843779266 0.780692041 0.955701768 0.765913844 0.821865559 0.961907685 0.779242635 0.892992020 0.753508866 0.753695726 0.908586204 0.739923179 0.894443691 0.700207651 0.769800186 1.026399732 0.793207049 0.815544963 0.877074659 0.748487473 0.819537580 0.934790134 0.831614435 0.834014416 0.829487801 0.797424078 0.767447770 0.783365667 0.988304436 0.795611680 0.864235103 0.768126190 0.782198906 0.915109038 0.821410835 0.812768519 0.929255784 0.973933876 0.913220167 0.875388741 0.831413031 0.815519869 0.771972895 0.755635679 0.744709611 0.734127760 0.838983893 0.902739108 1.170384049 0.859033883 1.001052380 0.701016009 0.758805871 0.891235292 0.713258088 0.774210513 0.751822889 0.751724124 0.906660140 0.952149391 0.799098670 0.776429474 0.737178087 0.801856220 0.663415968 0.728699684 0.677164018 0.809706807 0.866422653 0.917706907 0.874253750 0.716447234 0.844651222 0.982240558 0.807701826 1.116151690 0.719203055
atj 0.615582287 0.767156661 0.747096777 0.707792819 0.660200298 0.700007081 0.582293510 0.615637839 0.603049755 0.883125126 0.608849585 0.575664699 0.642513633 0.684410214 0.609717488 0.629551828 0.830029070 0.649325371 0.622451246 0.660520554 0.595022500 0.632801473 0.647974372 0.633729875 0.652001262 0.695659876 0.672005415 0.804416418 0.660844505 0.567095995 0.602334917 0.628097117 0.753695726 0.647272468 0.604554951 0.666495323 0.539277911 0.641956568 0.532957137 0.641391993 0.621368706 0.600861073 0.665712416 0.642084002 0.656202972 0.676692486 0.682132602 0.644742250 0.643942833 0.691765487 0.783365667 0.717535079 0.653144777 0.694432378 0.647118866 0.708041131 0.601452351 0.708892584 0.812768519 0.814834177 0.973933876 0.610755563 0.673822880 0.645333886 0.616877556 0.680127323 0.629213989 0.612536609 0.689943910 0.838983893 0.655932367 0.815650105 0.637900710 0.647607923 0.701016009 0.640155911 0.822116911 0.588365853 0.774210513 0.693556726 0.613801718 0.720836520 0.688179910 0.641165137 0.680366397 0.611317933 0.801856220 0.660770357 0.638243556 0.615022659 0.723001778 0.634782195 0.668500245 0.642970204 0.592329085 0.621354818 0.658762217 0.706106365 0.634590089 0.548216403 0.615582287 0.767156661 0.747096777 0.707792819 0.660200298 0.700007081 0.582293510 0.615637839 0.603049755 0.883125126 0.608849585 0.575664699 0.642513633 0.684410214 0.609717488 0.629551828 0.830029070 0.649325371 0.622451246 0.660520554 0.595022500 0.632801473 0.647974372 0.633729875 0.652001262 0.695659876 0.672005415 0.804416418 0.660844505 0.567095995 0.602334917 0.628097117 0.753695726 0.647272468 0.604554951 0.666495323 0.539277911 0.641956568 0.532957137 0.641391993 0.621368706 0.600861073 0.665712416 0.642084002 0.656202972 0.676692486 0.682132602 0.644742250 0.643942833 0.691765487 0.783365667 0.717535079 0.653144777 0.694432378 0.647118866 0.708041131 0.601452351 0.708892584 0.812768519 0.814834177 0.973933876 0.610755563 0.673822880 0.645333886 0.616877556 0.680127323 0.629213989 0.612536609 0.689943910 0.838983893 0.655932367 0.815650105 0.637900710 0.647607923 0.701016009 0.640155911 0.822116911 0.588365853 0.774210513 0.693556726 0.613801718 0.720836520 0.688179910 0.641165137 0.680366397 0.611317933 0.801856220 0.660770357 0.638243556 0.615022659 0.723001778 0.634782195 0.668500245 0.642970204 0.592329085 0.621354818 0.658762217 0.706106365 0.634590089 0.548216403
ava 0.667934179 0.767156661 0.747096777 0.707792819 0.660200298 0.700007081 0.582293510 0.615637839 0.646472812 0.883125126 0.608849585 0.575664699 0.642513633 0.684410214 0.609717488 0.629551828 0.830029070 0.649325371 0.678889811 0.660520554 0.595022500 0.632801473 0.647974372 0.633729875 0.652001262 0.695659876 0.694362640 0.804416418 0.660844505 0.597861767 0.602334917 0.666174233 0.753695726 0.647272468 0.604554951 0.701560140 0.662086010 0.673942327 0.532957137 0.641391993 0.621368706 0.600861073 0.665712416 0.642084002 0.656202972 0.676692486 0.682132602 0.644742250 0.643942833 0.691765487 0.783365667 0.717535079 0.653144777 0.694432378 0.647118866 0.749150515 0.601452351 0.708892584 0.812768519 0.814834177 0.973933876 0.610755563 0.673822880 0.645333886 0.685161948 0.680127323 0.629213989 0.730978251 0.689943910 0.838983893 0.682032943 0.815650105 0.637900710 0.647607923 0.701016009 0.640155911 0.822116911 0.588365853 0.774210513 0.693556726 0.621438980 0.720836520 0.688179910 0.641165137 0.680366397 0.689680338 0.801856220 0.767023444 0.638243556 0.615022659 0.723001778 0.767499685 0.917706907 0.642970204 0.592329085 0.621354818 0.658762217 0.706106365 0.654047668 0.548216403 0.667934179 0.767156661 0.747096777 0.707792819 0.660200298 0.700007081 0.582293510 0.615637839 0.646472812 0.883125126 0.608849585 0.575664699 0.642513633 0.684410214 0.609717488 0.629551828 0.830029070 0.649325371 0.678889811 0.660520554 0.595022500 0.632801473 0.647974372 0.633729875 0.652001262 0.695659876 0.694362640 0.804416418 0.660844505 0.597861767 0.602334917 0.666174233 0.753695726 0.647272468 0.604554951 0.701560140 0.662086010 0.673942327 0.532957137 0.641391993 0.621368706 0.600861073 0.665712416 0.642084002 0.656202972 0.676692486 0.682132602 0.644742250 0.643942833 0.691765487 0.783365667 0.717535079 0.653144777 0.694432378 0.647118866 0.749150515 0.601452351 0.708892584 0.812768519 0.814834177 0.973933876 0.610755563 0.673822880 0.645333886 0.685161948 0.680127323 0.629213989 0.730978251 0.689943910 0.838983893 0.682032943 0.815650105 0.637900710 0.647607923 0.701016009 0.640155911 0.822116911 0.588365853 0.774210513 0.693556726 0.621438980 0.720836520 0.688179910 0.641165137 0.680366397 0.689680338 0.801856220 0.767023444 0.638243556 0.615022659 0.723001778 0.767499685 0.917706907 0.642970204 0.592329085 0.621354818 0.658762217 0.706106365 0.654047668 0.548216403
ave 0.615582287 0.767156661 0.747096777 0.707792819 0.660200298 0.700007081 0.582293510 0.615637839 0.603049755 0.883125126 0.608849585 0.575664699 0.642513633 0.684410214 0.609717488 0.629551828 0.830029070 0.649325371 0.622451246 0.660520554 0.595022500 0.632801473 0.647974372 0.633729875 0.652001262 0.695659876 0.672005415 0.804416418 0.660844505 0.567095995 0.602334917 0.628097117 0.753695726 0.647272468 0.604554951 0.666495323 0.539277911 0.641956568 0.532957137 0.641391993 0.621368706 0.600861073 0.665712416 0.642084002 0.656202972 0.676692486 0.682132602 0.644742250 0.643942833 0.691765487 0.783365667 0.717535079 0.653144777 0.694432378 0.647118866 0.708041131 0.601452351 0.708892584 0.812768519 0.814834177 0.973933876 0.610755563 0.673822880 0.645333886 0.616877556 0.680127323 0.629213989 0.612536609 0.689943910 0.838983893 0.655932367 0.815650105 0.637900710 0.647607923 0.701016009 0.640155911 0.822116911 0.588365853 0.774210513 0.693556726 0.613801718 0.720836520 0.688179910 0.641165137 0.680366397 0.611317933 0.801856220 0.660770357 0.638243556 0.615022659 0.723001778 0.634782195 0.668500245 0.642970204 0.592329085 0.621354818 0.658762217 0.706106365 0.634590089 0.548216403 0.615582287 0.767156661 0.747096777 0.707792819 0.660200298 0.700007081 0.582293510 0.615637839 0.603049755 0.883125126 0.608849585 0.575664699 0.642513633 0.684410214 0.609717488 0.629551828 0.830029070 0.649325371 0.622451246 0.660520554 0.595022500 0.632801473 0.647974372 0.633729875 0.652001262 0.695659876 0.672005415 0.804416418 0.660844505 0.567095995 0.602334917 0.628097117 0.753695726 0.647272468 0.604554951 0.666495323 0.539277911 0.641956568 0.532957137 0.641391993 0.621368706 0.600861073 0.665712416 0.642084002 0.656202972 0.676692486 0.682132602 0.644742250 0.643942833 0.691765487 0.783365667 0.717535079 0.653144777 0.694432378 0.647118866 0.708041131 0.601452351 0.708892584 0.812768519 0.814834177 0.973933876 0.610755563 0.673822880 0.645333886 0.616877556 0.680127323 0.629213989 0.612536609 0.689943910 0.838983893 0.655932367 0.815650105 0.637900710 0.647607923 0.701016009 0.640155911 0.822116911 0.588365853 0.774210513 0.693556726 0.613801718 0.720836520 0.688179910 0.641165137 0.680366397 0.611317933 0.801856220 0.660770357 0.638243556 0.615022659 0.723001778 0.634782195 0.668500245 0.642970204 0.592329085 0.621354818 0.658762217 0.706106365 0.634590089 0.548216403
axm 0.615582287 0.767156661 0.747096777 0.707792819 0.660200298 0.700007081 0.582293510 0.615637839 0.603049755 0.883125126 0.608849585 0.575664699 0.642513633 0.684410214 0.609717488 0.629551828 0.830029070 0.649325371 0.622451246 0.660520554 0.595022500 0.632801473 0.647974372 0.633729875 0.652001262 0.695659876 0.672005415 0.804416418 0.660844505 0.567095995 0.602334917 0.628097117 0.753695726 0.647272468 0.604554951 0.666495323 0.539277911 0.641956568 0.532957137 0.641391993 0.621368706 0.600861073 0.665712416 0.642084002 0.656202972 0.676692486 0.682132602 0.644742250 0.643942833 0.691765487 0.783365667 0.717535079 0.653144777 0.694432378 0.647118866 0.708041131 0.601452351 0.708892584 0.812768519 0.814834177 0.973933876 0.610755563 0.673822880 0.645333886 0.616877556 0.680127323 0.629213989 0.612536609 0.689943910 0.838983893 0.655932367 0.815650105 0.637900710 0.647607923 0.701016009 0.640155911 0.822116911 0.588365853 0.774210513 0.693556726 0.613801718 0.720836520 0.688179910 0.641165137 0.680366397 0.611317933 0.801856220 0.660770357 0.638243556 0.615022659 0.723001778 0.634782195 0.668500245 0.642970204 0.592329085 0.621354818 0.658762217 0.706106365 0.634590089 0.548216403 0.615582287 0.767156661 0.747096777 0.707792819 0.660200298 0.700007081 0.582293510 0.615637839 0.603049755 0.883125126 0.608849585 0.575664699 0.642513633 0.684410214 0.609717488 0.629551828 0.830029070 0.649325371 0.622451246 0.660520554 0.595022500 0.632801473 0.647974372 0.633729875 0.652001262 0.695659876 0.672005415 0.804416418 0.660844505 0.567095995 0.602334917 0.628097117 0.753695726 0.647272468 0.604554951 0.666495323 0.539277911 0.641956568 0.532957137 0.641391993 0.621368706 0.600861073 0.665712416 0.642084002 0.656202972 0.676692486 0.682132602 0.644742250 0.643942833 0.691765487 0.783365667 0.717535079 0.653144777 0.694432378 0.647118866 0.708041131 0.601452351 0.708892584 0.812768519 0.814834177 0.973933876 0.610755563 0.673822880 0.645333886 0.616877556 0.680127323 0.629213989 0.612536609 0.689943910 0.838983893 0.655932367 0.815650105 0.637900710 0.647607923 0.701016009 0.640155911 0.822116911 0.588365853 0.774210513 0.693556726 0.613801718 0.720836520 0.688179910 0.641165137 0.680366397 0.611317933 0.801856220 0.660770357 0.638243556 0.615022659 0.723001778 0.634782195 0.668500245 0.642970204 0.592329085 0.621354818 0.658762217 0.706106365 0.634590089 0.548216403
aym 0.667934179 0.767156661 0.747096777 0.707792819 0.774842501 0.700007081 0.582293510 0.822411537 0.603049755 0.883125126 0.740313828 0.575664699 0.642513633 0.684410214 0.609717488 0.629551828 0.830029070 0.649325371 0.622451246 0.660520554 0.707987547 0.632801473 0.647974372 0.633729875 0.652001262 0.695659876 0.687474966 0.804416418 0.660844505 0.567095995 0.602334917 0.753508866 0.753695726 0.647272468 0.604554951 0.666495323 0.539277911 0.641956568 0.602335453 0.641391993 0.661002457 0.600861073 0.665712416 0.642084002 0.656202972 0.676692486 0.682132602 0.644742250 0.643942833 0.691765487 0.783365667 0.717535079 0.653144777 0.694432378 0.657019377 0.708041131 0.872420311 0.746392250 0.812768519 0.814834177 0.973933876 0.610755563 0.673822880 0.645333886 0.616877556 0.680127323 0.738657594 0.612536609 0.689943910 0.838983893 0.682032943 0.815650105 0.637900710 0.647607923 0.701016009 0.640155911 0.822116911 0.588365853 0.774210513 0.693556726 0.613801718 0.720836520 0.688179910 0.641165137 0.680366397 0.611317933 0.801856220 0.660770357 0.638243556 0.615022659 0.723001778 0.634782195 0.668500245 0.642970204 0.592329085 0.686118424 0.658762217 0.706106365 0.634590089 0.548216403 0.667934179 0.767156661 0.747096777 0.707792819 0.774842501 0.700007081 0.582293510 0.822411537 0.603049755 0.883125126 0.740313828 0.575664699 0.642513633 0.684410214 0.609717488 0.629551828 0.830029070 0.649325371 0.622451246 0.660520554 0.707987547 0.632801473 0.647974372 0.633729875 0.652001262 0.695659876 0.687474966 0.804416418 0.660844505 0.567095995 0.602334917 0.753508866 0.753695726 0.647272468 0.604554951 0.666495323 0.539277911 0.641956568 0.602335453 0.641391993 0.661002457 0.600861073 0.665712416 0.642084002 0.656202972 0.676692486 0.682132602 0.644742250 0.643942833 0.691765487 0.783365667 0.717535079 0.653144777 0.694432378 0.657019377 0.708041131 0.872420311 0.746392250 0.812768519 0.814834177 0.973933876 0.610755563 0.673822880 0.645333886 0.616877556 0.680127323 0.738657594 0.612536609 0.689943910 0.838983893 0.682032943 0.815650105 0.637900710 0.647607923 0.701016009 0.640155911 0.822116911 0.588365853 0.774210513 0.693556726 0.613801718 0.720836520 0.688179910 0.641165137 0.680366397 0.611317933 0.801856220 0.660770357 0.638243556 0.615022659 0.723001778 0.634782195 0.668500245 0.642970204 0.592329085 0.686118424 0.658762217 0.706106365 0.634590089 0.548216403
azb 0.615582287 0.767156661 0.747096777 0.707792819 0.660200298 0.700007081 0.582293510 0.615637839 0.603049755 0.883125126 0.608849585 0.696519911 0.642513633 0.684410214 0.609717488 0.648269773 0.830029070 0.649325371 0.622451246 0.660520554 0.595022500 0.632801473 0.647974372 0.984611392 0.652001262 0.695659876 0.672005415 0.804416418 0.660844505 0.567095995 0.602334917 0.633810997 0.753695726 0.651818335 1.033980370 0.709193885 0.856099188 0.641956568 0.577930868 0.710683346 0.621368706 0.764154673 0.665712416 0.642084002 0.656202972 0.676692486 0.682132602 0.644742250 0.643942833 0.691765487 0.783365667 0.717535079 0.653144777 0.694432378 0.665557027 0.708041131 0.613908112 0.708892584 0.812768519 0.814834177 0.973933876 0.610755563 0.673822880 0.645333886 0.616877556 0.680127323 0.629213989 0.642930150 0.704047501 0.838983893 0.663838029 0.815650105 0.637900710 0.647607923 0.701016009 0.735643327 0.822116911 0.592892587 0.774210513 0.693556726 0.613801718 0.720836520 0.688179910 0.716343284 0.680366397 0.764792204 0.801856220 0.660770357 0.638243556 0.615022659 0.723001778 0.634782195 0.668500245 0.642970204 0.592329085 0.621354818 0.658762217 0.706106365 0.634590089 0.647645772 0.615582287 0.767156661 0.747096777 0.707792819 0.660200298 0.700007081 0.582293510 0.615637839 0.603049755 0.883125126 0.608849585 0.696519911 0.642513633 0.684410214 0.609717488 0.648269773 0.830029070 0.649325371 0.622451246 0.660520554 0.595022500 0.632801473 0.647974372 0.984611392 0.652001262 0.695659876 0.672005415 0.804416418 0.660844505 0.567095995 0.602334917 0.633810997 0.753695726 0.651818335 1.033980370 0.709193885 0.856099188 0.641956568 0.577930868 0.710683346 0.621368706 0.764154673 0.665712416 0.642084002 0.656202972 0.676692486 0.682132602 0.644742250 0.643942833 0.691765487 0.783365667 0.717535079 0.653144777 0.694432378 0.665557027 0.708041131 0.613908112 0.708892584 0.812768519 0.814834177 0.973933876 0.610755563 0.673822880 0.645333886 0.616877556 0.680127323 0.629213989 0.642930150 0.704047501 0.838983893 0.663838029 0.815650105 0.637900710 0.647607923 0.701016009 0.735643327 0.822116911 0.592892587 0.774210513 0.693556726 0.613801718 0.720836520 0.688179910 0.716343284 0.680366397 0.764792204 0.801856220 0.660770357 0.638243556 0.615022659 0.723001778 0.634782195 0.668500245 0.642970204 0.592329085 0.621354818 0.658762217 0.706106365 0.634590089 0.647645772
