519 200
aar 1.128494501 1.308311462 1.866672277 1.125082850 0.823414922 0.976974130 0.636647046 1.120960951 1.146676898 0.806892335 0.825989962 0.716604471 0.333040833 1.197746277 1.628382802 0.910123408 1.380250573 0.600205958 1.109170794 0.735503852 0.929429650 0.970016181 1.545977592 1.051630974 1.819218874 0.520301759 0.924221337 1.307617307 0.623771906 1.020266414 1.184293866 0.971172392 0.603963733 0.896486044 1.248652220 0.732543766 1.105128169 1.047209144 1.057057261 0.932187557 1.535807014 0.723114550 0.902047217 0.937050939 0.939773619 1.586168885 0.668538570 1.513723731 0.723966897 2.076734304 0.753379822 0.895313501 0.367059439 0.569531500 0.995687902 1.245051265 1.871682405 1.126917124 1.213122487 1.613024473 1.155284286 1.562975883 0.560129404 1.068807364 1.221583486 0.631197453 1.245974898 1.259452224 0.907301247 1.490825653 1.238659739 0.669747233 0.918747485 0.630807936 0.492707342 0.693432152 1.377230525 0.944035769 1.047194958 1.508158565 0.874892652 0.803572178 1.091580391 1.000937462 1.129350662 0.824998796 0.687676549 1.476452470 1.620388389 1.105820775 0.918321013 0.652282834 1.021452546 1.385945797 1.888804793 1.135901332 1.371434093 1.593377233 1.961892247 1.333880901 1.128494501 1.372668505 1.427506804 1.021582365 0.677876890 1.377774835 0.566747010 1.205486894 1.127641559 1.121235371 1.115961432 0.718283951 0.432496756 1.263000488 1.601800442 1.215612173 1.125583887 0.882683337 1.426766992 1.260022402 0.974404395 0.842386425 1.422829509 1.183014989 1.516715884 0.580662489 1.073268175 1.224858880 0.698483467 1.090213776 1.258692980 1.162446022 0.603695393 0.912895799 1.103956819 1.101542234 1.106310010 1.616126060 0.893946230 1.072829604 1.277139783 0.724901497 0.528955102 0.817227244 0.945659399 1.054408431 0.803977430 1.297325730 0.510949194 2.088262796 0.768915296 0.433538914 0.486155033 0.810596883 1.413872004 1.010977626 1.871682405 1.137964725 0.991075873 1.314321518 1.155284286 2.079472065 0.653628051 1.384913325 1.158811808 1.048639059 1.271507978 1.199787855 0.893403649 1.207654953 0.932862580 0.712136090 1.378279448 0.647781968 0.397580385 0.693432152 1.434077978 1.021891952 0.894996524 1.520433187 0.978159785 0.544162512 1.063401341 1.388648033 0.909200490 1.072628498 0.817063987 1.588282228 1.335471511 1.097719193 0.797178209 0.653293610 1.361237884 1.197844505 1.520692825 1.338405371 1.202209949 0.670332134 1.175862551 1.333880901
abe 1.128494501 1.308311462 1.866672277 1.125082850 0.823414922 0.976974130 0.636647046 1.120960951 1.146676898 0.806892335 0.825989962 0.716604471 0.333040833 1.197746277 1.628382802 0.910123408 1.380250573 0.600205958 1.109170794 0.735503852 0.929429650 0.970016181 1.545977592 1.051630974 1.819218874 0.520301759 0.924221337 1.307617307 0.623771906 1.020266414 1.184293866 0.971172392 0.603963733 0.896486044 1.248652220 0.732543766 1.105128169 1.047209144 1.057057261 0.948353231 1.535807014 0.723114550 0.902047217 0.937050939 0.939773619 1.586168885 0.668538570 1.513723731 0.723966897 2.076734304 0.753379822 0.895313501 0.367059439 0.569531500 0.995687902 1.245051265 1.871682405 1.126917124 1.213122487 1.613024473 1.155284286 1.562975883 0.560129404 1.068807364 1.221583486 0.631197453 1.245974898 1.259452224 0.907301247 1.490825653 1.238659739 0.669747233 0.918747485 0.630807936 0.492707342 0.693432152 1.377230525 0.944035769 1.047194958 1.508158565 0.874892652 0.803572178 1.091580391 1.000937462 1.129350662 0.824998796 0.687676549 1.476452470 1.620388389 1.105820775 0.918321013 0.652282834 1.021452546 1.385945797 1.888804793 1.135901332 1.371434093 1.593377233 1.961892247 1.333880901 1.128494501 1.372668505 1.427506804 1.021582365 0.677876890 1.377774835 0.566747010 1.205486894 1.127641559 1.121235371 1.115961432 0.718283951 0.432496756 1.263000488 1.601800442 1.215612173 1.125583887 0.882683337 1.426766992 1.260022402 0.974404395 0.842386425 1.422829509 1.183014989 1.516715884 0.580662489 1.073268175 1.224858880 0.698483467 1.090213776 1.258692980 1.162446022 0.603695393 0.912895799 1.103956819 1.101542234 1.106310010 1.616126060 0.893946230 1.072829604 1.277139783 0.724901497 0.528955102 0.817227244 0.945659399 1.054408431 0.803977430 1.297325730 0.510949194 2.088262796 0.768915296 0.433538914 0.486155033 0.810596883 1.413872004 1.010977626 1.871682405 1.137964725 0.991075873 1.314321518 1.155284286 2.079472065 0.653628051 1.384913325 1.158811808 1.048639059 1.271507978 1.199787855 0.893403649 1.207654953 0.932862580 0.712136090 1.378279448 0.647781968 0.397580385 0.693432152 1.434077978 1.021891952 0.894996524 1.520433187 0.978159785 0.544162512 1.063401341 1.388648033 0.909200490 1.072628498 0.817063987 1.588282228 1.335471511 1.097719193 0.797178209 0.653293610 1.361237884 1.197844505 1.520692825 1.338405371 1.202209949 0.670332134 1.175862551 1.333880901
abk 1.128494501 1.308311462 1.866672277 1.337910295 0.823414922 0.976974130 0.636647046 1.428273201 1.146676898 0.806892335 0.825989962 0.716604471 0.333040833 1.197746277 1.628382802 1.062867880 1.380250573 0.836287320 1.109170794 0.735503852 0.929429650 0.970016181 1.545977592 1.051630974 1.819218874 0.600213468 0.924221337 1.307617307 0.623771906 1.020266414 1.184293866 0.971172392 0.603963733 0.896486044 1.248652220 0.732543766 1.105128169 1.047209144 1.057057261 0.932187557 1.535807014 0.723114550 0.902047217 0.937050939 0.939773619 1.586168885 0.668538570 1.513723731 0.723966897 2.076734304 0.753379822 0.895313501 0.619077504 0.663083792 0.995687902 1.245051265 1.871682405 1.126917124 1.213122487 1.613024473 1.155284286 1.562975883 0.560129404 1.068807364 1.275659800 0.631197453 1.245974898 1.259452224 0.907301247 1.510299206 1.238659739 0.669747233 0.918747485 0.630807936 0.492707342 0.693432152 1.377230525 0.944035769 1.047194958 1.508158565 0.874892652 0.803572178 1.091580391 1.000937462 1.129350662 1.006833315 0.687676549 1.476452470 1.620388389 1.105820775 0.918321013 0.652282834 1.029283524 1.385945797 1.888804793 1.502790689 1.371434093 1.593377233 1.961892247 1.333880901 1.128494501 1.737738252 1.427506804 1.021582365 0.924068928 1.377774835 0.566747010 1.205486894 1.127641559 1.121235371 1.115961432 0.718283951 0.432496756 1.263000488 1.786560297 1.215612173 1.125583887 0.882683337 1.426766992 1.260022402 0.974404395 0.842386425 1.422829509 1.183014989 1.516715884 0.580662489 1.073268175 1.224858880 0.698483467 1.090213776 1.258692980 1.162446022 0.603695393 0.988167226 1.103956819 1.101542234 1.106310010 1.616126060 0.893946230 1.072829604 1.277139783 0.724901497 0.528955102 0.817227244 0.945659399 1.054408431 0.803977430 1.297325730 1.027211666 2.088262796 0.768915296 0.433538914 0.486155033 0.810596883 1.413872004 1.010977626 1.871682405 1.200236320 0.991075873 1.314321518 1.155284286 2.079472065 0.653628051 1.384913325 1.158811808 1.048639059 1.271507978 1.199787855 0.893403649 1.443648100 0.932862580 0.712136090 1.378279448 0.647781968 0.397580385 0.693432152 1.434077978 1.021891952 0.907504976 1.520433187 0.978159785 0.544162512 1.063401341 1.388648033 0.909200490 1.072628498 0.817063987 1.588282228 1.335471511 1.097719193 0.891377330 0.653293610 1.361237884 1.197844505 1.520692825 1.338405371 1.230689406 0.741465330 1.175862551 1.333880901
abq 1.128494501 1.308311462 1.866672277 1.125082850 0.823414922 0.976974130 0.636647046 1.120960951 1.146676898 0.806892335 0.825989962 0.716604471 0.333040833 1.197746277 1.628382802 0.910123408 1.380250573 0.600205958 1.109170794 0.735503852 0.929429650 0.970016181 1.545977592 1.051630974 1.819218874 0.520301759 0.924221337 1.307617307 0.623771906 1.020266414 1.184293866 0.971172392 0.603963733 0.896486044 1.248652220 0.732543766 1.105128169 1.047209144 1.057057261 0.932187557 1.535807014 0.723114550 0.902047217 0.937050939 0.939773619 1.586168885 0.668538570 1.513723731 0.723966897 2.076734304 0.753379822 0.895313501 0.367059439 0.569531500 0.995687902 1.245051265 1.871682405 1.126917124 1.213122487 1.613024473 1.155284286 1.562975883 0.560129404 1.068807364 1.221583486 0.710952878 1.245974898 1.259452224 0.907301247 1.490825653 1.238659739 0.669747233 0.918747485 0.630807936 0.492707342 0.693432152 1.377230525 0.944035769 1.047194958 1.508158565 0.874892652 0.803572178 1.091580391 1.000937462 1.129350662 0.824998796 0.687676549 1.476452470 1.620388389 1.105820775 0.918321013 0.652282834 1.021452546 1.385945797 1.888804793 1.135901332 1.371434093 1.593377233 1.961892247 1.333880901 1.128494501 1.372668505 1.427506804 1.021582365 0.677876890 1.377774835 0.566747010 1.205486894 1.127641559 1.121235371 1.115961432 0.718283951 0.432496756 1.263000488 1.601800442 1.215612173 1.125583887 0.882683337 1.426766992 1.260022402 0.974404395 0.842386425 1.422829509 1.183014989 1.516715884 0.580662489 1.073268175 1.224858880 0.698483467 1.090213776 1.258692980 1.162446022 0.603695393 0.912895799 1.103956819 1.101542234 1.106310010 1.616126060 0.893946230 1.072829604 1.277139783 0.724901497 0.528955102 0.817227244 0.945659399 1.054408431 0.803977430 1.297325730 0.510949194 2.088262796 0.768915296 0.433538914 0.486155033 0.810596883 1.413872004 1.010977626 1.871682405 1.137964725 0.991075873 1.314321518 1.155284286 2.079472065 0.653628051 1.384913325 1.158811808 1.048639059 1.271507978 1.199787855 0.893403649 1.207654953 0.932862580 0.712136090 1.378279448 0.647781968 0.397580385 0.693432152 1.434077978 1.021891952 0.894996524 1.520433187 0.978159785 0.544162512 1.063401341 1.388648033 0.909200490 1.072628498 0.817063987 1.588282228 1.335471511 1.097719193 0.797178209 0.653293610 1.361237884 1.197844505 1.555366635 1.338405371 1.202209949 0.670332134 1.175862551 1.333880901
ace 1.156026959 1.308311462 1.866672277 1.125082850 0.823414922 0.976974130 0.636647046 1.120960951 1.411627769 0.806892335 0.825989962 0.716604471 0.387308151 1.314812779 1.628382802 0.910123408 1.380250573 0.757723868 1.241100550 0.743995607 0.929429650 0.970016181 1.545977592 1.051630974 1.819218874 0.520301759 0.924221337 1.307617307 0.623771906 1.020266414 1.184293866 0.971172392 0.603963733 0.943416119 1.248652220 0.732543766 1.105128169 1.047209144 1.057057261 1.057070732 1.535807014 1.069011211 0.902047217 0.937050939 0.939773619 1.586168885 0.668538570 1.513723731 0.723966897 2.076734304 0.753379822 0.895313501 0.367059439 0.569531500 0.995687902 1.245051265 1.871682405 1.126917124 1.213122487 1.613024473 1.155284286 1.562975883 0.826078594 1.068807364 1.221583486 0.631197453 1.245974898 1.259452224 1.258909702 1.490825653 1.238659739 0.669747233 0.918747485 0.630807936 0.492707342 0.809129655 1.377230525 0.944035769 1.047194958 1.508158565 0.874892652 0.803572178 1.091580391 1.000937462 1.129350662 0.824998796 0.687676549 1.476452470 1.620388389 1.105820775 0.926229775 0.652282834 1.021452546 1.385945797 1.888804793 1.135901332 1.371434093 1.593377233 1.961892247 1.333880901 1.128494501 1.372668505 1.427506804 1.021582365 0.746094108 1.377774835 0.566747010 1.205486894 1.127641559 1.121235371 1.115961432 0.848504663 0.432496756 1.263000488 1.692577600 1.215612173 1.125583887 0.882683337 1.426766992 1.260022402 0.974404395 1.070644855 1.482354999 1.183014989 1.516715884 0.580662489 1.073268175 1.224858880 0.698483467 1.090213776 1.258692980 1.162446022 0.603695393 0.961665690 1.201185703 1.101542234 1.106310010 1.788285851 1.050831199 1.072829604 1.277139783 0.724901497 0.528955102 0.817227244 1.087844968 1.054408431 0.803977430 1.297325730 0.511353552 2.088262796 0.768915296 0.433538914 0.486155033 0.810596883 1.413872004 1.010977626 1.871682405 1.137964725 0.991075873 1.314321518 1.155284286 2.079472065 0.653628051 1.384913325 1.158811808 1.048639059 1.271507978 1.281030536 0.893403649 1.207654953 0.932862580 0.712136090 1.378279448 0.647781968 0.397580385 0.958111525 1.434077978 1.021891952 0.894996524 1.520433187 0.978159785 0.771422267 1.063401341 1.388648033 1.226159692 1.144978046 0.817063987 1.588282228 1.335471511 1.142717242 0.797178209 0.724756420 1.361237884 1.197844505 1.520692825 1.338405371 1.202209949 0.928991437 1.175862551 1.333880901
acw 1.128494501 1.308311462 1.866672277 1.125082850 0.823414922 0.976974130 0.636647046 1.120960951 1.146676898 0.806892335 0.825989962 0.716604471 0.333040833 1.197746277 1.628382802 0.910123408 1.380250573 0.600205958 1.109170794 0.735503852 0.929429650 0.970016181 1.545977592 1.051630974 1.819218874 0.520301759 0.924221337 1.307617307 0.623771906 1.020266414 1.184293866 0.971172392 0.603963733 0.896486044 1.248652220 0.732543766 1.105128169 1.047209144 1.057057261 0.932187557 1.535807014 0.723114550 0.902047217 0.995379150 0.939773619 1.586168885 0.668538570 1.513723731 0.723966897 2.076734304 0.753379822 0.895313501 0.367059439 0.569531500 0.995687902 1.245051265 1.871682405 1.126917124 1.213122487 1.613024473 1.155284286 1.719403386 0.560129404 1.068807364 1.221583486 0.631197453 1.245974898 1.259452224 0.907301247 1.490825653 1.238659739 0.669747233 0.918747485 0.630807936 0.492707342 0.693432152 1.377230525 0.944035769 1.047194958 1.508158565 0.874892652 0.803572178 1.091580391 1.000937462 1.129350662 0.824998796 0.687676549 1.476452470 1.620388389 1.105820775 0.918321013 0.661247909 1.021452546 1.385945797 1.888804793 1.135901332 1.371434093 1.593377233 1.961892247 1.333880901 1.128494501 1.372668505 1.427506804 1.021582365 0.677876890 1.377774835 0.566747010 1.205486894 1.127641559 1.121235371 1.115961432 0.718283951 0.432496756 1.263000488 1.601800442 1.215612173 1.125583887 0.882683337 1.426766992 1.260022402 0.974404395 0.842386425 1.422829509 1.183014989 1.516715884 0.580662489 1.073268175 1.224858880 0.698483467 1.090213776 1.258692980 1.162446022 0.603695393 0.912895799 1.103956819 1.101542234 1.106310010 1.616126060 0.893946230 1.072829604 1.277139783 0.724901497 0.528955102 0.817227244 0.945659399 1.054408431 0.803977430 1.297325730 0.510949194 2.088262796 0.768915296 0.748361766 0.486155033 0.810596883 1.413872004 1.010977626 1.871682405 1.137964725 0.991075873 1.314321518 1.155284286 2.079472065 0.653628051 1.384913325 1.158811808 1.048639059 1.271507978 1.199787855 0.893403649 1.207654953 0.932862580 0.712136090 1.378279448 0.647781968 0.397580385 0.693432152 1.434077978 1.021891952 1.108457208 1.520433187 0.978159785 0.544162512 1.063401341 1.388648033 0.909200490 1.072628498 0.817063987 1.588282228 1.564965606 1.097719193 0.797178209 0.653293610 1.361237884 1.197844505 1.520692825 1.338405371 1.202209949 0.670332134 1.175862551 1.333880901
ady 1.128494501 1.308311462 1.866672277 1.125082850 0.823414922 0.976974130 0.636647046 1.120960951 1.146676898 0.806892335 0.825989962 0.716604471 0.333040833 1.197746277 1.628382802 0.910123408 1.380250573 0.600205958 1.109170794 0.735503852 0.929429650 0.970016181 1.545977592 1.051630974 1.819218874 0.520301759 0.924221337 1.307617307 0.623771906 1.020266414 1.184293866 0.971172392 0.603963733 0.896486044 1.248652220 0.732543766 1.105128169 1.047209144 1.057057261 0.932187557 1.535807014 0.723114550 0.902047217 0.937050939 0.939773619 1.586168885 0.714990556 1.513723731 0.723966897 2.076734304 0.753379822 0.895313501 0.367059439 0.569531500 0.995687902 1.245051265 1.871682405 1.126917124 1.213122487 1.613024473 1.155284286 1.562975883 0.560129404 1.068807364 1.221583486 0.710952878 1.245974898 1.259452224 0.907301247 1.490825653 1.238659739 0.682544351 1.253461719 0.630807936 0.492707342 0.693432152 1.377230525 0.944035769 1.047194958 1.508158565 0.874892652 0.803572178 1.091580391 1.000937462 1.129350662 0.824998796 0.687676549 1.476452470 1.620388389 1.105820775 0.918321013 0.652282834 1.021452546 1.385945797 1.888804793 1.135901332 1.371434093 1.593377233 1.961892247 1.333880901 1.128494501 1.737738252 1.427506804 1.021582365 0.677876890 1.377774835 0.566747010 1.205486894 1.127641559 1.121235371 1.115961432 0.718283951 0.432496756 1.263000488 1.601800442 1.215612173 1.125583887 0.882683337 1.426766992 1.260022402 0.974404395 0.842386425 1.422829509 1.183014989 1.516715884 0.580662489 1.073268175 1.224858880 0.698483467 1.090213776 1.258692980 1.162446022 0.603695393 0.988167226 1.103956819 1.101542234 1.106310010 1.616126060 0.893946230 1.072829604 1.277139783 0.724901497 0.528955102 0.817227244 0.945659399 1.054408431 0.803977430 1.297325730 0.510949194 2.088262796 0.898369730 0.433538914 0.486155033 0.810596883 1.413872004 1.010977626 1.871682405 1.137964725 0.991075873 1.314321518 1.155284286 2.079472065 0.653628051 1.384913325 1.158811808 1.048639059 1.271507978 1.199787855 0.893403649 1.207654953 0.932862580 0.712136090 1.378279448 0.647781968 0.397580385 0.693432152 1.434077978 1.021891952 0.894996524 1.520433187 0.978159785 0.544162512 1.063401341 1.388648033 0.909200490 1.072628498 0.817063987 1.588282228 1.335471511 1.097719193 0.797178209 0.653293610 1.361237884 1.197844505 1.555366635 1.338405371 1.202209949 0.670332134 1.175862551 1.333880901
aeb 1.128494501 1.308311462 1.866672277 1.125082850 0.823414922 0.976974130 0.636647046 1.120960951 1.146676898 0.806892335 0.825989962 0.716604471 0.333040833 1.197746277 1.628382802 0.910123408 1.380250573 0.600205958 1.109170794 0.735503852 0.929429650 0.970016181 1.545977592 1.051630974 1.819218874 0.520301759 0.924221337 1.307617307 0.623771906 1.020266414 1.184293866 0.971172392 0.603963733 0.896486044 1.248652220 0.732543766 1.105128169 1.047209144 1.057057261 0.932187557 1.535807014 0.723114550 0.902047217 0.937050939 0.939773619 1.586168885 0.668538570 1.513723731 0.723966897 2.076734304 0.753379822 0.895313501 0.367059439 0.569531500 0.995687902 1.245051265 1.871682405 1.126917124 1.213122487 1.613024473 1.155284286 1.562975883 0.560129404 1.068807364 1.221583486 0.631197453 1.245974898 1.259452224 0.907301247 1.490825653 1.238659739 0.669747233 0.918747485 0.630807936 0.492707342 0.693432152 1.377230525 0.944035769 1.047194958 1.508158565 0.874892652 0.803572178 1.091580391 1.000937462 1.129350662 0.824998796 0.687676549 1.476452470 1.620388389 1.105820775 0.918321013 0.652282834 1.021452546 1.385945797 1.888804793 1.135901332 1.371434093 1.593377233 1.961892247 1.333880901 1.128494501 1.372668505 1.427506804 1.021582365 0.677876890 1.377774835 0.566747010 1.205486894 1.127641559 1.121235371 1.115961432 0.718283951 0.432496756 1.263000488 1.601800442 1.215612173 1.125583887 0.882683337 1.426766992 1.260022402 0.974404395 0.842386425 1.422829509 1.183014989 1.516715884 0.580662489 1.073268175 1.224858880 0.698483467 1.090213776 1.258692980 1.162446022 0.603695393 0.912895799 1.103956819 1.101542234 1.106310010 1.616126060 0.893946230 1.072829604 1.277139783 0.724901497 0.528955102 0.817227244 0.945659399 1.054408431 0.803977430 1.297325730 0.510949194 2.088262796 0.768915296 0.433538914 0.486155033 0.810596883 1.413872004 1.010977626 1.871682405 1.137964725 0.991075873 1.314321518 1.155284286 2.079472065 0.653628051 1.384913325 1.158811808 1.048639059 1.271507978 1.199787855 0.893403649 1.207654953 0.932862580 0.712136090 1.378279448 0.647781968 0.397580385 0.693432152 1.434077978 1.021891952 0.894996524 1.520433187 0.978159785 0.544162512 1.063401341 1.388648033 0.909200490 1.072628498 0.817063987 1.588282228 1.335471511 1.097719193 0.797178209 0.653293610 1.361237884 1.197844505 1.520692825 1.338405371 1.202209949 0.670332134 1.175862551 1.333880901
afb 1.128494501 1.308311462 1.866672277 1.125082850 0.823414922 0.976974130 0.636647046 1.120960951 1.146676898 0.806892335 0.825989962 0.716604471 0.333040833 1.197746277 1.628382802 0.910123408 1.380250573 0.600205958 1.109170794 0.735503852 0.929429650 0.970016181 1.545977592 1.051630974 1.819218874 0.520301759 0.924221337 1.307617307 0.623771906 1.020266414 1.184293866 0.971172392 0.603963733 0.896486044 1.248652220 0.732543766 1.105128169 1.047209144 1.057057261 0.932187557 1.535807014 0.723114550 0.902047217 0.937050939 0.939773619 1.586168885 0.668538570 1.513723731 0.723966897 2.076734304 0.753379822 0.895313501 0.367059439 0.569531500 0.995687902 1.245051265 1.871682405 1.126917124 1.213122487 1.613024473 1.155284286 1.562975883 0.560129404 1.068807364 1.221583486 0.631197453 1.245974898 1.259452224 0.907301247 1.490825653 1.238659739 0.669747233 0.918747485 0.630807936 0.492707342 0.693432152 1.377230525 0.944035769 1.047194958 1.508158565 0.874892652 0.803572178 1.091580391 1.000937462 1.129350662 0.824998796 0.687676549 1.476452470 1.620388389 1.105820775 0.918321013 0.652282834 1.021452546 1.385945797 1.888804793 1.135901332 1.371434093 1.593377233 1.961892247 1.333880901 1.128494501 1.372668505 1.427506804 1.021582365 0.677876890 1.377774835 0.566747010 1.205486894 1.127641559 1.121235371 1.115961432 0.718283951 0.432496756 1.263000488 1.601800442 1.215612173 1.125583887 0.882683337 1.426766992 1.260022402 0.974404395 0.842386425 1.422829509 1.183014989 1.516715884 0.580662489 1.073268175 1.224858880 0.698483467 1.090213776 1.258692980 1.162446022 0.603695393 0.912895799 1.103956819 1.101542234 1.106310010 1.616126060 0.893946230 1.072829604 1.277139783 0.724901497 0.528955102 0.817227244 0.945659399 1.054408431 0.803977430 1.297325730 0.510949194 2.088262796 0.768915296 0.433538914 0.486155033 0.810596883 1.413872004 1.010977626 1.871682405 1.137964725 0.991075873 1.314321518 1.155284286 2.079472065 0.653628051 1.384913325 1.158811808 1.048639059 1.271507978 1.199787855 0.893403649 1.207654953 0.932862580 0.712136090 1.378279448 0.647781968 0.397580385 0.693432152 1.434077978 1.021891952 0.894996524 1.520433187 0.978159785 0.544162512 1.063401341 1.388648033 0.909200490 1.072628498 0.817063987 1.588282228 1.335471511 1.097719193 0.797178209 0.653293610 1.361237884 1.197844505 1.520692825 1.338405371 1.202209949 0.670332134 1.175862551 1.333880901
afr 1.665750027 1.872689605 2.458250046 1.798081636 1.570571184 1.645993471 1.392456293 1.819811225 1.913129330 1.484718561 1.606477022 1.139446378 1.075355411 1.990394115 2.540027142 1.589533448 1.724791408 1.349612713 2.029525757 1.601532698 1.518191695 1.321133256 2.083543301 1.796635270 1.937954545 1.312173724 1.511935949 2.096297026 1.125229359 2.332583904 1.515686631 1.677567124 1.112142801 1.635741472 1.750163913 1.238451362 1.658021092 1.934702396 1.581661344 2.149086714 1.878953576 1.670127749 1.209756374 1.449630380 1.399883151 1.605419636 1.165992737 2.010518789 1.120083690 2.414280653 1.455746651 1.159543157 1.004123449 1.400834799 1.482121944 1.481068969 1.871682405 2.118639469 1.567184091 1.613024473 1.308308482 2.104986906 1.437759876 1.961352229 1.919943571 1.404958963 1.883321762 2.207293272 1.519254088 1.857885122 2.212993383 1.246273518 1.872362733 1.382405400 1.268718243 1.482345462 1.677131772 1.308388352 1.549295425 2.074570417 1.545082450 1.057867765 1.388048768 1.605341077 2.166678190 1.658356190 1.142688870 1.910027504 1.797510743 1.705419421 1.404541135 1.343270898 1.691681862 1.734220386 2.014809608 1.750790834 1.653320670 1.593377233 1.961892247 1.885675907 1.700444579 1.823104143 2.097092152 1.871690869 1.570571184 1.502219558 1.392456293 1.819811225 1.890344262 1.372795939 1.544548869 1.069922566 1.261096954 1.736445308 2.237492561 1.534406543 1.688593030 1.235285401 2.029525757 1.601532698 1.518191695 1.447893500 2.249818087 2.135424614 1.937954545 1.214561939 1.644032836 2.096297026 1.127989292 2.332583904 1.965106964 1.626679301 1.299681664 1.717628598 1.750163913 1.283902645 1.805938363 1.934702396 1.581661344 2.149086714 1.843106985 1.703483462 1.642022133 1.196398616 1.399883151 1.586168885 1.356962085 2.370798111 1.731587529 2.525027037 1.511566281 1.159543157 0.991962552 1.627957225 1.482121944 1.536102414 1.981564641 2.118639469 1.625360727 2.007964373 1.340800881 2.444438219 1.560299516 1.717206240 1.822801232 1.404958963 1.776190519 2.207293272 1.670245409 1.857885122 2.135479689 1.293817401 1.988127232 1.382405400 1.268718243 1.423177242 1.903926492 1.240791798 1.549295425 1.780710936 1.613567829 1.025361896 1.615655541 1.605341077 1.838344932 1.445292711 1.142688870 2.378504038 1.844594359 1.662132144 1.496308208 1.305273414 1.780263543 1.872855186 2.063476086 1.923360467 1.586349130 1.593377233 1.837947130 1.885675907
aho 1.128494501 1.308311462 1.866672277 1.125082850 0.823414922 0.976974130 0.636647046 1.120960951 1.146676898 0.806892335 0.825989962 0.716604471 0.333040833 1.197746277 1.628382802 0.910123408 1.380250573 0.600205958 1.109170794 0.735503852 0.929429650 0.970016181 1.545977592 1.051630974 1.819218874 0.520301759 0.924221337 1.307617307 0.623771906 1.020266414 1.184293866 0.971172392 0.603963733 0.896486044 1.248652220 0.732543766 1.105128169 1.047209144 1.057057261 0.932187557 1.535807014 0.723114550 0.902047217 0.937050939 0.939773619 1.586168885 0.668538570 1.513723731 0.723966897 2.076734304 0.753379822 0.895313501 0.367059439 0.569531500 0.995687902 1.245051265 1.871682405 1.126917124 1.213122487 1.613024473 1.155284286 1.562975883 0.560129404 1.068807364 1.221583486 0.631197453 1.245974898 1.259452224 0.907301247 1.490825653 1.238659739 0.669747233 0.918747485 0.630807936 0.492707342 0.693432152 1.377230525 0.944035769 1.047194958 1.508158565 0.874892652 0.803572178 1.091580391 1.000937462 1.129350662 0.824998796 0.687676549 1.476452470 1.620388389 1.105820775 0.918321013 0.652282834 1.021452546 1.385945797 1.888804793 1.135901332 1.371434093 1.593377233 1.961892247 1.333880901 1.128494501 1.372668505 1.427506804 1.021582365 0.677876890 1.377774835 0.566747010 1.205486894 1.127641559 1.121235371 1.115961432 0.718283951 0.432496756 1.263000488 1.601800442 1.215612173 1.125583887 0.882683337 1.426766992 1.260022402 0.974404395 0.842386425 1.422829509 1.183014989 1.516715884 0.580662489 1.073268175 1.224858880 0.698483467 1.090213776 1.258692980 1.162446022 0.603695393 0.912895799 1.103956819 1.101542234 1.106310010 1.616126060 0.893946230 1.072829604 1.277139783 0.724901497 0.528955102 0.817227244 0.945659399 1.054408431 0.803977430 1.297325730 0.510949194 2.088262796 0.768915296 0.433538914 0.486155033 0.810596883 1.413872004 1.010977626 1.871682405 1.137964725 0.991075873 1.314321518 1.155284286 2.079472065 0.653628051 1.384913325 1.158811808 1.048639059 1.271507978 1.199787855 0.893403649 1.207654953 0.932862580 0.712136090 1.378279448 0.647781968 0.397580385 0.693432152 1.434077978 1.021891952 0.894996524 1.520433187 0.978159785 0.544162512 1.063401341 1.388648033 0.909200490 1.072628498 0.817063987 1.588282228 1.335471511 1.097719193 0.797178209 0.653293610 1.361237884 1.197844505 1.520692825 1.338405371 1.202209949 0.670332134 1.175862551 1.333880901
aii 1.128494501 1.308311462 1.866672277 1.125082850 0.823414922 0.976974130 0.636647046 1.120960951 1.146676898 0.806892335 0.825989962 0.716604471 0.333040833 1.197746277 1.628382802 0.910123408 1.380250573 0.600205958 1.109170794 0.735503852 0.929429650 0.970016181 1.545977592 1.051630974 1.819218874 0.520301759 0.924221337 1.307617307 0.623771906 1.020266414 1.184293866 0.971172392 0.603963733 0.896486044 1.248652220 0.732543766 1.105128169 1.047209144 1.057057261 0.932187557 1.535807014 0.723114550 0.902047217 0.937050939 0.939773619 1.586168885 0.668538570 1.513723731 0.723966897 2.076734304 0.753379822 0.895313501 0.367059439 0.569531500 0.995687902 1.245051265 1.871682405 1.126917124 1.213122487 1.613024473 1.155284286 1.562975883 0.560129404 1.068807364 1.221583486 0.631197453 1.245974898 1.259452224 0.907301247 1.490825653 1.238659739 0.669747233 0.918747485 0.630807936 0.492707342 0.693432152 1.377230525 0.944035769 1.047194958 1.508158565 0.874892652 0.803572178 1.091580391 1.000937462 1.129350662 0.824998796 0.687676549 1.476452470 1.620388389 1.105820775 0.918321013 0.652282834 1.021452546 1.385945797 1.888804793 1.135901332 1.371434093 1.593377233 1.961892247 1.333880901 1.128494501 1.372668505 2.013981581 1.021582365 0.677876890 1.377774835 0.566747010 1.205486894 1.127641559 1.121235371 1.115961432 0.718283951 0.432496756 1.263000488 1.601800442 1.215612173 1.125583887 0.882683337 1.426766992 1.260022402 0.974404395 0.842386425 1.422829509 1.183014989 1.516715884 0.580662489 1.073268175 1.224858880 0.698483467 1.090213776 1.258692980 1.162446022 0.603695393 0.912895799 1.103956819 1.101542234 1.106310010 1.616126060 0.893946230 1.072829604 1.277139783 0.724901497 0.528955102 0.817227244 0.945659399 1.054408431 0.803977430 1.297325730 0.510949194 2.088262796 0.768915296 0.433538914 0.486155033 0.810596883 1.413872004 1.010977626 1.871682405 1.137964725 0.991075873 1.314321518 1.155284286 2.079472065 0.653628051 1.384913325 1.158811808 1.048639059 1.271507978 1.199787855 0.893403649 1.207654953 0.932862580 0.712136090 1.378279448 0.647781968 0.397580385 0.693432152 1.434077978 1.021891952 0.894996524 1.520433187 0.978159785 0.544162512 1.063401341 1.388648033 0.909200490 1.072628498 0.817063987 1.588282228 1.335471511 1.097719193 0.797178209 0.653293610 1.361237884 1.197844505 1.520692825 1.338405371 1.202209949 0.670332134 1.175862551 1.333880901
ain 1.128494501 1.308311462 1.866672277 1.125082850 0.823414922 0.976974130 0.636647046 1.120960951 1.146676898 0.806892335 0.825989962 0.716604471 0.381162226 1.197746277 1.628382802 0.910123408 1.380250573 0.600205958 1.633372307 1.048595548 0.929429650 0.970016181 1.545977592 1.051630974 1.819218874 0.520301759 0.924221337 1.307617307 0.623771906 1.020266414 1.184293866 0.971172392 0.603963733 0.896486044 1.248652220 0.732543766 1.105128169 1.047209144 1.057057261 2.149086714 1.535807014 0.723114550 0.902047217 0.937050939 0.939773619 1.586168885 0.668538570 1.513723731 0.723966897 2.076734304 0.753379822 0.895313501 0.367059439 0.569531500 0.995687902 1.245051265 1.871682405 1.126917124 1.213122487 1.613024473 1.155284286 1.686001658 0.560129404 1.068807364 1.221583486 0.631197453 1.245974898 1.259452224 0.907301247 1.490825653 1.238659739 0.669747233 1.311125517 0.630807936 0.492707342 0.693432152 1.377230525 0.944035769 1.374624968 1.508158565 0.874892652 0.803572178 1.091580391 1.000937462 1.273118258 0.824998796 0.687676549 1.476452470 1.620388389 1.105820775 0.918321013 0.652282834 1.021452546 1.385945797 1.888804793 1.135901332 1.371434093 1.593377233 1.961892247 1.333880901 1.128494501 1.372668505 1.427506804 1.021582365 0.677876890 1.377774835 0.566747010 1.205486894 1.127641559 1.121235371 1.115961432 0.718283951 0.432496756 1.263000488 1.601800442 1.215612173 1.125583887 0.882683337 1.426766992 1.260022402 0.974404395 0.842386425 1.422829509 1.183014989 1.516715884 0.580662489 1.073268175 1.224858880 0.698483467 1.090213776 1.258692980 1.162446022 0.603695393 0.912895799 1.103956819 1.101542234 1.106310010 1.616126060 1.074109316 1.072829604 1.277139783 0.724901497 0.528955102 0.885036170 0.945659399 1.054408431 0.803977430 1.297325730 0.510949194 2.246297359 0.768915296 0.433538914 0.486155033 0.810596883 1.413872004 1.010977626 1.871682405 1.137964725 0.991075873 1.314321518 1.155284286 2.079472065 0.653628051 1.384913325 1.158811808 1.048639059 1.271507978 1.199787855 0.893403649 1.471250057 1.044307590 0.712136090 1.378279448 0.647781968 0.397580385 0.693432152 1.434077978 1.021891952 0.894996524 1.520433187 0.978159785 0.544162512 1.063401341 1.388648033 0.909200490 1.072628498 0.817063987 1.588282228 1.335471511 1.097719193 0.797178209 0.653293610 1.361237884 1.197844505 1.520692825 1.338405371 1.202209949 0.670332134 1.175862551 1.333880901
aka 1.128494501 1.308311462 1.866672277 1.125082850 0.823414922 0.976974130 0.636647046 1.120960951 1.146676898 0.806892335 0.913282931 0.716604471 0.387308151 1.314812779 1.628382802 0.941515207 1.380250573 0.600205958 1.109170794 0.743995607 0.929429650 0.970016181 1.545977592 1.220450521 1.819218874 0.520301759 0.924221337 1.307617307 0.623771906 1.020266414 1.184293866 0.971172392 0.603963733 1.197782040 1.248652220 0.732543766 1.105128169 1.067267895 1.057057261 0.932187557 1.535807014 0.803395867 0.902047217 0.937050939 0.939773619 1.586168885 0.668538570 1.513723731 0.723966897 2.076734304 0.753379822 0.895313501 0.367059439 0.569531500 0.995687902 1.245051265 1.871682405 1.126917124 1.213122487 1.613024473 1.155284286 1.562975883 0.826078594 1.068807364 1.221583486 0.703319013 1.245974898 1.259452224 0.907301247 1.490825653 1.238659739 0.669747233 0.918747485 0.630807936 0.492707342 0.693432152 1.377230525 0.944035769 1.364701271 1.508158565 0.874892652 0.803572178 1.091580391 1.000937462 1.129350662 0.824998796 0.687676549 1.476452470 1.620388389 1.105820775 0.918321013 0.652282834 1.021452546 1.385945797 1.888804793 1.350902200 1.371434093 1.593377233 1.961892247 1.333880901 1.128494501 1.737738252 1.427506804 1.021582365 0.677876890 1.377774835 0.566747010 1.205486894 1.127641559 1.121235371 1.115961432 0.718283951 0.432496756 1.263000488 1.692577600 1.215612173 1.186263561 0.882683337 1.426766992 1.260022402 1.106752753 0.842386425 1.422829509 1.183014989 1.516715884 0.580662489 1.073268175 1.224858880 0.698483467 1.090213776 1.258692980 1.162446022 0.603695393 1.197782040 1.201185703 1.101542234 1.106310010 1.788285851 1.074380040 1.072829604 1.342613935 0.724901497 0.528955102 0.817227244 1.087844968 1.054408431 0.803977430 1.297325730 0.511353552 2.088262796 1.177630663 0.433538914 0.486155033 0.810596883 1.413872004 1.010977626 1.871682405 1.137964725 0.991075873 1.314321518 1.155284286 2.079472065 0.653628051 1.384913325 1.158811808 1.048639059 1.271507978 1.281030536 0.893403649 1.207654953 0.932862580 0.732220531 1.378279448 0.647781968 0.465118349 0.962121725 1.434077978 1.021891952 0.894996524 1.520433187 0.978159785 0.544162512 1.063401341 1.388648033 1.012804031 1.072628498 0.817063987 1.588282228 1.335471511 1.097719193 0.797178209 0.724756420 1.361237884 1.197844505 1.520692825 1.350902200 1.202209949 0.670332134 1.175862551 1.333880901
akk 1.277349591 1.308311462 1.866672277 1.125082850 0.823414922 0.976974130 0.636647046 1.120960951 1.146676898 0.806892335 0.825989962 0.716604471 0.333040833 1.197746277 1.628382802 0.910123408 1.380250573 0.600205958 1.109170794 0.735503852 0.929429650 0.970016181 1.545977592 1.051630974 1.819218874 0.520301759 0.924221337 1.307617307 0.623771906 1.020266414 1.184293866 0.971172392 0.603963733 0.896486044 1.248652220 0.732543766 1.105128169 1.047209144 1.057057261 0.932187557 1.535807014 0.723114550 0.902047217 0.937050939 0.939773619 1.586168885 0.668538570 1.513723731 0.723966897 2.076734304 0.753379822 0.895313501 0.367059439 0.569531500 0.995687902 1.245051265 1.871682405 1.126917124 1.213122487 1.613024473 1.155284286 1.562975883 0.560129404 1.068807364 1.221583486 0.631197453 1.245974898 1.259452224 0.907301247 1.490825653 1.238659739 0.669747233 0.918747485 0.630807936 0.492707342 0.693432152 1.377230525 0.944035769 1.047194958 1.508158565 0.874892652 0.803572178 1.091580391 1.000937462 1.653302193 0.824998796 0.687676549 1.476452470 1.620388389 1.105820775 0.918321013 0.652282834 1.021452546 1.385945797 1.888804793 1.135901332 1.371434093 1.593377233 1.961892247 1.333880901 1.128494501 1.737738252 1.427506804 1.021582365 0.677876890 1.377774835 0.566747010 1.205486894 1.127641559 1.121235371 1.115961432 0.718283951 0.432496756 1.263000488 1.601800442 1.215612173 1.303498149 0.882683337 1.426766992 1.260022402 0.974404395 0.842386425 1.422829509 1.183014989 1.516715884 0.580662489 1.073268175 1.224858880 0.698483467 1.090213776 1.258692980 1.162446022 0.603695393 0.988167226 1.103956819 1.101542234 1.106310010 1.616126060 0.893946230 1.072829604 1.277139783 0.724901497 0.528955102 0.817227244 0.945659399 1.054408431 0.803977430 1.297325730 0.510949194 2.088262796 0.768915296 0.433538914 0.486155033 0.810596883 1.413872004 1.010977626 1.871682405 1.137964725 0.991075873 1.314321518 1.155284286 2.079472065 0.653628051 1.384913325 1.158811808 1.048639059 1.271507978 1.199787855 0.893403649 1.207654953 0.932862580 0.712136090 1.378279448 0.647781968 0.397580385 0.693432152 1.434077978 1.021891952 0.894996524 1.520433187 0.978159785 0.544162512 1.063401341 1.388648033 0.909200490 1.072628498 0.817063987 1.588282228 1.488510728 1.097719193 0.797178209 0.653293610 1.361237884 1.197844505 1.520692825 1.338405371 1.202209949 0.670332134 1.175862551 1.333880901
akz 1.128494501 1.308311462 1.866672277 1.125082850 0.823414922 0.976974130 0.636647046 1.120960951 1.146676898 0.806892335 0.825989962 0.716604471 0.333040833 1.197746277 1.628382802 0.910123408 1.380250573 0.600205958 1.109170794 0.735503852 0.929429650 0.970016181 1.545977592 1.051630974 1.819218874 0.520301759 0.924221337 1.307617307 0.623771906 1.020266414 1.184293866 0.971172392 0.603963733 0.896486044 1.248652220 0.732543766 1.105128169 1.047209144 1.057057261 0.932187557 1.535807014 0.723114550 0.902047217 0.937050939 0.939773619 1.586168885 0.668538570 1.513723731 0.723966897 2.076734304 0.753379822 0.895313501 0.367059439 0.569531500 0.995687902 1.245051265 1.871682405 1.126917124 1.213122487 1.613024473 1.155284286 1.562975883 0.560129404 1.068807364 1.221583486 0.631197453 1.245974898 1.259452224 0.907301247 1.490825653 1.238659739 0.669747233 0.918747485 0.630807936 0.492707342 0.693432152 1.377230525 0.944035769 1.047194958 1.508158565 0.874892652 0.803572178 1.091580391 1.000937462 1.129350662 0.824998796 0.687676549 1.476452470 1.620388389 1.105820775 0.918321013 0.652282834 1.021452546 1.385945797 1.888804793 1.135901332 1.371434093 1.593377233 1.961892247 1.333880901 1.128494501 1.372668505 1.427506804 1.021582365 0.677876890 1.377774835 0.566747010 1.205486894 1.127641559 1.121235371 1.115961432 0.718283951 0.432496756 1.263000488 1.601800442 1.215612173 1.125583887 0.882683337 1.426766992 1.260022402 0.974404395 0.842386425 1.422829509 1.183014989 1.516715884 0.580662489 1.073268175 1.224858880 0.698483467 1.090213776 1.258692980 1.162446022 0.603695393 0.912895799 1.103956819 1.101542234 1.106310010 1.616126060 0.893946230 1.072829604 1.277139783 0.724901497 0.528955102 0.817227244 0.945659399 1.054408431 0.803977430 1.297325730 0.510949194 2.088262796 0.768915296 0.433538914 0.486155033 0.810596883 1.413872004 1.010977626 1.871682405 1.137964725 0.991075873 1.314321518 1.155284286 2.079472065 0.653628051 1.384913325 1.158811808 1.048639059 1.271507978 1.199787855 0.893403649 1.207654953 0.932862580 0.712136090 1.378279448 0.647781968 0.397580385 0.693432152 1.434077978 1.021891952 0.894996524 1.520433187 0.978159785 0.544162512 1.063401341 1.388648033 0.909200490 1.072628498 0.817063987 1.588282228 1.335471511 1.097719193 0.797178209 0.653293610 1.361237884 1.197844505 1.520692825 1.338405371 1.202209949 0.670332134 1.175862551 1.333880901
ale 1.128494501 1.308311462 1.866672277 1.125082850 0.823414922 0.976974130 0.636647046 1.120960951 1.146676898 0.806892335 0.825989962 0.716604471 0.333040833 1.197746277 1.628382802 0.910123408 1.380250573 0.600205958 1.109170794 0.735503852 0.929429650 0.970016181 1.545977592 1.051630974 1.819218874 0.520301759 0.924221337 1.307617307 0.623771906 1.020266414 1.184293866 0.971172392 0.603963733 0.896486044 1.248652220 0.732543766 1.105128169 1.047209144 1.057057261 0.932187557 1.535807014 0.723114550 0.902047217 0.937050939 0.939773619 1.586168885 0.668538570 1.513723731 0.723966897 2.076734304 0.753379822 0.895313501 0.367059439 0.569531500 0.995687902 1.245051265 1.871682405 1.126917124 1.213122487 1.613024473 1.155284286 1.562975883 0.560129404 1.068807364 1.221583486 0.631197453 1.245974898 1.259452224 0.907301247 1.490825653 1.238659739 0.669747233 0.918747485 0.630807936 0.492707342 0.693432152 1.377230525 0.944035769 1.047194958 1.508158565 0.874892652 0.803572178 1.091580391 1.000937462 1.129350662 0.824998796 0.687676549 1.476452470 1.620388389 1.105820775 0.918321013 0.652282834 1.021452546 1.385945797 1.888804793 1.135901332 1.371434093 1.593377233 1.961892247 1.333880901 1.128494501 1.372668505 1.427506804 1.021582365 0.677876890 1.377774835 0.566747010 1.205486894 1.127641559 1.121235371 1.115961432 0.718283951 0.432496756 1.263000488 1.601800442 1.215612173 1.125583887 0.882683337 1.426766992 1.260022402 0.974404395 0.842386425 1.422829509 1.183014989 1.516715884 0.580662489 1.073268175 1.224858880 0.698483467 1.090213776 1.258692980 1.162446022 0.603695393 0.912895799 1.103956819 1.101542234 1.106310010 1.616126060 0.893946230 1.072829604 1.277139783 0.724901497 0.528955102 0.817227244 0.945659399 1.054408431 0.803977430 1.297325730 0.510949194 2.088262796 0.768915296 0.433538914 0.486155033 0.810596883 1.413872004 1.010977626 1.871682405 1.137964725 0.991075873 1.314321518 1.155284286 2.079472065 0.653628051 1.384913325 1.158811808 1.048639059 1.271507978 1.199787855 0.893403649 1.207654953 0.932862580 0.712136090 1.378279448 0.647781968 0.397580385 0.693432152 1.434077978 1.021891952 0.894996524 1.520433187 0.978159785 0.544162512 1.063401341 1.388648033 0.909200490 1.072628498 0.817063987 1.588282228 1.335471511 1.097719193 0.797178209 0.653293610 1.361237884 1.197844505 1.520692825 1.338405371 1.202209949 0.670332134 1.175862551 1.333880901
als 1.472000599 1.308311462 1.866672277 1.125082850 0.823414922 0.976974130 0.789474487 1.120960951 1.217819333 1.385280490 1.007385135 0.716604471 0.387308151 1.314812779 1.628382802 1.062867880 1.380250573 0.672398567 1.109170794 0.826791823 0.929429650 0.970016181 1.545977592 1.051630974 1.819218874 0.726794720 0.924221337 1.307617307 0.623771906 1.290600300 1.184293866 0.971172392 0.603963733 0.896486044 1.276513219 0.732543766 1.105128169 1.060859323 1.057057261 1.190010905 1.535807014 0.807143390 0.902047217 0.937050939 1.103208184 1.586168885 0.668538570 1.513723731 0.723966897 2.076734304 0.753379822 0.895313501 0.470263660 0.966909349 0.995687902 1.245051265 1.871682405 1.126917124 1.213122487 1.613024473 1.155284286 1.755269885 0.826078594 1.282483697 1.221583486 0.631197453 1.245974898 1.259452224 1.133539319 1.490825653 1.238659739 0.746246874 1.027645826 0.935669959 0.506688893 0.693432152 1.377230525 0.944035769 1.047194958 1.508158565 0.984697938 0.803572178 1.091580391 1.000937462 1.129350662 1.111415267 0.687676549 1.476452470 1.620388389 1.105820775 0.918321013 0.906451285 1.021452546 1.385945797 1.888804793 1.135901332 1.371434093 1.593377233 1.961892247 1.333880901 1.128494501 1.372668505 1.427506804 1.391261935 0.677876890 1.377774835 0.636341512 1.205486894 1.127641559 1.121235371 1.115961432 0.989614189 0.440944374 1.263000488 1.692577600 1.215612173 1.389747024 0.882683337 1.426766992 1.260022402 0.974404395 1.070644855 1.482354999 1.183014989 1.516715884 0.580662489 1.073268175 1.224858880 0.698483467 1.090213776 1.258692980 1.162446022 0.603695393 1.089504361 1.226188183 1.101542234 1.106310010 1.788285851 1.050831199 1.072829604 1.277139783 0.807202756 0.528955102 0.817227244 1.087844968 1.343675256 0.803977430 1.297325730 0.511353552 2.088262796 1.188328624 0.433538914 0.486155033 0.810596883 1.413872004 1.100815654 1.871682405 1.200236320 1.347526550 1.328082800 1.155284286 2.079472065 0.653628051 1.384913325 1.158811808 1.048639059 1.271507978 1.281030536 1.260412931 1.207654953 1.050009727 0.870193779 1.378279448 0.934736848 0.490408361 0.958111525 1.470822334 1.021891952 0.894996524 1.520433187 0.978159785 0.544162512 1.063401341 1.388648033 1.126824856 1.072628498 0.850703001 1.588282228 1.685028195 1.097719193 1.353235006 0.779672742 1.361237884 1.197844505 1.691877604 1.338405371 1.202209949 0.865149021 1.175862551 1.333880901
alt 1.128494501 1.308311462 1.866672277 1.125082850 0.823414922 0.976974130 0.636647046 1.120960951 1.146676898 0.806892335 0.825989962 0.716604471 0.333040833 1.197746277 1.628382802 0.910123408 1.380250573 0.600205958 1.109170794 0.735503852 0.929429650 0.970016181 1.545977592 1.051630974 1.819218874 0.520301759 0.924221337 1.307617307 0.623771906 1.020266414 1.184293866 0.971172392 0.603963733 0.896486044 1.248652220 0.732543766 1.105128169 1.047209144 1.057057261 0.932187557 1.535807014 0.723114550 0.902047217 0.937050939 0.939773619 1.586168885 0.668538570 1.513723731 0.723966897 2.076734304 0.753379822 0.895313501 0.367059439 0.569531500 0.995687902 1.245051265 1.871682405 1.126917124 1.213122487 1.613024473 1.155284286 1.562975883 0.560129404 1.068807364 1.221583486 0.631197453 1.245974898 1.259452224 0.907301247 1.490825653 1.238659739 0.669747233 0.918747485 0.630807936 0.492707342 0.693432152 1.377230525 0.944035769 1.047194958 1.508158565 0.874892652 0.803572178 1.091580391 1.000937462 1.129350662 0.824998796 0.687676549 1.476452470 1.620388389 1.105820775 0.918321013 0.652282834 1.021452546 1.385945797 1.888804793 1.135901332 1.371434093 1.593377233 1.961892247 1.333880901 1.128494501 1.737738252 1.427506804 1.021582365 0.677876890 1.377774835 0.566747010 1.205486894 1.127641559 1.121235371 1.115961432 0.718283951 0.432496756 1.263000488 1.601800442 1.215612173 1.125583887 0.882683337 1.426766992 1.260022402 0.974404395 0.842386425 1.422829509 1.183014989 1.516715884 0.580662489 1.073268175 1.224858880 0.698483467 1.090213776 1.258692980 1.162446022 0.603695393 0.988167226 1.103956819 1.101542234 1.106310010 1.616126060 0.893946230 1.072829604 1.277139783 0.724901497 0.528955102 0.817227244 0.945659399 1.054408431 0.803977430 1.297325730 0.510949194 2.088262796 0.768915296 0.433538914 0.486155033 0.810596883 1.413872004 1.010977626 1.871682405 1.137964725 0.991075873 1.314321518 1.155284286 2.079472065 0.653628051 1.384913325 1.158811808 1.048639059 1.271507978 1.199787855 0.893403649 1.207654953 0.932862580 0.712136090 1.378279448 0.647781968 0.397580385 0.693432152 1.434077978 1.021891952 0.894996524 1.520433187 0.978159785 0.544162512 1.063401341 1.388648033 0.909200490 1.072628498 0.817063987 1.588282228 1.335471511 1.097719193 0.797178209 0.653293610 1.361237884 1.197844505 1.520692825 1.338405371 1.202209949 0.670332134 1.175862551 1.333880901
amh 1.277349591 1.308311462 1.866672277 1.267284393 1.031847239 0.976974130 0.650810421 1.819811225 1.327244520 1.068897605 1.163279176 0.851136386 0.433794379 1.314812779 1.628382802 0.910123408 1.439527392 0.612689078 1.322712302 1.095625043 0.981932521 0.970016181 1.545977592 1.201942801 1.819218874 0.572906673 0.924221337 1.307617307 0.822037041 1.033661842 1.184293866 0.971172392 0.698917270 1.137480736 1.248652220 0.776910067 1.181884408 1.189470410 1.142201424 2.149086714 1.535807014 1.415764809 0.902047217 0.937050939 0.969794273 1.586168885 0.668538570 1.513723731 0.723966897 2.105779648 0.911280453 1.060159802 0.656566024 0.741007984 1.073490262 1.245051265 1.871682405 1.242098689 1.213122487 1.613024473 1.155284286 1.823185444 0.929881632 1.304291368 1.221583486 1.014410734 1.419694066 1.259452224 0.985545695 1.490825653 1.833143950 0.702398479 0.972837985 0.809680045 0.738595009 0.736839414 1.499449968 0.944035769 1.068230987 1.508158565 0.874892652 0.803572178 1.091580391 1.010461211 1.653302193 1.111415267 0.687676549 1.476452470 1.620388389 1.105820775 1.016823888 0.652282834 1.082197309 1.385945797 1.888804793 1.327981710 1.371434093 1.593377233 1.961892247 1.333880901 1.132339239 1.372668505 1.427506804 1.346226215 0.847799122 1.377774835 0.582899094 1.205486894 1.369429111 1.121235371 1.115961432 0.851136386 0.690289021 1.263000488 1.786560297 1.215612173 1.335564613 0.882683337 1.426766992 1.260022402 1.136129141 0.842386425 1.668396592 1.309983015 1.516715884 0.679881394 1.227629304 1.224858880 0.698483467 1.090213776 1.258692980 1.171198606 0.707562089 1.262020946 1.201185703 1.101542234 1.250482559 1.616126060 1.050831199 1.099979043 1.277139783 0.724901497 0.936296105 0.997242510 1.087844968 1.054408431 0.885987163 1.412701607 0.511353552 2.088262796 1.177630663 0.573330402 0.486155033 0.915237486 1.413872004 1.010977626 1.871682405 1.295249581 1.067629576 1.314321518 1.155284286 2.079472065 0.653628051 1.384913325 1.228621364 1.048639059 1.466895342 1.236541748 1.066705227 1.562316537 1.381327748 0.712136090 1.378279448 0.954326510 0.534094155 1.150939822 1.434077978 1.021891952 0.997818410 1.520433187 1.347328424 0.593567908 1.063401341 1.388648033 1.038109779 1.224372149 0.817063987 1.588282228 1.488510728 1.141704202 0.830085218 0.699657023 1.361237884 1.197844505 1.555366635 1.338405371 1.385864735 1.593377233 1.961892247 1.693439960
ami 1.128494501 1.308311462 1.866672277 1.125082850 0.823414922 0.976974130 0.636647046 1.120960951 1.146676898 0.806892335 0.825989962 0.716604471 0.333040833 1.197746277 1.628382802 0.910123408 1.380250573 0.600205958 1.109170794 0.735503852 0.929429650 0.970016181 1.545977592 1.051630974 1.819218874 0.520301759 0.924221337 1.307617307 0.623771906 1.020266414 1.184293866 0.971172392 0.603963733 0.896486044 1.248652220 0.732543766 1.105128169 1.047209144 1.057057261 0.932187557 1.535807014 0.723114550 0.902047217 0.937050939 0.939773619 1.586168885 0.668538570 1.513723731 0.723966897 2.076734304 0.753379822 0.895313501 0.367059439 0.569531500 0.995687902 1.245051265 1.871682405 1.126917124 1.213122487 1.613024473 1.155284286 1.562975883 0.560129404 1.068807364 1.221583486 0.631197453 1.245974898 1.259452224 0.907301247 1.490825653 1.238659739 0.669747233 0.918747485 0.630807936 0.492707342 0.693432152 1.377230525 0.944035769 1.047194958 1.508158565 0.874892652 0.803572178 1.091580391 1.000937462 1.129350662 0.824998796 0.687676549 1.476452470 1.620388389 1.105820775 0.918321013 0.652282834 1.021452546 1.385945797 1.888804793 1.135901332 1.371434093 1.593377233 1.961892247 1.333880901 1.128494501 1.372668505 1.427506804 1.021582365 0.677876890 1.377774835 0.566747010 1.205486894 1.127641559 1.121235371 1.115961432 0.718283951 0.432496756 1.263000488 1.601800442 1.215612173 1.125583887 0.882683337 1.426766992 1.260022402 0.974404395 0.842386425 1.422829509 1.183014989 1.516715884 0.580662489 1.073268175 1.224858880 0.698483467 1.090213776 1.258692980 1.162446022 0.603695393 0.912895799 1.103956819 1.101542234 1.106310010 1.616126060 0.893946230 1.072829604 1.277139783 0.724901497 0.528955102 0.817227244 0.945659399 1.238233685 0.803977430 1.297325730 0.510949194 2.088262796 0.768915296 0.433538914 0.486155033 0.818170369 1.413872004 1.010977626 1.871682405 1.137964725 0.991075873 1.314321518 1.155284286 2.079472065 0.653628051 1.384913325 1.158811808 1.048639059 1.271507978 1.199787855 0.893403649 1.207654953 0.932862580 0.712136090 1.378279448 0.647781968 0.397580385 0.693432152 1.434077978 1.021891952 0.894996524 1.520433187 0.978159785 0.544162512 1.063401341 1.388648033 0.909200490 1.072628498 0.817063987 1.588282228 1.335471511 1.097719193 0.797178209 0.653293610 1.361237884 1.197844505 1.520692825 1.338405371 1.202209949 0.670332134 1.175862551 1.333880901
ang 1.277349591 1.872689605 1.866672277 1.470258713 1.103417993 0.976974130 0.875230134 1.332099795 1.411627769 0.958604038 1.145247698 0.821351588 0.650215089 1.314812779 1.628382802 1.273411274 1.724791408 0.839474142 1.428061604 0.891662359 1.021084189 0.970016181 1.545977592 1.220450521 1.819218874 0.671778798 1.086170912 1.307617307 0.623771906 1.277194858 1.219469786 1.177762508 0.799803138 1.236640811 1.629177809 1.162021995 1.135916948 1.380100131 1.080992341 2.149086714 1.535807014 1.069011211 0.902047217 1.196398616 0.939773619 1.586168885 0.885786712 1.794414520 0.723966897 2.076734304 0.868032336 1.131037951 0.490765721 0.760144591 1.113238096 1.245051265 1.871682405 1.126917124 1.352061510 1.613024473 1.155284286 1.602910280 0.810302973 1.336450458 1.472435713 1.044441223 1.863624334 1.368522286 1.258909702 1.490825653 1.238659739 0.939249754 1.694270372 0.630807936 0.724016428 0.782423198 1.600140691 0.944035769 1.364701271 1.807818890 1.166287065 0.803572178 1.091580391 1.000937462 1.653302193 0.981827736 0.872154891 1.476452470 1.620388389 1.170198917 1.213614464 0.924816847 1.116798997 1.385945797 1.888804793 1.655421495 1.371434093 1.593377233 1.961892247 1.356830835 1.128494501 1.872689605 1.718235254 1.468366385 1.072451711 1.377774835 0.948839009 1.205486894 1.309496641 1.121235371 1.167279482 0.848504663 0.457540095 1.608993769 1.692577600 1.215612173 1.364190459 1.191901207 1.428061604 1.260022402 1.066574335 1.072496414 1.613975406 1.183014989 1.544942260 1.082939863 1.086170912 1.273444891 0.698483467 1.315512776 1.258692980 1.214116216 0.824744821 0.989272952 1.279508471 1.162021995 1.253728986 1.652287126 1.383978486 1.072829604 1.655821443 0.889324129 0.902047217 1.196398616 1.087844968 1.207949042 0.803977430 1.794414520 0.727782190 2.088262796 1.078819036 1.131037951 0.486155033 0.810596883 1.413872004 1.112136006 1.871682405 1.650709152 1.352061510 1.336577177 1.155284286 2.079472065 0.810302973 1.384913325 1.595516086 1.048639059 1.863624334 1.471468329 1.456661344 1.464452863 1.357590079 0.939249754 1.694270372 0.669910192 0.724016428 0.782423198 1.600140691 1.091407418 1.255511642 1.807818890 1.166287065 0.656071305 1.063401341 1.388648033 1.121354461 1.121127725 0.872154891 1.588282228 1.496674180 1.276748896 1.069059134 0.971867383 1.691681862 1.197844505 1.743343949 1.467560530 1.202209949 1.593377233 1.305998683 1.402850986
ani 1.128494501 1.308311462 1.866672277 1.125082850 0.823414922 0.976974130 0.636647046 1.120960951 1.146676898 0.806892335 0.825989962 0.716604471 0.333040833 1.197746277 1.628382802 0.910123408 1.380250573 0.600205958 1.109170794 0.735503852 0.929429650 0.970016181 1.545977592 1.051630974 1.819218874 0.520301759 0.924221337 1.307617307 0.623771906 1.020266414 1.184293866 0.971172392 0.603963733 0.896486044 1.248652220 0.732543766 1.105128169 1.047209144 1.057057261 0.932187557 1.535807014 0.723114550 0.902047217 0.937050939 0.939773619 1.586168885 0.668538570 1.513723731 0.723966897 2.076734304 0.753379822 0.895313501 0.367059439 0.569531500 0.995687902 1.245051265 1.871682405 1.126917124 1.213122487 1.613024473 1.155284286 1.562975883 0.560129404 1.068807364 1.221583486 0.631197453 1.245974898 1.259452224 0.907301247 1.490825653 1.238659739 0.669747233 0.918747485 0.630807936 0.492707342 0.693432152 1.377230525 0.944035769 1.047194958 1.508158565 0.874892652 0.803572178 1.091580391 1.000937462 1.129350662 0.824998796 0.687676549 1.476452470 1.620388389 1.105820775 0.918321013 0.652282834 1.021452546 1.385945797 1.888804793 1.135901332 1.371434093 1.593377233 1.961892247 1.333880901 1.128494501 1.372668505 1.427506804 1.021582365 0.677876890 1.377774835 0.566747010 1.205486894 1.127641559 1.121235371 1.115961432 0.718283951 0.432496756 1.263000488 1.601800442 1.215612173 1.125583887 0.882683337 1.426766992 1.260022402 0.974404395 0.842386425 1.422829509 1.183014989 1.516715884 0.580662489 1.073268175 1.224858880 0.698483467 1.090213776 1.258692980 1.162446022 0.603695393 0.912895799 1.103956819 1.101542234 1.106310010 1.616126060 0.893946230 1.072829604 1.277139783 0.724901497 0.528955102 0.817227244 0.945659399 1.054408431 0.803977430 1.297325730 0.510949194 2.088262796 0.768915296 0.433538914 0.486155033 0.810596883 1.413872004 1.010977626 1.871682405 1.137964725 0.991075873 1.314321518 1.155284286 2.079472065 0.653628051 1.384913325 1.158811808 1.048639059 1.271507978 1.199787855 0.893403649 1.207654953 0.932862580 0.712136090 1.378279448 0.647781968 0.397580385 0.693432152 1.434077978 1.021891952 0.894996524 1.520433187 0.978159785 0.544162512 1.063401341 1.388648033 0.909200490 1.072628498 0.817063987 1.588282228 1.335471511 1.097719193 0.797178209 0.653293610 1.361237884 1.197844505 1.520692825 1.338405371 1.202209949 0.670332134 1.175862551 1.333880901
aoz 1.128494501 1.308311462 1.866672277 1.125082850 0.823414922 0.976974130 0.636647046 1.120960951 1.146676898 0.806892335 0.825989962 0.716604471 0.333040833 1.197746277 1.628382802 0.910123408 1.380250573 0.600205958 1.109170794 0.735503852 0.929429650 0.970016181 1.545977592 1.051630974 1.819218874 0.520301759 0.924221337 1.307617307 0.623771906 1.020266414 1.184293866 0.971172392 0.603963733 0.896486044 1.248652220 0.732543766 1.105128169 1.047209144 1.057057261 0.932187557 1.535807014 0.723114550 0.902047217 0.937050939 0.939773619 1.586168885 0.668538570 1.513723731 0.723966897 2.076734304 0.753379822 0.895313501 0.367059439 0.569531500 0.995687902 1.245051265 1.871682405 1.126917124 1.213122487 1.613024473 1.155284286 1.562975883 0.560129404 1.068807364 1.221583486 0.631197453 1.245974898 1.259452224 0.907301247 1.490825653 1.238659739 0.669747233 0.918747485 0.630807936 0.492707342 0.693432152 1.377230525 0.944035769 1.047194958 1.508158565 0.874892652 0.803572178 1.091580391 1.000937462 1.129350662 0.824998796 0.687676549 1.476452470 1.620388389 1.105820775 0.918321013 0.652282834 1.021452546 1.385945797 1.888804793 1.135901332 1.371434093 1.593377233 1.961892247 1.333880901 1.128494501 1.372668505 1.427506804 1.021582365 0.677876890 1.377774835 0.566747010 1.205486894 1.127641559 1.121235371 1.115961432 0.718283951 0.432496756 1.263000488 1.601800442 1.215612173 1.125583887 0.882683337 1.426766992 1.260022402 0.974404395 0.842386425 1.422829509 1.183014989 1.516715884 0.580662489 1.073268175 1.224858880 0.698483467 1.090213776 1.258692980 1.162446022 0.603695393 0.912895799 1.103956819 1.101542234 1.106310010 1.616126060 0.893946230 1.072829604 1.277139783 0.724901497 0.528955102 0.817227244 0.945659399 1.054408431 0.803977430 1.297325730 0.510949194 2.088262796 0.768915296 0.433538914 0.486155033 0.810596883 1.413872004 1.010977626 1.871682405 1.137964725 0.991075873 1.314321518 1.155284286 2.079472065 0.653628051 1.384913325 1.158811808 1.048639059 1.271507978 1.199787855 0.893403649 1.207654953 0.932862580 0.712136090 1.378279448 0.647781968 0.397580385 0.693432152 1.434077978 1.021891952 0.894996524 1.520433187 0.978159785 0.544162512 1.063401341 1.388648033 0.909200490 1.072628498 0.817063987 1.588282228 1.335471511 1.097719193 0.797178209 0.653293610 1.361237884 1.197844505 1.520692825 1.338405371 1.202209949 0.670332134 1.175862551 1.333880901
apc 1.128494501 1.308311462 1.866672277 1.125082850 0.823414922 0.976974130 0.636647046 1.120960951 1.146676898 0.806892335 0.825989962 0.716604471 0.333040833 1.197746277 1.628382802 0.910123408 1.380250573 0.600205958 1.109170794 0.735503852 0.929429650 0.970016181 1.545977592 1.051630974 1.819218874 0.520301759 0.924221337 1.307617307 0.623771906 1.020266414 1.184293866 0.971172392 0.603963733 0.896486044 1.248652220 0.732543766 1.105128169 1.047209144 1.057057261 0.932187557 1.535807014 0.723114550 0.902047217 0.937050939 0.939773619 1.586168885 0.668538570 1.513723731 0.723966897 2.076734304 0.753379822 0.895313501 0.367059439 0.569531500 0.995687902 1.245051265 1.871682405 1.126917124 1.213122487 1.613024473 1.155284286 1.562975883 0.560129404 1.068807364 1.221583486 0.631197453 1.245974898 1.259452224 0.907301247 1.490825653 1.238659739 0.669747233 0.918747485 0.630807936 0.492707342 0.693432152 1.377230525 0.944035769 1.047194958 1.508158565 0.874892652 0.803572178 1.091580391 1.000937462 1.129350662 0.824998796 0.687676549 1.476452470 1.620388389 1.105820775 0.918321013 0.652282834 1.021452546 1.385945797 1.888804793 1.135901332 1.371434093 1.593377233 1.961892247 1.333880901 1.128494501 1.372668505 1.427506804 1.021582365 0.677876890 1.377774835 0.566747010 1.205486894 1.127641559 1.121235371 1.115961432 0.718283951 0.432496756 1.263000488 1.601800442 1.215612173 1.125583887 0.882683337 1.426766992 1.260022402 0.974404395 0.842386425 1.422829509 1.183014989 1.516715884 0.580662489 1.073268175 1.224858880 0.698483467 1.090213776 1.258692980 1.162446022 0.603695393 0.912895799 1.103956819 1.101542234 1.106310010 1.616126060 0.893946230 1.072829604 1.277139783 0.724901497 0.528955102 0.817227244 0.945659399 1.054408431 0.803977430 1.297325730 0.510949194 2.088262796 0.768915296 0.433538914 0.486155033 0.810596883 1.413872004 1.010977626 1.871682405 1.137964725 0.991075873 1.314321518 1.155284286 2.079472065 0.653628051 1.384913325 1.158811808 1.048639059 1.271507978 1.199787855 0.893403649 1.207654953 0.932862580 0.712136090 1.378279448 0.647781968 0.397580385 0.693432152 1.434077978 1.021891952 0.894996524 1.520433187 0.978159785 0.544162512 1.063401341 1.388648033 0.909200490 1.072628498 0.817063987 1.588282228 1.335471511 1.097719193 0.797178209 0.653293610 1.361237884 1.197844505 1.520692825 1.338405371 1.202209949 0.670332134 1.175862551 1.333880901
apw 1.128494501 1.308311462 1.866672277 1.125082850 0.823414922 0.976974130 0.636647046 1.120960951 1.146676898 0.806892335 0.825989962 0.716604471 0.381162226 1.360380411 1.628382802 0.910123408 1.380250573 0.600205958 1.109170794 0.835956693 0.929429650 0.970016181 1.545977592 1.051630974 1.819218874 0.520301759 0.924221337 1.307617307 0.623771906 1.020266414 1.184293866 0.971172392 0.603963733 0.896486044 1.248652220 0.732543766 1.105128169 1.047209144 1.057057261 1.004712701 1.535807014 0.723114550 0.902047217 0.937050939 0.939773619 1.586168885 0.668538570 1.513723731 0.723966897 2.076734304 0.753379822 0.895313501 0.367059439 0.569531500 0.995687902 1.245051265 1.871682405 1.126917124 1.213122487 1.613024473 1.155284286 1.562975883 0.560129404 1.068807364 1.221583486 1.141078472 1.245974898 1.259452224 1.456661344 1.490825653 1.238659739 0.669747233 0.918747485 0.630807936 0.492707342 0.693432152 1.377230525 0.944035769 1.047194958 1.508158565 1.083015323 0.803572178 1.091580391 1.000937462 1.129350662 0.824998796 0.687676549 1.476452470 1.620388389 1.105820775 0.918321013 0.652282834 1.021452546 1.385945797 1.888804793 1.135901332 1.371434093 1.593377233 1.961892247 1.333880901 1.128494501 1.372668505 1.427506804 1.021582365 0.875174403 1.377774835 0.566747010 1.205486894 1.127641559 1.121235371 1.115961432 0.718283951 0.432496756 1.263000488 1.601800442 1.215612173 1.511994720 0.882683337 1.426766992 1.260022402 0.974404395 0.842386425 1.422829509 1.183014989 1.516715884 0.580662489 1.073268175 1.224858880 0.698483467 1.090213776 1.258692980 1.162446022 0.603695393 0.912895799 1.103956819 1.101542234 1.106310010 1.616126060 0.893946230 1.072829604 1.277139783 0.724901497 0.528955102 0.817227244 0.945659399 1.054408431 0.803977430 1.297325730 0.510949194 2.088262796 0.768915296 0.434432298 0.486155033 0.810596883 1.413872004 1.010977626 1.871682405 1.137964725 0.991075873 1.314321518 1.155284286 2.079472065 0.653628051 1.384913325 1.158811808 1.048639059 1.271507978 1.199787855 0.893403649 1.207654953 0.932862580 0.712136090 1.378279448 0.647781968 0.397580385 0.693432152 1.434077978 1.021891952 0.894996524 1.520433187 0.978159785 0.544162512 1.063401341 1.388648033 0.909200490 1.072628498 0.817063987 1.588282228 1.335471511 1.097719193 0.797178209 0.653293610 1.361237884 1.197844505 1.520692825 1.338405371 1.202209949 0.670332134 1.175862551 1.333880901
aqc 1.128494501 1.308311462 1.866672277 1.125082850 0.823414922 0.976974130 0.636647046 1.120960951 1.146676898 0.806892335 0.825989962 0.716604471 0.333040833 1.197746277 1.628382802 0.910123408 1.380250573 0.600205958 1.109170794 0.735503852 0.929429650 0.970016181 1.545977592 1.051630974 1.819218874 0.520301759 0.924221337 1.307617307 0.623771906 1.020266414 1.184293866 0.971172392 0.603963733 0.896486044 1.248652220 0.732543766 1.105128169 1.047209144 1.057057261 0.932187557 1.535807014 0.723114550 0.902047217 0.937050939 0.939773619 1.586168885 0.668538570 1.513723731 0.723966897 2.076734304 0.753379822 0.895313501 0.367059439 0.569531500 0.995687902 1.245051265 1.871682405 1.126917124 1.213122487 1.613024473 1.155284286 1.562975883 0.560129404 1.068807364 1.221583486 0.631197453 1.245974898 1.259452224 0.907301247 1.490825653 1.238659739 0.669747233 0.918747485 0.630807936 0.492707342 0.693432152 1.377230525 0.944035769 1.047194958 1.508158565 0.874892652 0.803572178 1.091580391 1.000937462 1.129350662 0.824998796 0.687676549 1.476452470 1.620388389 1.105820775 0.918321013 0.652282834 1.021452546 1.385945797 1.888804793 1.135901332 1.371434093 1.593377233 1.961892247 1.333880901 1.128494501 1.372668505 1.427506804 1.021582365 0.677876890 1.377774835 0.566747010 1.205486894 1.127641559 1.121235371 1.115961432 0.718283951 0.432496756 1.263000488 1.601800442 1.215612173 1.125583887 0.882683337 1.426766992 1.260022402 0.974404395 0.842386425 1.422829509 1.183014989 1.516715884 0.580662489 1.073268175 1.224858880 0.698483467 1.090213776 1.258692980 1.162446022 0.603695393 0.912895799 1.103956819 1.101542234 1.106310010 1.616126060 0.893946230 1.072829604 1.277139783 0.724901497 0.528955102 0.817227244 0.945659399 1.054408431 0.803977430 1.297325730 0.510949194 2.088262796 0.768915296 0.433538914 0.486155033 0.810596883 1.413872004 1.010977626 1.871682405 1.137964725 0.991075873 1.314321518 1.155284286 2.079472065 0.653628051 1.384913325 1.158811808 1.048639059 1.271507978 1.199787855 0.893403649 1.207654953 0.932862580 0.712136090 1.378279448 0.647781968 0.397580385 0.693432152 1.434077978 1.021891952 0.894996524 1.520433187 0.978159785 0.544162512 1.063401341 1.388648033 0.909200490 1.072628498 0.817063987 1.588282228 1.335471511 1.097719193 0.797178209 0.653293610 1.361237884 1.197844505 1.520692825 1.338405371 1.202209949 0.670332134 1.175862551 1.333880901
ara 1.700444579 2.147552013 2.458250046 1.871690869 1.570571184 1.530189991 1.441451550 1.819811225 1.873916984 1.587752819 2.201758385 1.221539140 1.219648957 1.990394115 2.540027142 1.825762630 1.724791408 1.349612713 2.029525757 1.601532698 1.518191695 1.447893500 2.275273323 1.861723781 2.061764956 1.312173724 1.665715933 2.096297026 1.275139570 2.332583904 1.852085352 1.892078280 1.299681664 1.635741472 1.805059910 1.356952429 1.602017641 1.934702396 1.506786227 2.149086714 2.000793219 1.706465960 1.209756374 1.535691857 1.399883151 1.586168885 1.356962085 2.237478495 1.120083690 2.537005424 1.644781828 1.159543157 1.004123449 1.627957225 1.846007943 1.536682844 1.981564641 1.788802385 1.633564472 1.806959629 1.308308482 2.417834520 1.437759876 1.844820857 1.919943571 1.404958963 1.883321762 2.207293272 1.616144419 1.980363965 2.212993383 1.248642325 2.071797609 1.328759313 1.397462010 1.423177242 1.739200115 1.308388352 1.749379635 2.011303902 1.522257686 1.041887641 1.739439726 1.605341077 2.166678190 1.456046224 1.142688870 2.139219284 1.772959113 1.662132144 1.447471142 1.275702596 1.965198874 2.155630350 2.063476086 1.740725994 1.676799297 1.593377233 1.990278125 1.885675907 1.700444579 1.872689605 2.458250046 1.871690869 1.610473871 1.530189991 1.226515532 1.819811225 1.890344262 1.587752819 2.201758385 1.257751465 1.031008244 1.736445308 2.617702961 1.785740972 1.688593030 1.379292846 1.999113798 1.565836549 1.518191695 1.366905212 2.223484516 2.019713640 2.061764956 1.214561939 1.665715933 2.288098097 1.100100517 2.332583904 1.852085352 1.677567124 1.299681664 1.635741472 1.805059910 1.278819680 1.805938363 2.142663956 2.200170040 2.195000887 2.000793219 1.703483462 1.642022133 1.562168837 1.399883151 1.564982891 1.356962085 2.370798111 1.731587529 2.537005424 1.644781828 1.159543157 0.967296898 1.627957225 1.846007943 1.536682844 1.981564641 1.785443664 1.633564472 1.806959629 1.340800881 2.444438219 1.560299516 1.844820857 2.185301065 1.305508733 1.868803859 1.725890040 1.670245409 2.055234194 2.135479689 1.293817401 2.071797609 1.382405400 1.397462010 1.423177242 1.764548302 1.240791798 1.749379635 1.881221175 1.470782399 1.107409954 1.615655541 1.605341077 2.166678190 1.658356190 1.142688870 2.036416292 1.826797128 1.662132144 1.402603030 1.420124531 1.764119506 1.906566143 1.955562353 1.898034215 1.759432793 1.593377233 1.990278125 1.885675907
arc 1.128494501 1.308311462 1.866672277 1.267284393 0.823414922 0.976974130 0.705741584 1.120960951 1.369429111 0.806892335 0.825989962 0.716604471 0.433794379 1.197746277 1.706588626 0.910123408 1.380250573 0.600205958 1.109170794 0.891747117 0.929429650 0.970016181 1.545977592 1.051630974 1.819218874 0.817114592 0.924221337 1.307617307 0.642370820 1.111762881 1.184293866 0.993822217 0.603963733 0.896486044 1.276513219 0.732543766 1.105128169 1.047209144 1.057057261 0.932187557 1.535807014 0.732021511 0.902047217 0.937050939 0.939773619 1.586168885 0.714990556 1.513723731 0.723966897 2.076734304 0.910640717 0.895313501 0.817740440 0.569531500 0.995687902 1.245051265 1.871682405 1.138962030 1.213122487 1.613024473 1.155284286 1.562975883 0.929881632 1.153915048 1.221583486 0.976983368 1.245974898 1.259452224 1.519254088 1.490825653 1.238659739 0.682544351 1.253461719 0.723660827 0.763874590 0.693432152 1.434077978 0.944035769 1.047194958 1.508158565 0.874892652 0.803572178 1.091580391 1.000937462 1.129350662 0.856845617 0.687676549 1.476452470 1.620388389 1.105820775 0.918321013 0.722826242 1.021452546 1.385945797 1.888804793 1.135901332 1.371434093 1.593377233 1.961892247 1.333880901 1.347377419 1.372668505 1.427506804 1.173847198 0.958671808 1.377774835 0.705741584 1.205486894 1.127641559 1.121235371 1.166930556 0.815223575 0.432496756 1.263000488 1.692577600 1.215612173 1.125583887 0.882683337 1.428061604 1.260022402 0.974404395 0.843313694 1.454866767 1.183014989 1.516715884 0.580662489 1.073268175 1.224858880 0.698483467 1.315512776 1.258692980 1.162446022 0.780491173 0.912895799 1.613368750 1.101542234 1.106310010 1.616126060 0.893946230 1.072829604 1.655821443 0.724901497 0.528955102 0.817227244 1.087844968 1.054408431 0.803977430 1.297325730 0.570504844 2.088262796 0.768915296 0.662760556 0.486155033 0.810596883 1.413872004 1.010977626 1.871682405 1.285665512 0.991075873 1.314321518 1.155284286 2.079472065 0.653628051 1.384913325 1.158811808 1.048639059 1.271507978 1.199787855 0.893403649 1.207654953 0.932862580 0.712136090 1.378279448 0.809680045 0.397580385 0.693432152 1.716613889 1.021891952 0.958025813 1.520433187 1.304237723 0.544162512 1.063401341 1.388648033 1.012804031 1.072628498 0.817063987 1.588282228 1.685028195 1.097719193 0.797178209 0.920161009 1.361237884 1.197844505 1.691877604 1.338405371 1.202209949 0.670332134 1.192266583 1.333880901
arg 1.404075503 1.378864050 1.866672277 1.267284393 1.031847239 1.311789393 0.705741584 1.737724423 1.327244520 0.990998864 1.145247698 0.851136386 0.749402404 1.367914438 1.628382802 1.152164340 1.724791408 1.093999505 1.281711102 1.109955549 0.934806168 0.970016181 1.756055474 1.591265798 1.819218874 0.785636961 0.950216830 1.307617307 0.906104267 1.202548027 1.184293866 0.973620236 0.892920136 1.007835150 1.815050364 0.776910067 1.105128169 1.599041224 1.057057261 1.042931557 1.535807014 1.069011211 0.902047217 0.937050939 1.103208184 1.586168885 0.715522289 1.513723731 0.723966897 2.076734304 0.911280453 0.895313501 0.527250528 0.810725451 1.073490262 1.245051265 1.871682405 1.741659641 1.213122487 1.613024473 1.155284286 1.823185444 0.826078594 1.304291368 1.221583486 1.044441223 1.656846881 1.314333200 1.258909702 1.498966813 1.399737120 0.746246874 1.493936539 0.682912648 0.709678173 0.761410773 1.499449968 0.944035769 1.364701271 1.508158565 1.312940240 0.803572178 1.091580391 1.000937462 1.487092614 0.980422974 0.687676549 1.629117250 1.620388389 1.179115295 1.049538136 0.744721234 1.325092912 1.385945797 1.888804793 1.135901332 1.371434093 1.593377233 1.961892247 1.333880901 1.128494501 1.737738252 1.715601921 1.391261935 1.201171994 1.377774835 0.582899094 1.245000958 1.308573961 1.121235371 1.376183987 0.857176125 0.570307314 1.371139169 1.692577600 1.215612173 1.449536920 0.882683337 1.428890944 1.260022402 1.140804887 1.288719893 1.756055474 1.591265798 1.516715884 0.580662489 1.073268175 1.400239468 0.906104267 1.090213776 1.515686631 1.162446022 0.799803138 0.988167226 1.619277000 1.101542234 1.250482559 1.616126060 1.189389706 1.154886603 1.400663018 1.152932286 0.902047217 0.937050939 1.087844968 1.054408431 0.885987163 1.806028843 0.816828668 2.437634945 0.768915296 0.513101816 0.723979175 0.810596883 1.413872004 1.010977626 1.871682405 1.200236320 1.295230389 1.314321518 1.155284286 2.079472065 0.653628051 1.384913325 1.216136336 1.048639059 1.466895342 1.281030536 1.456661344 1.490825653 1.176857114 0.939249754 1.421078563 0.868711531 0.534094155 1.045705080 1.434077978 1.021891952 1.316628814 1.520433187 1.347328424 0.657203555 1.063401341 1.388648033 1.229123950 1.376633406 0.941245615 1.923814416 1.685028195 1.145411491 1.353235006 0.797446609 1.361237884 1.197844505 1.691877604 1.374896049 1.263767719 1.593377233 1.175862551 1.342971325
arn 1.128494501 1.308311462 1.866672277 1.125082850 0.823414922 0.976974130 0.636647046 1.120960951 1.146676898 0.806892335 0.825989962 0.716604471 0.333040833 1.197746277 1.628382802 0.910123408 1.380250573 0.600205958 1.109170794 0.735503852 0.929429650 0.970016181 1.545977592 1.051630974 1.819218874 0.520301759 0.924221337 1.307617307 0.623771906 1.020266414 1.184293866 0.971172392 0.603963733 0.896486044 1.248652220 0.732543766 1.105128169 1.047209144 1.057057261 0.932187557 1.535807014 0.723114550 0.902047217 0.937050939 0.939773619 1.586168885 0.668538570 1.513723731 0.723966897 2.076734304 0.753379822 0.895313501 0.367059439 0.569531500 0.995687902 1.245051265 1.871682405 1.126917124 1.213122487 1.613024473 1.155284286 1.562975883 0.560129404 1.068807364 1.221583486 0.631197453 1.245974898 1.259452224 0.907301247 1.490825653 1.238659739 0.669747233 0.918747485 0.630807936 0.492707342 0.693432152 1.377230525 0.944035769 1.047194958 1.508158565 0.874892652 0.803572178 1.091580391 1.000937462 1.129350662 0.824998796 0.687676549 1.476452470 1.620388389 1.105820775 0.918321013 0.652282834 1.021452546 1.385945797 1.888804793 1.135901332 1.371434093 1.593377233 1.961892247 1.333880901 1.128494501 1.372668505 1.427506804 1.021582365 0.677876890 1.377774835 0.566747010 1.205486894 1.127641559 1.121235371 1.115961432 0.718283951 0.432496756 1.263000488 1.601800442 1.215612173 1.125583887 0.882683337 1.426766992 1.260022402 0.974404395 0.842386425 1.422829509 1.183014989 1.516715884 0.580662489 1.073268175 1.224858880 0.698483467 1.090213776 1.258692980 1.162446022 0.603695393 0.912895799 1.103956819 1.101542234 1.106310010 1.616126060 0.893946230 1.072829604 1.277139783 0.724901497 0.528955102 0.817227244 0.945659399 1.054408431 0.803977430 1.297325730 0.510949194 2.088262796 0.768915296 0.433538914 0.486155033 0.810596883 1.413872004 1.010977626 1.871682405 1.137964725 0.991075873 1.314321518 1.155284286 2.079472065 0.653628051 1.384913325 1.158811808 1.048639059 1.271507978 1.199787855 0.893403649 1.207654953 0.932862580 0.712136090 1.378279448 0.647781968 0.397580385 0.827335894 1.434077978 1.021891952 0.894996524 1.520433187 0.978159785 0.544162512 1.063401341 1.388648033 0.909200490 1.072628498 0.817063987 1.588282228 1.335471511 1.097719193 0.797178209 0.653293610 1.361237884 1.197844505 1.520692825 1.338405371 1.202209949 0.670332134 1.175862551 1.333880901
ary 1.128494501 1.308311462 1.866672277 1.125082850 0.880008459 0.976974130 0.636647046 1.120960951 1.146676898 0.806892335 0.852449238 0.716604471 0.333040833 1.197746277 1.628382802 0.910123408 1.439527392 0.733519316 1.109170794 0.735503852 0.929429650 0.970016181 1.545977592 1.051630974 1.819218874 0.914579511 0.924221337 1.307617307 0.623771906 1.020266414 1.184293866 0.971172392 0.603963733 0.896486044 1.248652220 0.732543766 1.105128169 1.047209144 1.057057261 1.308247924 1.535807014 0.763298571 0.902047217 0.937050939 0.939773619 1.586168885 0.668538570 1.513723731 0.723966897 2.076734304 0.753379822 0.895313501 0.367059439 0.581686258 0.995687902 1.245051265 1.871682405 1.126917124 1.213122487 1.613024473 1.155284286 1.562975883 0.560129404 1.068807364 1.221583486 0.631197453 1.245974898 1.259452224 0.907301247 1.490825653 1.238659739 0.669747233 1.174216986 0.630807936 0.492707342 0.693432152 1.377230525 0.944035769 1.047194958 1.508158565 0.874892652 0.803572178 1.091580391 1.000937462 1.129350662 0.965089142 0.687676549 1.476452470 1.620388389 1.105820775 0.918321013 0.765384078 1.021452546 1.385945797 1.888804793 1.135901332 1.371434093 1.593377233 1.961892247 1.333880901 1.128494501 1.372668505 1.734249592 1.021582365 0.677876890 1.377774835 0.566747010 1.205486894 1.127641559 1.121235371 1.115961432 0.718283951 0.432496756 1.263000488 1.606780887 1.215612173 1.304291129 0.882683337 1.426766992 1.260022402 0.974404395 0.842386425 1.422829509 1.183014989 1.516715884 0.580662489 1.073268175 1.224858880 0.698483467 1.196587563 1.258692980 1.162446022 0.603695393 0.912895799 1.103956819 1.101542234 1.106310010 1.616126060 0.893946230 1.072829604 1.277139783 0.724901497 0.528955102 0.817227244 0.945659399 1.054408431 0.803977430 1.297325730 0.510949194 2.088262796 0.768915296 0.607027233 0.656566024 0.810596883 1.413872004 1.010977626 1.871682405 1.137964725 0.991075873 1.314321518 1.155284286 2.079472065 0.653628051 1.384913325 1.158811808 1.048639059 1.271507978 1.457487583 0.893403649 1.207654953 1.847746611 0.800631762 1.378279448 0.888763964 0.397580385 0.693432152 1.434077978 1.021891952 1.024342418 1.520433187 0.978159785 0.544162512 1.063401341 1.388648033 0.965956867 1.072628498 0.817063987 1.588282228 1.335471511 1.097719193 0.797178209 0.653293610 1.361237884 1.197844505 1.520692825 1.338405371 1.202209949 0.670332134 1.175862551 1.333880901
arz 1.347377419 1.308311462 2.013981581 1.346226215 0.919861853 1.195727825 0.636647046 1.428273201 1.461834788 1.337582588 1.028764248 0.716604471 0.570307314 1.197746277 1.628382802 1.153337836 1.439527392 0.703815281 1.224712729 1.095625043 0.929429650 0.970016181 2.275273323 1.302670598 1.819218874 0.914579511 1.159234047 1.371043086 0.623771906 1.318676472 1.184293866 0.971172392 0.727775633 1.103392363 1.276513219 0.815627754 1.520333648 1.180727959 1.057057261 1.308247924 1.535807014 0.974649549 0.902047217 0.997242510 0.982394576 1.586168885 0.948959708 1.554001212 0.723966897 2.076734304 0.753379822 0.996682763 0.476199299 0.697386682 1.234127164 1.245051265 1.871682405 1.126917124 1.213122487 1.613024473 1.155284286 1.562975883 0.560129404 1.269811392 1.221583486 0.827524960 1.245974898 1.384538531 1.066705227 1.490825653 1.399737120 0.939249754 1.253461719 0.888763964 0.492707342 0.693432152 1.499449968 0.959390283 1.364701271 1.508158565 0.874892652 0.803572178 1.091580391 1.000937462 1.129350662 0.824998796 0.915597975 1.666208029 1.620388389 1.105820775 1.056319356 1.022898436 1.021452546 1.385945797 1.888804793 1.137968421 1.371434093 1.593377233 1.961892247 1.333880901 1.128494501 1.372668505 2.097092152 1.391261935 1.038266063 1.377774835 0.647611141 1.265413284 1.411627769 1.121235371 1.134066939 0.719592273 0.520205677 1.263000488 1.606780887 1.534406543 1.304291129 0.882683337 1.428061604 1.260022402 1.078772902 0.951593697 1.422829509 1.183014989 1.516715884 0.580662489 1.073268175 1.278202176 0.698483467 1.488434792 1.258692980 1.162446022 0.799803138 1.080917716 1.478133082 1.101542234 1.279348612 1.616126060 0.893946230 1.434287906 1.655821443 0.820551515 0.528955102 0.817227244 0.945659399 1.054408431 0.803977430 1.554001212 0.699066103 2.088262796 0.768915296 0.590327799 0.486155033 0.810596883 1.413872004 1.212657809 1.871682405 1.460338235 1.079757452 1.314321518 1.155284286 2.079472065 0.687574446 1.384913325 1.158811808 1.048639059 1.496537685 1.214081287 0.893403649 1.207654953 1.073743463 0.939249754 1.694270372 0.887812912 0.997698486 0.701271057 1.600702286 1.021891952 0.894996524 1.520433187 1.085358024 0.847780228 1.063401341 1.388648033 1.591405988 1.072628498 0.817063987 1.588282228 1.685028195 1.097719193 1.057743788 0.748090863 1.361237884 1.197844505 1.743343949 1.338405371 1.202209949 0.670332134 1.192266583 1.333880901
asm 1.293823123 1.308311462 1.866672277 1.321405530 0.823414922 0.976974130 0.744454265 1.428273201 1.146676898 0.806892335 1.087281823 0.889171541 0.494211316 1.197746277 1.787907720 1.062867880 1.380250573 0.817517042 1.484808326 1.095625043 1.136129141 0.970016181 1.545977592 1.066363454 1.819218874 0.520301759 0.924221337 1.307617307 0.623771906 1.069237947 1.184293866 0.984021127 0.603963733 0.896486044 1.248652220 0.801064849 1.105128169 1.068269610 1.074109316 1.042931557 1.569159865 0.803395867 0.902047217 0.937050939 0.939773619 1.586168885 0.668538570 1.513723731 0.723966897 2.246297359 0.753379822 0.895313501 0.367059439 0.569531500 0.995687902 1.245051265 1.871682405 1.126917124 1.213122487 1.613024473 1.155284286 1.658667684 1.116865754 1.282483697 1.221583486 0.976983368 1.276320457 1.259452224 0.912951469 1.490825653 1.399737120 0.746935666 1.045161486 0.667726278 0.709678173 0.948316574 1.499449968 0.944035769 1.134828448 1.508158565 0.874892652 0.803572178 1.091580391 1.000937462 1.653302193 0.824998796 0.687676549 1.476452470 1.620388389 1.105820775 0.918321013 0.752779543 1.364120007 1.385945797 1.888804793 1.262371302 1.371951222 1.593377233 1.961892247 1.562901258 1.128494501 1.737738252 1.427506804 1.391261935 0.880008459 1.377774835 0.582899094 1.205486894 1.360119343 1.121235371 1.115961432 0.742306769 0.578635335 1.263000488 1.786560297 1.215612173 1.439527392 1.177685380 1.633372307 1.260022402 0.974404395 1.019817472 1.422829509 1.183014989 1.598975420 0.580662489 1.073268175 1.224858880 0.698483467 1.515050054 1.386307836 1.196641326 0.603695393 0.988167226 1.103956819 1.101542234 1.106310010 1.616126060 1.030325890 1.434287906 1.324355602 0.731075466 0.607189059 0.885036170 0.945659399 1.054408431 1.118099093 1.298969030 0.756986439 2.088262796 0.768915296 0.802958190 0.486155033 0.818170369 1.413872004 1.401937723 1.871682405 1.452953219 1.151404500 1.314321518 1.156685591 2.079472065 0.653628051 1.384913325 1.253089666 1.048639059 1.466895342 1.199787855 1.456661344 1.471250057 1.050009727 1.049180150 1.378279448 0.647781968 0.577240407 0.693432152 1.434077978 1.021891952 1.374624968 1.520433187 0.978159785 0.593567908 1.133649707 1.388648033 1.273118258 1.072628498 0.817063987 1.588282228 1.335471511 1.097719193 1.183616638 0.994987071 1.361237884 1.350464106 1.520692825 1.338405371 1.249681234 0.741465330 1.175862551 1.333880901
ast 1.285367608 1.872689605 2.013981581 1.470258713 1.171121001 1.377774835 0.875230134 1.819811225 1.411627769 1.330158472 1.372769117 0.989614189 1.162698269 1.314812779 2.187521219 1.244531274 1.724791408 1.093999505 1.241100550 1.163707972 1.163179278 1.219208121 1.831974506 1.220450521 1.819218874 0.914579511 1.366155386 1.307617307 0.906104267 1.277194858 1.184293866 1.104395747 0.969993114 1.089504361 1.619277000 1.238451362 1.397461772 1.643473148 1.057057261 2.149086714 1.749436259 1.069011211 0.902047217 0.937050939 1.103208184 1.586168885 1.008764744 1.513723731 0.742990315 2.076734304 1.188328624 1.131037951 0.683771968 0.866100371 1.202960134 1.245051265 1.871682405 1.741659641 1.395779848 1.613024473 1.155284286 1.823185444 0.826078594 1.304291368 1.434115171 1.044441223 1.389237046 1.865070701 1.258909702 1.562316537 1.399737120 1.054973125 1.593218446 0.938219130 0.738595009 1.151350975 1.499449968 0.944035769 1.364701271 1.508158565 1.122953892 0.803572178 1.172915578 1.000937462 1.653302193 1.199419141 0.915597975 1.672157884 1.646185040 1.308091044 1.049538136 0.955752075 1.484019995 1.385945797 1.888804793 1.425656915 1.520959377 1.593377233 1.961892247 1.461847186 1.173189759 1.737738252 1.571444631 1.649469972 1.031847239 1.377774835 0.948839009 1.363271475 1.502933860 1.365622997 1.155339599 0.857176125 0.720420539 1.263000488 1.786560297 1.215612173 1.449536920 1.093999505 1.596344829 1.334608078 1.140895605 1.070644855 1.668396592 1.309983015 1.647570014 0.771572232 1.400873065 1.401292682 1.100554585 1.659875631 1.493243217 1.162446022 0.946613073 1.118308425 1.418711782 1.101542234 1.253728986 1.616126060 1.324781179 2.149086714 1.655821443 1.069011211 1.039637089 1.351927638 1.087844968 1.193687201 0.921043456 1.794414520 0.816828668 2.088262796 1.045201182 1.139019966 0.656566024 1.043919683 1.413872004 1.267511964 1.871682405 1.423791409 1.352061510 1.314321518 1.155284286 2.079472065 0.723084450 1.384913325 1.383151531 1.141078472 1.466895342 1.881480575 1.456661344 1.562316537 1.381327748 0.995854735 1.694270372 0.944375575 0.739744544 1.150939822 1.542995691 1.021891952 1.316628814 1.807818890 1.347328424 0.723745644 1.172915578 1.388648033 1.772083759 1.408749700 1.010932803 1.672157884 1.868256211 1.264679313 1.353235006 1.361870050 1.599168181 1.547505856 1.691877604 1.338405371 1.520959377 1.593377233 1.481722355 1.380195737
atj 1.128494501 1.308311462 1.866672277 1.125082850 0.823414922 0.976974130 0.636647046 1.120960951 1.146676898 0.806892335 0.825989962 0.716604471 0.333040833 1.197746277 1.628382802 0.910123408 1.380250573 0.600205958 1.109170794 0.735503852 0.929429650 0.970016181 1.545977592 1.051630974 1.819218874 0.520301759 0.924221337 1.307617307 0.623771906 1.020266414 1.184293866 0.971172392 0.603963733 0.896486044 1.248652220 0.732543766 1.105128169 1.047209144 1.057057261 0.932187557 1.535807014 0.723114550 0.902047217 0.937050939 0.939773619 1.586168885 0.668538570 1.513723731 0.723966897 2.076734304 0.753379822 0.895313501 0.367059439 0.569531500 0.995687902 1.245051265 1.871682405 1.126917124 1.213122487 1.613024473 1.155284286 1.562975883 0.560129404 1.068807364 1.221583486 0.631197453 1.245974898 1.259452224 0.907301247 1.490825653 1.238659739 0.669747233 0.918747485 0.630807936 0.492707342 0.693432152 1.377230525 0.944035769 1.047194958 1.508158565 0.874892652 0.803572178 1.091580391 1.000937462 1.129350662 0.824998796 0.687676549 1.476452470 1.620388389 1.105820775 0.918321013 0.652282834 1.021452546 1.385945797 1.888804793 1.135901332 1.371434093 1.593377233 1.961892247 1.333880901 1.128494501 1.372668505 1.427506804 1.021582365 0.677876890 1.377774835 0.566747010 1.205486894 1.127641559 1.121235371 1.115961432 0.718283951 0.432496756 1.263000488 1.601800442 1.215612173 1.125583887 0.882683337 1.426766992 1.260022402 0.974404395 0.842386425 1.422829509 1.183014989 1.516715884 0.580662489 1.073268175 1.224858880 0.698483467 1.090213776 1.258692980 1.162446022 0.603695393 0.912895799 1.103956819 1.101542234 1.106310010 1.616126060 0.893946230 1.072829604 1.277139783 0.724901497 0.528955102 0.817227244 0.945659399 1.054408431 0.803977430 1.297325730 0.510949194 2.088262796 0.768915296 0.433538914 0.486155033 0.810596883 1.413872004 1.010977626 1.871682405 1.137964725 0.991075873 1.314321518 1.155284286 2.079472065 0.653628051 1.384913325 1.158811808 1.048639059 1.271507978 1.199787855 0.893403649 1.207654953 0.932862580 0.712136090 1.378279448 0.647781968 0.397580385 0.693432152 1.434077978 1.021891952 0.894996524 1.520433187 0.978159785 0.544162512 1.063401341 1.388648033 0.909200490 1.072628498 0.817063987 1.588282228 1.335471511 1.097719193 0.797178209 0.653293610 1.361237884 1.197844505 1.520692825 1.338405371 1.202209949 0.670332134 1.175862551 1.333880901
ava 1.128494501 1.308311462 1.866672277 1.267284393 0.823414922 1.074023843 0.636647046 1.428273201 1.146676898 0.806892335 0.968931079 0.716604471 0.333040833 1.197746277 1.730737209 1.066403747 1.380250573 0.600205958 1.109170794 1.270560980 0.929429650 0.970016181 1.545977592 1.051630974 1.819218874 0.566016495 0.924221337 1.307617307 0.623771906 1.020266414 1.184293866 0.971172392 0.603963733 0.989314497 1.248652220 0.732543766 1.105128169 1.047209144 1.057057261 0.932187557 1.535807014 0.812214017 0.902047217 0.937050939 0.939773619 1.586168885 0.668538570 1.513723731 0.723966897 2.076734304 0.753379822 0.895313501 0.367059439 0.569531500 0.995687902 1.245051265 1.871682405 1.126917124 1.213122487 1.613024473 1.155284286 1.562975883 0.560129404 1.068807364 1.221583486 0.768935978 1.245974898 1.259452224 0.985545695 1.490825653 1.238659739 0.870193779 1.271958351 0.630807936 0.492707342 0.693432152 1.377230525 0.944035769 1.047194958 1.508158565 0.874892652 0.803572178 1.091580391 1.000937462 1.129350662 0.856845617 0.687676549 1.476452470 1.620388389 1.105820775 1.137812853 0.796997786 1.116177559 1.385945797 1.888804793 1.135901332 1.371434093 1.593377233 1.961892247 1.333880901 1.128494501 1.737738252 1.427506804 1.021582365 0.677876890 1.377774835 0.566747010 1.205486894 1.127641559 1.121235371 1.115961432 0.815223575 0.432496756 1.263000488 1.601800442 1.215612173 1.125583887 0.882683337 1.426766992 1.260022402 0.974404395 0.842386425 1.422829509 1.183014989 1.516715884 0.673961461 1.073268175 1.224858880 0.698483467 1.090213776 1.258692980 1.162446022 0.603695393 0.988167226 1.103956819 1.101542234 1.106310010 1.616126060 0.893946230 1.072829604 1.277139783 0.724901497 0.528955102 0.817227244 0.945659399 1.054408431 0.803977430 1.297325730 0.510949194 2.088262796 0.768915296 0.433538914 0.634869576 0.810596883 1.413872004 1.010977626 1.871682405 1.137964725 0.991075873 1.314321518 1.155284286 2.079472065 0.653628051 1.384913325 1.158811808 1.048639059 1.271507978 1.199787855 0.893403649 1.207654953 1.024822950 0.837186515 1.378279448 0.647781968 0.397580385 0.693432152 1.434077978 1.021891952 0.894996524 1.520433187 0.978159785 0.583483279 1.063401341 1.388648033 0.909200490 1.072628498 0.817063987 1.588282228 1.335471511 1.203921318 0.797178209 0.653293610 1.361237884 1.197844505 1.555366635 1.338405371 1.202209949 0.741465330 1.175862551 1.333880901
ave 1.128494501 1.308311462 1.866672277 1.125082850 0.823414922 0.976974130 0.636647046 1.120960951 1.146676898 0.806892335 0.825989962 0.716604471 0.333040833 1.197746277 1.628382802 0.910123408 1.380250573 0.600205958 1.109170794 0.735503852 0.929429650 0.970016181 1.545977592 1.051630974 1.819218874 0.520301759 0.924221337 1.307617307 0.623771906 1.020266414 1.184293866 0.971172392 0.603963733 0.896486044 1.248652220 0.732543766 1.105128169 1.047209144 1.057057261 0.932187557 1.535807014 0.723114550 0.902047217 0.937050939 0.939773619 1.586168885 0.668538570 1.513723731 0.723966897 2.076734304 0.753379822 0.895313501 0.367059439 0.569531500 0.995687902 1.245051265 1.871682405 1.126917124 1.213122487 1.613024473 1.155284286 1.562975883 0.560129404 1.068807364 1.221583486 0.631197453 1.245974898 1.259452224 0.907301247 1.490825653 1.238659739 0.669747233 0.918747485 0.630807936 0.492707342 0.693432152 1.377230525 0.944035769 1.047194958 1.508158565 0.874892652 0.803572178 1.091580391 1.000937462 1.129350662 0.824998796 0.687676549 1.476452470 1.620388389 1.105820775 0.918321013 0.652282834 1.021452546 1.385945797 1.888804793 1.135901332 1.371434093 1.593377233 1.961892247 1.333880901 1.128494501 1.372668505 1.427506804 1.021582365 0.677876890 1.377774835 0.566747010 1.205486894 1.127641559 1.121235371 1.115961432 0.718283951 0.432496756 1.263000488 1.601800442 1.215612173 1.125583887 0.882683337 1.426766992 1.260022402 0.974404395 0.842386425 1.422829509 1.183014989 1.516715884 0.580662489 1.073268175 1.224858880 0.698483467 1.090213776 1.258692980 1.162446022 0.603695393 0.912895799 1.103956819 1.101542234 1.106310010 1.616126060 0.893946230 1.072829604 1.277139783 0.724901497 0.528955102 0.817227244 0.945659399 1.054408431 0.803977430 1.297325730 0.510949194 2.088262796 0.768915296 0.433538914 0.486155033 0.810596883 1.413872004 1.010977626 1.871682405 1.137964725 0.991075873 1.314321518 1.155284286 2.079472065 0.653628051 1.384913325 1.158811808 1.048639059 1.271507978 1.199787855 0.893403649 1.207654953 0.932862580 0.712136090 1.378279448 0.647781968 0.397580385 0.693432152 1.434077978 1.021891952 0.894996524 1.520433187 0.978159785 0.544162512 1.063401341 1.388648033 0.909200490 1.072628498 0.817063987 1.588282228 1.335471511 1.097719193 0.797178209 0.653293610 1.361237884 1.197844505 1.520692825 1.338405371 1.202209949 0.670332134 1.175862551 1.333880901
axm 1.128494501 1.308311462 1.866672277 1.125082850 0.823414922 0.976974130 0.636647046 1.120960951 1.146676898 0.806892335 0.825989962 0.716604471 0.333040833 1.197746277 1.628382802 0.910123408 1.380250573 0.600205958 1.109170794 0.735503852 0.929429650 0.970016181 1.545977592 1.051630974 1.819218874 0.520301759 0.924221337 1.307617307 0.623771906 1.020266414 1.184293866 0.971172392 0.603963733 0.896486044 1.248652220 0.732543766 1.105128169 1.047209144 1.057057261 0.932187557 1.535807014 0.723114550 0.902047217 0.937050939 0.939773619 1.586168885 0.668538570 1.513723731 0.723966897 2.076734304 0.753379822 0.895313501 0.367059439 0.569531500 0.995687902 1.245051265 1.871682405 1.126917124 1.213122487 1.613024473 1.155284286 1.562975883 0.560129404 1.068807364 1.221583486 0.631197453 1.245974898 1.259452224 0.907301247 1.490825653 1.238659739 0.669747233 0.918747485 0.630807936 0.492707342 0.693432152 1.377230525 0.944035769 1.047194958 1.508158565 0.874892652 0.803572178 1.091580391 1.000937462 1.129350662 0.824998796 0.687676549 1.476452470 1.620388389 1.105820775 0.918321013 0.652282834 1.021452546 1.385945797 1.888804793 1.135901332 1.371434093 1.593377233 1.961892247 1.333880901 1.128494501 1.372668505 1.427506804 1.021582365 0.738099635 1.377774835 0.566747010 1.205486894 1.127641559 1.121235371 1.115961432 0.718283951 0.432496756 1.263000488 1.601800442 1.215612173 1.125583887 0.882683337 1.426766992 1.260022402 0.974404395 0.842386425 1.422829509 1.183014989 1.516715884 0.580662489 1.073268175 1.224858880 0.698483467 1.090213776 1.258692980 1.162446022 0.603695393 0.912895799 1.103956819 1.101542234 1.106310010 1.616126060 0.893946230 1.072829604 1.277139783 0.724901497 0.528955102 0.817227244 0.945659399 1.054408431 0.803977430 1.297325730 0.510949194 2.088262796 0.768915296 0.433538914 0.486155033 0.810596883 1.413872004 1.010977626 1.871682405 1.137964725 0.991075873 1.314321518 1.155284286 2.079472065 0.653628051 1.384913325 1.158811808 1.048639059 1.271507978 1.199787855 0.893403649 1.207654953 0.932862580 0.712136090 1.378279448 0.647781968 0.397580385 0.693432152 1.434077978 1.021891952 0.894996524 1.520433187 0.978159785 0.544162512 1.063401341 1.388648033 0.909200490 1.072628498 0.817063987 1.588282228 1.335471511 1.097719193 0.797178209 0.653293610 1.361237884 1.197844505 1.520692825 1.338405371 1.202209949 0.670332134 1.175862551 1.333880901
aym 1.277349591 1.308311462 1.866672277 1.125082850 0.823414922 0.985933304 0.636647046 1.120960951 1.146676898 0.806892335 0.825989962 0.716604471 0.680754721 1.197746277 1.628382802 0.910123408 1.380250573 0.600205958 1.109170794 0.735503852 0.929429650 0.970016181 1.545977592 1.051630974 1.819218874 0.577602208 0.924221337 1.307617307 0.623771906 1.020266414 1.184293866 0.973620236 0.603963733 0.896486044 1.248652220 0.760038197 1.105128169 1.047209144 1.057057261 0.938591480 1.535807014 0.723114550 0.902047217 0.937050939 0.939773619 1.586168885 0.668538570 1.513723731 0.723966897 2.076734304 0.753379822 0.895313501 0.367059439 0.569531500 0.995687902 1.245051265 1.871682405 1.126917124 1.213122487 1.613024473 1.155284286 1.562975883 0.560129404 1.068807364 1.221583486 0.631197453 1.245974898 1.259452224 0.907301247 1.490825653 1.238659739 0.702398479 0.918747485 0.630807936 0.672478199 0.732473850 1.377230525 0.944035769 1.047194958 1.508158565 0.874892652 0.803572178 1.091580391 1.000937462 1.653302193 0.824998796 0.687676549 1.476452470 1.620388389 1.105820775 0.918321013 0.652282834 1.021452546 1.385945797 1.888804793 1.135901332 1.371434093 1.593377233 1.961892247 1.333880901 1.128494501 1.737738252 1.427506804 1.163961411 0.677876890 1.377774835 0.566747010 1.205486894 1.127641559 1.121235371 1.132783771 0.718283951 0.432496756 1.263000488 1.602396846 1.215612173 1.183041453 0.882683337 1.426766992 1.260022402 0.974404395 0.842386425 1.422829509 1.183014989 1.516715884 0.580662489 1.073268175 1.224858880 0.698483467 1.090213776 1.258692980 1.162446022 0.603695393 0.988167226 1.201185703 1.101542234 1.106310010 1.616126060 0.893946230 1.072829604 1.277139783 0.724901497 0.902047217 0.937050939 0.945659399 1.054408431 0.803977430 1.315176487 0.514627576 2.088262796 0.837801158 0.433538914 0.486155033 0.818170369 1.413872004 1.010977626 1.871682405 1.137964725 1.000225306 1.314321518 1.155284286 2.079472065 0.653628051 1.384913325 1.158811808 1.048639059 1.271507978 1.199787855 1.456661344 1.271619439 1.050009727 0.837186515 1.421078563 0.647781968 0.397580385 0.693432152 1.434077978 1.021891952 0.894996524 1.520433187 0.978159785 0.544162512 1.063401341 1.388648033 1.073772550 1.072628498 0.817063987 1.588282228 1.400491238 1.203921318 0.930185199 0.653293610 1.361237884 1.197844505 1.520692825 1.338405371 1.202209949 1.593377233 1.175862551 1.333880901
azb 1.128494501 1.308311462 2.013981581 1.310972095 0.963574708 0.976974130 0.636647046 1.143294930 1.231630445 0.990998864 0.825989962 0.716604471 0.333040833 1.197746277 1.628382802 0.910123408 1.380250573 0.600205958 1.109170794 1.095625043 0.929429650 0.970016181 1.756055474 1.051630974 1.819218874 0.520301759 0.924221337 1.307617307 0.906104267 1.080459356 1.184293866 0.971172392 0.603963733 0.896486044 1.619277000 0.732543766 1.105128169 1.068269610 1.057057261 0.932187557 1.535807014 0.723114550 0.902047217 0.937050939 0.939773619 1.586168885 0.714990556 1.513723731 0.723966897 2.076734304 0.911280453 0.895313501 0.367059439 0.741007984 0.995687902 1.245051265 1.871682405 1.302451491 1.213122487 1.613024473 1.155284286 1.809777498 0.639201045 1.068807364 1.221583486 0.900458872 1.245974898 1.417574406 0.907301247 1.490825653 1.238659739 0.682544351 0.918747485 0.630807936 0.492707342 0.693432152 1.377230525 0.944035769 1.047194958 1.508158565 0.874892652 0.936287403 1.091580391 1.000937462 1.129350662 0.824998796 0.687676549 1.476452470 1.620388389 1.474045157 0.918321013 0.908813894 1.021452546 1.385945797 1.888804793 1.135901332 1.371434093 1.593377233 1.961892247 1.333880901 1.128494501 1.372668505 1.427506804 1.245393634 0.840015471 1.377774835 0.582899094 1.205486894 1.127641559 1.121235371 1.259940982 0.718283951 0.432496756 1.263000488 1.692577600 1.215612173 1.125583887 0.882683337 1.426766992 1.262247682 0.974404395 0.842386425 1.422829509 1.183014989 1.516715884 0.580662489 1.073268175 1.224858880 0.698483467 1.488434792 1.258692980 1.162446022 0.603695393 0.912895799 1.103956819 1.101542234 1.250482559 1.788285851 0.893946230 1.072829604 1.277139783 0.724901497 0.528955102 0.817227244 1.087844968 1.054408431 0.803977430 1.297325730 0.510949194 2.088262796 0.898369730 0.484997272 0.486155033 0.810596883 1.413872004 1.149571896 1.871682405 1.137964725 1.000225306 1.314321518 1.156685591 2.079472065 0.653628051 1.384913325 1.158811808 1.048639059 1.343278050 1.236817718 0.893403649 1.207654953 1.545837760 0.832064807 1.378279448 0.909198105 0.534094155 0.858518779 1.434077978 1.021891952 0.896561861 1.520433187 0.978159785 0.593567908 1.063401341 1.388648033 1.012804031 1.072628498 0.817063987 1.588282228 1.335471511 1.097719193 0.844368100 0.653293610 1.361237884 1.197844505 1.520692825 1.338405371 1.202209949 0.670332134 1.175862551 1.333880901
