1609 200
aac 0.185296014 -0.000394007 -0.297619343 -0.263139635 0.186540723 0.095926099 0.063660733 -0.342684984 -0.308340281 -0.313660055 -0.296112388 -0.630579948 -0.323658556 0.372351140 0.214108899 -0.154103294 0.871977150 -0.421558172 -0.779583871 -0.325852811 0.150745615 -0.641748071 -0.158884153 -0.516531348 -0.634586155 -0.234206125 0.430701762 0.302081257 -0.395476252 0.483741373 -0.286601812 0.000534962 0.346410513 0.713066578 0.428327233 -0.378247589 0.043753672 -0.487887710 -0.669276416 -0.297037393 0.207979500 0.218167961 0.274036735 -0.101790585 -0.222846746 0.319211721 0.081265546 0.363816589 0.168176934 -0.446500540 -0.122849666 0.378469944 -0.505218446 0.311758786 -0.154441074 0.794053078 -0.045718331 -0.061256487 0.494968981 0.333333343 -0.344044715 -0.162811354 -0.932817400 0.333333343 0.293560952 0.297100633 0.301392883 -0.171553254 -0.325190276 0.359758139 -0.170965716 0.219340846 -0.120729603 -0.565765917 -0.151622519 -0.357638240 -0.061042119 -0.297602504 0.093277194 0.631732821 0.329183489 0.737767220 -0.442592382 0.045967799 0.052056193 -0.425349474 -0.034963910 -0.366840601 0.372627467 -0.146060809 0.180306986 0.330660641 0.171504959 0.080806494 -0.357912868 0.478623271 0.545650542 0.650090933 0.665995300 0.681355715 0.185296014 -0.000394007 -0.297619343 -0.263139635 0.186540723 0.095926099 0.063660733 -0.342684984 -0.308340281 -0.313660055 -0.296112388 -0.630579948 -0.323658556 0.372351140 0.214108899 -0.154103294 0.871977150 -0.421558172 -0.779583871 -0.325852811 0.150745615 -0.641748071 -0.158884153 -0.516531348 -0.634586155 -0.234206125 0.430701762 0.302081257 -0.395476252 0.483741373 -0.286601812 0.000534962 0.346410513 0.713066578 0.428327233 -0.378247589 0.043753672 -0.487887710 -0.669276416 -0.297037393 0.207979500 0.218167961 0.274036735 -0.101790585 -0.222846746 0.319211721 0.081265546 0.363816589 0.168176934 -0.446500540 -0.122849666 0.378469944 -0.505218446 0.311758786 -0.154441074 0.794053078 -0.045718331 -0.061256487 0.494968981 0.333333343 -0.344044715 -0.162811354 -0.932817400 0.333333343 0.293560952 0.297100633 0.301392883 -0.171553254 -0.325190276 0.359758139 -0.170965716 0.219340846 -0.120729603 -0.565765917 -0.151622519 -0.357638240 -0.061042119 -0.297602504 0.093277194 0.631732821 0.329183489 0.737767220 -0.442592382 0.045967799 0.052056193 -0.425349474 -0.034963910 -0.366840601 0.372627467 -0.146060809 0.180306986 0.330660641 0.171504959 0.080806494 -0.357912868 0.478623271 0.545650542 0.650090933 0.665995300 0.681355715
aah 0.725637615 -0.133650482 0.082950056 -0.535594106 0.658351898 -0.759102941 -0.343002945 -0.207272574 -0.087976798 0.301616579 -0.212759048 0.442428261 -0.005434528 0.573700309 0.052162409 0.051859766 0.416077346 0.112904787 -0.035882890 0.212604642 0.024661481 -0.306083083 -0.585112572 -0.652826965 0.363501281 0.718270600 -1.000000000 -0.758280873 -0.546129704 -0.108720765 -0.244437456 0.061854422 -0.235291228 0.726781607 0.255532384 0.176448420 -0.882619500 0.350234002 0.093940079 0.348061204 -0.011466771 0.426806211 0.579222918 0.479717910 0.727281928 0.000000000 -0.719681084 -0.351678818 -0.045371562 -0.693159103 0.440530300 0.385513484 -0.750847995 -0.013860166 0.813428283 -0.452772319 0.379529715 -0.096010730 -0.739521205 -0.304572850 0.519771576 -0.534529030 0.272853374 -0.431382090 -0.071168572 0.078997582 0.367366672 0.138935700 -0.778633833 -0.374257177 0.414125383 -0.079780161 0.376148432 -0.616331279 -1.000000000 0.735907316 -1.000000000 -0.459197551 -0.125742823 -0.069712065 0.554201305 0.030824155 -0.374257177 0.045962662 0.401541233 1.000000000 0.916704774 -0.828294516 -0.353714317 -0.709841073 -0.625865519 -1.000000000 -0.061409414 0.202514306 0.556353033 0.708299577 -0.002106717 -0.396185517 -0.055724949 0.033072740 0.725637615 -0.133650482 0.082950056 -0.535594106 0.658351898 -0.759102941 -0.343002945 -0.207272574 -0.087976798 0.301616579 -0.212759048 0.442428261 -0.005434528 0.573700309 0.052162409 0.051859766 0.416077346 0.112904787 -0.035882890 0.212604642 0.024661481 -0.306083083 -0.585112572 -0.652826965 0.363501281 0.718270600 -1.000000000 -0.758280873 -0.546129704 -0.108720765 -0.244437456 0.061854422 -0.235291228 0.726781607 0.255532384 0.176448420 -0.882619500 0.350234002 0.093940079 0.348061204 -0.011466771 0.426806211 0.579222918 0.479717910 0.727281928 0.000000000 -0.719681084 -0.351678818 -0.045371562 -0.693159103 0.440530300 0.385513484 -0.750847995 -0.013860166 0.813428283 -0.452772319 0.379529715 -0.096010730 -0.739521205 -0.304572850 0.519771576 -0.534529030 0.272853374 -0.431382090 -0.071168572 0.078997582 0.367366672 0.138935700 -0.778633833 -0.374257177 0.414125383 -0.079780161 0.376148432 -0.616331279 -1.000000000 0.735907316 -1.000000000 -0.459197551 -0.125742823 -0.069712065 0.554201305 0.030824155 -0.374257177 0.045962662 0.401541233 1.000000000 0.916704774 -0.828294516 -0.353714317 -0.709841073 -0.625865519 -1.000000000 -0.061409414 0.202514306 0.556353033 0.708299577 -0.002106717 -0.396185517 -0.055724949 0.033072740
aak 0.914478302 -0.555671215 0.034726147 0.555299044 -0.254478335 -0.634637892 0.022533253 -0.214596853 0.000000000 0.447540939 -0.062518366 0.429112971 0.385197550 0.639856458 -0.599211514 0.176041543 0.357343704 -0.795628548 0.229214907 0.231000051 -0.297925025 0.179973617 0.642447174 0.000000000 0.437027961 0.386622190 -0.118208289 -0.676516831 0.205645695 -0.281238943 -0.784026504 -0.194904864 1.000000000 0.451588094 -0.934211314 -0.139282450 0.485826164 -0.741895914 0.919970036 -0.219943598 0.729377866 0.291294634 -0.418921351 -0.937522531 -0.283641815 0.520626664 -0.493788451 0.213120252 -1.000000000 -0.161058664 0.710897744 -1.000000000 0.000000000 0.657892823 -0.199988410 0.565011442 -0.607149184 0.345013291 0.002225399 0.743350267 -0.020254359 0.045779765 -0.078544796 0.739330411 -0.687318742 0.881420612 0.817071199 0.202697873 0.829479694 -0.122875720 -0.566505969 -0.327329725 -0.356101513 0.168701679 0.972586155 -0.217593849 0.321132064 0.361447752 -0.450659394 -0.689407170 0.079449266 -0.142935127 -0.489244699 0.460161328 0.289608300 1.000000000 -0.660470605 0.172902524 -0.973021984 0.217343941 -0.383931816 0.385189831 0.015040242 0.172545612 -0.282118261 0.740014553 0.079531372 -0.533429384 -0.799027145 0.849759459 0.914478302 -0.555671215 0.034726147 0.555299044 -0.254478335 -0.634637892 0.022533253 -0.214596853 0.000000000 0.447540939 -0.062518366 0.429112971 0.385197550 0.639856458 -0.599211514 0.176041543 0.357343704 -0.795628548 0.229214907 0.231000051 -0.297925025 0.179973617 0.642447174 0.000000000 0.437027961 0.386622190 -0.118208289 -0.676516831 0.205645695 -0.281238943 -0.784026504 -0.194904864 1.000000000 0.451588094 -0.934211314 -0.139282450 0.485826164 -0.741895914 0.919970036 -0.219943598 0.729377866 0.291294634 -0.418921351 -0.937522531 -0.283641815 0.520626664 -0.493788451 0.213120252 -1.000000000 -0.161058664 0.710897744 -1.000000000 0.000000000 0.657892823 -0.199988410 0.565011442 -0.607149184 0.345013291 0.002225399 0.743350267 -0.020254359 0.045779765 -0.078544796 0.739330411 -0.687318742 0.881420612 0.817071199 0.202697873 0.829479694 -0.122875720 -0.566505969 -0.327329725 -0.356101513 0.168701679 0.972586155 -0.217593849 0.321132064 0.361447752 -0.450659394 -0.689407170 0.079449266 -0.142935127 -0.489244699 0.460161328 0.289608300 1.000000000 -0.660470605 0.172902524 -0.973021984 0.217343941 -0.383931816 0.385189831 0.015040242 0.172545612 -0.282118261 0.740014553 0.079531372 -0.533429384 -0.799027145 0.849759459
aau 0.005588178 -0.049723774 -0.081890516 0.218675762 0.840829909 -0.749255836 0.320414841 -0.481605798 0.000000000 -0.770806015 0.266458333 -0.500000000 -0.339723289 -0.383098543 -0.225604415 0.752209783 0.000000000 -0.830764651 0.584164977 -0.165246591 -0.519741595 0.646964073 -0.575903177 0.273323685 -1.000000000 0.305667281 -0.229448736 0.611797929 -0.471331060 -0.484329581 0.027870476 0.721018910 0.306639314 -0.521476328 -0.443956733 -0.164991856 -0.141655385 -0.084426075 -0.891939640 -0.692022681 -0.526033282 0.322625548 0.787746906 0.317433178 -0.351538301 -0.685033560 0.425991118 0.535305440 -0.314966440 -0.212253094 0.505088687 -0.500000000 -0.060151290 -0.349726349 0.685033560 0.314966440 0.031355798 0.000000000 0.251787901 -0.561655998 0.419225723 0.029236197 -0.210749537 1.000000000 0.202146202 -0.430134863 -0.210762128 -0.009584531 0.000000000 -0.054858878 0.776567698 -0.442093730 0.000000000 0.111718714 0.467963427 0.873609900 -0.276327044 0.162280336 0.105685472 -0.190701485 -0.242998704 0.259633750 -0.302784234 0.175861657 -0.118620872 0.500000000 0.477067739 1.000000000 -0.301110268 -0.787746906 0.576511025 0.811754107 0.032805249 -0.671249211 -0.215752751 -0.346669316 -0.388807774 0.813401997 -0.450056344 0.096983552 0.005588178 -0.049723774 -0.081890516 0.218675762 0.840829909 -0.749255836 0.320414841 -0.481605798 0.000000000 -0.770806015 0.266458333 -0.500000000 -0.339723289 -0.383098543 -0.225604415 0.752209783 0.000000000 -0.830764651 0.584164977 -0.165246591 -0.519741595 0.646964073 -0.575903177 0.273323685 -1.000000000 0.305667281 -0.229448736 0.611797929 -0.471331060 -0.484329581 0.027870476 0.721018910 0.306639314 -0.521476328 -0.443956733 -0.164991856 -0.141655385 -0.084426075 -0.891939640 -0.692022681 -0.526033282 0.322625548 0.787746906 0.317433178 -0.351538301 -0.685033560 0.425991118 0.535305440 -0.314966440 -0.212253094 0.505088687 -0.500000000 -0.060151290 -0.349726349 0.685033560 0.314966440 0.031355798 0.000000000 0.251787901 -0.561655998 0.419225723 0.029236197 -0.210749537 1.000000000 0.202146202 -0.430134863 -0.210762128 -0.009584531 0.000000000 -0.054858878 0.776567698 -0.442093730 0.000000000 0.111718714 0.467963427 0.873609900 -0.276327044 0.162280336 0.105685472 -0.190701485 -0.242998704 0.259633750 -0.302784234 0.175861657 -0.118620872 0.500000000 0.477067739 1.000000000 -0.301110268 -0.787746906 0.576511025 0.811754107 0.032805249 -0.671249211 -0.215752751 -0.346669316 -0.388807774 0.813401997 -0.450056344 0.096983552
aax 0.151011646 0.134370655 -0.077906862 0.127635166 -0.137624875 0.243719429 -0.051795557 -0.242715523 -0.326155692 0.393815219 -0.011944404 -0.197168171 -0.027270235 -0.030674048 -0.033669241 -0.286136389 0.014654251 0.096292682 0.006684321 -0.051864401 -0.020190533 -0.196099028 -0.078704268 0.294590682 0.047677521 -0.016963331 -0.193476170 0.221850947 -0.003140083 0.028783523 -0.071243763 -0.199744239 -0.024431357 0.306409061 -0.217661619 0.049165256 0.234697521 -0.558917403 0.105214410 -0.104771458 -0.102522336 0.079492420 -0.186962530 0.457915515 0.108254105 0.298023641 0.018362440 -0.174399793 0.077482335 -0.312349260 0.042774461 0.155431092 -0.117198244 -0.150735214 0.083915181 0.087016255 -0.069308802 0.154050022 0.278662831 -0.219382703 0.075317860 -0.242062241 0.264145046 0.181680977 -0.289790094 -0.059392400 -0.006159159 0.040832318 -0.078812823 -0.190532044 -0.076541595 -0.396241933 0.162056834 -0.161452949 0.009365926 -0.042834885 0.168166459 -0.244974136 0.142599165 0.003958198 -0.058021601 0.076031409 -0.066512838 0.134969652 0.147891760 -0.143042073 0.049718238 -0.093774982 -0.179555014 -0.058438070 -0.129137725 -0.135208949 -0.365655452 0.317406863 0.206834108 0.267141461 -0.053241160 -0.073598787 0.013731379 0.179740936 0.151011646 0.134370655 -0.077906862 0.127635166 -0.137624875 0.243719429 -0.051795557 -0.242715523 -0.326155692 0.393815219 -0.011944404 -0.197168171 -0.027270235 -0.030674048 -0.033669241 -0.286136389 0.014654251 0.096292682 0.006684321 -0.051864401 -0.020190533 -0.196099028 -0.078704268 0.294590682 0.047677521 -0.016963331 -0.193476170 0.221850947 -0.003140083 0.028783523 -0.071243763 -0.199744239 -0.024431357 0.306409061 -0.217661619 0.049165256 0.234697521 -0.558917403 0.105214410 -0.104771458 -0.102522336 0.079492420 -0.186962530 0.457915515 0.108254105 0.298023641 0.018362440 -0.174399793 0.077482335 -0.312349260 0.042774461 0.155431092 -0.117198244 -0.150735214 0.083915181 0.087016255 -0.069308802 0.154050022 0.278662831 -0.219382703 0.075317860 -0.242062241 0.264145046 0.181680977 -0.289790094 -0.059392400 -0.006159159 0.040832318 -0.078812823 -0.190532044 -0.076541595 -0.396241933 0.162056834 -0.161452949 0.009365926 -0.042834885 0.168166459 -0.244974136 0.142599165 0.003958198 -0.058021601 0.076031409 -0.066512838 0.134969652 0.147891760 -0.143042073 0.049718238 -0.093774982 -0.179555014 -0.058438070 -0.129137725 -0.135208949 -0.365655452 0.317406863 0.206834108 0.267141461 -0.053241160 -0.073598787 0.013731379 0.179740936
aaz 0.219224051 0.279276192 -0.090282120 0.260633826 -0.093978025 0.081001766 0.223271698 -0.242303416 -0.029860156 0.145248145 -0.095109574 0.114891373 -0.025174022 -0.067924097 -0.067635186 -0.144138962 0.041609697 -0.009049261 0.077680163 0.081211686 -0.027675049 0.048485354 -0.034553848 0.190754935 0.031782661 -0.068178929 -0.149109453 0.119312905 0.195548043 -0.023100751 -0.017315643 -0.066206053 0.007961476 0.218467534 -0.376143992 -0.191627398 0.020539111 -0.055967771 0.152256534 -0.146479547 -0.243527904 0.059162915 -0.039381649 0.009901240 -0.266048729 0.217572212 0.047953427 0.029429873 0.065751009 -0.115005068 -0.101186909 -0.046850502 -0.052884944 -0.120657757 0.250217527 0.038558025 -0.051017318 -0.187819511 0.027374996 -0.331042975 -0.046525467 -0.223346382 -0.025234526 -0.047211349 -0.228843406 -0.106043108 0.018999241 -0.049644202 0.267462313 0.147410870 0.057182658 -0.064299591 -0.141499162 -0.216398194 0.104303002 -0.084101357 -0.030742651 0.051499438 0.086561784 -0.080271691 -0.070179276 -0.022074377 -0.221950680 0.017389145 0.063024163 0.311809123 -0.071702123 0.099560812 0.228519574 -0.138456628 0.137769029 -0.098763078 -0.335913867 0.028297724 -0.086319119 -0.011633877 0.017733807 -0.286983222 0.203162581 0.199426636 0.219224051 0.279276192 -0.090282120 0.260633826 -0.093978025 0.081001766 0.223271698 -0.242303416 -0.029860156 0.145248145 -0.095109574 0.114891373 -0.025174022 -0.067924097 -0.067635186 -0.144138962 0.041609697 -0.009049261 0.077680163 0.081211686 -0.027675049 0.048485354 -0.034553848 0.190754935 0.031782661 -0.068178929 -0.149109453 0.119312905 0.195548043 -0.023100751 -0.017315643 -0.066206053 0.007961476 0.218467534 -0.376143992 -0.191627398 0.020539111 -0.055967771 0.152256534 -0.146479547 -0.243527904 0.059162915 -0.039381649 0.009901240 -0.266048729 0.217572212 0.047953427 0.029429873 0.065751009 -0.115005068 -0.101186909 -0.046850502 -0.052884944 -0.120657757 0.250217527 0.038558025 -0.051017318 -0.187819511 0.027374996 -0.331042975 -0.046525467 -0.223346382 -0.025234526 -0.047211349 -0.228843406 -0.106043108 0.018999241 -0.049644202 0.267462313 0.147410870 0.057182658 -0.064299591 -0.141499162 -0.216398194 0.104303002 -0.084101357 -0.030742651 0.051499438 0.086561784 -0.080271691 -0.070179276 -0.022074377 -0.221950680 0.017389145 0.063024163 0.311809123 -0.071702123 0.099560812 0.228519574 -0.138456628 0.137769029 -0.098763078 -0.335913867 0.028297724 -0.086319119 -0.011633877 0.017733807 -0.286983222 0.203162581 0.199426636
abk 0.069199115 -0.093270637 -0.018469568 -0.104785763 -0.044655092 -0.029292908 -0.084737457 -0.015474197 -0.058608372 0.068416223 -0.155655473 0.037613764 -0.125908643 0.086129300 -0.167723909 0.062801257 -0.045638055 0.026824784 -0.051884897 0.041310996 0.077749766 0.022601927 -0.021879904 -0.038206596 0.019206289 -0.076709837 0.045691006 -0.024916111 0.041229673 -0.114033706 -0.084052354 -0.134927347 0.029887481 -0.007278898 -0.084943458 -0.182870328 0.022498116 0.000941711 -0.068890639 0.124201521 -0.102600239 -0.095247902 0.093303323 -0.089800514 -0.109303683 -0.080792286 0.020995576 -0.009651098 -0.151700795 0.003392992 0.130264267 -0.040053796 0.023623429 0.098017029 -0.047693465 -0.047108300 0.015229062 0.029777028 -0.065068901 0.075689644 -0.087986164 -0.062797777 -0.042382207 0.100381508 0.028128475 0.020188201 0.169470400 0.026811294 0.069575496 0.044296950 -0.144918084 0.073973760 0.034026626 -0.044153165 -0.000634767 0.011986040 0.029890325 0.027856074 -0.064956367 0.024004202 -0.073768735 0.090230301 -0.045428701 0.074279964 -0.029785862 -0.007841221 0.114829615 0.049968522 0.005335669 -0.228341013 -0.004136101 0.068889946 -0.016321726 -0.105661824 0.045084383 0.046189573 -0.016265109 -0.038467593 -0.023567190 0.109870277 0.069199115 -0.093270637 -0.018469568 -0.104785763 -0.044655092 -0.029292908 -0.084737457 -0.015474197 -0.058608372 0.068416223 -0.155655473 0.037613764 -0.125908643 0.086129300 -0.167723909 0.062801257 -0.045638055 0.026824784 -0.051884897 0.041310996 0.077749766 0.022601927 -0.021879904 -0.038206596 0.019206289 -0.076709837 0.045691006 -0.024916111 0.041229673 -0.114033706 -0.084052354 -0.134927347 0.029887481 -0.007278898 -0.084943458 -0.182870328 0.022498116 0.000941711 -0.068890639 0.124201521 -0.102600239 -0.095247902 0.093303323 -0.089800514 -0.109303683 -0.080792286 0.020995576 -0.009651098 -0.151700795 0.003392992 0.130264267 -0.040053796 0.023623429 0.098017029 -0.047693465 -0.047108300 0.015229062 0.029777028 -0.065068901 0.075689644 -0.087986164 -0.062797777 -0.042382207 0.100381508 0.028128475 0.020188201 0.169470400 0.026811294 0.069575496 0.044296950 -0.144918084 0.073973760 0.034026626 -0.044153165 -0.000634767 0.011986040 0.029890325 0.027856074 -0.064956367 0.024004202 -0.073768735 0.090230301 -0.045428701 0.074279964 -0.029785862 -0.007841221 0.114829615 0.049968522 0.005335669 -0.228341013 -0.004136101 0.068889946 -0.016321726 -0.105661824 0.045084383 0.046189573 -0.016265109 -0.038467593 -0.023567190 0.109870277
abq 0.216935873 -0.327719420 -0.248667955 -0.152149796 -0.087221742 -0.097107112 -0.144040540 0.291504830 0.030321479 0.025030106 0.151651666 0.422772169 0.585249722 0.407831758 -0.020720681 -0.230062485 0.058845747 -0.344758838 0.065264322 -0.221991822 -0.150792077 0.276562691 0.369289160 -0.194039822 0.401368886 -0.058204245 0.168258831 0.367466688 -0.339673877 -0.362386078 0.440899879 0.332891315 -0.258861274 -0.367337704 0.053441759 -0.194514915 -0.099136114 0.113591872 0.216921881 -0.625106990 -0.264773011 0.122912087 -0.141732171 0.302738458 0.085545242 0.433118939 0.101654358 0.073247574 0.007965346 0.125634223 -0.269900322 -0.450991869 0.462143749 -0.117093384 0.332227081 0.035801996 0.276900202 0.217616618 0.077505469 -0.013994466 -0.014334436 0.341033816 -0.180351496 0.093513973 0.115782060 -0.117217742 0.043312620 -0.182182983 -0.407637209 -0.065740697 0.227337047 -0.166666672 -0.456589133 0.228775904 -0.057274129 -0.237564564 0.770960629 0.241828278 -0.512491822 0.016449342 0.392584950 -0.588390768 -0.036456879 -0.018589050 -0.105863713 -0.011936337 0.213799790 -0.447966725 -0.058799375 -0.110734440 0.133034691 0.102432132 -0.272804141 -0.294860572 0.392445087 0.100310482 0.095425330 -0.039931517 0.258514076 0.129031435 0.216935873 -0.327719420 -0.248667955 -0.152149796 -0.087221742 -0.097107112 -0.144040540 0.291504830 0.030321479 0.025030106 0.151651666 0.422772169 0.585249722 0.407831758 -0.020720681 -0.230062485 0.058845747 -0.344758838 0.065264322 -0.221991822 -0.150792077 0.276562691 0.369289160 -0.194039822 0.401368886 -0.058204245 0.168258831 0.367466688 -0.339673877 -0.362386078 0.440899879 0.332891315 -0.258861274 -0.367337704 0.053441759 -0.194514915 -0.099136114 0.113591872 0.216921881 -0.625106990 -0.264773011 0.122912087 -0.141732171 0.302738458 0.085545242 0.433118939 0.101654358 0.073247574 0.007965346 0.125634223 -0.269900322 -0.450991869 0.462143749 -0.117093384 0.332227081 0.035801996 0.276900202 0.217616618 0.077505469 -0.013994466 -0.014334436 0.341033816 -0.180351496 0.093513973 0.115782060 -0.117217742 0.043312620 -0.182182983 -0.407637209 -0.065740697 0.227337047 -0.166666672 -0.456589133 0.228775904 -0.057274129 -0.237564564 0.770960629 0.241828278 -0.512491822 0.016449342 0.392584950 -0.588390768 -0.036456879 -0.018589050 -0.105863713 -0.011936337 0.213799790 -0.447966725 -0.058799375 -0.110734440 0.133034691 0.102432132 -0.272804141 -0.294860572 0.392445087 0.100310482 0.095425330 -0.039931517 0.258514076 0.129031435
abt -0.100488551 0.568310678 -1.000000000 0.197135031 0.117944561 0.665284634 -0.496488869 -0.468134075 0.197135031 -0.850323081 -0.850323081 -0.779660225 0.709429383 0.342464715 -0.406601816 1.000000000 0.736369193 0.693552911 -1.000000000 -0.945890188 -0.496488869 -1.000000000 -0.366012573 -0.804393768 -0.850323081 0.177891240 0.030334122 1.000000000 0.197135031 1.000000000 -0.802864969 0.691810727 1.000000000 1.000000000 1.000000000 0.136766002 0.425775975 -1.000000000 -0.850323081 0.394241124 0.850323081 -0.411453724 0.673989058 -0.305371791 -0.091609813 0.192702010 0.850323081 1.000000000 0.608571231 -0.419229090 0.732543409 0.683274508 -0.490815163 -0.438599706 0.352554709 1.000000000 -0.360617578 -0.149923846 0.802864969 -1.000000000 -0.850323081 0.657353580 -0.798452079 1.000000000 0.125650480 -0.168030679 1.000000000 -0.802864969 -0.510396898 0.671916127 -0.341097206 0.850323081 0.043144859 -0.627002299 -1.000000000 0.175333440 -0.850323081 0.082886077 0.814784229 0.802864969 1.000000000 0.352320224 -0.806963921 -0.037185140 0.503511131 -0.850323081 -0.118748739 -0.503511131 1.000000000 0.017268099 0.496488869 1.000000000 0.778323293 0.714666963 -0.495215446 0.323532701 0.222157851 0.549723387 1.000000000 0.212541357 -0.100488551 0.568310678 -1.000000000 0.197135031 0.117944561 0.665284634 -0.496488869 -0.468134075 0.197135031 -0.850323081 -0.850323081 -0.779660225 0.709429383 0.342464715 -0.406601816 1.000000000 0.736369193 0.693552911 -1.000000000 -0.945890188 -0.496488869 -1.000000000 -0.366012573 -0.804393768 -0.850323081 0.177891240 0.030334122 1.000000000 0.197135031 1.000000000 -0.802864969 0.691810727 1.000000000 1.000000000 1.000000000 0.136766002 0.425775975 -1.000000000 -0.850323081 0.394241124 0.850323081 -0.411453724 0.673989058 -0.305371791 -0.091609813 0.192702010 0.850323081 1.000000000 0.608571231 -0.419229090 0.732543409 0.683274508 -0.490815163 -0.438599706 0.352554709 1.000000000 -0.360617578 -0.149923846 0.802864969 -1.000000000 -0.850323081 0.657353580 -0.798452079 1.000000000 0.125650480 -0.168030679 1.000000000 -0.802864969 -0.510396898 0.671916127 -0.341097206 0.850323081 0.043144859 -0.627002299 -1.000000000 0.175333440 -0.850323081 0.082886077 0.814784229 0.802864969 1.000000000 0.352320224 -0.806963921 -0.037185140 0.503511131 -0.850323081 -0.118748739 -0.503511131 1.000000000 0.017268099 0.496488869 1.000000000 0.778323293 0.714666963 -0.495215446 0.323532701 0.222157851 0.549723387 1.000000000 0.212541357
abw -0.330088586 -0.167820796 -0.160473794 0.297720224 -0.192641795 -0.722766578 -0.042315125 0.387108117 0.034834221 0.402765423 0.299334228 -0.188622877 0.337881982 0.112022556 -0.463837415 -0.227904394 0.443166524 -0.108538181 0.130072877 -0.132470936 -0.268447936 0.050197650 0.167425469 -0.122431546 0.541930377 0.364130974 0.290946513 0.466230243 0.220492885 0.332531393 0.544500291 0.081326351 0.233202621 -0.207830966 0.444613457 -0.102902785 -0.050898604 -0.027153110 0.009646253 -0.007054130 0.374861419 0.327183127 0.036927816 0.116050877 -0.135304153 0.524340451 -0.240868866 0.251215369 -0.330304086 0.027301928 -0.328840315 0.012671947 -0.150504470 -0.453450739 0.029564895 0.199282005 0.082006827 -0.158468485 0.239688501 0.086529404 0.256619483 0.515531480 -0.512405932 -0.395398408 0.058843613 0.314916462 -0.085698731 0.107786939 -0.216636866 0.305544496 -0.218006700 0.005677730 0.021007797 0.167862743 0.233971119 -0.221269339 0.023296671 0.007298347 0.257139474 0.187555581 -0.315913677 0.339364380 0.176265776 0.012334198 0.447271079 0.409457266 -0.108223252 -0.189255044 -0.247646749 0.158528939 -0.172978640 0.055053063 -0.193165585 -0.451068878 0.129295483 -0.146014214 -0.174191922 -0.555720210 -0.131859139 -0.374694407 -0.330088586 -0.167820796 -0.160473794 0.297720224 -0.192641795 -0.722766578 -0.042315125 0.387108117 0.034834221 0.402765423 0.299334228 -0.188622877 0.337881982 0.112022556 -0.463837415 -0.227904394 0.443166524 -0.108538181 0.130072877 -0.132470936 -0.268447936 0.050197650 0.167425469 -0.122431546 0.541930377 0.364130974 0.290946513 0.466230243 0.220492885 0.332531393 0.544500291 0.081326351 0.233202621 -0.207830966 0.444613457 -0.102902785 -0.050898604 -0.027153110 0.009646253 -0.007054130 0.374861419 0.327183127 0.036927816 0.116050877 -0.135304153 0.524340451 -0.240868866 0.251215369 -0.330304086 0.027301928 -0.328840315 0.012671947 -0.150504470 -0.453450739 0.029564895 0.199282005 0.082006827 -0.158468485 0.239688501 0.086529404 0.256619483 0.515531480 -0.512405932 -0.395398408 0.058843613 0.314916462 -0.085698731 0.107786939 -0.216636866 0.305544496 -0.218006700 0.005677730 0.021007797 0.167862743 0.233971119 -0.221269339 0.023296671 0.007298347 0.257139474 0.187555581 -0.315913677 0.339364380 0.176265776 0.012334198 0.447271079 0.409457266 -0.108223252 -0.189255044 -0.247646749 0.158528939 -0.172978640 0.055053063 -0.193165585 -0.451068878 0.129295483 -0.146014214 -0.174191922 -0.555720210 -0.131859139 -0.374694407
abz -0.147287786 -0.063655518 -0.061093129 -0.067471668 -0.064423226 -0.105882011 -0.014920166 0.088490121 -0.109869353 0.067788266 0.037112210 -0.062407937 0.077039838 0.141785860 -0.024285061 -0.038286254 -0.011401499 -0.150168464 -0.057429533 -0.200171888 -0.008346439 -0.024269260 -0.056086272 -0.030083889 -0.087916553 0.117348894 0.059146211 0.098723091 -0.066851661 -0.031384900 0.025970269 -0.011932941 0.022225723 -0.076556720 -0.018701794 -0.130338848 -0.071990900 -0.059113152 0.046559200 -0.247115657 -0.091038048 -0.079135738 -0.077646874 0.001202735 0.035184551 0.027887635 -0.083306506 -0.082675979 -0.000268166 0.037876926 -0.078910708 -0.050395735 -0.058732484 0.094277665 0.013448293 -0.156531632 -0.037555300 0.051297478 0.115255341 -0.016718777 0.176369205 0.015483518 -0.117109232 0.031025987 -0.037145130 -0.056866080 -0.212280914 -0.085532859 0.199601457 -0.101121314 0.019586897 -0.114122882 -0.137612939 0.103194624 0.190871447 0.001291189 -0.020368878 -0.157343030 -0.030407736 0.060918123 0.052241296 0.102901734 0.057518348 -0.144365802 -0.007935999 0.001563665 0.010297079 0.030539477 0.057619330 -0.167201117 0.185250983 0.071914122 -0.191715598 -0.031335432 0.064287163 0.227479681 -0.006268666 -0.096881874 -0.062645294 0.140133604 -0.147287786 -0.063655518 -0.061093129 -0.067471668 -0.064423226 -0.105882011 -0.014920166 0.088490121 -0.109869353 0.067788266 0.037112210 -0.062407937 0.077039838 0.141785860 -0.024285061 -0.038286254 -0.011401499 -0.150168464 -0.057429533 -0.200171888 -0.008346439 -0.024269260 -0.056086272 -0.030083889 -0.087916553 0.117348894 0.059146211 0.098723091 -0.066851661 -0.031384900 0.025970269 -0.011932941 0.022225723 -0.076556720 -0.018701794 -0.130338848 -0.071990900 -0.059113152 0.046559200 -0.247115657 -0.091038048 -0.079135738 -0.077646874 0.001202735 0.035184551 0.027887635 -0.083306506 -0.082675979 -0.000268166 0.037876926 -0.078910708 -0.050395735 -0.058732484 0.094277665 0.013448293 -0.156531632 -0.037555300 0.051297478 0.115255341 -0.016718777 0.176369205 0.015483518 -0.117109232 0.031025987 -0.037145130 -0.056866080 -0.212280914 -0.085532859 0.199601457 -0.101121314 0.019586897 -0.114122882 -0.137612939 0.103194624 0.190871447 0.001291189 -0.020368878 -0.157343030 -0.030407736 0.060918123 0.052241296 0.102901734 0.057518348 -0.144365802 -0.007935999 0.001563665 0.010297079 0.030539477 0.057619330 -0.167201117 0.185250983 0.071914122 -0.191715598 -0.031335432 0.064287163 0.227479681 -0.006268666 -0.096881874 -0.062645294 0.140133604
aca 0.006665685 -0.162922785 -0.180773526 0.030114878 -0.170308977 0.174463645 -0.227344662 0.267732143 0.002841559 0.179083094 -0.003919103 -0.091050319 -0.083287299 -0.103273891 -0.079154618 0.218789712 -0.009897236 -0.254780829 0.294615626 0.253224671 0.192369804 -0.119897120 0.099922180 0.298155308 0.272565663 0.471754909 0.169984251 0.002094666 0.063518122 -0.088529751 -0.261063844 -0.309576660 -0.000230428 -0.163854972 -0.122925512 0.083553851 -0.252656937 0.264067024 -0.020581944 0.073379278 0.119425766 0.458718687 0.311751485 -0.063728921 -0.160260633 0.212850764 0.055816647 0.330774665 0.068197221 -0.102667183 -0.178537831 -0.179489180 -0.221705690 0.237828478 -0.088252515 -0.232936397 -0.002255356 -0.001226298 0.301778048 0.206832796 0.495933831 -0.137276754 0.349853069 -0.280009001 -0.582202971 0.167884320 0.441751361 -0.092778705 0.356015384 -0.086804792 -0.131451949 0.410131335 -0.252308398 -0.057813808 0.231920302 0.112211399 -0.144246727 -0.132317513 -0.090354405 -0.248262361 0.117190473 -0.146741852 -0.031624094 0.105973765 0.135115325 0.352415681 -0.246858135 0.120041370 -0.094720080 0.181431383 0.388897985 -0.019029964 0.232544124 0.405667335 -0.216147169 0.148140430 -0.377401322 -0.519869268 -0.085739203 0.274849385 0.006665685 -0.162922785 -0.180773526 0.030114878 -0.170308977 0.174463645 -0.227344662 0.267732143 0.002841559 0.179083094 -0.003919103 -0.091050319 -0.083287299 -0.103273891 -0.079154618 0.218789712 -0.009897236 -0.254780829 0.294615626 0.253224671 0.192369804 -0.119897120 0.099922180 0.298155308 0.272565663 0.471754909 0.169984251 0.002094666 0.063518122 -0.088529751 -0.261063844 -0.309576660 -0.000230428 -0.163854972 -0.122925512 0.083553851 -0.252656937 0.264067024 -0.020581944 0.073379278 0.119425766 0.458718687 0.311751485 -0.063728921 -0.160260633 0.212850764 0.055816647 0.330774665 0.068197221 -0.102667183 -0.178537831 -0.179489180 -0.221705690 0.237828478 -0.088252515 -0.232936397 -0.002255356 -0.001226298 0.301778048 0.206832796 0.495933831 -0.137276754 0.349853069 -0.280009001 -0.582202971 0.167884320 0.441751361 -0.092778705 0.356015384 -0.086804792 -0.131451949 0.410131335 -0.252308398 -0.057813808 0.231920302 0.112211399 -0.144246727 -0.132317513 -0.090354405 -0.248262361 0.117190473 -0.146741852 -0.031624094 0.105973765 0.135115325 0.352415681 -0.246858135 0.120041370 -0.094720080 0.181431383 0.388897985 -0.019029964 0.232544124 0.405667335 -0.216147169 0.148140430 -0.377401322 -0.519869268 -0.085739203 0.274849385
acn 0.048560590 -0.114280932 -0.054365303 -0.021797376 0.061134916 0.124769561 -0.010609020 -0.222540006 0.124581747 -0.051095601 0.017463831 -0.023649730 -0.005144934 -0.035565894 -0.229106992 -0.009075259 0.235902861 0.090255976 0.200870663 -0.130173773 -0.173081830 0.006973699 -0.065712266 0.143777549 -0.055436026 0.070353933 0.128255486 0.040475614 0.032328211 -0.045956105 0.091988198 -0.188887507 0.111519814 -0.028471345 -0.223504156 0.104719803 -0.048173089 0.085812323 -0.047890868 -0.055284962 -0.152298555 -0.091894530 -0.152276978 -0.130661786 -0.045131490 0.068083152 0.074137434 0.063159816 0.148779899 -0.275290132 -0.022855375 -0.093956597 0.111674704 0.125298947 0.051638920 -0.049972627 -0.235745206 0.106139004 -0.030214902 0.269822210 0.001389361 -0.113688774 0.099257946 0.030786987 -0.055713110 0.095658608 0.161948651 0.022947220 0.075306989 -0.134661064 -0.239853576 0.113797687 0.101598397 0.018998172 -0.042456318 0.088209026 0.006072918 0.023321405 -0.155707464 -0.036601473 -0.114672445 -0.123550877 -0.081588246 0.120516844 0.126774520 -0.137222856 0.146336421 0.120410167 0.155101091 -0.025670018 -0.012301395 0.254093707 -0.105915383 -0.088857472 0.052507211 -0.229088321 -0.039110266 -0.115098864 -0.197106436 0.138648018 0.048560590 -0.114280932 -0.054365303 -0.021797376 0.061134916 0.124769561 -0.010609020 -0.222540006 0.124581747 -0.051095601 0.017463831 -0.023649730 -0.005144934 -0.035565894 -0.229106992 -0.009075259 0.235902861 0.090255976 0.200870663 -0.130173773 -0.173081830 0.006973699 -0.065712266 0.143777549 -0.055436026 0.070353933 0.128255486 0.040475614 0.032328211 -0.045956105 0.091988198 -0.188887507 0.111519814 -0.028471345 -0.223504156 0.104719803 -0.048173089 0.085812323 -0.047890868 -0.055284962 -0.152298555 -0.091894530 -0.152276978 -0.130661786 -0.045131490 0.068083152 0.074137434 0.063159816 0.148779899 -0.275290132 -0.022855375 -0.093956597 0.111674704 0.125298947 0.051638920 -0.049972627 -0.235745206 0.106139004 -0.030214902 0.269822210 0.001389361 -0.113688774 0.099257946 0.030786987 -0.055713110 0.095658608 0.161948651 0.022947220 0.075306989 -0.134661064 -0.239853576 0.113797687 0.101598397 0.018998172 -0.042456318 0.088209026 0.006072918 0.023321405 -0.155707464 -0.036601473 -0.114672445 -0.123550877 -0.081588246 0.120516844 0.126774520 -0.137222856 0.146336421 0.120410167 0.155101091 -0.025670018 -0.012301395 0.254093707 -0.105915383 -0.088857472 0.052507211 -0.229088321 -0.039110266 -0.115098864 -0.197106436 0.138648018
adg 0.139340416 -0.491385520 -0.080274858 -0.052111525 -0.219263792 0.024982978 -0.276605994 -0.073072195 -0.203105256 0.181095630 0.081141934 0.109386683 -0.466352642 -0.154430643 0.046532631 0.189787000 -0.185863391 -0.341791689 0.051508866 0.146520078 0.211245254 0.411467254 -0.455877602 0.641834140 0.264674574 0.112920620 -0.280060321 0.269572347 -0.016235566 0.006044386 0.002114333 0.044994641 -0.339775890 -0.234696075 -0.155747622 -0.340215743 -0.204544500 0.274173081 0.381362289 0.092710353 -0.286418080 0.115776837 0.572955430 -0.280991822 -0.037219923 -0.176356763 0.065737747 -0.115502045 -0.394347131 0.045927964 -0.148411065 -0.021864409 -0.059232861 -0.275954783 -0.249762341 0.389269352 -0.404272944 0.033870578 -0.204288632 0.367375672 0.529762805 -0.137148470 0.103656150 0.200624585 -0.232924148 -0.162157565 0.075112179 0.230543539 -0.010006368 0.117475271 -0.060991190 -0.179280221 0.452284873 -0.090758204 -0.011894768 -0.294851005 -0.557304680 0.290302277 0.117165804 -0.406411558 -0.346047401 -0.225506037 -0.466379642 -0.473237216 -0.061962284 0.327661455 0.325715482 -0.410716623 0.038576275 0.351524502 0.122237302 0.153564483 -0.491821945 0.100900665 -0.230429530 -0.081426941 -0.199848622 -0.001682782 0.073935941 -0.280656964 0.139340416 -0.491385520 -0.080274858 -0.052111525 -0.219263792 0.024982978 -0.276605994 -0.073072195 -0.203105256 0.181095630 0.081141934 0.109386683 -0.466352642 -0.154430643 0.046532631 0.189787000 -0.185863391 -0.341791689 0.051508866 0.146520078 0.211245254 0.411467254 -0.455877602 0.641834140 0.264674574 0.112920620 -0.280060321 0.269572347 -0.016235566 0.006044386 0.002114333 0.044994641 -0.339775890 -0.234696075 -0.155747622 -0.340215743 -0.204544500 0.274173081 0.381362289 0.092710353 -0.286418080 0.115776837 0.572955430 -0.280991822 -0.037219923 -0.176356763 0.065737747 -0.115502045 -0.394347131 0.045927964 -0.148411065 -0.021864409 -0.059232861 -0.275954783 -0.249762341 0.389269352 -0.404272944 0.033870578 -0.204288632 0.367375672 0.529762805 -0.137148470 0.103656150 0.200624585 -0.232924148 -0.162157565 0.075112179 0.230543539 -0.010006368 0.117475271 -0.060991190 -0.179280221 0.452284873 -0.090758204 -0.011894768 -0.294851005 -0.557304680 0.290302277 0.117165804 -0.406411558 -0.346047401 -0.225506037 -0.466379642 -0.473237216 -0.061962284 0.327661455 0.325715482 -0.410716623 0.038576275 0.351524502 0.122237302 0.153564483 -0.491821945 0.100900665 -0.230429530 -0.081426941 -0.199848622 -0.001682782 0.073935941 -0.280656964
adn -0.279211551 -0.155530348 -0.016974758 0.141460761 -0.181929529 0.010718213 0.082187936 0.034929667 0.176999182 0.094460763 0.172080457 0.016354484 0.240891203 0.121289529 0.038924370 -0.057220887 -0.007418392 -0.229010060 -0.064707436 -0.212580651 0.031014856 0.069274530 -0.093847558 0.052748863 0.128855303 0.030710252 0.117804155 0.237603337 -0.071543708 0.140756786 0.128684238 -0.123981781 0.090789050 -0.222805724 -0.175406545 -0.024369033 -0.128136218 -0.038191173 0.053845953 -0.192467794 0.046573680 0.183540523 0.085427091 0.116294406 0.315417439 -0.004626023 0.122905061 0.027797779 0.120305292 -0.147383139 -0.164893717 0.101305805 0.108116642 0.114758573 -0.126887977 0.019243293 0.047005560 0.101204053 0.194654360 -0.107491620 0.227050215 0.054199021 0.103644803 -0.094517261 0.065340035 -0.073942296 -0.203414366 0.034585290 0.001303637 -0.147623152 -0.134336635 -0.121111713 -0.169632003 0.017468588 0.023725310 -0.004885542 -0.004396335 -0.142544895 -0.083960541 0.091238178 -0.115323946 0.120791800 0.024921617 -0.108268753 -0.022076568 0.126808077 -0.023397708 0.041610170 0.266319275 -0.065689847 0.082967743 0.057160236 -0.022277575 0.009702009 0.052254047 0.140255734 -0.273853362 -0.119511925 -0.136968508 0.072756633 -0.279211551 -0.155530348 -0.016974758 0.141460761 -0.181929529 0.010718213 0.082187936 0.034929667 0.176999182 0.094460763 0.172080457 0.016354484 0.240891203 0.121289529 0.038924370 -0.057220887 -0.007418392 -0.229010060 -0.064707436 -0.212580651 0.031014856 0.069274530 -0.093847558 0.052748863 0.128855303 0.030710252 0.117804155 0.237603337 -0.071543708 0.140756786 0.128684238 -0.123981781 0.090789050 -0.222805724 -0.175406545 -0.024369033 -0.128136218 -0.038191173 0.053845953 -0.192467794 0.046573680 0.183540523 0.085427091 0.116294406 0.315417439 -0.004626023 0.122905061 0.027797779 0.120305292 -0.147383139 -0.164893717 0.101305805 0.108116642 0.114758573 -0.126887977 0.019243293 0.047005560 0.101204053 0.194654360 -0.107491620 0.227050215 0.054199021 0.103644803 -0.094517261 0.065340035 -0.073942296 -0.203414366 0.034585290 0.001303637 -0.147623152 -0.134336635 -0.121111713 -0.169632003 0.017468588 0.023725310 -0.004885542 -0.004396335 -0.142544895 -0.083960541 0.091238178 -0.115323946 0.120791800 0.024921617 -0.108268753 -0.022076568 0.126808077 -0.023397708 0.041610170 0.266319275 -0.065689847 0.082967743 0.057160236 -0.022277575 0.009702009 0.052254047 0.140255734 -0.273853362 -0.119511925 -0.136968508 0.072756633
adr -0.106944747 -0.098609477 0.260022938 0.073891133 -0.322379202 0.056044135 0.120902702 -0.402194977 0.175740823 0.298800260 -0.133028463 0.335974306 0.000014495 -0.090654477 0.141170397 -0.216490522 0.416702390 0.104280353 0.235825807 -0.242290139 0.262262762 -0.024414336 0.412803173 -0.057214178 0.366628379 0.035014551 -0.006362170 0.097028375 0.045536995 0.037658628 -0.160086706 -0.003911119 0.142808557 -0.029769227 0.030475242 0.136426091 -0.112491429 -0.001635977 -0.039263304 0.123520605 0.132997364 0.240690038 -0.371015102 -0.189340636 0.127164960 0.034627393 0.054597154 -0.234177247 -0.339912504 0.043563206 -0.220367312 0.326966852 0.102522507 0.233648628 -0.319320589 0.368023098 0.068379559 0.491331577 -0.160882264 0.061582904 0.008558834 -0.087501384 0.114882819 0.185454533 -0.369338661 0.050647590 0.088370174 0.232850656 -0.029485987 -0.425836086 -0.340547830 0.187193856 0.037817765 -0.164698288 -0.429366797 -0.322850943 0.174425811 0.236649498 -0.210507482 0.170881554 -0.242763102 -0.060107339 0.045435406 0.023544500 0.301154315 0.293251365 -0.010734007 0.103873558 0.223465279 0.150959238 -0.299204081 0.003081372 -0.277613014 0.171968639 -0.055690456 0.010608073 0.201778755 -0.288458198 0.044147827 -0.297604591 -0.106944747 -0.098609477 0.260022938 0.073891133 -0.322379202 0.056044135 0.120902702 -0.402194977 0.175740823 0.298800260 -0.133028463 0.335974306 0.000014495 -0.090654477 0.141170397 -0.216490522 0.416702390 0.104280353 0.235825807 -0.242290139 0.262262762 -0.024414336 0.412803173 -0.057214178 0.366628379 0.035014551 -0.006362170 0.097028375 0.045536995 0.037658628 -0.160086706 -0.003911119 0.142808557 -0.029769227 0.030475242 0.136426091 -0.112491429 -0.001635977 -0.039263304 0.123520605 0.132997364 0.240690038 -0.371015102 -0.189340636 0.127164960 0.034627393 0.054597154 -0.234177247 -0.339912504 0.043563206 -0.220367312 0.326966852 0.102522507 0.233648628 -0.319320589 0.368023098 0.068379559 0.491331577 -0.160882264 0.061582904 0.008558834 -0.087501384 0.114882819 0.185454533 -0.369338661 0.050647590 0.088370174 0.232850656 -0.029485987 -0.425836086 -0.340547830 0.187193856 0.037817765 -0.164698288 -0.429366797 -0.322850943 0.174425811 0.236649498 -0.210507482 0.170881554 -0.242763102 -0.060107339 0.045435406 0.023544500 0.301154315 0.293251365 -0.010734007 0.103873558 0.223465279 0.150959238 -0.299204081 0.003081372 -0.277613014 0.171968639 -0.055690456 0.010608073 0.201778755 -0.288458198 0.044147827 -0.297604591
adt 0.169503883 -0.146908998 -0.220207095 0.219133779 0.105201177 -0.095765889 -0.549242616 0.645823002 -0.169240639 0.109094761 0.042733092 0.262476593 -0.288189322 -0.791045368 -0.237115070 0.327552944 0.367966563 -0.078245066 0.405798763 -0.108587913 -0.463618606 0.699369431 -0.333333343 0.411524683 0.055546742 0.617236078 -0.249420241 0.637993574 0.443288416 -0.174760893 0.273190856 -0.333333343 -0.073975049 -0.497241020 -0.726657391 -0.550335586 0.043962736 0.456090242 -0.317327648 -0.552275360 -0.400756329 0.236879826 -0.223418340 0.006246706 0.353691310 -0.026734948 0.369905621 0.022410592 -0.295817465 0.106356718 0.005645037 -0.197550893 0.333399266 -0.461566120 -0.352537513 0.223612562 -0.385620266 0.206557378 0.132717475 -0.405433089 -0.101329602 -0.249489143 -0.808456421 0.094233952 -0.154349133 0.219145954 0.407396466 0.385242850 -0.452173322 -0.711937606 0.470906019 0.315154284 0.706596076 -0.233826280 -0.332134694 0.228368834 -0.332678348 0.326191783 -0.376058847 0.200114906 0.177153304 0.314846188 -0.315665334 0.020391842 -0.255608320 0.102942288 1.000000000 -0.313489646 0.277510077 -0.540959060 -0.401418924 -0.837640107 -0.192223832 0.018066525 0.289128512 0.011843254 -0.335360318 0.393538922 -0.716354549 -0.013166060 0.169503883 -0.146908998 -0.220207095 0.219133779 0.105201177 -0.095765889 -0.549242616 0.645823002 -0.169240639 0.109094761 0.042733092 0.262476593 -0.288189322 -0.791045368 -0.237115070 0.327552944 0.367966563 -0.078245066 0.405798763 -0.108587913 -0.463618606 0.699369431 -0.333333343 0.411524683 0.055546742 0.617236078 -0.249420241 0.637993574 0.443288416 -0.174760893 0.273190856 -0.333333343 -0.073975049 -0.497241020 -0.726657391 -0.550335586 0.043962736 0.456090242 -0.317327648 -0.552275360 -0.400756329 0.236879826 -0.223418340 0.006246706 0.353691310 -0.026734948 0.369905621 0.022410592 -0.295817465 0.106356718 0.005645037 -0.197550893 0.333399266 -0.461566120 -0.352537513 0.223612562 -0.385620266 0.206557378 0.132717475 -0.405433089 -0.101329602 -0.249489143 -0.808456421 0.094233952 -0.154349133 0.219145954 0.407396466 0.385242850 -0.452173322 -0.711937606 0.470906019 0.315154284 0.706596076 -0.233826280 -0.332134694 0.228368834 -0.332678348 0.326191783 -0.376058847 0.200114906 0.177153304 0.314846188 -0.315665334 0.020391842 -0.255608320 0.102942288 1.000000000 -0.313489646 0.277510077 -0.540959060 -0.401418924 -0.837640107 -0.192223832 0.018066525 0.289128512 0.011843254 -0.335360318 0.393538922 -0.716354549 -0.013166060
adw 0.210583627 -0.003096228 -0.099275731 -0.214785323 0.274300814 0.167273045 0.212583467 -0.072020255 0.068784967 -0.006634608 0.118689358 -0.178472146 0.191679120 0.070308559 0.170578182 0.301345825 -0.270973176 0.443200737 -0.050811306 0.127730682 -0.177523375 0.163977712 0.034432292 -0.057554860 0.203069329 0.139650390 -0.022376915 0.274194896 -0.028497688 0.222066537 0.091076992 -0.326177865 0.345012099 0.293929040 0.080486782 0.346061319 0.076412298 -0.178405046 0.446833998 -0.052504316 0.294011354 0.102725297 0.241562709 -0.096950419 -0.037787762 0.231145576 -0.180995449 0.106491856 0.149191752 -0.223793015 -0.033393398 0.110790692 0.179129958 0.095427997 0.413086653 0.046919186 -0.262964576 -0.001489595 -0.107230641 -0.143447444 0.147863209 -0.120173968 0.227609560 0.139176294 0.137950763 -0.117864579 0.458044052 0.113105893 0.152150586 -0.432521105 0.111293934 -0.110687591 0.206033304 -0.158305958 0.130952016 0.330053329 -0.081670068 0.218267992 0.552440345 0.034504186 -0.183395907 -0.163799047 -0.034921106 0.172845602 -0.276197046 0.022361575 0.005170597 -0.107858710 0.328235835 -0.214003518 0.231499195 0.061497789 -0.315597594 0.176965475 0.039840598 -0.226347685 -0.070376463 0.089579843 0.048700988 -0.072815232 0.210583627 -0.003096228 -0.099275731 -0.214785323 0.274300814 0.167273045 0.212583467 -0.072020255 0.068784967 -0.006634608 0.118689358 -0.178472146 0.191679120 0.070308559 0.170578182 0.301345825 -0.270973176 0.443200737 -0.050811306 0.127730682 -0.177523375 0.163977712 0.034432292 -0.057554860 0.203069329 0.139650390 -0.022376915 0.274194896 -0.028497688 0.222066537 0.091076992 -0.326177865 0.345012099 0.293929040 0.080486782 0.346061319 0.076412298 -0.178405046 0.446833998 -0.052504316 0.294011354 0.102725297 0.241562709 -0.096950419 -0.037787762 0.231145576 -0.180995449 0.106491856 0.149191752 -0.223793015 -0.033393398 0.110790692 0.179129958 0.095427997 0.413086653 0.046919186 -0.262964576 -0.001489595 -0.107230641 -0.143447444 0.147863209 -0.120173968 0.227609560 0.139176294 0.137950763 -0.117864579 0.458044052 0.113105893 0.152150586 -0.432521105 0.111293934 -0.110687591 0.206033304 -0.158305958 0.130952016 0.330053329 -0.081670068 0.218267992 0.552440345 0.034504186 -0.183395907 -0.163799047 -0.034921106 0.172845602 -0.276197046 0.022361575 0.005170597 -0.107858710 0.328235835 -0.214003518 0.231499195 0.061497789 -0.315597594 0.176965475 0.039840598 -0.226347685 -0.070376463 0.089579843 0.048700988 -0.072815232
ady 0.082001299 -0.063858666 -0.009652527 -0.117576428 -0.108071893 -0.066270262 -0.035640940 -0.121893764 -0.106362581 0.065672159 -0.073542520 0.025498884 -0.051921535 -0.002354819 0.050011575 0.062614337 -0.043329049 0.011928175 -0.125254169 0.058860093 -0.054058157 0.035007481 -0.051219404 0.203982651 0.084431224 0.066387579 0.013791780 -0.032717880 -0.022129450 0.030239856 0.071246698 -0.076015636 0.036885131 -0.017251834 -0.050445307 -0.013592960 0.095441468 0.011080608 -0.011660684 0.168603614 -0.041890521 -0.061961725 -0.026734862 -0.006715368 -0.056852583 -0.199408904 -0.006511535 -0.027888456 -0.075627960 0.020235656 0.080537550 -0.088963881 -0.004510770 -0.054873690 0.033820279 0.022816297 0.020070964 0.149717301 0.088213667 -0.034827426 0.001806500 0.012907711 0.046292502 0.096573114 0.041168123 -0.019056767 -0.093771175 -0.063066155 -0.075539947 0.004145840 -0.087830782 0.026517587 0.081093743 0.073747620 0.084867455 0.091078363 0.005835131 0.118584603 -0.099586494 0.001264743 -0.040553313 0.037023447 -0.066935107 0.004639782 0.046084233 0.065347724 0.110811315 0.121874161 -0.095516182 -0.121985048 0.079153635 0.094529875 -0.096509613 -0.058815073 0.029515905 -0.076840103 0.001733470 -0.047340523 -0.011542469 0.063187711 0.082001299 -0.063858666 -0.009652527 -0.117576428 -0.108071893 -0.066270262 -0.035640940 -0.121893764 -0.106362581 0.065672159 -0.073542520 0.025498884 -0.051921535 -0.002354819 0.050011575 0.062614337 -0.043329049 0.011928175 -0.125254169 0.058860093 -0.054058157 0.035007481 -0.051219404 0.203982651 0.084431224 0.066387579 0.013791780 -0.032717880 -0.022129450 0.030239856 0.071246698 -0.076015636 0.036885131 -0.017251834 -0.050445307 -0.013592960 0.095441468 0.011080608 -0.011660684 0.168603614 -0.041890521 -0.061961725 -0.026734862 -0.006715368 -0.056852583 -0.199408904 -0.006511535 -0.027888456 -0.075627960 0.020235656 0.080537550 -0.088963881 -0.004510770 -0.054873690 0.033820279 0.022816297 0.020070964 0.149717301 0.088213667 -0.034827426 0.001806500 0.012907711 0.046292502 0.096573114 0.041168123 -0.019056767 -0.093771175 -0.063066155 -0.075539947 0.004145840 -0.087830782 0.026517587 0.081093743 0.073747620 0.084867455 0.091078363 0.005835131 0.118584603 -0.099586494 0.001264743 -0.040553313 0.037023447 -0.066935107 0.004639782 0.046084233 0.065347724 0.110811315 0.121874161 -0.095516182 -0.121985048 0.079153635 0.094529875 -0.096509613 -0.058815073 0.029515905 -0.076840103 0.001733470 -0.047340523 -0.011542469 0.063187711
aew 0.559560120 0.240607128 -0.103566833 0.670668185 -0.619418442 -0.062938452 0.197699338 -0.126664340 -0.745561898 0.656980455 0.168920696 -0.762163401 0.115384258 0.053122692 0.054591708 0.147444069 -0.467882276 0.066175066 0.461067826 0.208599970 0.037263684 0.515577257 0.380356461 0.373387396 0.152344227 0.576968193 0.199583352 0.346341997 -0.330559820 -0.166165829 0.569244862 0.312944502 -0.079152837 0.152675897 -0.429904342 -0.281018585 -0.234217614 0.288494378 0.649839103 0.595609128 -0.755471945 -0.111231484 -0.351094693 0.501682520 -0.623136938 -0.273143023 0.395852149 -0.754173398 -0.082093768 0.255855262 -0.315721035 0.134420812 -0.486465871 -0.512096405 -0.845624566 0.354893059 -0.415527523 0.078976125 0.115232639 0.077758029 -0.131886542 0.385421544 0.228130400 -0.199901789 -0.491520047 0.237169400 0.430583239 0.230953425 -0.288352370 0.442360461 -0.210157946 -0.118410297 0.114462614 -0.307361960 0.299973965 -0.346778154 0.254266888 0.169268951 0.211464822 -0.490171105 -0.453789562 -0.233194798 -0.255020320 0.113028951 -0.008536829 -0.723842204 0.215568602 -0.655339777 -0.206016064 0.711160183 -0.031640690 -0.265090287 -0.795645475 0.150066987 -0.113921322 -0.046561692 0.341942787 -0.202430546 0.725935638 -0.339993358 0.559560120 0.240607128 -0.103566833 0.670668185 -0.619418442 -0.062938452 0.197699338 -0.126664340 -0.745561898 0.656980455 0.168920696 -0.762163401 0.115384258 0.053122692 0.054591708 0.147444069 -0.467882276 0.066175066 0.461067826 0.208599970 0.037263684 0.515577257 0.380356461 0.373387396 0.152344227 0.576968193 0.199583352 0.346341997 -0.330559820 -0.166165829 0.569244862 0.312944502 -0.079152837 0.152675897 -0.429904342 -0.281018585 -0.234217614 0.288494378 0.649839103 0.595609128 -0.755471945 -0.111231484 -0.351094693 0.501682520 -0.623136938 -0.273143023 0.395852149 -0.754173398 -0.082093768 0.255855262 -0.315721035 0.134420812 -0.486465871 -0.512096405 -0.845624566 0.354893059 -0.415527523 0.078976125 0.115232639 0.077758029 -0.131886542 0.385421544 0.228130400 -0.199901789 -0.491520047 0.237169400 0.430583239 0.230953425 -0.288352370 0.442360461 -0.210157946 -0.118410297 0.114462614 -0.307361960 0.299973965 -0.346778154 0.254266888 0.169268951 0.211464822 -0.490171105 -0.453789562 -0.233194798 -0.255020320 0.113028951 -0.008536829 -0.723842204 0.215568602 -0.655339777 -0.206016064 0.711160183 -0.031640690 -0.265090287 -0.795645475 0.150066987 -0.113921322 -0.046561692 0.341942787 -0.202430546 0.725935638 -0.339993358
aey -0.198487043 0.144012928 0.158812210 -0.164099336 -0.259301156 0.235179693 -0.144983456 0.033297706 0.248429686 -0.003149463 -0.248980358 0.119472899 -0.120069094 0.299321175 0.044321232 0.346562535 0.249088496 -0.140184551 -0.091559000 -0.290030539 -0.434805095 -0.234796524 -0.268050820 -0.318530291 -0.245317772 0.076485172 -0.225658178 0.275770634 0.032925069 0.149899319 -0.122947030 -0.304618090 0.292794019 -0.096776329 -0.152190819 -0.282599747 -0.092056133 0.173065200 -0.246997565 0.248686045 0.079477869 0.151026726 0.248200387 0.438130170 -0.062742658 -0.133424565 0.729474485 -0.007822871 0.733425140 -0.364412248 0.240028754 0.156586006 -0.211137861 0.063019276 0.333336681 0.180083141 -0.329402238 -0.080370106 -0.123370394 -0.530394375 -0.053477254 -0.320466369 0.504669368 0.316884369 -0.016326329 -0.159619436 0.364353716 -0.204173118 0.323253155 -0.090393379 -0.094012097 0.495197237 -0.207885191 0.377805442 -0.499207973 -0.020571176 -0.136515215 -0.435378134 0.325710505 0.148345515 -0.210383698 -0.079128228 -0.662290514 -0.403156906 -0.448476791 -0.182357207 -0.000858392 0.066823654 0.624840915 -0.299328178 0.316956848 0.429804265 0.318768352 0.458543926 0.074333370 0.104269758 -0.256479919 -0.300511509 0.119536623 0.564185023 -0.198487043 0.144012928 0.158812210 -0.164099336 -0.259301156 0.235179693 -0.144983456 0.033297706 0.248429686 -0.003149463 -0.248980358 0.119472899 -0.120069094 0.299321175 0.044321232 0.346562535 0.249088496 -0.140184551 -0.091559000 -0.290030539 -0.434805095 -0.234796524 -0.268050820 -0.318530291 -0.245317772 0.076485172 -0.225658178 0.275770634 0.032925069 0.149899319 -0.122947030 -0.304618090 0.292794019 -0.096776329 -0.152190819 -0.282599747 -0.092056133 0.173065200 -0.246997565 0.248686045 0.079477869 0.151026726 0.248200387 0.438130170 -0.062742658 -0.133424565 0.729474485 -0.007822871 0.733425140 -0.364412248 0.240028754 0.156586006 -0.211137861 0.063019276 0.333336681 0.180083141 -0.329402238 -0.080370106 -0.123370394 -0.530394375 -0.053477254 -0.320466369 0.504669368 0.316884369 -0.016326329 -0.159619436 0.364353716 -0.204173118 0.323253155 -0.090393379 -0.094012097 0.495197237 -0.207885191 0.377805442 -0.499207973 -0.020571176 -0.136515215 -0.435378134 0.325710505 0.148345515 -0.210383698 -0.079128228 -0.662290514 -0.403156906 -0.448476791 -0.182357207 -0.000858392 0.066823654 0.624840915 -0.299328178 0.316956848 0.429804265 0.318768352 0.458543926 0.074333370 0.104269758 -0.256479919 -0.300511509 0.119536623 0.564185023
aez 0.821708858 0.107562654 -0.367583901 0.107605278 0.305003315 -0.414785504 0.416467696 0.038882826 -0.035497025 -0.083218418 -0.166224405 0.121606238 0.107251883 0.291754097 0.496458650 -0.558497369 -0.031526182 0.518555164 0.122273505 -0.016720494 0.428480983 -0.071078129 -0.639110148 -0.397857666 -0.401023358 0.845856726 -0.503647029 0.133714333 -0.029161802 -0.019992283 -0.330711395 -0.443661362 -0.261898369 0.460129768 0.294759899 -0.112559654 -0.621018589 0.094464935 0.476699919 0.666666687 0.153870523 0.229648232 0.387870699 0.654640615 0.355702609 -0.647367954 -0.539450288 -0.166666672 -0.148699209 -0.261094451 0.229809716 0.530325949 -0.790819168 -0.535913765 0.071849324 -0.362832665 -0.451598763 0.327238560 -0.233133659 0.142680392 0.372894436 -0.325831085 -0.099451058 -0.634827077 -0.667609036 -0.187704563 0.548817515 0.102298893 -0.824025333 0.135477826 0.525497615 -0.530327559 0.132096246 -0.629024565 -0.355286837 0.172218248 -0.323722512 -0.143466905 -0.401995391 0.166666672 0.363148570 0.519164622 -0.075668253 -0.500746548 -0.210169628 0.635419607 0.412522763 -0.335715085 -0.201865479 -0.529736936 0.119265445 -0.415046096 0.394371659 0.086733967 0.219883457 0.125955626 -0.195351943 -0.205348149 0.179126576 0.200077415 0.821708858 0.107562654 -0.367583901 0.107605278 0.305003315 -0.414785504 0.416467696 0.038882826 -0.035497025 -0.083218418 -0.166224405 0.121606238 0.107251883 0.291754097 0.496458650 -0.558497369 -0.031526182 0.518555164 0.122273505 -0.016720494 0.428480983 -0.071078129 -0.639110148 -0.397857666 -0.401023358 0.845856726 -0.503647029 0.133714333 -0.029161802 -0.019992283 -0.330711395 -0.443661362 -0.261898369 0.460129768 0.294759899 -0.112559654 -0.621018589 0.094464935 0.476699919 0.666666687 0.153870523 0.229648232 0.387870699 0.654640615 0.355702609 -0.647367954 -0.539450288 -0.166666672 -0.148699209 -0.261094451 0.229809716 0.530325949 -0.790819168 -0.535913765 0.071849324 -0.362832665 -0.451598763 0.327238560 -0.233133659 0.142680392 0.372894436 -0.325831085 -0.099451058 -0.634827077 -0.667609036 -0.187704563 0.548817515 0.102298893 -0.824025333 0.135477826 0.525497615 -0.530327559 0.132096246 -0.629024565 -0.355286837 0.172218248 -0.323722512 -0.143466905 -0.401995391 0.166666672 0.363148570 0.519164622 -0.075668253 -0.500746548 -0.210169628 0.635419607 0.412522763 -0.335715085 -0.201865479 -0.529736936 0.119265445 -0.415046096 0.394371659 0.086733967 0.219883457 0.125955626 -0.195351943 -0.205348149 0.179126576 0.200077415
afp 0.000000000 0.000000000 0.000000000 0.000000000 0.578107476 0.000000000 0.000000000 0.964553297 0.000000000 0.000000000 0.147642627 0.000000000 1.000000000 0.000000000 0.000000000 -0.656086624 0.000000000 -0.157460213 0.000000000 0.000000000 0.000000000 0.000000000 0.000000000 0.000000000 0.000000000 0.000000000 0.000000000 0.117285207 0.457034379 0.000000000 0.000000000 0.000000000 0.000000000 -0.303654224 -0.186821386 0.135903344 0.000000000 0.000000000 0.000000000 0.000000000 0.000000000 0.000000000 -0.029106805 0.000000000 1.000000000 0.000000000 -0.233054072 -0.061368518 0.000000000 0.917338133 0.664174139 0.370033294 1.000000000 0.000000000 0.000000000 0.000000000 0.000000000 0.000000000 0.000000000 0.000000000 0.127809525 0.000000000 0.000000000 0.096895695 0.000000000 0.000000000 0.000000000 0.000000000 0.000000000 -0.099972017 0.000000000 0.000000000 0.000000000 0.116089210 -0.316085249 0.000000000 0.000000000 0.000000000 0.138720468 -0.018781031 0.000000000 0.000000000 0.000000000 1.000000000 0.000000000 0.000000000 0.000000000 0.000000000 0.977361619 0.000000000 0.000000000 1.000000000 0.000000000 0.000000000 0.517910063 0.000000000 0.000000000 0.658963621 0.463485330 0.000000000 0.000000000 0.000000000 0.000000000 0.000000000 0.578107476 0.000000000 0.000000000 0.964553297 0.000000000 0.000000000 0.147642627 0.000000000 1.000000000 0.000000000 0.000000000 -0.656086624 0.000000000 -0.157460213 0.000000000 0.000000000 0.000000000 0.000000000 0.000000000 0.000000000 0.000000000 0.000000000 0.000000000 0.117285207 0.457034379 0.000000000 0.000000000 0.000000000 0.000000000 -0.303654224 -0.186821386 0.135903344 0.000000000 0.000000000 0.000000000 0.000000000 0.000000000 0.000000000 -0.029106805 0.000000000 1.000000000 0.000000000 -0.233054072 -0.061368518 0.000000000 0.917338133 0.664174139 0.370033294 1.000000000 0.000000000 0.000000000 0.000000000 0.000000000 0.000000000 0.000000000 0.000000000 0.127809525 0.000000000 0.000000000 0.096895695 0.000000000 0.000000000 0.000000000 0.000000000 0.000000000 -0.099972017 0.000000000 0.000000000 0.000000000 0.116089210 -0.316085249 0.000000000 0.000000000 0.000000000 0.138720468 -0.018781031 0.000000000 0.000000000 0.000000000 1.000000000 0.000000000 0.000000000 0.000000000 0.000000000 0.977361619 0.000000000 0.000000000 1.000000000 0.000000000 0.000000000 0.517910063 0.000000000 0.000000000 0.658963621 0.463485330 0.000000000
afz -0.760943294 -0.454784304 0.103347383 0.254099488 -0.252094269 -0.452462763 0.284479409 -0.217357263 -0.115561739 -0.457420200 -0.051463094 0.319137245 0.055567775 -0.076939754 0.081420220 0.181683674 0.543981373 -0.097003832 0.154410705 -0.026288781 0.118015431 0.138333067 0.269628704 0.117552996 0.608647764 -0.034266610 -0.157967538 0.144485816 -0.343782157 -0.338946879 0.142428517 0.138863489 0.169249654 -0.006759618 0.165928751 0.216977283 -0.254525483 -0.004642900 0.122998819 0.100153103 -0.047541175 -0.094348408 -0.049638476 0.143090114 -0.447371900 0.021325383 0.221985668 -0.106341481 -0.194228545 -0.155990675 -0.146291152 -0.033542000 -0.410879403 0.329059392 0.079571567 0.511282861 0.338792950 0.178894058 -0.141198739 -0.010991633 0.444667190 0.028452056 0.040287994 0.236139372 0.524755061 -0.401203811 -0.330047667 0.241565809 -0.046994753 0.113506138 -0.441495359 0.077275679 -0.308120310 -0.188502029 0.299445540 0.040873699 0.133776277 0.210839704 -0.238382086 -0.308653593 0.138349310 0.340231180 0.095694475 0.013430834 0.115440436 0.537569106 0.451151639 -0.029858878 -0.065253384 -0.307390839 -0.227495268 0.287559807 -0.098834738 0.121411100 -0.004852061 0.782812774 0.155061811 0.198459417 0.234035820 -0.014865764 -0.760943294 -0.454784304 0.103347383 0.254099488 -0.252094269 -0.452462763 0.284479409 -0.217357263 -0.115561739 -0.457420200 -0.051463094 0.319137245 0.055567775 -0.076939754 0.081420220 0.181683674 0.543981373 -0.097003832 0.154410705 -0.026288781 0.118015431 0.138333067 0.269628704 0.117552996 0.608647764 -0.034266610 -0.157967538 0.144485816 -0.343782157 -0.338946879 0.142428517 0.138863489 0.169249654 -0.006759618 0.165928751 0.216977283 -0.254525483 -0.004642900 0.122998819 0.100153103 -0.047541175 -0.094348408 -0.049638476 0.143090114 -0.447371900 0.021325383 0.221985668 -0.106341481 -0.194228545 -0.155990675 -0.146291152 -0.033542000 -0.410879403 0.329059392 0.079571567 0.511282861 0.338792950 0.178894058 -0.141198739 -0.010991633 0.444667190 0.028452056 0.040287994 0.236139372 0.524755061 -0.401203811 -0.330047667 0.241565809 -0.046994753 0.113506138 -0.441495359 0.077275679 -0.308120310 -0.188502029 0.299445540 0.040873699 0.133776277 0.210839704 -0.238382086 -0.308653593 0.138349310 0.340231180 0.095694475 0.013430834 0.115440436 0.537569106 0.451151639 -0.029858878 -0.065253384 -0.307390839 -0.227495268 0.287559807 -0.098834738 0.121411100 -0.004852061 0.782812774 0.155061811 0.198459417 0.234035820 -0.014865764
age 0.027113527 0.360286385 0.000000000 -0.758919954 -0.965869188 0.764258623 0.419571787 0.446895599 0.717501998 -0.396151602 -0.277326107 -0.172829613 -0.840183616 -0.847383499 -0.249652117 0.631498814 -0.619042695 -0.253900260 -0.046459690 0.786426544 0.410080284 -0.330892652 0.657947063 0.827294827 1.000000000 0.758729458 -0.549675405 -0.558220923 0.159652546 -0.229515165 -0.314149946 0.171349451 0.182225123 -0.556105137 -1.000000000 -0.694202363 -0.101151884 0.713573456 0.693472266 0.144877195 0.514272809 0.455000162 0.294316709 0.373095661 0.491806716 -0.448211133 -0.771332979 0.413413107 -0.752409339 0.703684270 -1.000000000 0.910810232 0.836847782 0.294570357 -0.796161413 0.994399190 0.536952078 0.709094346 1.000000000 -0.628855109 -0.679489255 0.013742223 -0.459414601 0.713573456 -0.764258623 0.567224026 -0.523441374 -0.615921617 -0.641327381 -0.908631086 0.171785295 -0.545053124 0.840575457 1.000000000 -0.609265804 0.553496838 0.268155426 0.460383058 -0.235158175 1.000000000 1.000000000 -0.713573456 0.428566128 -0.625138044 -0.816856384 -0.301355302 -0.289526135 -0.536360502 -0.715222478 -0.409430027 -0.125373274 0.478883922 -0.688421249 0.427670240 0.808201313 -0.311722279 -0.598192096 0.549057782 0.161733598 0.713573456 0.027113527 0.360286385 0.000000000 -0.758919954 -0.965869188 0.764258623 0.419571787 0.446895599 0.717501998 -0.396151602 -0.277326107 -0.172829613 -0.840183616 -0.847383499 -0.249652117 0.631498814 -0.619042695 -0.253900260 -0.046459690 0.786426544 0.410080284 -0.330892652 0.657947063 0.827294827 1.000000000 0.758729458 -0.549675405 -0.558220923 0.159652546 -0.229515165 -0.314149946 0.171349451 0.182225123 -0.556105137 -1.000000000 -0.694202363 -0.101151884 0.713573456 0.693472266 0.144877195 0.514272809 0.455000162 0.294316709 0.373095661 0.491806716 -0.448211133 -0.771332979 0.413413107 -0.752409339 0.703684270 -1.000000000 0.910810232 0.836847782 0.294570357 -0.796161413 0.994399190 0.536952078 0.709094346 1.000000000 -0.628855109 -0.679489255 0.013742223 -0.459414601 0.713573456 -0.764258623 0.567224026 -0.523441374 -0.615921617 -0.641327381 -0.908631086 0.171785295 -0.545053124 0.840575457 1.000000000 -0.609265804 0.553496838 0.268155426 0.460383058 -0.235158175 1.000000000 1.000000000 -0.713573456 0.428566128 -0.625138044 -0.816856384 -0.301355302 -0.289526135 -0.536360502 -0.715222478 -0.409430027 -0.125373274 0.478883922 -0.688421249 0.427670240 0.808201313 -0.311722279 -0.598192096 0.549057782 0.161733598 0.713573456
agf -0.033722080 0.154833347 -0.287308276 0.131085321 -0.209500343 -0.273204774 0.488698840 -0.176403821 0.212400317 0.033825547 -0.243700475 0.472110748 -0.068456814 0.115806587 -0.100688592 0.267541707 -0.037713230 -0.454411209 -0.080299199 0.197612226 0.467258781 0.072176829 0.128385127 0.525537193 0.086876743 -0.109873205 -0.239329040 -0.169509649 0.400182426 -0.328108609 -0.438969910 -0.501797676 0.379225224 0.207482845 -0.402070105 -0.447164506 0.290255994 -0.801316500 0.011215657 -0.224417508 0.034060121 0.100855745 0.026690960 0.316927344 0.146453068 0.206837535 0.276334077 -0.121951759 -0.338400900 -0.398123443 0.345632732 0.473723859 -0.121821150 0.107827857 -0.122833192 0.236643657 -0.070378810 -0.171856791 -0.207780719 -0.131453037 0.060355157 -0.035337433 -0.231771350 -0.257433951 -0.555493355 -0.477093577 0.333459854 0.019853584 0.019111782 -0.278580487 -0.455214977 -0.161974803 -0.226028711 -0.235856146 0.073880568 0.005866423 -0.090651989 0.042653471 0.288886517 0.357949793 -0.281091809 0.030700870 -0.324728310 0.286263645 -0.052259177 0.728266001 -0.326931059 -0.017614126 0.030523285 0.344905406 0.071090087 -0.086171374 -0.410157204 0.246980667 0.404558748 0.564999521 -0.018641174 -0.002991110 0.002859116 0.222484529 -0.033722080 0.154833347 -0.287308276 0.131085321 -0.209500343 -0.273204774 0.488698840 -0.176403821 0.212400317 0.033825547 -0.243700475 0.472110748 -0.068456814 0.115806587 -0.100688592 0.267541707 -0.037713230 -0.454411209 -0.080299199 0.197612226 0.467258781 0.072176829 0.128385127 0.525537193 0.086876743 -0.109873205 -0.239329040 -0.169509649 0.400182426 -0.328108609 -0.438969910 -0.501797676 0.379225224 0.207482845 -0.402070105 -0.447164506 0.290255994 -0.801316500 0.011215657 -0.224417508 0.034060121 0.100855745 0.026690960 0.316927344 0.146453068 0.206837535 0.276334077 -0.121951759 -0.338400900 -0.398123443 0.345632732 0.473723859 -0.121821150 0.107827857 -0.122833192 0.236643657 -0.070378810 -0.171856791 -0.207780719 -0.131453037 0.060355157 -0.035337433 -0.231771350 -0.257433951 -0.555493355 -0.477093577 0.333459854 0.019853584 0.019111782 -0.278580487 -0.455214977 -0.161974803 -0.226028711 -0.235856146 0.073880568 0.005866423 -0.090651989 0.042653471 0.288886517 0.357949793 -0.281091809 0.030700870 -0.324728310 0.286263645 -0.052259177 0.728266001 -0.326931059 -0.017614126 0.030523285 0.344905406 0.071090087 -0.086171374 -0.410157204 0.246980667 0.404558748 0.564999521 -0.018641174 -0.002991110 0.002859116 0.222484529
agl -0.456825316 -0.058256663 -0.184803098 0.038986385 -0.260531813 -0.085333429 -0.060510941 -0.268612981 -0.029812761 0.314562559 0.314260602 -0.017219499 -0.145294547 0.106204763 -0.321548909 -0.716697872 0.333504319 -0.000013396 -0.004061148 0.310520113 0.815341830 0.120926589 0.256409645 0.237763941 -0.278526306 0.215611786 0.361066163 0.382126808 -0.153152466 0.247191310 0.249128938 -0.102938034 -0.421661437 -0.246047691 -0.193608105 -0.116352141 -0.339852899 0.209716961 -0.107510701 -0.616777003 -0.394323826 -0.092619464 -0.251805723 -0.149342224 -0.076569930 0.613146484 0.171886086 0.129122108 -0.007424250 -0.032815129 -0.094648890 -0.439534813 -0.158977389 0.018181726 -0.440883338 0.459799409 -0.219072714 -0.065885797 0.551135123 0.094036669 0.026262680 -0.236082822 -0.504754663 -0.263591111 0.186582193 -0.079740591 -0.311305672 0.253892601 -0.097464204 0.141344354 -0.303890288 0.285943508 -0.071911663 -0.785244942 0.445988685 -0.623409212 0.661077380 0.030604452 -0.590911388 -0.254739046 -0.306410909 0.358570933 -0.285215914 -0.122601688 0.169828162 0.532457232 0.390738249 -0.185113564 -0.263350636 -0.044614434 0.208778709 0.397657126 -0.101720057 0.181242675 -0.380701214 0.620120287 0.721807480 -0.072991714 0.284214199 0.459311008 -0.456825316 -0.058256663 -0.184803098 0.038986385 -0.260531813 -0.085333429 -0.060510941 -0.268612981 -0.029812761 0.314562559 0.314260602 -0.017219499 -0.145294547 0.106204763 -0.321548909 -0.716697872 0.333504319 -0.000013396 -0.004061148 0.310520113 0.815341830 0.120926589 0.256409645 0.237763941 -0.278526306 0.215611786 0.361066163 0.382126808 -0.153152466 0.247191310 0.249128938 -0.102938034 -0.421661437 -0.246047691 -0.193608105 -0.116352141 -0.339852899 0.209716961 -0.107510701 -0.616777003 -0.394323826 -0.092619464 -0.251805723 -0.149342224 -0.076569930 0.613146484 0.171886086 0.129122108 -0.007424250 -0.032815129 -0.094648890 -0.439534813 -0.158977389 0.018181726 -0.440883338 0.459799409 -0.219072714 -0.065885797 0.551135123 0.094036669 0.026262680 -0.236082822 -0.504754663 -0.263591111 0.186582193 -0.079740591 -0.311305672 0.253892601 -0.097464204 0.141344354 -0.303890288 0.285943508 -0.071911663 -0.785244942 0.445988685 -0.623409212 0.661077380 0.030604452 -0.590911388 -0.254739046 -0.306410909 0.358570933 -0.285215914 -0.122601688 0.169828162 0.532457232 0.390738249 -0.185113564 -0.263350636 -0.044614434 0.208778709 0.397657126 -0.101720057 0.181242675 -0.380701214 0.620120287 0.721807480 -0.072991714 0.284214199 0.459311008
agm 1.000000000 -1.000000000 -0.720409095 1.000000000 0.343351156 0.451691240 1.000000000 0.486224294 -1.000000000 1.000000000 1.000000000 -1.000000000 -0.508243918 -0.628812671 0.481570929 -1.000000000 -1.000000000 -0.564808547 -1.000000000 0.069374204 -1.000000000 0.436417878 0.270278871 0.348915011 0.173558846 -1.000000000 -0.092598222 0.093433224 -0.119753197 -1.000000000 1.000000000 0.093433224 -0.093433224 -1.000000000 -1.000000000 1.000000000 0.277731180 -0.454595208 0.190541491 1.000000000 1.000000000 1.000000000 1.000000000 0.093433224 -0.343351156 -1.000000000 1.000000000 0.453994960 -1.000000000 -0.676017106 1.000000000 0.967760384 1.000000000 -0.992057741 -0.074023448 -0.731113434 -0.405252904 0.093433224 -0.093433224 0.764958084 -0.936123490 -1.000000000 -0.093433224 0.467575133 0.758588910 0.825861394 -0.481570929 -0.799174130 -1.000000000 -1.000000000 -0.093433224 -1.000000000 -0.093433224 -0.180553406 1.000000000 0.093433224 -0.120068341 1.000000000 -0.790531337 -1.000000000 0.481570929 -0.541626573 -0.093433224 1.000000000 0.528310716 0.744250119 0.991509557 0.810267568 1.000000000 0.093433224 -0.836162806 0.807977915 -0.572714388 0.093433224 -1.000000000 -0.433184534 -1.000000000 1.000000000 -0.249758616 -0.273058921 1.000000000 -1.000000000 -0.720409095 1.000000000 0.343351156 0.451691240 1.000000000 0.486224294 -1.000000000 1.000000000 1.000000000 -1.000000000 -0.508243918 -0.628812671 0.481570929 -1.000000000 -1.000000000 -0.564808547 -1.000000000 0.069374204 -1.000000000 0.436417878 0.270278871 0.348915011 0.173558846 -1.000000000 -0.092598222 0.093433224 -0.119753197 -1.000000000 1.000000000 0.093433224 -0.093433224 -1.000000000 -1.000000000 1.000000000 0.277731180 -0.454595208 0.190541491 1.000000000 1.000000000 1.000000000 1.000000000 0.093433224 -0.343351156 -1.000000000 1.000000000 0.453994960 -1.000000000 -0.676017106 1.000000000 0.967760384 1.000000000 -0.992057741 -0.074023448 -0.731113434 -0.405252904 0.093433224 -0.093433224 0.764958084 -0.936123490 -1.000000000 -0.093433224 0.467575133 0.758588910 0.825861394 -0.481570929 -0.799174130 -1.000000000 -1.000000000 -0.093433224 -1.000000000 -0.093433224 -0.180553406 1.000000000 0.093433224 -0.120068341 1.000000000 -0.790531337 -1.000000000 0.481570929 -0.541626573 -0.093433224 1.000000000 0.528310716 0.744250119 0.991509557 0.810267568 1.000000000 0.093433224 -0.836162806 0.807977915 -0.572714388 0.093433224 -1.000000000 -0.433184534 -1.000000000 1.000000000 -0.249758616 -0.273058921
ago 0.128088266 0.540111423 0.004731588 0.200179324 -0.819415629 0.322656780 0.482988477 -0.910642743 -0.386023968 1.000000000 1.000000000 0.129953161 -0.671659648 0.239405885 -0.346648008 -1.000000000 -0.594019353 1.000000000 -0.328562856 0.145275995 0.692904174 0.175583795 -0.625361323 0.031866789 -0.401732355 -1.000000000 0.117856085 0.962719977 -0.016853129 0.804727376 0.650213838 1.000000000 -1.000000000 -0.195677787 -1.000000000 -0.802174866 0.036412250 -0.281416535 0.690768421 -0.790667474 -0.380239934 -0.290897608 -0.523473561 -0.721413493 0.146420404 0.346648008 -0.346648008 0.111026220 -0.886873305 -0.340488911 0.861391008 -1.000000000 0.346648008 -1.000000000 -0.286968648 -0.130786866 -1.000000000 -0.409496009 0.886125505 0.438045889 -0.608606100 -1.000000000 -0.919907868 -0.182130098 -0.190519989 -0.552440763 -0.354751498 1.000000000 -0.175990805 0.142476007 -0.692259490 1.000000000 -1.000000000 -1.000000000 0.799150765 -0.837095737 0.421287417 1.000000000 -0.269321412 -1.000000000 -1.000000000 -0.443653405 -0.657657146 0.346648008 1.000000000 1.000000000 0.346648008 0.419404835 -0.065151803 0.387503237 0.979604483 1.000000000 -0.567101300 0.383212775 -0.399545461 1.000000000 0.861016631 0.184744671 0.567917645 0.134382680 0.128088266 0.540111423 0.004731588 0.200179324 -0.819415629 0.322656780 0.482988477 -0.910642743 -0.386023968 1.000000000 1.000000000 0.129953161 -0.671659648 0.239405885 -0.346648008 -1.000000000 -0.594019353 1.000000000 -0.328562856 0.145275995 0.692904174 0.175583795 -0.625361323 0.031866789 -0.401732355 -1.000000000 0.117856085 0.962719977 -0.016853129 0.804727376 0.650213838 1.000000000 -1.000000000 -0.195677787 -1.000000000 -0.802174866 0.036412250 -0.281416535 0.690768421 -0.790667474 -0.380239934 -0.290897608 -0.523473561 -0.721413493 0.146420404 0.346648008 -0.346648008 0.111026220 -0.886873305 -0.340488911 0.861391008 -1.000000000 0.346648008 -1.000000000 -0.286968648 -0.130786866 -1.000000000 -0.409496009 0.886125505 0.438045889 -0.608606100 -1.000000000 -0.919907868 -0.182130098 -0.190519989 -0.552440763 -0.354751498 1.000000000 -0.175990805 0.142476007 -0.692259490 1.000000000 -1.000000000 -1.000000000 0.799150765 -0.837095737 0.421287417 1.000000000 -0.269321412 -1.000000000 -1.000000000 -0.443653405 -0.657657146 0.346648008 1.000000000 1.000000000 0.346648008 0.419404835 -0.065151803 0.387503237 0.979604483 1.000000000 -0.567101300 0.383212775 -0.399545461 1.000000000 0.861016631 0.184744671 0.567917645 0.134382680
agr -0.027080694 -0.034569483 -0.112024650 0.058583841 -0.120367080 0.017546309 0.075349875 0.029327361 -0.048222411 -0.116340138 0.146523058 0.114321306 0.050427668 -0.092422582 0.119496100 0.023685474 0.118459657 0.016992899 -0.014855375 0.052417770 0.041444860 0.016212359 -0.024840720 0.060497317 0.073824219 -0.148428097 0.008234765 0.153152987 0.035566822 0.081828386 0.013842966 -0.029329857 -0.035750780 -0.143748462 0.024529975 -0.089965485 0.015059215 -0.058125220 0.076750621 -0.029323626 -0.088702388 -0.074013837 -0.178825840 -0.062895730 -0.135828927 0.023310907 0.030656731 -0.087623090 -0.081496254 -0.137068897 -0.051069148 -0.044434510 0.073755093 0.004659767 -0.034099627 -0.090863802 0.080339037 -0.048192497 0.014068709 -0.097287513 -0.043198898 -0.065934226 -0.121179529 -0.072736613 -0.199541122 -0.010098592 0.085013397 0.122540429 -0.031831443 0.019325484 0.012154047 0.141403317 -0.166730642 0.018808641 -0.011945086 -0.029856281 0.064553343 -0.037632484 0.184308365 0.004380105 -0.140429229 -0.157042608 0.052851155 0.025075464 -0.001187139 0.035071142 -0.034109067 -0.139004827 0.017287008 -0.066227019 0.067639291 0.134038523 -0.084364027 -0.090082683 -0.005075994 0.053224269 -0.054597262 0.117319867 0.164889321 -0.029794738 -0.027080694 -0.034569483 -0.112024650 0.058583841 -0.120367080 0.017546309 0.075349875 0.029327361 -0.048222411 -0.116340138 0.146523058 0.114321306 0.050427668 -0.092422582 0.119496100 0.023685474 0.118459657 0.016992899 -0.014855375 0.052417770 0.041444860 0.016212359 -0.024840720 0.060497317 0.073824219 -0.148428097 0.008234765 0.153152987 0.035566822 0.081828386 0.013842966 -0.029329857 -0.035750780 -0.143748462 0.024529975 -0.089965485 0.015059215 -0.058125220 0.076750621 -0.029323626 -0.088702388 -0.074013837 -0.178825840 -0.062895730 -0.135828927 0.023310907 0.030656731 -0.087623090 -0.081496254 -0.137068897 -0.051069148 -0.044434510 0.073755093 0.004659767 -0.034099627 -0.090863802 0.080339037 -0.048192497 0.014068709 -0.097287513 -0.043198898 -0.065934226 -0.121179529 -0.072736613 -0.199541122 -0.010098592 0.085013397 0.122540429 -0.031831443 0.019325484 0.012154047 0.141403317 -0.166730642 0.018808641 -0.011945086 -0.029856281 0.064553343 -0.037632484 0.184308365 0.004380105 -0.140429229 -0.157042608 0.052851155 0.025075464 -0.001187139 0.035071142 -0.034109067 -0.139004827 0.017287008 -0.066227019 0.067639291 0.134038523 -0.084364027 -0.090082683 -0.005075994 0.053224269 -0.054597262 0.117319867 0.164889321 -0.029794738
agw -0.191178396 -0.343609810 0.207891941 0.013020494 -0.077406920 -0.002185391 -0.048869897 0.059078276 -0.149203762 0.005737741 0.075090587 0.250880271 -0.132077232 -0.082102552 0.012377121 -0.186430544 0.272362560 -0.610287189 0.018491864 -0.169868842 -0.075558476 -0.054223541 0.171978593 -0.077942610 -0.149379253 0.128680661 0.087651551 -0.328127056 -0.092804603 -0.195125893 0.200531572 0.119832516 -0.023615180 -0.004323732 0.017354611 -0.266375959 0.260626882 0.140269771 0.118318483 0.101892315 -0.120011434 -0.103350863 -0.242196307 0.226673171 -0.147692606 -0.050287049 0.015651997 -0.090234526 -0.259638757 0.206141949 0.125860840 -0.170800194 -0.087000847 0.227487236 0.077831507 -0.039284237 0.345791906 0.206939712 -0.011235447 0.230880275 0.090616085 -0.262468904 -0.148641676 -0.089207873 -0.036236834 -0.220137700 -0.048980772 -0.014858489 0.017356398 0.135786951 -0.238693580 -0.141516015 0.166610673 -0.099726602 0.262259930 -0.259460300 -0.098542519 -0.048364114 -0.124434993 0.087507024 0.132643119 0.109474219 -0.049585968 0.086999699 -0.356922120 0.308776379 0.276317626 0.011846594 -0.112538397 -0.120226972 0.209441647 0.088296354 -0.061496180 -0.051524885 0.073815063 0.329027653 0.146734804 -0.057291951 0.078723691 0.166841313 -0.191178396 -0.343609810 0.207891941 0.013020494 -0.077406920 -0.002185391 -0.048869897 0.059078276 -0.149203762 0.005737741 0.075090587 0.250880271 -0.132077232 -0.082102552 0.012377121 -0.186430544 0.272362560 -0.610287189 0.018491864 -0.169868842 -0.075558476 -0.054223541 0.171978593 -0.077942610 -0.149379253 0.128680661 0.087651551 -0.328127056 -0.092804603 -0.195125893 0.200531572 0.119832516 -0.023615180 -0.004323732 0.017354611 -0.266375959 0.260626882 0.140269771 0.118318483 0.101892315 -0.120011434 -0.103350863 -0.242196307 0.226673171 -0.147692606 -0.050287049 0.015651997 -0.090234526 -0.259638757 0.206141949 0.125860840 -0.170800194 -0.087000847 0.227487236 0.077831507 -0.039284237 0.345791906 0.206939712 -0.011235447 0.230880275 0.090616085 -0.262468904 -0.148641676 -0.089207873 -0.036236834 -0.220137700 -0.048980772 -0.014858489 0.017356398 0.135786951 -0.238693580 -0.141516015 0.166610673 -0.099726602 0.262259930 -0.259460300 -0.098542519 -0.048364114 -0.124434993 0.087507024 0.132643119 0.109474219 -0.049585968 0.086999699 -0.356922120 0.308776379 0.276317626 0.011846594 -0.112538397 -0.120226972 0.209441647 0.088296354 -0.061496180 -0.051524885 0.073815063 0.329027653 0.146734804 -0.057291951 0.078723691 0.166841313
agx 0.006004873 -0.099158950 -0.116178326 0.046423875 -0.021199182 -0.005752647 0.034872912 -0.057114273 0.026560212 -0.002926654 -0.035610389 0.111842744 -0.006962353 -0.079203039 -0.068530582 0.006905040 0.140792236 -0.105934612 0.045368962 -0.010669492 0.010492280 -0.043864224 0.002599817 0.002570814 0.046320070 -0.022241803 0.031585272 -0.017230278 0.013356611 -0.056952011 0.019746410 -0.018789494 0.075633131 -0.029595841 -0.020692140 -0.037308589 0.053373691 0.031967741 0.036013957 -0.106532760 -0.006829301 0.121388383 -0.034888938 -0.039262231 -0.010286151 0.052893039 -0.014505531 -0.069424734 -0.023939315 -0.035468340 -0.061888341 -0.040679455 -0.050009556 -0.013310396 0.025122959 0.012504313 0.065509267 -0.002125947 -0.072639719 0.021500891 0.100093275 -0.012314536 -0.057043154 -0.013893318 -0.104876250 0.043602057 0.046644326 0.012320370 -0.033896722 -0.026645212 -0.040799417 -0.095404789 -0.038681403 0.052607775 -0.069386691 0.048598688 0.091571130 0.011600614 -0.054421898 0.008832505 -0.047447104 -0.022574866 0.076331399 0.000117840 0.082849540 -0.013890517 0.022617167 0.033699743 -0.016147090 0.014188417 0.031875417 0.123380661 -0.078693159 -0.059928693 -0.019680675 0.051146302 0.021084398 0.009143749 0.079905130 -0.032903694 0.006004873 -0.099158950 -0.116178326 0.046423875 -0.021199182 -0.005752647 0.034872912 -0.057114273 0.026560212 -0.002926654 -0.035610389 0.111842744 -0.006962353 -0.079203039 -0.068530582 0.006905040 0.140792236 -0.105934612 0.045368962 -0.010669492 0.010492280 -0.043864224 0.002599817 0.002570814 0.046320070 -0.022241803 0.031585272 -0.017230278 0.013356611 -0.056952011 0.019746410 -0.018789494 0.075633131 -0.029595841 -0.020692140 -0.037308589 0.053373691 0.031967741 0.036013957 -0.106532760 -0.006829301 0.121388383 -0.034888938 -0.039262231 -0.010286151 0.052893039 -0.014505531 -0.069424734 -0.023939315 -0.035468340 -0.061888341 -0.040679455 -0.050009556 -0.013310396 0.025122959 0.012504313 0.065509267 -0.002125947 -0.072639719 0.021500891 0.100093275 -0.012314536 -0.057043154 -0.013893318 -0.104876250 0.043602057 0.046644326 0.012320370 -0.033896722 -0.026645212 -0.040799417 -0.095404789 -0.038681403 0.052607775 -0.069386691 0.048598688 0.091571130 0.011600614 -0.054421898 0.008832505 -0.047447104 -0.022574866 0.076331399 0.000117840 0.082849540 -0.013890517 0.022617167 0.033699743 -0.016147090 0.014188417 0.031875417 0.123380661 -0.078693159 -0.059928693 -0.019680675 0.051146302 0.021084398 0.009143749 0.079905130 -0.032903694
ahh -0.046450574 0.041319683 -0.074320152 0.147778824 0.028141389 -0.150998697 0.253928393 -0.110388383 0.051804103 -0.072429776 -0.140937001 -0.163776502 -0.039326183 -0.116077662 -0.206169993 0.174122259 0.100938760 -0.174456999 0.284488738 -0.011044268 -0.021871755 0.067372799 -0.103789143 0.279707074 -0.000558152 0.520101726 -0.165134132 0.218890056 0.048148654 0.280258834 -0.281961381 -0.444736987 0.094282143 0.326355457 -0.002883257 -0.176193163 -0.215335146 -0.063666537 0.379912049 0.125946403 0.045081917 0.049832657 -0.148846373 0.107839033 -0.026603172 0.331259221 -0.081952892 -0.128833815 -0.205840409 0.081275381 -0.112486519 -0.108870707 -0.130250886 -0.069220737 -0.097786032 0.106158979 -0.526204348 0.000899352 0.101914287 0.008712933 0.001164780 0.225718528 -0.002080899 0.014812311 -0.026174979 -0.009655517 0.318410277 0.280672222 0.016504766 0.208591610 -0.174359143 0.011179931 0.120626561 -0.481252372 0.044252209 0.137005076 -0.055125501 -0.040778998 0.256334275 -0.200435475 -0.404713660 -0.227599546 0.060857747 0.403552234 -0.260181546 -0.065931588 0.153032795 -0.386067808 -0.509472311 0.504306436 -0.021578077 -0.031664032 -0.015100722 0.097986132 0.054176424 -0.185474023 -0.030106692 -0.263792157 -0.120898210 -0.040155012 -0.046450574 0.041319683 -0.074320152 0.147778824 0.028141389 -0.150998697 0.253928393 -0.110388383 0.051804103 -0.072429776 -0.140937001 -0.163776502 -0.039326183 -0.116077662 -0.206169993 0.174122259 0.100938760 -0.174456999 0.284488738 -0.011044268 -0.021871755 0.067372799 -0.103789143 0.279707074 -0.000558152 0.520101726 -0.165134132 0.218890056 0.048148654 0.280258834 -0.281961381 -0.444736987 0.094282143 0.326355457 -0.002883257 -0.176193163 -0.215335146 -0.063666537 0.379912049 0.125946403 0.045081917 0.049832657 -0.148846373 0.107839033 -0.026603172 0.331259221 -0.081952892 -0.128833815 -0.205840409 0.081275381 -0.112486519 -0.108870707 -0.130250886 -0.069220737 -0.097786032 0.106158979 -0.526204348 0.000899352 0.101914287 0.008712933 0.001164780 0.225718528 -0.002080899 0.014812311 -0.026174979 -0.009655517 0.318410277 0.280672222 0.016504766 0.208591610 -0.174359143 0.011179931 0.120626561 -0.481252372 0.044252209 0.137005076 -0.055125501 -0.040778998 0.256334275 -0.200435475 -0.404713660 -0.227599546 0.060857747 0.403552234 -0.260181546 -0.065931588 0.153032795 -0.386067808 -0.509472311 0.504306436 -0.021578077 -0.031664032 -0.015100722 0.097986132 0.054176424 -0.185474023 -0.030106692 -0.263792157 -0.120898210 -0.040155012
aia -0.322769403 -0.478335261 0.374272734 0.095402062 -0.516385674 -0.332954764 0.055258244 0.256218463 0.091015682 0.053536467 0.239041507 0.558718801 -0.215000957 -0.353643656 0.079995245 0.104016960 0.203397483 -0.563998163 0.588210046 -0.465445340 0.089210406 -0.296309561 0.028134823 0.014818549 -0.301495075 -0.136116922 -0.215833157 -0.364939749 0.273176849 0.112972438 -0.056061737 -0.200693548 0.221706927 -0.184552148 -0.072860248 -0.527584970 0.083563536 0.194714010 0.582165301 0.661056280 0.499163568 -0.181681618 -0.170171022 -0.299176723 -0.281347990 -0.277157426 -0.404036105 -0.047796629 -0.616648078 -0.442778856 0.354970008 -0.301402450 -0.102846235 -0.081042275 0.322937131 -0.208280891 0.785546720 0.114859954 -0.202914894 -0.022350162 0.288537949 -0.579783797 -0.055805966 -0.094172604 -0.060774684 -0.014161527 0.222504228 -0.057392359 0.136836186 -0.377488762 0.112698652 -0.614992976 -0.674178600 -0.156444877 -0.060407266 -0.302094698 -0.010512233 -0.135735527 0.137378126 -0.148808122 0.223257601 0.158856183 0.237631887 -0.421648264 -0.294873416 0.109719306 0.060685307 0.288378477 -0.177440390 0.568753362 0.031441271 0.467522115 -0.468848884 0.120015360 0.288183659 0.346883595 0.183290288 0.375000000 -0.064951897 -0.279728234 -0.322769403 -0.478335261 0.374272734 0.095402062 -0.516385674 -0.332954764 0.055258244 0.256218463 0.091015682 0.053536467 0.239041507 0.558718801 -0.215000957 -0.353643656 0.079995245 0.104016960 0.203397483 -0.563998163 0.588210046 -0.465445340 0.089210406 -0.296309561 0.028134823 0.014818549 -0.301495075 -0.136116922 -0.215833157 -0.364939749 0.273176849 0.112972438 -0.056061737 -0.200693548 0.221706927 -0.184552148 -0.072860248 -0.527584970 0.083563536 0.194714010 0.582165301 0.661056280 0.499163568 -0.181681618 -0.170171022 -0.299176723 -0.281347990 -0.277157426 -0.404036105 -0.047796629 -0.616648078 -0.442778856 0.354970008 -0.301402450 -0.102846235 -0.081042275 0.322937131 -0.208280891 0.785546720 0.114859954 -0.202914894 -0.022350162 0.288537949 -0.579783797 -0.055805966 -0.094172604 -0.060774684 -0.014161527 0.222504228 -0.057392359 0.136836186 -0.377488762 0.112698652 -0.614992976 -0.674178600 -0.156444877 -0.060407266 -0.302094698 -0.010512233 -0.135735527 0.137378126 -0.148808122 0.223257601 0.158856183 0.237631887 -0.421648264 -0.294873416 0.109719306 0.060685307 0.288378477 -0.177440390 0.568753362 0.031441271 0.467522115 -0.468848884 0.120015360 0.288183659 0.346883595 0.183290288 0.375000000 -0.064951897 -0.279728234
aif -0.466069371 -0.061558187 -0.190304160 -0.073549166 -0.208913490 -0.064308435 -0.230169922 -0.337724984 -0.291387230 -0.664948761 -0.164948761 0.110169888 -0.145285308 -0.110841766 0.296699107 0.932569623 0.728912294 0.039503217 0.000000000 -0.709779322 0.251755565 -0.716114283 -0.422793508 -0.387331069 -0.345833331 0.064760312 -0.484832942 0.639118791 -0.246468514 0.883979321 -0.555084348 0.085692585 0.963709235 0.248828083 0.518867552 -0.116420992 0.333056599 -0.335153759 0.074838459 0.697120547 0.573457599 -0.293752283 0.580381751 -0.652685881 -0.169669285 -0.403649002 0.726881325 0.712666214 -0.195714384 -0.542179108 0.866271734 0.490662992 -0.173951477 -0.282838583 0.676277339 0.930646658 0.079903990 -0.028164074 -0.098567516 -0.208573490 -0.380550683 0.065592796 -0.546645403 0.260212779 -0.040596485 -0.447591394 0.739787221 -0.141219705 0.244801551 0.334310144 -0.380335450 0.101968199 0.141476646 -0.456877887 -0.284214735 0.034355789 -0.667231560 0.281230271 0.597624779 -0.017831415 0.744120538 0.336920530 -0.900894761 -0.518592596 0.077914625 0.074838459 0.440625638 -0.494287729 0.435711563 0.427643478 0.488031685 0.965910673 -0.110838354 0.597120702 -0.487394959 0.421979129 -0.045918830 0.774861693 0.840909302 -0.393729329 -0.466069371 -0.061558187 -0.190304160 -0.073549166 -0.208913490 -0.064308435 -0.230169922 -0.337724984 -0.291387230 -0.664948761 -0.164948761 0.110169888 -0.145285308 -0.110841766 0.296699107 0.932569623 0.728912294 0.039503217 0.000000000 -0.709779322 0.251755565 -0.716114283 -0.422793508 -0.387331069 -0.345833331 0.064760312 -0.484832942 0.639118791 -0.246468514 0.883979321 -0.555084348 0.085692585 0.963709235 0.248828083 0.518867552 -0.116420992 0.333056599 -0.335153759 0.074838459 0.697120547 0.573457599 -0.293752283 0.580381751 -0.652685881 -0.169669285 -0.403649002 0.726881325 0.712666214 -0.195714384 -0.542179108 0.866271734 0.490662992 -0.173951477 -0.282838583 0.676277339 0.930646658 0.079903990 -0.028164074 -0.098567516 -0.208573490 -0.380550683 0.065592796 -0.546645403 0.260212779 -0.040596485 -0.447591394 0.739787221 -0.141219705 0.244801551 0.334310144 -0.380335450 0.101968199 0.141476646 -0.456877887 -0.284214735 0.034355789 -0.667231560 0.281230271 0.597624779 -0.017831415 0.744120538 0.336920530 -0.900894761 -0.518592596 0.077914625 0.074838459 0.440625638 -0.494287729 0.435711563 0.427643478 0.488031685 0.965910673 -0.110838354 0.597120702 -0.487394959 0.421979129 -0.045918830 0.774861693 0.840909302 -0.393729329
ail -0.171811715 -0.049392313 -0.667152166 -0.443134367 0.720838785 0.311246812 -0.441612691 0.220039591 -0.051268339 -0.094588771 -0.098459154 -0.217531741 -0.618327379 0.621224821 0.432496667 -0.262986571 0.939781189 -1.000000000 -0.564646482 0.383487493 0.656922221 -0.962622106 -0.163205683 0.627399862 -1.000000000 0.017933536 0.326422453 -0.390625805 0.050140783 -0.186229438 0.138751909 -0.596257269 -0.343559086 -0.172322869 -0.303975403 0.238394186 0.075788632 0.030958109 -0.312964231 -0.699937582 0.388776392 0.532978773 -0.638720393 0.761087775 -0.265294433 0.260700703 -0.353425413 -0.059399370 -0.471867383 0.490590423 -0.050546195 0.102070123 0.281473309 0.081450537 -0.356947392 0.191079676 0.111731291 -0.516922832 -0.062974989 0.968229890 -0.639512718 -0.500000000 -0.304463148 -0.195536852 0.096570268 -0.470333695 -0.797781587 -0.176974118 0.064544529 0.627414167 -0.260243714 0.115335681 0.712637663 -0.356375694 0.272566229 -0.506424785 0.500860929 0.000000000 0.146750003 0.551347733 -0.266923577 -0.069509238 -0.739572406 -0.281735152 0.826328754 0.287137359 0.650067031 -0.481841505 -0.360320807 0.325231045 0.130346239 0.289394289 -0.396251827 0.744270563 0.594662845 -0.100260973 0.337456107 -0.140725002 0.889585316 0.616521478 -0.171811715 -0.049392313 -0.667152166 -0.443134367 0.720838785 0.311246812 -0.441612691 0.220039591 -0.051268339 -0.094588771 -0.098459154 -0.217531741 -0.618327379 0.621224821 0.432496667 -0.262986571 0.939781189 -1.000000000 -0.564646482 0.383487493 0.656922221 -0.962622106 -0.163205683 0.627399862 -1.000000000 0.017933536 0.326422453 -0.390625805 0.050140783 -0.186229438 0.138751909 -0.596257269 -0.343559086 -0.172322869 -0.303975403 0.238394186 0.075788632 0.030958109 -0.312964231 -0.699937582 0.388776392 0.532978773 -0.638720393 0.761087775 -0.265294433 0.260700703 -0.353425413 -0.059399370 -0.471867383 0.490590423 -0.050546195 0.102070123 0.281473309 0.081450537 -0.356947392 0.191079676 0.111731291 -0.516922832 -0.062974989 0.968229890 -0.639512718 -0.500000000 -0.304463148 -0.195536852 0.096570268 -0.470333695 -0.797781587 -0.176974118 0.064544529 0.627414167 -0.260243714 0.115335681 0.712637663 -0.356375694 0.272566229 -0.506424785 0.500860929 0.000000000 0.146750003 0.551347733 -0.266923577 -0.069509238 -0.739572406 -0.281735152 0.826328754 0.287137359 0.650067031 -0.481841505 -0.360320807 0.325231045 0.130346239 0.289394289 -0.396251827 0.744270563 0.594662845 -0.100260973 0.337456107 -0.140725002 0.889585316 0.616521478
ain -0.139870510 -0.051042087 -0.041715547 -0.146435320 -0.055170026 -0.048264537 -0.145458117 0.045378465 0.047033563 -0.000215386 -0.061793838 0.076246656 0.088306792 0.197130933 0.075514652 -0.037741832 0.011507817 0.023758437 -0.270832211 0.122006483 0.218511283 -0.062017601 -0.014433839 -0.051143028 0.115483798 0.035709109 0.022690659 -0.122218646 -0.239040434 0.149495214 -0.046323545 0.075186975 0.153025419 -0.012840851 0.091907993 0.103249848 -0.053401127 -0.056999549 0.088887475 -0.069275245 -0.122638971 0.087827921 0.183039337 -0.053771187 0.042119674 0.035494689 -0.064289838 -0.094874933 0.105909899 -0.168572769 0.102007799 0.014723832 0.020287147 0.142827511 -0.098041959 -0.086741649 0.080022044 0.066258647 0.184602305 0.012362221 0.044712126 -0.084170096 0.050727163 0.043761287 0.069679573 0.256045818 0.000614962 -0.054295916 -0.157376453 0.044984121 -0.020010142 0.040779870 0.171593815 0.112220921 -0.029572077 -0.045611728 -0.046849571 -0.127161145 -0.190429091 0.121964909 -0.090690680 0.036605977 -0.004183145 -0.079493091 0.095050506 -0.114374600 0.111735784 0.105989479 -0.104029790 0.052922782 -0.070263274 0.101919904 -0.072230138 0.085252680 0.092841454 0.095594488 0.143768743 -0.041497339 -0.030391760 -0.069835261 -0.139870510 -0.051042087 -0.041715547 -0.146435320 -0.055170026 -0.048264537 -0.145458117 0.045378465 0.047033563 -0.000215386 -0.061793838 0.076246656 0.088306792 0.197130933 0.075514652 -0.037741832 0.011507817 0.023758437 -0.270832211 0.122006483 0.218511283 -0.062017601 -0.014433839 -0.051143028 0.115483798 0.035709109 0.022690659 -0.122218646 -0.239040434 0.149495214 -0.046323545 0.075186975 0.153025419 -0.012840851 0.091907993 0.103249848 -0.053401127 -0.056999549 0.088887475 -0.069275245 -0.122638971 0.087827921 0.183039337 -0.053771187 0.042119674 0.035494689 -0.064289838 -0.094874933 0.105909899 -0.168572769 0.102007799 0.014723832 0.020287147 0.142827511 -0.098041959 -0.086741649 0.080022044 0.066258647 0.184602305 0.012362221 0.044712126 -0.084170096 0.050727163 0.043761287 0.069679573 0.256045818 0.000614962 -0.054295916 -0.157376453 0.044984121 -0.020010142 0.040779870 0.171593815 0.112220921 -0.029572077 -0.045611728 -0.046849571 -0.127161145 -0.190429091 0.121964909 -0.090690680 0.036605977 -0.004183145 -0.079493091 0.095050506 -0.114374600 0.111735784 0.105989479 -0.104029790 0.052922782 -0.070263274 0.101919904 -0.072230138 0.085252680 0.092841454 0.095594488 0.143768743 -0.041497339 -0.030391760 -0.069835261
aji 0.333333343 0.153881148 -0.333333343 0.333333343 0.657753527 0.009867554 0.333333343 -0.518370032 -0.333333343 -0.650817096 -0.666666687 0.333333343 0.108200304 -0.657429934 -0.333333343 0.333333343 0.310315013 -0.666666687 -0.333333343 0.333333343 0.333333343 -0.333333343 -0.666666687 0.518475652 -0.360716552 -0.333333343 -0.333333343 -0.333333343 0.333333343 -0.333333343 -0.397988319 -0.358248919 -0.333333343 0.333333343 -0.646906674 -0.333333343 0.333333343 -0.666666687 0.333333343 0.574847639 -0.666666687 -0.418580770 0.569566905 -0.647340059 -0.404080153 0.252552867 0.666666687 -0.333333343 -0.634967506 -0.570744514 -0.083396174 0.150543496 -0.410467774 0.333333343 0.450652719 -0.333333343 0.012187769 -0.333333343 -0.478445053 -0.571436703 0.358330101 -0.333333343 -0.333333343 -0.646906674 -0.211563781 -0.634967506 0.333333343 -0.027554691 0.666666687 0.384980083 0.290071875 -0.650817096 0.533694565 -0.439510584 0.103842892 0.666666687 -0.333333343 0.655224502 -0.016521169 0.666666687 0.261482447 -0.231646001 -0.423775345 0.443041950 -0.650817096 0.333333343 -0.333333343 -0.650817096 0.634967506 0.491857618 0.427583545 -0.333333343 -0.333333343 -0.527608216 -0.071451433 0.393512040 0.408723593 0.333333343 0.333333343 0.333333343 0.333333343 0.153881148 -0.333333343 0.333333343 0.657753527 0.009867554 0.333333343 -0.518370032 -0.333333343 -0.650817096 -0.666666687 0.333333343 0.108200304 -0.657429934 -0.333333343 0.333333343 0.310315013 -0.666666687 -0.333333343 0.333333343 0.333333343 -0.333333343 -0.666666687 0.518475652 -0.360716552 -0.333333343 -0.333333343 -0.333333343 0.333333343 -0.333333343 -0.397988319 -0.358248919 -0.333333343 0.333333343 -0.646906674 -0.333333343 0.333333343 -0.666666687 0.333333343 0.574847639 -0.666666687 -0.418580770 0.569566905 -0.647340059 -0.404080153 0.252552867 0.666666687 -0.333333343 -0.634967506 -0.570744514 -0.083396174 0.150543496 -0.410467774 0.333333343 0.450652719 -0.333333343 0.012187769 -0.333333343 -0.478445053 -0.571436703 0.358330101 -0.333333343 -0.333333343 -0.646906674 -0.211563781 -0.634967506 0.333333343 -0.027554691 0.666666687 0.384980083 0.290071875 -0.650817096 0.533694565 -0.439510584 0.103842892 0.666666687 -0.333333343 0.655224502 -0.016521169 0.666666687 0.261482447 -0.231646001 -0.423775345 0.443041950 -0.650817096 0.333333343 -0.333333343 -0.650817096 0.634967506 0.491857618 0.427583545 -0.333333343 -0.333333343 -0.527608216 -0.071451433 0.393512040 0.408723593 0.333333343 0.333333343 0.333333343
akc 0.031505704 -0.285613537 -0.046762589 0.195842162 -0.389762342 0.239232346 0.060812615 -0.109434649 0.053621512 0.091975495 -0.037026912 0.148208424 -0.084365994 -0.246307939 -0.029202171 -0.151180163 0.075703099 -0.165785924 0.150792181 -0.200033128 0.222588733 0.266940355 0.406451464 0.181999788 0.131237477 -0.186747104 -0.224151224 0.259942532 0.116569474 -0.168626815 -0.008534615 -0.286849171 0.165400729 0.038196106 -0.249777928 -0.345581323 0.057945609 0.140306070 -0.143270209 -0.257667571 -0.282747269 0.066304550 -0.310032785 0.146347627 0.230950758 0.057101402 0.294747889 -0.323463440 -0.280633599 -0.207945749 -0.063758418 0.163077712 0.063429445 -0.050552599 -0.060152642 0.044944447 -0.174895555 0.116988502 -0.375990838 -0.313068241 -0.066459663 -0.166091055 0.224808306 0.058112293 -0.299329907 -0.098807402 0.063260876 0.127827257 -0.122831412 -0.074647158 -0.155266792 0.032941796 -0.147765696 -0.283051670 -0.407370538 -0.111273728 0.145230696 -0.047750711 -0.402672589 0.109278873 -0.351931930 0.159163877 -0.161731720 0.035013817 0.250347584 0.289587945 0.197472021 0.009831260 0.276834935 -0.048733782 -0.061054740 -0.023750203 -0.307063609 0.329747468 0.165375710 0.075815924 0.048962336 -0.230055496 -0.132212505 0.113093808 0.031505704 -0.285613537 -0.046762589 0.195842162 -0.389762342 0.239232346 0.060812615 -0.109434649 0.053621512 0.091975495 -0.037026912 0.148208424 -0.084365994 -0.246307939 -0.029202171 -0.151180163 0.075703099 -0.165785924 0.150792181 -0.200033128 0.222588733 0.266940355 0.406451464 0.181999788 0.131237477 -0.186747104 -0.224151224 0.259942532 0.116569474 -0.168626815 -0.008534615 -0.286849171 0.165400729 0.038196106 -0.249777928 -0.345581323 0.057945609 0.140306070 -0.143270209 -0.257667571 -0.282747269 0.066304550 -0.310032785 0.146347627 0.230950758 0.057101402 0.294747889 -0.323463440 -0.280633599 -0.207945749 -0.063758418 0.163077712 0.063429445 -0.050552599 -0.060152642 0.044944447 -0.174895555 0.116988502 -0.375990838 -0.313068241 -0.066459663 -0.166091055 0.224808306 0.058112293 -0.299329907 -0.098807402 0.063260876 0.127827257 -0.122831412 -0.074647158 -0.155266792 0.032941796 -0.147765696 -0.283051670 -0.407370538 -0.111273728 0.145230696 -0.047750711 -0.402672589 0.109278873 -0.351931930 0.159163877 -0.161731720 0.035013817 0.250347584 0.289587945 0.197472021 0.009831260 0.276834935 -0.048733782 -0.061054740 -0.023750203 -0.307063609 0.329747468 0.165375710 0.075815924 0.048962336 -0.230055496 -0.132212505 0.113093808
