519 200
aar -0.061975837 -0.101168156 0.053945914 0.082689323 0.077436335 -0.001367989 -0.004514652 -0.007203588 0.058142453 -0.062464673 -0.128655598 0.101110190 0.020614378 -0.089484811 0.050953284 0.139329687 0.019400608 0.007300247 0.162000045 0.113064438 0.100578733 -0.031266484 -0.065509565 0.073083520 -0.131785795 -0.005383134 0.018401770 0.059274301 -0.015837925 0.139080450 -0.052476477 -0.122600578 -0.083530419 0.099535078 0.104500771 -0.010799977 -0.025268182 0.139693543 -0.148066327 0.057132155 -0.080981433 0.057830170 0.019308155 -0.076528646 0.019333972 -0.062834568 0.034043718 -0.001563943 0.019528227 -0.033126071 0.046084270 -0.048451494 0.053706035 -0.131120026 0.080472134 -0.033398252 -0.086193435 0.161004946 -0.038430285 -0.183971658 0.106997930 0.141858563 0.000553104 -0.116364919 0.003091591 0.053097684 0.055481832 0.063939244 -0.158850417 -0.012431775 -0.038914338 -0.037415031 -0.100635469 -0.097296454 0.199491128 -0.056978028 0.003672203 0.040017694 -0.068279542 0.004303339 0.061225396 0.083575584 0.051064376 0.043927014 0.003636466 0.054819871 -0.070644118 0.021696484 -0.051632226 0.021744078 -0.012035855 0.063507237 -0.039899677 0.039467689 -0.011429300 -0.056287061 0.043191638 -0.063567646 0.080970727 0.149163291 -0.061975837 -0.101168156 0.053945914 0.082689323 0.077436335 -0.001367989 -0.004514652 -0.007203588 0.058142453 -0.062464673 -0.128655598 0.101110190 0.020614378 -0.089484811 0.050953284 0.139329687 0.019400608 0.007300247 0.162000045 0.113064438 0.100578733 -0.031266484 -0.065509565 0.073083520 -0.131785795 -0.005383134 0.018401770 0.059274301 -0.015837925 0.139080450 -0.052476477 -0.122600578 -0.083530419 0.099535078 0.104500771 -0.010799977 -0.025268182 0.139693543 -0.148066327 0.057132155 -0.080981433 0.057830170 0.019308155 -0.076528646 0.019333972 -0.062834568 0.034043718 -0.001563943 0.019528227 -0.033126071 0.046084270 -0.048451494 0.053706035 -0.131120026 0.080472134 -0.033398252 -0.086193435 0.161004946 -0.038430285 -0.183971658 0.106997930 0.141858563 0.000553104 -0.116364919 0.003091591 0.053097684 0.055481832 0.063939244 -0.158850417 -0.012431775 -0.038914338 -0.037415031 -0.100635469 -0.097296454 0.199491128 -0.056978028 0.003672203 0.040017694 -0.068279542 0.004303339 0.061225396 0.083575584 0.051064376 0.043927014 0.003636466 0.054819871 -0.070644118 0.021696484 -0.051632226 0.021744078 -0.012035855 0.063507237 -0.039899677 0.039467689 -0.011429300 -0.056287061 0.043191638 -0.063567646 0.080970727 0.149163291
abe -0.071646191 -0.100125186 0.060597908 0.082146771 0.076638028 -0.011210919 -0.014777387 -0.009158432 0.061200354 -0.066044830 -0.120990299 0.107067510 0.020624952 -0.089684792 0.050915074 0.148202568 0.012161152 0.007123206 0.155051678 0.107468903 0.099039443 -0.026575472 -0.069603644 0.062020805 -0.140736446 -0.010409191 0.013809401 0.055544481 -0.019820996 0.147844329 -0.061709728 -0.118036866 -0.072837994 0.108345807 0.097578377 -0.016882509 -0.022467483 0.128432885 -0.136230588 0.052849986 -0.081310369 0.061746936 0.020993946 -0.079772525 0.029443931 -0.061675299 0.044002030 -0.010012392 0.009017628 -0.022475287 0.055466194 -0.043419141 0.042843085 -0.135211870 0.089951798 -0.028554969 -0.079829007 0.152991682 -0.048343372 -0.192384332 0.109828942 0.141479790 -0.006761617 -0.120903283 -0.007249559 0.042241007 0.053751390 0.054509345 -0.146903500 -0.015910642 -0.044289224 -0.047338590 -0.108251356 -0.106602676 0.200758412 -0.062005378 -0.004615702 0.039605141 -0.057266347 -0.004733669 0.061105695 0.081781730 0.046980623 0.046255901 -0.006602311 0.060826421 -0.062165394 0.031496406 -0.044322819 0.019823657 -0.022179456 0.072659604 -0.039448932 0.036518350 -0.021620750 -0.057644233 0.043213457 -0.071566470 0.076801911 0.144309744 -0.071646191 -0.100125186 0.060597908 0.082146771 0.076638028 -0.011210919 -0.014777387 -0.009158432 0.061200354 -0.066044830 -0.120990299 0.107067510 0.020624952 -0.089684792 0.050915074 0.148202568 0.012161152 0.007123206 0.155051678 0.107468903 0.099039443 -0.026575472 -0.069603644 0.062020805 -0.140736446 -0.010409191 0.013809401 0.055544481 -0.019820996 0.147844329 -0.061709728 -0.118036866 -0.072837994 0.108345807 0.097578377 -0.016882509 -0.022467483 0.128432885 -0.136230588 0.052849986 -0.081310369 0.061746936 0.020993946 -0.079772525 0.029443931 -0.061675299 0.044002030 -0.010012392 0.009017628 -0.022475287 0.055466194 -0.043419141 0.042843085 -0.135211870 0.089951798 -0.028554969 -0.079829007 0.152991682 -0.048343372 -0.192384332 0.109828942 0.141479790 -0.006761617 -0.120903283 -0.007249559 0.042241007 0.053751390 0.054509345 -0.146903500 -0.015910642 -0.044289224 -0.047338590 -0.108251356 -0.106602676 0.200758412 -0.062005378 -0.004615702 0.039605141 -0.057266347 -0.004733669 0.061105695 0.081781730 0.046980623 0.046255901 -0.006602311 0.060826421 -0.062165394 0.031496406 -0.044322819 0.019823657 -0.022179456 0.072659604 -0.039448932 0.036518350 -0.021620750 -0.057644233 0.043213457 -0.071566470 0.076801911 0.144309744
abk -0.069351725 -0.084315799 0.048050009 0.011353157 0.070424281 -0.002502220 0.017854484 0.044075243 0.020860763 -0.099301405 -0.142152399 0.150667310 -0.005864323 -0.100407287 0.026983906 0.100464649 0.028737713 0.012954602 0.135700420 0.086636476 0.044750940 0.011275386 -0.077911802 0.092798583 -0.127919152 0.007259957 0.017731216 0.044199757 0.017201621 0.084155694 -0.009178312 -0.101921372 -0.053714179 0.098939359 0.063153751 -0.046324100 0.007653727 0.154030651 -0.139228582 0.064139791 -0.113449350 0.043493051 0.005996894 -0.059049636 -0.024414774 -0.039989304 0.029108528 0.016696388 0.011905007 -0.051131751 0.015305435 0.003288866 0.044097871 -0.108801328 0.090755694 -0.058153208 -0.072172999 0.145152763 -0.035259679 -0.126003996 0.078259327 0.120864317 0.007802729 -0.096238852 0.008439481 0.051025659 0.029601185 0.066014625 -0.100361712 -0.034168195 -0.015784962 -0.013877561 -0.106107473 -0.075346455 0.203205094 -0.051494718 0.015750742 -0.008271325 -0.051989853 0.027959766 0.026240703 0.030759912 0.064381555 0.027451739 0.052405763 0.044454012 -0.047713794 -0.013918647 -0.024393512 0.007527886 -0.047870904 0.045103934 -0.030710038 0.015117897 0.041301403 -0.026144342 0.013781385 -0.068556294 0.040775925 0.163656667 -0.069351725 -0.084315799 0.048050009 0.011353157 0.070424281 -0.002502220 0.017854484 0.044075243 0.020860763 -0.099301405 -0.142152399 0.150667310 -0.005864323 -0.100407287 0.026983906 0.100464649 0.028737713 0.012954602 0.135700420 0.086636476 0.044750940 0.011275386 -0.077911802 0.092798583 -0.127919152 0.007259957 0.017731216 0.044199757 0.017201621 0.084155694 -0.009178312 -0.101921372 -0.053714179 0.098939359 0.063153751 -0.046324100 0.007653727 0.154030651 -0.139228582 0.064139791 -0.113449350 0.043493051 0.005996894 -0.059049636 -0.024414774 -0.039989304 0.029108528 0.016696388 0.011905007 -0.051131751 0.015305435 0.003288866 0.044097871 -0.108801328 0.090755694 -0.058153208 -0.072172999 0.145152763 -0.035259679 -0.126003996 0.078259327 0.120864317 0.007802729 -0.096238852 0.008439481 0.051025659 0.029601185 0.066014625 -0.100361712 -0.034168195 -0.015784962 -0.013877561 -0.106107473 -0.075346455 0.203205094 -0.051494718 0.015750742 -0.008271325 -0.051989853 0.027959766 0.026240703 0.030759912 0.064381555 0.027451739 0.052405763 0.044454012 -0.047713794 -0.013918647 -0.024393512 0.007527886 -0.047870904 0.045103934 -0.030710038 0.015117897 0.041301403 -0.026144342 0.013781385 -0.068556294 0.040775925 0.163656667
abq -0.064489760 -0.098658927 0.043080494 0.089197829 0.086947307 0.005976840 -0.000291430 -0.015723234 0.067852326 -0.068050019 -0.134686574 0.090548135 0.016700752 -0.098339573 0.050627787 0.145158350 0.022527095 0.015951278 0.150020674 0.118711278 0.097975917 -0.028476736 -0.068148926 0.066153497 -0.140736446 -0.007753126 0.024332710 0.051479984 -0.025983926 0.134740815 -0.046159744 -0.131504789 -0.089852519 0.099024661 0.104285322 -0.016088158 -0.034086030 0.138876468 -0.139356628 0.063526012 -0.079770260 0.061817005 0.027894111 -0.078497127 0.025894452 -0.072496064 0.030363822 -0.002369176 0.027618529 -0.026720924 0.043033641 -0.053263485 0.044048261 -0.132606760 0.089951798 -0.034294218 -0.085127451 0.169528827 -0.048343372 -0.192384332 0.099748366 0.130086824 -0.004812429 -0.118949205 0.012021581 0.052937929 0.047927007 0.061777119 -0.155954376 -0.022612892 -0.028262122 -0.036960270 -0.098485954 -0.102398776 0.197899908 -0.046081346 0.013943625 0.032421902 -0.074254662 -0.006050304 0.057088330 0.093023263 0.053799771 0.034395814 0.013908255 0.051933467 -0.060719408 0.014489959 -0.061409213 0.024016729 -0.022221055 0.066270746 -0.036395680 0.036234535 -0.004282270 -0.064384341 0.044090576 -0.070095547 0.078404762 0.152134076 -0.064489760 -0.098658927 0.043080494 0.089197829 0.086947307 0.005976840 -0.000291430 -0.015723234 0.067852326 -0.068050019 -0.134686574 0.090548135 0.016700752 -0.098339573 0.050627787 0.145158350 0.022527095 0.015951278 0.150020674 0.118711278 0.097975917 -0.028476736 -0.068148926 0.066153497 -0.140736446 -0.007753126 0.024332710 0.051479984 -0.025983926 0.134740815 -0.046159744 -0.131504789 -0.089852519 0.099024661 0.104285322 -0.016088158 -0.034086030 0.138876468 -0.139356628 0.063526012 -0.079770260 0.061817005 0.027894111 -0.078497127 0.025894452 -0.072496064 0.030363822 -0.002369176 0.027618529 -0.026720924 0.043033641 -0.053263485 0.044048261 -0.132606760 0.089951798 -0.034294218 -0.085127451 0.169528827 -0.048343372 -0.192384332 0.099748366 0.130086824 -0.004812429 -0.118949205 0.012021581 0.052937929 0.047927007 0.061777119 -0.155954376 -0.022612892 -0.028262122 -0.036960270 -0.098485954 -0.102398776 0.197899908 -0.046081346 0.013943625 0.032421902 -0.074254662 -0.006050304 0.057088330 0.093023263 0.053799771 0.034395814 0.013908255 0.051933467 -0.060719408 0.014489959 -0.061409213 0.024016729 -0.022221055 0.066270746 -0.036395680 0.036234535 -0.004282270 -0.064384341 0.044090576 -0.070095547 0.078404762 0.152134076
ace -0.057800006 -0.111711256 0.058098834 0.103400469 0.053558908 -0.034769479 0.009606391 -0.028602963 0.061530448 -0.029177541 -0.120344572 0.074215338 0.028482258 -0.062876880 0.057952661 0.129464716 -0.002367069 0.019306850 0.179537401 0.117968276 0.081049033 -0.021583594 -0.029296778 0.069512129 -0.138804540 0.044636801 0.013433715 0.038989205 -0.038535342 0.116166115 -0.035946179 -0.110621914 -0.091433652 0.098231524 0.078091577 0.016705595 -0.017251955 0.150893509 -0.117851757 0.068222083 -0.115900189 0.023040885 0.000266030 -0.060597524 0.020621508 -0.063626781 0.031250581 -0.014447394 0.011228945 -0.069865577 0.057662986 -0.036136921 0.020418243 -0.108500302 0.065058388 -0.037618581 -0.070833616 0.138755441 -0.038431995 -0.146780863 0.107725114 0.141078606 0.012299703 -0.081496932 -0.014301436 0.029125236 0.047577836 0.048391692 -0.137274563 -0.010569490 -0.034513932 -0.026724078 -0.074932463 -0.050869815 0.158756256 -0.050348662 -0.006743692 0.049156617 -0.089573897 -0.008370821 0.073030233 0.078874968 0.060704440 0.056135267 -0.028054379 0.044844940 -0.029468568 0.037363265 -0.063113771 0.006160078 0.024293091 0.076802835 -0.024803299 0.038370732 0.041464783 -0.058289260 0.045081951 -0.043959700 0.093066499 0.144137606 -0.057800006 -0.111711256 0.058098834 0.103400469 0.053558908 -0.034769479 0.009606391 -0.028602963 0.061530448 -0.029177541 -0.120344572 0.074215338 0.028482258 -0.062876880 0.057952661 0.129464716 -0.002367069 0.019306850 0.179537401 0.117968276 0.081049033 -0.021583594 -0.029296778 0.069512129 -0.138804540 0.044636801 0.013433715 0.038989205 -0.038535342 0.116166115 -0.035946179 -0.110621914 -0.091433652 0.098231524 0.078091577 0.016705595 -0.017251955 0.150893509 -0.117851757 0.068222083 -0.115900189 0.023040885 0.000266030 -0.060597524 0.020621508 -0.063626781 0.031250581 -0.014447394 0.011228945 -0.069865577 0.057662986 -0.036136921 0.020418243 -0.108500302 0.065058388 -0.037618581 -0.070833616 0.138755441 -0.038431995 -0.146780863 0.107725114 0.141078606 0.012299703 -0.081496932 -0.014301436 0.029125236 0.047577836 0.048391692 -0.137274563 -0.010569490 -0.034513932 -0.026724078 -0.074932463 -0.050869815 0.158756256 -0.050348662 -0.006743692 0.049156617 -0.089573897 -0.008370821 0.073030233 0.078874968 0.060704440 0.056135267 -0.028054379 0.044844940 -0.029468568 0.037363265 -0.063113771 0.006160078 0.024293091 0.076802835 -0.024803299 0.038370732 0.041464783 -0.058289260 0.045081951 -0.043959700 0.093066499 0.144137606
acw -0.070207223 -0.086526483 0.042397235 0.102078252 0.092069507 0.005553225 -0.001438068 0.002219901 0.041801143 -0.060708001 -0.125385195 0.088151366 0.030309107 -0.082475953 0.046390168 0.116441727 0.022025321 0.005948842 0.169248387 0.099162035 0.068396389 -0.037766077 -0.078874774 0.063781627 -0.117691271 0.011220269 0.006815317 0.048640560 0.000780101 0.124422669 -0.050677195 -0.110293448 -0.069245070 0.095091201 0.073972382 -0.005614370 -0.043168318 0.125024274 -0.154237732 0.071145914 -0.093383789 0.067558065 -0.002206327 -0.059976261 0.040251568 -0.058677942 0.044737540 0.003964664 0.020168560 -0.051336728 0.044905562 -0.059270222 0.041396551 -0.143344343 0.078916505 -0.035581194 -0.079896182 0.146331266 -0.039046407 -0.177195102 0.111342333 0.153166637 0.009153392 -0.100997835 -0.004091712 0.067563355 0.054212548 0.057459664 -0.138798743 -0.019176021 -0.046164908 -0.031977460 -0.098828308 -0.099313550 0.195599586 -0.051917121 0.017772844 0.030060560 -0.060645204 -0.001175269 0.066284083 0.075273238 0.027064284 0.037297886 0.012254748 0.052511245 -0.061411664 0.017205134 -0.055811029 0.035172336 0.006002151 0.036299821 -0.018544450 0.025030917 -0.020472676 -0.056117572 0.034508672 -0.060545348 0.071746498 0.147578701 -0.070207223 -0.086526483 0.042397235 0.102078252 0.092069507 0.005553225 -0.001438068 0.002219901 0.041801143 -0.060708001 -0.125385195 0.088151366 0.030309107 -0.082475953 0.046390168 0.116441727 0.022025321 0.005948842 0.169248387 0.099162035 0.068396389 -0.037766077 -0.078874774 0.063781627 -0.117691271 0.011220269 0.006815317 0.048640560 0.000780101 0.124422669 -0.050677195 -0.110293448 -0.069245070 0.095091201 0.073972382 -0.005614370 -0.043168318 0.125024274 -0.154237732 0.071145914 -0.093383789 0.067558065 -0.002206327 -0.059976261 0.040251568 -0.058677942 0.044737540 0.003964664 0.020168560 -0.051336728 0.044905562 -0.059270222 0.041396551 -0.143344343 0.078916505 -0.035581194 -0.079896182 0.146331266 -0.039046407 -0.177195102 0.111342333 0.153166637 0.009153392 -0.100997835 -0.004091712 0.067563355 0.054212548 0.057459664 -0.138798743 -0.019176021 -0.046164908 -0.031977460 -0.098828308 -0.099313550 0.195599586 -0.051917121 0.017772844 0.030060560 -0.060645204 -0.001175269 0.066284083 0.075273238 0.027064284 0.037297886 0.012254748 0.052511245 -0.061411664 0.017205134 -0.055811029 0.035172336 0.006002151 0.036299821 -0.018544450 0.025030917 -0.020472676 -0.056117572 0.034508672 -0.060545348 0.071746498 0.147578701
ady -0.053627618 -0.105793029 0.032861251 0.081895761 0.093312971 -0.002790245 0.005950643 -0.018255863 0.075023621 -0.059468359 -0.139131725 0.098270953 0.013465368 -0.107124969 0.053220227 0.133473054 0.032501310 0.015439101 0.143693238 0.107295856 0.097118311 -0.026134389 -0.077110931 0.062111262 -0.144658133 -0.014458056 0.032209918 0.047648419 -0.029402653 0.132274449 -0.049728092 -0.124399006 -0.079174332 0.087888621 0.110310525 -0.021057893 -0.035094865 0.134138152 -0.143389031 0.052673705 -0.073120505 0.054635074 0.021354295 -0.085261092 0.035547353 -0.078100704 0.035596661 -0.012549082 0.033754274 -0.016244181 0.043446302 -0.054741997 0.033394706 -0.140491232 0.087238409 -0.044148356 -0.089729697 0.161786363 -0.037645992 -0.180217147 0.103996880 0.130857453 -0.002145298 -0.125353739 0.001694830 0.050533529 0.046361860 0.054053929 -0.164567098 -0.013812664 -0.025276985 -0.040900771 -0.097422451 -0.109208554 0.204038069 -0.040684123 0.019308152 0.035736438 -0.077282257 -0.016192649 0.065214813 0.097836562 0.047271922 0.027775008 0.011732383 0.060072076 -0.062545896 0.012603434 -0.050578505 0.021808976 -0.015000870 0.065388709 -0.028422212 0.036470287 0.002106617 -0.068663076 0.049210496 -0.060319498 0.079014562 0.150600344 -0.053627618 -0.105793029 0.032861251 0.081895761 0.093312971 -0.002790245 0.005950643 -0.018255863 0.075023621 -0.059468359 -0.139131725 0.098270953 0.013465368 -0.107124969 0.053220227 0.133473054 0.032501310 0.015439101 0.143693238 0.107295856 0.097118311 -0.026134389 -0.077110931 0.062111262 -0.144658133 -0.014458056 0.032209918 0.047648419 -0.029402653 0.132274449 -0.049728092 -0.124399006 -0.079174332 0.087888621 0.110310525 -0.021057893 -0.035094865 0.134138152 -0.143389031 0.052673705 -0.073120505 0.054635074 0.021354295 -0.085261092 0.035547353 -0.078100704 0.035596661 -0.012549082 0.033754274 -0.016244181 0.043446302 -0.054741997 0.033394706 -0.140491232 0.087238409 -0.044148356 -0.089729697 0.161786363 -0.037645992 -0.180217147 0.103996880 0.130857453 -0.002145298 -0.125353739 0.001694830 0.050533529 0.046361860 0.054053929 -0.164567098 -0.013812664 -0.025276985 -0.040900771 -0.097422451 -0.109208554 0.204038069 -0.040684123 0.019308152 0.035736438 -0.077282257 -0.016192649 0.065214813 0.097836562 0.047271922 0.027775008 0.011732383 0.060072076 -0.062545896 0.012603434 -0.050578505 0.021808976 -0.015000870 0.065388709 -0.028422212 0.036470287 0.002106617 -0.068663076 0.049210496 -0.060319498 0.079014562 0.150600344
aeb -0.061975837 -0.101168156 0.053945914 0.082689323 0.077436335 -0.001367989 -0.004514652 -0.007203588 0.058142453 -0.062464673 -0.128655598 0.101110190 0.020614378 -0.089484811 0.050953284 0.139329687 0.019400608 0.007300247 0.162000045 0.113064438 0.100578733 -0.031266484 -0.065509565 0.073083520 -0.131785795 -0.005383134 0.018401770 0.059274301 -0.015837925 0.139080450 -0.052476477 -0.122600578 -0.083530419 0.099535078 0.104500771 -0.010799977 -0.025268182 0.139693543 -0.148066327 0.057132155 -0.080981433 0.057830170 0.019308155 -0.076528646 0.019333972 -0.062834568 0.034043718 -0.001563943 0.019528227 -0.033126071 0.046084270 -0.048451494 0.053706035 -0.131120026 0.080472134 -0.033398252 -0.086193435 0.161004946 -0.038430285 -0.183971658 0.106997930 0.141858563 0.000553104 -0.116364919 0.003091591 0.053097684 0.055481832 0.063939244 -0.158850417 -0.012431775 -0.038914338 -0.037415031 -0.100635469 -0.097296454 0.199491128 -0.056978028 0.003672203 0.040017694 -0.068279542 0.004303339 0.061225396 0.083575584 0.051064376 0.043927014 0.003636466 0.054819871 -0.070644118 0.021696484 -0.051632226 0.021744078 -0.012035855 0.063507237 -0.039899677 0.039467689 -0.011429300 -0.056287061 0.043191638 -0.063567646 0.080970727 0.149163291 -0.061975837 -0.101168156 0.053945914 0.082689323 0.077436335 -0.001367989 -0.004514652 -0.007203588 0.058142453 -0.062464673 -0.128655598 0.101110190 0.020614378 -0.089484811 0.050953284 0.139329687 0.019400608 0.007300247 0.162000045 0.113064438 0.100578733 -0.031266484 -0.065509565 0.073083520 -0.131785795 -0.005383134 0.018401770 0.059274301 -0.015837925 0.139080450 -0.052476477 -0.122600578 -0.083530419 0.099535078 0.104500771 -0.010799977 -0.025268182 0.139693543 -0.148066327 0.057132155 -0.080981433 0.057830170 0.019308155 -0.076528646 0.019333972 -0.062834568 0.034043718 -0.001563943 0.019528227 -0.033126071 0.046084270 -0.048451494 0.053706035 -0.131120026 0.080472134 -0.033398252 -0.086193435 0.161004946 -0.038430285 -0.183971658 0.106997930 0.141858563 0.000553104 -0.116364919 0.003091591 0.053097684 0.055481832 0.063939244 -0.158850417 -0.012431775 -0.038914338 -0.037415031 -0.100635469 -0.097296454 0.199491128 -0.056978028 0.003672203 0.040017694 -0.068279542 0.004303339 0.061225396 0.083575584 0.051064376 0.043927014 0.003636466 0.054819871 -0.070644118 0.021696484 -0.051632226 0.021744078 -0.012035855 0.063507237 -0.039899677 0.039467689 -0.011429300 -0.056287061 0.043191638 -0.063567646 0.080970727 0.149163291
afb -0.056699075 -0.110434465 0.054415599 0.075841434 0.066328749 -0.006551077 -0.013314655 -0.013769024 0.053077400 -0.069040030 -0.123274371 0.094428904 0.015175817 -0.095272131 0.042301595 0.134296119 0.025135165 -0.003084292 0.152517587 0.106958456 0.103919424 -0.021867137 -0.064286247 0.067084849 -0.129530817 -0.013650433 0.010617241 0.064566232 -0.024324033 0.137156859 -0.061865605 -0.123983160 -0.072360002 0.095218353 0.095613509 -0.018226162 -0.025877493 0.136504412 -0.149488896 0.056562424 -0.077903368 0.054995891 0.018170405 -0.084147014 0.026538534 -0.056846328 0.024281543 -0.008329917 0.023235193 -0.033793900 0.046052054 -0.049934898 0.045862831 -0.119458996 0.086171560 -0.032908104 -0.093140729 0.154682979 -0.044051725 -0.183861196 0.095585577 0.130145967 0.002107162 -0.105066478 -0.004255733 0.042241007 0.065219134 0.060919590 -0.155352920 -0.005014082 -0.028808847 -0.038487576 -0.104289368 -0.094936423 0.191395238 -0.066699900 0.009440318 0.042786889 -0.067634061 -0.006050304 0.061239462 0.077562138 0.051807526 0.053783435 0.003749030 0.053831726 -0.071686447 0.019331118 -0.040875055 0.016141940 -0.002867006 0.062028512 -0.029179063 0.037990391 -0.004465959 -0.063094504 0.037729207 -0.065006949 0.076907307 0.155226782 -0.056699075 -0.110434465 0.054415599 0.075841434 0.066328749 -0.006551077 -0.013314655 -0.013769024 0.053077400 -0.069040030 -0.123274371 0.094428904 0.015175817 -0.095272131 0.042301595 0.134296119 0.025135165 -0.003084292 0.152517587 0.106958456 0.103919424 -0.021867137 -0.064286247 0.067084849 -0.129530817 -0.013650433 0.010617241 0.064566232 -0.024324033 0.137156859 -0.061865605 -0.123983160 -0.072360002 0.095218353 0.095613509 -0.018226162 -0.025877493 0.136504412 -0.149488896 0.056562424 -0.077903368 0.054995891 0.018170405 -0.084147014 0.026538534 -0.056846328 0.024281543 -0.008329917 0.023235193 -0.033793900 0.046052054 -0.049934898 0.045862831 -0.119458996 0.086171560 -0.032908104 -0.093140729 0.154682979 -0.044051725 -0.183861196 0.095585577 0.130145967 0.002107162 -0.105066478 -0.004255733 0.042241007 0.065219134 0.060919590 -0.155352920 -0.005014082 -0.028808847 -0.038487576 -0.104289368 -0.094936423 0.191395238 -0.066699900 0.009440318 0.042786889 -0.067634061 -0.006050304 0.061239462 0.077562138 0.051807526 0.053783435 0.003749030 0.053831726 -0.071686447 0.019331118 -0.040875055 0.016141940 -0.002867006 0.062028512 -0.029179063 0.037990391 -0.004465959 -0.063094504 0.037729207 -0.065006949 0.076907307 0.155226782
afr 0.008648544 -0.001651020 -0.002889275 0.008561424 -0.015515791 -0.005962848 0.009707483 0.006561967 0.001587532 0.007227969 0.019007234 0.001911142 0.006122305 0.007048328 -0.007483650 0.000683973 -0.000363147 -0.009221046 0.008124617 -0.006511304 0.012116758 -0.007047340 0.006735106 0.010949915 0.005405640 -0.002156514 -0.000519550 -0.013170902 -0.009339538 -0.014527782 -0.006219158 -0.002869972 0.009716927 -0.004079766 -0.006646975 0.007389616 -0.007462488 0.003639637 -0.003648344 0.005485361 0.003036835 -0.006233797 0.014215502 -0.003519354 0.002742151 -0.006897967 -0.000469494 -0.010682834 0.014132778 0.013309586 -0.010831873 0.008699709 -0.018721707 -0.000055116 -0.000240173 -0.018859349 0.028518450 -0.001915666 0.013310806 0.011766239 0.005853311 0.009821955 -0.002646843 -0.003700581 0.000398011 -0.001350277 0.003713084 -0.003587839 0.013468250 -0.025301289 0.000266165 0.002894497 -0.007124891 -0.006728017 -0.009939538 0.005734376 0.010097069 -0.000763325 -0.003267485 -0.003328921 0.011568821 0.000089556 0.011900031 -0.001869092 0.005039510 -0.011665200 -0.002178301 -0.014386628 -0.003180439 0.024337977 0.022334171 0.013178332 -0.014730923 0.004642379 0.013940413 0.000779198 0.001950089 -0.012188038 0.003395950 -0.005137924 0.008648544 -0.001651020 -0.002889275 0.008561424 -0.015515791 -0.005962848 0.009707483 0.006561967 0.001587532 0.007227969 0.019007234 0.001911142 0.006122305 0.007048328 -0.007483650 0.000683973 -0.000363147 -0.009221046 0.008124617 -0.006511304 0.012116758 -0.007047340 0.006735106 0.010949915 0.005405640 -0.002156514 -0.000519550 -0.013170902 -0.009339538 -0.014527782 -0.006219158 -0.002869972 0.009716927 -0.004079766 -0.006646975 0.007389616 -0.007462488 0.003639637 -0.003648344 0.005485361 0.003036835 -0.006233797 0.014215502 -0.003519354 0.002742151 -0.006897967 -0.000469494 -0.010682834 0.014132778 0.013309586 -0.010831873 0.008699709 -0.018721707 -0.000055116 -0.000240173 -0.018859349 0.028518450 -0.001915666 0.013310806 0.011766239 0.005853311 0.009821955 -0.002646843 -0.003700581 0.000398011 -0.001350277 0.003713084 -0.003587839 0.013468250 -0.025301289 0.000266165 0.002894497 -0.007124891 -0.006728017 -0.009939538 0.005734376 0.010097069 -0.000763325 -0.003267485 -0.003328921 0.011568821 0.000089556 0.011900031 -0.001869092 0.005039510 -0.011665200 -0.002178301 -0.014386628 -0.003180439 0.024337977 0.022334171 0.013178332 -0.014730923 0.004642379 0.013940413 0.000779198 0.001950089 -0.012188038 0.003395950 -0.005137924
aho -0.061975837 -0.101168156 0.053945914 0.082689323 0.077436335 -0.001367989 -0.004514652 -0.007203588 0.058142453 -0.062464673 -0.128655598 0.101110190 0.020614378 -0.089484811 0.050953284 0.139329687 0.019400608 0.007300247 0.162000045 0.113064438 0.100578733 -0.031266484 -0.065509565 0.073083520 -0.131785795 -0.005383134 0.018401770 0.059274301 -0.015837925 0.139080450 -0.052476477 -0.122600578 -0.083530419 0.099535078 0.104500771 -0.010799977 -0.025268182 0.139693543 -0.148066327 0.057132155 -0.080981433 0.057830170 0.019308155 -0.076528646 0.019333972 -0.062834568 0.034043718 -0.001563943 0.019528227 -0.033126071 0.046084270 -0.048451494 0.053706035 -0.131120026 0.080472134 -0.033398252 -0.086193435 0.161004946 -0.038430285 -0.183971658 0.106997930 0.141858563 0.000553104 -0.116364919 0.003091591 0.053097684 0.055481832 0.063939244 -0.158850417 -0.012431775 -0.038914338 -0.037415031 -0.100635469 -0.097296454 0.199491128 -0.056978028 0.003672203 0.040017694 -0.068279542 0.004303339 0.061225396 0.083575584 0.051064376 0.043927014 0.003636466 0.054819871 -0.070644118 0.021696484 -0.051632226 0.021744078 -0.012035855 0.063507237 -0.039899677 0.039467689 -0.011429300 -0.056287061 0.043191638 -0.063567646 0.080970727 0.149163291 -0.061975837 -0.101168156 0.053945914 0.082689323 0.077436335 -0.001367989 -0.004514652 -0.007203588 0.058142453 -0.062464673 -0.128655598 0.101110190 0.020614378 -0.089484811 0.050953284 0.139329687 0.019400608 0.007300247 0.162000045 0.113064438 0.100578733 -0.031266484 -0.065509565 0.073083520 -0.131785795 -0.005383134 0.018401770 0.059274301 -0.015837925 0.139080450 -0.052476477 -0.122600578 -0.083530419 0.099535078 0.104500771 -0.010799977 -0.025268182 0.139693543 -0.148066327 0.057132155 -0.080981433 0.057830170 0.019308155 -0.076528646 0.019333972 -0.062834568 0.034043718 -0.001563943 0.019528227 -0.033126071 0.046084270 -0.048451494 0.053706035 -0.131120026 0.080472134 -0.033398252 -0.086193435 0.161004946 -0.038430285 -0.183971658 0.106997930 0.141858563 0.000553104 -0.116364919 0.003091591 0.053097684 0.055481832 0.063939244 -0.158850417 -0.012431775 -0.038914338 -0.037415031 -0.100635469 -0.097296454 0.199491128 -0.056978028 0.003672203 0.040017694 -0.068279542 0.004303339 0.061225396 0.083575584 0.051064376 0.043927014 0.003636466 0.054819871 -0.070644118 0.021696484 -0.051632226 0.021744078 -0.012035855 0.063507237 -0.039899677 0.039467689 -0.011429300 -0.056287061 0.043191638 -0.063567646 0.080970727 0.149163291
aii -0.060906723 -0.104119495 0.043080494 0.083416700 0.086947307 0.008955393 0.000392697 0.002310731 0.065698184 -0.052859753 -0.133125454 0.110377096 0.016835622 -0.078253008 0.060737271 0.134445295 0.008891324 0.017178159 0.160423830 0.110207222 0.089232564 -0.027373305 -0.054524928 0.062020805 -0.140736446 -0.002157172 0.020224100 0.063767895 -0.005365369 0.127337351 -0.044878170 -0.116731890 -0.087990671 0.088199668 0.105516888 -0.008988831 -0.014698407 0.129795149 -0.145637691 0.059610169 -0.090455852 0.057694018 0.017101040 -0.086048968 0.020157479 -0.072496064 0.037080325 -0.005612174 0.013974977 -0.043093845 0.054630280 -0.037642714 0.042843085 -0.128311500 0.069333248 -0.038877763 -0.095614120 0.157913402 -0.027724817 -0.192384332 0.105894856 0.147578150 0.010856680 -0.123276919 0.003059719 0.054632545 0.047346320 0.073589355 -0.158898547 -0.001994335 -0.028203880 -0.026720032 -0.104107909 -0.093613893 0.200011447 -0.058041546 0.005893030 0.038890872 -0.077884905 -0.006050304 0.064042203 0.085183688 0.048637934 0.035579417 0.010855195 0.052948095 -0.069915824 0.013873655 -0.040790655 0.031591691 -0.020910578 0.052543242 -0.042732824 0.044947851 -0.011881302 -0.055900577 0.032437082 -0.073221587 0.079221658 0.156740129 -0.060906723 -0.104119495 0.043080494 0.083416700 0.086947307 0.008955393 0.000392697 0.002310731 0.065698184 -0.052859753 -0.133125454 0.110377096 0.016835622 -0.078253008 0.060737271 0.134445295 0.008891324 0.017178159 0.160423830 0.110207222 0.089232564 -0.027373305 -0.054524928 0.062020805 -0.140736446 -0.002157172 0.020224100 0.063767895 -0.005365369 0.127337351 -0.044878170 -0.116731890 -0.087990671 0.088199668 0.105516888 -0.008988831 -0.014698407 0.129795149 -0.145637691 0.059610169 -0.090455852 0.057694018 0.017101040 -0.086048968 0.020157479 -0.072496064 0.037080325 -0.005612174 0.013974977 -0.043093845 0.054630280 -0.037642714 0.042843085 -0.128311500 0.069333248 -0.038877763 -0.095614120 0.157913402 -0.027724817 -0.192384332 0.105894856 0.147578150 0.010856680 -0.123276919 0.003059719 0.054632545 0.047346320 0.073589355 -0.158898547 -0.001994335 -0.028203880 -0.026720032 -0.104107909 -0.093613893 0.200011447 -0.058041546 0.005893030 0.038890872 -0.077884905 -0.006050304 0.064042203 0.085183688 0.048637934 0.035579417 0.010855195 0.052948095 -0.069915824 0.013873655 -0.040790655 0.031591691 -0.020910578 0.052543242 -0.042732824 0.044947851 -0.011881302 -0.055900577 0.032437082 -0.073221587 0.079221658 0.156740129
ain -0.034351841 -0.116884552 0.076857075 0.052362371 0.108137883 -0.020180205 -0.015688686 -0.016557800 0.065817490 -0.063600838 -0.157011122 0.066702686 0.015798360 -0.086164691 0.049485166 0.126402915 0.018493535 -0.013240092 0.182361022 0.088976771 0.079246536 -0.047275506 -0.075959675 0.068661600 -0.122268282 -0.036695506 0.013327213 0.064645611 0.005760889 0.132885158 -0.033253521 -0.145085230 -0.077780679 0.078755610 0.076443195 0.006130314 -0.046882987 0.104650028 -0.130237713 0.086022370 -0.094527178 0.061040912 0.049715035 -0.042186007 -0.008883997 -0.066863313 0.051686026 -0.014127435 0.035405692 0.017763212 0.051366523 -0.019180220 0.055064175 -0.110784762 0.097538106 -0.033099674 -0.074676357 0.129697785 -0.054479916 -0.162233353 0.113553986 0.115575157 0.001569818 -0.081388392 -0.001396154 0.049849644 0.075392149 0.040165957 -0.139590353 -0.035210062 -0.044718634 -0.014836375 -0.146420076 -0.121022440 0.213504568 -0.035230357 0.019736240 0.038538285 -0.080411963 -0.003492661 0.103151560 0.096188210 0.018220836 0.038690522 -0.009794346 0.075719304 -0.025030335 0.048084896 -0.052467152 0.050582662 -0.006457834 0.041440886 -0.052937418 0.020419132 -0.025199547 -0.051212318 0.024274446 -0.053978268 0.084152184 0.159956619 -0.034351841 -0.116884552 0.076857075 0.052362371 0.108137883 -0.020180205 -0.015688686 -0.016557800 0.065817490 -0.063600838 -0.157011122 0.066702686 0.015798360 -0.086164691 0.049485166 0.126402915 0.018493535 -0.013240092 0.182361022 0.088976771 0.079246536 -0.047275506 -0.075959675 0.068661600 -0.122268282 -0.036695506 0.013327213 0.064645611 0.005760889 0.132885158 -0.033253521 -0.145085230 -0.077780679 0.078755610 0.076443195 0.006130314 -0.046882987 0.104650028 -0.130237713 0.086022370 -0.094527178 0.061040912 0.049715035 -0.042186007 -0.008883997 -0.066863313 0.051686026 -0.014127435 0.035405692 0.017763212 0.051366523 -0.019180220 0.055064175 -0.110784762 0.097538106 -0.033099674 -0.074676357 0.129697785 -0.054479916 -0.162233353 0.113553986 0.115575157 0.001569818 -0.081388392 -0.001396154 0.049849644 0.075392149 0.040165957 -0.139590353 -0.035210062 -0.044718634 -0.014836375 -0.146420076 -0.121022440 0.213504568 -0.035230357 0.019736240 0.038538285 -0.080411963 -0.003492661 0.103151560 0.096188210 0.018220836 0.038690522 -0.009794346 0.075719304 -0.025030335 0.048084896 -0.052467152 0.050582662 -0.006457834 0.041440886 -0.052937418 0.020419132 -0.025199547 -0.051212318 0.024274446 -0.053978268 0.084152184 0.159956619
aka -0.040776744 -0.094399534 0.002535558 0.082375146 0.102122836 0.008702533 0.019504502 -0.002277056 0.022509508 -0.055981949 -0.129408523 0.094734505 -0.000128702 -0.100972369 0.054972827 0.161248907 -0.007336710 0.033911556 0.155183077 0.136114851 0.050789498 -0.072248831 -0.050637420 -0.009790604 -0.079344563 -0.019084889 0.002109766 0.089863047 0.033643760 0.133575857 0.016211791 -0.040997952 -0.073102117 0.051056162 0.097228356 -0.047731679 -0.049089283 0.066140652 -0.081936672 0.030372661 -0.045172703 0.022193339 0.027566247 -0.036810786 0.046025030 -0.028298188 0.050291903 0.022680603 -0.027667239 -0.024754742 0.030278193 -0.026552128 0.056812197 -0.091779880 0.037869252 -0.068159029 -0.065152131 0.120917521 -0.025099859 -0.156193152 0.076358862 0.161181852 0.043933086 -0.143554837 0.029145163 0.089659378 0.059587561 0.056733716 -0.165147394 -0.005056903 0.022384111 -0.081923537 -0.077799320 -0.013301354 0.177244797 -0.048675470 0.002423206 -0.001894875 -0.042492863 -0.022536159 0.026708532 0.090814166 0.044891290 0.029731827 -0.085752070 0.053738587 -0.052568097 0.045982823 -0.030704787 -0.005152321 -0.015845720 0.098158255 -0.066333376 -0.009482872 -0.017921094 -0.064780705 0.034431711 -0.074462645 0.127471879 0.137819678 -0.040776744 -0.094399534 0.002535558 0.082375146 0.102122836 0.008702533 0.019504502 -0.002277056 0.022509508 -0.055981949 -0.129408523 0.094734505 -0.000128702 -0.100972369 0.054972827 0.161248907 -0.007336710 0.033911556 0.155183077 0.136114851 0.050789498 -0.072248831 -0.050637420 -0.009790604 -0.079344563 -0.019084889 0.002109766 0.089863047 0.033643760 0.133575857 0.016211791 -0.040997952 -0.073102117 0.051056162 0.097228356 -0.047731679 -0.049089283 0.066140652 -0.081936672 0.030372661 -0.045172703 0.022193339 0.027566247 -0.036810786 0.046025030 -0.028298188 0.050291903 0.022680603 -0.027667239 -0.024754742 0.030278193 -0.026552128 0.056812197 -0.091779880 0.037869252 -0.068159029 -0.065152131 0.120917521 -0.025099859 -0.156193152 0.076358862 0.161181852 0.043933086 -0.143554837 0.029145163 0.089659378 0.059587561 0.056733716 -0.165147394 -0.005056903 0.022384111 -0.081923537 -0.077799320 -0.013301354 0.177244797 -0.048675470 0.002423206 -0.001894875 -0.042492863 -0.022536159 0.026708532 0.090814166 0.044891290 0.029731827 -0.085752070 0.053738587 -0.052568097 0.045982823 -0.030704787 -0.005152321 -0.015845720 0.098158255 -0.066333376 -0.009482872 -0.017921094 -0.064780705 0.034431711 -0.074462645 0.127471879 0.137819678
akk -0.049383201 -0.097771995 0.060403623 0.051148597 0.063467123 -0.003548993 -0.025092103 -0.017906066 0.076280057 -0.075637713 -0.119106606 0.105186872 0.040489122 -0.097977035 0.030783782 0.131258547 0.028749980 0.041168287 0.158086851 0.129002348 0.089129299 -0.060432654 -0.054863237 0.055341758 -0.134632155 -0.014314941 0.003622482 0.046968784 -0.021697097 0.134383917 -0.045869950 -0.125137821 -0.097712830 0.110472202 0.092575043 -0.002263553 -0.021981172 0.127494514 -0.161392972 0.048486695 -0.082976036 0.072856672 0.021194903 -0.089490183 0.013130421 -0.045640778 0.043108832 -0.005130674 -0.001476695 -0.041105237 0.054784521 -0.038454451 0.048304740 -0.113050289 0.073991030 -0.012295628 -0.085928805 0.153139651 -0.050144672 -0.171324998 0.091579974 0.131980449 0.018179873 -0.120032512 0.009086763 0.055172551 0.057137664 0.069967523 -0.149683058 0.008558911 -0.028405780 -0.040071975 -0.073711589 -0.109129101 0.205831125 -0.059922215 0.019326365 0.016526937 -0.055999469 0.010744913 0.044158000 0.091213875 0.038513646 0.051255021 -0.003733740 0.030787539 -0.070390284 0.025539286 -0.059124101 0.019158095 -0.001845843 0.040777780 -0.033909626 0.033853233 -0.022501484 -0.039855722 0.047026221 -0.084113576 0.051603403 0.133915246 -0.049383201 -0.097771995 0.060403623 0.051148597 0.063467123 -0.003548993 -0.025092103 -0.017906066 0.076280057 -0.075637713 -0.119106606 0.105186872 0.040489122 -0.097977035 0.030783782 0.131258547 0.028749980 0.041168287 0.158086851 0.129002348 0.089129299 -0.060432654 -0.054863237 0.055341758 -0.134632155 -0.014314941 0.003622482 0.046968784 -0.021697097 0.134383917 -0.045869950 -0.125137821 -0.097712830 0.110472202 0.092575043 -0.002263553 -0.021981172 0.127494514 -0.161392972 0.048486695 -0.082976036 0.072856672 0.021194903 -0.089490183 0.013130421 -0.045640778 0.043108832 -0.005130674 -0.001476695 -0.041105237 0.054784521 -0.038454451 0.048304740 -0.113050289 0.073991030 -0.012295628 -0.085928805 0.153139651 -0.050144672 -0.171324998 0.091579974 0.131980449 0.018179873 -0.120032512 0.009086763 0.055172551 0.057137664 0.069967523 -0.149683058 0.008558911 -0.028405780 -0.040071975 -0.073711589 -0.109129101 0.205831125 -0.059922215 0.019326365 0.016526937 -0.055999469 0.010744913 0.044158000 0.091213875 0.038513646 0.051255021 -0.003733740 0.030787539 -0.070390284 0.025539286 -0.059124101 0.019158095 -0.001845843 0.040777780 -0.033909626 0.033853233 -0.022501484 -0.039855722 0.047026221 -0.084113576 0.051603403 0.133915246
akz -0.061975837 -0.101168156 0.053945914 0.082689323 0.077436335 -0.001367989 -0.004514652 -0.007203588 0.058142453 -0.062464673 -0.128655598 0.101110190 0.020614378 -0.089484811 0.050953284 0.139329687 0.019400608 0.007300247 0.162000045 0.113064438 0.100578733 -0.031266484 -0.065509565 0.073083520 -0.131785795 -0.005383134 0.018401770 0.059274301 -0.015837925 0.139080450 -0.052476477 -0.122600578 -0.083530419 0.099535078 0.104500771 -0.010799977 -0.025268182 0.139693543 -0.148066327 0.057132155 -0.080981433 0.057830170 0.019308155 -0.076528646 0.019333972 -0.062834568 0.034043718 -0.001563943 0.019528227 -0.033126071 0.046084270 -0.048451494 0.053706035 -0.131120026 0.080472134 -0.033398252 -0.086193435 0.161004946 -0.038430285 -0.183971658 0.106997930 0.141858563 0.000553104 -0.116364919 0.003091591 0.053097684 0.055481832 0.063939244 -0.158850417 -0.012431775 -0.038914338 -0.037415031 -0.100635469 -0.097296454 0.199491128 -0.056978028 0.003672203 0.040017694 -0.068279542 0.004303339 0.061225396 0.083575584 0.051064376 0.043927014 0.003636466 0.054819871 -0.070644118 0.021696484 -0.051632226 0.021744078 -0.012035855 0.063507237 -0.039899677 0.039467689 -0.011429300 -0.056287061 0.043191638 -0.063567646 0.080970727 0.149163291 -0.061975837 -0.101168156 0.053945914 0.082689323 0.077436335 -0.001367989 -0.004514652 -0.007203588 0.058142453 -0.062464673 -0.128655598 0.101110190 0.020614378 -0.089484811 0.050953284 0.139329687 0.019400608 0.007300247 0.162000045 0.113064438 0.100578733 -0.031266484 -0.065509565 0.073083520 -0.131785795 -0.005383134 0.018401770 0.059274301 -0.015837925 0.139080450 -0.052476477 -0.122600578 -0.083530419 0.099535078 0.104500771 -0.010799977 -0.025268182 0.139693543 -0.148066327 0.057132155 -0.080981433 0.057830170 0.019308155 -0.076528646 0.019333972 -0.062834568 0.034043718 -0.001563943 0.019528227 -0.033126071 0.046084270 -0.048451494 0.053706035 -0.131120026 0.080472134 -0.033398252 -0.086193435 0.161004946 -0.038430285 -0.183971658 0.106997930 0.141858563 0.000553104 -0.116364919 0.003091591 0.053097684 0.055481832 0.063939244 -0.158850417 -0.012431775 -0.038914338 -0.037415031 -0.100635469 -0.097296454 0.199491128 -0.056978028 0.003672203 0.040017694 -0.068279542 0.004303339 0.061225396 0.083575584 0.051064376 0.043927014 0.003636466 0.054819871 -0.070644118 0.021696484 -0.051632226 0.021744078 -0.012035855 0.063507237 -0.039899677 0.039467689 -0.011429300 -0.056287061 0.043191638 -0.063567646 0.080970727 0.149163291
ale -0.061975837 -0.101168156 0.053945914 0.082689323 0.077436335 -0.001367989 -0.004514652 -0.007203588 0.058142453 -0.062464673 -0.128655598 0.101110190 0.020614378 -0.089484811 0.050953284 0.139329687 0.019400608 0.007300247 0.162000045 0.113064438 0.100578733 -0.031266484 -0.065509565 0.073083520 -0.131785795 -0.005383134 0.018401770 0.059274301 -0.015837925 0.139080450 -0.052476477 -0.122600578 -0.083530419 0.099535078 0.104500771 -0.010799977 -0.025268182 0.139693543 -0.148066327 0.057132155 -0.080981433 0.057830170 0.019308155 -0.076528646 0.019333972 -0.062834568 0.034043718 -0.001563943 0.019528227 -0.033126071 0.046084270 -0.048451494 0.053706035 -0.131120026 0.080472134 -0.033398252 -0.086193435 0.161004946 -0.038430285 -0.183971658 0.106997930 0.141858563 0.000553104 -0.116364919 0.003091591 0.053097684 0.055481832 0.063939244 -0.158850417 -0.012431775 -0.038914338 -0.037415031 -0.100635469 -0.097296454 0.199491128 -0.056978028 0.003672203 0.040017694 -0.068279542 0.004303339 0.061225396 0.083575584 0.051064376 0.043927014 0.003636466 0.054819871 -0.070644118 0.021696484 -0.051632226 0.021744078 -0.012035855 0.063507237 -0.039899677 0.039467689 -0.011429300 -0.056287061 0.043191638 -0.063567646 0.080970727 0.149163291 -0.061975837 -0.101168156 0.053945914 0.082689323 0.077436335 -0.001367989 -0.004514652 -0.007203588 0.058142453 -0.062464673 -0.128655598 0.101110190 0.020614378 -0.089484811 0.050953284 0.139329687 0.019400608 0.007300247 0.162000045 0.113064438 0.100578733 -0.031266484 -0.065509565 0.073083520 -0.131785795 -0.005383134 0.018401770 0.059274301 -0.015837925 0.139080450 -0.052476477 -0.122600578 -0.083530419 0.099535078 0.104500771 -0.010799977 -0.025268182 0.139693543 -0.148066327 0.057132155 -0.080981433 0.057830170 0.019308155 -0.076528646 0.019333972 -0.062834568 0.034043718 -0.001563943 0.019528227 -0.033126071 0.046084270 -0.048451494 0.053706035 -0.131120026 0.080472134 -0.033398252 -0.086193435 0.161004946 -0.038430285 -0.183971658 0.106997930 0.141858563 0.000553104 -0.116364919 0.003091591 0.053097684 0.055481832 0.063939244 -0.158850417 -0.012431775 -0.038914338 -0.037415031 -0.100635469 -0.097296454 0.199491128 -0.056978028 0.003672203 0.040017694 -0.068279542 0.004303339 0.061225396 0.083575584 0.051064376 0.043927014 0.003636466 0.054819871 -0.070644118 0.021696484 -0.051632226 0.021744078 -0.012035855 0.063507237 -0.039899677 0.039467689 -0.011429300 -0.056287061 0.043191638 -0.063567646 0.080970727 0.149163291
als -0.041524373 -0.080030955 0.063273497 0.094510861 0.020271793 -0.001699376 -0.022476040 0.024836769 0.054661538 -0.038758039 -0.080414116 0.109847181 -0.024646381 -0.104295291 0.087948449 0.101937458 0.016879095 -0.029850030 0.146754518 0.038430680 0.065238051 0.000182164 -0.085414819 0.074016675 -0.132004082 0.052278828 -0.037678026 0.078704126 -0.006888918 0.066436805 -0.017877534 -0.070135809 -0.040582128 0.058419514 0.078750238 -0.000187321 -0.061981134 0.157234818 -0.133626774 0.052082229 -0.054262757 -0.024702881 0.018487794 -0.059982572 -0.020169236 -0.045889489 -0.032551214 0.002421032 0.027157409 -0.037740860 0.052348543 -0.026440190 0.069058515 -0.097916782 0.037991296 -0.022823932 -0.072248489 0.178341731 -0.021007886 -0.127793700 0.039350294 0.142506719 0.009755188 -0.112592787 -0.036595602 0.036584854 0.058781307 -0.013727657 -0.128217041 0.017055335 -0.032250311 -0.017492896 -0.073211193 -0.063589819 0.173322588 -0.072288781 -0.013316713 0.024023864 -0.086852878 -0.014722240 0.065691553 0.050017931 0.044172097 0.077244632 0.001166916 0.039808318 -0.020380190 -0.013365488 -0.032764710 0.010991327 -0.002836094 0.090302125 -0.060937390 0.039626539 0.003937411 -0.036372691 -0.022456219 -0.043459777 0.059794642 0.086329304 -0.041524373 -0.080030955 0.063273497 0.094510861 0.020271793 -0.001699376 -0.022476040 0.024836769 0.054661538 -0.038758039 -0.080414116 0.109847181 -0.024646381 -0.104295291 0.087948449 0.101937458 0.016879095 -0.029850030 0.146754518 0.038430680 0.065238051 0.000182164 -0.085414819 0.074016675 -0.132004082 0.052278828 -0.037678026 0.078704126 -0.006888918 0.066436805 -0.017877534 -0.070135809 -0.040582128 0.058419514 0.078750238 -0.000187321 -0.061981134 0.157234818 -0.133626774 0.052082229 -0.054262757 -0.024702881 0.018487794 -0.059982572 -0.020169236 -0.045889489 -0.032551214 0.002421032 0.027157409 -0.037740860 0.052348543 -0.026440190 0.069058515 -0.097916782 0.037991296 -0.022823932 -0.072248489 0.178341731 -0.021007886 -0.127793700 0.039350294 0.142506719 0.009755188 -0.112592787 -0.036595602 0.036584854 0.058781307 -0.013727657 -0.128217041 0.017055335 -0.032250311 -0.017492896 -0.073211193 -0.063589819 0.173322588 -0.072288781 -0.013316713 0.024023864 -0.086852878 -0.014722240 0.065691553 0.050017931 0.044172097 0.077244632 0.001166916 0.039808318 -0.020380190 -0.013365488 -0.032764710 0.010991327 -0.002836094 0.090302125 -0.060937390 0.039626539 0.003937411 -0.036372691 -0.022456219 -0.043459777 0.059794642 0.086329304
alt -0.057681467 -0.091876335 0.043080494 0.089579798 0.070233710 -0.001957047 -0.008036595 -0.015629841 0.049426448 -0.057351865 -0.131364733 0.107278183 0.030711137 -0.078253008 0.050985247 0.142369419 0.013065692 0.000406923 0.170639232 0.101592243 0.103109196 -0.027467776 -0.067515291 0.077212036 -0.122347504 -0.012645494 0.009429817 0.067490749 -0.011665932 0.135140032 -0.045244090 -0.131645933 -0.092978559 0.095007285 0.094951600 -0.005487311 -0.035316963 0.129066959 -0.141170204 0.046233885 -0.079905517 0.053241711 0.029418379 -0.086048968 0.028541563 -0.061385032 0.032548446 -0.001574027 0.010113984 -0.032099765 0.053326145 -0.048595909 0.063461646 -0.133061573 0.075141482 -0.043363217 -0.078896642 0.166670814 -0.034078270 -0.186432257 0.095585577 0.133137017 0.007619035 -0.111390710 0.004432689 0.044944040 0.054817911 0.055503312 -0.167522058 -0.017471345 -0.042641167 -0.042671263 -0.104159750 -0.100528017 0.191485599 -0.061062172 0.006756689 0.040603764 -0.060288969 0.014568252 0.059657786 0.091856740 0.047972508 0.033164881 0.009253357 0.057819210 -0.068633392 0.018682841 -0.044437271 0.016992940 -0.003462923 0.058107208 -0.045385357 0.044987153 -0.001969445 -0.047188826 0.037967030 -0.061807953 0.078936122 0.152298734 -0.057681467 -0.091876335 0.043080494 0.089579798 0.070233710 -0.001957047 -0.008036595 -0.015629841 0.049426448 -0.057351865 -0.131364733 0.107278183 0.030711137 -0.078253008 0.050985247 0.142369419 0.013065692 0.000406923 0.170639232 0.101592243 0.103109196 -0.027467776 -0.067515291 0.077212036 -0.122347504 -0.012645494 0.009429817 0.067490749 -0.011665932 0.135140032 -0.045244090 -0.131645933 -0.092978559 0.095007285 0.094951600 -0.005487311 -0.035316963 0.129066959 -0.141170204 0.046233885 -0.079905517 0.053241711 0.029418379 -0.086048968 0.028541563 -0.061385032 0.032548446 -0.001574027 0.010113984 -0.032099765 0.053326145 -0.048595909 0.063461646 -0.133061573 0.075141482 -0.043363217 -0.078896642 0.166670814 -0.034078270 -0.186432257 0.095585577 0.133137017 0.007619035 -0.111390710 0.004432689 0.044944040 0.054817911 0.055503312 -0.167522058 -0.017471345 -0.042641167 -0.042671263 -0.104159750 -0.100528017 0.191485599 -0.061062172 0.006756689 0.040603764 -0.060288969 0.014568252 0.059657786 0.091856740 0.047972508 0.033164881 0.009253357 0.057819210 -0.068633392 0.018682841 -0.044437271 0.016992940 -0.003462923 0.058107208 -0.045385357 0.044987153 -0.001969445 -0.047188826 0.037967030 -0.061807953 0.078936122 0.152298734
amh -0.021003209 -0.086201712 0.059312407 0.040286675 0.012265623 -0.048095502 -0.018827714 0.062379863 0.122458756 -0.072094046 -0.058168456 0.060404655 -0.012184388 -0.056920152 0.012222423 0.152517736 -0.010614574 0.031584743 0.102218114 0.088136777 0.024243644 -0.033296414 -0.044363469 0.001064835 -0.037192602 0.031797182 0.004283646 -0.003411055 -0.030192140 0.034095291 -0.022452269 -0.127334461 -0.071353659 0.109649763 -0.001371581 -0.070742086 -0.008522188 0.061167210 -0.036126893 0.062264983 -0.054470561 0.120373152 0.024492806 -0.044537522 -0.001641188 -0.061269674 0.013342077 0.039174184 -0.010538059 -0.016634600 0.080328792 -0.067582935 0.034245290 -0.077352859 0.040746380 -0.033255540 -0.078815252 0.038065992 -0.025733745 -0.131863549 0.056044884 0.045614917 0.034199968 -0.119080722 0.027107680 0.019249756 0.081715636 0.001554376 -0.008459467 0.032685682 0.086629137 -0.064333662 -0.066716164 -0.087756254 0.126889393 -0.021419518 -0.020060722 -0.069993787 -0.061043035 -0.001308643 0.023974359 0.049564708 -0.017724833 -0.001741349 -0.017383860 0.047916748 -0.049108811 0.044333570 -0.040077485 0.024950273 -0.011745289 -0.001252850 0.002919664 0.044156276 -0.036662068 -0.045673255 0.009453828 -0.035372548 0.026595024 0.037534326 -0.021003209 -0.086201712 0.059312407 0.040286675 0.012265623 -0.048095502 -0.018827714 0.062379863 0.122458756 -0.072094046 -0.058168456 0.060404655 -0.012184388 -0.056920152 0.012222423 0.152517736 -0.010614574 0.031584743 0.102218114 0.088136777 0.024243644 -0.033296414 -0.044363469 0.001064835 -0.037192602 0.031797182 0.004283646 -0.003411055 -0.030192140 0.034095291 -0.022452269 -0.127334461 -0.071353659 0.109649763 -0.001371581 -0.070742086 -0.008522188 0.061167210 -0.036126893 0.062264983 -0.054470561 0.120373152 0.024492806 -0.044537522 -0.001641188 -0.061269674 0.013342077 0.039174184 -0.010538059 -0.016634600 0.080328792 -0.067582935 0.034245290 -0.077352859 0.040746380 -0.033255540 -0.078815252 0.038065992 -0.025733745 -0.131863549 0.056044884 0.045614917 0.034199968 -0.119080722 0.027107680 0.019249756 0.081715636 0.001554376 -0.008459467 0.032685682 0.086629137 -0.064333662 -0.066716164 -0.087756254 0.126889393 -0.021419518 -0.020060722 -0.069993787 -0.061043035 -0.001308643 0.023974359 0.049564708 -0.017724833 -0.001741349 -0.017383860 0.047916748 -0.049108811 0.044333570 -0.040077485 0.024950273 -0.011745289 -0.001252850 0.002919664 0.044156276 -0.036662068 -0.045673255 0.009453828 -0.035372548 0.026595024 0.037534326
ami -0.029794751 -0.124320656 0.036007438 0.069507264 0.083790943 -0.028663859 0.004078249 -0.007833432 0.074706070 -0.042590834 -0.139152929 0.105512813 0.024022693 -0.096052110 0.052964650 0.125002027 0.028913720 -0.003127679 0.149021193 0.099537231 0.107913323 -0.028423993 -0.072543129 0.074303500 -0.148500592 -0.021250933 0.023829978 0.040831380 -0.024118936 0.135462061 -0.048782397 -0.109461121 -0.071774751 0.086573251 0.107980065 -0.030737797 -0.017087363 0.127002597 -0.157135129 0.039168831 -0.056872793 0.043368272 -0.003761948 -0.085891165 0.035624970 -0.075602435 0.053099334 -0.022018582 0.037930537 -0.001819220 0.045432307 -0.040885434 0.033863608 -0.142404392 0.075710423 -0.042487193 -0.095034160 0.139049321 -0.019050756 -0.153917387 0.111581996 0.132370636 0.008319391 -0.130946979 -0.022377111 0.048015714 0.050796788 0.040833440 -0.164137766 0.011051827 -0.042497110 -0.054930314 -0.100069895 -0.116576612 0.199495241 -0.055597961 0.011706256 0.048622027 -0.071174093 -0.026130095 0.085095890 0.097791642 0.029091189 0.040199112 -0.003257580 0.080421641 -0.072383448 0.009250013 -0.026526403 0.018585756 0.001418684 0.051214870 -0.026015937 0.039478850 0.006192380 -0.074454121 0.063010931 -0.048186418 0.080764048 0.147437155 -0.029794751 -0.124320656 0.036007438 0.069507264 0.083790943 -0.028663859 0.004078249 -0.007833432 0.074706070 -0.042590834 -0.139152929 0.105512813 0.024022693 -0.096052110 0.052964650 0.125002027 0.028913720 -0.003127679 0.149021193 0.099537231 0.107913323 -0.028423993 -0.072543129 0.074303500 -0.148500592 -0.021250933 0.023829978 0.040831380 -0.024118936 0.135462061 -0.048782397 -0.109461121 -0.071774751 0.086573251 0.107980065 -0.030737797 -0.017087363 0.127002597 -0.157135129 0.039168831 -0.056872793 0.043368272 -0.003761948 -0.085891165 0.035624970 -0.075602435 0.053099334 -0.022018582 0.037930537 -0.001819220 0.045432307 -0.040885434 0.033863608 -0.142404392 0.075710423 -0.042487193 -0.095034160 0.139049321 -0.019050756 -0.153917387 0.111581996 0.132370636 0.008319391 -0.130946979 -0.022377111 0.048015714 0.050796788 0.040833440 -0.164137766 0.011051827 -0.042497110 -0.054930314 -0.100069895 -0.116576612 0.199495241 -0.055597961 0.011706256 0.048622027 -0.071174093 -0.026130095 0.085095890 0.097791642 0.029091189 0.040199112 -0.003257580 0.080421641 -0.072383448 0.009250013 -0.026526403 0.018585756 0.001418684 0.051214870 -0.026015937 0.039478850 0.006192380 -0.074454121 0.063010931 -0.048186418 0.080764048 0.147437155
ang -0.065196767 0.013697049 -0.022540575 0.016059980 0.049685732 -0.011541251 -0.002690980 0.001246197 0.059955496 -0.008280043 -0.010465380 0.046893872 0.051416554 0.001320584 -0.016411472 0.013394313 -0.020618891 0.014637103 0.074544877 -0.027073257 0.032418776 -0.050153803 -0.006819073 0.112960055 -0.057311077 -0.028026879 -0.002591248 0.082960121 -0.044646192 0.011626519 -0.029588616 -0.071649477 -0.043355256 0.019932102 0.002413284 0.097974926 0.005454544 0.032403518 -0.033018287 0.048985884 -0.052299354 0.096397102 -0.022658553 -0.005771121 0.031455282 -0.018053140 0.014798837 -0.042465858 0.014609362 -0.056882329 -0.028668754 -0.063647732 0.068209559 -0.032882597 0.005831614 -0.005913997 -0.009449434 0.062133729 0.054204408 -0.019184291 -0.009580975 0.010968722 0.049855880 -0.091528848 -0.052975863 -0.022483733 0.053657997 -0.007933431 -0.028661272 0.010093209 -0.064065233 0.038800895 -0.022800306 -0.014745504 0.072695501 -0.042392720 -0.035936750 0.013520560 0.018268609 -0.072768435 -0.008688892 0.097520947 0.001940984 -0.017486108 -0.082950681 0.015889466 -0.025221987 -0.017601982 0.045345135 0.016715970 0.000252604 0.027759796 0.073827393 0.000271466 -0.026711937 0.066491283 0.046414651 -0.090932503 0.005139917 0.115542412 -0.065196767 0.013697049 -0.022540575 0.016059980 0.049685732 -0.011541251 -0.002690980 0.001246197 0.059955496 -0.008280043 -0.010465380 0.046893872 0.051416554 0.001320584 -0.016411472 0.013394313 -0.020618891 0.014637103 0.074544877 -0.027073257 0.032418776 -0.050153803 -0.006819073 0.112960055 -0.057311077 -0.028026879 -0.002591248 0.082960121 -0.044646192 0.011626519 -0.029588616 -0.071649477 -0.043355256 0.019932102 0.002413284 0.097974926 0.005454544 0.032403518 -0.033018287 0.048985884 -0.052299354 0.096397102 -0.022658553 -0.005771121 0.031455282 -0.018053140 0.014798837 -0.042465858 0.014609362 -0.056882329 -0.028668754 -0.063647732 0.068209559 -0.032882597 0.005831614 -0.005913997 -0.009449434 0.062133729 0.054204408 -0.019184291 -0.009580975 0.010968722 0.049855880 -0.091528848 -0.052975863 -0.022483733 0.053657997 -0.007933431 -0.028661272 0.010093209 -0.064065233 0.038800895 -0.022800306 -0.014745504 0.072695501 -0.042392720 -0.035936750 0.013520560 0.018268609 -0.072768435 -0.008688892 0.097520947 0.001940984 -0.017486108 -0.082950681 0.015889466 -0.025221987 -0.017601982 0.045345135 0.016715970 0.000252604 0.027759796 0.073827393 0.000271466 -0.026711937 0.066491283 0.046414651 -0.090932503 0.005139917 0.115542412
ani -0.061975837 -0.101168156 0.053945914 0.082689323 0.077436335 -0.001367989 -0.004514652 -0.007203588 0.058142453 -0.062464673 -0.128655598 0.101110190 0.020614378 -0.089484811 0.050953284 0.139329687 0.019400608 0.007300247 0.162000045 0.113064438 0.100578733 -0.031266484 -0.065509565 0.073083520 -0.131785795 -0.005383134 0.018401770 0.059274301 -0.015837925 0.139080450 -0.052476477 -0.122600578 -0.083530419 0.099535078 0.104500771 -0.010799977 -0.025268182 0.139693543 -0.148066327 0.057132155 -0.080981433 0.057830170 0.019308155 -0.076528646 0.019333972 -0.062834568 0.034043718 -0.001563943 0.019528227 -0.033126071 0.046084270 -0.048451494 0.053706035 -0.131120026 0.080472134 -0.033398252 -0.086193435 0.161004946 -0.038430285 -0.183971658 0.106997930 0.141858563 0.000553104 -0.116364919 0.003091591 0.053097684 0.055481832 0.063939244 -0.158850417 -0.012431775 -0.038914338 -0.037415031 -0.100635469 -0.097296454 0.199491128 -0.056978028 0.003672203 0.040017694 -0.068279542 0.004303339 0.061225396 0.083575584 0.051064376 0.043927014 0.003636466 0.054819871 -0.070644118 0.021696484 -0.051632226 0.021744078 -0.012035855 0.063507237 -0.039899677 0.039467689 -0.011429300 -0.056287061 0.043191638 -0.063567646 0.080970727 0.149163291 -0.061975837 -0.101168156 0.053945914 0.082689323 0.077436335 -0.001367989 -0.004514652 -0.007203588 0.058142453 -0.062464673 -0.128655598 0.101110190 0.020614378 -0.089484811 0.050953284 0.139329687 0.019400608 0.007300247 0.162000045 0.113064438 0.100578733 -0.031266484 -0.065509565 0.073083520 -0.131785795 -0.005383134 0.018401770 0.059274301 -0.015837925 0.139080450 -0.052476477 -0.122600578 -0.083530419 0.099535078 0.104500771 -0.010799977 -0.025268182 0.139693543 -0.148066327 0.057132155 -0.080981433 0.057830170 0.019308155 -0.076528646 0.019333972 -0.062834568 0.034043718 -0.001563943 0.019528227 -0.033126071 0.046084270 -0.048451494 0.053706035 -0.131120026 0.080472134 -0.033398252 -0.086193435 0.161004946 -0.038430285 -0.183971658 0.106997930 0.141858563 0.000553104 -0.116364919 0.003091591 0.053097684 0.055481832 0.063939244 -0.158850417 -0.012431775 -0.038914338 -0.037415031 -0.100635469 -0.097296454 0.199491128 -0.056978028 0.003672203 0.040017694 -0.068279542 0.004303339 0.061225396 0.083575584 0.051064376 0.043927014 0.003636466 0.054819871 -0.070644118 0.021696484 -0.051632226 0.021744078 -0.012035855 0.063507237 -0.039899677 0.039467689 -0.011429300 -0.056287061 0.043191638 -0.063567646 0.080970727 0.149163291
aoz -0.061975837 -0.101168156 0.053945914 0.082689323 0.077436335 -0.001367989 -0.004514652 -0.007203588 0.058142453 -0.062464673 -0.128655598 0.101110190 0.020614378 -0.089484811 0.050953284 0.139329687 0.019400608 0.007300247 0.162000045 0.113064438 0.100578733 -0.031266484 -0.065509565 0.073083520 -0.131785795 -0.005383134 0.018401770 0.059274301 -0.015837925 0.139080450 -0.052476477 -0.122600578 -0.083530419 0.099535078 0.104500771 -0.010799977 -0.025268182 0.139693543 -0.148066327 0.057132155 -0.080981433 0.057830170 0.019308155 -0.076528646 0.019333972 -0.062834568 0.034043718 -0.001563943 0.019528227 -0.033126071 0.046084270 -0.048451494 0.053706035 -0.131120026 0.080472134 -0.033398252 -0.086193435 0.161004946 -0.038430285 -0.183971658 0.106997930 0.141858563 0.000553104 -0.116364919 0.003091591 0.053097684 0.055481832 0.063939244 -0.158850417 -0.012431775 -0.038914338 -0.037415031 -0.100635469 -0.097296454 0.199491128 -0.056978028 0.003672203 0.040017694 -0.068279542 0.004303339 0.061225396 0.083575584 0.051064376 0.043927014 0.003636466 0.054819871 -0.070644118 0.021696484 -0.051632226 0.021744078 -0.012035855 0.063507237 -0.039899677 0.039467689 -0.011429300 -0.056287061 0.043191638 -0.063567646 0.080970727 0.149163291 -0.061975837 -0.101168156 0.053945914 0.082689323 0.077436335 -0.001367989 -0.004514652 -0.007203588 0.058142453 -0.062464673 -0.128655598 0.101110190 0.020614378 -0.089484811 0.050953284 0.139329687 0.019400608 0.007300247 0.162000045 0.113064438 0.100578733 -0.031266484 -0.065509565 0.073083520 -0.131785795 -0.005383134 0.018401770 0.059274301 -0.015837925 0.139080450 -0.052476477 -0.122600578 -0.083530419 0.099535078 0.104500771 -0.010799977 -0.025268182 0.139693543 -0.148066327 0.057132155 -0.080981433 0.057830170 0.019308155 -0.076528646 0.019333972 -0.062834568 0.034043718 -0.001563943 0.019528227 -0.033126071 0.046084270 -0.048451494 0.053706035 -0.131120026 0.080472134 -0.033398252 -0.086193435 0.161004946 -0.038430285 -0.183971658 0.106997930 0.141858563 0.000553104 -0.116364919 0.003091591 0.053097684 0.055481832 0.063939244 -0.158850417 -0.012431775 -0.038914338 -0.037415031 -0.100635469 -0.097296454 0.199491128 -0.056978028 0.003672203 0.040017694 -0.068279542 0.004303339 0.061225396 0.083575584 0.051064376 0.043927014 0.003636466 0.054819871 -0.070644118 0.021696484 -0.051632226 0.021744078 -0.012035855 0.063507237 -0.039899677 0.039467689 -0.011429300 -0.056287061 0.043191638 -0.063567646 0.080970727 0.149163291
apc -0.061975837 -0.101168156 0.053945914 0.082689323 0.077436335 -0.001367989 -0.004514652 -0.007203588 0.058142453 -0.062464673 -0.128655598 0.101110190 0.020614378 -0.089484811 0.050953284 0.139329687 0.019400608 0.007300247 0.162000045 0.113064438 0.100578733 -0.031266484 -0.065509565 0.073083520 -0.131785795 -0.005383134 0.018401770 0.059274301 -0.015837925 0.139080450 -0.052476477 -0.122600578 -0.083530419 0.099535078 0.104500771 -0.010799977 -0.025268182 0.139693543 -0.148066327 0.057132155 -0.080981433 0.057830170 0.019308155 -0.076528646 0.019333972 -0.062834568 0.034043718 -0.001563943 0.019528227 -0.033126071 0.046084270 -0.048451494 0.053706035 -0.131120026 0.080472134 -0.033398252 -0.086193435 0.161004946 -0.038430285 -0.183971658 0.106997930 0.141858563 0.000553104 -0.116364919 0.003091591 0.053097684 0.055481832 0.063939244 -0.158850417 -0.012431775 -0.038914338 -0.037415031 -0.100635469 -0.097296454 0.199491128 -0.056978028 0.003672203 0.040017694 -0.068279542 0.004303339 0.061225396 0.083575584 0.051064376 0.043927014 0.003636466 0.054819871 -0.070644118 0.021696484 -0.051632226 0.021744078 -0.012035855 0.063507237 -0.039899677 0.039467689 -0.011429300 -0.056287061 0.043191638 -0.063567646 0.080970727 0.149163291 -0.061975837 -0.101168156 0.053945914 0.082689323 0.077436335 -0.001367989 -0.004514652 -0.007203588 0.058142453 -0.062464673 -0.128655598 0.101110190 0.020614378 -0.089484811 0.050953284 0.139329687 0.019400608 0.007300247 0.162000045 0.113064438 0.100578733 -0.031266484 -0.065509565 0.073083520 -0.131785795 -0.005383134 0.018401770 0.059274301 -0.015837925 0.139080450 -0.052476477 -0.122600578 -0.083530419 0.099535078 0.104500771 -0.010799977 -0.025268182 0.139693543 -0.148066327 0.057132155 -0.080981433 0.057830170 0.019308155 -0.076528646 0.019333972 -0.062834568 0.034043718 -0.001563943 0.019528227 -0.033126071 0.046084270 -0.048451494 0.053706035 -0.131120026 0.080472134 -0.033398252 -0.086193435 0.161004946 -0.038430285 -0.183971658 0.106997930 0.141858563 0.000553104 -0.116364919 0.003091591 0.053097684 0.055481832 0.063939244 -0.158850417 -0.012431775 -0.038914338 -0.037415031 -0.100635469 -0.097296454 0.199491128 -0.056978028 0.003672203 0.040017694 -0.068279542 0.004303339 0.061225396 0.083575584 0.051064376 0.043927014 0.003636466 0.054819871 -0.070644118 0.021696484 -0.051632226 0.021744078 -0.012035855 0.063507237 -0.039899677 0.039467689 -0.011429300 -0.056287061 0.043191638 -0.063567646 0.080970727 0.149163291
apw -0.038441535 -0.104273267 0.062829964 0.060252387 0.036246322 -0.011517867 -0.004699838 -0.000241643 0.047130719 -0.086139627 -0.069934793 0.080907069 0.010556428 -0.049007539 0.007210871 0.129727900 0.025050145 0.012609339 0.156590596 0.097760640 0.035061415 -0.062188122 -0.063730404 0.093008474 -0.121460035 -0.008282393 -0.007888814 0.066040888 0.005412987 0.154045001 -0.054415092 -0.126883015 -0.111289650 0.101544447 0.058500245 0.008925811 -0.038338497 0.087414369 -0.129280120 0.072217472 -0.096437462 0.026590260 0.021670502 -0.056186888 -0.010293001 -0.000536909 0.068106085 0.010590564 0.017823255 -0.058331966 0.022274937 -0.039484143 0.038261537 -0.103613503 0.101384245 -0.014878915 -0.074441127 0.177089363 -0.033770055 -0.166560322 0.070448838 0.133091167 0.020977970 -0.133333728 0.008398661 0.048421722 0.032048635 0.086340897 -0.146607056 0.008207955 -0.029216448 0.013334428 -0.055781346 -0.075214624 0.228348047 -0.036098834 0.000250156 0.035885490 -0.085713275 0.039468355 0.028971892 0.039433680 0.041514866 0.027268508 0.026633032 0.048842743 -0.083997570 0.029463457 -0.045081113 0.053280752 -0.000537669 0.041976325 -0.032959916 0.032671720 -0.003448041 -0.058170617 0.036444612 -0.070490442 0.050940923 0.129019231 -0.038441535 -0.104273267 0.062829964 0.060252387 0.036246322 -0.011517867 -0.004699838 -0.000241643 0.047130719 -0.086139627 -0.069934793 0.080907069 0.010556428 -0.049007539 0.007210871 0.129727900 0.025050145 0.012609339 0.156590596 0.097760640 0.035061415 -0.062188122 -0.063730404 0.093008474 -0.121460035 -0.008282393 -0.007888814 0.066040888 0.005412987 0.154045001 -0.054415092 -0.126883015 -0.111289650 0.101544447 0.058500245 0.008925811 -0.038338497 0.087414369 -0.129280120 0.072217472 -0.096437462 0.026590260 0.021670502 -0.056186888 -0.010293001 -0.000536909 0.068106085 0.010590564 0.017823255 -0.058331966 0.022274937 -0.039484143 0.038261537 -0.103613503 0.101384245 -0.014878915 -0.074441127 0.177089363 -0.033770055 -0.166560322 0.070448838 0.133091167 0.020977970 -0.133333728 0.008398661 0.048421722 0.032048635 0.086340897 -0.146607056 0.008207955 -0.029216448 0.013334428 -0.055781346 -0.075214624 0.228348047 -0.036098834 0.000250156 0.035885490 -0.085713275 0.039468355 0.028971892 0.039433680 0.041514866 0.027268508 0.026633032 0.048842743 -0.083997570 0.029463457 -0.045081113 0.053280752 -0.000537669 0.041976325 -0.032959916 0.032671720 -0.003448041 -0.058170617 0.036444612 -0.070490442 0.050940923 0.129019231
aqc -0.061975837 -0.101168156 0.053945914 0.082689323 0.077436335 -0.001367989 -0.004514652 -0.007203588 0.058142453 -0.062464673 -0.128655598 0.101110190 0.020614378 -0.089484811 0.050953284 0.139329687 0.019400608 0.007300247 0.162000045 0.113064438 0.100578733 -0.031266484 -0.065509565 0.073083520 -0.131785795 -0.005383134 0.018401770 0.059274301 -0.015837925 0.139080450 -0.052476477 -0.122600578 -0.083530419 0.099535078 0.104500771 -0.010799977 -0.025268182 0.139693543 -0.148066327 0.057132155 -0.080981433 0.057830170 0.019308155 -0.076528646 0.019333972 -0.062834568 0.034043718 -0.001563943 0.019528227 -0.033126071 0.046084270 -0.048451494 0.053706035 -0.131120026 0.080472134 -0.033398252 -0.086193435 0.161004946 -0.038430285 -0.183971658 0.106997930 0.141858563 0.000553104 -0.116364919 0.003091591 0.053097684 0.055481832 0.063939244 -0.158850417 -0.012431775 -0.038914338 -0.037415031 -0.100635469 -0.097296454 0.199491128 -0.056978028 0.003672203 0.040017694 -0.068279542 0.004303339 0.061225396 0.083575584 0.051064376 0.043927014 0.003636466 0.054819871 -0.070644118 0.021696484 -0.051632226 0.021744078 -0.012035855 0.063507237 -0.039899677 0.039467689 -0.011429300 -0.056287061 0.043191638 -0.063567646 0.080970727 0.149163291 -0.061975837 -0.101168156 0.053945914 0.082689323 0.077436335 -0.001367989 -0.004514652 -0.007203588 0.058142453 -0.062464673 -0.128655598 0.101110190 0.020614378 -0.089484811 0.050953284 0.139329687 0.019400608 0.007300247 0.162000045 0.113064438 0.100578733 -0.031266484 -0.065509565 0.073083520 -0.131785795 -0.005383134 0.018401770 0.059274301 -0.015837925 0.139080450 -0.052476477 -0.122600578 -0.083530419 0.099535078 0.104500771 -0.010799977 -0.025268182 0.139693543 -0.148066327 0.057132155 -0.080981433 0.057830170 0.019308155 -0.076528646 0.019333972 -0.062834568 0.034043718 -0.001563943 0.019528227 -0.033126071 0.046084270 -0.048451494 0.053706035 -0.131120026 0.080472134 -0.033398252 -0.086193435 0.161004946 -0.038430285 -0.183971658 0.106997930 0.141858563 0.000553104 -0.116364919 0.003091591 0.053097684 0.055481832 0.063939244 -0.158850417 -0.012431775 -0.038914338 -0.037415031 -0.100635469 -0.097296454 0.199491128 -0.056978028 0.003672203 0.040017694 -0.068279542 0.004303339 0.061225396 0.083575584 0.051064376 0.043927014 0.003636466 0.054819871 -0.070644118 0.021696484 -0.051632226 0.021744078 -0.012035855 0.063507237 -0.039899677 0.039467689 -0.011429300 -0.056287061 0.043191638 -0.063567646 0.080970727 0.149163291
ara -0.002312671 0.006846958 0.020754686 0.021797858 -0.010529757 0.012128799 0.012692738 -0.029381681 0.015047586 -0.011970075 0.019799819 0.032120429 -0.001443190 -0.005266169 0.010459860 -0.019168595 0.018113567 0.011443977 0.009374328 -0.010090248 0.009950063 -0.023753699 0.034966640 -0.003314361 0.008193174 0.015213042 0.030691180 0.004172442 -0.010210326 -0.021445641 0.001161277 -0.002121421 0.024033533 0.009662657 -0.025280131 0.008049160 0.034753166 0.012615686 -0.015590536 -0.001426747 0.000588296 -0.004331344 0.001560314 -0.009902411 -0.006366740 0.009697486 0.007262929 0.008661001 -0.003860448 0.025927687 -0.019493939 0.006606956 -0.013292519 -0.005587110 -0.013032035 -0.001468674 -0.011191685 0.019787161 -0.014901049 0.002914090 0.011393207 -0.007998515 0.009648872 0.000832523 0.011958257 0.005297781 -0.000769917 0.017739996 -0.010730969 -0.002601572 0.008710200 -0.008008476 -0.006687343 0.000747788 0.012391678 -0.000357431 -0.002103755 -0.011978005 0.011359041 0.009963967 0.004921417 -0.002479614 0.013382491 0.003764652 -0.010175042 -0.031711809 0.001439400 -0.020738261 0.005471203 0.011562433 0.014797416 -0.000524073 -0.000405537 0.016609335 -0.003800335 -0.024940742 0.009225454 -0.015734753 -0.004661900 0.009514659 -0.002312671 0.006846958 0.020754686 0.021797858 -0.010529757 0.012128799 0.012692738 -0.029381681 0.015047586 -0.011970075 0.019799819 0.032120429 -0.001443190 -0.005266169 0.010459860 -0.019168595 0.018113567 0.011443977 0.009374328 -0.010090248 0.009950063 -0.023753699 0.034966640 -0.003314361 0.008193174 0.015213042 0.030691180 0.004172442 -0.010210326 -0.021445641 0.001161277 -0.002121421 0.024033533 0.009662657 -0.025280131 0.008049160 0.034753166 0.012615686 -0.015590536 -0.001426747 0.000588296 -0.004331344 0.001560314 -0.009902411 -0.006366740 0.009697486 0.007262929 0.008661001 -0.003860448 0.025927687 -0.019493939 0.006606956 -0.013292519 -0.005587110 -0.013032035 -0.001468674 -0.011191685 0.019787161 -0.014901049 0.002914090 0.011393207 -0.007998515 0.009648872 0.000832523 0.011958257 0.005297781 -0.000769917 0.017739996 -0.010730969 -0.002601572 0.008710200 -0.008008476 -0.006687343 0.000747788 0.012391678 -0.000357431 -0.002103755 -0.011978005 0.011359041 0.009963967 0.004921417 -0.002479614 0.013382491 0.003764652 -0.010175042 -0.031711809 0.001439400 -0.020738261 0.005471203 0.011562433 0.014797416 -0.000524073 -0.000405537 0.016609335 -0.003800335 -0.024940742 0.009225454 -0.015734753 -0.004661900 0.009514659
arc -0.039720904 -0.082673356 0.070531487 0.087696418 0.006480441 -0.003136938 0.002838064 0.008767549 0.074784420 -0.011216885 -0.041834168 0.055650808 0.032853462 -0.092562631 0.022548428 0.143903345 -0.039915923 -0.018749319 0.168857038 0.058328237 0.024493225 0.014115657 -0.047341261 0.032389320 -0.113885038 0.016114799 0.063330598 0.063704558 -0.015688568 0.116610751 -0.027292434 -0.097869143 -0.057402819 0.085013017 0.067568846 0.008496155 0.001282275 0.105354227 -0.098637447 0.043397330 -0.082534596 0.013226304 0.062858887 -0.056406122 0.050484601 -0.057030842 0.061442584 -0.012672652 -0.003013034 0.011460233 0.060984734 -0.007854783 0.044918034 -0.081362128 0.041075490 0.004176376 -0.064393051 0.131184965 -0.060448799 -0.182898626 0.068526268 0.089106321 0.015666144 -0.147345975 0.011944333 0.064267337 0.052918326 0.077687018 -0.098569810 0.039970443 -0.006751666 -0.022861121 -0.040574562 -0.041888963 0.186296955 -0.082754761 0.013468132 0.118659019 -0.045814730 -0.017543823 0.028096760 0.096977621 -0.044992518 0.004361072 -0.015526729 0.005489223 -0.003857162 0.020154655 -0.009663131 -0.003767448 -0.060567103 0.046974234 -0.065779619 0.045277975 0.025107885 0.021190768 0.015011169 0.002946638 0.050012644 0.098289743 -0.039720904 -0.082673356 0.070531487 0.087696418 0.006480441 -0.003136938 0.002838064 0.008767549 0.074784420 -0.011216885 -0.041834168 0.055650808 0.032853462 -0.092562631 0.022548428 0.143903345 -0.039915923 -0.018749319 0.168857038 0.058328237 0.024493225 0.014115657 -0.047341261 0.032389320 -0.113885038 0.016114799 0.063330598 0.063704558 -0.015688568 0.116610751 -0.027292434 -0.097869143 -0.057402819 0.085013017 0.067568846 0.008496155 0.001282275 0.105354227 -0.098637447 0.043397330 -0.082534596 0.013226304 0.062858887 -0.056406122 0.050484601 -0.057030842 0.061442584 -0.012672652 -0.003013034 0.011460233 0.060984734 -0.007854783 0.044918034 -0.081362128 0.041075490 0.004176376 -0.064393051 0.131184965 -0.060448799 -0.182898626 0.068526268 0.089106321 0.015666144 -0.147345975 0.011944333 0.064267337 0.052918326 0.077687018 -0.098569810 0.039970443 -0.006751666 -0.022861121 -0.040574562 -0.041888963 0.186296955 -0.082754761 0.013468132 0.118659019 -0.045814730 -0.017543823 0.028096760 0.096977621 -0.044992518 0.004361072 -0.015526729 0.005489223 -0.003857162 0.020154655 -0.009663131 -0.003767448 -0.060567103 0.046974234 -0.065779619 0.045277975 0.025107885 0.021190768 0.015011169 0.002946638 0.050012644 0.098289743
arg -0.008028373 -0.020271635 0.048235245 0.069128729 -0.002497219 -0.043310836 0.011310229 0.034825053 0.062372815 -0.024372524 -0.036510445 0.059374232 0.002922034 -0.038037974 0.012599787 0.077235997 -0.026908750 -0.007197957 0.072374299 0.002818594 0.011454578 0.026470188 0.031994607 0.049897343 -0.089394614 0.033376835 -0.039013989 0.054635305 0.015302047 0.035084292 -0.042550344 -0.078760043 -0.005519954 0.059907179 0.026968520 -0.016395740 -0.049672585 0.034608528 -0.052587327 0.048237585 -0.056971546 0.069283582 -0.024161329 0.001261327 -0.017579690 -0.041046124 0.004716410 0.029724767 -0.012426606 -0.042459130 0.052987579 -0.043076415 0.045720126 -0.026853766 0.011358143 -0.056363668 -0.042322833 0.046345413 -0.036926188 -0.051142424 0.086841725 0.055150479 0.060234144 -0.041147966 -0.038296096 0.043822020 0.070673212 0.012784016 0.009202866 -0.024726240 0.018396087 -0.015212289 -0.064864829 -0.067259155 0.100488685 -0.057583075 -0.002636275 0.000507425 -0.075618818 0.029046753 -0.008521004 0.074122488 0.023522545 -0.004526101 -0.030438600 -0.022673531 -0.057749223 -0.008543395 -0.034868538 -0.024626682 -0.027819352 -0.004209416 -0.074678920 -0.050512303 -0.022046650 0.016438952 0.019003924 -0.036913652 -0.021898838 0.026583124 -0.008028373 -0.020271635 0.048235245 0.069128729 -0.002497219 -0.043310836 0.011310229 0.034825053 0.062372815 -0.024372524 -0.036510445 0.059374232 0.002922034 -0.038037974 0.012599787 0.077235997 -0.026908750 -0.007197957 0.072374299 0.002818594 0.011454578 0.026470188 0.031994607 0.049897343 -0.089394614 0.033376835 -0.039013989 0.054635305 0.015302047 0.035084292 -0.042550344 -0.078760043 -0.005519954 0.059907179 0.026968520 -0.016395740 -0.049672585 0.034608528 -0.052587327 0.048237585 -0.056971546 0.069283582 -0.024161329 0.001261327 -0.017579690 -0.041046124 0.004716410 0.029724767 -0.012426606 -0.042459130 0.052987579 -0.043076415 0.045720126 -0.026853766 0.011358143 -0.056363668 -0.042322833 0.046345413 -0.036926188 -0.051142424 0.086841725 0.055150479 0.060234144 -0.041147966 -0.038296096 0.043822020 0.070673212 0.012784016 0.009202866 -0.024726240 0.018396087 -0.015212289 -0.064864829 -0.067259155 0.100488685 -0.057583075 -0.002636275 0.000507425 -0.075618818 0.029046753 -0.008521004 0.074122488 0.023522545 -0.004526101 -0.030438600 -0.022673531 -0.057749223 -0.008543395 -0.034868538 -0.024626682 -0.027819352 -0.004209416 -0.074678920 -0.050512303 -0.022046650 0.016438952 0.019003924 -0.036913652 -0.021898838 0.026583124
arn -0.071646191 -0.089815907 0.043080494 0.071527578 0.086947307 0.005007309 -0.014777387 0.003179954 0.051230196 -0.071782753 -0.117519408 0.089758538 0.030711137 -0.078253008 0.060737271 0.148202568 0.029509878 -0.003084292 0.170639232 0.122208104 0.099017426 -0.020634873 -0.075143486 0.062020805 -0.120117895 0.004981640 0.018736472 0.064400144 -0.005365369 0.127337351 -0.048902545 -0.111027375 -0.092978559 0.097984530 0.113732718 -0.000379358 -0.014698407 0.127944127 -0.136230588 0.046233885 -0.069837295 0.046924703 0.029418379 -0.074804142 0.020997327 -0.054791268 0.035541460 0.008761459 0.009017628 -0.042578317 0.035299897 -0.050298460 0.048312582 -0.119458996 0.078117572 -0.022744661 -0.074995562 0.169654369 -0.048343372 -0.192384332 0.116204135 0.150705382 0.000022990 -0.125474557 0.013368998 0.044795331 0.054385442 0.073589355 -0.167522058 -0.022612892 -0.048822436 -0.047338590 -0.109907269 -0.106602676 0.207743794 -0.066699900 0.013943625 0.029295862 -0.057266347 -0.006050304 0.067448027 0.087821059 0.060847219 0.033164881 0.002802057 0.064563997 -0.080225103 0.031782087 -0.040790655 0.011210633 -0.022221055 0.052543242 -0.035676584 0.049370084 -0.001501622 -0.058772352 0.053055640 -0.052603029 0.079611562 0.137316242 -0.071646191 -0.089815907 0.043080494 0.071527578 0.086947307 0.005007309 -0.014777387 0.003179954 0.051230196 -0.071782753 -0.117519408 0.089758538 0.030711137 -0.078253008 0.060737271 0.148202568 0.029509878 -0.003084292 0.170639232 0.122208104 0.099017426 -0.020634873 -0.075143486 0.062020805 -0.120117895 0.004981640 0.018736472 0.064400144 -0.005365369 0.127337351 -0.048902545 -0.111027375 -0.092978559 0.097984530 0.113732718 -0.000379358 -0.014698407 0.127944127 -0.136230588 0.046233885 -0.069837295 0.046924703 0.029418379 -0.074804142 0.020997327 -0.054791268 0.035541460 0.008761459 0.009017628 -0.042578317 0.035299897 -0.050298460 0.048312582 -0.119458996 0.078117572 -0.022744661 -0.074995562 0.169654369 -0.048343372 -0.192384332 0.116204135 0.150705382 0.000022990 -0.125474557 0.013368998 0.044795331 0.054385442 0.073589355 -0.167522058 -0.022612892 -0.048822436 -0.047338590 -0.109907269 -0.106602676 0.207743794 -0.066699900 0.013943625 0.029295862 -0.057266347 -0.006050304 0.067448027 0.087821059 0.060847219 0.033164881 0.002802057 0.064563997 -0.080225103 0.031782087 -0.040790655 0.011210633 -0.022221055 0.052543242 -0.035676584 0.049370084 -0.001501622 -0.058772352 0.053055640 -0.052603029 0.079611562 0.137316242
ary -0.036968816 -0.086432748 0.050129376 0.081325270 0.056212638 -0.004229296 0.015390526 -0.014021521 0.048093449 -0.050781429 -0.086286008 0.080363654 0.029000578 -0.057944920 0.025768746 0.107891075 0.044572793 -0.009276696 0.127588987 0.118033879 0.090732522 -0.041850455 -0.036910679 0.078410208 -0.146253362 -0.021381794 0.005861694 0.036797892 -0.069547474 0.113859572 -0.024836833 -0.102024317 -0.088515572 0.104010299 0.079458766 0.001798242 -0.007810312 0.112255812 -0.114550583 0.049204260 -0.077090323 0.022643419 0.009742289 -0.075987317 0.030554071 -0.057934664 0.035114050 -0.031690959 -0.010045771 -0.035766508 0.046949755 -0.039471958 0.023247469 -0.107012674 0.082289279 -0.034085941 -0.048775919 0.168216377 -0.050183091 -0.151226833 0.082044825 0.116454117 -0.002797083 -0.100907370 0.043895040 0.040031746 0.060164556 0.053645186 -0.144398376 -0.013154792 -0.069425896 -0.033968654 -0.106252566 -0.093763664 0.191208854 -0.060629886 -0.010905835 0.006219716 -0.075464018 0.027882110 0.070037454 0.064304352 0.051147960 0.041923691 -0.000957012 0.072782286 -0.082334824 0.036761496 -0.041007861 0.001536743 -0.042803880 0.033240348 -0.059790976 0.036453482 -0.028759751 -0.026944023 0.045539893 -0.086289532 0.100642152 0.135646611 -0.036968816 -0.086432748 0.050129376 0.081325270 0.056212638 -0.004229296 0.015390526 -0.014021521 0.048093449 -0.050781429 -0.086286008 0.080363654 0.029000578 -0.057944920 0.025768746 0.107891075 0.044572793 -0.009276696 0.127588987 0.118033879 0.090732522 -0.041850455 -0.036910679 0.078410208 -0.146253362 -0.021381794 0.005861694 0.036797892 -0.069547474 0.113859572 -0.024836833 -0.102024317 -0.088515572 0.104010299 0.079458766 0.001798242 -0.007810312 0.112255812 -0.114550583 0.049204260 -0.077090323 0.022643419 0.009742289 -0.075987317 0.030554071 -0.057934664 0.035114050 -0.031690959 -0.010045771 -0.035766508 0.046949755 -0.039471958 0.023247469 -0.107012674 0.082289279 -0.034085941 -0.048775919 0.168216377 -0.050183091 -0.151226833 0.082044825 0.116454117 -0.002797083 -0.100907370 0.043895040 0.040031746 0.060164556 0.053645186 -0.144398376 -0.013154792 -0.069425896 -0.033968654 -0.106252566 -0.093763664 0.191208854 -0.060629886 -0.010905835 0.006219716 -0.075464018 0.027882110 0.070037454 0.064304352 0.051147960 0.041923691 -0.000957012 0.072782286 -0.082334824 0.036761496 -0.041007861 0.001536743 -0.042803880 0.033240348 -0.059790976 0.036453482 -0.028759751 -0.026944023 0.045539893 -0.086289532 0.100642152 0.135646611
arz -0.068372890 0.012261055 0.031540737 0.046784248 0.070023343 0.028531848 -0.020844296 0.015885651 0.087618649 -0.076632693 -0.020092966 0.096598618 0.048280664 -0.022160610 0.023874858 0.070193782 0.038629092 -0.020256164 0.066883504 0.083267048 0.011297194 0.013725436 -0.059314501 0.106002972 -0.026973013 -0.030254910 -0.052770376 0.045514051 -0.024135333 0.062082894 -0.031328153 -0.032969244 -0.032334983 0.052624393 0.091014147 -0.043062024 0.022508407 0.137560964 -0.036188129 0.014722117 -0.044928163 0.058350094 -0.001436095 0.003368229 -0.030407634 -0.042894885 -0.049966864 0.034903340 0.072513595 0.038960930 0.020516723 -0.045255672 0.032781236 -0.116225630 0.010708384 -0.044823006 -0.058520164 0.111620620 -0.034593649 -0.111123517 0.066946521 -0.003990084 -0.014495178 -0.049945116 0.032503963 0.018787814 -0.023924509 0.031518869 -0.037639648 -0.010026059 0.058868818 0.003495746 -0.051132929 -0.002683837 0.124108762 -0.020230945 -0.000749071 0.019706398 -0.018221818 -0.007656115 0.096252307 0.035174485 0.049801387 -0.062071543 0.001863923 0.015859572 -0.060227711 -0.015936513 0.041244008 0.055797562 -0.056423303 0.016090998 -0.016291894 0.040772077 -0.021882892 -0.011349071 0.045811377 -0.044026449 0.042314239 0.043210041 -0.068372890 0.012261055 0.031540737 0.046784248 0.070023343 0.028531848 -0.020844296 0.015885651 0.087618649 -0.076632693 -0.020092966 0.096598618 0.048280664 -0.022160610 0.023874858 0.070193782 0.038629092 -0.020256164 0.066883504 0.083267048 0.011297194 0.013725436 -0.059314501 0.106002972 -0.026973013 -0.030254910 -0.052770376 0.045514051 -0.024135333 0.062082894 -0.031328153 -0.032969244 -0.032334983 0.052624393 0.091014147 -0.043062024 0.022508407 0.137560964 -0.036188129 0.014722117 -0.044928163 0.058350094 -0.001436095 0.003368229 -0.030407634 -0.042894885 -0.049966864 0.034903340 0.072513595 0.038960930 0.020516723 -0.045255672 0.032781236 -0.116225630 0.010708384 -0.044823006 -0.058520164 0.111620620 -0.034593649 -0.111123517 0.066946521 -0.003990084 -0.014495178 -0.049945116 0.032503963 0.018787814 -0.023924509 0.031518869 -0.037639648 -0.010026059 0.058868818 0.003495746 -0.051132929 -0.002683837 0.124108762 -0.020230945 -0.000749071 0.019706398 -0.018221818 -0.007656115 0.096252307 0.035174485 0.049801387 -0.062071543 0.001863923 0.015859572 -0.060227711 -0.015936513 0.041244008 0.055797562 -0.056423303 0.016090998 -0.016291894 0.040772077 -0.021882892 -0.011349071 0.045811377 -0.044026449 0.042314239 0.043210041
asm -0.064062648 0.042847395 0.018199423 0.049664237 0.005103925 0.011330911 0.011298575 -0.030138571 0.039427713 -0.054680992 -0.094953544 0.080169164 -0.014301781 -0.002390124 -0.004522473 0.060570311 0.020576792 -0.056249477 0.132936791 0.087933317 0.050245114 -0.044680886 -0.062988743 0.015332661 -0.082213067 -0.026327800 -0.007367521 0.037453599 0.039484050 0.081429817 -0.015809802 -0.086376369 -0.052818120 0.029069673 0.077288330 -0.037948299 -0.002888000 0.076492369 -0.055928256 0.096889034 -0.036720380 0.022698179 0.020684619 -0.066617593 -0.044278480 -0.020062005 0.002928818 -0.016833685 0.041746128 0.019858619 0.004028945 -0.003638030 0.038245250 -0.159275010 0.033222273 -0.040069204 -0.051832289 0.041610368 -0.024417166 -0.114253581 0.096815057 0.093451142 0.004202058 -0.103592567 0.059914067 0.001870446 0.115074307 -0.001154920 -0.045891594 -0.019949928 0.012013534 -0.065105446 -0.037183255 -0.066900164 0.060626876 -0.115107596 -0.033913579 -0.056733597 -0.035619523 0.001865958 0.068091050 0.028969737 -0.041921761 0.021566017 -0.018559314 0.025587834 -0.036259778 -0.036363017 -0.005896066 -0.016227443 0.004507726 -0.000270816 -0.005718049 0.019600762 -0.090987436 0.017728273 -0.014334328 -0.049416121 -0.034111008 0.048093259 -0.064062648 0.042847395 0.018199423 0.049664237 0.005103925 0.011330911 0.011298575 -0.030138571 0.039427713 -0.054680992 -0.094953544 0.080169164 -0.014301781 -0.002390124 -0.004522473 0.060570311 0.020576792 -0.056249477 0.132936791 0.087933317 0.050245114 -0.044680886 -0.062988743 0.015332661 -0.082213067 -0.026327800 -0.007367521 0.037453599 0.039484050 0.081429817 -0.015809802 -0.086376369 -0.052818120 0.029069673 0.077288330 -0.037948299 -0.002888000 0.076492369 -0.055928256 0.096889034 -0.036720380 0.022698179 0.020684619 -0.066617593 -0.044278480 -0.020062005 0.002928818 -0.016833685 0.041746128 0.019858619 0.004028945 -0.003638030 0.038245250 -0.159275010 0.033222273 -0.040069204 -0.051832289 0.041610368 -0.024417166 -0.114253581 0.096815057 0.093451142 0.004202058 -0.103592567 0.059914067 0.001870446 0.115074307 -0.001154920 -0.045891594 -0.019949928 0.012013534 -0.065105446 -0.037183255 -0.066900164 0.060626876 -0.115107596 -0.033913579 -0.056733597 -0.035619523 0.001865958 0.068091050 0.028969737 -0.041921761 0.021566017 -0.018559314 0.025587834 -0.036259778 -0.036363017 -0.005896066 -0.016227443 0.004507726 -0.000270816 -0.005718049 0.019600762 -0.090987436 0.017728273 -0.014334328 -0.049416121 -0.034111008 0.048093259
ast -0.014083154 0.023617741 0.018402463 0.011073724 -0.020393090 -0.001233220 0.028114976 0.025787329 0.037815630 -0.005063416 0.064758085 0.014548614 0.027943507 0.010890022 -0.040123213 0.034577899 -0.000517892 -0.039362807 0.035920061 0.064091884 0.003627941 0.011051818 0.022104254 -0.004361674 -0.000919292 0.068064325 -0.011805647 0.042086180 0.035169467 0.005625757 0.011014956 -0.080432035 -0.005753226 0.030350622 -0.036475427 -0.015304928 -0.014613826 0.006292585 -0.035609134 0.042225275 -0.017348148 0.071666352 0.011831899 0.021415208 0.013263723 -0.004684852 0.006941742 0.013811778 -0.022762073 0.019901246 0.004849150 -0.000461349 -0.013627111 -0.012958421 0.030771758 -0.050009690 -0.005189082 0.010315844 -0.028373977 0.017141391 0.058443677 -0.007135571 0.044088058 -0.033085648 0.002295245 -0.045062933 0.045061503 0.009377854 0.000937920 -0.007200007 0.019292712 -0.034736566 0.012696349 -0.031926062 0.038550314 -0.035789423 0.007570523 0.004854236 -0.003224043 0.024856368 0.012733106 0.028242430 -0.014699907 0.029090954 -0.017593965 -0.039343271 -0.027971374 0.061027091 -0.024495620 -0.001169119 -0.016358387 -0.027557256 -0.028540362 -0.031717706 -0.028563324 0.035804626 0.043127026 0.013889151 0.035584595 -0.008195919 -0.014083154 0.023617741 0.018402463 0.011073724 -0.020393090 -0.001233220 0.028114976 0.025787329 0.037815630 -0.005063416 0.064758085 0.014548614 0.027943507 0.010890022 -0.040123213 0.034577899 -0.000517892 -0.039362807 0.035920061 0.064091884 0.003627941 0.011051818 0.022104254 -0.004361674 -0.000919292 0.068064325 -0.011805647 0.042086180 0.035169467 0.005625757 0.011014956 -0.080432035 -0.005753226 0.030350622 -0.036475427 -0.015304928 -0.014613826 0.006292585 -0.035609134 0.042225275 -0.017348148 0.071666352 0.011831899 0.021415208 0.013263723 -0.004684852 0.006941742 0.013811778 -0.022762073 0.019901246 0.004849150 -0.000461349 -0.013627111 -0.012958421 0.030771758 -0.050009690 -0.005189082 0.010315844 -0.028373977 0.017141391 0.058443677 -0.007135571 0.044088058 -0.033085648 0.002295245 -0.045062933 0.045061503 0.009377854 0.000937920 -0.007200007 0.019292712 -0.034736566 0.012696349 -0.031926062 0.038550314 -0.035789423 0.007570523 0.004854236 -0.003224043 0.024856368 0.012733106 0.028242430 -0.014699907 0.029090954 -0.017593965 -0.039343271 -0.027971374 0.061027091 -0.024495620 -0.001169119 -0.016358387 -0.027557256 -0.028540362 -0.031717706 -0.028563324 0.035804626 0.043127026 0.013889151 0.035584595 -0.008195919
atj -0.061975837 -0.101168156 0.053945914 0.082689323 0.077436335 -0.001367989 -0.004514652 -0.007203588 0.058142453 -0.062464673 -0.128655598 0.101110190 0.020614378 -0.089484811 0.050953284 0.139329687 0.019400608 0.007300247 0.162000045 0.113064438 0.100578733 -0.031266484 -0.065509565 0.073083520 -0.131785795 -0.005383134 0.018401770 0.059274301 -0.015837925 0.139080450 -0.052476477 -0.122600578 -0.083530419 0.099535078 0.104500771 -0.010799977 -0.025268182 0.139693543 -0.148066327 0.057132155 -0.080981433 0.057830170 0.019308155 -0.076528646 0.019333972 -0.062834568 0.034043718 -0.001563943 0.019528227 -0.033126071 0.046084270 -0.048451494 0.053706035 -0.131120026 0.080472134 -0.033398252 -0.086193435 0.161004946 -0.038430285 -0.183971658 0.106997930 0.141858563 0.000553104 -0.116364919 0.003091591 0.053097684 0.055481832 0.063939244 -0.158850417 -0.012431775 -0.038914338 -0.037415031 -0.100635469 -0.097296454 0.199491128 -0.056978028 0.003672203 0.040017694 -0.068279542 0.004303339 0.061225396 0.083575584 0.051064376 0.043927014 0.003636466 0.054819871 -0.070644118 0.021696484 -0.051632226 0.021744078 -0.012035855 0.063507237 -0.039899677 0.039467689 -0.011429300 -0.056287061 0.043191638 -0.063567646 0.080970727 0.149163291 -0.061975837 -0.101168156 0.053945914 0.082689323 0.077436335 -0.001367989 -0.004514652 -0.007203588 0.058142453 -0.062464673 -0.128655598 0.101110190 0.020614378 -0.089484811 0.050953284 0.139329687 0.019400608 0.007300247 0.162000045 0.113064438 0.100578733 -0.031266484 -0.065509565 0.073083520 -0.131785795 -0.005383134 0.018401770 0.059274301 -0.015837925 0.139080450 -0.052476477 -0.122600578 -0.083530419 0.099535078 0.104500771 -0.010799977 -0.025268182 0.139693543 -0.148066327 0.057132155 -0.080981433 0.057830170 0.019308155 -0.076528646 0.019333972 -0.062834568 0.034043718 -0.001563943 0.019528227 -0.033126071 0.046084270 -0.048451494 0.053706035 -0.131120026 0.080472134 -0.033398252 -0.086193435 0.161004946 -0.038430285 -0.183971658 0.106997930 0.141858563 0.000553104 -0.116364919 0.003091591 0.053097684 0.055481832 0.063939244 -0.158850417 -0.012431775 -0.038914338 -0.037415031 -0.100635469 -0.097296454 0.199491128 -0.056978028 0.003672203 0.040017694 -0.068279542 0.004303339 0.061225396 0.083575584 0.051064376 0.043927014 0.003636466 0.054819871 -0.070644118 0.021696484 -0.051632226 0.021744078 -0.012035855 0.063507237 -0.039899677 0.039467689 -0.011429300 -0.056287061 0.043191638 -0.063567646 0.080970727 0.149163291
ava -0.066884466 -0.066943102 0.038947649 0.060633782 0.099477753 -0.020834100 0.025674056 0.002904489 0.089496359 -0.058801822 -0.160043880 0.062911853 0.045440201 -0.105485454 0.031215165 0.135931700 0.005729910 -0.015778836 0.169378057 0.089349069 0.078176647 -0.008359242 -0.053138569 0.060434934 -0.124124981 -0.000550776 0.025249535 0.025440348 -0.036085818 0.084924862 -0.027491055 -0.132894114 -0.063406378 0.097223364 0.070173331 -0.009097939 -0.033847641 0.076428391 -0.132544070 0.106082171 -0.083312280 0.059628226 0.055803385 -0.052648425 0.044832803 -0.026960438 -0.006819330 -0.013279399 0.030405527 -0.053264704 0.042564016 -0.018630316 0.062475584 -0.148329109 0.077419698 -0.001155286 -0.072628155 0.161182642 -0.089498967 -0.242448062 0.057743084 0.116992868 0.007105266 -0.059375893 0.023870312 0.033650041 0.014166426 0.100564562 -0.106817111 -0.043946616 -0.031004434 -0.014671003 -0.112880558 -0.116776481 0.147239581 -0.044288240 -0.010589410 0.031503923 -0.085093841 0.013128257 0.069233693 0.096984036 0.044245116 0.031297877 -0.028801693 0.011990227 -0.017530505 0.006920377 -0.072121896 0.020690350 -0.022703042 0.053603280 -0.037422605 0.060129400 0.009696492 -0.032300230 0.004782199 -0.101145752 0.050375719 0.173649907 -0.066884466 -0.066943102 0.038947649 0.060633782 0.099477753 -0.020834100 0.025674056 0.002904489 0.089496359 -0.058801822 -0.160043880 0.062911853 0.045440201 -0.105485454 0.031215165 0.135931700 0.005729910 -0.015778836 0.169378057 0.089349069 0.078176647 -0.008359242 -0.053138569 0.060434934 -0.124124981 -0.000550776 0.025249535 0.025440348 -0.036085818 0.084924862 -0.027491055 -0.132894114 -0.063406378 0.097223364 0.070173331 -0.009097939 -0.033847641 0.076428391 -0.132544070 0.106082171 -0.083312280 0.059628226 0.055803385 -0.052648425 0.044832803 -0.026960438 -0.006819330 -0.013279399 0.030405527 -0.053264704 0.042564016 -0.018630316 0.062475584 -0.148329109 0.077419698 -0.001155286 -0.072628155 0.161182642 -0.089498967 -0.242448062 0.057743084 0.116992868 0.007105266 -0.059375893 0.023870312 0.033650041 0.014166426 0.100564562 -0.106817111 -0.043946616 -0.031004434 -0.014671003 -0.112880558 -0.116776481 0.147239581 -0.044288240 -0.010589410 0.031503923 -0.085093841 0.013128257 0.069233693 0.096984036 0.044245116 0.031297877 -0.028801693 0.011990227 -0.017530505 0.006920377 -0.072121896 0.020690350 -0.022703042 0.053603280 -0.037422605 0.060129400 0.009696492 -0.032300230 0.004782199 -0.101145752 0.050375719 0.173649907
ave -0.061975837 -0.101168156 0.053945914 0.082689323 0.077436335 -0.001367989 -0.004514652 -0.007203588 0.058142453 -0.062464673 -0.128655598 0.101110190 0.020614378 -0.089484811 0.050953284 0.139329687 0.019400608 0.007300247 0.162000045 0.113064438 0.100578733 -0.031266484 -0.065509565 0.073083520 -0.131785795 -0.005383134 0.018401770 0.059274301 -0.015837925 0.139080450 -0.052476477 -0.122600578 -0.083530419 0.099535078 0.104500771 -0.010799977 -0.025268182 0.139693543 -0.148066327 0.057132155 -0.080981433 0.057830170 0.019308155 -0.076528646 0.019333972 -0.062834568 0.034043718 -0.001563943 0.019528227 -0.033126071 0.046084270 -0.048451494 0.053706035 -0.131120026 0.080472134 -0.033398252 -0.086193435 0.161004946 -0.038430285 -0.183971658 0.106997930 0.141858563 0.000553104 -0.116364919 0.003091591 0.053097684 0.055481832 0.063939244 -0.158850417 -0.012431775 -0.038914338 -0.037415031 -0.100635469 -0.097296454 0.199491128 -0.056978028 0.003672203 0.040017694 -0.068279542 0.004303339 0.061225396 0.083575584 0.051064376 0.043927014 0.003636466 0.054819871 -0.070644118 0.021696484 -0.051632226 0.021744078 -0.012035855 0.063507237 -0.039899677 0.039467689 -0.011429300 -0.056287061 0.043191638 -0.063567646 0.080970727 0.149163291 -0.061975837 -0.101168156 0.053945914 0.082689323 0.077436335 -0.001367989 -0.004514652 -0.007203588 0.058142453 -0.062464673 -0.128655598 0.101110190 0.020614378 -0.089484811 0.050953284 0.139329687 0.019400608 0.007300247 0.162000045 0.113064438 0.100578733 -0.031266484 -0.065509565 0.073083520 -0.131785795 -0.005383134 0.018401770 0.059274301 -0.015837925 0.139080450 -0.052476477 -0.122600578 -0.083530419 0.099535078 0.104500771 -0.010799977 -0.025268182 0.139693543 -0.148066327 0.057132155 -0.080981433 0.057830170 0.019308155 -0.076528646 0.019333972 -0.062834568 0.034043718 -0.001563943 0.019528227 -0.033126071 0.046084270 -0.048451494 0.053706035 -0.131120026 0.080472134 -0.033398252 -0.086193435 0.161004946 -0.038430285 -0.183971658 0.106997930 0.141858563 0.000553104 -0.116364919 0.003091591 0.053097684 0.055481832 0.063939244 -0.158850417 -0.012431775 -0.038914338 -0.037415031 -0.100635469 -0.097296454 0.199491128 -0.056978028 0.003672203 0.040017694 -0.068279542 0.004303339 0.061225396 0.083575584 0.051064376 0.043927014 0.003636466 0.054819871 -0.070644118 0.021696484 -0.051632226 0.021744078 -0.012035855 0.063507237 -0.039899677 0.039467689 -0.011429300 -0.056287061 0.043191638 -0.063567646 0.080970727 0.149163291
axm -0.071646191 -0.106208764 0.063699052 0.092146136 0.066328749 -0.011663164 -0.014777387 -0.017438604 0.059974466 -0.072129987 -0.117019981 0.110377096 0.010092581 -0.098871566 0.047991302 0.146456674 0.008891324 -0.003084292 0.150020674 0.122208104 0.109851122 -0.041253429 -0.069896527 0.082639359 -0.140736446 -0.015636915 0.007902782 0.068972506 -0.025983926 0.127337351 -0.062244758 -0.118905231 -0.092978559 0.105290882 0.093114167 -0.012602356 -0.035316963 0.127944127 -0.136230588 0.046233885 -0.090455852 0.046924703 0.008799823 -0.076384507 0.029443931 -0.051877510 0.044002030 -0.011857098 0.009017628 -0.022475287 0.051229771 -0.037642714 0.062544972 -0.119458996 0.089951798 -0.022744661 -0.090688825 0.149826244 -0.031702977 -0.192384332 0.095585577 0.142997012 -0.009761876 -0.109674700 0.013368998 0.062859565 0.065219134 0.073589355 -0.146903500 -0.022612892 -0.048822436 -0.047338590 -0.109907269 -0.106602676 0.207743794 -0.066699900 -0.006674932 0.047175687 -0.058169447 -0.006050304 0.069330208 0.093023263 0.060847219 0.053783435 -0.006710302 0.043945439 -0.059606548 0.031782087 -0.061409213 0.011210633 -0.022221055 0.073161796 -0.049797617 0.028751526 -0.014055620 -0.063626468 0.053055640 -0.073221587 0.090445250 0.137316242 -0.071646191 -0.106208764 0.063699052 0.092146136 0.066328749 -0.011663164 -0.014777387 -0.017438604 0.059974466 -0.072129987 -0.117019981 0.110377096 0.010092581 -0.098871566 0.047991302 0.146456674 0.008891324 -0.003084292 0.150020674 0.122208104 0.109851122 -0.041253429 -0.069896527 0.082639359 -0.140736446 -0.015636915 0.007902782 0.068972506 -0.025983926 0.127337351 -0.062244758 -0.118905231 -0.092978559 0.105290882 0.093114167 -0.012602356 -0.035316963 0.127944127 -0.136230588 0.046233885 -0.090455852 0.046924703 0.008799823 -0.076384507 0.029443931 -0.051877510 0.044002030 -0.011857098 0.009017628 -0.022475287 0.051229771 -0.037642714 0.062544972 -0.119458996 0.089951798 -0.022744661 -0.090688825 0.149826244 -0.031702977 -0.192384332 0.095585577 0.142997012 -0.009761876 -0.109674700 0.013368998 0.062859565 0.065219134 0.073589355 -0.146903500 -0.022612892 -0.048822436 -0.047338590 -0.109907269 -0.106602676 0.207743794 -0.066699900 -0.006674932 0.047175687 -0.058169447 -0.006050304 0.069330208 0.093023263 0.060847219 0.053783435 -0.006710302 0.043945439 -0.059606548 0.031782087 -0.061409213 0.011210633 -0.022221055 0.073161796 -0.049797617 0.028751526 -0.014055620 -0.063626468 0.053055640 -0.073221587 0.090445250 0.137316242
aym -0.101575449 -0.113737181 0.076272771 0.050529558 0.064591266 0.018564520 -0.032053456 0.004950277 0.071029663 -0.062618762 -0.118250594 0.110257462 -0.021791378 -0.134676278 0.020024771 0.123854280 0.065754943 -0.047243007 0.105800815 0.075982064 0.086611792 -0.006263082 -0.055853277 0.116548292 -0.116057791 0.008353406 -0.014476795 0.091718212 -0.008393902 0.084226258 -0.074802421 -0.109872028 -0.072773032 0.048789248 0.131020442 -0.017453287 -0.051387299 0.085820325 -0.099723451 0.063850731 -0.100813605 0.046929117 -0.011368367 -0.059422348 0.057553664 -0.011853735 0.033462863 -0.000206674 0.018461041 -0.039808758 0.007517518 -0.082176186 0.061190754 -0.112184383 0.031769972 -0.005317674 -0.084202878 0.180892617 -0.039723184 -0.148690656 0.088903479 0.124940820 -0.003910690 -0.065107778 -0.003825121 0.062231466 0.055110883 0.068631090 -0.138468012 0.011982950 -0.002535046 -0.041317053 -0.059550777 -0.112838082 0.188581929 -0.027576735 0.005304784 0.059016220 -0.024227327 -0.006029059 0.027739093 0.060633149 0.056653228 0.074282728 -0.063355640 0.035990622 -0.080856614 0.002803197 -0.085127160 0.010033463 -0.035528556 0.045644339 -0.046546448 -0.028257251 -0.024693005 -0.044889446 0.034770306 -0.064740777 0.031339038 0.119315967 -0.101575449 -0.113737181 0.076272771 0.050529558 0.064591266 0.018564520 -0.032053456 0.004950277 0.071029663 -0.062618762 -0.118250594 0.110257462 -0.021791378 -0.134676278 0.020024771 0.123854280 0.065754943 -0.047243007 0.105800815 0.075982064 0.086611792 -0.006263082 -0.055853277 0.116548292 -0.116057791 0.008353406 -0.014476795 0.091718212 -0.008393902 0.084226258 -0.074802421 -0.109872028 -0.072773032 0.048789248 0.131020442 -0.017453287 -0.051387299 0.085820325 -0.099723451 0.063850731 -0.100813605 0.046929117 -0.011368367 -0.059422348 0.057553664 -0.011853735 0.033462863 -0.000206674 0.018461041 -0.039808758 0.007517518 -0.082176186 0.061190754 -0.112184383 0.031769972 -0.005317674 -0.084202878 0.180892617 -0.039723184 -0.148690656 0.088903479 0.124940820 -0.003910690 -0.065107778 -0.003825121 0.062231466 0.055110883 0.068631090 -0.138468012 0.011982950 -0.002535046 -0.041317053 -0.059550777 -0.112838082 0.188581929 -0.027576735 0.005304784 0.059016220 -0.024227327 -0.006029059 0.027739093 0.060633149 0.056653228 0.074282728 -0.063355640 0.035990622 -0.080856614 0.002803197 -0.085127160 0.010033463 -0.035528556 0.045644339 -0.046546448 -0.028257251 -0.024693005 -0.044889446 0.034770306 -0.064740777 0.031339038 0.119315967
