519 200
aar -0.006532481 -0.053940173 0.013765340 -0.016322959 -0.024544708 0.018442042 -0.015488709 0.028287642 -0.001808620 0.039696846 -0.005423208 -0.020692518 -0.008032543 0.022811286 -0.045676775 -0.027331743 -0.033482257 -0.013438702 0.063280500 -0.007907111 -0.025599414 -0.029502545 -0.034918971 -0.057303432 0.020840170 0.058454543 -0.012463718 -0.031729318 -0.026207723 0.032710608 0.002433819 0.023857260 -0.011457955 0.021126539 -0.053224728 -0.011284356 -0.044503935 0.059863478 -0.086272188 -0.024135716 0.015792862 0.059379712 -0.023258027 -0.076002143 0.039462313 0.051002238 -0.026124179 0.001212264 -0.046322044 0.003670950 -0.007221171 0.034069974 -0.006638637 0.045695882 0.006669730 0.021467132 0.037510801 -0.028743938 -0.038552511 0.012027071 -0.006756798 0.002366865 0.021449272 -0.022791194 0.003826221 0.002717020 0.040529549 0.011021546 0.013387484 -0.019314498 -0.048090667 -0.037336968 -0.020960215 0.015970651 0.026848219 -0.022831995 -0.008580178 -0.017822405 0.067677803 0.020048320 -0.033952896 0.046157371 0.055119902 -0.010833269 -0.041178778 -0.083206326 0.026052687 -0.025885612 -0.003180192 -0.044931896 -0.018958326 -0.032696843 -0.053112667 0.028636614 0.011299782 0.011581096 0.008081048 0.014842371 -0.023716088 -0.052926473 -0.006532481 -0.053940173 0.013765340 -0.016322959 -0.024544708 0.018442042 -0.015488709 0.028287642 -0.001808620 0.039696846 -0.005423208 -0.020692518 -0.008032543 0.022811286 -0.045676775 -0.027331743 -0.033482257 -0.013438702 0.063280500 -0.007907111 -0.025599414 -0.029502545 -0.034918971 -0.057303432 0.020840170 0.058454543 -0.012463718 -0.031729318 -0.026207723 0.032710608 0.002433819 0.023857260 -0.011457955 0.021126539 -0.053224728 -0.011284356 -0.044503935 0.059863478 -0.086272188 -0.024135716 0.015792862 0.059379712 -0.023258027 -0.076002143 0.039462313 0.051002238 -0.026124179 0.001212264 -0.046322044 0.003670950 -0.007221171 0.034069974 -0.006638637 0.045695882 0.006669730 0.021467132 0.037510801 -0.028743938 -0.038552511 0.012027071 -0.006756798 0.002366865 0.021449272 -0.022791194 0.003826221 0.002717020 0.040529549 0.011021546 0.013387484 -0.019314498 -0.048090667 -0.037336968 -0.020960215 0.015970651 0.026848219 -0.022831995 -0.008580178 -0.017822405 0.067677803 0.020048320 -0.033952896 0.046157371 0.055119902 -0.010833269 -0.041178778 -0.083206326 0.026052687 -0.025885612 -0.003180192 -0.044931896 -0.018958326 -0.032696843 -0.053112667 0.028636614 0.011299782 0.011581096 0.008081048 0.014842371 -0.023716088 -0.052926473
abe -0.007753723 -0.055335164 0.014995228 -0.019109037 -0.025199633 0.013876692 -0.013780498 0.026054785 -0.002872737 0.036376137 -0.003748534 -0.023692504 -0.010549342 0.023636660 -0.041889377 -0.025738070 -0.033501353 -0.013272011 0.063356221 -0.005196834 -0.028124005 -0.026860215 -0.036267485 -0.056510478 0.024658307 0.058049355 -0.010439903 -0.029239643 -0.025256086 0.033930596 0.003117930 0.026952406 -0.012577903 0.018953536 -0.051656839 -0.014000540 -0.044633828 0.063833028 -0.084312588 -0.021092290 0.011559406 0.057465531 -0.019724868 -0.077937506 0.036319412 0.051903345 -0.025115684 0.003525695 -0.046228603 0.001751284 -0.003654891 0.036126018 -0.010676510 0.045920908 0.009757580 0.019666079 0.034390721 -0.027900126 -0.035926826 0.011434558 -0.007902894 0.000798451 0.024151020 -0.020444592 0.003222934 0.000761065 0.042701066 0.012817023 0.010635848 -0.016171830 -0.047252323 -0.038969275 -0.023185877 0.012256356 0.029285174 -0.021093762 -0.005209014 -0.014523340 0.066369534 0.022716483 -0.031379651 0.047775555 0.057068255 -0.008963347 -0.037858009 -0.079942666 0.024234600 -0.025039390 -0.002630063 -0.043665409 -0.020632762 -0.029658506 -0.050139572 0.026104538 0.014088130 0.007448610 0.010116159 0.017797066 -0.021764271 -0.054127924 -0.007753723 -0.055335164 0.014995228 -0.019109037 -0.025199633 0.013876692 -0.013780498 0.026054785 -0.002872737 0.036376137 -0.003748534 -0.023692504 -0.010549342 0.023636660 -0.041889377 -0.025738070 -0.033501353 -0.013272011 0.063356221 -0.005196834 -0.028124005 -0.026860215 -0.036267485 -0.056510478 0.024658307 0.058049355 -0.010439903 -0.029239643 -0.025256086 0.033930596 0.003117930 0.026952406 -0.012577903 0.018953536 -0.051656839 -0.014000540 -0.044633828 0.063833028 -0.084312588 -0.021092290 0.011559406 0.057465531 -0.019724868 -0.077937506 0.036319412 0.051903345 -0.025115684 0.003525695 -0.046228603 0.001751284 -0.003654891 0.036126018 -0.010676510 0.045920908 0.009757580 0.019666079 0.034390721 -0.027900126 -0.035926826 0.011434558 -0.007902894 0.000798451 0.024151020 -0.020444592 0.003222934 0.000761065 0.042701066 0.012817023 0.010635848 -0.016171830 -0.047252323 -0.038969275 -0.023185877 0.012256356 0.029285174 -0.021093762 -0.005209014 -0.014523340 0.066369534 0.022716483 -0.031379651 0.047775555 0.057068255 -0.008963347 -0.037858009 -0.079942666 0.024234600 -0.025039390 -0.002630063 -0.043665409 -0.020632762 -0.029658506 -0.050139572 0.026104538 0.014088130 0.007448610 0.010116159 0.017797066 -0.021764271 -0.054127924
abk 0.004547014 -0.050262321 -0.000100838 -0.015342982 -0.017311288 0.009212914 -0.012491922 0.015261343 -0.001057445 0.022347381 -0.007387019 -0.020875659 -0.011162424 0.020092133 -0.048124481 -0.034540895 -0.017861132 -0.016669387 0.055676565 -0.018027002 -0.023358408 -0.030292679 -0.010605169 -0.045642056 0.017434221 0.053637102 -0.017767757 -0.024880780 -0.013778053 0.033773839 0.014626766 0.042031921 -0.012356651 0.000695440 -0.054338720 0.003821788 -0.031029657 0.050532993 -0.055592079 -0.017124824 0.016878394 0.051945660 -0.017249316 -0.064681955 0.042678434 0.033446934 -0.028039604 0.030476583 -0.061519157 0.000473588 -0.013479074 0.018853571 -0.011352773 0.044251733 0.001847891 0.014544293 0.028232697 -0.021325901 -0.025051290 0.005098776 0.013652579 0.002842477 0.033934183 -0.022079973 -0.000099603 -0.006284322 0.031764209 0.020518094 0.006958944 -0.041831721 -0.017616864 -0.018335860 -0.025910120 0.020750882 0.024165250 -0.010444278 -0.001942128 -0.025949981 0.057713225 0.037747160 -0.017353380 0.031974025 0.055077616 -0.004689862 -0.057482421 -0.076885454 0.024147876 -0.020359188 -0.013591471 -0.046425682 -0.030770034 -0.034054577 -0.044840589 0.022592375 -0.004391183 0.025851075 -0.006062068 0.020857161 -0.034976665 -0.047924455 0.004547014 -0.050262321 -0.000100838 -0.015342982 -0.017311288 0.009212914 -0.012491922 0.015261343 -0.001057445 0.022347381 -0.007387019 -0.020875659 -0.011162424 0.020092133 -0.048124481 -0.034540895 -0.017861132 -0.016669387 0.055676565 -0.018027002 -0.023358408 -0.030292679 -0.010605169 -0.045642056 0.017434221 0.053637102 -0.017767757 -0.024880780 -0.013778053 0.033773839 0.014626766 0.042031921 -0.012356651 0.000695440 -0.054338720 0.003821788 -0.031029657 0.050532993 -0.055592079 -0.017124824 0.016878394 0.051945660 -0.017249316 -0.064681955 0.042678434 0.033446934 -0.028039604 0.030476583 -0.061519157 0.000473588 -0.013479074 0.018853571 -0.011352773 0.044251733 0.001847891 0.014544293 0.028232697 -0.021325901 -0.025051290 0.005098776 0.013652579 0.002842477 0.033934183 -0.022079973 -0.000099603 -0.006284322 0.031764209 0.020518094 0.006958944 -0.041831721 -0.017616864 -0.018335860 -0.025910120 0.020750882 0.024165250 -0.010444278 -0.001942128 -0.025949981 0.057713225 0.037747160 -0.017353380 0.031974025 0.055077616 -0.004689862 -0.057482421 -0.076885454 0.024147876 -0.020359188 -0.013591471 -0.046425682 -0.030770034 -0.034054577 -0.044840589 0.022592375 -0.004391183 0.025851075 -0.006062068 0.020857161 -0.034976665 -0.047924455
abq -0.002283520 -0.048069939 0.016865350 -0.019153243 -0.027522175 0.021764809 -0.013404106 0.028099082 -0.002393579 0.042254601 -0.006299271 -0.017983116 -0.009659100 0.022314180 -0.046011027 -0.024299877 -0.035167005 -0.009464060 0.061668985 -0.011558208 -0.026188200 -0.033481050 -0.032164596 -0.060120057 0.022477157 0.060917847 -0.011526834 -0.030050384 -0.028321952 0.032142308 0.000266478 0.025132965 -0.009301877 0.021274799 -0.052880164 -0.011608572 -0.046898540 0.059693195 -0.088619217 -0.025979983 0.013502520 0.056964722 -0.020911435 -0.075602077 0.040945210 0.050844964 -0.025689589 -0.001867609 -0.047530413 0.003587076 -0.005728604 0.029801203 -0.006754893 0.045476921 0.008521823 0.021589534 0.036356468 -0.029304681 -0.038093470 0.012318918 -0.007508682 0.004182652 0.020305343 -0.024863599 0.006084994 0.005218925 0.041847650 0.012043059 0.017800741 -0.020056173 -0.049659863 -0.036224756 -0.024038523 0.015031539 0.024222968 -0.022370534 -0.009157884 -0.016184751 0.062075190 0.019936742 -0.036511350 0.045530234 0.054640997 -0.010792582 -0.035786510 -0.080320776 0.027605504 -0.024988156 -0.005529554 -0.046612408 -0.017064434 -0.036379665 -0.051097605 0.026674671 0.012729327 0.010297025 0.008760933 0.012325391 -0.025290081 -0.051347598 -0.002283520 -0.048069939 0.016865350 -0.019153243 -0.027522175 0.021764809 -0.013404106 0.028099082 -0.002393579 0.042254601 -0.006299271 -0.017983116 -0.009659100 0.022314180 -0.046011027 -0.024299877 -0.035167005 -0.009464060 0.061668985 -0.011558208 -0.026188200 -0.033481050 -0.032164596 -0.060120057 0.022477157 0.060917847 -0.011526834 -0.030050384 -0.028321952 0.032142308 0.000266478 0.025132965 -0.009301877 0.021274799 -0.052880164 -0.011608572 -0.046898540 0.059693195 -0.088619217 -0.025979983 0.013502520 0.056964722 -0.020911435 -0.075602077 0.040945210 0.050844964 -0.025689589 -0.001867609 -0.047530413 0.003587076 -0.005728604 0.029801203 -0.006754893 0.045476921 0.008521823 0.021589534 0.036356468 -0.029304681 -0.038093470 0.012318918 -0.007508682 0.004182652 0.020305343 -0.024863599 0.006084994 0.005218925 0.041847650 0.012043059 0.017800741 -0.020056173 -0.049659863 -0.036224756 -0.024038523 0.015031539 0.024222968 -0.022370534 -0.009157884 -0.016184751 0.062075190 0.019936742 -0.036511350 0.045530234 0.054640997 -0.010792582 -0.035786510 -0.080320776 0.027605504 -0.024988156 -0.005529554 -0.046612408 -0.017064434 -0.036379665 -0.051097605 0.026674671 0.012729327 0.010297025 0.008760933 0.012325391 -0.025290081 -0.051347598
ace -0.022053026 -0.046290014 0.025874432 -0.029715566 -0.014070366 0.029926395 -0.010671870 0.035760324 -0.017225001 0.035923198 0.000005811 -0.012030869 -0.016213477 0.007062296 -0.060582235 -0.020824334 -0.014415539 -0.004932659 0.050205171 0.013504641 -0.030462852 -0.026812145 -0.032989085 -0.060319845 0.013699148 0.054438099 0.000447685 -0.023223020 -0.031900231 0.025127007 0.008567469 0.029238338 -0.020958092 0.017434275 -0.030829675 -0.022847824 -0.038043965 0.042694174 -0.078174546 -0.019729545 0.003858841 0.060120676 -0.020281712 -0.060512733 0.031693965 0.044190302 -0.015443661 0.003015828 -0.035657294 0.012284194 -0.019159958 0.028093243 -0.005320398 0.020515876 0.000192473 0.031619389 0.037165463 -0.025924407 -0.021349112 0.002361004 -0.007769735 0.006518787 0.018846212 -0.020046955 -0.003960487 0.004042216 0.034590192 0.008850990 0.021818206 0.003764324 -0.040580880 -0.038980927 -0.010702448 0.009896221 0.029277325 -0.015304314 -0.028987853 -0.010304153 0.058814541 0.018818537 -0.027983956 0.043048959 0.060439255 -0.013195177 -0.026074676 -0.076402768 0.023855930 -0.020313689 -0.008225907 -0.039488994 -0.011372448 -0.027502868 -0.030006317 0.033788856 0.023742404 0.015854793 0.000579497 0.011765795 -0.019667141 -0.047061328 -0.022053026 -0.046290014 0.025874432 -0.029715566 -0.014070366 0.029926395 -0.010671870 0.035760324 -0.017225001 0.035923198 0.000005811 -0.012030869 -0.016213477 0.007062296 -0.060582235 -0.020824334 -0.014415539 -0.004932659 0.050205171 0.013504641 -0.030462852 -0.026812145 -0.032989085 -0.060319845 0.013699148 0.054438099 0.000447685 -0.023223020 -0.031900231 0.025127007 0.008567469 0.029238338 -0.020958092 0.017434275 -0.030829675 -0.022847824 -0.038043965 0.042694174 -0.078174546 -0.019729545 0.003858841 0.060120676 -0.020281712 -0.060512733 0.031693965 0.044190302 -0.015443661 0.003015828 -0.035657294 0.012284194 -0.019159958 0.028093243 -0.005320398 0.020515876 0.000192473 0.031619389 0.037165463 -0.025924407 -0.021349112 0.002361004 -0.007769735 0.006518787 0.018846212 -0.020046955 -0.003960487 0.004042216 0.034590192 0.008850990 0.021818206 0.003764324 -0.040580880 -0.038980927 -0.010702448 0.009896221 0.029277325 -0.015304314 -0.028987853 -0.010304153 0.058814541 0.018818537 -0.027983956 0.043048959 0.060439255 -0.013195177 -0.026074676 -0.076402768 0.023855930 -0.020313689 -0.008225907 -0.039488994 -0.011372448 -0.027502868 -0.030006317 0.033788856 0.023742404 0.015854793 0.000579497 0.011765795 -0.019667141 -0.047061328
acw -0.002777725 -0.051783428 0.016780637 -0.008516097 -0.020004166 0.023524763 -0.015984243 0.031755485 -0.002507244 0.033185147 -0.008038950 -0.019210707 -0.007997130 0.031643424 -0.041022040 -0.022528555 -0.024534553 -0.009782113 0.065499723 -0.011540236 -0.021696504 -0.020854011 -0.033377469 -0.054711744 0.011902582 0.062778242 -0.016225925 -0.027113872 -0.021331755 0.027106807 0.005528822 0.019257348 -0.001847804 0.025383929 -0.063431740 -0.011406387 -0.048872784 0.054706559 -0.086887173 -0.020244053 0.009859837 0.063151561 -0.029504938 -0.074724056 0.032068375 0.049768727 -0.023005921 0.003078942 -0.039926626 0.008483115 -0.008806244 0.027179036 -0.004912109 0.044495713 0.002630162 0.020811841 0.042415570 -0.022320665 -0.037480101 0.014619163 -0.011042783 -0.003173425 0.023883846 -0.020792097 0.002131850 0.009667877 0.036129750 0.012790116 0.014712609 -0.009120782 -0.042160664 -0.032003284 -0.020952759 0.017070251 0.022090944 -0.022619560 -0.009288984 -0.018538965 0.065287076 0.019279217 -0.036426850 0.037562147 0.048431944 -0.010395883 -0.042906553 -0.086044833 0.016550433 -0.016371859 -0.002875300 -0.038250975 -0.015813705 -0.033690363 -0.051661983 0.030467965 0.017046729 0.007791766 0.006698358 0.016940858 -0.024511434 -0.047064304 -0.002777725 -0.051783428 0.016780637 -0.008516097 -0.020004166 0.023524763 -0.015984243 0.031755485 -0.002507244 0.033185147 -0.008038950 -0.019210707 -0.007997130 0.031643424 -0.041022040 -0.022528555 -0.024534553 -0.009782113 0.065499723 -0.011540236 -0.021696504 -0.020854011 -0.033377469 -0.054711744 0.011902582 0.062778242 -0.016225925 -0.027113872 -0.021331755 0.027106807 0.005528822 0.019257348 -0.001847804 0.025383929 -0.063431740 -0.011406387 -0.048872784 0.054706559 -0.086887173 -0.020244053 0.009859837 0.063151561 -0.029504938 -0.074724056 0.032068375 0.049768727 -0.023005921 0.003078942 -0.039926626 0.008483115 -0.008806244 0.027179036 -0.004912109 0.044495713 0.002630162 0.020811841 0.042415570 -0.022320665 -0.037480101 0.014619163 -0.011042783 -0.003173425 0.023883846 -0.020792097 0.002131850 0.009667877 0.036129750 0.012790116 0.014712609 -0.009120782 -0.042160664 -0.032003284 -0.020952759 0.017070251 0.022090944 -0.022619560 -0.009288984 -0.018538965 0.065287076 0.019279217 -0.036426850 0.037562147 0.048431944 -0.010395883 -0.042906553 -0.086044833 0.016550433 -0.016371859 -0.002875300 -0.038250975 -0.015813705 -0.033690363 -0.051661983 0.030467965 0.017046729 0.007791766 0.006698358 0.016940858 -0.024511434 -0.047064304
ady -0.001473262 -0.043188620 0.011691926 -0.013265898 -0.023763472 0.022675233 -0.011852948 0.033742800 0.005023786 0.044848043 -0.007359352 -0.015525470 -0.009925726 0.023768058 -0.044122685 -0.022498185 -0.032699052 -0.011969310 0.062257946 -0.008066318 -0.028120305 -0.032682572 -0.026764061 -0.062017098 0.026797166 0.061993334 -0.010977519 -0.029650182 -0.027735697 0.034369513 0.006748046 0.027182328 -0.009030730 0.031252619 -0.045491572 -0.016693072 -0.040367015 0.057291202 -0.093212888 -0.023116320 0.005921086 0.052788556 -0.014611420 -0.072174951 0.038921118 0.045347601 -0.025269749 -0.000336931 -0.051150918 0.000334899 -0.005378014 0.017016131 -0.001991430 0.048237983 0.005709859 0.021200471 0.030749939 -0.033303823 -0.038201164 0.007758098 -0.004308277 0.002951445 0.019445371 -0.022878993 0.000253362 0.001871173 0.046991866 0.014341311 0.019383103 -0.024986720 -0.051984880 -0.037410747 -0.023031184 0.013900802 0.029054698 -0.020773305 -0.010585586 -0.015371141 0.062487908 0.023374554 -0.040699977 0.045134407 0.056438144 -0.013568198 -0.030034859 -0.078922130 0.030809836 -0.035876386 -0.010404141 -0.043599211 -0.024922358 -0.030627333 -0.047713477 0.025159394 0.012342651 0.007267295 0.010171944 0.011518452 -0.023269899 -0.052739602 -0.001473262 -0.043188620 0.011691926 -0.013265898 -0.023763472 0.022675233 -0.011852948 0.033742800 0.005023786 0.044848043 -0.007359352 -0.015525470 -0.009925726 0.023768058 -0.044122685 -0.022498185 -0.032699052 -0.011969310 0.062257946 -0.008066318 -0.028120305 -0.032682572 -0.026764061 -0.062017098 0.026797166 0.061993334 -0.010977519 -0.029650182 -0.027735697 0.034369513 0.006748046 0.027182328 -0.009030730 0.031252619 -0.045491572 -0.016693072 -0.040367015 0.057291202 -0.093212888 -0.023116320 0.005921086 0.052788556 -0.014611420 -0.072174951 0.038921118 0.045347601 -0.025269749 -0.000336931 -0.051150918 0.000334899 -0.005378014 0.017016131 -0.001991430 0.048237983 0.005709859 0.021200471 0.030749939 -0.033303823 -0.038201164 0.007758098 -0.004308277 0.002951445 0.019445371 -0.022878993 0.000253362 0.001871173 0.046991866 0.014341311 0.019383103 -0.024986720 -0.051984880 -0.037410747 -0.023031184 0.013900802 0.029054698 -0.020773305 -0.010585586 -0.015371141 0.062487908 0.023374554 -0.040699977 0.045134407 0.056438144 -0.013568198 -0.030034859 -0.078922130 0.030809836 -0.035876386 -0.010404141 -0.043599211 -0.024922358 -0.030627333 -0.047713477 0.025159394 0.012342651 0.007267295 0.010171944 0.011518452 -0.023269899 -0.052739602
aeb -0.006532481 -0.053940173 0.013765340 -0.016322959 -0.024544708 0.018442042 -0.015488709 0.028287642 -0.001808620 0.039696846 -0.005423208 -0.020692518 -0.008032543 0.022811286 -0.045676775 -0.027331743 -0.033482257 -0.013438702 0.063280500 -0.007907111 -0.025599414 -0.029502545 -0.034918971 -0.057303432 0.020840170 0.058454543 -0.012463718 -0.031729318 -0.026207723 0.032710608 0.002433819 0.023857260 -0.011457955 0.021126539 -0.053224728 -0.011284356 -0.044503935 0.059863478 -0.086272188 -0.024135716 0.015792862 0.059379712 -0.023258027 -0.076002143 0.039462313 0.051002238 -0.026124179 0.001212264 -0.046322044 0.003670950 -0.007221171 0.034069974 -0.006638637 0.045695882 0.006669730 0.021467132 0.037510801 -0.028743938 -0.038552511 0.012027071 -0.006756798 0.002366865 0.021449272 -0.022791194 0.003826221 0.002717020 0.040529549 0.011021546 0.013387484 -0.019314498 -0.048090667 -0.037336968 -0.020960215 0.015970651 0.026848219 -0.022831995 -0.008580178 -0.017822405 0.067677803 0.020048320 -0.033952896 0.046157371 0.055119902 -0.010833269 -0.041178778 -0.083206326 0.026052687 -0.025885612 -0.003180192 -0.044931896 -0.018958326 -0.032696843 -0.053112667 0.028636614 0.011299782 0.011581096 0.008081048 0.014842371 -0.023716088 -0.052926473 -0.006532481 -0.053940173 0.013765340 -0.016322959 -0.024544708 0.018442042 -0.015488709 0.028287642 -0.001808620 0.039696846 -0.005423208 -0.020692518 -0.008032543 0.022811286 -0.045676775 -0.027331743 -0.033482257 -0.013438702 0.063280500 -0.007907111 -0.025599414 -0.029502545 -0.034918971 -0.057303432 0.020840170 0.058454543 -0.012463718 -0.031729318 -0.026207723 0.032710608 0.002433819 0.023857260 -0.011457955 0.021126539 -0.053224728 -0.011284356 -0.044503935 0.059863478 -0.086272188 -0.024135716 0.015792862 0.059379712 -0.023258027 -0.076002143 0.039462313 0.051002238 -0.026124179 0.001212264 -0.046322044 0.003670950 -0.007221171 0.034069974 -0.006638637 0.045695882 0.006669730 0.021467132 0.037510801 -0.028743938 -0.038552511 0.012027071 -0.006756798 0.002366865 0.021449272 -0.022791194 0.003826221 0.002717020 0.040529549 0.011021546 0.013387484 -0.019314498 -0.048090667 -0.037336968 -0.020960215 0.015970651 0.026848219 -0.022831995 -0.008580178 -0.017822405 0.067677803 0.020048320 -0.033952896 0.046157371 0.055119902 -0.010833269 -0.041178778 -0.083206326 0.026052687 -0.025885612 -0.003180192 -0.044931896 -0.018958326 -0.032696843 -0.053112667 0.028636614 0.011299782 0.011581096 0.008081048 0.014842371 -0.023716088 -0.052926473
afb -0.007710512 -0.051927377 0.015327533 -0.015176329 -0.025860799 0.017781716 -0.016306099 0.029157817 -0.001486456 0.038610123 -0.003567816 -0.018865749 -0.006274573 0.019909455 -0.043538090 -0.030174876 -0.030587042 -0.014241504 0.063027442 -0.012391215 -0.028907729 -0.027173173 -0.034932937 -0.059507143 0.017992599 0.055515021 -0.011673256 -0.029675242 -0.027069608 0.032206804 0.002578435 0.022506645 -0.012739027 0.018085254 -0.052470013 -0.008680030 -0.044443082 0.056047771 -0.082127593 -0.025337012 0.016828733 0.055764779 -0.027910868 -0.076908372 0.036169443 0.049897257 -0.025323246 0.003628111 -0.048809867 0.002309787 -0.007463067 0.036736082 -0.005919256 0.049390759 0.004541744 0.023767231 0.036227960 -0.025461329 -0.036267556 0.006980686 -0.005501781 0.003728156 0.024567394 -0.021333493 0.001057925 0.003331531 0.043322112 0.012243477 0.011724035 -0.022010243 -0.047530495 -0.039876543 -0.022192024 0.017435810 0.030400848 -0.023343420 -0.005594354 -0.017104248 0.066386156 0.023657050 -0.030440008 0.045375083 0.054265298 -0.011166794 -0.037871495 -0.078440502 0.024893945 -0.022434954 -0.002830540 -0.040943578 -0.015890652 -0.030912884 -0.053641863 0.027867597 0.010870367 0.009954896 0.008171296 0.019714143 -0.021160893 -0.048438240 -0.007710512 -0.051927377 0.015327533 -0.015176329 -0.025860799 0.017781716 -0.016306099 0.029157817 -0.001486456 0.038610123 -0.003567816 -0.018865749 -0.006274573 0.019909455 -0.043538090 -0.030174876 -0.030587042 -0.014241504 0.063027442 -0.012391215 -0.028907729 -0.027173173 -0.034932937 -0.059507143 0.017992599 0.055515021 -0.011673256 -0.029675242 -0.027069608 0.032206804 0.002578435 0.022506645 -0.012739027 0.018085254 -0.052470013 -0.008680030 -0.044443082 0.056047771 -0.082127593 -0.025337012 0.016828733 0.055764779 -0.027910868 -0.076908372 0.036169443 0.049897257 -0.025323246 0.003628111 -0.048809867 0.002309787 -0.007463067 0.036736082 -0.005919256 0.049390759 0.004541744 0.023767231 0.036227960 -0.025461329 -0.036267556 0.006980686 -0.005501781 0.003728156 0.024567394 -0.021333493 0.001057925 0.003331531 0.043322112 0.012243477 0.011724035 -0.022010243 -0.047530495 -0.039876543 -0.022192024 0.017435810 0.030400848 -0.023343420 -0.005594354 -0.017104248 0.066386156 0.023657050 -0.030440008 0.045375083 0.054265298 -0.011166794 -0.037871495 -0.078440502 0.024893945 -0.022434954 -0.002830540 -0.040943578 -0.015890652 -0.030912884 -0.053641863 0.027867597 0.010870367 0.009954896 0.008171296 0.019714143 -0.021160893 -0.048438240
afr -0.005700745 0.000442704 0.005707857 0.004602880 0.000996688 -0.007483161 0.001787687 -0.006293000 -0.000936651 -0.000788829 -0.009341761 -0.002062003 -0.009455591 -0.009223833 -0.005257336 0.001162258 -0.000543176 0.000509135 0.001910933 0.003729560 0.004756539 0.009329256 0.003378612 -0.004100759 -0.001066317 0.008832573 -0.010934671 -0.012037940 0.006445040 -0.007406300 -0.009012473 -0.004292397 -0.003798660 0.000361865 -0.000245254 0.000413500 0.004148506 0.010105628 0.001360955 0.004524955 -0.002216503 -0.002880666 -0.002741139 -0.007168409 -0.001302858 0.011240053 0.001140334 0.011701719 -0.010268261 0.000159883 -0.006452443 0.007782738 -0.004835512 0.001333941 0.008676127 0.010753889 0.008910232 0.006638820 0.005755960 -0.013761532 0.003190753 -0.003579124 0.007488462 0.005056481 0.003398054 0.008274740 -0.000529635 0.002229215 0.002294346 0.001099110 -0.007393010 -0.002333973 -0.003768689 -0.005213841 0.012024302 -0.008432676 -0.007272755 0.003763532 0.004346253 0.004523432 0.010093343 0.006611720 0.000726131 0.000219024 0.006508736 -0.002091192 0.006126948 0.007080182 -0.011339061 0.000663579 -0.003213356 -0.006530431 0.014487411 0.001000494 -0.000313303 -0.003250188 0.004299312 -0.003225158 0.005207566 -0.004610927 -0.005700745 0.000442704 0.005707857 0.004602880 0.000996688 -0.007483161 0.001787687 -0.006293000 -0.000936651 -0.000788829 -0.009341761 -0.002062003 -0.009455591 -0.009223833 -0.005257336 0.001162258 -0.000543176 0.000509135 0.001910933 0.003729560 0.004756539 0.009329256 0.003378612 -0.004100759 -0.001066317 0.008832573 -0.010934671 -0.012037940 0.006445040 -0.007406300 -0.009012473 -0.004292397 -0.003798660 0.000361865 -0.000245254 0.000413500 0.004148506 0.010105628 0.001360955 0.004524955 -0.002216503 -0.002880666 -0.002741139 -0.007168409 -0.001302858 0.011240053 0.001140334 0.011701719 -0.010268261 0.000159883 -0.006452443 0.007782738 -0.004835512 0.001333941 0.008676127 0.010753889 0.008910232 0.006638820 0.005755960 -0.013761532 0.003190753 -0.003579124 0.007488462 0.005056481 0.003398054 0.008274740 -0.000529635 0.002229215 0.002294346 0.001099110 -0.007393010 -0.002333973 -0.003768689 -0.005213841 0.012024302 -0.008432676 -0.007272755 0.003763532 0.004346253 0.004523432 0.010093343 0.006611720 0.000726131 0.000219024 0.006508736 -0.002091192 0.006126948 0.007080182 -0.011339061 0.000663579 -0.003213356 -0.006530431 0.014487411 0.001000494 -0.000313303 -0.003250188 0.004299312 -0.003225158 0.005207566 -0.004610927
aho -0.006532481 -0.053940173 0.013765340 -0.016322959 -0.024544708 0.018442042 -0.015488709 0.028287642 -0.001808620 0.039696846 -0.005423208 -0.020692518 -0.008032543 0.022811286 -0.045676775 -0.027331743 -0.033482257 -0.013438702 0.063280500 -0.007907111 -0.025599414 -0.029502545 -0.034918971 -0.057303432 0.020840170 0.058454543 -0.012463718 -0.031729318 -0.026207723 0.032710608 0.002433819 0.023857260 -0.011457955 0.021126539 -0.053224728 -0.011284356 -0.044503935 0.059863478 -0.086272188 -0.024135716 0.015792862 0.059379712 -0.023258027 -0.076002143 0.039462313 0.051002238 -0.026124179 0.001212264 -0.046322044 0.003670950 -0.007221171 0.034069974 -0.006638637 0.045695882 0.006669730 0.021467132 0.037510801 -0.028743938 -0.038552511 0.012027071 -0.006756798 0.002366865 0.021449272 -0.022791194 0.003826221 0.002717020 0.040529549 0.011021546 0.013387484 -0.019314498 -0.048090667 -0.037336968 -0.020960215 0.015970651 0.026848219 -0.022831995 -0.008580178 -0.017822405 0.067677803 0.020048320 -0.033952896 0.046157371 0.055119902 -0.010833269 -0.041178778 -0.083206326 0.026052687 -0.025885612 -0.003180192 -0.044931896 -0.018958326 -0.032696843 -0.053112667 0.028636614 0.011299782 0.011581096 0.008081048 0.014842371 -0.023716088 -0.052926473 -0.006532481 -0.053940173 0.013765340 -0.016322959 -0.024544708 0.018442042 -0.015488709 0.028287642 -0.001808620 0.039696846 -0.005423208 -0.020692518 -0.008032543 0.022811286 -0.045676775 -0.027331743 -0.033482257 -0.013438702 0.063280500 -0.007907111 -0.025599414 -0.029502545 -0.034918971 -0.057303432 0.020840170 0.058454543 -0.012463718 -0.031729318 -0.026207723 0.032710608 0.002433819 0.023857260 -0.011457955 0.021126539 -0.053224728 -0.011284356 -0.044503935 0.059863478 -0.086272188 -0.024135716 0.015792862 0.059379712 -0.023258027 -0.076002143 0.039462313 0.051002238 -0.026124179 0.001212264 -0.046322044 0.003670950 -0.007221171 0.034069974 -0.006638637 0.045695882 0.006669730 0.021467132 0.037510801 -0.028743938 -0.038552511 0.012027071 -0.006756798 0.002366865 0.021449272 -0.022791194 0.003826221 0.002717020 0.040529549 0.011021546 0.013387484 -0.019314498 -0.048090667 -0.037336968 -0.020960215 0.015970651 0.026848219 -0.022831995 -0.008580178 -0.017822405 0.067677803 0.020048320 -0.033952896 0.046157371 0.055119902 -0.010833269 -0.041178778 -0.083206326 0.026052687 -0.025885612 -0.003180192 -0.044931896 -0.018958326 -0.032696843 -0.053112667 0.028636614 0.011299782 0.011581096 0.008081048 0.014842371 -0.023716088 -0.052926473
aii -0.011421770 -0.052181382 0.015639480 -0.015528040 -0.019584106 0.019375974 -0.014204135 0.026138969 -0.000530878 0.035383631 -0.004452042 -0.021938633 -0.006116814 0.021788558 -0.042249225 -0.026780969 -0.030365942 -0.015895970 0.065930121 -0.008882965 -0.021967666 -0.026607951 -0.035431553 -0.051759299 0.022729894 0.054940134 -0.013356421 -0.028470868 -0.023911167 0.031673390 0.005075807 0.017424077 -0.010001706 0.018579381 -0.051504355 -0.017494373 -0.041793440 0.062332436 -0.083490320 -0.022853529 0.016903194 0.062881097 -0.020164767 -0.076901570 0.040849522 0.054956522 -0.024247166 -0.002406939 -0.044447135 0.001939355 -0.009653720 0.039889000 -0.005748704 0.045838397 0.005383776 0.016874511 0.039334733 -0.030710103 -0.035294015 0.015687255 -0.009484899 0.000899365 0.015962936 -0.016561855 0.003612523 0.000639156 0.042456303 0.015337511 0.013697118 -0.021469245 -0.050037704 -0.040998131 -0.017802659 0.017837327 0.024938013 -0.024088141 -0.009433378 -0.016164238 0.066758268 0.019160563 -0.033888761 0.043509282 0.054880731 -0.011781353 -0.041867681 -0.085324295 0.027317973 -0.027600775 0.001701297 -0.041416459 -0.015712304 -0.035284583 -0.052776299 0.024335517 0.007983010 0.013784813 0.012313697 0.019424569 -0.025256790 -0.052849613 -0.011421770 -0.052181382 0.015639480 -0.015528040 -0.019584106 0.019375974 -0.014204135 0.026138969 -0.000530878 0.035383631 -0.004452042 -0.021938633 -0.006116814 0.021788558 -0.042249225 -0.026780969 -0.030365942 -0.015895970 0.065930121 -0.008882965 -0.021967666 -0.026607951 -0.035431553 -0.051759299 0.022729894 0.054940134 -0.013356421 -0.028470868 -0.023911167 0.031673390 0.005075807 0.017424077 -0.010001706 0.018579381 -0.051504355 -0.017494373 -0.041793440 0.062332436 -0.083490320 -0.022853529 0.016903194 0.062881097 -0.020164767 -0.076901570 0.040849522 0.054956522 -0.024247166 -0.002406939 -0.044447135 0.001939355 -0.009653720 0.039889000 -0.005748704 0.045838397 0.005383776 0.016874511 0.039334733 -0.030710103 -0.035294015 0.015687255 -0.009484899 0.000899365 0.015962936 -0.016561855 0.003612523 0.000639156 0.042456303 0.015337511 0.013697118 -0.021469245 -0.050037704 -0.040998131 -0.017802659 0.017837327 0.024938013 -0.024088141 -0.009433378 -0.016164238 0.066758268 0.019160563 -0.033888761 0.043509282 0.054880731 -0.011781353 -0.041867681 -0.085324295 0.027317973 -0.027600775 0.001701297 -0.041416459 -0.015712304 -0.035284583 -0.052776299 0.024335517 0.007983010 0.013784813 0.012313697 0.019424569 -0.025256790 -0.052849613
ain -0.007997545 -0.044124626 0.019370653 -0.016032659 -0.027954798 0.021074979 -0.022022834 0.031600729 0.007790582 0.040088594 -0.005972905 -0.014556956 -0.015076239 0.030009558 -0.048728935 -0.012398562 -0.032814424 -0.008212466 0.061768029 -0.009716244 -0.019661125 -0.017359212 -0.027774772 -0.061655678 0.015713599 0.059785906 -0.012019800 -0.026895942 -0.019679276 0.021664536 -0.005975814 0.036595631 -0.012746666 0.019698635 -0.052393459 -0.010795150 -0.053843942 0.051066365 -0.080968522 -0.025193201 0.006927253 0.054700185 -0.017212948 -0.074545145 0.031562008 0.043933250 -0.021202637 0.005303469 -0.040256854 -0.004841112 -0.013539709 0.041798364 -0.006436634 0.048777174 0.009602750 0.025573049 0.030511908 -0.032791387 -0.027914712 0.002919883 -0.009936810 0.007300898 0.021365311 -0.020599011 0.005375436 0.011417124 0.029858941 0.014530659 0.012781383 -0.019096946 -0.050357357 -0.034752194 -0.016451450 0.016863752 0.024256077 -0.026544215 -0.005622084 -0.020826459 0.065522462 0.027302386 -0.015228083 0.036703944 0.059405301 -0.011667045 -0.041147146 -0.087320544 0.014425022 -0.035884414 0.004383918 -0.047491245 -0.021056922 -0.031002710 -0.049672276 0.030130234 0.015187967 0.007222464 0.016048633 0.014040926 -0.026309494 -0.038730428 -0.007997545 -0.044124626 0.019370653 -0.016032659 -0.027954798 0.021074979 -0.022022834 0.031600729 0.007790582 0.040088594 -0.005972905 -0.014556956 -0.015076239 0.030009558 -0.048728935 -0.012398562 -0.032814424 -0.008212466 0.061768029 -0.009716244 -0.019661125 -0.017359212 -0.027774772 -0.061655678 0.015713599 0.059785906 -0.012019800 -0.026895942 -0.019679276 0.021664536 -0.005975814 0.036595631 -0.012746666 0.019698635 -0.052393459 -0.010795150 -0.053843942 0.051066365 -0.080968522 -0.025193201 0.006927253 0.054700185 -0.017212948 -0.074545145 0.031562008 0.043933250 -0.021202637 0.005303469 -0.040256854 -0.004841112 -0.013539709 0.041798364 -0.006436634 0.048777174 0.009602750 0.025573049 0.030511908 -0.032791387 -0.027914712 0.002919883 -0.009936810 0.007300898 0.021365311 -0.020599011 0.005375436 0.011417124 0.029858941 0.014530659 0.012781383 -0.019096946 -0.050357357 -0.034752194 -0.016451450 0.016863752 0.024256077 -0.026544215 -0.005622084 -0.020826459 0.065522462 0.027302386 -0.015228083 0.036703944 0.059405301 -0.011667045 -0.041147146 -0.087320544 0.014425022 -0.035884414 0.004383918 -0.047491245 -0.021056922 -0.031002710 -0.049672276 0.030130234 0.015187967 0.007222464 0.016048633 0.014040926 -0.026309494 -0.038730428
aka -0.007163226 -0.042044718 0.000478323 -0.035058100 -0.013060813 0.025737364 -0.003044886 0.037501797 -0.010803803 0.013396514 -0.005020024 -0.024272192 -0.008058620 0.015052184 -0.054125696 -0.044506468 -0.023224758 -0.018350078 0.040714510 0.004058973 -0.003847606 -0.033580061 -0.045043953 -0.051330607 0.050614513 0.035808492 -0.001391776 -0.010669507 -0.033601191 0.022177724 0.014699429 0.019610900 0.006415981 0.001787829 -0.043193996 -0.014256163 -0.009882217 0.047132105 -0.091731176 -0.030936053 -0.013397937 0.053981900 -0.016213369 -0.046377800 0.035050388 0.025483260 -0.030805632 -0.004489957 -0.023245698 0.011260728 -0.003130386 0.020734483 0.006111680 0.021978853 0.000318274 0.016670445 0.038024325 -0.021390323 -0.040636495 0.013245737 -0.024886677 0.007568897 0.004925608 -0.018160261 0.011397379 0.009480040 0.024822798 0.017874952 0.017816279 -0.019225139 -0.038985986 -0.013453020 -0.022069406 0.015046778 0.017979968 -0.025691137 -0.031439714 -0.015455361 0.058425017 0.020120483 -0.008635313 0.025229137 0.054781884 -0.017047804 -0.038790084 -0.086423174 0.039262317 -0.015781103 -0.012012961 -0.032955594 -0.009709247 -0.010462688 -0.034717653 0.020614402 0.006290642 -0.002513315 0.008116147 0.031753451 -0.024455532 -0.000291300 -0.007163226 -0.042044718 0.000478323 -0.035058100 -0.013060813 0.025737364 -0.003044886 0.037501797 -0.010803803 0.013396514 -0.005020024 -0.024272192 -0.008058620 0.015052184 -0.054125696 -0.044506468 -0.023224758 -0.018350078 0.040714510 0.004058973 -0.003847606 -0.033580061 -0.045043953 -0.051330607 0.050614513 0.035808492 -0.001391776 -0.010669507 -0.033601191 0.022177724 0.014699429 0.019610900 0.006415981 0.001787829 -0.043193996 -0.014256163 -0.009882217 0.047132105 -0.091731176 -0.030936053 -0.013397937 0.053981900 -0.016213369 -0.046377800 0.035050388 0.025483260 -0.030805632 -0.004489957 -0.023245698 0.011260728 -0.003130386 0.020734483 0.006111680 0.021978853 0.000318274 0.016670445 0.038024325 -0.021390323 -0.040636495 0.013245737 -0.024886677 0.007568897 0.004925608 -0.018160261 0.011397379 0.009480040 0.024822798 0.017874952 0.017816279 -0.019225139 -0.038985986 -0.013453020 -0.022069406 0.015046778 0.017979968 -0.025691137 -0.031439714 -0.015455361 0.058425017 0.020120483 -0.008635313 0.025229137 0.054781884 -0.017047804 -0.038790084 -0.086423174 0.039262317 -0.015781103 -0.012012961 -0.032955594 -0.009709247 -0.010462688 -0.034717653 0.020614402 0.006290642 -0.002513315 0.008116147 0.031753451 -0.024455532 -0.000291300
akk -0.000874729 -0.059428964 0.009661191 -0.009791458 -0.022128902 0.023514561 -0.009682312 0.019443536 0.003164903 0.035297941 -0.001863267 -0.012009704 -0.007509828 0.034198675 -0.044143628 -0.027756076 -0.036643934 -0.017747663 0.053636353 -0.008510859 -0.021155491 -0.023049792 -0.026972877 -0.056184426 0.014379569 0.063679762 -0.006713056 -0.029106332 -0.029487509 0.035421345 0.003861495 0.017827459 -0.008629336 0.027428953 -0.048889562 -0.005984466 -0.032830123 0.063985780 -0.086930715 -0.021093132 0.004591052 0.060369842 -0.014178035 -0.072573900 0.043594614 0.042408966 -0.022889895 -0.000346265 -0.051602308 0.007618118 -0.011840868 0.028377078 -0.009579189 0.045164064 0.008584977 0.018385084 0.038190916 -0.025969222 -0.045320697 0.008076400 0.000073448 0.005512607 0.029478332 -0.017972864 -0.000214441 0.011372882 0.042633012 0.010603779 0.012758081 -0.023221835 -0.049044907 -0.035827011 -0.025861166 0.016210629 0.035446327 -0.023122014 -0.008181986 -0.017285913 0.069903396 0.023466904 -0.033179231 0.042169340 0.055563435 -0.010494856 -0.044339851 -0.084294111 0.030000456 -0.030474648 -0.003405757 -0.038995203 -0.015401641 -0.025033465 -0.048621159 0.028362539 0.009111811 0.015000986 0.011281705 0.016409535 -0.022463573 -0.048170269 -0.000874729 -0.059428964 0.009661191 -0.009791458 -0.022128902 0.023514561 -0.009682312 0.019443536 0.003164903 0.035297941 -0.001863267 -0.012009704 -0.007509828 0.034198675 -0.044143628 -0.027756076 -0.036643934 -0.017747663 0.053636353 -0.008510859 -0.021155491 -0.023049792 -0.026972877 -0.056184426 0.014379569 0.063679762 -0.006713056 -0.029106332 -0.029487509 0.035421345 0.003861495 0.017827459 -0.008629336 0.027428953 -0.048889562 -0.005984466 -0.032830123 0.063985780 -0.086930715 -0.021093132 0.004591052 0.060369842 -0.014178035 -0.072573900 0.043594614 0.042408966 -0.022889895 -0.000346265 -0.051602308 0.007618118 -0.011840868 0.028377078 -0.009579189 0.045164064 0.008584977 0.018385084 0.038190916 -0.025969222 -0.045320697 0.008076400 0.000073448 0.005512607 0.029478332 -0.017972864 -0.000214441 0.011372882 0.042633012 0.010603779 0.012758081 -0.023221835 -0.049044907 -0.035827011 -0.025861166 0.016210629 0.035446327 -0.023122014 -0.008181986 -0.017285913 0.069903396 0.023466904 -0.033179231 0.042169340 0.055563435 -0.010494856 -0.044339851 -0.084294111 0.030000456 -0.030474648 -0.003405757 -0.038995203 -0.015401641 -0.025033465 -0.048621159 0.028362539 0.009111811 0.015000986 0.011281705 0.016409535 -0.022463573 -0.048170269
akz -0.006532481 -0.053940173 0.013765340 -0.016322959 -0.024544708 0.018442042 -0.015488709 0.028287642 -0.001808620 0.039696846 -0.005423208 -0.020692518 -0.008032543 0.022811286 -0.045676775 -0.027331743 -0.033482257 -0.013438702 0.063280500 -0.007907111 -0.025599414 -0.029502545 -0.034918971 -0.057303432 0.020840170 0.058454543 -0.012463718 -0.031729318 -0.026207723 0.032710608 0.002433819 0.023857260 -0.011457955 0.021126539 -0.053224728 -0.011284356 -0.044503935 0.059863478 -0.086272188 -0.024135716 0.015792862 0.059379712 -0.023258027 -0.076002143 0.039462313 0.051002238 -0.026124179 0.001212264 -0.046322044 0.003670950 -0.007221171 0.034069974 -0.006638637 0.045695882 0.006669730 0.021467132 0.037510801 -0.028743938 -0.038552511 0.012027071 -0.006756798 0.002366865 0.021449272 -0.022791194 0.003826221 0.002717020 0.040529549 0.011021546 0.013387484 -0.019314498 -0.048090667 -0.037336968 -0.020960215 0.015970651 0.026848219 -0.022831995 -0.008580178 -0.017822405 0.067677803 0.020048320 -0.033952896 0.046157371 0.055119902 -0.010833269 -0.041178778 -0.083206326 0.026052687 -0.025885612 -0.003180192 -0.044931896 -0.018958326 -0.032696843 -0.053112667 0.028636614 0.011299782 0.011581096 0.008081048 0.014842371 -0.023716088 -0.052926473 -0.006532481 -0.053940173 0.013765340 -0.016322959 -0.024544708 0.018442042 -0.015488709 0.028287642 -0.001808620 0.039696846 -0.005423208 -0.020692518 -0.008032543 0.022811286 -0.045676775 -0.027331743 -0.033482257 -0.013438702 0.063280500 -0.007907111 -0.025599414 -0.029502545 -0.034918971 -0.057303432 0.020840170 0.058454543 -0.012463718 -0.031729318 -0.026207723 0.032710608 0.002433819 0.023857260 -0.011457955 0.021126539 -0.053224728 -0.011284356 -0.044503935 0.059863478 -0.086272188 -0.024135716 0.015792862 0.059379712 -0.023258027 -0.076002143 0.039462313 0.051002238 -0.026124179 0.001212264 -0.046322044 0.003670950 -0.007221171 0.034069974 -0.006638637 0.045695882 0.006669730 0.021467132 0.037510801 -0.028743938 -0.038552511 0.012027071 -0.006756798 0.002366865 0.021449272 -0.022791194 0.003826221 0.002717020 0.040529549 0.011021546 0.013387484 -0.019314498 -0.048090667 -0.037336968 -0.020960215 0.015970651 0.026848219 -0.022831995 -0.008580178 -0.017822405 0.067677803 0.020048320 -0.033952896 0.046157371 0.055119902 -0.010833269 -0.041178778 -0.083206326 0.026052687 -0.025885612 -0.003180192 -0.044931896 -0.018958326 -0.032696843 -0.053112667 0.028636614 0.011299782 0.011581096 0.008081048 0.014842371 -0.023716088 -0.052926473
ale -0.006532481 -0.053940173 0.013765340 -0.016322959 -0.024544708 0.018442042 -0.015488709 0.028287642 -0.001808620 0.039696846 -0.005423208 -0.020692518 -0.008032543 0.022811286 -0.045676775 -0.027331743 -0.033482257 -0.013438702 0.063280500 -0.007907111 -0.025599414 -0.029502545 -0.034918971 -0.057303432 0.020840170 0.058454543 -0.012463718 -0.031729318 -0.026207723 0.032710608 0.002433819 0.023857260 -0.011457955 0.021126539 -0.053224728 -0.011284356 -0.044503935 0.059863478 -0.086272188 -0.024135716 0.015792862 0.059379712 -0.023258027 -0.076002143 0.039462313 0.051002238 -0.026124179 0.001212264 -0.046322044 0.003670950 -0.007221171 0.034069974 -0.006638637 0.045695882 0.006669730 0.021467132 0.037510801 -0.028743938 -0.038552511 0.012027071 -0.006756798 0.002366865 0.021449272 -0.022791194 0.003826221 0.002717020 0.040529549 0.011021546 0.013387484 -0.019314498 -0.048090667 -0.037336968 -0.020960215 0.015970651 0.026848219 -0.022831995 -0.008580178 -0.017822405 0.067677803 0.020048320 -0.033952896 0.046157371 0.055119902 -0.010833269 -0.041178778 -0.083206326 0.026052687 -0.025885612 -0.003180192 -0.044931896 -0.018958326 -0.032696843 -0.053112667 0.028636614 0.011299782 0.011581096 0.008081048 0.014842371 -0.023716088 -0.052926473 -0.006532481 -0.053940173 0.013765340 -0.016322959 -0.024544708 0.018442042 -0.015488709 0.028287642 -0.001808620 0.039696846 -0.005423208 -0.020692518 -0.008032543 0.022811286 -0.045676775 -0.027331743 -0.033482257 -0.013438702 0.063280500 -0.007907111 -0.025599414 -0.029502545 -0.034918971 -0.057303432 0.020840170 0.058454543 -0.012463718 -0.031729318 -0.026207723 0.032710608 0.002433819 0.023857260 -0.011457955 0.021126539 -0.053224728 -0.011284356 -0.044503935 0.059863478 -0.086272188 -0.024135716 0.015792862 0.059379712 -0.023258027 -0.076002143 0.039462313 0.051002238 -0.026124179 0.001212264 -0.046322044 0.003670950 -0.007221171 0.034069974 -0.006638637 0.045695882 0.006669730 0.021467132 0.037510801 -0.028743938 -0.038552511 0.012027071 -0.006756798 0.002366865 0.021449272 -0.022791194 0.003826221 0.002717020 0.040529549 0.011021546 0.013387484 -0.019314498 -0.048090667 -0.037336968 -0.020960215 0.015970651 0.026848219 -0.022831995 -0.008580178 -0.017822405 0.067677803 0.020048320 -0.033952896 0.046157371 0.055119902 -0.010833269 -0.041178778 -0.083206326 0.026052687 -0.025885612 -0.003180192 -0.044931896 -0.018958326 -0.032696843 -0.053112667 0.028636614 0.011299782 0.011581096 0.008081048 0.014842371 -0.023716088 -0.052926473
als 0.008235260 -0.046593085 -0.008648822 -0.020523433 -0.024811473 0.002005902 -0.018888056 0.011757175 0.020642603 0.004655471 -0.013592277 -0.004590056 0.000689065 0.004884673 -0.043804571 -0.029253831 -0.032545667 0.026403863 0.040755142 0.005442460 -0.016877657 -0.018583288 -0.018497141 -0.037467081 0.031756554 0.053775933 0.018038591 -0.017754273 -0.009882839 0.033471651 0.009570476 0.033088602 -0.013562906 -0.003325971 -0.011967931 -0.000666269 -0.021920040 0.036507118 -0.052748263 -0.006486269 0.025557119 0.064921238 -0.031332612 -0.056863997 0.029144570 0.035075959 -0.026513593 0.019579465 -0.031818181 0.012808714 -0.007667776 0.032219429 -0.014592667 0.024188727 -0.005244324 0.034025174 0.017372712 -0.020827167 -0.036987666 0.008834586 -0.001785515 -0.009740459 0.017832868 -0.006127893 -0.008861812 0.003884783 0.040985491 0.001716441 0.026010312 -0.025249200 -0.005433640 -0.008535438 -0.011505309 0.002429830 0.030358624 -0.005335494 -0.003407446 -0.004162899 0.052698553 0.029070469 -0.020599347 0.028089719 0.058548152 -0.013932756 -0.036845770 -0.050819166 0.032862693 -0.006258539 -0.018817766 -0.009927931 -0.011003202 -0.014264173 -0.025283715 0.023396086 0.013825574 0.000166763 0.004898382 0.015238789 -0.029769339 -0.034598071 0.008235260 -0.046593085 -0.008648822 -0.020523433 -0.024811473 0.002005902 -0.018888056 0.011757175 0.020642603 0.004655471 -0.013592277 -0.004590056 0.000689065 0.004884673 -0.043804571 -0.029253831 -0.032545667 0.026403863 0.040755142 0.005442460 -0.016877657 -0.018583288 -0.018497141 -0.037467081 0.031756554 0.053775933 0.018038591 -0.017754273 -0.009882839 0.033471651 0.009570476 0.033088602 -0.013562906 -0.003325971 -0.011967931 -0.000666269 -0.021920040 0.036507118 -0.052748263 -0.006486269 0.025557119 0.064921238 -0.031332612 -0.056863997 0.029144570 0.035075959 -0.026513593 0.019579465 -0.031818181 0.012808714 -0.007667776 0.032219429 -0.014592667 0.024188727 -0.005244324 0.034025174 0.017372712 -0.020827167 -0.036987666 0.008834586 -0.001785515 -0.009740459 0.017832868 -0.006127893 -0.008861812 0.003884783 0.040985491 0.001716441 0.026010312 -0.025249200 -0.005433640 -0.008535438 -0.011505309 0.002429830 0.030358624 -0.005335494 -0.003407446 -0.004162899 0.052698553 0.029070469 -0.020599347 0.028089719 0.058548152 -0.013932756 -0.036845770 -0.050819166 0.032862693 -0.006258539 -0.018817766 -0.009927931 -0.011003202 -0.014264173 -0.025283715 0.023396086 0.013825574 0.000166763 0.004898382 0.015238789 -0.029769339 -0.034598071
alt -0.007683488 -0.056735717 0.011787524 -0.014606771 -0.025107184 0.012644937 -0.014007385 0.029865142 -0.000245915 0.041748259 -0.000518087 -0.017751779 -0.010891965 0.029453969 -0.048690096 -0.033568155 -0.034003321 -0.009125368 0.057742681 -0.007387546 -0.026232194 -0.028615730 -0.035906963 -0.057152838 0.022174621 0.059198540 -0.005899702 -0.032671530 -0.026994336 0.030491201 0.007200211 0.026444335 -0.010653045 0.024443831 -0.051642381 -0.010993437 -0.040694758 0.062374055 -0.084373549 -0.022582706 0.011416907 0.055112001 -0.016861506 -0.073036864 0.038959619 0.042558338 -0.028645540 0.004761975 -0.048421621 -0.002573641 -0.007930267 0.032224216 -0.006068294 0.049716033 0.005635295 0.018007062 0.033866476 -0.029639116 -0.043238398 0.007583580 0.001609414 0.004051534 0.021445511 -0.020821597 0.006908890 0.005814609 0.043027073 0.011828138 0.014819761 -0.020748623 -0.042140100 -0.031359270 -0.021262558 0.016075520 0.023863196 -0.022986129 -0.006365826 -0.018373549 0.064645968 0.019004432 -0.033434216 0.047240756 0.058998719 -0.008563266 -0.042173576 -0.087781578 0.022906557 -0.029547365 -0.000902010 -0.036349237 -0.021270640 -0.029682428 -0.051028688 0.022669632 0.009925655 0.008267414 0.009780968 0.014467171 -0.025786759 -0.056098487 -0.007683488 -0.056735717 0.011787524 -0.014606771 -0.025107184 0.012644937 -0.014007385 0.029865142 -0.000245915 0.041748259 -0.000518087 -0.017751779 -0.010891965 0.029453969 -0.048690096 -0.033568155 -0.034003321 -0.009125368 0.057742681 -0.007387546 -0.026232194 -0.028615730 -0.035906963 -0.057152838 0.022174621 0.059198540 -0.005899702 -0.032671530 -0.026994336 0.030491201 0.007200211 0.026444335 -0.010653045 0.024443831 -0.051642381 -0.010993437 -0.040694758 0.062374055 -0.084373549 -0.022582706 0.011416907 0.055112001 -0.016861506 -0.073036864 0.038959619 0.042558338 -0.028645540 0.004761975 -0.048421621 -0.002573641 -0.007930267 0.032224216 -0.006068294 0.049716033 0.005635295 0.018007062 0.033866476 -0.029639116 -0.043238398 0.007583580 0.001609414 0.004051534 0.021445511 -0.020821597 0.006908890 0.005814609 0.043027073 0.011828138 0.014819761 -0.020748623 -0.042140100 -0.031359270 -0.021262558 0.016075520 0.023863196 -0.022986129 -0.006365826 -0.018373549 0.064645968 0.019004432 -0.033434216 0.047240756 0.058998719 -0.008563266 -0.042173576 -0.087781578 0.022906557 -0.029547365 -0.000902010 -0.036349237 -0.021270640 -0.029682428 -0.051028688 0.022669632 0.009925655 0.008267414 0.009780968 0.014467171 -0.025786759 -0.056098487
amh 0.030940901 -0.036522742 0.011059879 0.004305272 -0.022805475 0.014326388 -0.008592675 0.050883397 0.002971996 0.016711431 0.015260308 0.019846747 0.000825597 0.000686318 -0.020837527 0.009904078 -0.022817809 -0.023058599 0.030309308 0.010281845 -0.051614206 -0.022994932 -0.005978147 -0.033817623 0.025344886 0.050028425 0.014558556 -0.021713724 -0.010965610 0.023437493 -0.004977924 0.015221688 -0.011222715 0.014202728 -0.066130549 0.016362555 -0.012991594 0.024349280 -0.036014587 -0.011309864 0.009695765 0.028412705 -0.001784849 -0.009214123 0.015626501 0.014050178 -0.007618897 0.000517611 -0.031492885 0.027739272 -0.014086028 0.006310463 0.013369694 -0.003222110 -0.001851787 0.040920466 0.021326417 -0.014927079 0.002179402 -0.008949203 -0.013135453 -0.005421516 0.002748203 -0.018997718 0.000355290 0.014517085 0.027786428 -0.009828306 0.004118151 -0.023849936 -0.026928078 -0.021113738 -0.005445308 0.004378113 0.004135655 -0.012582489 0.021796126 -0.005842515 0.033075698 0.000572798 -0.024245033 0.005394670 0.036566377 -0.005404392 -0.019103257 -0.010648039 0.036185451 -0.016300805 0.004412112 -0.046361357 -0.025370317 -0.002059408 -0.017096039 0.009367955 -0.000173931 0.001098947 0.009400061 0.009148052 -0.008992104 -0.004189319 0.030940901 -0.036522742 0.011059879 0.004305272 -0.022805475 0.014326388 -0.008592675 0.050883397 0.002971996 0.016711431 0.015260308 0.019846747 0.000825597 0.000686318 -0.020837527 0.009904078 -0.022817809 -0.023058599 0.030309308 0.010281845 -0.051614206 -0.022994932 -0.005978147 -0.033817623 0.025344886 0.050028425 0.014558556 -0.021713724 -0.010965610 0.023437493 -0.004977924 0.015221688 -0.011222715 0.014202728 -0.066130549 0.016362555 -0.012991594 0.024349280 -0.036014587 -0.011309864 0.009695765 0.028412705 -0.001784849 -0.009214123 0.015626501 0.014050178 -0.007618897 0.000517611 -0.031492885 0.027739272 -0.014086028 0.006310463 0.013369694 -0.003222110 -0.001851787 0.040920466 0.021326417 -0.014927079 0.002179402 -0.008949203 -0.013135453 -0.005421516 0.002748203 -0.018997718 0.000355290 0.014517085 0.027786428 -0.009828306 0.004118151 -0.023849936 -0.026928078 -0.021113738 -0.005445308 0.004378113 0.004135655 -0.012582489 0.021796126 -0.005842515 0.033075698 0.000572798 -0.024245033 0.005394670 0.036566377 -0.005404392 -0.019103257 -0.010648039 0.036185451 -0.016300805 0.004412112 -0.046361357 -0.025370317 -0.002059408 -0.017096039 0.009367955 -0.000173931 0.001098947 0.009400061 0.009148052 -0.008992104 -0.004189319
ami -0.005295299 -0.043354236 0.018500188 -0.020023495 -0.020748148 0.018501926 -0.019261338 0.031338453 0.005244533 0.039398253 -0.004670402 -0.025697324 -0.010589345 0.018539306 -0.042709235 -0.022262989 -0.035109885 -0.017915763 0.068535380 -0.007150144 -0.030862693 -0.025554322 -0.035225090 -0.056970485 0.023074077 0.053422991 -0.018906476 -0.033232246 -0.030797405 0.035716500 0.009862477 0.024687875 -0.009357071 0.027618736 -0.056236021 -0.018622097 -0.036532063 0.054648161 -0.090479366 -0.027790811 0.010581642 0.054475840 -0.022501651 -0.070049964 0.030227989 0.049500294 -0.025386460 0.001927789 -0.043823827 -0.004306274 -0.010330077 0.022911733 0.002597491 0.045957915 0.005189731 0.020478174 0.033347938 -0.032637563 -0.038240250 0.015779331 -0.005605355 -0.002936939 0.017736668 -0.019062392 0.000935418 0.006328484 0.040465854 0.008063243 0.017595513 -0.026139745 -0.054392632 -0.040744435 -0.029237824 0.017085284 0.026595647 -0.019998103 -0.010206874 -0.022666123 0.066159643 0.018922430 -0.036553904 0.046670631 0.057830613 -0.015127038 -0.033600166 -0.081199549 0.024905020 -0.030305685 -0.003938492 -0.049295623 -0.026460387 -0.026237672 -0.051613193 0.034834810 0.012572994 0.019509908 0.006833170 0.016315373 -0.018182024 -0.053845640 -0.005295299 -0.043354236 0.018500188 -0.020023495 -0.020748148 0.018501926 -0.019261338 0.031338453 0.005244533 0.039398253 -0.004670402 -0.025697324 -0.010589345 0.018539306 -0.042709235 -0.022262989 -0.035109885 -0.017915763 0.068535380 -0.007150144 -0.030862693 -0.025554322 -0.035225090 -0.056970485 0.023074077 0.053422991 -0.018906476 -0.033232246 -0.030797405 0.035716500 0.009862477 0.024687875 -0.009357071 0.027618736 -0.056236021 -0.018622097 -0.036532063 0.054648161 -0.090479366 -0.027790811 0.010581642 0.054475840 -0.022501651 -0.070049964 0.030227989 0.049500294 -0.025386460 0.001927789 -0.043823827 -0.004306274 -0.010330077 0.022911733 0.002597491 0.045957915 0.005189731 0.020478174 0.033347938 -0.032637563 -0.038240250 0.015779331 -0.005605355 -0.002936939 0.017736668 -0.019062392 0.000935418 0.006328484 0.040465854 0.008063243 0.017595513 -0.026139745 -0.054392632 -0.040744435 -0.029237824 0.017085284 0.026595647 -0.019998103 -0.010206874 -0.022666123 0.066159643 0.018922430 -0.036553904 0.046670631 0.057830613 -0.015127038 -0.033600166 -0.081199549 0.024905020 -0.030305685 -0.003938492 -0.049295623 -0.026460387 -0.026237672 -0.051613193 0.034834810 0.012572994 0.019509908 0.006833170 0.016315373 -0.018182024 -0.053845640
ang 0.004817149 0.002581015 0.018895969 -0.010869063 -0.020496078 -0.004565844 -0.019817121 0.023713615 -0.018639760 0.005838145 0.013800659 -0.024302289 0.042280890 0.037061382 -0.026952002 0.008256326 0.015039368 0.014495122 0.027252518 -0.005716304 0.012789277 -0.009423785 0.012451966 -0.024414362 0.022041850 0.032935590 -0.040280737 0.008702019 -0.024953879 0.006160046 0.024289411 -0.001197109 -0.028996352 -0.016599689 -0.002992881 -0.006079492 -0.016436383 -0.000974935 -0.035932198 -0.023551935 0.004252492 0.014623892 -0.041482184 -0.014632178 0.009435059 0.033886738 0.010419074 0.004636619 0.001788483 0.002569271 -0.018605240 0.000278080 0.002410127 0.053158842 0.027363850 0.007839597 -0.006138938 -0.004119093 -0.009409151 0.015411215 -0.014901514 -0.016381243 0.018380076 0.032583822 -0.004842870 0.029809846 0.003301279 -0.026373202 0.007761931 0.019200105 -0.036579788 0.025809472 0.024243273 0.010754905 0.015043798 0.015773633 -0.012562501 -0.028387485 0.028276136 -0.000196472 -0.035930131 0.026903410 0.011969173 -0.013468033 -0.020298546 -0.014280001 0.019244699 -0.006577745 -0.008803969 -0.057474203 -0.008306369 0.005360334 0.012420035 -0.003425588 0.023692077 0.000103325 0.012215375 0.028438848 -0.015583737 -0.026951922 0.004817149 0.002581015 0.018895969 -0.010869063 -0.020496078 -0.004565844 -0.019817121 0.023713615 -0.018639760 0.005838145 0.013800659 -0.024302289 0.042280890 0.037061382 -0.026952002 0.008256326 0.015039368 0.014495122 0.027252518 -0.005716304 0.012789277 -0.009423785 0.012451966 -0.024414362 0.022041850 0.032935590 -0.040280737 0.008702019 -0.024953879 0.006160046 0.024289411 -0.001197109 -0.028996352 -0.016599689 -0.002992881 -0.006079492 -0.016436383 -0.000974935 -0.035932198 -0.023551935 0.004252492 0.014623892 -0.041482184 -0.014632178 0.009435059 0.033886738 0.010419074 0.004636619 0.001788483 0.002569271 -0.018605240 0.000278080 0.002410127 0.053158842 0.027363850 0.007839597 -0.006138938 -0.004119093 -0.009409151 0.015411215 -0.014901514 -0.016381243 0.018380076 0.032583822 -0.004842870 0.029809846 0.003301279 -0.026373202 0.007761931 0.019200105 -0.036579788 0.025809472 0.024243273 0.010754905 0.015043798 0.015773633 -0.012562501 -0.028387485 0.028276136 -0.000196472 -0.035930131 0.026903410 0.011969173 -0.013468033 -0.020298546 -0.014280001 0.019244699 -0.006577745 -0.008803969 -0.057474203 -0.008306369 0.005360334 0.012420035 -0.003425588 0.023692077 0.000103325 0.012215375 0.028438848 -0.015583737 -0.026951922
ani -0.006532481 -0.053940173 0.013765340 -0.016322959 -0.024544708 0.018442042 -0.015488709 0.028287642 -0.001808620 0.039696846 -0.005423208 -0.020692518 -0.008032543 0.022811286 -0.045676775 -0.027331743 -0.033482257 -0.013438702 0.063280500 -0.007907111 -0.025599414 -0.029502545 -0.034918971 -0.057303432 0.020840170 0.058454543 -0.012463718 -0.031729318 -0.026207723 0.032710608 0.002433819 0.023857260 -0.011457955 0.021126539 -0.053224728 -0.011284356 -0.044503935 0.059863478 -0.086272188 -0.024135716 0.015792862 0.059379712 -0.023258027 -0.076002143 0.039462313 0.051002238 -0.026124179 0.001212264 -0.046322044 0.003670950 -0.007221171 0.034069974 -0.006638637 0.045695882 0.006669730 0.021467132 0.037510801 -0.028743938 -0.038552511 0.012027071 -0.006756798 0.002366865 0.021449272 -0.022791194 0.003826221 0.002717020 0.040529549 0.011021546 0.013387484 -0.019314498 -0.048090667 -0.037336968 -0.020960215 0.015970651 0.026848219 -0.022831995 -0.008580178 -0.017822405 0.067677803 0.020048320 -0.033952896 0.046157371 0.055119902 -0.010833269 -0.041178778 -0.083206326 0.026052687 -0.025885612 -0.003180192 -0.044931896 -0.018958326 -0.032696843 -0.053112667 0.028636614 0.011299782 0.011581096 0.008081048 0.014842371 -0.023716088 -0.052926473 -0.006532481 -0.053940173 0.013765340 -0.016322959 -0.024544708 0.018442042 -0.015488709 0.028287642 -0.001808620 0.039696846 -0.005423208 -0.020692518 -0.008032543 0.022811286 -0.045676775 -0.027331743 -0.033482257 -0.013438702 0.063280500 -0.007907111 -0.025599414 -0.029502545 -0.034918971 -0.057303432 0.020840170 0.058454543 -0.012463718 -0.031729318 -0.026207723 0.032710608 0.002433819 0.023857260 -0.011457955 0.021126539 -0.053224728 -0.011284356 -0.044503935 0.059863478 -0.086272188 -0.024135716 0.015792862 0.059379712 -0.023258027 -0.076002143 0.039462313 0.051002238 -0.026124179 0.001212264 -0.046322044 0.003670950 -0.007221171 0.034069974 -0.006638637 0.045695882 0.006669730 0.021467132 0.037510801 -0.028743938 -0.038552511 0.012027071 -0.006756798 0.002366865 0.021449272 -0.022791194 0.003826221 0.002717020 0.040529549 0.011021546 0.013387484 -0.019314498 -0.048090667 -0.037336968 -0.020960215 0.015970651 0.026848219 -0.022831995 -0.008580178 -0.017822405 0.067677803 0.020048320 -0.033952896 0.046157371 0.055119902 -0.010833269 -0.041178778 -0.083206326 0.026052687 -0.025885612 -0.003180192 -0.044931896 -0.018958326 -0.032696843 -0.053112667 0.028636614 0.011299782 0.011581096 0.008081048 0.014842371 -0.023716088 -0.052926473
aoz -0.006532481 -0.053940173 0.013765340 -0.016322959 -0.024544708 0.018442042 -0.015488709 0.028287642 -0.001808620 0.039696846 -0.005423208 -0.020692518 -0.008032543 0.022811286 -0.045676775 -0.027331743 -0.033482257 -0.013438702 0.063280500 -0.007907111 -0.025599414 -0.029502545 -0.034918971 -0.057303432 0.020840170 0.058454543 -0.012463718 -0.031729318 -0.026207723 0.032710608 0.002433819 0.023857260 -0.011457955 0.021126539 -0.053224728 -0.011284356 -0.044503935 0.059863478 -0.086272188 -0.024135716 0.015792862 0.059379712 -0.023258027 -0.076002143 0.039462313 0.051002238 -0.026124179 0.001212264 -0.046322044 0.003670950 -0.007221171 0.034069974 -0.006638637 0.045695882 0.006669730 0.021467132 0.037510801 -0.028743938 -0.038552511 0.012027071 -0.006756798 0.002366865 0.021449272 -0.022791194 0.003826221 0.002717020 0.040529549 0.011021546 0.013387484 -0.019314498 -0.048090667 -0.037336968 -0.020960215 0.015970651 0.026848219 -0.022831995 -0.008580178 -0.017822405 0.067677803 0.020048320 -0.033952896 0.046157371 0.055119902 -0.010833269 -0.041178778 -0.083206326 0.026052687 -0.025885612 -0.003180192 -0.044931896 -0.018958326 -0.032696843 -0.053112667 0.028636614 0.011299782 0.011581096 0.008081048 0.014842371 -0.023716088 -0.052926473 -0.006532481 -0.053940173 0.013765340 -0.016322959 -0.024544708 0.018442042 -0.015488709 0.028287642 -0.001808620 0.039696846 -0.005423208 -0.020692518 -0.008032543 0.022811286 -0.045676775 -0.027331743 -0.033482257 -0.013438702 0.063280500 -0.007907111 -0.025599414 -0.029502545 -0.034918971 -0.057303432 0.020840170 0.058454543 -0.012463718 -0.031729318 -0.026207723 0.032710608 0.002433819 0.023857260 -0.011457955 0.021126539 -0.053224728 -0.011284356 -0.044503935 0.059863478 -0.086272188 -0.024135716 0.015792862 0.059379712 -0.023258027 -0.076002143 0.039462313 0.051002238 -0.026124179 0.001212264 -0.046322044 0.003670950 -0.007221171 0.034069974 -0.006638637 0.045695882 0.006669730 0.021467132 0.037510801 -0.028743938 -0.038552511 0.012027071 -0.006756798 0.002366865 0.021449272 -0.022791194 0.003826221 0.002717020 0.040529549 0.011021546 0.013387484 -0.019314498 -0.048090667 -0.037336968 -0.020960215 0.015970651 0.026848219 -0.022831995 -0.008580178 -0.017822405 0.067677803 0.020048320 -0.033952896 0.046157371 0.055119902 -0.010833269 -0.041178778 -0.083206326 0.026052687 -0.025885612 -0.003180192 -0.044931896 -0.018958326 -0.032696843 -0.053112667 0.028636614 0.011299782 0.011581096 0.008081048 0.014842371 -0.023716088 -0.052926473
apc -0.006532481 -0.053940173 0.013765340 -0.016322959 -0.024544708 0.018442042 -0.015488709 0.028287642 -0.001808620 0.039696846 -0.005423208 -0.020692518 -0.008032543 0.022811286 -0.045676775 -0.027331743 -0.033482257 -0.013438702 0.063280500 -0.007907111 -0.025599414 -0.029502545 -0.034918971 -0.057303432 0.020840170 0.058454543 -0.012463718 -0.031729318 -0.026207723 0.032710608 0.002433819 0.023857260 -0.011457955 0.021126539 -0.053224728 -0.011284356 -0.044503935 0.059863478 -0.086272188 -0.024135716 0.015792862 0.059379712 -0.023258027 -0.076002143 0.039462313 0.051002238 -0.026124179 0.001212264 -0.046322044 0.003670950 -0.007221171 0.034069974 -0.006638637 0.045695882 0.006669730 0.021467132 0.037510801 -0.028743938 -0.038552511 0.012027071 -0.006756798 0.002366865 0.021449272 -0.022791194 0.003826221 0.002717020 0.040529549 0.011021546 0.013387484 -0.019314498 -0.048090667 -0.037336968 -0.020960215 0.015970651 0.026848219 -0.022831995 -0.008580178 -0.017822405 0.067677803 0.020048320 -0.033952896 0.046157371 0.055119902 -0.010833269 -0.041178778 -0.083206326 0.026052687 -0.025885612 -0.003180192 -0.044931896 -0.018958326 -0.032696843 -0.053112667 0.028636614 0.011299782 0.011581096 0.008081048 0.014842371 -0.023716088 -0.052926473 -0.006532481 -0.053940173 0.013765340 -0.016322959 -0.024544708 0.018442042 -0.015488709 0.028287642 -0.001808620 0.039696846 -0.005423208 -0.020692518 -0.008032543 0.022811286 -0.045676775 -0.027331743 -0.033482257 -0.013438702 0.063280500 -0.007907111 -0.025599414 -0.029502545 -0.034918971 -0.057303432 0.020840170 0.058454543 -0.012463718 -0.031729318 -0.026207723 0.032710608 0.002433819 0.023857260 -0.011457955 0.021126539 -0.053224728 -0.011284356 -0.044503935 0.059863478 -0.086272188 -0.024135716 0.015792862 0.059379712 -0.023258027 -0.076002143 0.039462313 0.051002238 -0.026124179 0.001212264 -0.046322044 0.003670950 -0.007221171 0.034069974 -0.006638637 0.045695882 0.006669730 0.021467132 0.037510801 -0.028743938 -0.038552511 0.012027071 -0.006756798 0.002366865 0.021449272 -0.022791194 0.003826221 0.002717020 0.040529549 0.011021546 0.013387484 -0.019314498 -0.048090667 -0.037336968 -0.020960215 0.015970651 0.026848219 -0.022831995 -0.008580178 -0.017822405 0.067677803 0.020048320 -0.033952896 0.046157371 0.055119902 -0.010833269 -0.041178778 -0.083206326 0.026052687 -0.025885612 -0.003180192 -0.044931896 -0.018958326 -0.032696843 -0.053112667 0.028636614 0.011299782 0.011581096 0.008081048 0.014842371 -0.023716088 -0.052926473
apw 0.004685086 -0.045190893 0.010935124 -0.030161960 -0.022273399 0.013322854 -0.021855354 0.026484802 -0.004076487 0.040486958 -0.008313364 -0.018634588 -0.006346100 0.041042816 -0.056634516 -0.009881263 -0.027778409 -0.014754601 0.061086811 -0.019752117 -0.026302971 -0.024498213 -0.033182941 -0.057264380 0.024350442 0.047598112 -0.018202078 -0.027226143 -0.018799933 0.031745944 -0.009017402 0.019356577 -0.004580480 0.021210579 -0.036978278 -0.010827980 -0.057033692 0.057031419 -0.073259398 -0.030647865 0.019737834 0.048204768 -0.023499524 -0.075229950 0.039703321 0.052955855 -0.027895704 0.004595613 -0.047635488 -0.005426817 -0.005122064 0.029007260 -0.007463842 0.028890252 0.000269431 0.024231067 0.034513991 -0.043629322 -0.043215584 0.019125678 -0.016756559 0.007421426 0.008031133 -0.014557109 -0.003437050 0.001038110 0.026372535 0.015677793 0.001882343 -0.033873819 -0.056871779 -0.016543860 -0.009985368 0.017450655 0.035249233 -0.033844683 0.005789472 -0.027197979 0.059433650 0.018153574 -0.040469959 0.037795562 0.048909131 -0.006531131 -0.035441510 -0.077441931 0.017070837 -0.014583280 -0.013203874 -0.039855387 -0.019258467 -0.022040339 -0.060720950 0.005347314 0.013008087 0.004558794 0.003574917 0.013248893 -0.031862754 -0.049215131 0.004685086 -0.045190893 0.010935124 -0.030161960 -0.022273399 0.013322854 -0.021855354 0.026484802 -0.004076487 0.040486958 -0.008313364 -0.018634588 -0.006346100 0.041042816 -0.056634516 -0.009881263 -0.027778409 -0.014754601 0.061086811 -0.019752117 -0.026302971 -0.024498213 -0.033182941 -0.057264380 0.024350442 0.047598112 -0.018202078 -0.027226143 -0.018799933 0.031745944 -0.009017402 0.019356577 -0.004580480 0.021210579 -0.036978278 -0.010827980 -0.057033692 0.057031419 -0.073259398 -0.030647865 0.019737834 0.048204768 -0.023499524 -0.075229950 0.039703321 0.052955855 -0.027895704 0.004595613 -0.047635488 -0.005426817 -0.005122064 0.029007260 -0.007463842 0.028890252 0.000269431 0.024231067 0.034513991 -0.043629322 -0.043215584 0.019125678 -0.016756559 0.007421426 0.008031133 -0.014557109 -0.003437050 0.001038110 0.026372535 0.015677793 0.001882343 -0.033873819 -0.056871779 -0.016543860 -0.009985368 0.017450655 0.035249233 -0.033844683 0.005789472 -0.027197979 0.059433650 0.018153574 -0.040469959 0.037795562 0.048909131 -0.006531131 -0.035441510 -0.077441931 0.017070837 -0.014583280 -0.013203874 -0.039855387 -0.019258467 -0.022040339 -0.060720950 0.005347314 0.013008087 0.004558794 0.003574917 0.013248893 -0.031862754 -0.049215131
aqc -0.006532481 -0.053940173 0.013765340 -0.016322959 -0.024544708 0.018442042 -0.015488709 0.028287642 -0.001808620 0.039696846 -0.005423208 -0.020692518 -0.008032543 0.022811286 -0.045676775 -0.027331743 -0.033482257 -0.013438702 0.063280500 -0.007907111 -0.025599414 -0.029502545 -0.034918971 -0.057303432 0.020840170 0.058454543 -0.012463718 -0.031729318 -0.026207723 0.032710608 0.002433819 0.023857260 -0.011457955 0.021126539 -0.053224728 -0.011284356 -0.044503935 0.059863478 -0.086272188 -0.024135716 0.015792862 0.059379712 -0.023258027 -0.076002143 0.039462313 0.051002238 -0.026124179 0.001212264 -0.046322044 0.003670950 -0.007221171 0.034069974 -0.006638637 0.045695882 0.006669730 0.021467132 0.037510801 -0.028743938 -0.038552511 0.012027071 -0.006756798 0.002366865 0.021449272 -0.022791194 0.003826221 0.002717020 0.040529549 0.011021546 0.013387484 -0.019314498 -0.048090667 -0.037336968 -0.020960215 0.015970651 0.026848219 -0.022831995 -0.008580178 -0.017822405 0.067677803 0.020048320 -0.033952896 0.046157371 0.055119902 -0.010833269 -0.041178778 -0.083206326 0.026052687 -0.025885612 -0.003180192 -0.044931896 -0.018958326 -0.032696843 -0.053112667 0.028636614 0.011299782 0.011581096 0.008081048 0.014842371 -0.023716088 -0.052926473 -0.006532481 -0.053940173 0.013765340 -0.016322959 -0.024544708 0.018442042 -0.015488709 0.028287642 -0.001808620 0.039696846 -0.005423208 -0.020692518 -0.008032543 0.022811286 -0.045676775 -0.027331743 -0.033482257 -0.013438702 0.063280500 -0.007907111 -0.025599414 -0.029502545 -0.034918971 -0.057303432 0.020840170 0.058454543 -0.012463718 -0.031729318 -0.026207723 0.032710608 0.002433819 0.023857260 -0.011457955 0.021126539 -0.053224728 -0.011284356 -0.044503935 0.059863478 -0.086272188 -0.024135716 0.015792862 0.059379712 -0.023258027 -0.076002143 0.039462313 0.051002238 -0.026124179 0.001212264 -0.046322044 0.003670950 -0.007221171 0.034069974 -0.006638637 0.045695882 0.006669730 0.021467132 0.037510801 -0.028743938 -0.038552511 0.012027071 -0.006756798 0.002366865 0.021449272 -0.022791194 0.003826221 0.002717020 0.040529549 0.011021546 0.013387484 -0.019314498 -0.048090667 -0.037336968 -0.020960215 0.015970651 0.026848219 -0.022831995 -0.008580178 -0.017822405 0.067677803 0.020048320 -0.033952896 0.046157371 0.055119902 -0.010833269 -0.041178778 -0.083206326 0.026052687 -0.025885612 -0.003180192 -0.044931896 -0.018958326 -0.032696843 -0.053112667 0.028636614 0.011299782 0.011581096 0.008081048 0.014842371 -0.023716088 -0.052926473
ara -0.010356381 -0.018391922 -0.001210284 0.002730325 0.004685301 -0.004195370 -0.008252810 0.009602529 0.020757275 0.021537492 0.009175446 -0.010438394 0.012754412 -0.019607039 0.021842588 0.000683457 -0.002715006 0.002550966 -0.014901720 -0.003571347 0.001167953 0.010473222 0.030562360 -0.021162048 -0.012744255 0.003297206 -0.001764872 -0.014819655 0.003497120 0.022222219 -0.020900941 -0.003007648 0.009208223 0.012562660 -0.006942467 0.018266432 -0.001994774 0.015651306 -0.011361660 -0.004652367 -0.009931648 -0.007418102 0.006393449 -0.006307205 0.002072050 0.020842198 0.000287271 0.001710081 0.008577497 0.020256724 0.000810248 -0.010615563 0.008409650 -0.023155177 0.002611829 0.000827074 0.019278353 -0.005333380 0.004031152 -0.009119392 -0.007350483 -0.016130058 -0.007164968 0.012920484 0.002293997 -0.007194526 0.015737936 0.009969498 0.002370080 0.012505551 0.001369125 0.013960473 -0.012560029 -0.009956088 0.011712622 0.001422000 0.005099161 -0.016295698 -0.002916391 -0.008629667 -0.000622303 0.022573782 0.007944527 0.020977469 0.013797749 -0.003262312 -0.006013989 0.003613779 0.005795360 0.002906676 -0.028853770 -0.018119464 0.014577000 0.021608166 0.004722576 -0.005356345 0.003680297 0.000563532 0.013613134 -0.003772220 -0.010356381 -0.018391922 -0.001210284 0.002730325 0.004685301 -0.004195370 -0.008252810 0.009602529 0.020757275 0.021537492 0.009175446 -0.010438394 0.012754412 -0.019607039 0.021842588 0.000683457 -0.002715006 0.002550966 -0.014901720 -0.003571347 0.001167953 0.010473222 0.030562360 -0.021162048 -0.012744255 0.003297206 -0.001764872 -0.014819655 0.003497120 0.022222219 -0.020900941 -0.003007648 0.009208223 0.012562660 -0.006942467 0.018266432 -0.001994774 0.015651306 -0.011361660 -0.004652367 -0.009931648 -0.007418102 0.006393449 -0.006307205 0.002072050 0.020842198 0.000287271 0.001710081 0.008577497 0.020256724 0.000810248 -0.010615563 0.008409650 -0.023155177 0.002611829 0.000827074 0.019278353 -0.005333380 0.004031152 -0.009119392 -0.007350483 -0.016130058 -0.007164968 0.012920484 0.002293997 -0.007194526 0.015737936 0.009969498 0.002370080 0.012505551 0.001369125 0.013960473 -0.012560029 -0.009956088 0.011712622 0.001422000 0.005099161 -0.016295698 -0.002916391 -0.008629667 -0.000622303 0.022573782 0.007944527 0.020977469 0.013797749 -0.003262312 -0.006013989 0.003613779 0.005795360 0.002906676 -0.028853770 -0.018119464 0.014577000 0.021608166 0.004722576 -0.005356345 0.003680297 0.000563532 0.013613134 -0.003772220
arc -0.014180533 -0.033591997 0.018188750 0.007824062 -0.038129129 0.010867854 -0.005625911 0.038114771 0.019603247 0.037592802 -0.021050623 -0.006784777 -0.002957505 0.017463684 -0.054290295 -0.020627841 -0.016583102 -0.020440675 0.054411482 0.005103582 -0.015737018 -0.024941392 -0.032103345 -0.051987778 0.007372398 0.037939586 0.019419890 -0.007513697 -0.014946627 0.023565281 -0.003056929 0.023322262 -0.019845892 0.005964835 -0.039992359 -0.016185218 -0.047990274 0.070534393 -0.058520038 -0.012134570 0.014294025 0.056556143 -0.001210726 -0.031044414 0.035231907 0.027956236 0.006890614 -0.009233455 -0.051434819 0.001133886 -0.005031005 0.013492322 0.000188085 0.023858668 0.018153928 0.033992626 0.009369383 -0.020573853 -0.033339072 0.041702971 -0.016149431 -0.014686306 0.016990388 -0.028611725 -0.003712918 0.004778909 0.026535377 -0.010120839 0.012597172 -0.018699346 -0.022030646 -0.019602329 -0.024450401 0.025938464 0.025010485 -0.019827591 0.002903791 -0.019044299 0.049747314 0.010347335 -0.015766270 0.033729881 0.023693621 -0.014268817 -0.042228129 -0.067111962 0.031151144 -0.042991832 -0.007047614 -0.038949214 -0.030129328 -0.024910597 -0.022213891 0.018154955 0.016217271 0.009370336 0.003382090 0.016480790 -0.028494418 -0.023528198 -0.014180533 -0.033591997 0.018188750 0.007824062 -0.038129129 0.010867854 -0.005625911 0.038114771 0.019603247 0.037592802 -0.021050623 -0.006784777 -0.002957505 0.017463684 -0.054290295 -0.020627841 -0.016583102 -0.020440675 0.054411482 0.005103582 -0.015737018 -0.024941392 -0.032103345 -0.051987778 0.007372398 0.037939586 0.019419890 -0.007513697 -0.014946627 0.023565281 -0.003056929 0.023322262 -0.019845892 0.005964835 -0.039992359 -0.016185218 -0.047990274 0.070534393 -0.058520038 -0.012134570 0.014294025 0.056556143 -0.001210726 -0.031044414 0.035231907 0.027956236 0.006890614 -0.009233455 -0.051434819 0.001133886 -0.005031005 0.013492322 0.000188085 0.023858668 0.018153928 0.033992626 0.009369383 -0.020573853 -0.033339072 0.041702971 -0.016149431 -0.014686306 0.016990388 -0.028611725 -0.003712918 0.004778909 0.026535377 -0.010120839 0.012597172 -0.018699346 -0.022030646 -0.019602329 -0.024450401 0.025938464 0.025010485 -0.019827591 0.002903791 -0.019044299 0.049747314 0.010347335 -0.015766270 0.033729881 0.023693621 -0.014268817 -0.042228129 -0.067111962 0.031151144 -0.042991832 -0.007047614 -0.038949214 -0.030129328 -0.024910597 -0.022213891 0.018154955 0.016217271 0.009370336 0.003382090 0.016480790 -0.028494418 -0.023528198
arg 0.021179248 -0.031975426 0.011351286 -0.014966885 -0.026924273 0.006331023 -0.015650956 0.029611155 0.012179854 0.006765959 -0.003472135 0.017464517 0.013500504 0.006346756 -0.012626009 -0.012157122 -0.020660760 0.021771049 0.038246017 0.037913471 -0.019008409 -0.011906004 0.001856864 -0.020288430 0.003974115 0.039963093 0.012391399 0.001409560 0.018099392 0.016119996 0.039418772 0.021533623 -0.029123710 0.004706470 -0.019127725 -0.018998211 0.019698961 0.008944068 -0.015931405 -0.016076744 0.010947854 0.045942720 -0.021823904 -0.022158200 0.012106077 0.004911691 -0.030548066 0.020944059 -0.051217522 0.003153877 -0.010127660 0.003476885 -0.008987137 0.007776296 -0.001586661 0.043061920 -0.002415654 -0.040717501 -0.001567353 0.009603611 0.001366746 -0.013820737 0.002722951 0.018109886 0.015470463 -0.018695980 0.002670912 -0.009262608 -0.020357998 -0.037247356 -0.008568894 -0.024824729 -0.023615249 -0.005134024 -0.014683112 0.002911684 0.001407210 -0.001792442 0.011933230 0.004242882 -0.013308063 0.027488206 0.032514893 -0.015793271 -0.038784634 -0.002422956 0.009463979 -0.014683758 0.016927691 -0.034071375 -0.041611779 -0.006600582 -0.014103471 0.029981835 0.016516319 -0.016939377 0.001630479 -0.011655029 -0.004810924 -0.025777830 0.021179248 -0.031975426 0.011351286 -0.014966885 -0.026924273 0.006331023 -0.015650956 0.029611155 0.012179854 0.006765959 -0.003472135 0.017464517 0.013500504 0.006346756 -0.012626009 -0.012157122 -0.020660760 0.021771049 0.038246017 0.037913471 -0.019008409 -0.011906004 0.001856864 -0.020288430 0.003974115 0.039963093 0.012391399 0.001409560 0.018099392 0.016119996 0.039418772 0.021533623 -0.029123710 0.004706470 -0.019127725 -0.018998211 0.019698961 0.008944068 -0.015931405 -0.016076744 0.010947854 0.045942720 -0.021823904 -0.022158200 0.012106077 0.004911691 -0.030548066 0.020944059 -0.051217522 0.003153877 -0.010127660 0.003476885 -0.008987137 0.007776296 -0.001586661 0.043061920 -0.002415654 -0.040717501 -0.001567353 0.009603611 0.001366746 -0.013820737 0.002722951 0.018109886 0.015470463 -0.018695980 0.002670912 -0.009262608 -0.020357998 -0.037247356 -0.008568894 -0.024824729 -0.023615249 -0.005134024 -0.014683112 0.002911684 0.001407210 -0.001792442 0.011933230 0.004242882 -0.013308063 0.027488206 0.032514893 -0.015793271 -0.038784634 -0.002422956 0.009463979 -0.014683758 0.016927691 -0.034071375 -0.041611779 -0.006600582 -0.014103471 0.029981835 0.016516319 -0.016939377 0.001630479 -0.011655029 -0.004810924 -0.025777830
arn -0.006164661 -0.051089033 0.011420733 -0.013401830 -0.022317348 0.021086315 -0.018221878 0.026552262 -0.003654285 0.042538758 -0.007722311 -0.022512659 -0.010408022 0.024016064 -0.042746000 -0.026269792 -0.030995402 -0.012749788 0.062176827 -0.004752081 -0.023378320 -0.028519982 -0.035783436 -0.053093765 0.024960451 0.060394563 -0.012168176 -0.030219169 -0.024796581 0.034701243 0.000213214 0.019703651 -0.010021632 0.023703245 -0.052544210 -0.008622911 -0.041589711 0.059668645 -0.082211703 -0.022984520 0.012364752 0.059474610 -0.023593515 -0.073697530 0.038125113 0.047849886 -0.024184586 0.001853541 -0.042800840 0.002916688 -0.009102084 0.036261391 -0.003248010 0.044366408 0.009435045 0.023230365 0.039591193 -0.026378822 -0.036734112 0.015421328 -0.009363494 0.003076528 0.020407064 -0.019651266 0.007233311 0.004948363 0.040531844 0.012152292 0.013990792 -0.018451834 -0.046390377 -0.039993878 -0.021631304 0.018850850 0.023715330 -0.024226317 -0.012391728 -0.019635370 0.062931530 0.017807536 -0.032011237 0.045562163 0.052991226 -0.010233073 -0.042184245 -0.081122115 0.024147710 -0.025120201 -0.001172169 -0.047838874 -0.020502135 -0.033391658 -0.050039958 0.027024740 0.014764086 0.009196686 0.006086181 0.017468646 -0.023633007 -0.051835347 -0.006164661 -0.051089033 0.011420733 -0.013401830 -0.022317348 0.021086315 -0.018221878 0.026552262 -0.003654285 0.042538758 -0.007722311 -0.022512659 -0.010408022 0.024016064 -0.042746000 -0.026269792 -0.030995402 -0.012749788 0.062176827 -0.004752081 -0.023378320 -0.028519982 -0.035783436 -0.053093765 0.024960451 0.060394563 -0.012168176 -0.030219169 -0.024796581 0.034701243 0.000213214 0.019703651 -0.010021632 0.023703245 -0.052544210 -0.008622911 -0.041589711 0.059668645 -0.082211703 -0.022984520 0.012364752 0.059474610 -0.023593515 -0.073697530 0.038125113 0.047849886 -0.024184586 0.001853541 -0.042800840 0.002916688 -0.009102084 0.036261391 -0.003248010 0.044366408 0.009435045 0.023230365 0.039591193 -0.026378822 -0.036734112 0.015421328 -0.009363494 0.003076528 0.020407064 -0.019651266 0.007233311 0.004948363 0.040531844 0.012152292 0.013990792 -0.018451834 -0.046390377 -0.039993878 -0.021631304 0.018850850 0.023715330 -0.024226317 -0.012391728 -0.019635370 0.062931530 0.017807536 -0.032011237 0.045562163 0.052991226 -0.010233073 -0.042184245 -0.081122115 0.024147710 -0.025120201 -0.001172169 -0.047838874 -0.020502135 -0.033391658 -0.050039958 0.027024740 0.014764086 0.009196686 0.006086181 0.017468646 -0.023633007 -0.051835347
ary -0.016442249 -0.038516302 0.022858998 -0.010544206 -0.027116224 0.022264477 -0.000566965 0.023998283 -0.004897722 0.034102827 -0.007182486 -0.028163273 -0.006008218 0.023589568 -0.042465653 -0.008887233 -0.026247086 -0.013134989 0.057415608 -0.010596640 -0.028009489 -0.025839299 -0.028151605 -0.045508306 0.030122856 0.052118879 -0.000831406 -0.026227729 -0.018931957 0.021718925 0.002280528 0.029227223 -0.013576719 0.020437974 -0.051756058 -0.014547379 -0.041244343 0.064348288 -0.068335921 -0.027160874 0.018012401 0.061013155 -0.028621888 -0.056604642 0.025523001 0.042401426 -0.028950790 -0.000116327 -0.048912130 0.003992006 -0.002701428 0.024125924 -0.001542291 0.043614544 0.004438622 0.014843784 0.029194703 -0.022952210 -0.030147504 0.002421780 -0.019659569 -0.000278828 0.003630785 -0.017902788 0.006786494 0.006904550 0.036337577 0.005688985 0.021433040 -0.022626029 -0.038709335 -0.045594998 -0.034771569 0.022995161 0.018811278 -0.013045387 -0.002168278 -0.017446773 0.055994745 0.018439932 -0.046038996 0.037919085 0.043510456 -0.007332045 -0.043576077 -0.073008418 0.014957234 -0.022178352 0.011140940 -0.055985946 -0.009982193 -0.018247891 -0.039704699 0.029710606 0.012938983 0.001795130 0.010714624 0.005739164 -0.029921263 -0.053427130 -0.016442249 -0.038516302 0.022858998 -0.010544206 -0.027116224 0.022264477 -0.000566965 0.023998283 -0.004897722 0.034102827 -0.007182486 -0.028163273 -0.006008218 0.023589568 -0.042465653 -0.008887233 -0.026247086 -0.013134989 0.057415608 -0.010596640 -0.028009489 -0.025839299 -0.028151605 -0.045508306 0.030122856 0.052118879 -0.000831406 -0.026227729 -0.018931957 0.021718925 0.002280528 0.029227223 -0.013576719 0.020437974 -0.051756058 -0.014547379 -0.041244343 0.064348288 -0.068335921 -0.027160874 0.018012401 0.061013155 -0.028621888 -0.056604642 0.025523001 0.042401426 -0.028950790 -0.000116327 -0.048912130 0.003992006 -0.002701428 0.024125924 -0.001542291 0.043614544 0.004438622 0.014843784 0.029194703 -0.022952210 -0.030147504 0.002421780 -0.019659569 -0.000278828 0.003630785 -0.017902788 0.006786494 0.006904550 0.036337577 0.005688985 0.021433040 -0.022626029 -0.038709335 -0.045594998 -0.034771569 0.022995161 0.018811278 -0.013045387 -0.002168278 -0.017446773 0.055994745 0.018439932 -0.046038996 0.037919085 0.043510456 -0.007332045 -0.043576077 -0.073008418 0.014957234 -0.022178352 0.011140940 -0.055985946 -0.009982193 -0.018247891 -0.039704699 0.029710606 0.012938983 0.001795130 0.010714624 0.005739164 -0.029921263 -0.053427130
arz 0.009811445 -0.024325706 0.006148782 -0.005023570 -0.017073601 0.012647956 -0.000468866 0.033180200 0.000805777 0.005272286 -0.032782476 -0.015761238 0.011232190 -0.002055177 -0.039912861 0.020371875 -0.002453312 0.007874848 0.060573872 0.034837160 -0.006864527 -0.040818535 0.011615254 -0.056480579 0.041410279 0.040404540 0.011785128 -0.026399493 0.012740303 0.011360119 -0.004136637 0.013499522 -0.002504254 0.018728273 0.004858665 -0.026153645 -0.026104843 0.039722059 -0.056066312 0.000306809 0.015583188 0.018895838 -0.025136121 -0.029578691 -0.009276812 0.032224167 -0.033858605 0.009455516 -0.032795247 0.021827014 -0.032743722 0.017313974 -0.031960402 0.033337537 0.006210282 0.009452001 0.024754766 -0.024265394 -0.003094898 -0.006936144 -0.015157068 -0.022654939 0.030903893 -0.008286707 -0.003281046 -0.013061113 0.037428334 0.016770121 0.013202259 -0.019828368 -0.010355933 -0.019920707 -0.018280033 0.021307971 0.001884584 -0.031200545 -0.007819884 -0.023878036 0.062076341 0.027504839 -0.030656187 0.039202698 0.020428956 -0.009253721 -0.018133953 -0.047630753 0.055926066 -0.029134002 0.000939181 -0.047642779 -0.008130324 0.000667988 -0.023301246 0.024852999 -0.001420412 -0.008349681 -0.007235081 0.016382691 -0.042168349 -0.043633282 0.009811445 -0.024325706 0.006148782 -0.005023570 -0.017073601 0.012647956 -0.000468866 0.033180200 0.000805777 0.005272286 -0.032782476 -0.015761238 0.011232190 -0.002055177 -0.039912861 0.020371875 -0.002453312 0.007874848 0.060573872 0.034837160 -0.006864527 -0.040818535 0.011615254 -0.056480579 0.041410279 0.040404540 0.011785128 -0.026399493 0.012740303 0.011360119 -0.004136637 0.013499522 -0.002504254 0.018728273 0.004858665 -0.026153645 -0.026104843 0.039722059 -0.056066312 0.000306809 0.015583188 0.018895838 -0.025136121 -0.029578691 -0.009276812 0.032224167 -0.033858605 0.009455516 -0.032795247 0.021827014 -0.032743722 0.017313974 -0.031960402 0.033337537 0.006210282 0.009452001 0.024754766 -0.024265394 -0.003094898 -0.006936144 -0.015157068 -0.022654939 0.030903893 -0.008286707 -0.003281046 -0.013061113 0.037428334 0.016770121 0.013202259 -0.019828368 -0.010355933 -0.019920707 -0.018280033 0.021307971 0.001884584 -0.031200545 -0.007819884 -0.023878036 0.062076341 0.027504839 -0.030656187 0.039202698 0.020428956 -0.009253721 -0.018133953 -0.047630753 0.055926066 -0.029134002 0.000939181 -0.047642779 -0.008130324 0.000667988 -0.023301246 0.024852999 -0.001420412 -0.008349681 -0.007235081 0.016382691 -0.042168349 -0.043633282
asm 0.019253977 -0.057316478 0.001176172 -0.002639848 -0.005445010 0.011734051 0.004811646 0.018461304 0.019525494 0.023991836 0.009323155 -0.015062056 -0.001608343 0.014026018 -0.040616758 -0.015877571 -0.006053536 0.001015948 0.066996194 -0.008140812 -0.017218607 -0.005903278 0.001501494 -0.040764727 0.010132744 0.056605790 0.012801741 -0.006204294 0.010914093 0.009990046 0.024347967 0.009550331 0.001934759 0.001911036 -0.009023364 -0.016448120 -0.002367877 0.016230693 -0.034449477 -0.035261095 0.007656247 0.031024743 -0.001806620 -0.042718031 0.007386307 0.035356455 -0.014465898 0.024538932 -0.028886516 -0.017797556 -0.019472955 0.028120721 -0.028457681 0.007023126 -0.022465149 0.004688699 0.003037933 -0.024441568 -0.021314006 -0.003204407 0.022150215 -0.003334354 0.006173294 -0.010047046 -0.013283265 0.013479913 0.013137077 0.008549850 0.009665304 -0.018109957 -0.026318578 -0.025715692 -0.007580996 0.039324816 0.034304190 0.001747698 0.015377726 0.018872952 0.034315761 0.014639542 -0.018526034 0.010016224 0.022754867 0.002867870 -0.025413310 -0.059771460 0.014962970 -0.026320731 -0.013302206 -0.039649770 -0.001746911 -0.043300048 -0.020874677 0.011685538 0.021016531 0.006561293 0.023078907 0.018662870 -0.005982931 -0.014295842 0.019253977 -0.057316478 0.001176172 -0.002639848 -0.005445010 0.011734051 0.004811646 0.018461304 0.019525494 0.023991836 0.009323155 -0.015062056 -0.001608343 0.014026018 -0.040616758 -0.015877571 -0.006053536 0.001015948 0.066996194 -0.008140812 -0.017218607 -0.005903278 0.001501494 -0.040764727 0.010132744 0.056605790 0.012801741 -0.006204294 0.010914093 0.009990046 0.024347967 0.009550331 0.001934759 0.001911036 -0.009023364 -0.016448120 -0.002367877 0.016230693 -0.034449477 -0.035261095 0.007656247 0.031024743 -0.001806620 -0.042718031 0.007386307 0.035356455 -0.014465898 0.024538932 -0.028886516 -0.017797556 -0.019472955 0.028120721 -0.028457681 0.007023126 -0.022465149 0.004688699 0.003037933 -0.024441568 -0.021314006 -0.003204407 0.022150215 -0.003334354 0.006173294 -0.010047046 -0.013283265 0.013479913 0.013137077 0.008549850 0.009665304 -0.018109957 -0.026318578 -0.025715692 -0.007580996 0.039324816 0.034304190 0.001747698 0.015377726 0.018872952 0.034315761 0.014639542 -0.018526034 0.010016224 0.022754867 0.002867870 -0.025413310 -0.059771460 0.014962970 -0.026320731 -0.013302206 -0.039649770 -0.001746911 -0.043300048 -0.020874677 0.011685538 0.021016531 0.006561293 0.023078907 0.018662870 -0.005982931 -0.014295842
ast 0.006809999 -0.032853436 0.004200414 0.014057144 -0.000391288 -0.010210097 -0.006219715 0.011113708 -0.022244032 0.003104662 0.011005403 -0.012628761 0.012762382 -0.008340493 -0.016322378 -0.000674157 0.004389778 -0.008456606 0.009996754 0.022660745 -0.000747499 -0.006265828 -0.011679894 -0.013849818 0.012330785 0.026092075 -0.018928796 -0.006967550 0.001134627 0.014953916 0.015956765 -0.000955956 0.002841423 0.009519453 -0.016028648 -0.004188267 -0.009705103 0.011997497 -0.020172326 -0.005427990 0.000455214 0.020756379 -0.016153062 -0.000917629 0.008011136 0.000176990 -0.003117317 0.002589760 -0.015833953 0.001483804 -0.007973719 0.011511813 0.008122253 0.011173715 0.002301320 0.029828161 -0.000948786 -0.006513695 0.004340804 0.006319312 -0.017923513 -0.023228237 -0.012853081 0.021726917 -0.009031043 -0.012092987 0.000863713 0.001597514 -0.003055488 0.006883752 0.007588190 -0.024502669 -0.002948445 0.009117500 0.012697565 0.016525116 0.021505106 -0.005940275 0.002598482 0.001029361 -0.011890000 -0.012321112 0.021381177 -0.022018936 -0.018115871 0.006618450 0.017719204 0.003999379 0.015473407 -0.005500583 0.003673889 0.001623918 -0.005431474 0.004778881 0.002769519 -0.009635311 0.008160411 -0.001522126 0.000049807 0.013787013 0.006809999 -0.032853436 0.004200414 0.014057144 -0.000391288 -0.010210097 -0.006219715 0.011113708 -0.022244032 0.003104662 0.011005403 -0.012628761 0.012762382 -0.008340493 -0.016322378 -0.000674157 0.004389778 -0.008456606 0.009996754 0.022660745 -0.000747499 -0.006265828 -0.011679894 -0.013849818 0.012330785 0.026092075 -0.018928796 -0.006967550 0.001134627 0.014953916 0.015956765 -0.000955956 0.002841423 0.009519453 -0.016028648 -0.004188267 -0.009705103 0.011997497 -0.020172326 -0.005427990 0.000455214 0.020756379 -0.016153062 -0.000917629 0.008011136 0.000176990 -0.003117317 0.002589760 -0.015833953 0.001483804 -0.007973719 0.011511813 0.008122253 0.011173715 0.002301320 0.029828161 -0.000948786 -0.006513695 0.004340804 0.006319312 -0.017923513 -0.023228237 -0.012853081 0.021726917 -0.009031043 -0.012092987 0.000863713 0.001597514 -0.003055488 0.006883752 0.007588190 -0.024502669 -0.002948445 0.009117500 0.012697565 0.016525116 0.021505106 -0.005940275 0.002598482 0.001029361 -0.011890000 -0.012321112 0.021381177 -0.022018936 -0.018115871 0.006618450 0.017719204 0.003999379 0.015473407 -0.005500583 0.003673889 0.001623918 -0.005431474 0.004778881 0.002769519 -0.009635311 0.008160411 -0.001522126 0.000049807 0.013787013
atj -0.006532481 -0.053940173 0.013765340 -0.016322959 -0.024544708 0.018442042 -0.015488709 0.028287642 -0.001808620 0.039696846 -0.005423208 -0.020692518 -0.008032543 0.022811286 -0.045676775 -0.027331743 -0.033482257 -0.013438702 0.063280500 -0.007907111 -0.025599414 -0.029502545 -0.034918971 -0.057303432 0.020840170 0.058454543 -0.012463718 -0.031729318 -0.026207723 0.032710608 0.002433819 0.023857260 -0.011457955 0.021126539 -0.053224728 -0.011284356 -0.044503935 0.059863478 -0.086272188 -0.024135716 0.015792862 0.059379712 -0.023258027 -0.076002143 0.039462313 0.051002238 -0.026124179 0.001212264 -0.046322044 0.003670950 -0.007221171 0.034069974 -0.006638637 0.045695882 0.006669730 0.021467132 0.037510801 -0.028743938 -0.038552511 0.012027071 -0.006756798 0.002366865 0.021449272 -0.022791194 0.003826221 0.002717020 0.040529549 0.011021546 0.013387484 -0.019314498 -0.048090667 -0.037336968 -0.020960215 0.015970651 0.026848219 -0.022831995 -0.008580178 -0.017822405 0.067677803 0.020048320 -0.033952896 0.046157371 0.055119902 -0.010833269 -0.041178778 -0.083206326 0.026052687 -0.025885612 -0.003180192 -0.044931896 -0.018958326 -0.032696843 -0.053112667 0.028636614 0.011299782 0.011581096 0.008081048 0.014842371 -0.023716088 -0.052926473 -0.006532481 -0.053940173 0.013765340 -0.016322959 -0.024544708 0.018442042 -0.015488709 0.028287642 -0.001808620 0.039696846 -0.005423208 -0.020692518 -0.008032543 0.022811286 -0.045676775 -0.027331743 -0.033482257 -0.013438702 0.063280500 -0.007907111 -0.025599414 -0.029502545 -0.034918971 -0.057303432 0.020840170 0.058454543 -0.012463718 -0.031729318 -0.026207723 0.032710608 0.002433819 0.023857260 -0.011457955 0.021126539 -0.053224728 -0.011284356 -0.044503935 0.059863478 -0.086272188 -0.024135716 0.015792862 0.059379712 -0.023258027 -0.076002143 0.039462313 0.051002238 -0.026124179 0.001212264 -0.046322044 0.003670950 -0.007221171 0.034069974 -0.006638637 0.045695882 0.006669730 0.021467132 0.037510801 -0.028743938 -0.038552511 0.012027071 -0.006756798 0.002366865 0.021449272 -0.022791194 0.003826221 0.002717020 0.040529549 0.011021546 0.013387484 -0.019314498 -0.048090667 -0.037336968 -0.020960215 0.015970651 0.026848219 -0.022831995 -0.008580178 -0.017822405 0.067677803 0.020048320 -0.033952896 0.046157371 0.055119902 -0.010833269 -0.041178778 -0.083206326 0.026052687 -0.025885612 -0.003180192 -0.044931896 -0.018958326 -0.032696843 -0.053112667 0.028636614 0.011299782 0.011581096 0.008081048 0.014842371 -0.023716088 -0.052926473
ava 0.015954221 -0.044946808 0.008330268 -0.011949138 -0.028630527 0.013388989 -0.013413495 0.016349336 0.000207486 0.040926192 -0.000401540 -0.014401463 -0.004358056 0.013265756 -0.043150533 -0.020297568 -0.018667242 -0.010924425 0.049588397 -0.010540917 -0.033308372 -0.031809576 -0.031118637 -0.044438716 0.019176906 0.045354720 -0.012913707 -0.037909370 -0.020081816 0.040399503 0.009102106 0.034826353 0.009853432 0.022150554 -0.053577591 -0.002033311 -0.042978574 0.062032744 -0.078394815 -0.030643515 -0.000840597 0.057572171 -0.015817752 -0.072495162 0.025181431 0.031342257 -0.018594455 0.006589569 -0.053678706 -0.009477274 0.000626430 0.025188182 -0.006905038 0.045147546 -0.001204729 0.031770416 0.034437209 -0.038537707 -0.040024590 0.005210121 -0.001884382 0.003467450 0.020878471 -0.014955680 0.009343590 -0.007575253 0.027450914 0.014935171 0.031789385 -0.015384171 -0.037872344 -0.037158135 -0.017510071 0.019381991 0.033698276 -0.022990292 -0.004606558 -0.003637599 0.060553275 0.028520236 -0.017953193 0.029535815 0.050636772 -0.007670472 -0.033192433 -0.069610283 0.034183413 -0.009263262 -0.004257667 -0.031173712 -0.018309584 -0.009373554 -0.035827145 0.003814626 0.019571155 -0.004976873 0.005747099 0.025636598 -0.021920558 -0.049936138 0.015954221 -0.044946808 0.008330268 -0.011949138 -0.028630527 0.013388989 -0.013413495 0.016349336 0.000207486 0.040926192 -0.000401540 -0.014401463 -0.004358056 0.013265756 -0.043150533 -0.020297568 -0.018667242 -0.010924425 0.049588397 -0.010540917 -0.033308372 -0.031809576 -0.031118637 -0.044438716 0.019176906 0.045354720 -0.012913707 -0.037909370 -0.020081816 0.040399503 0.009102106 0.034826353 0.009853432 0.022150554 -0.053577591 -0.002033311 -0.042978574 0.062032744 -0.078394815 -0.030643515 -0.000840597 0.057572171 -0.015817752 -0.072495162 0.025181431 0.031342257 -0.018594455 0.006589569 -0.053678706 -0.009477274 0.000626430 0.025188182 -0.006905038 0.045147546 -0.001204729 0.031770416 0.034437209 -0.038537707 -0.040024590 0.005210121 -0.001884382 0.003467450 0.020878471 -0.014955680 0.009343590 -0.007575253 0.027450914 0.014935171 0.031789385 -0.015384171 -0.037872344 -0.037158135 -0.017510071 0.019381991 0.033698276 -0.022990292 -0.004606558 -0.003637599 0.060553275 0.028520236 -0.017953193 0.029535815 0.050636772 -0.007670472 -0.033192433 -0.069610283 0.034183413 -0.009263262 -0.004257667 -0.031173712 -0.018309584 -0.009373554 -0.035827145 0.003814626 0.019571155 -0.004976873 0.005747099 0.025636598 -0.021920558 -0.049936138
ave -0.006532481 -0.053940173 0.013765340 -0.016322959 -0.024544708 0.018442042 -0.015488709 0.028287642 -0.001808620 0.039696846 -0.005423208 -0.020692518 -0.008032543 0.022811286 -0.045676775 -0.027331743 -0.033482257 -0.013438702 0.063280500 -0.007907111 -0.025599414 -0.029502545 -0.034918971 -0.057303432 0.020840170 0.058454543 -0.012463718 -0.031729318 -0.026207723 0.032710608 0.002433819 0.023857260 -0.011457955 0.021126539 -0.053224728 -0.011284356 -0.044503935 0.059863478 -0.086272188 -0.024135716 0.015792862 0.059379712 -0.023258027 -0.076002143 0.039462313 0.051002238 -0.026124179 0.001212264 -0.046322044 0.003670950 -0.007221171 0.034069974 -0.006638637 0.045695882 0.006669730 0.021467132 0.037510801 -0.028743938 -0.038552511 0.012027071 -0.006756798 0.002366865 0.021449272 -0.022791194 0.003826221 0.002717020 0.040529549 0.011021546 0.013387484 -0.019314498 -0.048090667 -0.037336968 -0.020960215 0.015970651 0.026848219 -0.022831995 -0.008580178 -0.017822405 0.067677803 0.020048320 -0.033952896 0.046157371 0.055119902 -0.010833269 -0.041178778 -0.083206326 0.026052687 -0.025885612 -0.003180192 -0.044931896 -0.018958326 -0.032696843 -0.053112667 0.028636614 0.011299782 0.011581096 0.008081048 0.014842371 -0.023716088 -0.052926473 -0.006532481 -0.053940173 0.013765340 -0.016322959 -0.024544708 0.018442042 -0.015488709 0.028287642 -0.001808620 0.039696846 -0.005423208 -0.020692518 -0.008032543 0.022811286 -0.045676775 -0.027331743 -0.033482257 -0.013438702 0.063280500 -0.007907111 -0.025599414 -0.029502545 -0.034918971 -0.057303432 0.020840170 0.058454543 -0.012463718 -0.031729318 -0.026207723 0.032710608 0.002433819 0.023857260 -0.011457955 0.021126539 -0.053224728 -0.011284356 -0.044503935 0.059863478 -0.086272188 -0.024135716 0.015792862 0.059379712 -0.023258027 -0.076002143 0.039462313 0.051002238 -0.026124179 0.001212264 -0.046322044 0.003670950 -0.007221171 0.034069974 -0.006638637 0.045695882 0.006669730 0.021467132 0.037510801 -0.028743938 -0.038552511 0.012027071 -0.006756798 0.002366865 0.021449272 -0.022791194 0.003826221 0.002717020 0.040529549 0.011021546 0.013387484 -0.019314498 -0.048090667 -0.037336968 -0.020960215 0.015970651 0.026848219 -0.022831995 -0.008580178 -0.017822405 0.067677803 0.020048320 -0.033952896 0.046157371 0.055119902 -0.010833269 -0.041178778 -0.083206326 0.026052687 -0.025885612 -0.003180192 -0.044931896 -0.018958326 -0.032696843 -0.053112667 0.028636614 0.011299782 0.011581096 0.008081048 0.014842371 -0.023716088 -0.052926473
axm -0.009745132 -0.052031554 0.014919529 -0.018849269 -0.023770956 0.021481901 -0.011965305 0.028841292 -0.003737462 0.043112624 -0.005164098 -0.019243343 -0.011018840 0.026747832 -0.046621356 -0.024991034 -0.031008376 -0.016537845 0.059275173 -0.005002687 -0.025290001 -0.025923869 -0.032461662 -0.054933205 0.020504072 0.058961187 -0.012259420 -0.027276425 -0.027032075 0.033861227 -0.000867682 0.025532383 -0.007803442 0.021451896 -0.053176954 -0.009444433 -0.041568022 0.062395725 -0.087809421 -0.024316277 0.013154175 0.060976725 -0.025861403 -0.075645350 0.040721748 0.048829935 -0.023789449 0.000972393 -0.049335957 0.005725840 -0.008354890 0.035741434 -0.008301165 0.046595797 0.010043015 0.020250084 0.036296405 -0.026092302 -0.040996354 0.012309981 -0.009056278 -0.001060698 0.021873876 -0.020207327 0.001192988 0.002521911 0.038388349 0.010378185 0.016214147 -0.021566346 -0.049412172 -0.036892749 -0.023309089 0.018410370 0.026041299 -0.021677021 -0.005692502 -0.020132286 0.066515863 0.017479969 -0.031390268 0.042756390 0.053721163 -0.008598261 -0.042230584 -0.083082192 0.023127204 -0.025088325 -0.005306097 -0.042357288 -0.020471951 -0.031511307 -0.053585805 0.027063156 0.009164761 0.012736190 0.006119692 0.012142342 -0.020969501 -0.050291989 -0.009745132 -0.052031554 0.014919529 -0.018849269 -0.023770956 0.021481901 -0.011965305 0.028841292 -0.003737462 0.043112624 -0.005164098 -0.019243343 -0.011018840 0.026747832 -0.046621356 -0.024991034 -0.031008376 -0.016537845 0.059275173 -0.005002687 -0.025290001 -0.025923869 -0.032461662 -0.054933205 0.020504072 0.058961187 -0.012259420 -0.027276425 -0.027032075 0.033861227 -0.000867682 0.025532383 -0.007803442 0.021451896 -0.053176954 -0.009444433 -0.041568022 0.062395725 -0.087809421 -0.024316277 0.013154175 0.060976725 -0.025861403 -0.075645350 0.040721748 0.048829935 -0.023789449 0.000972393 -0.049335957 0.005725840 -0.008354890 0.035741434 -0.008301165 0.046595797 0.010043015 0.020250084 0.036296405 -0.026092302 -0.040996354 0.012309981 -0.009056278 -0.001060698 0.021873876 -0.020207327 0.001192988 0.002521911 0.038388349 0.010378185 0.016214147 -0.021566346 -0.049412172 -0.036892749 -0.023309089 0.018410370 0.026041299 -0.021677021 -0.005692502 -0.020132286 0.066515863 0.017479969 -0.031390268 0.042756390 0.053721163 -0.008598261 -0.042230584 -0.083082192 0.023127204 -0.025088325 -0.005306097 -0.042357288 -0.020471951 -0.031511307 -0.053585805 0.027063156 0.009164761 0.012736190 0.006119692 0.012142342 -0.020969501 -0.050291989
