519 200
aar -0.006895855 0.236858219 0.048700649 -0.115567222 0.021185808 0.060567092 0.026057236 -0.013825515 0.004290752 0.036297627 -0.050357327 -0.026631622 -0.039733957 -0.016847994 0.021802170 0.000888566 -0.016187765 0.004579296 0.016416073 -0.018097360 -0.011126420 -0.027729319 -0.000404897 -0.001550974 0.000295253 -0.013349595 -0.007652089 -0.003381851 0.000346681 0.032550719 -0.006839791 0.004863002 0.005162383 -0.020364409 0.010232320 0.002394964 -0.006553040 -0.004546585 0.007552914 0.008807372 -0.010437602 -0.018185437 -0.005425588 0.001023127 -0.002397917 -0.000664951 -0.000718795 0.013400009 0.003744225 -0.001422960 -0.014837040 -0.005403251 0.005805515 -0.003730749 0.002484850 -0.017423809 -0.001834229 -0.011605309 0.007018811 -0.005252417 -0.016999703 -0.005393563 0.000509028 0.002761385 0.010413859 -0.004289864 0.009007044 -0.017158879 -0.000392767 0.000928839 0.010624359 -0.015246745 0.010483986 -0.008912857 0.000827089 0.001357547 0.007748594 0.006974262 0.005243642 0.004205083 -0.001084078 0.015954157 0.009514808 0.004082962 0.011546075 -0.001462534 0.010459794 -0.008882053 -0.003984631 -0.007460385 -0.006622462 0.004521868 -0.001354169 0.004315106 -0.004961148 -0.007090166 -0.012194059 -0.011289497 -0.002884431 -0.001025850 -0.006895855 0.236858219 0.048700649 -0.115567222 0.021185808 0.060567092 0.026057236 -0.013825515 0.004290752 0.036297627 -0.050357327 -0.026631622 -0.039733957 -0.016847994 0.021802170 0.000888566 -0.016187765 0.004579296 0.016416073 -0.018097360 -0.011126420 -0.027729319 -0.000404897 -0.001550974 0.000295253 -0.013349595 -0.007652089 -0.003381851 0.000346681 0.032550719 -0.006839791 0.004863002 0.005162383 -0.020364409 0.010232320 0.002394964 -0.006553040 -0.004546585 0.007552914 0.008807372 -0.010437602 -0.018185437 -0.005425588 0.001023127 -0.002397917 -0.000664951 -0.000718795 0.013400009 0.003744225 -0.001422960 -0.014837040 -0.005403251 0.005805515 -0.003730749 0.002484850 -0.017423809 -0.001834229 -0.011605309 0.007018811 -0.005252417 -0.016999703 -0.005393563 0.000509028 0.002761385 0.010413859 -0.004289864 0.009007044 -0.017158879 -0.000392767 0.000928839 0.010624359 -0.015246745 0.010483986 -0.008912857 0.000827089 0.001357547 0.007748594 0.006974262 0.005243642 0.004205083 -0.001084078 0.015954157 0.009514808 0.004082962 0.011546075 -0.001462534 0.010459794 -0.008882053 -0.003984631 -0.007460385 -0.006622462 0.004521868 -0.001354169 0.004315106 -0.004961148 -0.007090166 -0.012194059 -0.011289497 -0.002884431 -0.001025850
abe -0.006911704 0.237326786 0.050266389 -0.116259575 0.021306723 0.060922280 0.025691239 -0.013526055 0.004709068 0.035044644 -0.050267715 -0.025715407 -0.040536594 -0.016402842 0.021193190 0.001538722 -0.016505986 0.003524892 0.015860297 -0.018223850 -0.010999863 -0.027245065 -0.000503554 -0.001087363 0.000005646 -0.013379323 -0.009182891 -0.002426179 -0.000671382 0.032765396 -0.006839753 0.003998264 0.005836332 -0.019227451 0.010428045 0.002529359 -0.006555574 -0.003351233 0.006988365 0.010372304 -0.011181610 -0.017512418 -0.006512338 0.001625705 -0.002951722 -0.002261160 -0.001358907 0.012996932 0.003232652 -0.001883489 -0.015528925 -0.004651098 0.005400562 -0.003178188 0.003202299 -0.017335540 -0.002531000 -0.010334573 0.005644788 -0.004121109 -0.016649015 -0.004877550 0.000564184 0.002106790 0.009762402 -0.004846496 0.008803172 -0.017388819 0.000258810 -0.000059495 0.009980331 -0.015140976 0.009639240 -0.008839754 0.001116317 0.001832574 0.008335115 0.006142241 0.004236061 0.004533827 -0.000760612 0.015948098 0.009204926 0.003702624 0.010914708 -0.002969634 0.010944311 -0.008955127 -0.004773887 -0.005166561 -0.006487971 0.005427407 -0.001869156 0.003933598 -0.004600516 -0.006712085 -0.012364856 -0.011065559 -0.002833429 -0.001025807 -0.006911704 0.237326786 0.050266389 -0.116259575 0.021306723 0.060922280 0.025691239 -0.013526055 0.004709068 0.035044644 -0.050267715 -0.025715407 -0.040536594 -0.016402842 0.021193190 0.001538722 -0.016505986 0.003524892 0.015860297 -0.018223850 -0.010999863 -0.027245065 -0.000503554 -0.001087363 0.000005646 -0.013379323 -0.009182891 -0.002426179 -0.000671382 0.032765396 -0.006839753 0.003998264 0.005836332 -0.019227451 0.010428045 0.002529359 -0.006555574 -0.003351233 0.006988365 0.010372304 -0.011181610 -0.017512418 -0.006512338 0.001625705 -0.002951722 -0.002261160 -0.001358907 0.012996932 0.003232652 -0.001883489 -0.015528925 -0.004651098 0.005400562 -0.003178188 0.003202299 -0.017335540 -0.002531000 -0.010334573 0.005644788 -0.004121109 -0.016649015 -0.004877550 0.000564184 0.002106790 0.009762402 -0.004846496 0.008803172 -0.017388819 0.000258810 -0.000059495 0.009980331 -0.015140976 0.009639240 -0.008839754 0.001116317 0.001832574 0.008335115 0.006142241 0.004236061 0.004533827 -0.000760612 0.015948098 0.009204926 0.003702624 0.010914708 -0.002969634 0.010944311 -0.008955127 -0.004773887 -0.005166561 -0.006487971 0.005427407 -0.001869156 0.003933598 -0.004600516 -0.006712085 -0.012364856 -0.011065559 -0.002833429 -0.001025807
abk -0.008533988 0.242320344 0.051112939 -0.116081119 0.021415215 0.054917134 0.020398853 -0.008427088 0.010315316 0.032276977 -0.049436860 -0.018729489 -0.044113409 -0.021859702 0.023218796 0.002099388 -0.018407254 0.005913381 0.021018475 -0.007288246 -0.012690736 -0.022152165 0.006968613 -0.002111021 -0.002727780 -0.009310296 -0.005228820 -0.008288244 -0.001266076 0.029028645 -0.005779691 -0.000648573 0.009636948 -0.021873940 0.008492876 -0.000098602 -0.003169701 -0.002923984 0.010645139 0.009689420 -0.013221141 -0.013140572 -0.004122481 0.004511523 0.001109262 -0.002822215 0.000552660 0.011810984 -0.000350978 -0.002360079 -0.016164504 -0.004326936 0.006865349 -0.002505227 0.003914393 -0.006876765 -0.004998641 -0.014528814 -0.001670481 -0.010796918 -0.010071435 -0.008675857 0.001127727 0.005731839 0.008834365 -0.006743331 0.003902109 -0.020674901 0.003081469 -0.000995895 0.015105589 -0.014866968 0.011032367 -0.007579647 0.000636735 0.000299341 0.008615001 0.008244739 0.005512878 -0.001340410 -0.001323157 0.011680186 0.009809490 0.001050917 0.014541304 -0.000743426 0.010005812 -0.007164602 -0.004198061 -0.006470856 -0.005088252 0.003985316 -0.004177709 0.003260007 -0.002786407 -0.004578388 -0.004490663 -0.006695949 -0.002252490 -0.001308649 -0.008533988 0.242320344 0.051112939 -0.116081119 0.021415215 0.054917134 0.020398853 -0.008427088 0.010315316 0.032276977 -0.049436860 -0.018729489 -0.044113409 -0.021859702 0.023218796 0.002099388 -0.018407254 0.005913381 0.021018475 -0.007288246 -0.012690736 -0.022152165 0.006968613 -0.002111021 -0.002727780 -0.009310296 -0.005228820 -0.008288244 -0.001266076 0.029028645 -0.005779691 -0.000648573 0.009636948 -0.021873940 0.008492876 -0.000098602 -0.003169701 -0.002923984 0.010645139 0.009689420 -0.013221141 -0.013140572 -0.004122481 0.004511523 0.001109262 -0.002822215 0.000552660 0.011810984 -0.000350978 -0.002360079 -0.016164504 -0.004326936 0.006865349 -0.002505227 0.003914393 -0.006876765 -0.004998641 -0.014528814 -0.001670481 -0.010796918 -0.010071435 -0.008675857 0.001127727 0.005731839 0.008834365 -0.006743331 0.003902109 -0.020674901 0.003081469 -0.000995895 0.015105589 -0.014866968 0.011032367 -0.007579647 0.000636735 0.000299341 0.008615001 0.008244739 0.005512878 -0.001340410 -0.001323157 0.011680186 0.009809490 0.001050917 0.014541304 -0.000743426 0.010005812 -0.007164602 -0.004198061 -0.006470856 -0.005088252 0.003985316 -0.004177709 0.003260007 -0.002786407 -0.004578388 -0.004490663 -0.006695949 -0.002252490 -0.001308649
abq -0.006956463 0.236745730 0.047423232 -0.114566550 0.021454882 0.060064536 0.026755992 -0.013565798 0.004856721 0.039406970 -0.052655965 -0.028242268 -0.040366743 -0.019295957 0.023870790 0.000542637 -0.017076500 0.003168491 0.017430352 -0.017538197 -0.011236373 -0.027767118 0.001719994 -0.000885877 -0.000798904 -0.013113170 -0.006579671 -0.004200631 0.000242236 0.031852782 -0.006022521 0.004154426 0.005576037 -0.020198377 0.009733153 0.002037064 -0.007452577 -0.003966698 0.007431686 0.008842335 -0.010997205 -0.017921185 -0.005203894 0.000934051 -0.002356079 -0.000861597 -0.000345543 0.013007052 0.003894277 -0.001949861 -0.014423806 -0.005764122 0.005667205 -0.004299600 0.002154823 -0.016542189 -0.002093333 -0.011446055 0.006801832 -0.004866248 -0.016545651 -0.005529120 0.000462709 0.002928360 0.010382355 -0.004417960 0.009302579 -0.017370250 -0.000459784 0.001214709 0.010199421 -0.014925149 0.010334637 -0.008784707 0.000820384 0.001524399 0.007722657 0.006649093 0.005358058 0.004088304 -0.001190926 0.015856568 0.009064604 0.003969424 0.011299211 -0.001440298 0.010169124 -0.008765424 -0.003853373 -0.007347364 -0.006482747 0.004466284 -0.001066727 0.004515355 -0.005055442 -0.007526292 -0.012216858 -0.011201992 -0.002891196 -0.001115777 -0.006956463 0.236745730 0.047423232 -0.114566550 0.021454882 0.060064536 0.026755992 -0.013565798 0.004856721 0.039406970 -0.052655965 -0.028242268 -0.040366743 -0.019295957 0.023870790 0.000542637 -0.017076500 0.003168491 0.017430352 -0.017538197 -0.011236373 -0.027767118 0.001719994 -0.000885877 -0.000798904 -0.013113170 -0.006579671 -0.004200631 0.000242236 0.031852782 -0.006022521 0.004154426 0.005576037 -0.020198377 0.009733153 0.002037064 -0.007452577 -0.003966698 0.007431686 0.008842335 -0.010997205 -0.017921185 -0.005203894 0.000934051 -0.002356079 -0.000861597 -0.000345543 0.013007052 0.003894277 -0.001949861 -0.014423806 -0.005764122 0.005667205 -0.004299600 0.002154823 -0.016542189 -0.002093333 -0.011446055 0.006801832 -0.004866248 -0.016545651 -0.005529120 0.000462709 0.002928360 0.010382355 -0.004417960 0.009302579 -0.017370250 -0.000459784 0.001214709 0.010199421 -0.014925149 0.010334637 -0.008784707 0.000820384 0.001524399 0.007722657 0.006649093 0.005358058 0.004088304 -0.001190926 0.015856568 0.009064604 0.003969424 0.011299211 -0.001440298 0.010169124 -0.008765424 -0.003853373 -0.007347364 -0.006482747 0.004466284 -0.001066727 0.004515355 -0.005055442 -0.007526292 -0.012216858 -0.011201992 -0.002891196 -0.001115777
ace -0.006712316 0.234082907 0.053824842 -0.103511155 0.024700250 0.059297409 0.021581516 -0.017957620 0.012874836 0.041629601 -0.061154146 -0.030296553 -0.037876263 -0.020529393 0.023163298 0.000979479 -0.017233826 0.008606482 0.016785948 -0.014314236 -0.010668290 -0.028170932 0.004115470 0.001738189 -0.001606743 -0.005555992 -0.006276738 -0.000620487 -0.005822315 0.025765497 -0.011082918 0.005142306 0.005592533 -0.018549820 0.008338831 0.001126919 -0.005127166 -0.001432724 0.005984564 0.006495658 -0.007614325 -0.014718022 -0.001056627 0.002391966 0.001634697 -0.001097131 -0.003771198 0.010653507 0.007069314 -0.004173703 -0.015641104 -0.007570710 0.002363906 -0.005414022 0.000245263 -0.014625273 -0.002620104 -0.012220764 0.006093953 -0.001998107 -0.018273573 -0.002569321 -0.001616877 0.004722794 0.010486190 -0.006977519 0.005444739 -0.009523639 0.004389293 -0.005381348 0.005348315 -0.014701791 0.006294733 -0.008451321 0.001607906 0.002751418 0.011179368 0.002977520 0.003042513 0.002282726 -0.001065038 0.019329432 0.003123173 0.002153172 0.008814551 -0.000513263 0.005455637 -0.007501819 -0.005546302 -0.000214035 -0.007768530 0.009065728 0.004865731 0.002640861 -0.003553942 -0.007348341 -0.009778041 -0.009774263 -0.002600832 -0.001652252 -0.006712316 0.234082907 0.053824842 -0.103511155 0.024700250 0.059297409 0.021581516 -0.017957620 0.012874836 0.041629601 -0.061154146 -0.030296553 -0.037876263 -0.020529393 0.023163298 0.000979479 -0.017233826 0.008606482 0.016785948 -0.014314236 -0.010668290 -0.028170932 0.004115470 0.001738189 -0.001606743 -0.005555992 -0.006276738 -0.000620487 -0.005822315 0.025765497 -0.011082918 0.005142306 0.005592533 -0.018549820 0.008338831 0.001126919 -0.005127166 -0.001432724 0.005984564 0.006495658 -0.007614325 -0.014718022 -0.001056627 0.002391966 0.001634697 -0.001097131 -0.003771198 0.010653507 0.007069314 -0.004173703 -0.015641104 -0.007570710 0.002363906 -0.005414022 0.000245263 -0.014625273 -0.002620104 -0.012220764 0.006093953 -0.001998107 -0.018273573 -0.002569321 -0.001616877 0.004722794 0.010486190 -0.006977519 0.005444739 -0.009523639 0.004389293 -0.005381348 0.005348315 -0.014701791 0.006294733 -0.008451321 0.001607906 0.002751418 0.011179368 0.002977520 0.003042513 0.002282726 -0.001065038 0.019329432 0.003123173 0.002153172 0.008814551 -0.000513263 0.005455637 -0.007501819 -0.005546302 -0.000214035 -0.007768530 0.009065728 0.004865731 0.002640861 -0.003553942 -0.007348341 -0.009778041 -0.009774263 -0.002600832 -0.001652252
acw -0.007020589 0.236108795 0.049347270 -0.116722681 0.020339379 0.059305083 0.026457204 -0.012320390 0.001528944 0.035300057 -0.047663026 -0.024645170 -0.038759936 -0.016314000 0.022492822 -0.000704280 -0.015765425 0.005825676 0.017034519 -0.018601323 -0.009651784 -0.028027898 -0.000443985 -0.000329711 0.001236133 -0.011970455 -0.005839326 -0.003383805 0.001900667 0.031175101 -0.009360214 0.005320646 0.006330404 -0.018874098 0.010793083 0.002339440 -0.007388901 -0.003973482 0.009435718 0.006189036 -0.011472745 -0.016397335 -0.004970452 0.000530483 -0.000554439 0.001027020 -0.001992381 0.015113262 0.002719119 -0.000447914 -0.014069557 -0.003653685 0.004571576 -0.003272430 0.004396380 -0.017298313 -0.001361884 -0.013951541 0.009271107 -0.004148124 -0.018323885 -0.005299937 0.000052264 0.001803735 0.008550843 -0.005753070 0.006158555 -0.016632503 -0.001394480 -0.000501945 0.008991624 -0.016015725 0.008666751 -0.007937788 -0.001264310 0.001758550 0.005843622 0.007002776 0.005491043 0.004766792 -0.000810332 0.016415179 0.010004063 0.004364296 0.010576093 -0.002535966 0.010065667 -0.008829135 -0.003535973 -0.007535281 -0.005837012 0.004083238 -0.001587114 0.004513150 -0.004778898 -0.005839014 -0.012311151 -0.011302698 -0.002975311 -0.001109727 -0.007020589 0.236108795 0.049347270 -0.116722681 0.020339379 0.059305083 0.026457204 -0.012320390 0.001528944 0.035300057 -0.047663026 -0.024645170 -0.038759936 -0.016314000 0.022492822 -0.000704280 -0.015765425 0.005825676 0.017034519 -0.018601323 -0.009651784 -0.028027898 -0.000443985 -0.000329711 0.001236133 -0.011970455 -0.005839326 -0.003383805 0.001900667 0.031175101 -0.009360214 0.005320646 0.006330404 -0.018874098 0.010793083 0.002339440 -0.007388901 -0.003973482 0.009435718 0.006189036 -0.011472745 -0.016397335 -0.004970452 0.000530483 -0.000554439 0.001027020 -0.001992381 0.015113262 0.002719119 -0.000447914 -0.014069557 -0.003653685 0.004571576 -0.003272430 0.004396380 -0.017298313 -0.001361884 -0.013951541 0.009271107 -0.004148124 -0.018323885 -0.005299937 0.000052264 0.001803735 0.008550843 -0.005753070 0.006158555 -0.016632503 -0.001394480 -0.000501945 0.008991624 -0.016015725 0.008666751 -0.007937788 -0.001264310 0.001758550 0.005843622 0.007002776 0.005491043 0.004766792 -0.000810332 0.016415179 0.010004063 0.004364296 0.010576093 -0.002535966 0.010065667 -0.008829135 -0.003535973 -0.007535281 -0.005837012 0.004083238 -0.001587114 0.004513150 -0.004778898 -0.005839014 -0.012311151 -0.011302698 -0.002975311 -0.001109727
ady -0.006993626 0.236354277 0.048649989 -0.113266073 0.021407478 0.057250824 0.027131453 -0.011403500 0.008603623 0.040143512 -0.053479075 -0.027484715 -0.041563075 -0.021421310 0.025995418 0.002148964 -0.020019768 0.003444141 0.020506322 -0.015565886 -0.009271547 -0.027763160 0.002180851 0.001203601 -0.000725779 -0.012071251 -0.005663437 -0.000834687 0.001267268 0.033145770 -0.003583676 0.005869835 0.005181625 -0.020303871 0.009771098 0.001784044 -0.007636552 -0.001756437 0.007394156 0.007750423 -0.011264010 -0.016912501 -0.004215201 0.000344760 -0.001052993 -0.000356405 0.000755104 0.015055379 0.002182887 -0.002021108 -0.014449448 -0.005779202 0.005795612 -0.003771555 0.001842042 -0.017645575 -0.001952468 -0.011662046 0.006023142 -0.003170376 -0.015009126 -0.005315141 0.002099175 0.002504251 0.010547702 -0.005629326 0.010156660 -0.017611168 -0.000012267 0.000394408 0.009589921 -0.016159335 0.009554689 -0.008546584 0.001647563 0.001840402 0.008703694 0.006902303 0.004833137 0.004121786 -0.001829227 0.018149540 0.008286707 0.003442839 0.012513055 -0.001421292 0.010185010 -0.006486787 -0.004565232 -0.008162349 -0.006250092 0.004558420 -0.000323530 0.003611347 -0.005182425 -0.007606470 -0.011377950 -0.010622518 -0.002821347 -0.001116531 -0.006993626 0.236354277 0.048649989 -0.113266073 0.021407478 0.057250824 0.027131453 -0.011403500 0.008603623 0.040143512 -0.053479075 -0.027484715 -0.041563075 -0.021421310 0.025995418 0.002148964 -0.020019768 0.003444141 0.020506322 -0.015565886 -0.009271547 -0.027763160 0.002180851 0.001203601 -0.000725779 -0.012071251 -0.005663437 -0.000834687 0.001267268 0.033145770 -0.003583676 0.005869835 0.005181625 -0.020303871 0.009771098 0.001784044 -0.007636552 -0.001756437 0.007394156 0.007750423 -0.011264010 -0.016912501 -0.004215201 0.000344760 -0.001052993 -0.000356405 0.000755104 0.015055379 0.002182887 -0.002021108 -0.014449448 -0.005779202 0.005795612 -0.003771555 0.001842042 -0.017645575 -0.001952468 -0.011662046 0.006023142 -0.003170376 -0.015009126 -0.005315141 0.002099175 0.002504251 0.010547702 -0.005629326 0.010156660 -0.017611168 -0.000012267 0.000394408 0.009589921 -0.016159335 0.009554689 -0.008546584 0.001647563 0.001840402 0.008703694 0.006902303 0.004833137 0.004121786 -0.001829227 0.018149540 0.008286707 0.003442839 0.012513055 -0.001421292 0.010185010 -0.006486787 -0.004565232 -0.008162349 -0.006250092 0.004558420 -0.000323530 0.003611347 -0.005182425 -0.007606470 -0.011377950 -0.010622518 -0.002821347 -0.001116531
aeb -0.006895855 0.236858219 0.048700649 -0.115567222 0.021185808 0.060567092 0.026057236 -0.013825515 0.004290752 0.036297627 -0.050357327 -0.026631622 -0.039733957 -0.016847994 0.021802170 0.000888566 -0.016187765 0.004579296 0.016416073 -0.018097360 -0.011126420 -0.027729319 -0.000404897 -0.001550974 0.000295253 -0.013349595 -0.007652089 -0.003381851 0.000346681 0.032550719 -0.006839791 0.004863002 0.005162383 -0.020364409 0.010232320 0.002394964 -0.006553040 -0.004546585 0.007552914 0.008807372 -0.010437602 -0.018185437 -0.005425588 0.001023127 -0.002397917 -0.000664951 -0.000718795 0.013400009 0.003744225 -0.001422960 -0.014837040 -0.005403251 0.005805515 -0.003730749 0.002484850 -0.017423809 -0.001834229 -0.011605309 0.007018811 -0.005252417 -0.016999703 -0.005393563 0.000509028 0.002761385 0.010413859 -0.004289864 0.009007044 -0.017158879 -0.000392767 0.000928839 0.010624359 -0.015246745 0.010483986 -0.008912857 0.000827089 0.001357547 0.007748594 0.006974262 0.005243642 0.004205083 -0.001084078 0.015954157 0.009514808 0.004082962 0.011546075 -0.001462534 0.010459794 -0.008882053 -0.003984631 -0.007460385 -0.006622462 0.004521868 -0.001354169 0.004315106 -0.004961148 -0.007090166 -0.012194059 -0.011289497 -0.002884431 -0.001025850 -0.006895855 0.236858219 0.048700649 -0.115567222 0.021185808 0.060567092 0.026057236 -0.013825515 0.004290752 0.036297627 -0.050357327 -0.026631622 -0.039733957 -0.016847994 0.021802170 0.000888566 -0.016187765 0.004579296 0.016416073 -0.018097360 -0.011126420 -0.027729319 -0.000404897 -0.001550974 0.000295253 -0.013349595 -0.007652089 -0.003381851 0.000346681 0.032550719 -0.006839791 0.004863002 0.005162383 -0.020364409 0.010232320 0.002394964 -0.006553040 -0.004546585 0.007552914 0.008807372 -0.010437602 -0.018185437 -0.005425588 0.001023127 -0.002397917 -0.000664951 -0.000718795 0.013400009 0.003744225 -0.001422960 -0.014837040 -0.005403251 0.005805515 -0.003730749 0.002484850 -0.017423809 -0.001834229 -0.011605309 0.007018811 -0.005252417 -0.016999703 -0.005393563 0.000509028 0.002761385 0.010413859 -0.004289864 0.009007044 -0.017158879 -0.000392767 0.000928839 0.010624359 -0.015246745 0.010483986 -0.008912857 0.000827089 0.001357547 0.007748594 0.006974262 0.005243642 0.004205083 -0.001084078 0.015954157 0.009514808 0.004082962 0.011546075 -0.001462534 0.010459794 -0.008882053 -0.003984631 -0.007460385 -0.006622462 0.004521868 -0.001354169 0.004315106 -0.004961148 -0.007090166 -0.012194059 -0.011289497 -0.002884431 -0.001025850
afb -0.007042155 0.238140911 0.050287731 -0.115879595 0.021385038 0.061059337 0.025924303 -0.014940145 0.005535382 0.036904257 -0.050367869 -0.026282646 -0.039677370 -0.015211552 0.021546755 0.001602902 -0.015444033 0.005558690 0.017760945 -0.018019861 -0.011431049 -0.028606441 -0.001632519 -0.001249357 0.001758169 -0.012866907 -0.007278099 -0.002777722 0.001165213 0.031372730 -0.006997995 0.006089845 0.005729490 -0.020845214 0.010882993 0.002313640 -0.006172066 -0.004698121 0.007267350 0.009469348 -0.010437507 -0.017129172 -0.006567619 0.001571445 -0.001896766 -0.000260503 -0.001057302 0.014822139 0.005080312 -0.002952612 -0.016447531 -0.005397007 0.006458530 -0.003707847 0.003064873 -0.016600067 -0.002743937 -0.010967736 0.006599331 -0.005064846 -0.017018547 -0.004921116 0.000379346 0.003519827 0.009963436 -0.004953626 0.008678016 -0.017518228 -0.000116725 0.000641770 0.010375589 -0.014617831 0.010237101 -0.008877766 -0.000239316 0.001814084 0.007013324 0.006693533 0.005777842 0.003824861 -0.001127752 0.016044652 0.008876126 0.003705953 0.011486819 -0.001092635 0.010591550 -0.009040075 -0.003675923 -0.006716776 -0.006615806 0.004517332 -0.001184164 0.003924205 -0.005022679 -0.007455781 -0.011846342 -0.011726651 -0.002758787 -0.001127902 -0.007042155 0.238140911 0.050287731 -0.115879595 0.021385038 0.061059337 0.025924303 -0.014940145 0.005535382 0.036904257 -0.050367869 -0.026282646 -0.039677370 -0.015211552 0.021546755 0.001602902 -0.015444033 0.005558690 0.017760945 -0.018019861 -0.011431049 -0.028606441 -0.001632519 -0.001249357 0.001758169 -0.012866907 -0.007278099 -0.002777722 0.001165213 0.031372730 -0.006997995 0.006089845 0.005729490 -0.020845214 0.010882993 0.002313640 -0.006172066 -0.004698121 0.007267350 0.009469348 -0.010437507 -0.017129172 -0.006567619 0.001571445 -0.001896766 -0.000260503 -0.001057302 0.014822139 0.005080312 -0.002952612 -0.016447531 -0.005397007 0.006458530 -0.003707847 0.003064873 -0.016600067 -0.002743937 -0.010967736 0.006599331 -0.005064846 -0.017018547 -0.004921116 0.000379346 0.003519827 0.009963436 -0.004953626 0.008678016 -0.017518228 -0.000116725 0.000641770 0.010375589 -0.014617831 0.010237101 -0.008877766 -0.000239316 0.001814084 0.007013324 0.006693533 0.005777842 0.003824861 -0.001127752 0.016044652 0.008876126 0.003705953 0.011486819 -0.001092635 0.010591550 -0.009040075 -0.003675923 -0.006716776 -0.006615806 0.004517332 -0.001184164 0.003924205 -0.005022679 -0.007455781 -0.011846342 -0.011726651 -0.002758787 -0.001127902
afr -0.048982602 0.210425436 0.018311542 -0.011707172 -0.007081184 0.006148283 0.001305920 0.007990119 -0.007597188 0.001715876 0.011717014 0.004356935 0.005644796 -0.005787163 -0.002390476 -0.002121815 0.005084081 0.000747713 -0.001191478 0.011959733 -0.004036054 0.012442871 0.008768675 0.009988234 0.005630919 0.002523060 -0.001616621 0.005934728 0.003660891 -0.001401526 -0.004677082 0.003563475 -0.000445887 0.003845620 0.006670817 0.001515511 0.002990335 0.004412988 0.003784163 -0.002386932 -0.003633578 0.000420360 0.004912054 -0.001492053 0.003000734 -0.002267362 -0.001746078 -0.002762327 0.002118838 0.004854521 0.000656788 -0.002179930 -0.002300339 -0.002715854 0.001123018 -0.002720068 0.000114568 -0.000682364 -0.005827457 -0.001795273 0.000307084 0.002565372 0.002618277 0.000253908 0.001448026 0.007281304 -0.005173751 0.002675806 0.002113401 -0.003891698 0.000302706 0.001429907 0.002338163 -0.002355410 0.001178162 -0.001556852 -0.000627510 -0.002121778 -0.004261147 0.001490088 0.001137499 -0.000876607 -0.001189737 0.002846919 0.000128599 -0.001437669 -0.004612904 0.000849933 -0.000679934 0.005728758 0.001871747 0.000768822 0.000255699 0.001199206 -0.000227125 -0.000951434 0.001967130 -0.004333483 -0.000327967 0.000907071 -0.048982602 0.210425436 0.018311542 -0.011707172 -0.007081184 0.006148283 0.001305920 0.007990119 -0.007597188 0.001715876 0.011717014 0.004356935 0.005644796 -0.005787163 -0.002390476 -0.002121815 0.005084081 0.000747713 -0.001191478 0.011959733 -0.004036054 0.012442871 0.008768675 0.009988234 0.005630919 0.002523060 -0.001616621 0.005934728 0.003660891 -0.001401526 -0.004677082 0.003563475 -0.000445887 0.003845620 0.006670817 0.001515511 0.002990335 0.004412988 0.003784163 -0.002386932 -0.003633578 0.000420360 0.004912054 -0.001492053 0.003000734 -0.002267362 -0.001746078 -0.002762327 0.002118838 0.004854521 0.000656788 -0.002179930 -0.002300339 -0.002715854 0.001123018 -0.002720068 0.000114568 -0.000682364 -0.005827457 -0.001795273 0.000307084 0.002565372 0.002618277 0.000253908 0.001448026 0.007281304 -0.005173751 0.002675806 0.002113401 -0.003891698 0.000302706 0.001429907 0.002338163 -0.002355410 0.001178162 -0.001556852 -0.000627510 -0.002121778 -0.004261147 0.001490088 0.001137499 -0.000876607 -0.001189737 0.002846919 0.000128599 -0.001437669 -0.004612904 0.000849933 -0.000679934 0.005728758 0.001871747 0.000768822 0.000255699 0.001199206 -0.000227125 -0.000951434 0.001967130 -0.004333483 -0.000327967 0.000907071
aho -0.006895855 0.236858219 0.048700649 -0.115567222 0.021185808 0.060567092 0.026057236 -0.013825515 0.004290752 0.036297627 -0.050357327 -0.026631622 -0.039733957 -0.016847994 0.021802170 0.000888566 -0.016187765 0.004579296 0.016416073 -0.018097360 -0.011126420 -0.027729319 -0.000404897 -0.001550974 0.000295253 -0.013349595 -0.007652089 -0.003381851 0.000346681 0.032550719 -0.006839791 0.004863002 0.005162383 -0.020364409 0.010232320 0.002394964 -0.006553040 -0.004546585 0.007552914 0.008807372 -0.010437602 -0.018185437 -0.005425588 0.001023127 -0.002397917 -0.000664951 -0.000718795 0.013400009 0.003744225 -0.001422960 -0.014837040 -0.005403251 0.005805515 -0.003730749 0.002484850 -0.017423809 -0.001834229 -0.011605309 0.007018811 -0.005252417 -0.016999703 -0.005393563 0.000509028 0.002761385 0.010413859 -0.004289864 0.009007044 -0.017158879 -0.000392767 0.000928839 0.010624359 -0.015246745 0.010483986 -0.008912857 0.000827089 0.001357547 0.007748594 0.006974262 0.005243642 0.004205083 -0.001084078 0.015954157 0.009514808 0.004082962 0.011546075 -0.001462534 0.010459794 -0.008882053 -0.003984631 -0.007460385 -0.006622462 0.004521868 -0.001354169 0.004315106 -0.004961148 -0.007090166 -0.012194059 -0.011289497 -0.002884431 -0.001025850 -0.006895855 0.236858219 0.048700649 -0.115567222 0.021185808 0.060567092 0.026057236 -0.013825515 0.004290752 0.036297627 -0.050357327 -0.026631622 -0.039733957 -0.016847994 0.021802170 0.000888566 -0.016187765 0.004579296 0.016416073 -0.018097360 -0.011126420 -0.027729319 -0.000404897 -0.001550974 0.000295253 -0.013349595 -0.007652089 -0.003381851 0.000346681 0.032550719 -0.006839791 0.004863002 0.005162383 -0.020364409 0.010232320 0.002394964 -0.006553040 -0.004546585 0.007552914 0.008807372 -0.010437602 -0.018185437 -0.005425588 0.001023127 -0.002397917 -0.000664951 -0.000718795 0.013400009 0.003744225 -0.001422960 -0.014837040 -0.005403251 0.005805515 -0.003730749 0.002484850 -0.017423809 -0.001834229 -0.011605309 0.007018811 -0.005252417 -0.016999703 -0.005393563 0.000509028 0.002761385 0.010413859 -0.004289864 0.009007044 -0.017158879 -0.000392767 0.000928839 0.010624359 -0.015246745 0.010483986 -0.008912857 0.000827089 0.001357547 0.007748594 0.006974262 0.005243642 0.004205083 -0.001084078 0.015954157 0.009514808 0.004082962 0.011546075 -0.001462534 0.010459794 -0.008882053 -0.003984631 -0.007460385 -0.006622462 0.004521868 -0.001354169 0.004315106 -0.004961148 -0.007090166 -0.012194059 -0.011289497 -0.002884431 -0.001025850
aii -0.008060018 0.237775400 0.048891094 -0.113850430 0.021014562 0.059331797 0.024785673 -0.014640967 0.003571591 0.037437696 -0.050269332 -0.026463360 -0.040845744 -0.018244000 0.023694508 -0.000590538 -0.018699713 0.004552107 0.017423058 -0.016386654 -0.010600884 -0.029423004 -0.000361609 -0.000575161 0.000455505 -0.011483046 -0.009421812 -0.003493364 0.001590219 0.033236295 -0.006767046 0.006971152 0.004258607 -0.020029165 0.010886935 0.004056152 -0.005656610 -0.003742692 0.007424314 0.008023333 -0.010745645 -0.017202832 -0.005857407 -0.000429132 -0.002234865 0.000155708 -0.002729615 0.013365839 0.003157340 -0.001858069 -0.015712773 -0.006315271 0.007298036 -0.002788143 0.003481998 -0.018190376 -0.001658012 -0.009722642 0.006866359 -0.005532755 -0.017813241 -0.006174645 0.001464930 0.002183795 0.010645555 -0.004120208 0.009296549 -0.018605245 -0.001633307 0.001007450 0.009637741 -0.013902715 0.010010509 -0.006020844 0.000695444 0.000510383 0.009762085 0.005896222 0.004917690 0.005408396 -0.001401825 0.015786387 0.007150897 0.005780131 0.010452297 -0.001663201 0.011996976 -0.009666337 -0.005345183 -0.006298698 -0.006587604 0.004719853 -0.000953408 0.004417566 -0.004224066 -0.008559788 -0.011323908 -0.012041777 -0.002767117 -0.001097269 -0.008060018 0.237775400 0.048891094 -0.113850430 0.021014562 0.059331797 0.024785673 -0.014640967 0.003571591 0.037437696 -0.050269332 -0.026463360 -0.040845744 -0.018244000 0.023694508 -0.000590538 -0.018699713 0.004552107 0.017423058 -0.016386654 -0.010600884 -0.029423004 -0.000361609 -0.000575161 0.000455505 -0.011483046 -0.009421812 -0.003493364 0.001590219 0.033236295 -0.006767046 0.006971152 0.004258607 -0.020029165 0.010886935 0.004056152 -0.005656610 -0.003742692 0.007424314 0.008023333 -0.010745645 -0.017202832 -0.005857407 -0.000429132 -0.002234865 0.000155708 -0.002729615 0.013365839 0.003157340 -0.001858069 -0.015712773 -0.006315271 0.007298036 -0.002788143 0.003481998 -0.018190376 -0.001658012 -0.009722642 0.006866359 -0.005532755 -0.017813241 -0.006174645 0.001464930 0.002183795 0.010645555 -0.004120208 0.009296549 -0.018605245 -0.001633307 0.001007450 0.009637741 -0.013902715 0.010010509 -0.006020844 0.000695444 0.000510383 0.009762085 0.005896222 0.004917690 0.005408396 -0.001401825 0.015786387 0.007150897 0.005780131 0.010452297 -0.001663201 0.011996976 -0.009666337 -0.005345183 -0.006298698 -0.006587604 0.004719853 -0.000953408 0.004417566 -0.004224066 -0.008559788 -0.011323908 -0.012041777 -0.002767117 -0.001097269
ain -0.007408896 0.233436808 0.052178830 -0.111134551 0.016141059 0.051012076 0.026609715 -0.008995274 0.010175414 0.028490417 -0.047870077 -0.023598917 -0.042762201 -0.017514795 0.021676416 0.002680948 -0.016713105 0.006911706 0.020618387 -0.015249882 -0.008796833 -0.024200257 -0.001601945 0.000541598 -0.001948919 -0.014642660 -0.006717729 -0.001064139 -0.001020387 0.030916566 -0.009821267 0.002205509 0.006479244 -0.019062581 0.011108269 0.001966297 -0.004953973 0.000905277 0.003958239 0.008211049 -0.008272538 -0.015753828 -0.002077926 -0.000140132 -0.002978707 0.002332157 -0.006266239 0.010287693 0.006346419 -0.000947151 -0.017970616 -0.005757777 0.003603892 -0.003348510 0.001064428 -0.019426566 0.002007526 -0.008149336 0.004487647 -0.003903583 -0.016811974 -0.006578261 -0.001589593 0.003919085 0.010813046 -0.003303486 0.011527313 -0.012502261 -0.003138430 -0.003174895 0.011738858 -0.015722724 0.006112275 -0.008043757 0.003872993 0.007960939 0.010993828 0.007074940 0.000223721 0.003491316 -0.005098800 0.014574926 0.009172535 -0.000185192 0.006805568 0.003814014 0.011628741 -0.011721112 -0.003444782 -0.007655989 -0.008923964 0.001969059 -0.003198292 0.001405601 -0.007232914 -0.010976369 -0.012563766 -0.014553772 -0.002277915 -0.000913668 -0.007408896 0.233436808 0.052178830 -0.111134551 0.016141059 0.051012076 0.026609715 -0.008995274 0.010175414 0.028490417 -0.047870077 -0.023598917 -0.042762201 -0.017514795 0.021676416 0.002680948 -0.016713105 0.006911706 0.020618387 -0.015249882 -0.008796833 -0.024200257 -0.001601945 0.000541598 -0.001948919 -0.014642660 -0.006717729 -0.001064139 -0.001020387 0.030916566 -0.009821267 0.002205509 0.006479244 -0.019062581 0.011108269 0.001966297 -0.004953973 0.000905277 0.003958239 0.008211049 -0.008272538 -0.015753828 -0.002077926 -0.000140132 -0.002978707 0.002332157 -0.006266239 0.010287693 0.006346419 -0.000947151 -0.017970616 -0.005757777 0.003603892 -0.003348510 0.001064428 -0.019426566 0.002007526 -0.008149336 0.004487647 -0.003903583 -0.016811974 -0.006578261 -0.001589593 0.003919085 0.010813046 -0.003303486 0.011527313 -0.012502261 -0.003138430 -0.003174895 0.011738858 -0.015722724 0.006112275 -0.008043757 0.003872993 0.007960939 0.010993828 0.007074940 0.000223721 0.003491316 -0.005098800 0.014574926 0.009172535 -0.000185192 0.006805568 0.003814014 0.011628741 -0.011721112 -0.003444782 -0.007655989 -0.008923964 0.001969059 -0.003198292 0.001405601 -0.007232914 -0.010976369 -0.012563766 -0.014553772 -0.002277915 -0.000913668
aka -0.008243795 0.238380432 0.057759833 -0.109646283 0.017390547 0.062707111 0.017885249 -0.016713394 0.007797797 0.031897642 -0.041220300 -0.024315219 -0.047104158 -0.015967470 0.021803124 0.003525491 -0.010242622 0.009040281 0.024202788 -0.018172016 -0.008586727 -0.018469868 0.004514455 0.004962350 0.003597409 -0.005021959 0.002184492 -0.001668163 0.006047321 0.027391708 -0.011712229 0.003950672 0.011660301 -0.021185244 0.012450090 0.006123755 0.001048133 0.003441488 0.002730571 0.000665931 -0.019254543 -0.014123986 -0.004524644 0.002462965 -0.001882426 0.002595071 -0.004379381 0.005428704 -0.001955173 0.002218397 -0.016210675 -0.007282970 0.005100522 -0.003235812 0.000207213 -0.017638026 -0.001499000 -0.017557818 0.007158171 0.004829561 -0.026604626 -0.002710674 0.001173917 0.002149563 0.015304089 -0.002740514 0.010701767 -0.017503630 0.011360054 -0.001378858 0.003298917 -0.019165318 0.007556496 -0.009109797 -0.002073230 -0.000725710 0.007373918 0.001860740 -0.000542085 0.005985479 0.002232734 0.016901303 0.008234048 0.000676851 0.013874829 -0.005978701 0.005607592 -0.000783074 -0.004038273 -0.003151892 0.000181795 0.000680574 -0.001884590 0.001746104 -0.004034397 -0.004093349 -0.014995931 -0.015543999 -0.007829807 -0.000957885 -0.008243795 0.238380432 0.057759833 -0.109646283 0.017390547 0.062707111 0.017885249 -0.016713394 0.007797797 0.031897642 -0.041220300 -0.024315219 -0.047104158 -0.015967470 0.021803124 0.003525491 -0.010242622 0.009040281 0.024202788 -0.018172016 -0.008586727 -0.018469868 0.004514455 0.004962350 0.003597409 -0.005021959 0.002184492 -0.001668163 0.006047321 0.027391708 -0.011712229 0.003950672 0.011660301 -0.021185244 0.012450090 0.006123755 0.001048133 0.003441488 0.002730571 0.000665931 -0.019254543 -0.014123986 -0.004524644 0.002462965 -0.001882426 0.002595071 -0.004379381 0.005428704 -0.001955173 0.002218397 -0.016210675 -0.007282970 0.005100522 -0.003235812 0.000207213 -0.017638026 -0.001499000 -0.017557818 0.007158171 0.004829561 -0.026604626 -0.002710674 0.001173917 0.002149563 0.015304089 -0.002740514 0.010701767 -0.017503630 0.011360054 -0.001378858 0.003298917 -0.019165318 0.007556496 -0.009109797 -0.002073230 -0.000725710 0.007373918 0.001860740 -0.000542085 0.005985479 0.002232734 0.016901303 0.008234048 0.000676851 0.013874829 -0.005978701 0.005607592 -0.000783074 -0.004038273 -0.003151892 0.000181795 0.000680574 -0.001884590 0.001746104 -0.004034397 -0.004093349 -0.014995931 -0.015543999 -0.007829807 -0.000957885
akk -0.007463181 0.235901773 0.049026832 -0.111954749 0.020520734 0.059273485 0.028132886 -0.014608141 0.005496444 0.038702019 -0.048773572 -0.027153892 -0.039914139 -0.014231381 0.025665451 0.002987932 -0.017660184 0.002670644 0.020812931 -0.014795628 -0.011107606 -0.027595842 0.000940248 0.001541721 0.000689989 -0.012248482 -0.006549506 -0.005654350 0.000806530 0.028322421 -0.006217783 0.004232080 0.005922885 -0.021255869 0.013687615 0.005794069 -0.006380563 -0.003986702 0.006670550 0.011535262 -0.008971669 -0.016321894 -0.005631402 0.000356171 -0.003397736 -0.000704701 -0.000906134 0.015136518 0.003940795 -0.004608968 -0.013961777 -0.006631159 0.005581084 -0.005595970 0.004721264 -0.015440517 -0.002908987 -0.011340796 0.006102674 -0.004657682 -0.014209356 -0.004173661 0.001692381 0.004269669 0.009413370 -0.004000808 0.009150670 -0.017852157 -0.000483822 0.000904643 0.008304889 -0.013478599 0.011093567 -0.006255751 0.002212366 0.001806815 0.007620439 0.007887926 0.004781965 0.003501359 -0.001670009 0.014057599 0.009955515 0.002940576 0.009237997 -0.001962143 0.008533389 -0.008735395 -0.004883933 -0.007807950 -0.005324762 0.004380369 -0.000735007 0.004759525 -0.004755987 -0.007804543 -0.012044039 -0.012317048 -0.002726147 -0.000755943 -0.007463181 0.235901773 0.049026832 -0.111954749 0.020520734 0.059273485 0.028132886 -0.014608141 0.005496444 0.038702019 -0.048773572 -0.027153892 -0.039914139 -0.014231381 0.025665451 0.002987932 -0.017660184 0.002670644 0.020812931 -0.014795628 -0.011107606 -0.027595842 0.000940248 0.001541721 0.000689989 -0.012248482 -0.006549506 -0.005654350 0.000806530 0.028322421 -0.006217783 0.004232080 0.005922885 -0.021255869 0.013687615 0.005794069 -0.006380563 -0.003986702 0.006670550 0.011535262 -0.008971669 -0.016321894 -0.005631402 0.000356171 -0.003397736 -0.000704701 -0.000906134 0.015136518 0.003940795 -0.004608968 -0.013961777 -0.006631159 0.005581084 -0.005595970 0.004721264 -0.015440517 -0.002908987 -0.011340796 0.006102674 -0.004657682 -0.014209356 -0.004173661 0.001692381 0.004269669 0.009413370 -0.004000808 0.009150670 -0.017852157 -0.000483822 0.000904643 0.008304889 -0.013478599 0.011093567 -0.006255751 0.002212366 0.001806815 0.007620439 0.007887926 0.004781965 0.003501359 -0.001670009 0.014057599 0.009955515 0.002940576 0.009237997 -0.001962143 0.008533389 -0.008735395 -0.004883933 -0.007807950 -0.005324762 0.004380369 -0.000735007 0.004759525 -0.004755987 -0.007804543 -0.012044039 -0.012317048 -0.002726147 -0.000755943
akz -0.006895855 0.236858219 0.048700649 -0.115567222 0.021185808 0.060567092 0.026057236 -0.013825515 0.004290752 0.036297627 -0.050357327 -0.026631622 -0.039733957 -0.016847994 0.021802170 0.000888566 -0.016187765 0.004579296 0.016416073 -0.018097360 -0.011126420 -0.027729319 -0.000404897 -0.001550974 0.000295253 -0.013349595 -0.007652089 -0.003381851 0.000346681 0.032550719 -0.006839791 0.004863002 0.005162383 -0.020364409 0.010232320 0.002394964 -0.006553040 -0.004546585 0.007552914 0.008807372 -0.010437602 -0.018185437 -0.005425588 0.001023127 -0.002397917 -0.000664951 -0.000718795 0.013400009 0.003744225 -0.001422960 -0.014837040 -0.005403251 0.005805515 -0.003730749 0.002484850 -0.017423809 -0.001834229 -0.011605309 0.007018811 -0.005252417 -0.016999703 -0.005393563 0.000509028 0.002761385 0.010413859 -0.004289864 0.009007044 -0.017158879 -0.000392767 0.000928839 0.010624359 -0.015246745 0.010483986 -0.008912857 0.000827089 0.001357547 0.007748594 0.006974262 0.005243642 0.004205083 -0.001084078 0.015954157 0.009514808 0.004082962 0.011546075 -0.001462534 0.010459794 -0.008882053 -0.003984631 -0.007460385 -0.006622462 0.004521868 -0.001354169 0.004315106 -0.004961148 -0.007090166 -0.012194059 -0.011289497 -0.002884431 -0.001025850 -0.006895855 0.236858219 0.048700649 -0.115567222 0.021185808 0.060567092 0.026057236 -0.013825515 0.004290752 0.036297627 -0.050357327 -0.026631622 -0.039733957 -0.016847994 0.021802170 0.000888566 -0.016187765 0.004579296 0.016416073 -0.018097360 -0.011126420 -0.027729319 -0.000404897 -0.001550974 0.000295253 -0.013349595 -0.007652089 -0.003381851 0.000346681 0.032550719 -0.006839791 0.004863002 0.005162383 -0.020364409 0.010232320 0.002394964 -0.006553040 -0.004546585 0.007552914 0.008807372 -0.010437602 -0.018185437 -0.005425588 0.001023127 -0.002397917 -0.000664951 -0.000718795 0.013400009 0.003744225 -0.001422960 -0.014837040 -0.005403251 0.005805515 -0.003730749 0.002484850 -0.017423809 -0.001834229 -0.011605309 0.007018811 -0.005252417 -0.016999703 -0.005393563 0.000509028 0.002761385 0.010413859 -0.004289864 0.009007044 -0.017158879 -0.000392767 0.000928839 0.010624359 -0.015246745 0.010483986 -0.008912857 0.000827089 0.001357547 0.007748594 0.006974262 0.005243642 0.004205083 -0.001084078 0.015954157 0.009514808 0.004082962 0.011546075 -0.001462534 0.010459794 -0.008882053 -0.003984631 -0.007460385 -0.006622462 0.004521868 -0.001354169 0.004315106 -0.004961148 -0.007090166 -0.012194059 -0.011289497 -0.002884431 -0.001025850
ale -0.006895855 0.236858219 0.048700649 -0.115567222 0.021185808 0.060567092 0.026057236 -0.013825515 0.004290752 0.036297627 -0.050357327 -0.026631622 -0.039733957 -0.016847994 0.021802170 0.000888566 -0.016187765 0.004579296 0.016416073 -0.018097360 -0.011126420 -0.027729319 -0.000404897 -0.001550974 0.000295253 -0.013349595 -0.007652089 -0.003381851 0.000346681 0.032550719 -0.006839791 0.004863002 0.005162383 -0.020364409 0.010232320 0.002394964 -0.006553040 -0.004546585 0.007552914 0.008807372 -0.010437602 -0.018185437 -0.005425588 0.001023127 -0.002397917 -0.000664951 -0.000718795 0.013400009 0.003744225 -0.001422960 -0.014837040 -0.005403251 0.005805515 -0.003730749 0.002484850 -0.017423809 -0.001834229 -0.011605309 0.007018811 -0.005252417 -0.016999703 -0.005393563 0.000509028 0.002761385 0.010413859 -0.004289864 0.009007044 -0.017158879 -0.000392767 0.000928839 0.010624359 -0.015246745 0.010483986 -0.008912857 0.000827089 0.001357547 0.007748594 0.006974262 0.005243642 0.004205083 -0.001084078 0.015954157 0.009514808 0.004082962 0.011546075 -0.001462534 0.010459794 -0.008882053 -0.003984631 -0.007460385 -0.006622462 0.004521868 -0.001354169 0.004315106 -0.004961148 -0.007090166 -0.012194059 -0.011289497 -0.002884431 -0.001025850 -0.006895855 0.236858219 0.048700649 -0.115567222 0.021185808 0.060567092 0.026057236 -0.013825515 0.004290752 0.036297627 -0.050357327 -0.026631622 -0.039733957 -0.016847994 0.021802170 0.000888566 -0.016187765 0.004579296 0.016416073 -0.018097360 -0.011126420 -0.027729319 -0.000404897 -0.001550974 0.000295253 -0.013349595 -0.007652089 -0.003381851 0.000346681 0.032550719 -0.006839791 0.004863002 0.005162383 -0.020364409 0.010232320 0.002394964 -0.006553040 -0.004546585 0.007552914 0.008807372 -0.010437602 -0.018185437 -0.005425588 0.001023127 -0.002397917 -0.000664951 -0.000718795 0.013400009 0.003744225 -0.001422960 -0.014837040 -0.005403251 0.005805515 -0.003730749 0.002484850 -0.017423809 -0.001834229 -0.011605309 0.007018811 -0.005252417 -0.016999703 -0.005393563 0.000509028 0.002761385 0.010413859 -0.004289864 0.009007044 -0.017158879 -0.000392767 0.000928839 0.010624359 -0.015246745 0.010483986 -0.008912857 0.000827089 0.001357547 0.007748594 0.006974262 0.005243642 0.004205083 -0.001084078 0.015954157 0.009514808 0.004082962 0.011546075 -0.001462534 0.010459794 -0.008882053 -0.003984631 -0.007460385 -0.006622462 0.004521868 -0.001354169 0.004315106 -0.004961148 -0.007090166 -0.012194059 -0.011289497 -0.002884431 -0.001025850
als -0.008509978 0.236626908 0.047866315 -0.091398917 0.024499580 0.047032677 0.014765913 -0.018752906 0.007469767 0.047289651 -0.050618555 -0.023345856 -0.036145683 -0.024838125 0.026585070 -0.001192544 -0.017579449 -0.000221227 0.015810957 -0.002664727 -0.017799642 -0.016107503 0.005774456 0.006098736 -0.003678941 -0.001608268 0.006301350 0.000931837 0.002846421 0.019917428 0.000372799 0.004062820 0.015724014 -0.016414315 0.006131110 0.006090845 0.000086765 -0.003726411 0.008123911 0.003836065 -0.010817667 -0.017410895 0.004886794 -0.002743864 0.002473272 0.004263371 -0.006986180 0.013378698 0.004736634 -0.002119449 -0.015009394 -0.002765052 0.003776501 -0.006011605 -0.003189382 -0.010662707 -0.000475990 -0.016361522 0.001148611 -0.005774767 -0.012843277 -0.007429082 0.001450905 0.002858788 0.013956692 -0.001373271 -0.003137234 -0.019384045 0.000601529 -0.004364310 0.000261296 -0.015016179 0.011072366 -0.007700167 -0.000041310 -0.000513611 0.011259783 0.004264365 0.001243216 0.008993047 -0.004501703 0.022401640 0.004933234 -0.001860762 0.010933477 -0.009400696 0.007853208 -0.001685882 -0.005128125 -0.000879392 -0.005352463 -0.000048329 0.000752486 -0.000039468 -0.001049576 -0.004530333 -0.009987522 -0.013962701 -0.005640455 0.001187101 -0.008509978 0.236626908 0.047866315 -0.091398917 0.024499580 0.047032677 0.014765913 -0.018752906 0.007469767 0.047289651 -0.050618555 -0.023345856 -0.036145683 -0.024838125 0.026585070 -0.001192544 -0.017579449 -0.000221227 0.015810957 -0.002664727 -0.017799642 -0.016107503 0.005774456 0.006098736 -0.003678941 -0.001608268 0.006301350 0.000931837 0.002846421 0.019917428 0.000372799 0.004062820 0.015724014 -0.016414315 0.006131110 0.006090845 0.000086765 -0.003726411 0.008123911 0.003836065 -0.010817667 -0.017410895 0.004886794 -0.002743864 0.002473272 0.004263371 -0.006986180 0.013378698 0.004736634 -0.002119449 -0.015009394 -0.002765052 0.003776501 -0.006011605 -0.003189382 -0.010662707 -0.000475990 -0.016361522 0.001148611 -0.005774767 -0.012843277 -0.007429082 0.001450905 0.002858788 0.013956692 -0.001373271 -0.003137234 -0.019384045 0.000601529 -0.004364310 0.000261296 -0.015016179 0.011072366 -0.007700167 -0.000041310 -0.000513611 0.011259783 0.004264365 0.001243216 0.008993047 -0.004501703 0.022401640 0.004933234 -0.001860762 0.010933477 -0.009400696 0.007853208 -0.001685882 -0.005128125 -0.000879392 -0.005352463 -0.000048329 0.000752486 -0.000039468 -0.001049576 -0.004530333 -0.009987522 -0.013962701 -0.005640455 0.001187101
alt -0.006996464 0.237797096 0.049556360 -0.114557356 0.020036941 0.059556559 0.027501712 -0.014569889 0.006345597 0.039076589 -0.052966714 -0.029429624 -0.041246176 -0.018444015 0.024901811 0.001027541 -0.017101170 0.004815458 0.019700121 -0.016728081 -0.010795941 -0.026610805 0.003036856 -0.001442358 -0.000768697 -0.014116279 -0.007099836 -0.002555310 0.000536280 0.031492338 -0.006251672 0.005377477 0.005308096 -0.019735653 0.011598842 0.002880591 -0.007411285 -0.003454513 0.007661336 0.007702857 -0.011161104 -0.017221838 -0.005167711 0.000674466 -0.001385730 0.000842265 -0.002275434 0.013455831 0.003288768 -0.000797887 -0.014477919 -0.005590374 0.005127011 -0.004092816 0.003512783 -0.016638456 -0.001069330 -0.011499120 0.007078369 -0.005269046 -0.015768869 -0.006184743 0.000763670 0.002273972 0.011029516 -0.004380317 0.008484012 -0.017095000 -0.001359830 -0.000768581 0.010749768 -0.015003330 0.009621939 -0.007026398 0.001011788 0.001939727 0.007434946 0.007500769 0.005725565 0.002758952 -0.000930394 0.016073547 0.009174019 0.004153256 0.011669655 -0.001660869 0.010305624 -0.008945431 -0.004224750 -0.008344506 -0.005843133 0.003440417 -0.000651556 0.003080109 -0.004786623 -0.007454042 -0.012948294 -0.010693964 -0.003176428 -0.001066699 -0.006996464 0.237797096 0.049556360 -0.114557356 0.020036941 0.059556559 0.027501712 -0.014569889 0.006345597 0.039076589 -0.052966714 -0.029429624 -0.041246176 -0.018444015 0.024901811 0.001027541 -0.017101170 0.004815458 0.019700121 -0.016728081 -0.010795941 -0.026610805 0.003036856 -0.001442358 -0.000768697 -0.014116279 -0.007099836 -0.002555310 0.000536280 0.031492338 -0.006251672 0.005377477 0.005308096 -0.019735653 0.011598842 0.002880591 -0.007411285 -0.003454513 0.007661336 0.007702857 -0.011161104 -0.017221838 -0.005167711 0.000674466 -0.001385730 0.000842265 -0.002275434 0.013455831 0.003288768 -0.000797887 -0.014477919 -0.005590374 0.005127011 -0.004092816 0.003512783 -0.016638456 -0.001069330 -0.011499120 0.007078369 -0.005269046 -0.015768869 -0.006184743 0.000763670 0.002273972 0.011029516 -0.004380317 0.008484012 -0.017095000 -0.001359830 -0.000768581 0.010749768 -0.015003330 0.009621939 -0.007026398 0.001011788 0.001939727 0.007434946 0.007500769 0.005725565 0.002758952 -0.000930394 0.016073547 0.009174019 0.004153256 0.011669655 -0.001660869 0.010305624 -0.008945431 -0.004224750 -0.008344506 -0.005843133 0.003440417 -0.000651556 0.003080109 -0.004786623 -0.007454042 -0.012948294 -0.010693964 -0.003176428 -0.001066699
amh -0.009333516 0.262301356 0.056066666 -0.096445978 0.025252223 0.052492097 0.013584274 -0.015720148 -0.003342795 0.033892091 -0.043910477 -0.018603835 -0.035588469 -0.026586879 0.026297906 0.013604214 -0.020331543 0.003953040 0.028775271 -0.002099092 -0.003388207 -0.012231556 0.006062298 0.013933093 -0.000540621 -0.006791595 -0.007749064 0.004237512 -0.005803273 0.019145792 -0.014188366 0.012634680 0.019524047 -0.017412608 0.014754030 0.002829912 -0.005114374 -0.006836354 0.003136627 -0.000869099 -0.020968957 0.001695599 0.007735506 0.004150156 0.005481002 0.007342863 -0.006946376 0.009797146 0.008400934 0.003725570 -0.019255817 -0.005842982 -0.000265258 -0.013727038 0.009237629 -0.018210893 -0.004027056 -0.009585940 0.002351009 -0.004046742 -0.007132055 0.001551292 -0.005611397 0.014398276 0.011583992 0.001680162 -0.000175404 -0.008785378 0.014373914 -0.007008886 -0.001678228 -0.006326290 0.005612271 -0.008226261 0.001496898 -0.002503228 0.003349914 0.005478240 -0.003365146 -0.001282502 -0.004739548 0.005979444 0.006088790 -0.002697255 0.009936297 -0.009735765 0.007236504 0.000928767 0.003673257 -0.002637657 0.002600053 0.001525224 -0.002386488 0.004514192 -0.002735416 -0.004647998 -0.003774669 -0.009605758 -0.002974938 0.003856873 -0.009333516 0.262301356 0.056066666 -0.096445978 0.025252223 0.052492097 0.013584274 -0.015720148 -0.003342795 0.033892091 -0.043910477 -0.018603835 -0.035588469 -0.026586879 0.026297906 0.013604214 -0.020331543 0.003953040 0.028775271 -0.002099092 -0.003388207 -0.012231556 0.006062298 0.013933093 -0.000540621 -0.006791595 -0.007749064 0.004237512 -0.005803273 0.019145792 -0.014188366 0.012634680 0.019524047 -0.017412608 0.014754030 0.002829912 -0.005114374 -0.006836354 0.003136627 -0.000869099 -0.020968957 0.001695599 0.007735506 0.004150156 0.005481002 0.007342863 -0.006946376 0.009797146 0.008400934 0.003725570 -0.019255817 -0.005842982 -0.000265258 -0.013727038 0.009237629 -0.018210893 -0.004027056 -0.009585940 0.002351009 -0.004046742 -0.007132055 0.001551292 -0.005611397 0.014398276 0.011583992 0.001680162 -0.000175404 -0.008785378 0.014373914 -0.007008886 -0.001678228 -0.006326290 0.005612271 -0.008226261 0.001496898 -0.002503228 0.003349914 0.005478240 -0.003365146 -0.001282502 -0.004739548 0.005979444 0.006088790 -0.002697255 0.009936297 -0.009735765 0.007236504 0.000928767 0.003673257 -0.002637657 0.002600053 0.001525224 -0.002386488 0.004514192 -0.002735416 -0.004647998 -0.003774669 -0.009605758 -0.002974938 0.003856873
ami -0.006929870 0.238209710 0.051292796 -0.115595289 0.018518958 0.058184505 0.028986929 -0.012483098 0.006507619 0.034432013 -0.048626278 -0.027403636 -0.039313402 -0.015364109 0.020050300 0.002271179 -0.017270828 0.004749411 0.017507477 -0.017463714 -0.009643354 -0.027560249 -0.000420609 -0.000723875 0.001330286 -0.012305185 -0.008710684 0.000504149 -0.001027196 0.032853987 -0.004613976 0.009194496 0.004445411 -0.020732120 0.011577593 0.003422417 -0.004701765 -0.000875999 0.005306915 0.005091082 -0.011940065 -0.017607976 -0.004700826 -0.002921336 -0.002551210 0.001519794 0.002674965 0.015585354 0.005212732 -0.001843416 -0.017220341 -0.005242710 0.006933997 -0.001765482 0.002296638 -0.015758317 -0.002072598 -0.011966746 0.002573878 -0.004867158 -0.014613453 -0.005603482 0.004999456 0.001474462 0.007622723 -0.006093684 0.008509910 -0.015507940 -0.001207369 -0.000574729 0.011544404 -0.014243267 0.007748826 -0.008804210 0.001565831 0.001274650 0.009952222 0.007597988 0.004826370 0.001083976 -0.001629103 0.017644087 0.006716968 0.005270067 0.010857299 -0.001735854 0.010828707 -0.009037310 -0.004250010 -0.009491514 -0.004242369 0.003221925 -0.001433770 0.001953166 -0.005373696 -0.005992615 -0.013759012 -0.012475202 -0.003220799 -0.000924683 -0.006929870 0.238209710 0.051292796 -0.115595289 0.018518958 0.058184505 0.028986929 -0.012483098 0.006507619 0.034432013 -0.048626278 -0.027403636 -0.039313402 -0.015364109 0.020050300 0.002271179 -0.017270828 0.004749411 0.017507477 -0.017463714 -0.009643354 -0.027560249 -0.000420609 -0.000723875 0.001330286 -0.012305185 -0.008710684 0.000504149 -0.001027196 0.032853987 -0.004613976 0.009194496 0.004445411 -0.020732120 0.011577593 0.003422417 -0.004701765 -0.000875999 0.005306915 0.005091082 -0.011940065 -0.017607976 -0.004700826 -0.002921336 -0.002551210 0.001519794 0.002674965 0.015585354 0.005212732 -0.001843416 -0.017220341 -0.005242710 0.006933997 -0.001765482 0.002296638 -0.015758317 -0.002072598 -0.011966746 0.002573878 -0.004867158 -0.014613453 -0.005603482 0.004999456 0.001474462 0.007622723 -0.006093684 0.008509910 -0.015507940 -0.001207369 -0.000574729 0.011544404 -0.014243267 0.007748826 -0.008804210 0.001565831 0.001274650 0.009952222 0.007597988 0.004826370 0.001083976 -0.001629103 0.017644087 0.006716968 0.005270067 0.010857299 -0.001735854 0.010828707 -0.009037310 -0.004250010 -0.009491514 -0.004242369 0.003221925 -0.001433770 0.001953166 -0.005373696 -0.005992615 -0.013759012 -0.012475202 -0.003220799 -0.000924683
ang -0.039812408 0.231988043 0.054165050 -0.059246235 0.001376663 0.026848404 0.005967539 -0.015286163 0.008568277 0.020339124 -0.024358936 0.002845178 -0.015736328 -0.000700913 0.023151979 -0.010620178 -0.000837608 0.023061266 0.006663170 0.004631271 -0.000795620 -0.007340359 0.008524030 -0.004629732 0.017739611 0.012310783 -0.001303791 0.009914914 0.010080608 -0.005704968 -0.015347683 0.014303329 0.013326668 -0.009160009 0.006744430 -0.000562473 -0.011800196 0.003597286 0.009229748 0.001105507 -0.004481921 0.007561013 0.004210952 0.018740682 0.008173981 -0.002553029 -0.000397425 0.012360387 0.003489485 0.001858123 -0.011142484 -0.005970322 0.001614407 0.000067128 0.001261322 -0.005454767 -0.003979184 -0.005449646 -0.001740744 -0.001630265 -0.010379499 0.002772244 -0.005705189 0.012937848 0.010501500 -0.004160421 -0.004015528 -0.010722038 0.006253724 0.000339114 0.009533503 -0.000702577 0.006781181 -0.001818204 0.002838078 0.004501105 0.007117476 -0.013966647 0.002972976 -0.001378226 -0.010741423 -0.003207710 0.002467328 -0.000991808 -0.000977340 -0.002838038 0.013184579 0.000594486 -0.000548299 0.002509495 -0.003773970 0.000397649 0.007359945 -0.007658598 0.002083556 -0.005553824 -0.000127209 0.001696338 0.001737161 0.000158810 -0.039812408 0.231988043 0.054165050 -0.059246235 0.001376663 0.026848404 0.005967539 -0.015286163 0.008568277 0.020339124 -0.024358936 0.002845178 -0.015736328 -0.000700913 0.023151979 -0.010620178 -0.000837608 0.023061266 0.006663170 0.004631271 -0.000795620 -0.007340359 0.008524030 -0.004629732 0.017739611 0.012310783 -0.001303791 0.009914914 0.010080608 -0.005704968 -0.015347683 0.014303329 0.013326668 -0.009160009 0.006744430 -0.000562473 -0.011800196 0.003597286 0.009229748 0.001105507 -0.004481921 0.007561013 0.004210952 0.018740682 0.008173981 -0.002553029 -0.000397425 0.012360387 0.003489485 0.001858123 -0.011142484 -0.005970322 0.001614407 0.000067128 0.001261322 -0.005454767 -0.003979184 -0.005449646 -0.001740744 -0.001630265 -0.010379499 0.002772244 -0.005705189 0.012937848 0.010501500 -0.004160421 -0.004015528 -0.010722038 0.006253724 0.000339114 0.009533503 -0.000702577 0.006781181 -0.001818204 0.002838078 0.004501105 0.007117476 -0.013966647 0.002972976 -0.001378226 -0.010741423 -0.003207710 0.002467328 -0.000991808 -0.000977340 -0.002838038 0.013184579 0.000594486 -0.000548299 0.002509495 -0.003773970 0.000397649 0.007359945 -0.007658598 0.002083556 -0.005553824 -0.000127209 0.001696338 0.001737161 0.000158810
ani -0.006895855 0.236858219 0.048700649 -0.115567222 0.021185808 0.060567092 0.026057236 -0.013825515 0.004290752 0.036297627 -0.050357327 -0.026631622 -0.039733957 -0.016847994 0.021802170 0.000888566 -0.016187765 0.004579296 0.016416073 -0.018097360 -0.011126420 -0.027729319 -0.000404897 -0.001550974 0.000295253 -0.013349595 -0.007652089 -0.003381851 0.000346681 0.032550719 -0.006839791 0.004863002 0.005162383 -0.020364409 0.010232320 0.002394964 -0.006553040 -0.004546585 0.007552914 0.008807372 -0.010437602 -0.018185437 -0.005425588 0.001023127 -0.002397917 -0.000664951 -0.000718795 0.013400009 0.003744225 -0.001422960 -0.014837040 -0.005403251 0.005805515 -0.003730749 0.002484850 -0.017423809 -0.001834229 -0.011605309 0.007018811 -0.005252417 -0.016999703 -0.005393563 0.000509028 0.002761385 0.010413859 -0.004289864 0.009007044 -0.017158879 -0.000392767 0.000928839 0.010624359 -0.015246745 0.010483986 -0.008912857 0.000827089 0.001357547 0.007748594 0.006974262 0.005243642 0.004205083 -0.001084078 0.015954157 0.009514808 0.004082962 0.011546075 -0.001462534 0.010459794 -0.008882053 -0.003984631 -0.007460385 -0.006622462 0.004521868 -0.001354169 0.004315106 -0.004961148 -0.007090166 -0.012194059 -0.011289497 -0.002884431 -0.001025850 -0.006895855 0.236858219 0.048700649 -0.115567222 0.021185808 0.060567092 0.026057236 -0.013825515 0.004290752 0.036297627 -0.050357327 -0.026631622 -0.039733957 -0.016847994 0.021802170 0.000888566 -0.016187765 0.004579296 0.016416073 -0.018097360 -0.011126420 -0.027729319 -0.000404897 -0.001550974 0.000295253 -0.013349595 -0.007652089 -0.003381851 0.000346681 0.032550719 -0.006839791 0.004863002 0.005162383 -0.020364409 0.010232320 0.002394964 -0.006553040 -0.004546585 0.007552914 0.008807372 -0.010437602 -0.018185437 -0.005425588 0.001023127 -0.002397917 -0.000664951 -0.000718795 0.013400009 0.003744225 -0.001422960 -0.014837040 -0.005403251 0.005805515 -0.003730749 0.002484850 -0.017423809 -0.001834229 -0.011605309 0.007018811 -0.005252417 -0.016999703 -0.005393563 0.000509028 0.002761385 0.010413859 -0.004289864 0.009007044 -0.017158879 -0.000392767 0.000928839 0.010624359 -0.015246745 0.010483986 -0.008912857 0.000827089 0.001357547 0.007748594 0.006974262 0.005243642 0.004205083 -0.001084078 0.015954157 0.009514808 0.004082962 0.011546075 -0.001462534 0.010459794 -0.008882053 -0.003984631 -0.007460385 -0.006622462 0.004521868 -0.001354169 0.004315106 -0.004961148 -0.007090166 -0.012194059 -0.011289497 -0.002884431 -0.001025850
aoz -0.006895855 0.236858219 0.048700649 -0.115567222 0.021185808 0.060567092 0.026057236 -0.013825515 0.004290752 0.036297627 -0.050357327 -0.026631622 -0.039733957 -0.016847994 0.021802170 0.000888566 -0.016187765 0.004579296 0.016416073 -0.018097360 -0.011126420 -0.027729319 -0.000404897 -0.001550974 0.000295253 -0.013349595 -0.007652089 -0.003381851 0.000346681 0.032550719 -0.006839791 0.004863002 0.005162383 -0.020364409 0.010232320 0.002394964 -0.006553040 -0.004546585 0.007552914 0.008807372 -0.010437602 -0.018185437 -0.005425588 0.001023127 -0.002397917 -0.000664951 -0.000718795 0.013400009 0.003744225 -0.001422960 -0.014837040 -0.005403251 0.005805515 -0.003730749 0.002484850 -0.017423809 -0.001834229 -0.011605309 0.007018811 -0.005252417 -0.016999703 -0.005393563 0.000509028 0.002761385 0.010413859 -0.004289864 0.009007044 -0.017158879 -0.000392767 0.000928839 0.010624359 -0.015246745 0.010483986 -0.008912857 0.000827089 0.001357547 0.007748594 0.006974262 0.005243642 0.004205083 -0.001084078 0.015954157 0.009514808 0.004082962 0.011546075 -0.001462534 0.010459794 -0.008882053 -0.003984631 -0.007460385 -0.006622462 0.004521868 -0.001354169 0.004315106 -0.004961148 -0.007090166 -0.012194059 -0.011289497 -0.002884431 -0.001025850 -0.006895855 0.236858219 0.048700649 -0.115567222 0.021185808 0.060567092 0.026057236 -0.013825515 0.004290752 0.036297627 -0.050357327 -0.026631622 -0.039733957 -0.016847994 0.021802170 0.000888566 -0.016187765 0.004579296 0.016416073 -0.018097360 -0.011126420 -0.027729319 -0.000404897 -0.001550974 0.000295253 -0.013349595 -0.007652089 -0.003381851 0.000346681 0.032550719 -0.006839791 0.004863002 0.005162383 -0.020364409 0.010232320 0.002394964 -0.006553040 -0.004546585 0.007552914 0.008807372 -0.010437602 -0.018185437 -0.005425588 0.001023127 -0.002397917 -0.000664951 -0.000718795 0.013400009 0.003744225 -0.001422960 -0.014837040 -0.005403251 0.005805515 -0.003730749 0.002484850 -0.017423809 -0.001834229 -0.011605309 0.007018811 -0.005252417 -0.016999703 -0.005393563 0.000509028 0.002761385 0.010413859 -0.004289864 0.009007044 -0.017158879 -0.000392767 0.000928839 0.010624359 -0.015246745 0.010483986 -0.008912857 0.000827089 0.001357547 0.007748594 0.006974262 0.005243642 0.004205083 -0.001084078 0.015954157 0.009514808 0.004082962 0.011546075 -0.001462534 0.010459794 -0.008882053 -0.003984631 -0.007460385 -0.006622462 0.004521868 -0.001354169 0.004315106 -0.004961148 -0.007090166 -0.012194059 -0.011289497 -0.002884431 -0.001025850
apc -0.006895855 0.236858219 0.048700649 -0.115567222 0.021185808 0.060567092 0.026057236 -0.013825515 0.004290752 0.036297627 -0.050357327 -0.026631622 -0.039733957 -0.016847994 0.021802170 0.000888566 -0.016187765 0.004579296 0.016416073 -0.018097360 -0.011126420 -0.027729319 -0.000404897 -0.001550974 0.000295253 -0.013349595 -0.007652089 -0.003381851 0.000346681 0.032550719 -0.006839791 0.004863002 0.005162383 -0.020364409 0.010232320 0.002394964 -0.006553040 -0.004546585 0.007552914 0.008807372 -0.010437602 -0.018185437 -0.005425588 0.001023127 -0.002397917 -0.000664951 -0.000718795 0.013400009 0.003744225 -0.001422960 -0.014837040 -0.005403251 0.005805515 -0.003730749 0.002484850 -0.017423809 -0.001834229 -0.011605309 0.007018811 -0.005252417 -0.016999703 -0.005393563 0.000509028 0.002761385 0.010413859 -0.004289864 0.009007044 -0.017158879 -0.000392767 0.000928839 0.010624359 -0.015246745 0.010483986 -0.008912857 0.000827089 0.001357547 0.007748594 0.006974262 0.005243642 0.004205083 -0.001084078 0.015954157 0.009514808 0.004082962 0.011546075 -0.001462534 0.010459794 -0.008882053 -0.003984631 -0.007460385 -0.006622462 0.004521868 -0.001354169 0.004315106 -0.004961148 -0.007090166 -0.012194059 -0.011289497 -0.002884431 -0.001025850 -0.006895855 0.236858219 0.048700649 -0.115567222 0.021185808 0.060567092 0.026057236 -0.013825515 0.004290752 0.036297627 -0.050357327 -0.026631622 -0.039733957 -0.016847994 0.021802170 0.000888566 -0.016187765 0.004579296 0.016416073 -0.018097360 -0.011126420 -0.027729319 -0.000404897 -0.001550974 0.000295253 -0.013349595 -0.007652089 -0.003381851 0.000346681 0.032550719 -0.006839791 0.004863002 0.005162383 -0.020364409 0.010232320 0.002394964 -0.006553040 -0.004546585 0.007552914 0.008807372 -0.010437602 -0.018185437 -0.005425588 0.001023127 -0.002397917 -0.000664951 -0.000718795 0.013400009 0.003744225 -0.001422960 -0.014837040 -0.005403251 0.005805515 -0.003730749 0.002484850 -0.017423809 -0.001834229 -0.011605309 0.007018811 -0.005252417 -0.016999703 -0.005393563 0.000509028 0.002761385 0.010413859 -0.004289864 0.009007044 -0.017158879 -0.000392767 0.000928839 0.010624359 -0.015246745 0.010483986 -0.008912857 0.000827089 0.001357547 0.007748594 0.006974262 0.005243642 0.004205083 -0.001084078 0.015954157 0.009514808 0.004082962 0.011546075 -0.001462534 0.010459794 -0.008882053 -0.003984631 -0.007460385 -0.006622462 0.004521868 -0.001354169 0.004315106 -0.004961148 -0.007090166 -0.012194059 -0.011289497 -0.002884431 -0.001025850
apw -0.011427431 0.238348439 0.054399729 -0.107875302 0.024807768 0.053123973 0.023523618 -0.007902282 0.014593272 0.032625593 -0.050869834 -0.019975567 -0.043378104 -0.018320389 0.020420920 0.003498940 -0.017958183 0.000191281 0.016814351 -0.016233718 -0.011212631 -0.025094470 -0.002935756 -0.005851894 -0.005180066 -0.014681710 -0.011062352 -0.005161902 0.000806451 0.028968379 -0.004274519 0.006569003 0.004756121 -0.022398256 0.010847228 0.002095067 -0.006686544 -0.002587490 0.011193696 0.012589219 -0.009625195 -0.017492490 -0.003760101 0.001985847 -0.004253893 -0.001149647 -0.000955712 0.014686432 0.005950684 -0.001949310 -0.017257705 -0.006068451 0.005631069 -0.000793017 0.003239235 -0.014327980 -0.006034941 -0.011385912 0.004342639 -0.006366718 -0.017752616 -0.006585479 -0.000217374 0.005074948 0.007511214 -0.006320253 0.007437654 -0.020980597 -0.000613703 -0.000002614 0.007834930 -0.013551955 0.005000100 -0.007992329 0.001364140 0.003115139 0.005758639 0.009200393 0.002855402 0.002739853 -0.000932303 0.014201348 0.006279484 0.001767318 0.007943767 -0.003185956 0.010022891 -0.008251797 -0.000860784 -0.006603531 -0.003261494 0.003663807 -0.000431402 0.004455123 -0.005750178 -0.007631201 -0.011430024 -0.009825172 -0.002287137 -0.000857872 -0.011427431 0.238348439 0.054399729 -0.107875302 0.024807768 0.053123973 0.023523618 -0.007902282 0.014593272 0.032625593 -0.050869834 -0.019975567 -0.043378104 -0.018320389 0.020420920 0.003498940 -0.017958183 0.000191281 0.016814351 -0.016233718 -0.011212631 -0.025094470 -0.002935756 -0.005851894 -0.005180066 -0.014681710 -0.011062352 -0.005161902 0.000806451 0.028968379 -0.004274519 0.006569003 0.004756121 -0.022398256 0.010847228 0.002095067 -0.006686544 -0.002587490 0.011193696 0.012589219 -0.009625195 -0.017492490 -0.003760101 0.001985847 -0.004253893 -0.001149647 -0.000955712 0.014686432 0.005950684 -0.001949310 -0.017257705 -0.006068451 0.005631069 -0.000793017 0.003239235 -0.014327980 -0.006034941 -0.011385912 0.004342639 -0.006366718 -0.017752616 -0.006585479 -0.000217374 0.005074948 0.007511214 -0.006320253 0.007437654 -0.020980597 -0.000613703 -0.000002614 0.007834930 -0.013551955 0.005000100 -0.007992329 0.001364140 0.003115139 0.005758639 0.009200393 0.002855402 0.002739853 -0.000932303 0.014201348 0.006279484 0.001767318 0.007943767 -0.003185956 0.010022891 -0.008251797 -0.000860784 -0.006603531 -0.003261494 0.003663807 -0.000431402 0.004455123 -0.005750178 -0.007631201 -0.011430024 -0.009825172 -0.002287137 -0.000857872
aqc -0.006895855 0.236858219 0.048700649 -0.115567222 0.021185808 0.060567092 0.026057236 -0.013825515 0.004290752 0.036297627 -0.050357327 -0.026631622 -0.039733957 -0.016847994 0.021802170 0.000888566 -0.016187765 0.004579296 0.016416073 -0.018097360 -0.011126420 -0.027729319 -0.000404897 -0.001550974 0.000295253 -0.013349595 -0.007652089 -0.003381851 0.000346681 0.032550719 -0.006839791 0.004863002 0.005162383 -0.020364409 0.010232320 0.002394964 -0.006553040 -0.004546585 0.007552914 0.008807372 -0.010437602 -0.018185437 -0.005425588 0.001023127 -0.002397917 -0.000664951 -0.000718795 0.013400009 0.003744225 -0.001422960 -0.014837040 -0.005403251 0.005805515 -0.003730749 0.002484850 -0.017423809 -0.001834229 -0.011605309 0.007018811 -0.005252417 -0.016999703 -0.005393563 0.000509028 0.002761385 0.010413859 -0.004289864 0.009007044 -0.017158879 -0.000392767 0.000928839 0.010624359 -0.015246745 0.010483986 -0.008912857 0.000827089 0.001357547 0.007748594 0.006974262 0.005243642 0.004205083 -0.001084078 0.015954157 0.009514808 0.004082962 0.011546075 -0.001462534 0.010459794 -0.008882053 -0.003984631 -0.007460385 -0.006622462 0.004521868 -0.001354169 0.004315106 -0.004961148 -0.007090166 -0.012194059 -0.011289497 -0.002884431 -0.001025850 -0.006895855 0.236858219 0.048700649 -0.115567222 0.021185808 0.060567092 0.026057236 -0.013825515 0.004290752 0.036297627 -0.050357327 -0.026631622 -0.039733957 -0.016847994 0.021802170 0.000888566 -0.016187765 0.004579296 0.016416073 -0.018097360 -0.011126420 -0.027729319 -0.000404897 -0.001550974 0.000295253 -0.013349595 -0.007652089 -0.003381851 0.000346681 0.032550719 -0.006839791 0.004863002 0.005162383 -0.020364409 0.010232320 0.002394964 -0.006553040 -0.004546585 0.007552914 0.008807372 -0.010437602 -0.018185437 -0.005425588 0.001023127 -0.002397917 -0.000664951 -0.000718795 0.013400009 0.003744225 -0.001422960 -0.014837040 -0.005403251 0.005805515 -0.003730749 0.002484850 -0.017423809 -0.001834229 -0.011605309 0.007018811 -0.005252417 -0.016999703 -0.005393563 0.000509028 0.002761385 0.010413859 -0.004289864 0.009007044 -0.017158879 -0.000392767 0.000928839 0.010624359 -0.015246745 0.010483986 -0.008912857 0.000827089 0.001357547 0.007748594 0.006974262 0.005243642 0.004205083 -0.001084078 0.015954157 0.009514808 0.004082962 0.011546075 -0.001462534 0.010459794 -0.008882053 -0.003984631 -0.007460385 -0.006622462 0.004521868 -0.001354169 0.004315106 -0.004961148 -0.007090166 -0.012194059 -0.011289497 -0.002884431 -0.001025850
ara -0.216003031 0.105436645 0.004106261 0.020166744 -0.078616574 -0.016197631 -0.019230327 0.001816616 -0.023393432 -0.007104672 -0.018709682 0.010496944 -0.009378099 0.001327839 -0.006532902 -0.013248501 0.003550422 0.006507569 0.011395756 0.003085064 0.003673907 -0.003609054 0.003183167 0.005549972 0.000946046 0.003009574 0.001984359 0.003056221 0.000163596 0.000283371 -0.000013078 -0.011669947 0.004593382 0.005680220 -0.004821863 0.008689932 -0.007180826 -0.005638970 0.001228692 0.001580255 -0.000774855 0.003490638 -0.002165884 -0.002967309 0.001127135 0.010320372 0.001249630 0.000226812 -0.002925318 -0.001130093 -0.005019504 -0.006553674 0.002291976 0.010478074 0.009947789 -0.007058277 -0.001775468 0.003555955 -0.000442205 -0.008334246 0.002095961 -0.008267960 0.003967891 0.002240840 -0.003441894 -0.003075748 -0.005355976 0.001370240 -0.006480107 0.004735333 -0.008846939 0.009133000 0.007668143 -0.003699196 0.000277531 -0.000531517 0.001252852 -0.015111296 -0.007751026 0.004246354 -0.017050426 -0.002093593 -0.007726820 0.006825550 0.003276312 0.004450530 0.013043783 -0.005416080 -0.014207921 0.008241181 -0.010584189 -0.007226551 -0.002638323 -0.010654717 0.008546160 -0.002001418 0.009919892 0.009378095 0.000762476 -0.000002857 -0.216003031 0.105436645 0.004106261 0.020166744 -0.078616574 -0.016197631 -0.019230327 0.001816616 -0.023393432 -0.007104672 -0.018709682 0.010496944 -0.009378099 0.001327839 -0.006532902 -0.013248501 0.003550422 0.006507569 0.011395756 0.003085064 0.003673907 -0.003609054 0.003183167 0.005549972 0.000946046 0.003009574 0.001984359 0.003056221 0.000163596 0.000283371 -0.000013078 -0.011669947 0.004593382 0.005680220 -0.004821863 0.008689932 -0.007180826 -0.005638970 0.001228692 0.001580255 -0.000774855 0.003490638 -0.002165884 -0.002967309 0.001127135 0.010320372 0.001249630 0.000226812 -0.002925318 -0.001130093 -0.005019504 -0.006553674 0.002291976 0.010478074 0.009947789 -0.007058277 -0.001775468 0.003555955 -0.000442205 -0.008334246 0.002095961 -0.008267960 0.003967891 0.002240840 -0.003441894 -0.003075748 -0.005355976 0.001370240 -0.006480107 0.004735333 -0.008846939 0.009133000 0.007668143 -0.003699196 0.000277531 -0.000531517 0.001252852 -0.015111296 -0.007751026 0.004246354 -0.017050426 -0.002093593 -0.007726820 0.006825550 0.003276312 0.004450530 0.013043783 -0.005416080 -0.014207921 0.008241181 -0.010584189 -0.007226551 -0.002638323 -0.010654717 0.008546160 -0.002001418 0.009919892 0.009378095 0.000762476 -0.000002857
arc -0.008357078 0.244944081 0.049619887 -0.110302545 0.018102512 0.048234582 0.012016435 -0.015371018 0.006468288 0.030302392 -0.038205758 -0.009806795 -0.036770221 -0.022977132 0.020395080 0.008817226 -0.020122318 0.007335714 0.030063465 -0.005925409 -0.008656949 -0.011890592 0.004476806 -0.006186532 0.001882061 -0.008354119 -0.005741950 -0.006631501 0.003448546 0.011235928 -0.009062276 0.005266670 0.015976073 -0.024042750 0.012240375 0.000809602 -0.000219578 -0.000873706 0.007735133 0.007236701 -0.009792719 -0.014275868 0.006044436 0.008175001 0.008132052 -0.004666100 -0.005112911 0.011252578 0.004103103 -0.000929180 -0.021469278 -0.006907396 -0.002268406 -0.008777143 0.005291822 -0.014958715 -0.006763475 -0.005303241 0.001672754 -0.005215186 -0.019311693 -0.002148715 0.001443026 0.006173791 0.018119389 0.000168152 0.004843876 -0.015194912 0.003954062 -0.002013911 0.000778896 -0.016859064 0.011654493 -0.010779441 -0.002982187 0.003084065 0.000951805 0.004521973 0.003290564 0.002019290 -0.010310411 0.008846465 0.010332238 -0.001848757 0.008149156 -0.000720170 0.010512768 -0.007469114 0.002287738 -0.002275539 -0.006835824 0.003268360 -0.002063465 0.001662808 -0.007817531 -0.003169704 -0.013145177 -0.011283752 -0.001979815 0.004123647 -0.008357078 0.244944081 0.049619887 -0.110302545 0.018102512 0.048234582 0.012016435 -0.015371018 0.006468288 0.030302392 -0.038205758 -0.009806795 -0.036770221 -0.022977132 0.020395080 0.008817226 -0.020122318 0.007335714 0.030063465 -0.005925409 -0.008656949 -0.011890592 0.004476806 -0.006186532 0.001882061 -0.008354119 -0.005741950 -0.006631501 0.003448546 0.011235928 -0.009062276 0.005266670 0.015976073 -0.024042750 0.012240375 0.000809602 -0.000219578 -0.000873706 0.007735133 0.007236701 -0.009792719 -0.014275868 0.006044436 0.008175001 0.008132052 -0.004666100 -0.005112911 0.011252578 0.004103103 -0.000929180 -0.021469278 -0.006907396 -0.002268406 -0.008777143 0.005291822 -0.014958715 -0.006763475 -0.005303241 0.001672754 -0.005215186 -0.019311693 -0.002148715 0.001443026 0.006173791 0.018119389 0.000168152 0.004843876 -0.015194912 0.003954062 -0.002013911 0.000778896 -0.016859064 0.011654493 -0.010779441 -0.002982187 0.003084065 0.000951805 0.004521973 0.003290564 0.002019290 -0.010310411 0.008846465 0.010332238 -0.001848757 0.008149156 -0.000720170 0.010512768 -0.007469114 0.002287738 -0.002275539 -0.006835824 0.003268360 -0.002063465 0.001662808 -0.007817531 -0.003169704 -0.013145177 -0.011283752 -0.001979815 0.004123647
arg -0.010368195 0.278139621 0.065363623 -0.104924642 0.029800957 0.042860571 0.002028149 -0.004254889 -0.001391025 0.033377167 -0.046711877 -0.021938989 -0.029744122 -0.026186667 0.016606739 0.000855978 -0.015504356 0.014480930 0.022625078 0.005356140 -0.011705689 -0.009426680 0.006857837 0.004564655 -0.000504468 0.000594787 0.002195265 0.000486240 0.003258863 0.012730173 -0.007380865 0.009872728 0.024463262 -0.014782948 0.012345830 0.001111089 -0.008364093 -0.006645727 0.010815748 -0.000485295 -0.013971268 0.001185507 0.003140611 0.009360505 0.008727443 -0.003767708 -0.010310529 0.007505543 -0.002250617 0.001025737 -0.009121533 -0.008413584 -0.006911898 -0.001078961 0.001866234 -0.007182986 -0.004981778 -0.007946986 -0.002971012 -0.001751272 -0.008375443 0.002773027 -0.007381973 0.004207081 0.007210110 0.000122001 -0.006638213 -0.009530087 0.008144666 -0.006883840 0.000607766 -0.004270755 0.011916463 -0.006580567 0.007021943 -0.005515146 0.003114157 0.000442094 -0.002826982 0.003910114 -0.008815574 0.003605075 0.004101081 -0.003982130 0.009751203 -0.011087526 0.004453219 -0.006059434 -0.000896054 -0.005013092 0.004488744 -0.002785322 0.000515288 0.002000629 0.003817067 -0.007304976 -0.002482665 -0.010361045 -0.003742257 -0.001159033 -0.010368195 0.278139621 0.065363623 -0.104924642 0.029800957 0.042860571 0.002028149 -0.004254889 -0.001391025 0.033377167 -0.046711877 -0.021938989 -0.029744122 -0.026186667 0.016606739 0.000855978 -0.015504356 0.014480930 0.022625078 0.005356140 -0.011705689 -0.009426680 0.006857837 0.004564655 -0.000504468 0.000594787 0.002195265 0.000486240 0.003258863 0.012730173 -0.007380865 0.009872728 0.024463262 -0.014782948 0.012345830 0.001111089 -0.008364093 -0.006645727 0.010815748 -0.000485295 -0.013971268 0.001185507 0.003140611 0.009360505 0.008727443 -0.003767708 -0.010310529 0.007505543 -0.002250617 0.001025737 -0.009121533 -0.008413584 -0.006911898 -0.001078961 0.001866234 -0.007182986 -0.004981778 -0.007946986 -0.002971012 -0.001751272 -0.008375443 0.002773027 -0.007381973 0.004207081 0.007210110 0.000122001 -0.006638213 -0.009530087 0.008144666 -0.006883840 0.000607766 -0.004270755 0.011916463 -0.006580567 0.007021943 -0.005515146 0.003114157 0.000442094 -0.002826982 0.003910114 -0.008815574 0.003605075 0.004101081 -0.003982130 0.009751203 -0.011087526 0.004453219 -0.006059434 -0.000896054 -0.005013092 0.004488744 -0.002785322 0.000515288 0.002000629 0.003817067 -0.007304976 -0.002482665 -0.010361045 -0.003742257 -0.001159033
arn -0.006863437 0.237395987 0.048420094 -0.118090890 0.021181887 0.060556419 0.025068175 -0.012781852 0.003157673 0.036353599 -0.049506024 -0.024617178 -0.038527556 -0.016688708 0.021964977 0.000316805 -0.016367830 0.005596229 0.016375227 -0.016818659 -0.011572341 -0.027472317 -0.000701520 -0.000769453 0.000264644 -0.013710469 -0.009034541 -0.003038702 0.000744898 0.031638354 -0.006704773 0.005347162 0.005280436 -0.019739738 0.009639178 0.002096678 -0.005529412 -0.005044056 0.007482789 0.008095351 -0.010511879 -0.017926272 -0.005277003 0.000720997 -0.001428427 -0.002486659 -0.000441089 0.013779562 0.002475807 -0.002053743 -0.015194952 -0.005664471 0.005705767 -0.003673865 0.002053134 -0.017189899 -0.002303745 -0.012229149 0.005907957 -0.005485097 -0.017354496 -0.005634655 -0.000172061 0.003988305 0.011238944 -0.004964258 0.007992164 -0.017019896 -0.000066249 0.000639230 0.010089516 -0.015047724 0.011734045 -0.009472005 0.001612926 0.001289663 0.007449289 0.007454157 0.004644162 0.003917773 -0.001507303 0.015257388 0.009598383 0.004960905 0.012523746 -0.001277809 0.011356213 -0.009707114 -0.004356814 -0.008368880 -0.007091958 0.004745016 -0.002182089 0.003617473 -0.004991421 -0.007357273 -0.012006174 -0.010388596 -0.002730381 -0.000995209 -0.006863437 0.237395987 0.048420094 -0.118090890 0.021181887 0.060556419 0.025068175 -0.012781852 0.003157673 0.036353599 -0.049506024 -0.024617178 -0.038527556 -0.016688708 0.021964977 0.000316805 -0.016367830 0.005596229 0.016375227 -0.016818659 -0.011572341 -0.027472317 -0.000701520 -0.000769453 0.000264644 -0.013710469 -0.009034541 -0.003038702 0.000744898 0.031638354 -0.006704773 0.005347162 0.005280436 -0.019739738 0.009639178 0.002096678 -0.005529412 -0.005044056 0.007482789 0.008095351 -0.010511879 -0.017926272 -0.005277003 0.000720997 -0.001428427 -0.002486659 -0.000441089 0.013779562 0.002475807 -0.002053743 -0.015194952 -0.005664471 0.005705767 -0.003673865 0.002053134 -0.017189899 -0.002303745 -0.012229149 0.005907957 -0.005485097 -0.017354496 -0.005634655 -0.000172061 0.003988305 0.011238944 -0.004964258 0.007992164 -0.017019896 -0.000066249 0.000639230 0.010089516 -0.015047724 0.011734045 -0.009472005 0.001612926 0.001289663 0.007449289 0.007454157 0.004644162 0.003917773 -0.001507303 0.015257388 0.009598383 0.004960905 0.012523746 -0.001277809 0.011356213 -0.009707114 -0.004356814 -0.008368880 -0.007091958 0.004745016 -0.002182089 0.003617473 -0.004991421 -0.007357273 -0.012006174 -0.010388596 -0.002730381 -0.000995209
ary -0.007578587 0.245773718 0.053175461 -0.121768951 0.019717559 0.060083143 0.023953332 -0.011804916 0.000917659 0.036505140 -0.049602740 -0.023930620 -0.037347980 -0.021100067 0.023436656 0.001941931 -0.017008342 -0.000310917 0.018640069 -0.013758619 -0.010570480 -0.027347775 0.005693984 0.000172229 -0.002139552 -0.015201285 -0.006867925 -0.003629755 -0.002330531 0.031509321 -0.004973300 0.004743528 0.004744701 -0.022979075 0.011310571 0.001121589 -0.004186616 -0.002304245 0.006743928 0.010517485 -0.015186870 -0.012006824 -0.003449449 -0.000319946 0.000185733 -0.000757859 -0.000393281 0.013374041 0.008273343 -0.001484022 -0.012822305 -0.004580438 0.006991995 -0.002282431 0.002527601 -0.015663994 -0.004360464 -0.012419045 0.004327675 -0.004489037 -0.015483406 -0.006553657 0.002742152 0.006089635 0.007525269 -0.001840273 0.007354947 -0.017786417 0.001510838 0.001527449 0.005243987 -0.013706282 0.010418032 -0.005724226 0.001326744 0.003002081 0.006738178 0.006864854 0.004938615 0.001751627 -0.001219952 0.013286176 0.007936989 0.000462160 0.011977903 -0.001117082 0.010918269 -0.007803444 -0.002865421 -0.006219909 -0.003931073 0.004274545 -0.000235000 0.006096594 -0.006287557 -0.007160550 -0.009654427 -0.009184509 -0.002780754 0.002152096 -0.007578587 0.245773718 0.053175461 -0.121768951 0.019717559 0.060083143 0.023953332 -0.011804916 0.000917659 0.036505140 -0.049602740 -0.023930620 -0.037347980 -0.021100067 0.023436656 0.001941931 -0.017008342 -0.000310917 0.018640069 -0.013758619 -0.010570480 -0.027347775 0.005693984 0.000172229 -0.002139552 -0.015201285 -0.006867925 -0.003629755 -0.002330531 0.031509321 -0.004973300 0.004743528 0.004744701 -0.022979075 0.011310571 0.001121589 -0.004186616 -0.002304245 0.006743928 0.010517485 -0.015186870 -0.012006824 -0.003449449 -0.000319946 0.000185733 -0.000757859 -0.000393281 0.013374041 0.008273343 -0.001484022 -0.012822305 -0.004580438 0.006991995 -0.002282431 0.002527601 -0.015663994 -0.004360464 -0.012419045 0.004327675 -0.004489037 -0.015483406 -0.006553657 0.002742152 0.006089635 0.007525269 -0.001840273 0.007354947 -0.017786417 0.001510838 0.001527449 0.005243987 -0.013706282 0.010418032 -0.005724226 0.001326744 0.003002081 0.006738178 0.006864854 0.004938615 0.001751627 -0.001219952 0.013286176 0.007936989 0.000462160 0.011977903 -0.001117082 0.010918269 -0.007803444 -0.002865421 -0.006219909 -0.003931073 0.004274545 -0.000235000 0.006096594 -0.006287557 -0.007160550 -0.009654427 -0.009184509 -0.002780754 0.002152096
arz -0.019009352 0.246410176 0.049286939 -0.076529451 0.014891479 0.054712798 0.000755425 -0.022751192 0.005951598 0.031049885 -0.035164621 -0.004920787 -0.024188936 -0.027153118 0.027431129 -0.008222674 -0.006995090 0.014611182 0.021164222 -0.004355773 -0.014539161 -0.019500000 0.006537314 0.001214103 0.005150595 -0.011436477 -0.005803002 0.001103325 0.010442424 0.011137404 -0.008155034 0.003986227 0.001432738 -0.007880515 0.003753985 0.003812730 -0.002451401 -0.003866721 0.001971235 0.009807014 -0.001849691 -0.007326171 -0.001520543 0.004067320 -0.002826070 0.000583848 0.002082834 0.011229271 0.007919691 0.000650541 -0.007587128 -0.003414959 0.005031046 -0.000978605 0.000688954 -0.014325080 0.001557881 -0.003694654 0.009080567 0.005134318 -0.011068054 -0.002663220 -0.002771226 0.008902251 0.007746487 -0.003307277 0.000782441 -0.009142229 0.005089457 0.001224406 0.004365332 -0.009635346 0.011552953 -0.001954164 0.004081209 -0.000219930 0.007139417 0.000783564 -0.000403249 0.007173833 -0.003646349 0.008667766 0.002175555 0.000401404 0.010017605 0.001869556 0.000451398 -0.000618368 0.002556273 0.002257430 0.001270010 -0.001725948 0.002083028 0.001693149 -0.000320098 -0.000841772 -0.005698933 -0.006609869 -0.003215740 -0.002034450 -0.019009352 0.246410176 0.049286939 -0.076529451 0.014891479 0.054712798 0.000755425 -0.022751192 0.005951598 0.031049885 -0.035164621 -0.004920787 -0.024188936 -0.027153118 0.027431129 -0.008222674 -0.006995090 0.014611182 0.021164222 -0.004355773 -0.014539161 -0.019500000 0.006537314 0.001214103 0.005150595 -0.011436477 -0.005803002 0.001103325 0.010442424 0.011137404 -0.008155034 0.003986227 0.001432738 -0.007880515 0.003753985 0.003812730 -0.002451401 -0.003866721 0.001971235 0.009807014 -0.001849691 -0.007326171 -0.001520543 0.004067320 -0.002826070 0.000583848 0.002082834 0.011229271 0.007919691 0.000650541 -0.007587128 -0.003414959 0.005031046 -0.000978605 0.000688954 -0.014325080 0.001557881 -0.003694654 0.009080567 0.005134318 -0.011068054 -0.002663220 -0.002771226 0.008902251 0.007746487 -0.003307277 0.000782441 -0.009142229 0.005089457 0.001224406 0.004365332 -0.009635346 0.011552953 -0.001954164 0.004081209 -0.000219930 0.007139417 0.000783564 -0.000403249 0.007173833 -0.003646349 0.008667766 0.002175555 0.000401404 0.010017605 0.001869556 0.000451398 -0.000618368 0.002556273 0.002257430 0.001270010 -0.001725948 0.002083028 0.001693149 -0.000320098 -0.000841772 -0.005698933 -0.006609869 -0.003215740 -0.002034450
asm -0.014411193 0.256211907 0.061036829 -0.103205681 0.014575614 0.044748507 0.018424381 -0.005879775 0.001118684 0.036204677 -0.042783268 -0.015389296 -0.029455425 -0.018985456 0.020973247 0.000710155 -0.007923554 0.011491235 0.024289619 -0.006355631 -0.011285680 -0.011560705 0.003727042 -0.001329491 -0.006414891 0.003799736 -0.005449272 0.010238921 0.002254134 0.014477113 -0.009671460 0.012915324 0.011018180 -0.012143519 0.013592403 -0.005322126 -0.000896008 0.003223744 0.008530857 0.003097397 -0.012597152 -0.002096827 0.000420834 -0.001697679 0.006454080 -0.000090577 -0.008127588 0.013617473 0.000014291 -0.001326088 -0.015724966 -0.006608081 -0.001130134 -0.001159128 0.006003512 -0.004817258 0.000483252 -0.013772839 -0.007670464 -0.004754306 -0.011467511 -0.007023931 0.005097178 0.001697171 0.009579095 -0.004195272 -0.000136406 -0.017330855 0.007492407 -0.009758092 0.004109724 -0.012085687 0.008069247 -0.003861804 0.010839688 0.001328702 -0.000643809 0.000390209 -0.003617660 0.006682168 -0.007724528 0.004212476 0.006366555 0.002786886 0.014384025 -0.010504399 0.007478093 -0.007834016 0.000436150 -0.000678476 0.000614167 0.003624379 0.004229101 -0.002077886 -0.000550399 -0.009789329 -0.007802265 -0.012019568 0.000450747 0.000972510 -0.014411193 0.256211907 0.061036829 -0.103205681 0.014575614 0.044748507 0.018424381 -0.005879775 0.001118684 0.036204677 -0.042783268 -0.015389296 -0.029455425 -0.018985456 0.020973247 0.000710155 -0.007923554 0.011491235 0.024289619 -0.006355631 -0.011285680 -0.011560705 0.003727042 -0.001329491 -0.006414891 0.003799736 -0.005449272 0.010238921 0.002254134 0.014477113 -0.009671460 0.012915324 0.011018180 -0.012143519 0.013592403 -0.005322126 -0.000896008 0.003223744 0.008530857 0.003097397 -0.012597152 -0.002096827 0.000420834 -0.001697679 0.006454080 -0.000090577 -0.008127588 0.013617473 0.000014291 -0.001326088 -0.015724966 -0.006608081 -0.001130134 -0.001159128 0.006003512 -0.004817258 0.000483252 -0.013772839 -0.007670464 -0.004754306 -0.011467511 -0.007023931 0.005097178 0.001697171 0.009579095 -0.004195272 -0.000136406 -0.017330855 0.007492407 -0.009758092 0.004109724 -0.012085687 0.008069247 -0.003861804 0.010839688 0.001328702 -0.000643809 0.000390209 -0.003617660 0.006682168 -0.007724528 0.004212476 0.006366555 0.002786886 0.014384025 -0.010504399 0.007478093 -0.007834016 0.000436150 -0.000678476 0.000614167 0.003624379 0.004229101 -0.002077886 -0.000550399 -0.009789329 -0.007802265 -0.012019568 0.000450747 0.000972510
ast -0.016018402 0.258999109 0.057966072 -0.056980167 0.024861405 0.036963210 -0.002402872 -0.010893335 -0.004167417 0.018349240 -0.025781456 -0.005351453 -0.015406607 -0.013662789 0.023614321 -0.001280816 -0.007432774 0.007704372 0.008291554 0.011159435 -0.008884026 -0.001016235 0.005719657 0.006037611 0.000608389 0.001267147 0.001377318 0.000360934 -0.004548026 0.008456709 -0.004866691 0.009356963 0.018055497 -0.008816705 0.007830261 -0.005208682 0.002453570 0.003656869 0.005278928 -0.001705203 -0.015394729 0.004496667 0.009257112 -0.000659742 0.011452115 0.001773128 -0.005971153 0.005456042 0.000541756 -0.000882149 -0.006718574 -0.003305469 -0.000453694 -0.000180921 0.002091511 0.002872944 -0.006881660 -0.005130257 -0.007938373 -0.004883846 -0.004146859 0.004688788 -0.002724560 0.000529966 0.001158348 0.001195929 -0.008746318 -0.003728461 0.008513156 -0.005922030 -0.004144206 -0.003365342 0.002261519 -0.007243796 0.001823829 -0.003979674 0.009075087 -0.003016506 -0.001213258 -0.000353496 -0.006215852 -0.001048681 0.001831484 -0.003848840 0.005940077 -0.007355752 0.003117709 0.000242707 0.005085893 0.005862311 0.006738465 -0.003275508 0.007108699 -0.001548289 -0.001066594 -0.005788567 -0.000579405 -0.004956875 -0.005017567 0.002129853 -0.016018402 0.258999109 0.057966072 -0.056980167 0.024861405 0.036963210 -0.002402872 -0.010893335 -0.004167417 0.018349240 -0.025781456 -0.005351453 -0.015406607 -0.013662789 0.023614321 -0.001280816 -0.007432774 0.007704372 0.008291554 0.011159435 -0.008884026 -0.001016235 0.005719657 0.006037611 0.000608389 0.001267147 0.001377318 0.000360934 -0.004548026 0.008456709 -0.004866691 0.009356963 0.018055497 -0.008816705 0.007830261 -0.005208682 0.002453570 0.003656869 0.005278928 -0.001705203 -0.015394729 0.004496667 0.009257112 -0.000659742 0.011452115 0.001773128 -0.005971153 0.005456042 0.000541756 -0.000882149 -0.006718574 -0.003305469 -0.000453694 -0.000180921 0.002091511 0.002872944 -0.006881660 -0.005130257 -0.007938373 -0.004883846 -0.004146859 0.004688788 -0.002724560 0.000529966 0.001158348 0.001195929 -0.008746318 -0.003728461 0.008513156 -0.005922030 -0.004144206 -0.003365342 0.002261519 -0.007243796 0.001823829 -0.003979674 0.009075087 -0.003016506 -0.001213258 -0.000353496 -0.006215852 -0.001048681 0.001831484 -0.003848840 0.005940077 -0.007355752 0.003117709 0.000242707 0.005085893 0.005862311 0.006738465 -0.003275508 0.007108699 -0.001548289 -0.001066594 -0.005788567 -0.000579405 -0.004956875 -0.005017567 0.002129853
atj -0.006895855 0.236858219 0.048700649 -0.115567222 0.021185808 0.060567092 0.026057236 -0.013825515 0.004290752 0.036297627 -0.050357327 -0.026631622 -0.039733957 -0.016847994 0.021802170 0.000888566 -0.016187765 0.004579296 0.016416073 -0.018097360 -0.011126420 -0.027729319 -0.000404897 -0.001550974 0.000295253 -0.013349595 -0.007652089 -0.003381851 0.000346681 0.032550719 -0.006839791 0.004863002 0.005162383 -0.020364409 0.010232320 0.002394964 -0.006553040 -0.004546585 0.007552914 0.008807372 -0.010437602 -0.018185437 -0.005425588 0.001023127 -0.002397917 -0.000664951 -0.000718795 0.013400009 0.003744225 -0.001422960 -0.014837040 -0.005403251 0.005805515 -0.003730749 0.002484850 -0.017423809 -0.001834229 -0.011605309 0.007018811 -0.005252417 -0.016999703 -0.005393563 0.000509028 0.002761385 0.010413859 -0.004289864 0.009007044 -0.017158879 -0.000392767 0.000928839 0.010624359 -0.015246745 0.010483986 -0.008912857 0.000827089 0.001357547 0.007748594 0.006974262 0.005243642 0.004205083 -0.001084078 0.015954157 0.009514808 0.004082962 0.011546075 -0.001462534 0.010459794 -0.008882053 -0.003984631 -0.007460385 -0.006622462 0.004521868 -0.001354169 0.004315106 -0.004961148 -0.007090166 -0.012194059 -0.011289497 -0.002884431 -0.001025850 -0.006895855 0.236858219 0.048700649 -0.115567222 0.021185808 0.060567092 0.026057236 -0.013825515 0.004290752 0.036297627 -0.050357327 -0.026631622 -0.039733957 -0.016847994 0.021802170 0.000888566 -0.016187765 0.004579296 0.016416073 -0.018097360 -0.011126420 -0.027729319 -0.000404897 -0.001550974 0.000295253 -0.013349595 -0.007652089 -0.003381851 0.000346681 0.032550719 -0.006839791 0.004863002 0.005162383 -0.020364409 0.010232320 0.002394964 -0.006553040 -0.004546585 0.007552914 0.008807372 -0.010437602 -0.018185437 -0.005425588 0.001023127 -0.002397917 -0.000664951 -0.000718795 0.013400009 0.003744225 -0.001422960 -0.014837040 -0.005403251 0.005805515 -0.003730749 0.002484850 -0.017423809 -0.001834229 -0.011605309 0.007018811 -0.005252417 -0.016999703 -0.005393563 0.000509028 0.002761385 0.010413859 -0.004289864 0.009007044 -0.017158879 -0.000392767 0.000928839 0.010624359 -0.015246745 0.010483986 -0.008912857 0.000827089 0.001357547 0.007748594 0.006974262 0.005243642 0.004205083 -0.001084078 0.015954157 0.009514808 0.004082962 0.011546075 -0.001462534 0.010459794 -0.008882053 -0.003984631 -0.007460385 -0.006622462 0.004521868 -0.001354169 0.004315106 -0.004961148 -0.007090166 -0.012194059 -0.011289497 -0.002884431 -0.001025850
ava -0.007941048 0.250296801 0.047202438 -0.111470625 0.025442384 0.052446071 0.021068925 -0.008213839 0.002782519 0.036047749 -0.051144756 -0.024799036 -0.035462685 -0.022950131 0.023987275 0.006657348 -0.016724437 0.001402853 0.019763261 -0.009926499 -0.010088089 -0.024002383 0.002097723 -0.001065811 -0.004433197 -0.007806097 -0.007120551 -0.008488019 -0.002273526 0.025007321 -0.002663017 0.002454712 0.008148669 -0.020646280 0.009264824 0.003560871 -0.010777445 -0.004049449 0.006102415 0.010192457 -0.007311119 -0.011767029 -0.005551298 0.001267969 -0.000402971 -0.000480037 -0.001913807 0.009977418 0.003155754 0.002287528 -0.016060455 -0.004150809 0.003913478 -0.002733730 0.005705164 -0.014343425 -0.001409339 -0.010252088 0.003683689 -0.005233790 -0.010643173 -0.007500892 0.000321200 0.003451372 0.008212463 -0.004722653 0.003939364 -0.015763888 0.002110833 0.001313552 0.012223205 -0.016535873 0.009809514 -0.004627421 0.003075254 0.005614761 0.007993069 0.003571421 0.004556185 0.005884728 0.000067449 0.014588098 0.005757393 0.006232373 0.012745276 -0.002711879 0.009491351 -0.007886785 -0.003645096 -0.005482737 -0.007345146 0.004648360 -0.001257102 0.005732823 -0.004606132 -0.008477002 -0.009528659 -0.011015240 -0.002487348 -0.000122630 -0.007941048 0.250296801 0.047202438 -0.111470625 0.025442384 0.052446071 0.021068925 -0.008213839 0.002782519 0.036047749 -0.051144756 -0.024799036 -0.035462685 -0.022950131 0.023987275 0.006657348 -0.016724437 0.001402853 0.019763261 -0.009926499 -0.010088089 -0.024002383 0.002097723 -0.001065811 -0.004433197 -0.007806097 -0.007120551 -0.008488019 -0.002273526 0.025007321 -0.002663017 0.002454712 0.008148669 -0.020646280 0.009264824 0.003560871 -0.010777445 -0.004049449 0.006102415 0.010192457 -0.007311119 -0.011767029 -0.005551298 0.001267969 -0.000402971 -0.000480037 -0.001913807 0.009977418 0.003155754 0.002287528 -0.016060455 -0.004150809 0.003913478 -0.002733730 0.005705164 -0.014343425 -0.001409339 -0.010252088 0.003683689 -0.005233790 -0.010643173 -0.007500892 0.000321200 0.003451372 0.008212463 -0.004722653 0.003939364 -0.015763888 0.002110833 0.001313552 0.012223205 -0.016535873 0.009809514 -0.004627421 0.003075254 0.005614761 0.007993069 0.003571421 0.004556185 0.005884728 0.000067449 0.014588098 0.005757393 0.006232373 0.012745276 -0.002711879 0.009491351 -0.007886785 -0.003645096 -0.005482737 -0.007345146 0.004648360 -0.001257102 0.005732823 -0.004606132 -0.008477002 -0.009528659 -0.011015240 -0.002487348 -0.000122630
ave -0.006895855 0.236858219 0.048700649 -0.115567222 0.021185808 0.060567092 0.026057236 -0.013825515 0.004290752 0.036297627 -0.050357327 -0.026631622 -0.039733957 -0.016847994 0.021802170 0.000888566 -0.016187765 0.004579296 0.016416073 -0.018097360 -0.011126420 -0.027729319 -0.000404897 -0.001550974 0.000295253 -0.013349595 -0.007652089 -0.003381851 0.000346681 0.032550719 -0.006839791 0.004863002 0.005162383 -0.020364409 0.010232320 0.002394964 -0.006553040 -0.004546585 0.007552914 0.008807372 -0.010437602 -0.018185437 -0.005425588 0.001023127 -0.002397917 -0.000664951 -0.000718795 0.013400009 0.003744225 -0.001422960 -0.014837040 -0.005403251 0.005805515 -0.003730749 0.002484850 -0.017423809 -0.001834229 -0.011605309 0.007018811 -0.005252417 -0.016999703 -0.005393563 0.000509028 0.002761385 0.010413859 -0.004289864 0.009007044 -0.017158879 -0.000392767 0.000928839 0.010624359 -0.015246745 0.010483986 -0.008912857 0.000827089 0.001357547 0.007748594 0.006974262 0.005243642 0.004205083 -0.001084078 0.015954157 0.009514808 0.004082962 0.011546075 -0.001462534 0.010459794 -0.008882053 -0.003984631 -0.007460385 -0.006622462 0.004521868 -0.001354169 0.004315106 -0.004961148 -0.007090166 -0.012194059 -0.011289497 -0.002884431 -0.001025850 -0.006895855 0.236858219 0.048700649 -0.115567222 0.021185808 0.060567092 0.026057236 -0.013825515 0.004290752 0.036297627 -0.050357327 -0.026631622 -0.039733957 -0.016847994 0.021802170 0.000888566 -0.016187765 0.004579296 0.016416073 -0.018097360 -0.011126420 -0.027729319 -0.000404897 -0.001550974 0.000295253 -0.013349595 -0.007652089 -0.003381851 0.000346681 0.032550719 -0.006839791 0.004863002 0.005162383 -0.020364409 0.010232320 0.002394964 -0.006553040 -0.004546585 0.007552914 0.008807372 -0.010437602 -0.018185437 -0.005425588 0.001023127 -0.002397917 -0.000664951 -0.000718795 0.013400009 0.003744225 -0.001422960 -0.014837040 -0.005403251 0.005805515 -0.003730749 0.002484850 -0.017423809 -0.001834229 -0.011605309 0.007018811 -0.005252417 -0.016999703 -0.005393563 0.000509028 0.002761385 0.010413859 -0.004289864 0.009007044 -0.017158879 -0.000392767 0.000928839 0.010624359 -0.015246745 0.010483986 -0.008912857 0.000827089 0.001357547 0.007748594 0.006974262 0.005243642 0.004205083 -0.001084078 0.015954157 0.009514808 0.004082962 0.011546075 -0.001462534 0.010459794 -0.008882053 -0.003984631 -0.007460385 -0.006622462 0.004521868 -0.001354169 0.004315106 -0.004961148 -0.007090166 -0.012194059 -0.011289497 -0.002884431 -0.001025850
axm -0.006872516 0.237345502 0.048508592 -0.115252666 0.020835439 0.061554074 0.027480338 -0.014495265 0.005354809 0.035565853 -0.049434885 -0.026982965 -0.039646756 -0.014540460 0.022605021 0.000651764 -0.014765274 0.006806079 0.018147979 -0.019608218 -0.011505307 -0.028001789 0.000267327 -0.003772553 -0.000482417 -0.012563741 -0.006988605 -0.004547514 0.000097508 0.033321779 -0.006703185 0.004800479 0.005214285 -0.020779293 0.010474974 0.003078919 -0.005989326 -0.005461184 0.006750717 0.008466961 -0.011420079 -0.017945526 -0.005681492 0.000116697 -0.002615161 -0.000259263 -0.001133429 0.013523205 0.003831497 -0.001310074 -0.014044804 -0.003825605 0.006192038 -0.004156974 0.002316233 -0.017397361 -0.001112631 -0.011987209 0.007368090 -0.005041018 -0.016891075 -0.005133413 0.001056816 0.002136790 0.009945852 -0.004761247 0.009617281 -0.017578144 -0.000137005 0.001078163 0.011532446 -0.015702724 0.011189116 -0.009388789 0.001522500 0.001744620 0.008548297 0.006847052 0.005542153 0.004736620 -0.000728125 0.015872331 0.008730642 0.004228062 0.011272182 -0.001730671 0.009564432 -0.008610031 -0.004386016 -0.007489498 -0.006156384 0.004124077 -0.001399592 0.004401029 -0.004754101 -0.007128796 -0.012104853 -0.011328307 -0.002793537 -0.001097394 -0.006872516 0.237345502 0.048508592 -0.115252666 0.020835439 0.061554074 0.027480338 -0.014495265 0.005354809 0.035565853 -0.049434885 -0.026982965 -0.039646756 -0.014540460 0.022605021 0.000651764 -0.014765274 0.006806079 0.018147979 -0.019608218 -0.011505307 -0.028001789 0.000267327 -0.003772553 -0.000482417 -0.012563741 -0.006988605 -0.004547514 0.000097508 0.033321779 -0.006703185 0.004800479 0.005214285 -0.020779293 0.010474974 0.003078919 -0.005989326 -0.005461184 0.006750717 0.008466961 -0.011420079 -0.017945526 -0.005681492 0.000116697 -0.002615161 -0.000259263 -0.001133429 0.013523205 0.003831497 -0.001310074 -0.014044804 -0.003825605 0.006192038 -0.004156974 0.002316233 -0.017397361 -0.001112631 -0.011987209 0.007368090 -0.005041018 -0.016891075 -0.005133413 0.001056816 0.002136790 0.009945852 -0.004761247 0.009617281 -0.017578144 -0.000137005 0.001078163 0.011532446 -0.015702724 0.011189116 -0.009388789 0.001522500 0.001744620 0.008548297 0.006847052 0.005542153 0.004736620 -0.000728125 0.015872331 0.008730642 0.004228062 0.011272182 -0.001730671 0.009564432 -0.008610031 -0.004386016 -0.007489498 -0.006156384 0.004124077 -0.001399592 0.004401029 -0.004754101 -0.007128796 -0.012104853 -0.011328307 -0.002793537 -0.001097394
