1609 100
aac 0.419737697 1.146790385 0.459996909 1.006692648 0.724312723 0.879591584 0.362466455 0.371947289 0.938314199 0.970667422 0.510598421 0.458284140 0.775887311 0.624283731 0.353243560 -0.661982477 0.545849144 0.476843238 1.165407658 0.217246726 0.242251426 0.974311411 -0.056822460 0.564543128 0.892285824 0.418608963 -0.047776405 0.176836491 0.290552706 0.330110610 0.865784526 0.236898869 0.357432783 0.842664659 0.329208076 0.743194342 0.873565137 -0.244241580 0.114214458 0.225779608 0.579442084 0.940180719 -0.500320196 0.424807727 0.051229373 -0.399505317 0.617510855 0.959823072 0.266571790 0.166308329 0.267215341 0.892508566 1.202644348 0.420356631 0.774351180 0.498004258 -0.656624198 0.651711285 -0.077679694 0.726512074 -0.042584188 0.188943058 1.279028296 0.857550323 0.713594377 0.760516286 -0.651903093 1.064924359 0.087066740 -0.382921785 0.835419118 -0.425826281 0.437426001 0.692927718 1.036819339 0.989886224 0.829880178 -0.115763396 -0.232683241 0.478555173 -0.023095665 -0.567395687 0.620099306 -0.523815572 0.615388036 0.006316591 0.367783338 0.485479593 0.799260139 0.470077723 1.090961933 0.759975553 1.188201308 1.156065822 0.409625739 0.806887865 0.753333151 0.943701506 -0.463449091 0.149723172
aah 0.487734228 -0.562431097 -0.008547504 0.287042528 -0.375500470 -0.244211674 -0.287232876 -0.052075155 -0.551200330 0.680901945 0.539790154 0.359074324 1.071407080 1.247773886 -0.170837760 0.801115036 0.012899754 0.655261278 0.029469332 1.186129451 0.886300087 -0.346760303 0.424777776 0.552794218 0.828136563 0.492341816 1.355812192 1.079863787 0.213839248 -0.075110279 0.273403555 0.427648127 -0.551876426 0.211672679 -0.158167601 -0.287978619 0.423619896 -0.422675341 0.070042141 0.217241853 0.835438013 -0.238086194 -0.267788410 0.945218384 -0.387776524 -0.339886844 1.435934424 0.127071321 0.002133581 1.157249093 1.029953718 0.372136593 0.224766955 -0.533855617 0.851880312 0.604049623 0.858612180 -0.136627942 0.781394243 0.522680938 0.347730368 -0.259947270 0.271630585 0.696112335 -0.234835401 0.185374096 0.245258003 0.245756283 -0.558060944 0.284969568 0.627463818 -0.077537067 -0.543608904 0.675505877 0.739146292 0.561119497 0.146171451 0.912497759 -0.426654577 0.787033081 0.864658058 -0.171019718 -0.237699047 0.323406577 0.718662262 0.944211781 0.180554032 0.193444103 -0.036867119 -0.061461069 0.535853088 1.026663184 0.061382722 0.095895007 0.738876581 0.256740004 -1.134705663 1.163638115 1.225053906 -0.231252834
aak -0.175180212 -0.332282662 0.223338962 -0.137023181 -0.114310488 0.739761233 0.791870952 0.181221262 0.525112748 -0.282093078 0.456816137 0.730092585 -0.971204400 0.671590328 0.258389026 0.090315312 -0.078909382 -0.385172576 0.607834280 1.004074454 -0.098023169 -0.045559298 0.529322982 0.361610591 -1.013906598 1.002664208 -0.373418868 0.913715422 0.433196157 0.947841227 0.314761430 0.324036717 1.044045091 1.050148726 0.123422079 0.097568177 0.855696380 0.695139706 1.142505288 0.226756483 0.786795437 -0.116304345 0.129908308 0.402519166 0.558372557 1.286886811 0.568005979 0.438092679 0.306500614 -0.545442522 0.342693925 -0.503355920 -0.360623181 -0.169174448 1.103553295 1.136448026 0.673955739 -0.371376485 0.706592262 0.617003620 -0.539278090 0.710805595 0.748689413 0.919054270 0.648280263 1.128703833 0.969643176 0.897250295 0.394724399 0.775227010 -0.155762330 0.237994015 1.272432327 0.142280668 0.920367837 0.839918494 0.285513490 -0.334970564 -0.473631233 0.794644833 0.282659709 0.548337162 -0.680598676 0.833080471 0.097335227 1.064603209 0.552399874 0.817320824 0.738559544 0.759186685 0.375743240 -0.364179105 -0.393824875 0.488462090 0.907493174 1.002636790 1.158989668 0.845161676 -0.070972085 -0.698456705
aau 0.546027243 -0.130992383 -0.722614765 0.120907702 0.295102209 -0.793658316 0.245191038 0.354214102 0.982676864 0.221976101 0.365201622 0.381143868 -0.056275181 1.124207020 0.776227772 0.848116815 -0.698415339 0.368566036 0.355554789 0.727011859 0.572412491 1.207189083 -0.452182859 0.763795972 -0.152418390 1.225722671 -0.375935525 -0.642527163 0.689245582 0.659588337 0.127947584 1.186877251 0.688244283 0.466884881 0.442121893 0.500465393 0.712562323 0.879467607 0.277197897 0.663121104 0.626964271 0.417384148 -0.142226413 0.311218917 0.500119746 0.194802895 0.802546263 0.508671939 0.284995139 0.639261544 0.440919489 -0.224523321 -0.130644798 1.204159260 -0.507455885 -0.298368067 0.258602709 0.016826473 -0.361017942 0.563219130 0.412845105 -0.430972070 -0.459793866 0.435789526 0.800084770 0.745912194 0.470049441 0.378955364 -0.059496082 0.891113043 -0.868191540 0.722881913 0.561337829 -0.034097277 -0.030893654 0.201865435 0.832977116 -0.318372667 -0.106034324 -1.012196779 0.730482280 0.171608627 -0.746200383 0.436275035 0.581938922 1.183273554 0.611083865 0.472238511 -0.344061196 0.991458535 0.506563187 -0.020723116 0.110789470 0.885691762 0.333422154 0.566192448 0.930988491 -0.104402088 -0.534203351 0.956168175
aax 1.045734286 1.120870590 1.135546923 1.015301943 0.771660686 0.807845056 1.217713237 0.889731169 1.066273451 1.166696429 0.978791833 1.096084118 0.775887311 0.873569548 1.167933345 0.847893000 1.117084742 1.180317163 1.150577068 0.974773884 1.015594006 1.335891128 1.154743671 1.391830325 1.234221697 1.124255657 1.058883071 0.657145321 0.804642320 0.751878858 0.865784526 0.971856892 0.964729130 1.330601454 0.893789113 1.137478948 1.324926257 0.215527311 0.981930554 0.916302264 1.110396147 0.940180719 0.903577864 1.004935503 0.816868484 0.881313622 0.840846598 1.004058719 1.031674862 1.035624981 0.592760503 0.760097504 1.202644348 0.952229500 1.021237731 1.151423097 1.075242877 0.841809034 0.982406855 0.839738905 0.771869600 0.850593030 0.893506646 1.116783857 0.997626305 1.205267668 0.622347057 0.970847547 0.749326527 1.162299991 1.080325246 0.990490735 1.247248411 1.110583186 1.036819339 0.748179555 0.829880178 0.950038612 1.225400567 1.226933479 1.187221050 0.774009883 1.259371877 0.999453127 0.981820047 0.926486194 0.652228892 0.864697337 1.128375173 1.093234062 1.047986031 0.769866168 1.077302694 0.862686157 0.664668798 0.882549942 0.943735600 0.764245987 1.071800947 0.772909164
aaz 1.093780518 1.244328976 0.979440808 1.006692648 0.887903512 0.891531706 1.217713237 1.046434879 1.145179987 1.086911321 0.877925277 1.127894163 1.071407080 1.247773886 1.167933345 0.943317056 1.222189546 0.946560681 1.297979593 1.186129451 1.092848420 1.290607929 1.319836736 0.895113111 1.158430338 1.224954009 1.197875261 1.079863787 1.153744936 1.073455095 0.876765609 0.974153519 1.101260185 1.344113111 1.192327857 0.979795575 0.873565137 1.062258840 0.981930554 1.055459380 1.164781690 1.181381106 1.137344003 0.994579792 0.995927751 1.114728093 1.435934424 0.967771053 0.615694165 0.932768166 1.329870939 1.014079094 1.202644348 1.009121180 0.777368784 1.156947017 1.258358002 1.103423238 1.020584941 1.088201165 0.997293890 1.190212131 1.141698599 1.116783857 0.997626305 1.238460422 1.206839681 1.107061028 1.046313524 1.230285764 1.134256959 1.306322694 1.095888972 1.046358824 1.036819339 0.927686036 1.278841734 1.084790349 1.383567333 1.335328937 0.960260034 0.831705570 1.137290716 1.304274917 1.236912966 1.118606687 1.422602415 1.095596671 1.170824766 0.972659230 1.372726560 1.026663184 1.077302694 1.194471598 0.992369890 1.075903773 0.925930679 1.203866124 1.014329314 1.139219165
abk 1.209622383 1.244328976 1.109603763 1.296499133 1.105713844 1.269887090 1.217713237 1.083341599 1.298946381 1.200323105 1.215308189 1.339521527 1.198486209 1.329343796 1.271425128 1.047740936 1.292212367 1.097873330 1.253762841 1.004074454 1.092848420 1.335891128 1.318420887 1.269255996 1.123554826 1.305207372 1.355812192 1.117959857 1.156999588 1.117367625 1.075371742 1.199736953 1.464586496 1.253089786 1.110928059 1.210067511 1.161462784 1.301149845 1.191614747 1.173822045 1.357676268 1.285821676 1.171542645 1.131948233 1.188496232 1.286886811 1.283523560 1.266181111 1.235984445 1.376607418 1.329870939 1.118872762 1.181496263 1.269081116 1.103553295 1.348762512 1.258358002 1.362212539 1.317101240 1.371167183 1.031106710 1.115855694 1.199054480 1.171650767 1.292854667 1.247857451 1.206839681 1.269945741 1.381073952 1.211995125 1.116773605 1.137829304 1.272432327 1.149113894 1.044962645 1.164235115 1.251459837 1.196484208 1.360988259 1.260500908 1.262296438 1.134067655 1.133625507 1.304274917 1.183404446 1.170937181 1.140173435 1.370824814 1.209596753 1.238736987 1.372726560 1.238326192 1.234203815 1.156065822 1.163351178 1.193282843 1.311567426 1.203866124 1.272117615 1.189280033
abq 1.088741779 1.027476311 0.739075601 0.746154368 0.515633106 0.995486617 1.189045191 1.016035676 1.079496861 1.200323105 0.215642273 0.668934405 0.794825137 0.691065550 0.929730237 0.936283410 1.086352587 0.320283473 -0.188241184 0.150080323 0.410497218 0.550359428 1.213990927 0.460887283 0.940250218 0.636478126 0.509532452 0.888621986 0.811293781 0.356199682 0.634824216 0.726955295 1.023034215 1.072715402 0.965874374 0.849481225 0.494928718 0.906901836 0.666871607 1.171535134 0.525095522 0.211803555 0.744775891 1.205583453 0.607467532 0.864940822 0.878347397 0.741201699 0.672840655 1.026135325 0.925474524 0.869437993 0.834406614 0.823736191 0.371299386 0.229103744 0.612470269 0.920733869 1.039239645 0.794218004 0.710476220 0.912658572 1.317508936 1.119153976 0.632405937 0.976350248 0.594701588 0.688862622 0.802096665 0.803677082 0.942307413 0.508045793 0.466702431 0.726450622 0.180683389 0.232428640 0.415283293 1.022969246 0.395445913 0.873370886 0.549322009 0.502057672 0.634223044 0.644135654 0.802940011 1.094824076 0.878623009 1.165311456 1.145483255 1.238736987 0.367553443 0.653460801 0.672501624 -0.024024980 0.013501931 0.771274030 0.996355593 1.136171341 0.840252876 0.954237401
abt 0.224380761 1.146790385 -0.802569151 0.158860564 -0.046051979 -0.149996966 0.362466455 -0.222769603 0.938314199 0.970667422 0.395848542 0.150767908 -0.692048371 0.624283731 0.353243560 -0.661982477 0.545849144 0.476843238 1.165407658 0.217246726 0.161140144 0.274842173 -0.351686090 -0.386240751 -0.560665071 0.418608963 -0.167365119 -0.416136682 -0.212505475 0.330110610 -1.171393633 0.098803580 -0.524588704 0.318663865 0.122388698 0.450085282 -0.703747451 -0.517283380 -0.278637409 0.225779608 0.424275964 -0.446874142 -0.780084550 0.031729691 -0.724135637 -0.399505317 -0.044650819 0.869655907 0.266571790 -0.261565149 0.267215341 0.892508566 -0.016607465 0.420356631 0.417333841 0.498004258 -0.671031892 -0.512665212 -0.077679694 -0.692010522 -0.072683953 -0.661065817 1.279028296 -1.036903620 0.713594377 0.760516286 -0.681267738 1.064924359 -0.304296196 -0.480269223 0.835419118 -0.425826281 0.437426001 -1.158232689 -0.768711388 0.443361491 -0.500156164 -0.115763396 -0.232683241 0.410713583 -0.761434674 -0.636683404 0.513520598 -0.744539917 -0.238660336 -0.910941482 0.262430012 0.485479593 -0.272722006 -0.516731679 0.456391275 -0.421098322 1.188201308 -0.345434994 -0.651136756 0.474993974 0.753333151 0.311042428 -0.656992137 0.149723172
abw 1.028756857 0.699644268 0.828302920 0.905143976 0.298561394 0.852963507 0.457968205 0.429213107 0.227858290 1.062686324 0.846524477 1.200800300 0.970762014 0.691075265 0.285969257 0.944099724 0.919197857 1.416548610 0.611878812 0.866036654 0.831672728 0.834763169 0.332806647 1.144682884 1.201670766 0.532049477 0.757957220 0.675226748 0.920599639 -0.072235622 0.670021713 0.953518093 0.877502441 0.878588617 0.369539797 0.736155093 0.590863049 1.005807757 0.865477324 0.469966859 0.577776849 1.031014562 0.642478466 0.259496182 0.361111432 0.699356854 0.781013429 0.741296887 1.429282546 1.016085148 0.950177491 0.778785467 0.966300309 0.772364259 0.915582955 0.812917531 0.801408529 1.187739730 1.166145086 1.018413544 0.966432393 0.811356485 0.643585205 1.067605019 1.282636166 0.743286073 0.974664748 1.090768456 1.166261673 0.850426197 0.738577485 0.766484320 1.023532629 1.024255037 0.951939166 1.234611034 0.432593435 0.553365111 1.026357770 0.771150112 0.421811610 0.859250546 1.131952405 1.022929311 0.452953786 0.653994679 0.734391868 1.014469862 0.618804932 0.773607135 0.500543058 1.024823308 0.734265745 1.058398366 0.787196517 0.501696050 0.943719566 0.591556847 0.911170959 0.966584027
abz 1.033864856 1.282468796 1.172014356 1.006692648 0.941979110 1.267389774 1.006914377 1.064938426 1.166217923 1.213472724 1.153621435 1.286535859 1.211389780 0.818653405 1.123647094 1.047740936 1.222189546 1.084763646 1.020567656 1.121525526 1.023089051 1.311348915 1.319836736 1.391830325 1.224387765 1.091224790 1.197875261 1.020270824 1.194360495 1.082817912 1.035287499 1.257165074 1.125900269 1.344113111 1.197181106 1.047816038 1.328003168 1.144278765 1.317365885 1.085677147 1.138816118 1.181381106 1.260731697 1.152536750 1.060587883 1.132447362 1.155487895 1.246517062 1.235984445 1.167816877 1.051973462 1.193456292 1.300407052 1.321584344 1.093007922 1.156947017 1.009879231 1.202207446 1.501734257 1.055022120 0.997293890 1.114127517 1.166491985 0.989516139 1.208080530 1.238460422 0.976133645 0.963658392 1.116609454 0.958187401 1.134256959 1.031067610 1.146490097 1.189054370 1.057766557 1.262253404 1.278841734 1.186023951 1.140042663 1.335328937 1.252084017 1.020081401 1.043269396 1.191227317 1.077695608 1.097275972 1.094360709 1.365766287 1.170824766 1.109303832 1.496124268 1.233893991 1.061004162 1.423282743 1.020801783 1.152104735 1.207532048 1.135603786 1.095580578 1.056102514
aca 1.034037471 0.770564497 0.960720837 0.953987062 0.500151217 0.890498042 0.781877756 0.682850361 0.938621163 1.016337752 0.331271797 0.861417234 1.078484774 1.051568508 1.123647094 0.728058338 0.749879777 0.745966315 0.921488345 0.805087268 1.001688480 0.981581926 1.319836736 1.002781034 1.010815144 1.002664208 -0.012702550 0.913715422 1.003897667 0.947841227 0.651763260 1.258051276 0.964987397 1.225335956 1.197181106 0.716665506 1.328003168 0.695139706 1.142505288 1.085677147 1.057628036 1.237826824 0.769436181 0.987833083 0.927447319 0.838607430 1.005738378 1.246517062 0.930703461 1.104188681 0.865762174 1.147425771 0.919670999 0.627324939 0.796657324 1.156947017 0.852141738 0.890298307 0.991488397 0.908963919 1.243171811 0.710805595 0.867881238 1.166610956 1.057736516 0.825854242 0.969643176 0.803810775 0.953823507 0.786939263 0.715902150 0.577385485 0.806314349 0.958806634 0.920367837 1.213202000 1.209557295 0.652098060 0.759277046 0.519044995 1.113933206 0.406895131 1.047056913 0.952530026 0.949736834 1.064603209 1.041104794 1.365766287 1.033367872 0.948429763 1.240323782 0.870451331 0.491399080 1.115999818 0.725669444 0.776047230 0.752923429 0.845161676 0.657907248 0.875174105
acn 1.116609573 1.244328976 1.172551632 1.157471180 1.175451159 1.267389774 1.069098830 0.892375112 1.166217923 0.895951688 1.168478727 1.197777152 1.099801660 1.150747299 1.241481066 0.445877045 0.965452194 1.365020275 0.961680770 0.745286047 1.204810143 0.915018916 0.939713299 1.161813259 1.113220096 1.131779075 1.112660170 0.719302714 1.153744936 1.151447415 1.075371742 1.028924584 1.299631119 1.053467751 1.154110193 1.137478948 1.046363115 1.182641625 1.193948746 1.237897754 1.043713808 0.895949841 0.993121386 1.131948233 1.245519638 1.091174483 1.310968637 1.125633597 1.233867764 1.427514076 1.329870939 1.118872762 1.080521464 1.061370492 0.967308462 0.780828059 1.258358002 1.123335004 1.297858238 1.293428183 0.877040267 1.150896668 1.356639504 1.159569621 0.866174757 1.217143774 0.675138950 1.143191338 1.492645025 1.341285825 1.080325246 0.990490735 0.958939791 0.870184064 1.081085086 1.144182563 0.713140607 1.044981003 1.383567333 1.105360031 1.196609139 1.091553926 1.216260552 1.304274917 0.988329232 1.229964018 1.035933375 0.963802695 1.209596753 0.936647177 1.323844552 1.423029184 0.894296885 1.081963301 0.914795220 1.071451545 1.141329765 0.934677541 1.056812882 1.086097836
adg 0.748765767 0.856690764 1.272209525 0.752348185 0.704336941 0.932020724 0.923711240 0.709595025 1.207636833 0.613142848 0.873637855 1.041523695 1.031599998 0.654858947 1.167933345 0.516477823 0.715491295 1.394592404 0.780650854 0.219264463 0.801528037 0.852688015 0.560088396 0.751017094 0.909514964 0.911599457 0.888723075 0.153762802 0.960550249 0.419273585 1.056676149 1.040608883 1.043746948 -0.099496461 0.996492028 0.542128325 0.340804219 0.752990663 1.095261335 0.954764962 0.524609745 1.025976062 0.540865362 0.844365001 1.149734497 0.296508908 1.155487895 1.098616958 1.235984445 1.099028349 0.795792401 1.211196661 0.418162048 1.240024686 0.728505194 0.929260612 0.925005615 1.202207446 0.998687267 0.619770348 0.624906898 0.705272079 0.893506646 0.960753024 0.869946778 1.205267668 0.580341756 0.641165912 0.849285603 1.240891576 0.701189816 0.802014351 0.855975330 0.386327118 0.924310386 1.409628510 0.789777100 0.521801770 0.607055724 0.332321197 0.603273571 0.440328509 1.078225136 0.999453127 1.273992777 1.010622025 -0.058614220 0.878015816 0.434955806 0.823834360 1.170727730 0.750469983 0.973549724 0.995658755 0.668932736 0.882549942 0.789913952 0.810939670 0.352495790 -0.018582556
adn 1.167966723 1.061401963 1.172014356 1.006692648 0.951560080 1.267389774 1.112922788 1.212407231 1.166217923 1.213472724 1.259453773 1.041523695 1.099801660 1.182705164 1.011053324 0.990561247 1.222189546 1.315042138 1.297979593 1.121525526 1.123205304 1.170290828 1.319836736 1.190762639 1.158430338 0.940689623 1.207673669 1.020270824 1.194360495 1.003706932 1.035287499 1.273202419 1.100964427 1.225335956 1.242521048 1.235809803 0.973986864 1.144278765 1.317365885 1.229885221 1.060284257 1.181381106 1.005554438 0.943714082 1.201157689 1.114728093 1.310968637 1.312478065 1.235984445 1.099028349 1.049018741 1.014783263 1.300407052 1.240024686 1.193660498 1.156947017 0.988824904 1.202207446 1.501734257 1.055022120 0.997293890 1.114127517 0.943009317 1.049474478 1.061700344 1.238460422 0.826586664 1.211395264 1.492645025 0.958187401 1.134256959 1.031067610 1.173210621 0.958806634 1.096138358 1.236923575 1.278841734 1.116584301 1.567257047 1.335328937 1.137748480 0.920313656 1.016507268 1.191227317 1.140718699 0.961004198 1.094360709 1.076754570 1.170824766 1.242252827 1.240323782 1.233893991 1.061004162 1.200238228 1.020801783 1.152104735 1.141329765 1.157664895 1.014329314 1.213104486
adr 1.167966723 1.244328976 1.272209525 0.906808853 1.024111152 1.269887090 1.105334401 1.194214821 1.207636833 1.213472724 1.058392525 1.127894163 1.118132353 0.870557606 0.821288764 1.194534659 0.790134966 1.394592404 1.253762841 1.121525526 0.923814476 0.888061404 1.319836736 0.980584085 1.106571317 1.183304191 1.058883071 0.948996365 1.194360495 1.164101839 0.816033959 1.116117716 1.044045091 1.225335956 1.093800426 1.235809803 0.973986864 1.144278765 1.303303719 0.964775324 1.164781690 1.181381106 1.078403354 1.125314951 1.060587883 1.286886811 1.155487895 1.312478065 1.235984445 1.131129742 1.329870939 1.193456292 0.919670999 1.240024686 1.103553295 1.156947017 1.258358002 1.202207446 1.003834248 1.181012869 0.884134173 0.811356485 1.166491985 0.989516139 0.866174757 1.128703833 1.113203764 1.269945741 1.142326355 1.240891576 0.948938072 0.895176113 1.272432327 0.653553009 0.940586388 1.262253404 1.251459837 1.044981003 1.383567333 1.017214537 1.187120199 0.859250546 1.259371877 1.304274917 1.185629964 1.153440952 1.121296525 1.370824814 1.126094103 1.057160735 1.496124268 0.934034407 1.234203815 1.252404094 1.020801783 1.071451545 1.158989668 1.203866124 0.881038785 1.213104486
adt 0.345069885 0.435580909 0.665887058 0.479861110 0.551222265 -0.468511403 0.559972584 0.752231598 0.683149040 0.613142848 0.639141202 0.082840197 1.031599998 0.711267591 0.178107500 0.459270597 -0.172789097 0.692380130 0.542151093 0.180204049 0.656518102 0.531816840 -0.281616360 0.328798681 1.015193582 0.958596826 0.728233397 0.436684281 1.153744936 1.073455095 0.992700040 1.040608883 0.736183345 1.008613586 0.996492028 0.064373881 -0.824970603 1.182641625 0.724893451 0.209549919 0.899294078 1.025976062 0.350439101 -0.100635611 0.599655330 0.584164262 0.341513544 0.775840282 1.203969717 -0.242602602 1.178687215 0.347593158 -0.186169699 0.195067972 -0.132468581 0.610940933 0.035999332 0.234914213 1.297858238 1.088201165 0.771449983 0.633169770 1.141698599 0.946946919 0.739465952 0.602390885 -0.229362532 0.749320269 0.573607326 1.072390318 0.701189816 0.513804853 0.673278272 0.003252072 0.575085998 1.409628510 0.789777100 1.044981003 1.383567333 0.549408257 0.676806271 0.951159835 1.078225136 0.842915118 1.273992777 1.010622025 0.493209869 0.878015816 0.300368696 0.581338704 1.014628887 -0.442150742 0.973549724 0.930266500 0.914795220 1.071451545 0.789913952 -0.316757947 -0.460991889 -0.427985460
adw 1.034037471 0.856690764 1.272209525 0.953987062 0.758024156 1.017280459 0.706598878 0.776823521 1.207636833 1.166696429 0.978791833 0.910730600 0.684651136 0.757487357 0.951718926 0.615953386 0.749879777 1.394592404 0.831609905 1.042139173 0.946649313 0.961138904 0.892049730 1.045678258 0.852375329 0.911599457 0.930523515 0.780519605 0.763860404 1.082817912 0.710292697 1.258051276 0.932838380 0.841048181 1.208784819 0.778605819 0.648425281 0.682279348 1.121243477 0.954764962 1.057628036 0.819098830 1.238566756 0.851769090 1.004396319 0.754819810 0.929692507 0.749519169 0.330662966 0.486722887 1.124978304 0.778116584 0.861918509 1.018693686 0.574523091 0.511922717 0.925005615 0.980088651 0.982406855 0.619770348 0.588780105 0.925813377 0.808208287 1.473760605 0.804134130 1.013247609 0.488105416 1.028521538 0.721541762 1.240891576 0.715902150 0.927557826 1.139462113 0.902487040 0.924310386 0.727444351 0.621591270 0.684964478 0.519151211 0.922501624 1.005817413 0.953378379 0.720949531 0.952530026 0.675877988 0.260678768 0.917027056 0.697260559 0.839513063 1.099306464 1.170727730 0.750469983 0.767953813 0.856347322 0.855682671 0.849182904 0.792378187 0.810939670 1.071800947 0.878844142
ady 1.116609573 1.239407778 1.172551632 1.184782863 1.193260550 1.270545125 1.217713237 1.161592960 1.156311750 1.213472724 1.162220478 1.259515762 1.165368915 1.329343796 1.251517415 1.047740936 1.193714738 1.184697270 1.169453621 1.186129451 1.204810143 1.335891128 1.319836736 1.161813259 1.173975706 1.131779075 1.355812192 1.117959857 1.166116118 1.490406632 1.055099845 1.186877251 1.299631119 1.225335956 1.197181106 1.141825080 1.328003168 1.219183326 0.981930554 1.166249037 1.253764153 1.245099187 1.094177961 1.187574863 1.201157689 1.286886811 1.435934424 1.125633597 1.127347708 1.181334376 1.149404883 1.118872762 1.166427851 1.204159260 1.339494228 1.156947017 1.178514123 1.199405193 1.317101240 1.293428183 1.124533534 1.190212131 1.279028296 1.116783857 1.080033064 1.287922382 1.116278172 1.149693489 1.492645025 1.096935630 1.116773605 1.099781394 1.272432327 1.198603511 1.115494609 1.215105414 1.253420949 1.037399054 1.225400567 1.202119231 1.196609139 1.030854106 1.133090973 1.193684697 1.110470891 1.343875408 1.422602415 1.365766287 1.115448117 1.155376315 1.240323782 1.238326192 1.311964035 1.222635984 1.207460165 1.136362314 1.311567426 1.168438196 1.272117615 1.362756968
aew 0.419737697 0.734824181 0.837827444 1.006692648 0.724312723 0.305650055 0.550290406 0.371947289 1.066273451 0.781184852 0.873637855 1.149155855 0.870632529 0.674988270 1.167933345 0.554176152 0.213870972 0.855513334 0.771225572 0.292638719 0.545286536 0.974311411 0.695479274 0.704821348 0.909514964 0.515875995 0.905589402 0.432230592 0.497966498 0.871830404 0.865784526 0.526442409 0.688903749 0.202191710 0.473778844 0.306983739 0.873565137 0.834835589 0.496468157 0.287828028 0.524609745 0.940180719 0.540865362 0.424807727 0.831358969 0.503308833 0.617510855 0.959823072 0.060680304 0.450208515 0.004230491 1.129250646 1.202644348 0.654721677 0.717792392 0.971814334 1.225447416 0.327572286 0.421261489 0.726512074 0.624906898 0.850737870 1.005310297 0.960753024 0.943986952 1.205267668 0.918864906 0.948675334 1.023365974 0.684003055 0.620607018 0.802014351 0.645509720 0.692927718 1.036819339 0.465384543 0.829880178 0.824777484 -0.233152583 0.478555173 0.603273571 0.604381263 0.818933249 0.999453127 0.143892884 0.909681499 0.729101956 0.905454040 -0.260285467 1.000581980 0.318453968 1.088645935 0.782583594 0.603740752 0.434970737 1.013249636 0.669059575 1.066990972 0.759189308 0.794946015
aey 1.034037471 1.146790385 0.960720837 0.953987062 0.893906474 0.890498042 0.530400276 0.001094372 0.938314199 1.016337752 0.609535515 0.725127161 0.629559398 0.757487357 1.123647094 0.251301944 0.749879777 0.506778777 1.165407658 0.656351626 0.953194797 0.426230460 1.047310829 1.002781034 1.086032629 0.636886239 0.501915991 0.021195937 0.932196736 0.330110610 0.894807458 1.258051276 0.972773612 0.614234328 1.197181106 0.494696021 1.328003168 0.177313060 0.882233083 1.085677147 1.057628036 0.685316741 0.456528395 0.930207372 1.074512482 -0.029101802 0.657705843 1.125633597 0.930703461 0.486722887 0.447120547 1.118872762 0.578803122 0.492178500 0.773224235 0.498004258 0.655591547 0.890298307 0.600002825 1.293428183 -0.072683953 0.439370155 1.279028296 0.982232928 0.713594377 0.825854242 0.308385164 1.064924359 0.729946375 0.513650179 0.835419118 0.641970277 0.958939791 0.738083720 0.722996175 0.796537340 1.209557295 0.397159129 0.682329297 1.086521983 0.456094623 0.538405776 0.584126651 1.005731702 0.280984551 0.603338659 0.262430012 1.365766287 0.930543244 0.160651952 0.456391275 0.697429955 1.188201308 0.262105197 0.521466553 0.532782078 0.989003599 0.839765549 0.189539865 0.933478177
aez 0.487734228 0.823202133 0.566068769 0.906808853 0.149077907 0.028797617 -0.220776126 0.802022099 1.066273451 -0.225199908 0.873637855 -0.433500648 1.071407080 1.247773886 1.167933345 0.412304729 0.898979008 0.655261278 0.771225572 1.186129451 0.876152635 0.347549647 1.319836736 1.003776312 0.909514964 0.492341816 0.472308397 1.079863787 0.618934155 0.445482910 0.344885796 0.550345898 0.765371799 1.225335956 0.569746673 0.667099595 0.906624079 0.294352591 0.459690183 0.741721272 0.835438013 1.181381106 0.540865362 0.945218384 0.448144853 0.448216885 1.435934424 0.085186668 -0.295859963 -0.008959099 -0.017039644 0.372136593 0.919670999 0.486022711 0.755329728 1.156947017 0.637342930 0.327572286 0.781394243 0.345772654 0.624906898 -0.174356073 0.893506646 0.960753024 0.869946778 1.205267668 0.245258003 -0.320601553 0.471492648 0.684003055 0.627463818 0.802014351 -0.110384561 0.675505877 0.486076057 0.756176114 0.464717150 0.912497759 0.526464403 0.787033081 0.864658058 0.998094797 0.818933249 0.999453127 0.949736834 0.944211781 1.067820430 1.018345833 0.736051381 0.458173871 1.240323782 1.026663184 0.477008313 0.429513335 0.290905446 0.922955751 0.474377096 0.355009258 0.678066850 0.055930283
afp -0.621043682 0.449918866 0.444863439 0.372200996 -1.045934916 0.630819082 -0.061443910 0.749708116 0.561387300 0.966614068 0.864650249 -0.265047669 -0.738958061 -0.688574970 -0.666827679 -0.361589909 -0.264898926 -0.678426504 0.409165740 0.106194682 -0.104275763 0.412133992 -0.675671399 0.261887163 -0.121963784 0.097227134 -0.075714409 -0.753493488 -0.364397317 0.337093651 0.779210329 -0.904945076 0.825653553 0.101510674 -0.770977795 -0.202897087 0.517662704 -0.188925654 0.611358166 -0.416123807 0.956512630 0.949216425 0.092447869 0.444083661 0.296175063 0.374234110 -1.109691501 -0.414281309 -0.703469992 0.426939577 0.447436690 -0.893377244 -0.833568096 -0.534387887 0.560410440 -0.445462108 0.393425971 0.342071682 -0.544503093 0.264105141 0.706204116 0.613141298 0.609350622 0.626074553 0.517753124 -0.816817582 -0.007301046 0.300349295 0.780513227 -0.698679805 -1.132143974 -1.073770285 0.358576715 0.402303964 0.268598586 0.757223129 1.161518216 0.013274415 0.389052421 0.730001211 0.917527378 0.617530048 0.815203488 0.788179755 -0.358339578 0.004389538 1.109037280 -0.666832209 0.108129933 -0.361641526 -0.556917846 0.069402292 0.725290835 0.671988308 0.609199882 0.630181611 0.167509019 0.119156949 0.171500921 -0.579424143
afz 0.487994373 0.856690764 1.272209525 0.649935007 0.880522668 0.732628882 1.219967484 0.569137514 1.207636833 0.829182684 0.264210641 1.112913370 1.041981101 1.182705164 0.858497739 0.934781551 0.715491295 1.394592404 1.253762841 0.474742532 0.995470762 0.852688015 1.133620501 0.712549508 0.530881047 1.183304191 1.145315051 0.550958097 1.194360495 0.110469319 0.954840183 0.654161453 0.932838380 0.746105075 1.242521048 0.324939251 0.601458311 1.144278765 1.095261335 1.229885221 0.713107944 0.742794096 0.870521069 0.762854397 0.347654760 0.411125541 0.929692507 1.120140553 0.709490538 1.072607994 0.795792401 0.408837795 0.967752934 1.059382915 0.629251778 0.934103966 0.925005615 1.177317142 0.795664072 0.666872621 0.645714700 0.510295630 0.795527279 1.049474478 0.784578145 1.209669948 0.375033855 0.803985178 0.990586519 1.240891576 1.000806689 0.928292692 0.993977845 0.646979034 0.940586388 1.236923575 0.350064009 0.454221010 1.048475146 0.902948618 0.743823230 0.657176852 0.948179722 1.025090456 1.006485343 0.122007720 1.042278528 0.983950734 0.385545701 0.823834360 1.170727730 0.750469983 0.830777407 0.774355114 0.876796961 0.789956808 1.040562630 0.948261380 0.769100308 0.510731161
age 0.067024887 0.376779199 0.729832053 -0.163392648 0.156640589 0.931343675 -0.956015408 0.500255048 0.904484093 0.692516506 0.433774531 0.854500890 1.129632235 -0.059259430 0.516928554 0.838880002 0.778943598 0.046157937 -0.216917366 -0.050487552 0.370611906 0.437471151 0.377817363 0.772969127 0.517089367 -0.688693941 0.695710182 0.151402757 1.156999588 0.692644775 0.926578224 -0.346658140 1.002284765 -0.845185876 0.317454129 0.894204378 0.320544362 1.119330764 0.859438419 -0.825515866 0.931259871 0.110150874 1.094177961 0.502559900 0.744899809 0.994584620 0.890240192 0.431561261 1.142311931 0.780217648 0.210426763 -0.817123830 0.474627435 0.238511547 0.991501391 0.701741576 -0.064741090 -0.249915212 0.114599049 0.682234049 0.823448777 0.651368916 0.853291571 0.906344056 1.195339322 -0.041064858 0.091848552 0.629566133 1.381073952 -0.201495543 -1.002889156 0.274521232 -0.357360750 0.478744388 0.037788138 -0.469878584 0.216314375 0.413004160 0.336595416 0.323671788 -0.430233568 0.611367226 -0.205925450 0.083373979 1.000116944 1.115805030 0.137027666 0.009815804 -0.111705586 -0.600212932 -0.170042321 0.638875544 0.386636943 0.967788339 -0.201597765 -0.688141763 -0.365622669 0.236557379 -0.469897002 0.574256301
agf 0.243194774 0.474327952 0.951613784 0.073249727 0.736332417 0.948850453 0.700293005 0.430047154 1.023685098 0.525139689 0.852497458 0.960116744 0.900621712 0.671590328 0.637689590 0.944332361 0.762800336 1.131066918 1.253762841 0.805087268 1.058263898 0.908907235 0.529322982 0.205810905 0.946572304 1.183304191 1.058883071 0.913715422 1.071320534 0.947841227 0.372106284 0.889912188 0.964987397 1.050148726 0.859380424 0.164175957 0.785231888 0.695139706 1.142505288 0.610364676 0.786795437 0.742794096 1.137344003 0.835676730 0.871747851 0.711911321 0.722710788 1.120140553 1.085785985 0.767252564 0.342693925 0.780451298 0.853799880 1.059382915 0.629251778 1.194845796 1.091773510 1.036389232 1.066216826 0.860067010 0.747947097 0.847660124 0.608230710 0.919054270 0.632842362 0.786308408 0.969643176 1.206326246 1.081932068 1.230285764 0.576779902 0.811922908 0.376015872 0.203513578 0.940586388 0.827704966 0.722629488 0.642920375 1.567257047 0.519044995 0.799968779 0.920313656 1.259371877 1.067332387 1.140718699 1.064603209 1.042278528 0.817320824 0.650491595 1.242252827 0.798171997 0.603792608 1.101631284 0.592364669 0.743759096 0.997591555 0.943735600 1.016594410 0.769100308 1.147716880
agl 0.419737697 -0.062091786 0.577851593 1.006692648 0.880522668 0.794479728 0.352864474 0.547110677 1.145179987 0.829182684 0.477298766 0.526140571 0.775887311 1.182705164 0.858497739 0.930525720 0.527334452 0.943067312 0.201092258 0.368109435 0.242251426 1.290607929 -0.056822460 1.345347762 -0.166892976 1.224954009 0.337767065 0.774706066 0.746983409 0.804960191 0.954840183 0.781228423 0.020954354 -0.082538843 1.242521048 0.477093577 0.873565137 0.672017038 0.628438950 1.229885221 0.455039918 1.138383031 0.405193359 0.424807727 0.622613311 1.257955432 0.617510855 0.959823072 0.709490538 0.166308329 -0.040149987 0.760097504 1.202644348 0.721874952 0.371784359 0.934103966 0.229107603 1.177317142 0.124815203 0.726512074 0.787918985 0.188943058 0.817623794 1.049474478 0.200098068 -0.283811390 0.441495031 1.300506115 0.813535511 1.121823192 0.871626556 0.928292692 0.993977845 0.692927718 1.036819339 1.236923575 0.829880178 -0.232005820 0.406710327 0.478555173 0.376796752 -0.032434739 0.620099306 1.025090456 1.006485343 0.385695726 1.010454178 0.280059606 0.622096479 0.470077723 0.318453968 0.450534582 0.782583594 0.786831856 0.880384147 0.136533424 0.149435520 0.609432161 0.595710278 0.483822107
agm -0.456521481 -0.279522002 -0.512862802 0.167063117 -1.096736312 -0.932886720 -0.808852613 -0.096323520 0.095647357 -0.774134696 -0.115863599 0.163282409 0.537169278 -0.670849025 0.619574249 -0.506839752 0.232566506 -0.186784133 0.672187030 -0.350972682 -0.502388120 0.432509303 0.742545366 0.174346343 -0.210383222 0.875189066 0.138066351 0.607870400 1.111331224 1.090759754 -0.041131567 0.193709254 -0.415815532 -0.149413750 0.597069025 0.278112620 0.006852335 -0.954013467 -0.039276753 0.848787010 0.148664728 -0.348696083 0.049925838 0.287310302 0.349406987 1.053527355 -0.650732040 0.596994340 0.593650937 0.690903783 0.674070835 -0.432450414 -1.184789300 0.426043481 1.339494228 0.988570511 -0.514112651 0.710851908 1.086541533 0.736421525 0.194130898 -0.117031887 -0.385849565 -0.145529583 -0.195927188 0.199223503 0.465599477 -0.561814964 -0.257630765 -0.117209882 -0.567204177 0.569491506 0.000500532 0.536750495 -0.116108835 0.268586487 0.401881695 -1.158210993 0.061232645 -0.362678528 -0.244632125 -0.415449232 0.047773499 0.487888485 0.565843463 -0.415962040 1.084182262 -0.668507934 -0.161453709 -0.249040321 -0.410943210 -0.198682204 0.113641202 1.053990006 -0.080410153 -0.328411043 -0.580324173 0.471047610 0.496495664 0.099178210
ago 0.352120310 -0.533389807 0.334652632 -0.503987491 0.437912554 -0.476447284 -0.221027121 0.547110677 1.145179987 -0.819640994 0.477298766 0.526140571 -0.567088664 -0.432978302 0.764459610 -0.388716161 0.428579152 0.943067312 -0.384680539 -1.236490726 -0.401810914 1.290607929 -0.523753047 -1.202051401 -0.340783000 1.224954009 -0.060996629 0.590178490 0.746983409 -0.163797602 -0.658841372 0.781228423 -0.614305973 -0.528442740 1.034038663 0.204458818 -0.547235906 -0.551223159 0.593640745 -0.698874950 0.455039918 1.138383031 0.137390107 -0.355376869 -0.234011516 0.759401441 0.315836310 0.428295344 -0.562771320 -0.725760341 -0.262266725 0.584225535 -0.425184488 0.721874952 -0.366583318 -0.752615452 0.229107603 -0.434966505 -0.237855032 -0.053017069 0.787918985 -0.525168240 -0.629891813 0.943980396 -0.881415546 -0.944724739 0.441495031 -0.801663995 -0.382927686 1.121823192 0.479904473 -0.771928430 0.603473067 -0.900719702 -0.411482900 0.322753072 0.492713660 -0.232005820 0.406710327 -0.089718670 -0.757730722 -0.032434739 -0.798444986 -0.617079794 -0.583052814 0.385695726 0.049015608 -0.289853632 -0.673969448 -0.328558713 0.267309397 -1.145321608 0.683449328 -0.975740969 -0.097555310 -0.273612618 0.149435520 0.609432161 -0.772655606 -1.033853173
agr 1.263547421 1.282468796 1.025361419 1.235660672 1.105713844 1.269887090 1.217713237 1.212407231 1.168624997 1.412488222 1.326991320 1.339521527 0.933312535 1.223605394 1.172835946 1.074890494 1.160305023 1.449072123 1.352709770 1.200391412 1.092848420 1.290607929 1.319836736 1.345347762 1.110982537 1.224954009 1.492057204 1.085331440 1.127495050 1.186714172 1.211237907 1.258051276 1.125900269 1.344113111 1.093800426 1.177632570 1.133792162 1.232820392 1.339149714 1.237897754 1.243673205 1.181381106 1.256251454 1.084997296 1.275237203 1.257955432 1.220478773 1.312478065 1.429282546 1.244608760 1.260368228 1.129250646 1.380583167 1.321584344 1.253504753 1.156947017 1.225447416 1.362212539 1.501734257 1.237882853 0.976611078 1.118159056 1.309905767 1.204799652 1.356533766 1.287922382 1.294553876 1.300506115 1.231236815 1.341285825 1.164218903 1.200449824 1.174984097 1.198603511 1.343934059 1.262253404 1.129303098 1.196484208 1.360988259 1.073244452 1.252084017 1.163454533 1.175307631 1.315120697 1.287227273 1.170937181 1.252751946 1.121018291 1.080841422 1.120242238 1.372726560 1.143065095 1.267964482 1.261337638 1.161007285 1.111177802 1.158627868 1.136538625 1.235663414 1.214226246
agw 0.895682216 0.941604793 1.272209525 1.006692648 0.724312723 0.732628882 1.219967484 0.940015972 1.207636833 1.105848670 0.877925277 1.286535859 1.197281718 0.884838045 1.123647094 0.934781551 0.952280045 1.394592404 0.780650854 1.095829606 1.092848420 1.085390210 0.946013749 1.082100272 0.929888725 0.911599457 1.145315051 0.592171550 1.194360495 0.966612995 0.865784526 1.116117716 1.100964427 1.029151201 1.197181106 0.901047289 1.328003168 1.144278765 1.317365885 1.085677147 1.057940006 1.101955295 1.022941828 0.929250836 0.941814780 1.286886811 1.081968427 0.959823072 0.930703461 1.131129742 0.942669690 0.870494306 1.202644348 0.769267201 1.103553295 1.136448026 0.925005615 1.289402843 1.003834248 1.036781311 1.218533754 1.172631383 1.064787626 0.946946919 1.208080530 1.209669948 1.206839681 1.107061028 0.990586519 1.240891576 1.085559726 0.633024752 1.272432327 0.962137341 1.036819339 1.409628510 1.209557295 1.116584301 1.086336017 1.017214537 0.996661901 0.776984036 1.078225136 0.946354091 1.273992777 1.153440952 1.085982442 1.365766287 0.929660082 0.823834360 1.496124268 0.750469983 1.085679770 0.930266500 0.931579769 1.152104735 1.158989668 1.175652742 0.912299335 0.866556823
agx 1.210937023 1.294612169 1.172551632 1.368340015 1.105713844 1.270545125 1.217713237 1.303789735 1.175651431 1.250930905 1.264072061 1.339521527 1.156619191 1.179717183 1.271425128 1.046515822 1.077157617 1.449072123 1.361864448 1.200391412 1.204810143 1.389841318 1.319836736 1.190762639 1.282659888 1.305207372 1.209109068 1.498325944 1.246280551 1.186714172 1.066482782 1.223700762 1.464586496 1.344113111 1.154110193 1.210067511 1.118679285 1.221648812 1.339149714 1.237897754 1.357676268 1.181381106 1.359975696 1.207779646 1.302742124 1.286886811 1.345673323 1.266181111 1.206053495 1.427514076 1.260368228 1.016466498 1.340956807 1.154049635 1.253504753 1.194845796 1.185190558 1.387401700 1.172138929 1.284766793 1.099791288 1.220921040 1.356639504 1.251897573 1.356533766 1.238460422 1.313290715 1.211395264 1.492645025 1.341285825 1.225439906 1.306322694 1.272432327 1.277089000 1.343934059 1.508427739 1.301314831 1.308717370 1.383567333 1.335328937 1.196609139 1.163454533 1.259371877 1.305036545 1.287227273 1.229964018 1.422602415 1.267905951 1.216952205 1.243760109 1.240323782 1.423029184 1.252363563 1.261337638 1.266393781 1.097481728 1.311567426 1.314708829 1.242338300 1.105583668
ahh 1.045734286 0.620590687 0.834161520 0.819840729 0.860653400 1.269887090 0.203971863 0.833898485 1.153559327 0.681588292 0.873637855 1.096084118 0.816860139 0.760884047 1.167933345 0.930525720 0.832092583 1.180317163 1.150577068 0.805087268 0.752547920 0.948860765 1.057727456 1.345347762 1.234221697 1.118326664 1.004785180 0.913715422 0.933736682 1.034326434 0.867011189 0.971856892 1.024010181 1.050148726 1.208784819 0.992713630 0.731997132 0.695139706 1.142505288 0.786861777 1.139573574 1.245608926 0.812505662 0.445353866 1.004396319 1.257955432 0.937965333 0.907809258 0.253335446 1.035624981 1.032930970 0.862347305 0.809580147 1.329712272 1.021237731 1.257793188 0.673955739 0.905533731 0.887167215 0.709886491 0.624906898 0.855448127 0.958755612 1.473760605 0.869946778 1.205267668 1.259049296 1.300506115 0.813535511 1.085798979 1.047150612 0.861493170 1.247248411 1.110583186 0.920367837 0.910269499 0.943156004 0.923463225 0.951801419 1.141965866 1.187221050 0.644530654 0.818933249 0.999453127 0.802057028 1.064603209 1.260300636 0.817320824 1.260781646 1.057160735 1.047986031 0.826395214 1.234203815 0.862686157 1.102800012 0.882549942 1.158302784 0.845161676 0.756072104 0.824806392
aia 0.278578073 0.856690764 1.272209525 0.389505684 0.581811428 0.012597078 0.633733869 0.458335310 1.207636833 0.713720739 0.211186156 1.378755331 0.944163263 0.809789777 1.237712979 0.934781551 0.952280045 1.394592404 0.780650854 0.798302472 0.540269911 0.910269916 0.201516211 1.082100272 1.198934793 0.911599457 0.723456323 0.607005537 1.194360495 0.765514314 0.474089444 1.096954942 0.932838380 1.029151201 1.275026679 0.740618467 0.946875513 1.144278765 1.095261335 0.954764962 0.561378717 0.103376307 1.270931721 0.833151460 0.010363342 0.389796019 0.929692507 0.900402427 0.565204978 0.757452011 0.795792401 0.408837795 0.684971690 0.499166191 0.574523091 0.581655145 0.925005615 0.751035273 0.428656220 0.670379281 0.274127036 1.172631383 1.064787626 0.270645171 0.932585955 0.876159966 0.344815493 0.104153931 0.990586519 1.240891576 0.737607181 0.633024752 0.909290373 0.386327118 0.924310386 0.751115918 1.006196618 0.809464812 0.766142607 0.902948618 0.736379802 0.895789802 0.849915981 0.897444844 0.888145804 0.596364558 1.085982442 0.693801880 0.924806118 0.823834360 1.170727730 0.750469983 0.856582999 0.283584654 0.507989407 0.608253837 -0.129415378 0.810939670 0.427543551 0.510731161
aif 0.278578073 1.146790385 1.272209525 0.158860564 0.005085388 -0.149996966 0.633733869 -0.222769603 1.207636833 0.970667422 0.395848542 0.522762895 -0.692048371 0.624283731 0.488787979 -0.661982477 0.715491295 1.394592404 1.165407658 0.217246726 0.161140144 0.852688015 0.102584913 0.712549508 0.306130320 0.911599457 0.111297198 -0.416136682 0.641820133 0.330110610 -0.905861080 0.654161453 0.932838380 0.318663865 0.122388698 0.450085282 0.340804219 0.204206824 1.095261335 0.954764962 0.445368856 -0.267440796 0.121859841 0.762854397 -0.724135637 -0.399505317 0.929692507 0.869655907 0.266571790 0.204466566 0.795792401 0.892508566 -0.016607465 0.499166191 0.574523091 0.498004258 0.925005615 0.751035273 0.428656220 0.619770348 -0.072683953 -0.273178071 1.279028296 -0.355083138 0.713594377 0.760516286 -0.681267738 1.064924359 -0.276356906 1.240891576 0.835419118 0.633024752 0.855975330 0.386327118 0.924310386 0.443361491 -0.167470455 0.107590586 0.376114577 0.410713583 0.097111568 0.404812098 0.513520598 0.897444844 -0.238660336 -0.716243744 0.262430012 0.485479593 0.385545701 0.823834360 1.170727730 0.750469983 1.188201308 0.283584654 -0.651136756 0.474993974 0.753333151 0.810939670 -0.052430872 0.149723172
ail 0.419737697 0.163322851 -0.663914323 1.006692648 0.724312723 -0.213410482 0.294982284 0.371947289 -0.279049188 1.105848670 -0.424764156 0.458284140 0.775887311 -0.043580573 0.607378364 -0.733554423 0.733353674 0.355986863 -0.034573920 0.228550494 0.669804871 0.974311411 -0.056822460 0.662124634 -0.166892976 0.074685045 -0.047776405 0.176836491 0.519847929 0.906305909 0.865784526 -0.063778862 0.964910209 -0.423696786 -0.759867251 -0.583203673 0.873565137 -0.373025656 0.114214458 0.205031261 -0.022052353 1.101955295 0.372602969 0.424807727 0.201048061 -0.624381185 0.617510855 0.959823072 0.060680304 0.166308329 -0.040149987 0.760097504 1.202644348 0.758804560 0.618309200 0.288403451 0.273854464 1.289402843 0.367301643 0.726512074 1.218533754 0.188943058 0.817623794 0.504255116 0.565782130 0.493466169 -0.651903093 0.948675334 -0.949090362 0.579893112 0.620607018 -0.412435412 -0.631228089 0.692927718 1.036819339 0.262501359 0.829880178 0.112810038 -0.321732521 0.478555173 0.499106616 -0.629044831 0.620099306 0.667259514 1.088337302 0.694390655 0.115892999 0.757806659 -0.260285467 0.470077723 0.318453968 0.531918406 0.782583594 -0.199461117 0.749727190 0.750713944 -0.629801273 1.175652742 0.912299335 -0.107552469
ain 1.209622383 1.294612169 1.172014356 1.296499133 0.893906474 1.270545125 1.193848491 1.086841822 1.266353130 1.213472724 1.134640217 1.197777152 1.156619191 1.182705164 1.263381481 1.037989855 1.193714738 1.162550688 1.169453621 1.121525526 1.159515858 1.311348915 1.319836736 1.391830325 1.219534397 1.128168821 1.009945989 1.240646839 1.120891452 1.117367625 1.150577545 0.907507777 1.282464862 1.225335956 1.242521048 1.198524952 1.324926257 1.062258840 0.882233083 1.418685198 1.110396147 1.181381106 0.974230051 1.057302475 1.257225752 1.286886811 0.888365686 1.155923724 0.950569093 1.095552683 1.049018741 1.118872762 1.300407052 1.061370492 1.103553295 1.156947017 1.154662967 1.284943342 1.317101240 1.293428183 1.385537505 1.023013711 1.098672867 1.049474478 0.990398884 1.252679586 1.098722458 1.085371494 1.139459968 1.211995125 1.134256959 1.137829304 1.272432327 1.198603511 1.115494609 1.236923575 1.269850612 1.051984549 0.992551982 1.335328937 1.101194263 0.933514416 1.109757900 1.133356333 1.113728762 1.343875408 0.873219490 1.121018291 1.170824766 0.973806262 1.323844552 1.127985597 1.311964035 1.176588416 1.107298255 1.002636790 1.158989668 1.229723930 1.037912130 1.147716880
aji 0.843941331 -0.336229146 0.951613784 -0.456125170 0.476910800 -0.118277118 -0.409850270 0.132793695 -1.035393715 0.079342537 0.849827945 0.657535613 0.526768923 0.242060646 0.612776995 0.535143733 0.425412387 -0.461619973 0.544334948 -0.454071999 0.369174838 0.710457623 0.477482319 0.737095296 0.338867277 0.558811665 -0.932355165 -0.193344563 0.530110955 0.085887849 0.372106284 0.161596581 -0.490600049 0.195166156 0.859380424 0.449186176 -0.013469318 0.704605579 0.721047223 -0.096869007 0.081639558 -0.519919991 1.137344003 -0.931848824 0.619894445 0.502013266 0.951039195 0.129992962 0.504411161 0.767252564 -0.114527494 0.422514826 0.393408120 -0.142963886 -0.900740623 0.149859890 -0.493542105 1.036389232 -0.926306784 1.055022120 0.621404111 0.592790484 0.614409089 -0.521898687 -0.175415426 0.786308408 0.198279470 0.930400491 0.779034734 1.230285764 0.576779902 -0.340270609 0.380777985 0.424998343 0.629009485 0.452000290 0.323805004 -0.572795510 0.884559214 -0.882778883 -0.139237940 -0.158306241 1.137290716 0.678833187 0.413286984 -0.082036495 1.094360709 0.245532706 0.650491595 0.271561861 1.113727808 0.726132274 0.407730043 0.005929518 0.790384710 0.777829111 -0.482959360 0.895982563 0.178654253 0.988021731
akc 1.167966723 1.086877942 1.272209525 1.006692648 0.880522668 1.267389774 1.112922788 1.212407231 1.207636833 0.829182684 1.058392525 1.041523695 1.099801660 1.182705164 1.169007659 0.916097522 1.263626337 1.394592404 0.881393373 0.368109435 1.294442415 1.105389237 0.665311277 1.002781034 1.106571317 1.124255657 1.207673669 0.948996365 1.153744936 1.073455095 0.954840183 1.227432609 1.145105958 1.117441058 1.242521048 0.923502743 1.328003168 0.697070837 1.095261335 1.229885221 0.683321655 0.940180719 0.932969511 1.030942917 1.052473664 1.132447362 1.155487895 1.312478065 1.235984445 1.099028349 1.019030333 1.039993644 1.202644348 1.240024686 0.773224235 1.039560556 1.075242877 1.202207446 0.900454879 1.088201165 1.089055300 0.597371101 1.141698599 1.049474478 0.764192939 1.083688378 1.206839681 1.211395264 0.849285603 1.240891576 1.211494565 0.928292692 0.993977845 0.987880886 1.036819339 1.236923575 1.209557295 1.084790349 1.383567333 0.870941401 1.156053662 0.653410137 1.259371877 1.191227317 1.006485343 1.063239455 0.850497365 1.365766287 0.980708361 1.326328874 1.372726560 0.750469983 0.782583594 1.252404094 0.914795220 1.071451545 1.141329765 1.036017656 1.050419092 1.067398548
akl -0.655622125 0.417362630 0.739075601 0.211477146 0.471365869 0.891531706 0.289032578 0.940005183 -0.875986338 -0.693870604 -0.403989524 -0.198981240 -0.014087843 0.164616227 0.139523372 -0.200108781 1.086352587 -0.286441565 -0.256379157 -0.349685490 -0.081441469 -0.305004150 0.318923146 -0.424428791 0.076514095 -1.281085968 -0.472458482 -0.128275156 -0.016545173 -1.289925098 0.634824216 0.224070638 -0.834718645 0.645323038 -0.705999672 -0.723119676 -0.724019527 0.906901836 0.240526259 0.245486930 -0.947705925 -0.852188945 -0.421252400 -0.409023196 -0.469711125 0.094523646 0.210732073 -0.910653174 -0.846448302 -1.294648647 -0.346072108 0.869437993 0.410148114 -0.449478060 -0.455848426 -0.638462365 0.393030792 0.411389828 -0.856926322 -0.114451714 0.710476220 -0.909419715 -0.487899393 -0.331492543 0.183613852 0.532446861 -0.463945448 -0.640072048 0.647737145 0.803677082 0.465871125 0.367679656 0.466702431 0.726450622 -0.051588655 -0.798710167 -0.586705506 -0.214175463 -1.241158843 -0.070360407 0.533451974 0.502057672 -0.010806183 -0.126486197 -0.719313920 -0.842391312 0.237930074 -0.367906064 1.145483255 0.552332282 -0.658040285 0.616632462 0.482936800 -0.747692108 -0.298897445 0.324175179 -0.924485981 -1.225625157 -0.359165907 -0.502772748
akv 1.308970571 1.294612169 1.259593725 1.296499133 1.175451159 1.270545125 1.217713237 1.303789735 1.201415539 1.250930905 1.326991320 1.339521527 1.198486209 1.247773886 1.271425128 1.194534659 1.193613291 1.449072123 1.210499525 1.200391412 1.123205304 1.290607929 1.319185019 1.230337381 1.166222572 1.305207372 1.238281965 1.498325944 1.156999588 1.200902104 1.303197980 1.271840334 1.464586496 1.200944304 1.154110193 1.226217628 1.287488222 1.221648812 1.303303719 1.237897754 1.357676268 1.285821676 1.359975696 1.207779646 1.275237203 1.286886811 1.435934424 1.166946054 1.429282546 1.233031988 1.260368228 1.129250646 1.340956807 1.240024686 1.253504753 1.182893395 1.349470854 1.434156656 1.172138929 1.284766793 1.218533754 1.220921040 1.356639504 1.178269267 1.356533766 1.287922382 1.313290715 1.143981338 1.492645025 1.341285825 1.197523236 1.200449824 1.272432327 1.277089000 1.343934059 1.409628510 1.301314831 1.308717370 1.567257047 1.335328937 1.187120199 1.163454533 1.109757900 1.305036545 1.273992777 1.132889271 1.422602415 1.442713261 1.212046385 1.243760109 1.215844512 1.423029184 1.311964035 1.261337638 1.289098144 1.112103701 1.311567426 1.314708829 1.213429093 1.171904802
alc 1.263547421 1.059538126 1.272209525 1.053335309 0.941979110 0.978505611 1.233406782 1.212407231 1.207636833 1.412488222 1.058392525 1.110670686 0.933312535 1.007183909 1.169007659 0.949640155 1.166521549 1.394592404 1.253762841 0.974773884 1.294442415 1.311348915 1.319836736 1.391830325 1.173975706 1.225722671 1.492057204 1.138315439 1.050269365 1.195515990 1.152702451 1.039260745 1.168995500 1.344113111 1.122736812 1.172091007 1.324926257 1.154641390 1.224244595 1.099990129 1.253764153 1.181381106 1.081931233 1.152536750 1.245167017 1.091174483 1.155487895 1.266181111 1.235984445 1.183303952 1.051973462 0.998097003 1.182224393 1.240024686 0.994627059 1.156947017 0.938169777 1.202207446 1.501734257 1.157070398 1.089055300 1.150896668 1.159311295 1.204799652 1.156837821 1.287922382 1.294553876 1.211395264 1.116609454 1.240891576 1.015200019 1.306322694 1.146490097 1.038041353 1.115494609 1.039938211 1.253420949 1.117003441 1.360988259 1.053872824 1.252084017 1.026196122 1.048025846 1.315120697 1.045507431 1.184400082 1.252751946 1.150203466 1.145483255 1.326328874 1.240323782 1.038238764 1.114399076 1.423282743 1.144310594 0.882549942 1.125892997 1.136538625 1.095580578 1.171904802
ale 1.209622383 1.294612169 1.272209525 1.296499133 0.893906474 1.270545125 1.193848491 1.086841822 1.266353130 1.166696429 1.004537940 1.197777152 1.156619191 1.329343796 1.263381481 1.047740936 1.166521549 1.394592404 1.169453621 1.178197265 1.159515858 1.311348915 1.319836736 1.391830325 1.173975706 1.128168821 1.082653999 1.117959857 1.079286218 1.200902104 1.075371742 1.258051276 1.191441178 1.225335956 1.160729051 1.160747170 1.324926257 1.232820392 1.303303719 1.418685198 1.367076993 1.181381106 1.016332984 1.131948233 1.201157689 1.286886811 1.310968637 1.125633597 1.235984445 1.427514076 1.011608124 1.118872762 1.330273032 1.240024686 1.381392837 1.276085734 1.228123188 1.202207446 1.317101240 1.293428183 1.031106710 1.115626454 1.234860182 1.159569621 1.080033064 1.128703833 1.098722458 1.206326246 1.492645025 1.240891576 1.116773605 1.091405869 1.272432327 1.189054370 1.115494609 1.262253404 1.253420949 1.033119440 1.140042663 1.086521983 1.187120199 1.010852695 1.104716539 1.067332387 1.113728762 1.343875408 1.140173435 1.121018291 1.209596753 1.091225505 1.323844552 1.166026592 1.123475194 1.261337638 1.107298255 1.002636790 1.158989668 1.038784027 1.272117615 0.960051358
ali 0.571469903 1.146790385 0.577851593 0.819840729 0.860653400 0.794479728 0.528354049 1.000145674 0.942523420 0.970667422 0.395848542 0.150767908 0.461237252 0.635783017 0.850474715 0.930525720 0.545849144 0.476843238 1.165407658 1.042139173 0.893103361 1.083427191 -0.351686090 1.345347762 -0.258984208 0.699948907 0.930523515 0.774706066 -0.035746604 0.916755497 0.813573718 1.028538108 0.915820837 1.052850723 0.693064272 0.477093577 0.914006531 0.415797740 0.628438950 0.786861777 0.503948510 0.384653211 1.238566756 1.064231515 1.074512482 1.257955432 0.736092329 0.869655907 0.266571790 1.026099682 1.124978304 0.892508566 0.578803122 0.979403555 0.644452274 0.795088649 -0.016409300 0.980088651 0.239727020 0.632327139 1.056574464 0.601669490 1.279028296 0.754678071 0.804134130 1.013247609 0.470294058 1.300506115 0.813535511 0.463863760 0.835419118 0.641970277 0.646575511 0.902487040 0.794004381 0.443361491 0.621591270 0.511098623 0.387741417 0.410713583 0.376796752 0.479995370 0.791752160 0.648592114 1.045507431 -0.022780934 1.040746570 0.540583313 0.644471884 1.148967743 0.456391275 0.293940514 1.188201308 0.786831856 0.880762875 0.714994252 0.944923103 0.967078686 0.579305649 0.933478177
als 1.210937023 1.120870590 1.172551632 1.235660672 1.271290541 1.269887090 1.217713237 1.212407231 1.200663328 1.250930905 1.326991320 1.249938846 1.145537376 1.329343796 1.251517415 1.134093404 1.177532434 1.365020275 1.361864448 1.186129451 1.294442415 1.277379632 1.319836736 1.018919706 1.282659888 1.183304191 1.355812192 1.498325944 1.156999588 1.186714172 1.194799781 1.271840334 1.464586496 1.344113111 1.154110193 1.172091007 1.161462784 1.172089338 1.303303719 1.237897754 1.357676268 1.181381106 1.359975696 1.207779646 1.245519638 1.286886811 1.435934424 1.266181111 1.429282546 1.427514076 1.092224240 0.934883475 1.199273467 1.240024686 1.241170645 1.194845796 1.228123188 1.213012934 1.317101240 1.237882853 1.023665428 1.190212131 1.309905767 1.178269267 1.297725081 1.287922382 1.313290715 1.215283275 1.381073952 1.155530095 1.020408750 1.224848986 1.272432327 1.198603511 1.114798665 1.262253404 1.214867711 1.308717370 1.360988259 1.105360031 1.313074470 0.987831354 1.196724772 1.305036545 1.208030581 1.115805030 1.422602415 1.442713261 1.105788112 1.326328874 1.372726560 1.123296142 1.311964035 1.261337638 1.289098144 1.076961994 1.158989668 1.163638115 1.225053906 1.163455725
alt 1.088741779 0.833952248 0.216835767 0.662014902 0.515633106 0.872232318 1.189045191 0.549736559 1.130507112 1.200323105 1.215308189 1.339521527 0.794825137 0.306516290 0.929730237 -0.132272795 0.085962258 0.884292006 0.561054468 0.697314680 0.489021569 0.550359428 1.213990927 0.652704656 0.940250218 0.945231915 0.298149377 0.812605798 0.822581708 1.115688205 0.112683274 0.983795822 1.065709472 1.072715402 0.485685021 0.904307485 0.922636449 0.791527450 0.527368546 0.124411725 0.829684496 0.322952121 0.744775891 0.337948203 0.607467532 0.745526016 0.878347397 0.942681849 -0.413985342 0.880931735 0.925474524 0.298603535 0.761453331 0.895459056 0.557625890 0.389753193 0.612470269 0.735165298 0.659221888 0.794218004 0.665486217 0.598404884 1.199054480 1.119153976 0.433097512 0.811640143 0.594701588 0.909270704 1.007145047 0.641626060 0.942307413 0.496154249 1.027201772 0.587621152 0.745970428 0.736340046 0.758262753 1.196484208 0.613955498 0.873370886 0.956393421 0.927306592 0.634223044 0.599608302 0.802940011 1.094824076 0.878623009 1.148414373 0.449732274 1.238736987 0.977139473 0.653460801 0.672501624 0.450104803 0.105951421 1.111931324 0.996355593 1.136171341 0.578496695 0.798629344
alu 0.982174635 0.903621376 1.272209525 0.877898633 0.967060387 0.565809309 0.917402267 0.928501308 1.207636833 1.052345753 0.877925277 1.286535859 1.010924339 0.581781745 1.169007659 0.886500657 0.977478385 1.394592404 0.918905079 1.150275707 1.294442415 0.852688015 0.503462791 0.793175876 0.850544333 0.911599457 0.842255890 0.767870426 0.938270330 1.004989386 0.490696073 1.026845932 0.932838380 0.909319818 0.480149508 1.047816038 0.707849324 0.501838982 1.095261335 0.954764962 1.164781690 0.939460158 0.932357490 1.152536750 0.282277524 0.629094541 1.037062287 0.644079149 0.436050296 1.020919085 0.795792401 1.095927954 0.782644808 1.316576600 1.017671585 1.076114774 0.925005615 0.943638682 0.428656220 0.619770348 0.757097960 0.597371101 0.917369187 0.892131984 1.208080530 0.934476495 1.206839681 1.107061028 1.116609454 1.240891576 1.085559726 0.633024752 0.855975330 0.987880886 0.924310386 -0.017999638 1.058754206 1.084790349 0.376114577 0.906364262 0.996661901 1.104518175 0.608935237 0.946354091 0.661045849 0.517320395 1.017504811 1.150203466 1.121596575 1.326328874 1.372726560 0.799139917 1.085679770 1.423282743 0.887324035 1.194061399 0.874064922 1.203866124 1.095580578 0.939730704
aly 0.461849719 0.892648518 1.272209525 1.211248159 0.736332417 0.823725462 1.158003449 1.057058573 1.207636833 0.950041294 0.877925277 0.826882184 1.163928866 0.956996858 0.826911211 0.090844102 0.754493058 1.394592404 1.253762841 0.948657393 1.092848420 1.158789873 0.406485558 0.712549508 0.893046319 1.183304191 0.876033247 0.815100789 0.976810992 0.917242408 0.713406801 1.042901039 0.932838380 0.633322239 0.712854028 0.882142246 0.709432602 0.499850750 1.095261335 1.103643179 0.769423783 0.742794096 0.255752206 0.762854397 0.431754827 0.594970286 1.176750898 1.120140553 0.221999332 0.912018716 0.849747956 0.675791323 0.859579027 1.059382915 0.629251778 0.208353996 1.170371175 0.963601768 0.833572447 1.052411437 0.809293270 0.510295630 0.795527279 0.512935162 0.728920162 0.717269659 1.206839681 1.107061028 0.941400588 1.240891576 0.195315018 0.633024752 0.855975330 0.962137341 0.940586388 0.605450928 0.875779510 1.084790349 0.376114577 0.761800528 0.607548416 0.404812098 0.223132849 0.897444844 0.607502937 0.806728363 1.042278528 1.095596671 0.929660082 0.823834360 1.372726560 0.750469983 0.968428731 0.838873327 0.886258245 0.190938875 0.874064922 0.810939670 0.769100308 0.341373503
ami -0.327700704 0.770564497 0.059153426 0.906808853 0.111964539 -0.852830827 -0.220776126 0.185176939 -0.415714741 -0.225199908 -0.086716644 -0.433500648 -0.489689440 -0.154002741 0.699498177 0.412304729 0.412767887 -0.445998758 -0.066291265 0.268646836 0.876152635 0.347549647 1.319836736 0.745839596 0.524143219 -0.962706208 -0.450328201 0.591366351 0.043158364 0.015150595 -0.369559348 0.550345898 0.765371799 1.225335956 -0.462773979 0.667099595 -0.037252855 0.294352591 -0.126173332 0.741721272 0.718092918 1.181381106 0.179805815 -0.419116795 -0.166677982 -0.585038781 0.172049448 -0.553832114 -0.999153316 -0.039697886 -0.017039644 -1.272605300 0.919670999 0.486022711 -0.331656277 1.156947017 -0.987151623 -0.453927428 -0.407148749 0.099071354 -0.690958321 -0.257262617 0.109106563 -1.366522312 0.656558692 -0.016708232 -0.856801629 -0.320601553 0.471492648 -1.205652714 0.599086404 -0.031099522 -0.110384561 -0.660110712 -0.847168088 0.160950720 0.091414332 0.652098060 -0.733384192 0.314547420 -0.314619213 0.406895131 -0.185748711 -0.509505630 0.949736834 0.197372645 -0.269299120 -0.124154605 -0.855730891 -0.746683657 1.240323782 -0.917757809 0.198885381 -0.782547176 -0.240461588 0.004975407 -0.220104679 -0.654598355 0.657907248 -1.302034736
amm 0.909371614 0.648898363 0.751718163 0.549934268 0.437912554 0.753682315 0.836521804 1.027341366 1.145179987 0.533712804 0.477298766 0.747286081 0.826577723 0.760884047 0.764459610 0.090315312 0.508239031 1.049039721 1.049667001 0.805087268 0.858263612 1.290607929 0.971897542 1.124546289 0.725103796 1.224954009 1.014993548 0.913715422 0.874973297 1.034326434 0.957352459 0.781228423 1.059196234 1.050148726 1.034038663 0.632310271 0.426488250 0.928395569 1.142505288 0.564957559 1.139573574 1.138383031 0.932969511 0.445353866 1.201157689 0.759401441 1.310968637 1.312478065 0.799193621 0.182650566 0.511964738 1.029167414 0.317678779 0.863567948 0.976423681 1.257793188 0.673955739 0.905533731 1.001831174 0.305750728 0.787918985 1.040381670 1.189493895 0.943980396 0.639904559 0.813235581 0.969643176 0.525116563 1.492645025 1.121823192 0.920711875 0.754488945 1.095980763 0.514490068 0.920367837 0.622583330 0.943156004 0.692011356 0.983157873 1.141965866 0.770216048 0.532355130 0.860847235 0.984850585 0.819836438 1.064603209 0.552399874 0.854385376 1.260781646 1.120242238 0.501481235 0.826395214 1.217204094 1.046756625 1.102800012 0.517309427 0.445103914 0.845161676 0.641871572 0.865025640
amp 0.609250546 0.324208260 0.955452383 0.746560335 0.826757312 1.083398938 0.699091196 0.271553874 0.623723567 0.624987245 0.072744168 0.930619657 0.157120675 0.529736042 0.246240333 0.807276428 -0.331198454 0.037401028 0.255249709 -0.896944642 0.842006087 0.151099995 1.003422618 0.486985266 -0.234845757 1.022980809 0.513507187 1.006786108 -0.276175141 0.629603505 0.597394943 0.694398463 0.853680313 0.673881114 0.814613879 0.855006993 -0.578406870 0.727342546 0.583937109 0.109943867 0.352980584 -0.170484170 -0.208380044 0.553572595 0.127328694 -0.475585043 -0.363511503 0.354193270 0.672433794 -0.921442926 0.240671381 -0.031889699 0.442063421 -0.004448792 0.794879317 0.591896594 0.308814406 -0.027287938 -0.521758020 -0.135125965 0.257713735 0.126817062 -0.770881355 -0.136598632 -0.419856906 0.610246420 0.374982595 -0.359616816 1.269928336 0.428525358 0.588006258 -0.726903021 -0.542436838 0.228384882 0.713481724 0.593870938 -0.856942058 0.152966499 0.648594201 0.161023200 0.649520516 -0.420677632 0.775752306 -0.201659933 0.341651261 1.051710129 0.094129980 0.141551524 1.091491222 0.490090162 0.767180622 0.742962301 0.440294772 0.188774675 0.215374693 -0.689280868 0.551480174 0.451654464 0.577198386 0.276879102
amt 0.998633564 0.856690764 1.272209525 0.021928923 0.655498087 0.892703056 0.633733869 0.000965886 1.207636833 -0.129027218 0.073986664 1.084371328 0.609175265 -0.164237514 1.126420140 1.002942204 0.715491295 1.394592404 1.142353177 -0.205326542 -0.311135620 0.852688015 0.295104831 0.712549508 0.306130320 0.911599457 0.887445807 0.800674021 0.641820133 0.977716506 0.299871773 0.729517877 0.932838380 0.504477143 0.026418785 -0.008529482 0.340804219 0.721089244 1.095261335 0.954764962 0.683753371 -0.232503086 0.577082396 0.762854397 0.127816349 0.496922404 1.051533461 0.463128179 -0.584139228 0.204466566 0.795792401 0.261072218 0.114210784 0.844838083 0.856939852 0.235584810 0.925005615 0.751035273 0.428656220 0.619770348 0.834370077 -0.015953410 0.795527279 0.850658059 -0.085835174 0.862333953 0.646418154 0.104153931 0.474142432 1.240891576 0.195315018 0.714938879 0.855975330 0.386327118 0.924310386 -0.611301780 0.114239670 0.773730040 0.376114577 0.804826021 0.981297672 0.693055928 0.834874153 0.897444844 0.813927352 0.456955284 -0.102025256 -0.252388269 0.900861382 0.823834360 1.170727730 0.750469983 0.229489043 0.822104216 0.366878748 0.459777683 0.578451931 1.158809781 1.097781301 0.848829269
anc 0.834314823 0.620590687 -0.087016121 0.230304703 0.586889446 1.269887090 0.842588484 1.021125436 0.833127439 0.752478302 0.368237436 0.547126770 1.208053827 1.036089301 1.064009666 0.550474465 0.588584721 1.014457583 0.672187030 0.644775331 0.752547920 0.612824023 1.057727456 1.195062995 1.017291307 0.875189066 0.881837845 0.607870400 1.111331224 1.151447415 0.372014880 0.848286867 0.974363267 0.707448602 0.597069025 1.198524952 0.483787626 0.708412707 0.535381854 1.038382530 1.046377182 0.822013795 0.779913604 1.084997296 1.130410790 1.053527355 0.239203051 0.907809258 0.593650937 1.001258492 0.688647330 0.480056375 0.573968947 1.014896870 1.339494228 0.988570511 0.702938378 0.720196545 1.086541533 1.260496736 0.875739634 0.143253848 1.023190975 0.736163795 0.705594838 1.020341158 0.956841230 1.135002613 0.455819011 1.131850004 0.525104046 1.137829304 0.496456474 0.901907086 0.501550734 0.637926042 0.750880480 0.728690505 1.116128206 0.846839845 0.824191749 0.131377131 0.511625350 1.168605208 0.864847481 0.487332255 1.084182262 0.954208255 1.008952141 1.057160735 1.174541950 0.866826653 1.234203815 1.053990006 0.533396661 0.858206928 0.694993377 0.818494260 0.684021056 0.732006550
ang 1.245535135 1.294612169 1.011258006 1.235660672 1.092474341 1.269887090 1.219967484 1.273456335 1.201415539 1.412488222 1.326991320 1.339521527 1.198486209 1.124207020 1.251517415 1.037989855 1.177532434 1.365020275 1.253762841 1.142094612 1.110011458 1.389841318 1.319836736 1.161813259 1.282659888 1.224954009 1.398432016 1.117959857 1.156999588 1.195515990 1.303197980 1.258051276 1.299631119 1.255960703 1.237082481 1.172091007 1.317514300 1.182641625 1.339149714 1.270470381 1.280975223 1.285821676 1.311663270 1.207779646 1.302742124 1.286886811 1.215050578 1.266181111 1.235984445 1.427514076 1.329870939 1.193456292 1.300407052 1.329712272 1.253504753 1.194845796 1.258358002 1.387401700 1.297858238 1.237882853 1.243171811 1.119602084 1.309905767 1.119425535 1.225702286 1.287922382 1.259049296 1.206326246 1.381073952 1.326640606 1.197523236 1.224848986 1.272432327 1.198603511 1.115494609 1.262253404 1.253420949 1.196484208 1.360988259 1.260500908 1.257602215 0.987831354 1.216260552 1.315120697 1.188537478 1.115805030 1.260300636 1.442713261 1.085800171 1.085552692 1.496124268 1.275779486 1.311964035 1.261337638 1.207460165 1.112103701 1.207532048 1.267837644 1.101079702 1.214226246
anh 1.209622383 1.244328976 0.828302920 1.296499133 0.893906474 0.852963507 0.457968205 0.870664716 1.066273451 0.970667422 1.004106283 1.200800300 0.970762014 0.802314818 1.167933345 0.959722579 1.172555923 1.173886538 1.165407658 0.944551706 0.953194797 0.879675925 0.939713299 1.082184434 1.201670766 1.225722671 0.790074170 0.719302714 0.989448488 0.845323682 0.894807458 0.867528319 0.972773612 0.788990974 1.110928059 0.782114029 0.880532026 1.005807757 1.079664230 0.469966859 0.595120549 1.031014562 0.940851927 0.994579792 0.737742126 1.021834850 1.067580700 1.125633597 1.180109620 1.060509086 1.329870939 1.118872762 0.966300309 0.772364259 0.934143782 0.722185135 1.258358002 0.470950663 0.884466708 1.293428183 0.624906898 1.114127517 1.279028296 1.067605019 0.869946778 1.205267668 0.974664748 1.064924359 1.103472710 0.795187056 0.835419118 0.802014351 1.023532629 1.024255037 0.963032246 1.234611034 0.882089436 0.327064514 1.097690344 1.086521983 0.914610088 0.859250546 0.818933249 1.304274917 1.113728762 1.183273554 0.592422605 0.963802695 0.930543244 0.991458535 0.982313573 0.697429955 1.188201308 1.261337638 0.470155478 0.882549942 0.989003599 0.839765549 0.495855570 0.747506082
ani 1.210937023 1.294612169 1.172014356 1.296499133 1.175451159 1.270545125 1.217713237 1.303789735 1.275947213 1.412488222 1.326991320 1.238775492 1.198486209 1.342126489 1.271425128 1.046515822 1.222189546 1.449072123 1.253762841 1.186129451 1.016678095 1.277379632 1.319836736 1.161813259 1.106571317 1.305207372 1.355812192 1.498325944 1.166116118 1.244221091 1.303197980 1.186877251 1.299631119 1.255960703 1.237082481 1.226217628 1.287488222 1.182788968 1.303303719 1.166249037 1.280975223 1.285821676 1.359975696 1.207779646 1.245519638 1.286886811 1.435934424 1.225947499 1.429282546 1.233031988 1.260368228 1.193456292 1.380583167 1.204159260 1.253504753 1.194845796 1.097977877 1.289402843 1.223629594 1.237882853 1.218533754 1.220921040 1.356639504 1.116783857 1.292854667 1.205267668 1.313290715 1.211395264 1.492645025 1.184035897 1.102460265 1.200449824 1.272432327 1.198603511 1.343934059 1.262253404 1.278841734 1.308717370 1.116128206 1.017214537 1.187120199 1.163454533 1.048878431 1.315120697 1.113728762 1.153440952 1.422602415 1.442713261 1.216952205 1.243760109 1.323844552 1.423029184 1.267964482 1.261337638 1.266393781 1.136362314 1.311567426 1.314708829 1.242338300 1.150421977
ank 0.144557208 0.657226384 1.172014356 0.178893447 0.586889446 1.269887090 0.074885130 0.523374975 0.833127439 0.777948558 0.465538144 0.872649133 0.633545101 0.631801367 1.064009666 0.589073658 0.588584721 0.387893796 0.672187030 0.638366282 0.752547920 0.612824023 1.057727456 0.334921151 0.885818660 0.875189066 0.881837845 0.607870400 1.111331224 1.175604224 0.622622371 0.916273057 0.974363267 0.707448602 0.597069025 0.975315869 0.192648470 0.169406474 1.041125298 1.034047484 1.049253225 0.822013795 0.779913604 0.287310302 1.060587883 1.053527355 -0.023677915 0.907809258 0.950569093 1.001258492 0.688647330 0.479040146 0.278130472 0.436464280 1.339494228 0.988570511 0.702938378 1.127062559 1.086541533 0.736421525 0.454904824 0.143253848 1.023190975 -0.145529583 0.716602325 0.266344339 0.465599477 1.135002613 0.282819033 1.131850004 0.525104046 0.569491506 0.496456474 0.536750495 0.501550734 0.479255825 0.750880480 -0.068373904 0.951801419 0.490427077 0.824191749 0.754649520 0.680777311 1.017532706 0.565843463 0.130871907 1.084182262 0.800953507 0.600131094 1.057160735 0.629521370 1.334574819 1.234203815 1.053990006 -0.080410153 1.073200345 1.058806062 1.314708829 0.643831074 0.500295639
aog 0.352120310 1.120870590 0.837827444 0.173571303 0.972986758 0.703065634 1.217713237 0.547110677 1.145179987 0.777948558 1.004106283 1.149155855 0.939108491 0.873569548 1.036067963 0.876425982 0.648095608 0.943067312 0.999499440 0.944551706 0.810246050 1.290607929 0.627990186 0.704821348 0.885818660 1.224954009 0.762723565 0.661047101 0.746983409 1.175604224 0.280491561 0.916273057 0.688903749 0.631832778 1.034038663 0.782114029 0.880532026 0.207287043 1.041125298 0.896650970 0.455039918 1.138383031 0.542843044 1.216011047 0.737742126 0.840161204 1.067580700 1.264708281 1.158648610 0.606829584 1.136926532 1.129250646 0.616822839 0.721874952 0.400606483 0.971814334 1.225447416 0.496605098 0.980712593 1.049174547 0.787918985 1.114127517 1.216637850 1.116783857 0.997626305 1.011980176 0.918864906 0.840602160 1.119778752 1.121823192 0.479904473 0.631662548 0.603473067 1.046358824 0.525951445 0.612444878 1.151529431 0.824777484 0.413718879 0.247566402 1.065485239 0.004857704 0.680777311 1.017532706 1.045793772 0.918355286 0.924965620 0.748839736 0.687407076 1.000581980 0.367193639 1.334574819 1.077302694 0.669605136 0.756563604 1.073200345 0.952056289 1.314708829 1.004488826 0.747506082
aol 1.093780518 1.282468796 1.172014356 1.112570643 0.948340416 0.948850453 1.217713237 1.161592960 1.175301194 1.052345753 1.004462838 1.286535859 1.114551663 1.182705164 1.123647094 1.150892854 1.263626337 1.131066918 1.297979593 1.118366003 1.092848420 0.974311411 1.319836736 1.345347762 1.224387765 1.183304191 1.287504077 1.106967568 1.194360495 1.073455095 1.021923900 1.258051276 1.125900269 1.225335956 1.242521048 1.137478948 1.328003168 1.182641625 1.317365885 1.229885221 1.164781690 1.181381106 1.082165718 1.152536750 1.060587883 1.257955432 1.155487895 1.246517062 1.235984445 1.131129742 1.329870939 1.014079094 1.202644348 1.240024686 1.093007922 1.194845796 1.258358002 1.202207446 1.501734257 1.088201165 1.026799083 1.150896668 1.153094888 1.116783857 1.208080530 1.217143774 1.206839681 1.300506115 1.116609454 1.217295766 1.085559726 1.306322694 1.146490097 1.046358824 1.057766557 1.236923575 1.209557295 1.186023951 1.567257047 1.226933479 1.252084017 1.057992578 1.016507268 1.304274917 1.027287483 1.064603209 1.094360709 1.365766287 0.945870340 1.242252827 1.496124268 1.020463824 1.119825840 1.423282743 1.023504019 1.152104735 1.058806062 1.203866124 1.095580578 1.147716880
aom 0.540605545 0.770564497 0.059153426 0.906808853 0.111964539 0.703065634 0.589161098 0.185176939 0.810252011 0.225760400 1.004106283 0.538020194 0.394871801 0.150505185 0.699498177 0.412304729 0.621349633 0.720844030 0.999499440 0.944551706 0.876152635 0.347549647 1.319836736 1.269255996 0.524143219 0.924093246 0.807921469 0.591366351 0.150308385 0.316358536 -0.164326102 0.550345898 0.765371799 1.225335956 0.713956177 0.782114029 0.880532026 0.294352591 -0.126173332 0.741721272 0.718092918 1.181381106 0.179805815 -0.419116795 0.737742126 0.402452409 1.067580700 0.930307746 0.951848388 0.347682118 0.505593002 0.548493505 1.016775489 0.701929092 1.093007922 1.156947017 0.225794479 0.928501666 0.544929087 0.402128577 0.180301771 1.114127517 0.514688551 0.118994892 0.656558692 -0.016708232 0.082990497 0.150167644 1.103472710 0.811295271 0.603653669 0.631662548 0.277505010 0.098377198 0.614961743 0.612444878 0.581418753 0.652098060 0.026090231 0.314547420 0.513232470 0.406895131 0.138277531 -0.509505630 0.949736834 0.261688411 0.122451901 -0.124154605 0.642158508 -0.313263714 1.240323782 0.908541977 0.198885381 1.149334550 0.437759757 0.004975407 0.089515895 -0.334662676 0.657907248 0.747506082
aos 1.045734286 1.120870590 0.566068769 0.755179644 0.733553231 0.028797617 1.217713237 0.227597266 1.066273451 -0.088976227 0.873637855 1.096084118 0.587345481 0.873569548 1.167933345 0.399146974 0.598407805 0.345324636 0.899075568 -0.124878302 0.810246050 0.135219008 0.560088396 0.560341597 1.234221697 -0.073947318 1.004785180 0.579557061 0.497966498 -0.023830365 0.280491561 0.971856892 0.267077744 0.788350046 -0.033383917 0.947472930 0.769568443 0.215527311 0.981930554 0.896650970 0.524609745 -0.122135423 0.540865362 0.352029800 0.420957476 0.574417293 0.333367139 0.442518085 -0.504447162 0.681796610 0.291937321 0.169222072 0.616822839 0.598644853 0.717792392 0.493297875 -0.643763065 0.327572286 0.729840279 0.345772654 0.624906898 -0.174356073 0.893506646 1.116783857 0.997626305 1.205267668 0.398763239 0.594425440 0.510918081 0.684003055 0.809706867 0.802014351 1.247248411 1.046358824 0.209362283 0.748179555 0.072525315 0.292423248 -0.037992306 1.057641029 0.603273571 0.644530654 0.818933249 0.999453127 0.075428948 0.909681499 -0.170419455 0.703175128 -0.001730324 0.915461540 0.313877016 -0.055525798 1.077302694 0.862686157 0.664668798 0.882549942 0.147032782 0.355009258 0.798770905 -0.446562469
aoz 1.093780518 0.689746618 0.979440808 0.953987062 0.880522668 1.267389774 0.989367485 0.352584302 1.166217923 1.016337752 0.873637855 0.617811143 1.099801660 1.182705164 1.167933345 0.579762280 0.950054646 0.155446306 0.771225572 0.805087268 0.541564405 0.678914249 0.627477348 0.677549243 1.158430338 1.020159125 0.141737849 0.913715422 0.745380700 0.947841227 0.954840183 1.258051276 0.964987397 1.050148726 1.242521048 0.524278045 0.717491627 1.062258840 1.142505288 1.229885221 1.057628036 0.685316741 0.540865362 0.402519166 1.052473664 0.370436400 0.706513584 0.969476104 0.709490538 0.588184655 0.342693925 -0.072398357 0.701603830 0.838223994 0.717792392 0.934103966 0.673955739 1.177317142 0.900454879 0.462247610 0.624906898 0.710805595 0.925296783 1.049474478 0.869946778 1.238460422 0.969643176 0.670593977 1.046313524 0.775227010 1.134256959 1.306322694 0.993977845 0.630402505 0.920367837 1.236923575 0.713140607 0.295310944 0.696993947 1.335328937 0.603273571 0.471518934 0.818933249 1.191227317 1.006485343 1.064603209 0.839181542 0.817320824 1.170824766 0.584298730 0.831396341 0.790750086 0.477008313 1.194471598 0.801985979 0.882549942 1.141329765 0.845161676 1.014329314 0.483822107
apb 0.571469903 0.856690764 1.272209525 0.888759851 0.429751635 0.565809309 0.917402267 0.498321861 1.207636833 0.626216233 0.877925277 1.378755331 0.944163263 0.886201978 1.237712979 0.916097522 0.754719555 1.394592404 0.780650854 1.004074454 1.294442415 1.083427191 0.849504650 1.269255996 1.198934793 0.911599457 0.842255890 0.767870426 0.991860867 0.917242408 0.813573718 1.028538108 1.044045091 0.848446429 1.275026679 0.671080530 0.946875513 0.415797740 1.095261335 0.954764962 0.671146512 0.379601985 1.270931721 0.762854397 0.995927751 1.286886811 0.929692507 0.930307746 0.951848388 1.026099682 1.092224240 0.799341023 1.016775489 0.979403555 1.103553295 1.136448026 0.925005615 0.928501666 0.706592262 0.619770348 1.056574464 0.597371101 0.795527279 0.789218128 0.648280263 1.128703833 1.206839681 1.143981338 0.299124032 1.240891576 0.762786269 0.745665371 1.272432327 0.987880886 0.924310386 0.839918494 0.912904322 1.084790349 0.766142607 0.809085369 0.960260034 0.895789802 0.917591989 0.897444844 0.888145804 0.563379288 0.933227003 1.150203466 0.929660082 1.326328874 1.372726560 0.908541977 0.794426739 1.149334550 0.936001360 1.002636790 1.158989668 0.967078686 0.457153022 0.747058630
ape 0.076451503 -0.897662759 -0.386028320 -0.427952170 0.880522668 0.567918003 0.352864474 -0.121978775 -0.276392698 0.829182684 -0.120450340 -0.342146426 0.024641961 1.182705164 0.858497739 0.495314360 0.348190755 -0.207951486 0.064567253 0.368109435 -0.377651036 0.678914249 -0.152377397 -0.042376969 -0.798780560 -0.693524063 -0.376452476 -0.746072471 0.745380700 -0.516300797 0.954840183 0.509208679 0.020954354 -1.126473427 1.242521048 -0.559813857 -0.244996428 0.672017038 -1.218602538 1.229885221 -0.026005700 -0.801403165 -0.316373974 0.141490325 -0.430560559 0.370436400 -0.372062653 0.413569599 0.709490538 -0.636697471 -0.280218393 -0.072398357 0.452748120 -1.155379057 -1.131044388 0.934103966 -0.613062739 1.177317142 0.001178890 -0.263509542 -1.070870399 -0.363039166 -0.551539242 1.049474478 0.070632704 -0.342399031 -0.376423985 -0.465605378 -0.523082256 -0.165831044 0.871626556 0.928292692 0.993977845 -0.343491971 0.644950926 1.236923575 -0.473367423 -1.055718422 0.193185553 -1.117582440 0.370484412 -0.224612102 -0.413764685 1.025090456 1.006485343 -0.503723383 -0.905519843 -0.630935371 -0.976830602 -0.621940553 -1.105099440 0.450534582 -0.098091893 0.052779336 -0.270338178 -0.184633434 -0.481661618 -0.152859554 0.595710278 0.483822107
apt -0.625016689 0.292575836 1.172014356 0.178893447 -0.761237860 -0.365206033 -0.509082317 -0.399550885 0.770426154 0.279654205 0.465538144 -1.058674335 0.633545101 0.312082976 0.159831241 -0.353817075 -0.459900171 -0.355325639 0.069385983 -0.550789475 0.204023033 -0.066744737 -0.708113194 -0.595456898 -0.564743221 -0.669527888 0.409675241 -0.898629427 0.302865684 -0.817852378 0.622622371 -0.198210791 -1.200634003 0.515597939 -0.572889090 -0.025620610 0.192648470 -0.709898889 -0.421481878 0.329668671 1.049253225 -0.774610937 0.194526717 -1.158950686 1.060587883 -0.957805514 -0.769491076 -0.640471220 0.950569093 0.668139338 -0.773775697 -0.291418403 0.278130472 -0.450037450 -0.903234959 -0.991094172 0.279023767 1.127062559 0.759449720 -0.998669088 0.169566423 -0.853300273 -0.437996835 -0.603156686 0.716602325 -0.897036076 -0.218323946 0.159846246 -0.127144188 -0.335321933 -0.628441334 -0.592403889 -0.129997835 -0.493904889 -0.543378592 -0.630651593 0.300586671 -0.889294207 -0.718635082 -0.279940605 0.676888525 0.754649520 -0.243864164 -0.490944743 -0.719671011 -0.238488093 -0.680000663 0.287414253 0.600131094 0.384386003 -0.480369449 0.816892147 -0.531675994 0.683103859 -0.945741415 0.455617934 1.058806062 0.220045805 0.643831074 0.500295639
apx 0.895682216 1.023791790 0.979440808 0.390160680 1.105713844 0.387538970 0.700293005 0.471978337 0.982649028 -0.712202132 0.289536983 0.617811143 0.629559398 -0.276349366 1.123647094 0.579762280 0.054914683 0.867034197 1.253762841 0.086533144 0.262050778 0.480947226 0.627477348 1.002781034 1.158430338 1.183304191 0.310963362 0.550958097 0.168298632 1.027111173 -0.008445405 0.597707450 0.893880427 0.217527524 1.197181106 0.524278045 1.328003168 1.062258840 0.224563062 1.085677147 0.281088322 0.742794096 0.875743985 0.122447930 0.444387674 -0.116167113 0.706513584 1.120140553 0.930703461 0.588184655 0.207766294 0.491925150 0.629297435 1.059382915 0.773224235 0.460955113 0.523187399 0.890298307 0.600002825 0.666872621 0.192495078 0.510295630 0.608230710 0.770884037 0.763758183 1.238460422 0.375033855 0.147964820 0.854143262 0.513650179 1.134256959 0.723796189 0.748440206 0.713566124 0.940586388 0.237014398 1.209557295 0.397159129 0.052636374 1.335328937 0.655800641 0.803768575 0.289566189 1.148237109 -0.120240770 0.270982772 1.042278528 1.365766287 1.170824766 0.584298730 0.289114326 0.790750086 0.830777407 0.975360990 0.743759096 0.219488770 0.383347154 0.758115172 1.014329314 0.206969082
apz -0.175180212 -0.332282662 0.223338962 -0.137023181 -0.114310488 0.739761233 0.791870952 0.181221262 0.525112748 -0.282093078 0.456816137 0.730092585 -0.971204400 0.671590328 0.258389026 0.090315312 -0.078909382 -0.385172576 0.607834280 1.004074454 -0.098023169 -0.045559298 0.529322982 0.361610591 -1.013906598 1.002664208 -0.373418868 0.913715422 0.433196157 0.947841227 0.314761430 0.324036717 1.044045091 1.050148726 0.123422079 0.097568177 0.855696380 0.695139706 1.142505288 0.226756483 0.786795437 -0.116304345 0.129908308 0.402519166 0.558372557 1.286886811 0.568005979 0.438092679 0.306500614 -0.545442522 0.342693925 -0.503355920 -0.360623181 -0.169174448 1.103553295 1.136448026 0.673955739 -0.371376485 0.706592262 0.617003620 -0.539278090 0.710805595 0.748689413 0.919054270 0.648280263 1.128703833 0.969643176 0.897250295 0.394724399 0.775227010 -0.155762330 0.237994015 1.272432327 0.142280668 0.920367837 0.839918494 0.285513490 -0.334970564 -0.473631233 0.794644833 0.282659709 0.548337162 -0.680598676 0.833080471 0.097335227 1.064603209 0.552399874 0.817320824 0.738559544 0.759186685 0.375743240 -0.364179105 -0.393824875 0.488462090 0.907493174 1.002636790 1.158989668 0.845161676 -0.070972085 -0.698456705
aqc 1.308970571 1.294612169 1.259593725 1.368340015 1.193260550 1.270545125 1.217713237 1.303789735 1.275947213 1.250930905 1.326991320 1.286535859 1.198486209 1.247773886 1.241481066 1.219760537 1.193613291 1.449072123 1.361864448 1.200391412 1.294442415 1.311348915 1.319185019 1.391830325 1.166222572 1.183304191 1.355812192 1.498325944 1.194360495 1.186714172 1.152702451 1.258051276 1.464586496 1.344113111 1.175066829 1.226217628 1.324926257 1.221648812 1.339149714 1.270470381 1.357676268 1.285821676 1.359975696 1.207779646 1.275237203 1.286886811 1.435934424 1.266181111 1.429282546 1.427514076 1.167003393 1.129250646 1.340956807 1.240024686 1.253504753 1.194845796 1.349470854 1.284943342 1.172138929 1.237882853 1.243171811 1.220921040 1.356639504 1.119425535 1.356533766 1.287922382 1.313290715 1.300506115 1.492645025 1.341285825 1.197523236 1.306322694 1.272432327 1.198603511 1.194058180 1.508427739 1.175955415 1.308717370 1.360988259 1.335328937 1.187120199 1.104518175 1.079182148 1.305036545 1.273992777 1.156455994 1.422602415 1.442713261 1.170824766 1.326328874 1.372726560 1.423029184 1.267964482 1.322480440 1.161007285 1.112103701 1.179803252 1.314708829 1.242338300 1.362756968
aqm 0.320855111 1.120870590 0.566068769 0.752348185 0.733553231 0.028797617 1.217713237 0.227597266 1.066273451 0.360008746 0.873637855 0.306683898 0.587345481 0.873569548 1.167933345 0.399146974 0.468834877 0.345324636 0.899075568 0.292638719 0.810246050 0.405929327 0.695479274 -0.623196363 0.909514964 0.515875995 0.905589402 0.081264384 0.497966498 0.871830404 0.280491561 0.175201595 0.478472084 0.272749484 0.473778844 0.331127226 0.769568443 0.834835589 0.981930554 0.896650970 0.524609745 0.667305589 0.540865362 0.170264766 0.831358969 0.574417293 0.333367139 0.053896237 -0.322958648 0.450208515 0.004230491 0.169222072 0.616822839 0.106044516 0.717792392 0.073090330 -0.177586049 0.327572286 0.421261489 0.345772654 0.624906898 -0.174356073 1.005310297 1.116783857 0.997626305 1.205267668 0.453849912 0.757018626 1.023365974 0.684003055 -0.433510929 0.802014351 0.645509720 1.046358824 -0.223729178 0.465384543 0.072525315 0.246621326 -0.037992306 0.175340489 0.603273571 0.604381263 0.818933249 0.999453127 -0.694948137 0.909681499 0.729101956 0.905454040 -0.333772331 0.439948648 0.073176444 0.429755926 1.077302694 0.603740752 0.434970737 1.013249636 0.476405740 1.066990972 0.798770905 0.794946015
arb 1.078802109 1.244328976 1.110760331 0.999197066 1.193260550 1.128955483 1.069098830 1.095074415 1.156311750 1.213472724 0.862192094 1.067263961 0.848407388 1.157769322 1.237995863 0.930525720 1.064554930 1.219249725 1.175538182 1.121525526 0.953194797 1.389841318 0.939713299 1.345347762 1.161414504 1.020675182 1.110790730 1.194820404 1.132481456 1.175604224 1.015624046 1.186877251 1.464586496 1.253089786 0.959831417 1.026340008 1.118679285 1.116503716 1.041125298 1.111594915 1.357676268 0.888116181 1.095274210 1.035583019 1.302742124 1.257955432 1.310968637 1.125633597 1.235984445 1.099028349 1.329870939 1.118872762 0.964043260 1.240024686 1.142963290 1.348762512 1.258358002 1.202207446 0.973674238 1.293428183 1.145253658 0.958353400 1.098672867 1.032170534 1.112394094 1.217143774 0.807230532 1.300506115 1.492645025 1.109484792 1.100218296 1.059291720 0.984211445 1.198603511 1.058234215 1.104008317 1.046906948 1.083216906 0.973097324 1.086521983 1.124712586 1.026196122 0.993499041 1.304274917 0.819836438 0.909063578 1.010454178 1.083603621 1.240652680 1.091225505 1.090961933 1.334574819 1.044207931 1.222635984 1.207460165 1.193282843 1.311567426 1.314708829 1.272117615 1.362756968
ard 0.748765767 0.786819279 0.882707596 0.809671164 0.551222265 0.686962724 0.729917943 0.752231598 1.001854062 1.086911321 0.664787114 1.041523695 0.769017458 0.870172083 0.887596965 0.639136851 0.484286606 0.978212416 0.722767889 0.534422100 1.023089051 0.631088257 1.006545782 0.751017094 1.015193582 1.087143779 1.197875261 0.910041690 1.153744936 1.490406632 0.992700040 0.974153519 1.043746948 1.344113111 0.899575830 0.326079845 0.318062186 1.182641625 0.792421877 0.512054563 0.899294078 0.844278455 0.559495986 0.272363484 0.599655330 0.584164262 1.155487895 1.098616958 1.235984445 1.099028349 1.178687215 0.653446555 1.117416024 1.240024686 0.728505194 0.610940933 1.178514123 1.202207446 1.297858238 1.088201165 0.771449983 0.804379761 1.141698599 0.752993226 0.739465952 0.602390885 -0.128484666 0.749320269 0.849285603 1.179597259 0.583664596 0.678080976 0.673278272 0.670067906 0.676176548 1.001284480 0.944531798 1.044981003 1.383567333 0.808014750 0.676806271 0.951159835 1.016800404 0.842915118 1.087423205 1.097275972 0.876470804 1.153600574 1.036794782 0.847092330 1.014628887 0.240231141 0.884696245 0.995658755 0.914795220 1.097481728 0.892904520 0.431059599 0.642663419 0.802206218
are 0.748765767 0.289050281 0.438262612 -0.089844085 0.095977046 0.823725462 0.729917943 1.057058573 1.001854062 0.950041294 0.477300018 1.041523695 0.860579014 0.956996858 0.063579135 0.801115036 0.754493058 0.978212416 0.542151093 0.805283129 0.886300087 1.158789873 0.406485558 0.751017094 0.893046319 0.441169858 1.355812192 0.741547227 1.153744936 1.073455095 0.713406801 0.974153519 1.043746948 1.008613586 0.645040333 0.583667874 0.423619896 0.347843945 0.724893451 0.512054563 0.491006345 -0.084883057 0.363889486 0.065608598 0.497353166 0.500420570 1.155487895 1.098616958 1.235984445 1.157249093 1.029953718 -0.216854870 0.778394222 1.240024686 0.851880312 0.610940933 0.858612180 1.202207446 0.678034544 1.088201165 -0.091505677 0.417838961 1.141698599 0.752993226 0.464338839 0.602390885 -0.229362532 0.749320269 0.849285603 0.773797870 0.583664596 0.209710360 -0.069519781 0.357590526 0.739146292 1.001284480 0.627086401 1.044981003 1.383567333 0.761800528 0.477599472 0.403851628 0.926480114 0.323406577 0.745237887 0.909063578 0.013776288 0.554150999 0.434955806 0.428217202 0.523889184 0.685144305 0.968428731 0.995658755 0.914795220 1.071451545 0.303410321 1.163638115 1.225053906 -0.444976926
arh 1.167966723 1.096466780 0.979440808 1.211248159 0.788417041 1.076450586 1.158003449 1.212407231 1.156311750 1.105848670 1.215308189 1.339521527 1.071407080 1.247773886 1.169007659 0.886500657 1.001674414 1.025679469 1.197733641 1.186129451 1.294442415 0.962978065 1.319836736 1.269255996 1.158430338 1.118326664 1.355812192 1.079863787 0.964897990 1.115688205 0.867011189 1.042901039 0.964910209 1.225335956 1.093800426 0.941128075 1.287488222 1.062258840 0.962431312 0.935858488 0.880910039 1.245608926 0.569590628 0.945218384 0.927447319 1.053000212 1.435934424 1.008184671 0.951848388 1.157249093 1.029953718 1.042932391 1.062458277 1.329712272 1.093007922 1.175524950 1.170371175 1.289402843 1.073150277 1.052411437 1.218533754 0.597371101 0.815143108 0.821410477 1.208080530 1.238460422 1.259049296 1.211395264 0.941400588 0.948090434 1.134256959 0.939576209 1.027201772 0.987880886 0.811468601 1.039938211 0.783736825 1.196484208 0.662488043 1.335328937 0.996661901 0.927306592 0.920307219 1.082104206 1.088337302 0.944211781 1.260300636 1.150203466 1.170824766 1.326328874 1.240323782 1.222851157 0.791484594 1.200238228 1.190930009 0.828844965 0.960734606 1.175652742 1.225053906 0.866556823
arm 0.912754774 1.027476311 1.114274144 0.544522047 0.437912554 0.603306592 0.639570951 1.016035676 1.145179987 -0.082404613 1.065782309 0.526140571 -0.094013013 0.646046817 0.907423794 0.787018776 0.956014991 0.943067312 0.764519215 0.377728730 -0.370597541 1.290607929 0.517581463 0.587807000 0.263296932 1.224954009 0.296326816 0.888621986 0.782664061 0.075825922 1.048328280 0.781228423 0.074698821 0.507084131 1.034038663 0.315369993 0.654457331 -0.307082355 0.666871607 0.781225562 0.455039918 1.138383031 0.532668710 1.205583453 0.116813697 1.093059540 0.315836310 0.741201699 0.672840655 0.771646559 0.831040859 1.154965878 0.834406614 0.843132019 0.752230942 0.731936336 0.229107603 0.920733869 1.039239645 0.625314534 0.787918985 0.912658572 0.912533343 0.943980396 0.688509643 0.281132877 0.476822197 0.688862622 1.019661188 1.121823192 0.994734883 0.508045793 0.889129937 0.131363750 0.574012697 0.764591694 0.492713660 1.022969246 0.670383036 0.491850317 0.929626763 1.056680441 0.362091184 0.245920464 0.559496462 0.913565695 0.600338101 1.165311456 0.479692996 -0.309645087 0.615982592 0.751592040 0.683449328 0.478948951 1.000112891 0.545749009 0.433129787 0.609432161 -0.307900518 0.929042518
arn 1.308970571 1.294612169 1.259593725 1.296499133 1.271290541 1.270545125 1.268646598 1.212407231 1.200663328 1.412488222 1.326991320 1.339521527 1.163928866 1.247773886 1.257959008 1.155488968 1.222189546 1.449072123 1.352709770 1.186129451 1.294442415 1.311348915 1.319836736 1.391830325 1.271344066 1.183304191 1.355812192 1.194820404 1.166116118 1.186714172 1.303197980 1.271840334 1.464586496 1.342420697 1.242521048 1.177632570 1.324926257 1.232820392 1.339149714 1.270470381 1.357676268 1.345904827 1.293265700 1.157255054 1.245167017 1.286886811 1.435934424 1.266181111 1.346282482 1.427514076 1.329870939 1.129250646 1.380583167 1.329712272 1.234996796 1.257793188 1.349470854 1.362212539 1.317101240 1.284766793 1.141279697 1.297420382 1.309905767 1.227158666 1.282636166 1.287922382 1.294553876 1.265488744 1.174640417 1.326640606 1.102460265 1.224848986 1.272432327 1.198603511 1.343934059 1.322238564 1.301314831 1.196484208 1.567257047 1.260500908 1.257602215 1.163454533 1.259371877 1.315120697 1.287227273 1.170937181 1.260300636 1.206665158 1.260781646 1.326328874 1.323844552 1.334574819 1.267964482 1.423282743 1.289098144 1.152104735 1.311567426 1.314708829 1.235663414 1.214226246
aro 1.173551083 1.120870590 1.272209525 1.184782863 1.271290541 1.142744780 1.217713237 1.303789735 1.207636833 1.412488222 1.259453773 1.339521527 1.091120601 1.329343796 1.105242372 1.116313696 1.222189546 1.449072123 1.214346170 1.121525526 1.184683681 1.311348915 1.318420887 1.391830325 1.113220096 1.193814039 1.355812192 1.117959857 1.166116118 1.186714172 1.303197980 1.258051276 1.464586496 1.344113111 1.164851665 1.182027817 1.324926257 1.221648812 1.303303719 1.270470381 1.357676268 1.245608926 1.256251454 1.152536750 1.275237203 1.286886811 1.083955050 1.312478065 1.158648610 1.181334376 1.260368228 1.129250646 1.380583167 1.329712272 1.339494228 1.194845796 1.290023088 1.289402843 1.317101240 1.112726331 1.243171811 1.115855694 1.356639504 1.171650767 1.356533766 1.252679586 1.294553876 1.211395264 1.381073952 1.240891576 1.085559726 1.168585896 1.272432327 1.198603511 1.343934059 1.262253404 1.278841734 1.196484208 1.567257047 0.991880655 1.187120199 1.163454533 1.216260552 1.315120697 1.278114796 1.115805030 1.260300636 1.144651532 1.105344296 1.242252827 1.170727730 1.423029184 1.252363563 1.423282743 1.144310594 1.072744012 1.158989668 1.175652742 1.225053906 1.150421977
arr 0.514527619 -0.083859250 0.003267200 0.809793413 -0.100601576 -0.155677140 -0.390351444 0.335424900 -0.737881720 0.523117185 0.832644463 -0.327989757 1.071407080 1.247773886 0.765572548 0.351019323 1.172555923 1.173886538 1.041111112 1.186129451 0.862397134 0.668694913 0.849504650 0.750307024 0.828136563 0.492341816 0.472308397 1.079863787 0.991860867 0.112226471 0.559445143 -0.023292666 0.752367914 0.211672679 -0.158167601 -0.271194935 0.200380728 0.140131891 0.863946199 0.269269824 0.835438013 -0.166908160 0.631960154 0.945218384 0.629384577 0.223414660 1.435934424 0.756017029 -0.040721834 -0.230300024 -0.374336660 0.664741993 0.801770210 0.694757640 0.464798391 1.017115593 0.637342930 0.453041553 0.884466708 -0.156660929 0.730247259 0.223750204 0.563269734 0.696112335 0.528797984 -0.359628379 0.408646226 0.836760461 0.420596659 0.610002160 0.627463818 0.270143509 0.517262638 0.675505877 0.335189492 -0.105841018 0.500190020 0.923370838 0.133912444 0.787033081 0.960260034 0.672007561 0.917591989 0.548788726 0.360827148 0.944211781 0.933227003 0.771049201 0.351844460 0.623153150 0.673890352 1.026663184 0.794426739 0.328632444 0.470155478 -0.090471350 0.486484021 -0.265361249 -0.105594791 0.631303608
arx 0.432211399 0.296630830 0.137671694 1.053335309 -0.121935941 -0.198228493 -0.168718308 0.439784110 -0.529484987 0.688904405 0.366001129 0.729184508 0.296913773 0.537930071 0.344948888 0.129837021 0.240907997 0.158106536 0.774784267 1.095829606 0.063831925 0.888061404 0.382120550 -0.687757254 0.227015659 0.712352693 0.420768261 -0.093257114 0.727843463 0.665900350 0.473638684 1.116117716 -0.354264766 0.925270557 0.947094321 0.809628487 0.769463420 0.805278122 -0.279076248 -0.199574307 0.252794892 0.182630569 -0.185566917 -0.715954185 0.192291513 0.599997520 1.101281643 -0.189487085 -0.153700039 1.131129742 0.466919571 0.870494306 0.972612798 0.510896981 0.573957205 0.097393036 0.358035117 0.264290094 1.003834248 -0.621577859 -1.161760211 -0.000111682 0.406198442 1.019663334 0.097925901 -0.254141629 0.979452074 0.370803893 -0.534613848 0.494840384 0.608045340 0.606497765 0.842213273 0.096700683 -0.591193259 -0.589319229 0.833653271 0.928743184 1.086336017 0.959008694 0.608097315 0.255487859 0.488746792 0.291652352 -0.578126490 0.524747491 0.545085907 0.987073839 0.236629501 0.639321804 1.496124268 0.572495103 0.282043397 1.008584857 0.094728723 0.027241152 0.743529081 0.842101991 0.530829608 0.797830641
asa 1.167966723 0.551233292 0.480351418 0.809793413 0.788417041 1.055775404 0.528354049 1.194214821 0.822414875 1.168064713 1.058392525 0.662965834 1.054743409 0.802314818 0.545239687 0.916097522 1.172555923 1.173886538 1.041111112 0.805087268 0.912245750 1.083427191 0.731700122 0.833940268 1.106571317 1.002664208 0.766879141 0.913715422 0.964897990 0.947841227 0.813573718 1.028538108 0.964987397 1.050148726 1.093800426 0.872184873 0.973986864 0.695139706 1.142505288 0.772414804 0.786795437 0.873762727 0.488449454 0.627944469 1.074512482 0.223414660 0.786905885 0.800289571 -0.398800552 1.026099682 0.926427066 1.016466498 1.071360469 0.979403555 0.354530275 0.742059052 0.673955739 1.046816826 0.884466708 0.342362821 1.056574464 0.710805595 1.117163181 0.919054270 0.799037874 1.083688378 0.969643176 1.211395264 0.420596659 0.775227010 1.010355830 0.641970277 0.788256347 0.738083720 0.920367837 1.039938211 0.549320638 0.620817602 -0.178805590 0.690441012 0.914610088 0.672007561 0.581066787 0.833080471 0.287341923 1.064603209 0.552399874 0.817320824 0.644471884 1.148967743 1.135100842 0.443307698 0.362977356 0.843463123 0.725669444 0.944291592 0.944923103 0.967078686 0.273678869 0.933478177
asc 0.268747896 0.921752155 0.763277531 0.820438743 0.244377092 0.423645705 -0.810340047 -0.297663659 0.929862261 1.086911321 0.195533186 0.647257745 -0.664500177 -0.147144571 0.282208651 0.433589756 1.117084742 0.946560681 0.388270080 0.974773884 0.185235575 1.311348915 1.154743671 1.391830325 0.276099592 -0.096959829 1.197875261 -0.055891547 0.453812927 -0.666003466 0.687500179 0.889352322 -0.389517426 1.344113111 0.761231661 0.044561598 1.324926257 -0.613243580 0.792421877 0.550667465 1.110396147 0.186322495 0.280860841 -0.615759671 -0.029501788 0.881313622 1.083955050 0.902533770 0.737658441 0.791623771 0.592760503 0.131461650 0.399997354 -0.117522456 0.443148315 1.151423097 -0.543731391 0.478721619 0.227944821 0.069072641 0.733699560 0.105150633 0.848117352 0.439421415 0.977120996 0.383549482 0.087227777 0.291071117 -0.364818901 0.416750997 0.249294639 0.650053918 0.575750411 -0.204413205 0.676176548 -0.140123457 -0.311572254 0.950038612 -0.213183522 -0.453651667 -0.017205369 0.378690779 0.354389846 0.168285221 -0.156896606 1.097275972 0.876470804 0.520423710 1.036794782 0.424517959 -0.075325653 0.356915563 0.420985073 0.159184501 0.627759933 0.856810451 0.892904520 0.478574902 0.461446524 -0.321375221
asd 1.028756857 1.023791790 0.870137036 0.608101070 1.105713844 0.931343675 0.595431089 0.928501308 0.687390089 0.692516506 0.846524477 1.286535859 1.163928866 0.691075265 1.123647094 0.886500657 0.778943598 1.025679469 1.048834085 0.727011859 0.953194797 0.923135281 0.589735270 1.082184434 1.201670766 1.225722671 0.876033247 0.440814883 0.976810992 1.027111173 0.894807458 0.659187555 0.972773612 0.909319818 1.197181106 0.901047289 1.328003168 1.005807757 0.882233083 1.103643179 0.931259871 0.426200300 1.260731697 0.927790582 0.744899809 0.637348890 1.176750898 1.125633597 1.180109620 1.020919085 0.950177491 1.118872762 0.966300309 0.830655038 0.991501391 0.994157732 0.627121985 1.065409660 0.600002825 1.293428183 0.757097960 0.594935060 0.643585205 1.067605019 1.208080530 0.745912194 0.974664748 0.629566133 0.624700963 0.692657173 1.085559726 0.723796189 0.958939791 1.024255037 0.722996175 0.858557522 1.209557295 0.828588545 0.682329297 1.086521983 0.996661901 0.803768575 0.336356640 1.148237109 0.451084316 1.183273554 0.744301140 1.365766287 0.930543244 0.991458535 0.500543058 0.697429955 0.957455516 0.975360990 0.651562214 0.566192448 0.989003599 0.839765549 0.403604746 0.866556823
ask 0.895682216 0.493790478 0.731335700 -0.930669725 -0.913033009 0.213858560 -0.952117264 -0.814683914 -0.494035989 -0.712202132 -0.422793061 0.002521555 0.629559398 -0.567620099 1.123647094 -0.585209012 -0.547090769 -1.141082525 -0.220522508 0.086533144 0.245160788 0.364029467 -0.055758025 1.002781034 0.674874544 -0.095848091 -1.202159405 -0.551478326 -0.807828307 -0.189908937 -0.327062458 -0.196961179 -0.929646015 -0.714965463 1.197181106 -0.712554991 1.328003168 -0.207354859 -0.437124252 1.085677147 0.281088322 -0.476753384 0.456528395 -0.138822734 0.346335441 -0.116167113 0.657705843 -0.193665296 0.930703461 -1.084496379 -0.232417732 -0.684847534 0.446163625 -0.345747024 0.773224235 0.017308656 0.523187399 0.890298307 0.600002825 -1.232746243 -0.349906951 0.439370155 -0.634680629 0.770884037 -0.956244111 -0.591496110 0.100087218 0.147964820 0.373910278 0.513650179 -1.024010777 -0.509401441 0.748440206 -0.317323148 -0.488936186 0.031499811 1.209557295 0.397159129 0.052636374 0.437382698 0.456094623 -0.969152808 -0.659379482 -0.448961526 -0.713642299 0.007360576 -0.245849296 1.365766287 0.768622041 0.160651952 0.289114326 -0.239562392 0.491399080 0.262105197 -0.126584485 0.219488770 0.314687163 -0.821560383 -1.228346944 -0.166283026
